,,.,A1_1,A1_2,A1_3,B1_1,B1_2,B1_3,A2_1,A2_2,A2_3,B2_1,B2_2,B2_3,y1,y2,y3
0,.,1.0,-0.328,-0.139,0.156,-0.299,0.098,-0.39,-0.482,0.515,0.421,-0.459,0.337,-0.268,0.026,-0.814,-0.225
0,A1_1,-0.328,1.0,-0.482,0.275,-0.268,0.13,0.516,-0.41,-0.389,0.043,-0.196,-0.341,0.107,0.061,0.262,-0.224
0,A1_2,-0.139,-0.482,1.0,-0.25,-0.115,-0.061,-0.187,0.553,-0.113,-0.165,0.257,0.153,-0.037,-0.581,0.36,-0.238
0,A1_3,0.156,0.275,-0.25,1.0,0.271,-0.026,0.308,0.074,0.18,0.015,-0.527,0.335,0.318,-0.557,-0.048,-0.243
0,B1_1,-0.299,-0.268,-0.115,0.271,1.0,-0.173,-0.239,0.502,0.164,-0.608,0.186,0.024,0.475,0.117,-0.015,0.521
0,B1_2,0.098,0.13,-0.061,-0.026,-0.173,1.0,0.423,-0.23,-0.34,-0.378,0.073,-0.264,0.392,-0.134,-0.153,-0.449
0,B1_3,-0.39,0.516,-0.187,0.308,-0.239,0.423,1.0,0.022,-0.625,-0.14,-0.19,-0.297,0.014,-0.37,0.345,-0.544
0,A2_1,-0.482,-0.41,0.553,0.074,0.502,-0.23,0.022,1.0,-0.02,-0.403,0.537,0.199,0.278,-0.434,0.46,0.267
0,A2_2,0.515,-0.389,-0.113,0.18,0.164,-0.34,-0.625,-0.02,1.0,0.415,0.029,0.865,0.035,0.062,-0.205,0.497
0,A2_3,0.421,0.043,-0.165,0.015,-0.608,-0.378,-0.14,-0.403,0.415,1.0,-0.21,0.405,-0.314,0.036,-0.032,0.088
0,B2_1,-0.459,-0.196,0.257,-0.527,0.186,0.073,-0.19,0.537,0.029,-0.21,1.0,0.005,0.417,0.197,0.409,0.609
0,B2_2,0.337,-0.341,0.153,0.335,0.024,-0.264,-0.297,0.199,0.865,0.405,0.005,1.0,0.045,-0.385,0.136,0.228
0,B2_3,-0.268,0.107,-0.037,0.318,0.475,0.392,0.014,0.278,0.035,-0.314,0.417,0.045,1.0,-0.186,0.235,0.306
0,y1,0.026,0.061,-0.581,-0.557,0.117,-0.134,-0.37,-0.434,0.062,0.036,0.197,-0.385,-0.186,1.0,-0.366,0.548
0,y2,-0.814,0.262,0.36,-0.048,-0.015,-0.153,0.345,0.46,-0.205,-0.032,0.409,0.136,0.235,-0.366,1.0,0.129
0,y3,-0.225,-0.224,-0.238,-0.243,0.521,-0.449,-0.544,0.267,0.497,0.088,0.609,0.228,0.306,0.548,0.129,1.0
500,.,1.0,-0.346,-0.384,-0.397,-0.245,0.037,-0.352,-0.771,-0.267,-0.334,-0.342,-0.183,-0.087,0.142,0.044,0.118
500,A1_1,-0.346,1.0,-0.065,0.47,-0.303,-0.121,0.436,0.246,0.005,0.467,-0.105,-0.08,-0.078,-0.272,0.001,-0.167
500,A1_2,-0.384,-0.065,1.0,0.1,-0.269,-0.217,-0.073,0.797,0.398,0.499,0.228,0.319,-0.333,-0.421,-0.019,-0.434
500,A1_3,-0.397,0.47,0.1,1.0,0.241,0.051,0.433,0.393,0.329,0.445,-0.297,0.557,0.183,-0.701,-0.44,-0.373
500,B1_1,-0.245,-0.303,-0.269,0.241,1.0,0.149,0.002,0.115,0.068,-0.494,0.307,0.362,0.642,0.21,0.034,0.351
500,B1_2,0.037,-0.121,-0.217,0.051,0.149,1.0,0.517,-0.193,-0.177,-0.375,0.189,0.298,0.534,-0.181,0.119,-0.435
500,B1_3,-0.352,0.436,-0.073,0.433,0.002,0.517,1.0,0.165,-0.426,-0.138,-0.051,0.061,0.135,-0.592,0.163,-0.597
500,A2_1,-0.771,0.246,0.797,0.393,0.115,-0.193,0.165,1.0,0.479,0.48,0.437,0.471,-0.061,-0.39,-0.003,-0.263
500,A2_2,-0.267,0.005,0.398,0.329,0.068,-0.177,-0.426,0.479,1.0,0.674,0.188,0.725,-0.071,-0.151,-0.584,0.045
500,A2_3,-0.334,0.467,0.499,0.445,-0.494,-0.375,-0.138,0.48,0.674,1.0,-0.115,0.293,-0.352,-0.388,-0.424,-0.167
500,B2_1,-0.342,-0.105,0.228,-0.297,0.307,0.189,-0.051,0.437,0.188,-0.115,1.0,0.265,0.49,0.331,0.603,0.348
500,B2_2,-0.183,-0.08,0.319,0.557,0.362,0.298,0.061,0.471,0.725,0.293,0.265,1.0,0.292,-0.51,-0.373,-0.263
500,B2_3,-0.087,-0.078,-0.333,0.183,0.642,0.534,0.135,-0.061,-0.071,-0.352,0.49,0.292,1.0,0.219,0.427,0.299
500,y1,0.142,-0.272,-0.421,-0.701,0.21,-0.181,-0.592,-0.39,-0.151,-0.388,0.331,-0.51,0.219,1.0,0.334,0.807
500,y2,0.044,0.001,-0.019,-0.44,0.034,0.119,0.163,-0.003,-0.584,-0.424,0.603,-0.373,0.427,0.334,1.0,0.288
500,y3,0.118,-0.167,-0.434,-0.373,0.351,-0.435,-0.597,-0.263,0.045,-0.167,0.348,-0.263,0.299,0.807,0.288,1.0
1000,.,1.0,-0.403,-0.459,-0.453,-0.154,0.078,-0.177,-0.71,-0.342,-0.428,-0.313,-0.098,-0.049,0.047,0.064,0.115
1000,A1_1,-0.403,1.0,0.333,0.741,-0.373,-0.243,0.297,0.583,0.385,0.718,-0.091,-0.014,-0.222,-0.432,-0.32,-0.414
1000,A1_2,-0.459,0.333,1.0,0.429,-0.357,-0.278,-0.095,0.878,0.64,0.684,0.133,0.249,-0.413,-0.643,-0.613,-0.617
1000,A1_3,-0.453,0.741,0.429,1.0,-0.079,-0.081,0.273,0.638,0.575,0.782,-0.288,0.402,-0.087,-0.639,-0.597,-0.605
1000,B1_1,-0.154,-0.373,-0.357,-0.079,1.0,0.304,0.081,-0.102,-0.133,-0.494,0.386,0.477,0.678,0.498,0.49,0.545
1000,B1_2,0.078,-0.243,-0.278,-0.081,0.304,1.0,0.626,-0.224,-0.286,-0.375,0.271,0.443,0.607,-0.029,0.135,-0.087
1000,B1_3,-0.177,0.297,-0.095,0.273,0.081,0.626,1.0,0.092,-0.387,-0.097,0.018,0.205,0.189,-0.36,-0.012,-0.385
1000,A2_1,-0.71,0.583,0.878,0.638,-0.102,-0.224,0.092,1.0,0.691,0.739,0.289,0.388,-0.207,-0.526,-0.481,-0.507
1000,A2_2,-0.342,0.385,0.64,0.575,-0.133,-0.286,-0.387,0.691,1.0,0.8,0.116,0.511,-0.225,-0.402,-0.662,-0.412
1000,A2_3,-0.428,0.718,0.684,0.782,-0.494,-0.375,-0.097,0.739,0.8,1.0,-0.142,0.218,-0.387,-0.64,-0.725,-0.656
1000,B2_1,-0.313,-0.091,0.133,-0.288,0.386,0.271,0.018,0.289,0.116,-0.142,1.0,0.366,0.538,0.396,0.447,0.368
1000,B2_2,-0.098,-0.014,0.249,0.402,0.477,0.443,0.205,0.388,0.511,0.218,0.366,1.0,0.402,-0.322,-0.328,-0.299
1000,B2_3,-0.049,-0.222,-0.413,-0.087,0.678,0.607,0.189,-0.207,-0.225,-0.387,0.538,0.402,1.0,0.495,0.622,0.514
1000,y1,0.047,-0.432,-0.643,-0.639,0.498,-0.029,-0.36,-0.526,-0.402,-0.64,0.396,-0.322,0.495,1.0,0.876,0.977
1000,y2,0.064,-0.32,-0.613,-0.597,0.49,0.135,-0.012,-0.481,-0.662,-0.725,0.447,-0.328,0.622,0.876,1.0,0.898
1000,y3,0.115,-0.414,-0.617,-0.605,0.545,-0.087,-0.385,-0.507,-0.412,-0.656,0.368,-0.299,0.514,0.977,0.898,1.0
1500,.,1.0,-0.539,-0.584,-0.57,-0.068,0.13,-0.086,-0.751,-0.481,-0.523,-0.28,-0.056,-0.009,0.283,0.274,0.206
1500,A1_1,-0.539,1.0,0.551,0.827,-0.387,-0.28,0.213,0.75,0.574,0.802,-0.072,-0.001,-0.265,-0.59,-0.52,-0.512
1500,A1_2,-0.584,0.551,1.0,0.604,-0.366,-0.262,-0.076,0.902,0.771,0.771,0.112,0.242,-0.415,-0.747,-0.748,-0.74
1500,A1_3,-0.57,0.827,0.604,1.0,-0.145,-0.121,0.227,0.782,0.676,0.835,-0.244,0.326,-0.157,-0.778,-0.717,-0.72
1500,B1_1,-0.068,-0.387,-0.366,-0.145,1.0,0.351,0.133,-0.134,-0.204,-0.503,0.406,0.512,0.689,0.388,0.466,0.426
1500,B1_2,0.13,-0.28,-0.262,-0.121,0.351,1.0,0.655,-0.181,-0.275,-0.341,0.295,0.516,0.597,0.002,0.077,-0.043
1500,B1_3,-0.086,0.213,-0.076,0.227,0.133,0.655,1.0,0.111,-0.32,-0.079,0.049,0.276,0.211,-0.336,-0.134,-0.307
1500,A2_1,-0.751,0.75,0.902,0.782,-0.134,-0.181,0.111,1.0,0.792,0.8,0.229,0.362,-0.211,-0.711,-0.658,-0.657
1500,A2_2,-0.481,0.574,0.771,0.676,-0.204,-0.275,-0.32,0.792,1.0,0.854,0.116,0.423,-0.263,-0.592,-0.678,-0.569
1500,A2_3,-0.523,0.802,0.771,0.835,-0.503,-0.341,-0.079,0.8,0.854,1.0,-0.134,0.181,-0.4,-0.75,-0.765,-0.725
1500,B2_1,-0.28,-0.072,0.112,-0.244,0.406,0.295,0.049,0.229,0.116,-0.134,1.0,0.396,0.552,0.325,0.399,0.322
1500,B2_2,-0.056,-0.001,0.242,0.326,0.512,0.516,0.276,0.362,0.423,0.181,0.396,1.0,0.437,-0.365,-0.274,-0.383
1500,B2_3,-0.009,-0.265,-0.415,-0.157,0.689,0.597,0.211,-0.211,-0.263,-0.4,0.552,0.437,1.0,0.473,0.599,0.439
1500,y1,0.283,-0.59,-0.747,-0.778,0.388,0.002,-0.336,-0.711,-0.592,-0.75,0.325,-0.365,0.473,1.0,0.953,0.988
1500,y2,0.274,-0.52,-0.748,-0.717,0.466,0.077,-0.134,-0.658,-0.678,-0.765,0.399,-0.274,0.599,0.953,1.0,0.941
1500,y3,0.206,-0.512,-0.74,-0.72,0.426,-0.043,-0.307,-0.657,-0.569,-0.725,0.322,-0.383,0.439,0.988,0.941,1.0
2000,.,1.0,-0.591,-0.625,-0.641,-0.031,0.088,-0.09,-0.762,-0.528,-0.562,-0.231,-0.037,0.017,0.228,0.292,0.257
2000,A1_1,-0.591,1.0,0.629,0.856,-0.396,-0.282,0.166,0.801,0.649,0.829,-0.081,-0.014,-0.311,-0.578,-0.548,-0.579
2000,A1_2,-0.625,0.629,1.0,0.672,-0.381,-0.217,-0.074,0.917,0.815,0.816,0.078,0.219,-0.43,-0.726,-0.756,-0.738
2000,A1_3,-0.641,0.856,0.672,1.0,-0.155,-0.124,0.176,0.828,0.744,0.85,-0.227,0.281,-0.208,-0.68,-0.687,-0.71
2000,B1_1,-0.031,-0.396,-0.381,-0.155,1.0,0.372,0.158,-0.175,-0.245,-0.488,0.421,0.532,0.697,0.451,0.479,0.447
2000,B1_2,0.088,-0.282,-0.217,-0.124,0.372,1.0,0.671,-0.121,-0.234,-0.306,0.325,0.572,0.579,-0.141,-0.026,-0.107
2000,B1_3,-0.09,0.166,-0.074,0.176,0.158,0.671,1.0,0.112,-0.293,-0.092,0.075,0.317,0.221,-0.388,-0.175,-0.359
2000,A2_1,-0.762,0.801,0.917,0.828,-0.175,-0.121,0.112,1.0,0.823,0.84,0.197,0.332,-0.228,-0.677,-0.672,-0.684
2000,A2_2,-0.528,0.649,0.815,0.744,-0.245,-0.234,-0.293,0.823,1.0,0.897,0.078,0.354,-0.302,-0.578,-0.701,-0.591
2000,A2_3,-0.562,0.829,0.816,0.85,-0.488,-0.306,-0.092,0.84,0.897,1.0,-0.116,0.164,-0.416,-0.704,-0.756,-0.722
2000,B2_1,-0.231,-0.081,0.078,-0.227,0.421,0.325,0.075,0.197,0.078,-0.116,1.0,0.414,0.563,0.262,0.336,0.308
2000,B2_2,-0.037,-0.014,0.219,0.281,0.532,0.572,0.317,0.332,0.354,0.164,0.414,1.0,0.456,-0.361,-0.273,-0.347
2000,B2_3,0.017,-0.311,-0.43,-0.208,0.697,0.579,0.221,-0.228,-0.302,-0.416,0.563,0.456,1.0,0.467,0.603,0.476
2000,y1,0.228,-0.578,-0.726,-0.68,0.451,-0.141,-0.388,-0.677,-0.578,-0.704,0.262,-0.361,0.467,1.0,0.944,0.996
2000,y2,0.292,-0.548,-0.756,-0.687,0.479,-0.026,-0.175,-0.672,-0.701,-0.756,0.336,-0.273,0.603,0.944,1.0,0.95
2000,y3,0.257,-0.579,-0.738,-0.71,0.447,-0.107,-0.359,-0.684,-0.591,-0.722,0.308,-0.347,0.476,0.996,0.95,1.0
2500,.,1.0,-0.6,-0.657,-0.659,-0.056,0.044,-0.105,-0.784,-0.552,-0.577,-0.268,-0.089,-0.005,0.244,0.319,0.322
2500,A1_1,-0.6,1.0,0.678,0.867,-0.414,-0.298,0.139,0.828,0.692,0.853,-0.06,-0.023,-0.338,-0.595,-0.622,-0.601
2500,A1_2,-0.657,0.678,1.0,0.729,-0.396,-0.181,-0.041,0.929,0.83,0.838,0.06,0.205,-0.429,-0.723,-0.707,-0.75
2500,A1_3,-0.659,0.867,0.729,1.0,-0.195,-0.138,0.149,0.859,0.792,0.885,-0.209,0.253,-0.246,-0.706,-0.746,-0.756
2500,B1_1,-0.056,-0.414,-0.396,-0.195,1.0,0.39,0.172,-0.216,-0.275,-0.483,0.423,0.542,0.709,0.462,0.492,0.432
2500,B1_2,0.044,-0.298,-0.181,-0.138,0.39,1.0,0.684,-0.085,-0.198,-0.293,0.331,0.598,0.58,-0.115,0.059,-0.076
2500,B1_3,-0.105,0.139,-0.041,0.149,0.172,0.684,1.0,0.132,-0.247,-0.086,0.084,0.344,0.235,-0.388,-0.215,-0.351
2500,A2_1,-0.784,0.828,0.929,0.859,-0.216,-0.085,0.132,1.0,0.842,0.869,0.18,0.312,-0.236,-0.685,-0.662,-0.711
2500,A2_2,-0.552,0.692,0.83,0.792,-0.275,-0.198,-0.247,0.842,1.0,0.914,0.068,0.335,-0.318,-0.616,-0.673,-0.641
2500,A2_3,-0.577,0.853,0.838,0.885,-0.483,-0.293,-0.086,0.869,0.914,1.0,-0.111,0.152,-0.423,-0.732,-0.761,-0.754
2500,B2_1,-0.268,-0.06,0.06,-0.209,0.423,0.331,0.084,0.18,0.068,-0.111,1.0,0.428,0.566,0.294,0.445,0.349
2500,B2_2,-0.089,-0.023,0.205,0.253,0.542,0.598,0.344,0.312,0.335,0.152,0.428,1.0,0.477,-0.333,-0.138,-0.308
2500,B2_3,-0.005,-0.338,-0.429,-0.246,0.709,0.58,0.235,-0.236,-0.318,-0.423,0.566,0.477,1.0,0.491,0.677,0.51
2500,y1,0.244,-0.595,-0.723,-0.706,0.462,-0.115,-0.388,-0.685,-0.616,-0.732,0.294,-0.333,0.491,1.0,0.928,0.99
2500,y2,0.319,-0.622,-0.707,-0.746,0.492,0.059,-0.215,-0.662,-0.673,-0.761,0.445,-0.138,0.677,0.928,1.0,0.951
2500,y3,0.322,-0.601,-0.75,-0.756,0.432,-0.076,-0.351,-0.711,-0.641,-0.754,0.349,-0.308,0.51,0.99,0.951,1.0
3000,.,1.0,-0.599,-0.682,-0.695,-0.068,0.034,-0.077,-0.783,-0.583,-0.611,-0.251,-0.108,-0.018,0.313,0.261,0.315
3000,A1_1,-0.599,1.0,0.712,0.879,-0.398,-0.283,0.107,0.842,0.747,0.883,-0.033,-0.018,-0.352,-0.66,-0.62,-0.679
3000,A1_2,-0.682,0.712,1.0,0.769,-0.369,-0.153,-0.027,0.937,0.852,0.86,0.065,0.212,-0.418,-0.765,-0.699,-0.777
3000,A1_3,-0.695,0.879,0.769,1.0,-0.171,-0.127,0.137,0.88,0.829,0.911,-0.171,0.241,-0.264,-0.748,-0.723,-0.758
3000,B1_1,-0.068,-0.398,-0.369,-0.171,1.0,0.434,0.216,-0.197,-0.253,-0.425,0.424,0.587,0.727,0.504,0.49,0.502
3000,B1_2,0.034,-0.283,-0.153,-0.127,0.434,1.0,0.701,-0.042,-0.157,-0.252,0.343,0.618,0.574,0.0,0.052,-0.004
3000,B1_3,-0.077,0.107,-0.027,0.137,0.216,0.701,1.0,0.142,-0.198,-0.058,0.095,0.366,0.24,-0.314,-0.232,-0.304
3000,A2_1,-0.783,0.842,0.937,0.88,-0.197,-0.042,0.142,1.0,0.87,0.896,0.191,0.319,-0.229,-0.716,-0.647,-0.734
3000,A2_2,-0.583,0.747,0.852,0.829,-0.253,-0.157,-0.198,0.87,1.0,0.929,0.077,0.333,-0.318,-0.659,-0.669,-0.683
3000,A2_3,-0.611,0.883,0.86,0.911,-0.425,-0.252,-0.058,0.896,0.929,1.0,-0.077,0.17,-0.407,-0.779,-0.755,-0.791
3000,B2_1,-0.251,-0.033,0.065,-0.171,0.424,0.343,0.095,0.191,0.077,-0.077,1.0,0.438,0.572,0.37,0.44,0.345
3000,B2_2,-0.108,-0.018,0.212,0.241,0.587,0.618,0.366,0.319,0.333,0.17,0.438,1.0,0.485,-0.188,-0.144,-0.201
3000,B2_3,-0.018,-0.352,-0.418,-0.264,0.727,0.574,0.24,-0.229,-0.318,-0.407,0.572,0.485,1.0,0.596,0.687,0.589
3000,y1,0.313,-0.66,-0.765,-0.748,0.504,0.0,-0.314,-0.716,-0.659,-0.779,0.37,-0.188,0.596,1.0,0.973,0.998
3000,y2,0.261,-0.62,-0.699,-0.723,0.49,0.052,-0.232,-0.647,-0.669,-0.755,0.44,-0.144,0.687,0.973,1.0,0.971
3000,y3,0.315,-0.679,-0.777,-0.758,0.502,-0.004,-0.304,-0.734,-0.683,-0.791,0.345,-0.201,0.589,0.998,0.971,1.0
3500,.,1.0,-0.579,-0.709,-0.681,-0.102,0.02,-0.057,-0.776,-0.583,-0.597,-0.264,-0.132,-0.015,0.308,0.224,0.269
3500,A1_1,-0.579,1.0,0.776,0.913,-0.381,-0.28,0.104,0.862,0.791,0.891,-0.046,0.001,-0.369,-0.657,-0.63,-0.675
3500,A1_2,-0.709,0.776,1.0,0.799,-0.378,-0.176,-0.03,0.949,0.875,0.889,0.065,0.177,-0.419,-0.75,-0.664,-0.716
3500,A1_3,-0.681,0.913,0.799,1.0,-0.173,-0.152,0.119,0.893,0.845,0.918,-0.15,0.222,-0.268,-0.713,-0.689,-0.723
3500,B1_1,-0.102,-0.381,-0.378,-0.173,1.0,0.453,0.231,-0.191,-0.271,-0.404,0.432,0.603,0.729,0.534,0.487,0.506
3500,B1_2,0.02,-0.28,-0.176,-0.152,0.453,1.0,0.703,-0.037,-0.157,-0.247,0.342,0.622,0.572,-0.018,0.052,-0.034
3500,B1_3,-0.057,0.104,-0.03,0.119,0.231,0.703,1.0,0.14,-0.169,-0.063,0.098,0.367,0.244,-0.304,-0.28,-0.322
3500,A2_1,-0.776,0.862,0.949,0.893,-0.191,-0.037,0.14,1.0,0.889,0.906,0.178,0.318,-0.232,-0.702,-0.62,-0.691
3500,A2_2,-0.583,0.791,0.875,0.845,-0.271,-0.157,-0.169,0.889,1.0,0.949,0.069,0.318,-0.34,-0.67,-0.622,-0.684
3500,A2_3,-0.597,0.891,0.889,0.918,-0.404,-0.247,-0.063,0.906,0.949,1.0,-0.07,0.181,-0.409,-0.773,-0.712,-0.776
3500,B2_1,-0.264,-0.046,0.065,-0.15,0.432,0.342,0.098,0.178,0.069,-0.07,1.0,0.44,0.574,0.389,0.498,0.383
3500,B2_2,-0.132,0.001,0.177,0.222,0.603,0.622,0.367,0.318,0.318,0.181,0.44,1.0,0.488,-0.147,-0.101,-0.177
3500,B2_3,-0.015,-0.369,-0.419,-0.268,0.729,0.572,0.244,-0.232,-0.34,-0.409,0.574,0.488,1.0,0.596,0.693,0.594
3500,y1,0.308,-0.657,-0.75,-0.713,0.534,-0.018,-0.304,-0.702,-0.67,-0.773,0.389,-0.147,0.596,1.0,0.969,0.993
3500,y2,0.224,-0.63,-0.664,-0.689,0.487,0.052,-0.28,-0.62,-0.622,-0.712,0.498,-0.101,0.693,0.969,1.0,0.978
3500,y3,0.269,-0.675,-0.716,-0.723,0.506,-0.034,-0.322,-0.691,-0.684,-0.776,0.383,-0.177,0.594,0.993,0.978,1.0
4000,.,1.0,-0.654,-0.766,-0.722,-0.112,0.01,-0.073,-0.818,-0.656,-0.671,-0.266,-0.156,0.0,0.412,0.41,0.395
4000,A1_1,-0.654,1.0,0.835,0.938,-0.349,-0.264,0.106,0.897,0.847,0.919,-0.054,0.011,-0.395,-0.702,-0.732,-0.701
4000,A1_2,-0.766,0.835,1.0,0.847,-0.331,-0.18,-0.035,0.965,0.915,0.92,0.079,0.162,-0.403,-0.736,-0.743,-0.717
4000,A1_3,-0.722,0.938,0.847,1.0,-0.151,-0.143,0.135,0.916,0.877,0.933,-0.118,0.221,-0.291,-0.747,-0.772,-0.756
4000,B1_1,-0.112,-0.349,-0.331,-0.151,1.0,0.469,0.262,-0.175,-0.267,-0.37,0.447,0.624,0.736,0.408,0.445,0.385
4000,B1_2,0.01,-0.264,-0.18,-0.143,0.469,1.0,0.715,-0.058,-0.158,-0.245,0.377,0.635,0.585,-0.11,0.009,-0.103
4000,B1_3,-0.073,0.106,-0.035,0.135,0.262,0.715,1.0,0.118,-0.123,-0.052,0.146,0.375,0.277,-0.411,-0.307,-0.403
4000,A2_1,-0.818,0.897,0.965,0.916,-0.175,-0.058,0.118,1.0,0.924,0.929,0.174,0.28,-0.254,-0.726,-0.724,-0.714
4000,A2_2,-0.656,0.847,0.915,0.877,-0.267,-0.158,-0.123,0.924,1.0,0.964,0.076,0.288,-0.364,-0.677,-0.71,-0.683
4000,A2_3,-0.671,0.919,0.92,0.933,-0.37,-0.245,-0.052,0.929,0.964,1.0,-0.056,0.157,-0.426,-0.745,-0.78,-0.748
4000,B2_1,-0.266,-0.054,0.079,-0.118,0.447,0.377,0.146,0.174,0.076,-0.056,1.0,0.489,0.581,0.305,0.374,0.329
4000,B2_2,-0.156,0.011,0.162,0.221,0.624,0.635,0.375,0.28,0.288,0.157,0.489,1.0,0.518,-0.167,-0.096,-0.184
4000,B2_3,0.0,-0.395,-0.403,-0.291,0.736,0.585,0.277,-0.254,-0.364,-0.426,0.581,0.518,1.0,0.541,0.634,0.547
4000,y1,0.412,-0.702,-0.736,-0.747,0.408,-0.11,-0.411,-0.726,-0.677,-0.745,0.305,-0.167,0.541,1.0,0.988,0.997
4000,y2,0.41,-0.732,-0.743,-0.772,0.445,0.009,-0.307,-0.724,-0.71,-0.78,0.374,-0.096,0.634,0.988,1.0,0.992
4000,y3,0.395,-0.701,-0.717,-0.756,0.385,-0.103,-0.403,-0.714,-0.683,-0.748,0.329,-0.184,0.547,0.997,0.992,1.0
4500,.,1.0,-0.703,-0.79,-0.755,-0.114,-0.006,-0.102,-0.832,-0.679,-0.702,-0.259,-0.179,0.012,0.403,0.4,0.443
4500,A1_1,-0.703,1.0,0.855,0.948,-0.32,-0.234,0.111,0.913,0.869,0.927,-0.032,0.021,-0.378,-0.708,-0.757,-0.735
4500,A1_2,-0.79,0.855,1.0,0.867,-0.315,-0.168,-0.034,0.965,0.924,0.934,0.084,0.143,-0.397,-0.749,-0.748,-0.753
4500,A1_3,-0.755,0.948,0.867,1.0,-0.136,-0.134,0.128,0.93,0.894,0.934,-0.092,0.208,-0.299,-0.737,-0.775,-0.767
4500,B1_1,-0.114,-0.32,-0.315,-0.136,1.0,0.486,0.295,-0.156,-0.269,-0.345,0.452,0.655,0.749,0.448,0.449,0.395
4500,B1_2,-0.006,-0.234,-0.168,-0.134,0.486,1.0,0.732,-0.048,-0.15,-0.208,0.407,0.653,0.601,-0.027,0.027,-0.08
4500,B1_3,-0.102,0.111,-0.034,0.128,0.295,0.732,1.0,0.122,-0.098,-0.032,0.182,0.395,0.306,-0.345,-0.308,-0.383
4500,A2_1,-0.832,0.913,0.965,0.93,-0.156,-0.048,0.122,1.0,0.932,0.943,0.185,0.278,-0.24,-0.718,-0.731,-0.742
4500,A2_2,-0.679,0.869,0.924,0.894,-0.269,-0.15,-0.098,0.932,1.0,0.976,0.082,0.269,-0.362,-0.689,-0.729,-0.714
4500,A2_3,-0.702,0.927,0.934,0.934,-0.345,-0.208,-0.032,0.943,0.976,1.0,-0.015,0.169,-0.404,-0.753,-0.785,-0.767
4500,B2_1,-0.259,-0.032,0.084,-0.092,0.452,0.407,0.182,0.185,0.082,-0.015,1.0,0.532,0.595,0.308,0.322,0.273
4500,B2_2,-0.179,0.021,0.143,0.208,0.655,0.653,0.395,0.278,0.269,0.169,0.532,1.0,0.559,-0.1,-0.081,-0.138
4500,B2_3,0.012,-0.378,-0.397,-0.299,0.749,0.601,0.306,-0.24,-0.362,-0.404,0.595,0.559,1.0,0.581,0.626,0.552
4500,y1,0.403,-0.708,-0.749,-0.737,0.448,-0.027,-0.345,-0.718,-0.689,-0.753,0.308,-0.1,0.581,1.0,0.989,0.993
4500,y2,0.4,-0.757,-0.748,-0.775,0.449,0.027,-0.308,-0.731,-0.729,-0.785,0.322,-0.081,0.626,0.989,1.0,0.992
4500,y3,0.443,-0.735,-0.753,-0.767,0.395,-0.08,-0.383,-0.742,-0.714,-0.767,0.273,-0.138,0.552,0.993,0.992,1.0
5000,.,1.0,-0.709,-0.79,-0.761,-0.127,-0.027,-0.112,-0.834,-0.68,-0.707,-0.262,-0.193,-0.004,0.396,0.452,0.482
5000,A1_1,-0.709,1.0,0.864,0.956,-0.292,-0.222,0.121,0.927,0.872,0.935,-0.023,0.032,-0.368,-0.726,-0.79,-0.768
5000,A1_2,-0.79,0.864,1.0,0.881,-0.299,-0.153,-0.016,0.968,0.93,0.938,0.104,0.146,-0.378,-0.756,-0.786,-0.785
5000,A1_3,-0.761,0.956,0.881,1.0,-0.13,-0.126,0.135,0.946,0.9,0.941,-0.072,0.202,-0.307,-0.772,-0.82,-0.814
5000,B1_1,-0.127,-0.292,-0.299,-0.13,1.0,0.512,0.32,-0.148,-0.253,-0.329,0.462,0.681,0.759,0.41,0.398,0.322
5000,B1_2,-0.027,-0.222,-0.153,-0.126,0.512,1.0,0.744,-0.056,-0.147,-0.21,0.438,0.665,0.624,-0.022,0.027,-0.094
5000,B1_3,-0.112,0.121,-0.016,0.135,0.32,0.744,1.0,0.119,-0.086,-0.029,0.218,0.416,0.321,-0.312,-0.311,-0.385
5000,A2_1,-0.834,0.927,0.968,0.946,-0.148,-0.056,0.119,1.0,0.937,0.952,0.173,0.259,-0.24,-0.731,-0.776,-0.786
5000,A2_2,-0.68,0.872,0.93,0.9,-0.253,-0.147,-0.086,0.937,1.0,0.976,0.092,0.263,-0.351,-0.726,-0.76,-0.759
5000,A2_3,-0.707,0.935,0.938,0.941,-0.329,-0.21,-0.029,0.952,0.976,1.0,-0.001,0.155,-0.392,-0.765,-0.808,-0.793
5000,B2_1,-0.262,-0.023,0.104,-0.072,0.462,0.438,0.218,0.173,0.092,-0.001,1.0,0.559,0.614,0.299,0.266,0.191
5000,B2_2,-0.193,0.032,0.146,0.202,0.681,0.665,0.416,0.259,0.263,0.155,0.559,1.0,0.588,-0.122,-0.106,-0.198
5000,B2_3,-0.004,-0.368,-0.378,-0.307,0.759,0.624,0.321,-0.24,-0.351,-0.392,0.614,0.588,1.0,0.571,0.579,0.497
5000,y1,0.396,-0.726,-0.756,-0.772,0.41,-0.022,-0.312,-0.731,-0.726,-0.765,0.299,-0.122,0.571,1.0,0.992,0.989
5000,y2,0.452,-0.79,-0.786,-0.82,0.398,0.027,-0.311,-0.776,-0.76,-0.808,0.266,-0.106,0.579,0.992,1.0,0.992
5000,y3,0.482,-0.768,-0.785,-0.814,0.322,-0.094,-0.385,-0.786,-0.759,-0.793,0.191,-0.198,0.497,0.989,0.992,1.0
5500,.,1.0,-0.71,-0.792,-0.762,-0.143,-0.039,-0.128,-0.832,-0.684,-0.71,-0.283,-0.213,-0.01,0.384,0.465,0.461
5500,A1_1,-0.71,1.0,0.88,0.957,-0.296,-0.204,0.139,0.922,0.883,0.938,-0.024,0.03,-0.378,-0.728,-0.799,-0.771
5500,A1_2,-0.792,0.88,1.0,0.895,-0.295,-0.148,0.001,0.975,0.934,0.948,0.102,0.15,-0.369,-0.749,-0.794,-0.777
5500,A1_3,-0.762,0.957,0.895,1.0,-0.119,-0.125,0.133,0.951,0.911,0.945,-0.048,0.211,-0.3,-0.747,-0.807,-0.79
5500,B1_1,-0.143,-0.296,-0.295,-0.119,1.0,0.518,0.328,-0.138,-0.259,-0.329,0.465,0.689,0.762,0.392,0.37,0.355
5500,B1_2,-0.039,-0.204,-0.148,-0.125,0.518,1.0,0.747,-0.05,-0.15,-0.192,0.448,0.668,0.628,-0.062,-0.039,-0.05
5500,B1_3,-0.128,0.139,0.001,0.133,0.328,0.747,1.0,0.117,-0.074,-0.005,0.231,0.422,0.333,-0.353,-0.369,-0.375
5500,A2_1,-0.832,0.922,0.975,0.951,-0.138,-0.05,0.117,1.0,0.945,0.956,0.17,0.274,-0.245,-0.729,-0.789,-0.767
5500,A2_2,-0.684,0.883,0.934,0.911,-0.259,-0.15,-0.074,0.945,1.0,0.978,0.088,0.248,-0.362,-0.71,-0.757,-0.727
5500,A2_3,-0.71,0.938,0.948,0.945,-0.329,-0.192,-0.005,0.956,0.978,1.0,-0.005,0.151,-0.398,-0.756,-0.811,-0.782
5500,B2_1,-0.283,-0.024,0.102,-0.048,0.465,0.448,0.231,0.17,0.088,-0.005,1.0,0.569,0.623,0.259,0.208,0.242
5500,B2_2,-0.213,0.03,0.15,0.211,0.689,0.668,0.422,0.274,0.248,0.151,0.569,1.0,0.593,-0.133,-0.14,-0.129
5500,B2_3,-0.01,-0.378,-0.369,-0.3,0.762,0.628,0.333,-0.245,-0.362,-0.398,0.623,0.593,1.0,0.548,0.523,0.532
5500,y1,0.384,-0.728,-0.749,-0.747,0.392,-0.062,-0.353,-0.729,-0.71,-0.756,0.259,-0.133,0.548,1.0,0.991,0.994
5500,y2,0.465,-0.799,-0.794,-0.807,0.37,-0.039,-0.369,-0.789,-0.757,-0.811,0.208,-0.14,0.523,0.991,1.0,0.997
5500,y3,0.461,-0.771,-0.777,-0.79,0.355,-0.05,-0.375,-0.767,-0.727,-0.782,0.242,-0.129,0.532,0.994,0.997,1.0
6000,.,1.0,-0.704,-0.783,-0.758,-0.143,-0.039,-0.116,-0.825,-0.678,-0.705,-0.288,-0.21,-0.018,0.437,0.481,0.419
6000,A1_1,-0.704,1.0,0.893,0.96,-0.299,-0.193,0.143,0.932,0.896,0.943,-0.024,0.031,-0.383,-0.767,-0.822,-0.774
6000,A1_2,-0.783,0.893,1.0,0.898,-0.296,-0.154,0.001,0.974,0.937,0.95,0.106,0.138,-0.369,-0.792,-0.824,-0.783
6000,A1_3,-0.758,0.96,0.898,1.0,-0.12,-0.127,0.134,0.956,0.911,0.945,-0.049,0.197,-0.306,-0.778,-0.825,-0.78
6000,B1_1,-0.143,-0.299,-0.296,-0.12,1.0,0.531,0.34,-0.138,-0.274,-0.327,0.475,0.699,0.768,0.347,0.339,0.366
6000,B1_2,-0.039,-0.193,-0.154,-0.127,0.531,1.0,0.753,-0.05,-0.159,-0.183,0.47,0.677,0.643,-0.073,-0.056,-0.049
6000,B1_3,-0.116,0.143,0.001,0.134,0.34,0.753,1.0,0.123,-0.07,0.009,0.25,0.433,0.34,-0.363,-0.362,-0.359
6000,A2_1,-0.825,0.932,0.974,0.956,-0.138,-0.05,0.123,1.0,0.947,0.96,0.159,0.263,-0.249,-0.781,-0.825,-0.773
6000,A2_2,-0.678,0.896,0.937,0.911,-0.274,-0.159,-0.07,0.947,1.0,0.98,0.08,0.223,-0.367,-0.744,-0.789,-0.741
6000,A2_3,-0.705,0.943,0.95,0.945,-0.327,-0.183,0.009,0.96,0.98,1.0,-0.007,0.148,-0.401,-0.795,-0.841,-0.796
6000,B2_1,-0.288,-0.024,0.106,-0.049,0.475,0.47,0.25,0.159,0.08,-0.007,1.0,0.587,0.638,0.182,0.144,0.205
6000,B2_2,-0.21,0.031,0.138,0.197,0.699,0.677,0.433,0.263,0.223,0.148,0.587,1.0,0.61,-0.163,-0.174,-0.141
6000,B2_3,-0.018,-0.383,-0.369,-0.306,0.768,0.643,0.34,-0.249,-0.367,-0.401,0.638,0.61,1.0,0.507,0.484,0.524
6000,y1,0.437,-0.767,-0.792,-0.778,0.347,-0.073,-0.363,-0.781,-0.744,-0.795,0.182,-0.163,0.507,1.0,0.995,0.999
6000,y2,0.481,-0.822,-0.824,-0.825,0.339,-0.056,-0.362,-0.825,-0.789,-0.841,0.144,-0.174,0.484,0.995,1.0,0.995
6000,y3,0.419,-0.774,-0.783,-0.78,0.366,-0.049,-0.359,-0.773,-0.741,-0.796,0.205,-0.141,0.524,0.999,0.995,1.0
6500,.,1.0,-0.701,-0.778,-0.746,-0.146,-0.07,-0.138,-0.822,-0.678,-0.7,-0.298,-0.222,-0.029,0.427,0.474,0.428
6500,A1_1,-0.701,1.0,0.901,0.967,-0.307,-0.187,0.143,0.937,0.898,0.944,-0.044,0.018,-0.402,-0.775,-0.836,-0.782
6500,A1_2,-0.778,0.901,1.0,0.912,-0.297,-0.151,-0.003,0.973,0.941,0.954,0.102,0.131,-0.366,-0.783,-0.828,-0.785
6500,A1_3,-0.746,0.967,0.912,1.0,-0.144,-0.135,0.132,0.964,0.916,0.952,-0.05,0.175,-0.329,-0.79,-0.838,-0.789
6500,B1_1,-0.146,-0.307,-0.297,-0.144,1.0,0.544,0.35,-0.141,-0.268,-0.319,0.483,0.707,0.777,0.347,0.365,0.361
6500,B1_2,-0.07,-0.187,-0.151,-0.135,0.544,1.0,0.754,-0.049,-0.146,-0.171,0.488,0.69,0.657,-0.069,-0.032,-0.09
6500,B1_3,-0.138,0.143,-0.003,0.132,0.35,0.754,1.0,0.115,-0.059,0.024,0.263,0.438,0.353,-0.357,-0.327,-0.355
6500,A2_1,-0.822,0.937,0.973,0.964,-0.141,-0.049,0.115,1.0,0.953,0.964,0.145,0.251,-0.252,-0.77,-0.821,-0.775
6500,A2_2,-0.678,0.898,0.941,0.916,-0.268,-0.146,-0.059,0.953,1.0,0.979,0.083,0.225,-0.364,-0.742,-0.8,-0.758
6500,A2_3,-0.7,0.944,0.954,0.952,-0.319,-0.171,0.024,0.964,0.979,1.0,-0.012,0.152,-0.403,-0.804,-0.856,-0.812
6500,B2_1,-0.298,-0.044,0.102,-0.05,0.483,0.488,0.263,0.145,0.083,-0.012,1.0,0.599,0.643,0.193,0.159,0.177
6500,B2_2,-0.222,0.018,0.131,0.175,0.707,0.69,0.438,0.251,0.225,0.152,0.599,1.0,0.625,-0.156,-0.143,-0.157
6500,B2_3,-0.029,-0.402,-0.366,-0.329,0.777,0.657,0.353,-0.252,-0.364,-0.403,0.643,0.625,1.0,0.498,0.502,0.499
6500,y1,0.427,-0.775,-0.783,-0.79,0.347,-0.069,-0.357,-0.77,-0.742,-0.804,0.193,-0.156,0.498,1.0,0.994,0.997
6500,y2,0.474,-0.836,-0.828,-0.838,0.365,-0.032,-0.327,-0.821,-0.8,-0.856,0.159,-0.143,0.502,0.994,1.0,0.995
6500,y3,0.428,-0.782,-0.785,-0.789,0.361,-0.09,-0.355,-0.775,-0.758,-0.812,0.177,-0.157,0.499,0.997,0.995,1.0
7000,.,1.0,-0.709,-0.783,-0.746,-0.131,-0.077,-0.151,-0.82,-0.68,-0.709,-0.28,-0.208,-0.014,0.449,0.461,0.46
7000,A1_1,-0.709,1.0,0.912,0.974,-0.305,-0.17,0.153,0.943,0.914,0.957,-0.062,0.024,-0.414,-0.808,-0.826,-0.814
7000,A1_2,-0.783,0.912,1.0,0.92,-0.289,-0.148,0.0,0.98,0.952,0.962,0.105,0.134,-0.361,-0.796,-0.798,-0.794
7000,A1_3,-0.746,0.974,0.92,1.0,-0.148,-0.141,0.129,0.963,0.924,0.958,-0.043,0.166,-0.337,-0.806,-0.811,-0.8
7000,B1_1,-0.131,-0.305,-0.289,-0.148,1.0,0.548,0.356,-0.152,-0.28,-0.317,0.487,0.71,0.779,0.339,0.335,0.359
7000,B1_2,-0.077,-0.17,-0.148,-0.141,0.548,1.0,0.756,-0.052,-0.141,-0.161,0.496,0.691,0.661,-0.046,-0.097,-0.082
7000,B1_3,-0.151,0.153,0.0,0.129,0.356,0.756,1.0,0.112,-0.04,0.04,0.269,0.44,0.359,-0.334,-0.383,-0.351
7000,A2_1,-0.82,0.943,0.98,0.963,-0.152,-0.052,0.112,1.0,0.958,0.97,0.144,0.239,-0.261,-0.789,-0.802,-0.79
7000,A2_2,-0.68,0.914,0.952,0.924,-0.28,-0.141,-0.04,0.958,1.0,0.981,0.083,0.207,-0.375,-0.77,-0.79,-0.778
7000,A2_3,-0.709,0.957,0.962,0.958,-0.317,-0.161,0.04,0.97,0.981,1.0,-0.009,0.143,-0.408,-0.823,-0.842,-0.829
7000,B2_1,-0.28,-0.062,0.105,-0.043,0.487,0.496,0.269,0.144,0.083,-0.009,1.0,0.605,0.646,0.181,0.124,0.174
7000,B2_2,-0.208,0.024,0.134,0.166,0.71,0.691,0.44,0.239,0.207,0.143,0.605,1.0,0.63,-0.154,-0.19,-0.148
7000,B2_3,-0.014,-0.414,-0.361,-0.337,0.779,0.661,0.359,-0.261,-0.375,-0.408,0.646,0.63,1.0,0.498,0.456,0.494
7000,y1,0.449,-0.808,-0.796,-0.806,0.339,-0.046,-0.334,-0.789,-0.77,-0.823,0.181,-0.154,0.498,1.0,0.993,0.996
7000,y2,0.461,-0.826,-0.798,-0.811,0.335,-0.097,-0.383,-0.802,-0.79,-0.842,0.124,-0.19,0.456,0.993,1.0,0.996
7000,y3,0.46,-0.814,-0.794,-0.8,0.359,-0.082,-0.351,-0.79,-0.778,-0.829,0.174,-0.148,0.494,0.996,0.996,1.0
7500,.,1.0,-0.71,-0.776,-0.745,-0.141,-0.091,-0.144,-0.815,-0.679,-0.708,-0.286,-0.211,-0.027,0.323,0.384,0.343
7500,A1_1,-0.71,1.0,0.924,0.978,-0.298,-0.19,0.119,0.95,0.927,0.967,-0.066,0.028,-0.413,-0.738,-0.794,-0.754
7500,A1_2,-0.776,0.924,1.0,0.921,-0.283,-0.154,-0.014,0.982,0.956,0.965,0.097,0.131,-0.355,-0.696,-0.744,-0.706
7500,A1_3,-0.745,0.978,0.921,1.0,-0.142,-0.139,0.118,0.96,0.923,0.958,-0.052,0.161,-0.331,-0.728,-0.778,-0.733
7500,B1_1,-0.141,-0.298,-0.283,-0.142,1.0,0.571,0.371,-0.155,-0.291,-0.319,0.502,0.724,0.787,0.334,0.341,0.375
7500,B1_2,-0.091,-0.19,-0.154,-0.139,0.571,1.0,0.763,-0.066,-0.158,-0.184,0.518,0.705,0.681,-0.087,-0.078,-0.081
7500,B1_3,-0.144,0.119,-0.014,0.118,0.371,0.763,1.0,0.088,-0.054,0.014,0.287,0.456,0.379,-0.395,-0.385,-0.394
7500,A2_1,-0.815,0.95,0.982,0.96,-0.155,-0.066,0.088,1.0,0.961,0.971,0.149,0.228,-0.253,-0.682,-0.738,-0.692
7500,A2_2,-0.679,0.927,0.956,0.923,-0.291,-0.158,-0.054,0.961,1.0,0.983,0.071,0.179,-0.38,-0.679,-0.741,-0.696
7500,A2_3,-0.708,0.967,0.965,0.958,-0.319,-0.184,0.014,0.971,0.983,1.0,-0.013,0.118,-0.409,-0.731,-0.787,-0.75
7500,B2_1,-0.286,-0.066,0.097,-0.052,0.502,0.518,0.287,0.149,0.071,-0.013,1.0,0.622,0.657,0.227,0.188,0.23
7500,B2_2,-0.211,0.028,0.131,0.161,0.724,0.705,0.456,0.228,0.179,0.118,0.622,1.0,0.652,-0.144,-0.147,-0.115
7500,B2_3,-0.027,-0.413,-0.355,-0.331,0.787,0.681,0.379,-0.253,-0.38,-0.409,0.657,0.652,1.0,0.482,0.483,0.499
7500,y1,0.323,-0.738,-0.696,-0.728,0.334,-0.087,-0.395,-0.682,-0.679,-0.731,0.227,-0.144,0.482,1.0,0.994,0.996
7500,y2,0.384,-0.794,-0.744,-0.778,0.341,-0.078,-0.385,-0.738,-0.741,-0.787,0.188,-0.147,0.483,0.994,1.0,0.996
7500,y3,0.343,-0.754,-0.706,-0.733,0.375,-0.081,-0.394,-0.692,-0.696,-0.75,0.23,-0.115,0.499,0.996,0.996,1.0
8000,.,1.0,-0.708,-0.776,-0.746,-0.145,-0.091,-0.138,-0.822,-0.683,-0.713,-0.297,-0.217,-0.038,0.305,0.32,0.286
8000,A1_1,-0.708,1.0,0.917,0.977,-0.307,-0.191,0.12,0.947,0.928,0.969,-0.063,0.022,-0.417,-0.733,-0.755,-0.734
8000,A1_2,-0.776,0.917,1.0,0.923,-0.286,-0.141,-0.013,0.98,0.958,0.961,0.111,0.132,-0.352,-0.699,-0.726,-0.692
8000,A1_3,-0.746,0.977,0.923,1.0,-0.152,-0.132,0.116,0.962,0.927,0.962,-0.036,0.16,-0.336,-0.733,-0.749,-0.722
8000,B1_1,-0.145,-0.307,-0.286,-0.152,1.0,0.577,0.375,-0.16,-0.299,-0.315,0.507,0.727,0.796,0.336,0.369,0.378
8000,B1_2,-0.091,-0.191,-0.141,-0.132,0.577,1.0,0.762,-0.05,-0.159,-0.173,0.531,0.71,0.696,-0.092,-0.087,-0.083
8000,B1_3,-0.138,0.12,-0.013,0.116,0.375,0.762,1.0,0.095,-0.052,0.027,0.311,0.46,0.396,-0.381,-0.352,-0.377
8000,A2_1,-0.822,0.947,0.98,0.962,-0.16,-0.05,0.095,1.0,0.963,0.972,0.158,0.228,-0.249,-0.683,-0.709,-0.675
8000,A2_2,-0.683,0.928,0.958,0.927,-0.299,-0.159,-0.052,0.963,1.0,0.984,0.084,0.169,-0.381,-0.686,-0.719,-0.687
8000,A2_3,-0.713,0.969,0.961,0.962,-0.315,-0.173,0.027,0.972,0.984,1.0,-0.001,0.116,-0.417,-0.737,-0.764,-0.738
8000,B2_1,-0.297,-0.063,0.111,-0.036,0.507,0.531,0.311,0.158,0.084,-0.001,1.0,0.641,0.654,0.191,0.186,0.201
8000,B2_2,-0.217,0.022,0.132,0.16,0.727,0.71,0.46,0.228,0.169,0.116,0.641,1.0,0.67,-0.154,-0.15,-0.124
8000,B2_3,-0.038,-0.417,-0.352,-0.336,0.796,0.696,0.396,-0.249,-0.381,-0.417,0.654,0.67,1.0,0.467,0.462,0.488
8000,y1,0.305,-0.733,-0.699,-0.733,0.336,-0.092,-0.381,-0.683,-0.686,-0.737,0.191,-0.154,0.467,1.0,0.996,0.998
8000,y2,0.32,-0.755,-0.726,-0.749,0.369,-0.087,-0.352,-0.709,-0.719,-0.764,0.186,-0.15,0.462,0.996,1.0,0.997
8000,y3,0.286,-0.734,-0.692,-0.722,0.378,-0.083,-0.377,-0.675,-0.687,-0.738,0.201,-0.124,0.488,0.998,0.997,1.0
8500,.,1.0,-0.675,-0.746,-0.712,-0.171,-0.082,-0.114,-0.8,-0.652,-0.688,-0.316,-0.218,-0.053,0.236,0.262,0.224
8500,A1_1,-0.675,1.0,0.924,0.981,-0.303,-0.181,0.12,0.952,0.935,0.976,-0.06,0.04,-0.415,-0.724,-0.772,-0.732
8500,A1_2,-0.746,0.924,1.0,0.926,-0.293,-0.141,-0.011,0.981,0.963,0.965,0.104,0.135,-0.348,-0.678,-0.712,-0.692
8500,A1_3,-0.712,0.981,0.926,1.0,-0.165,-0.132,0.118,0.962,0.931,0.968,-0.042,0.154,-0.35,-0.723,-0.762,-0.725
8500,B1_1,-0.171,-0.303,-0.293,-0.165,1.0,0.576,0.378,-0.167,-0.303,-0.305,0.508,0.726,0.799,0.341,0.368,0.379
8500,B1_2,-0.082,-0.181,-0.141,-0.132,0.576,1.0,0.768,-0.048,-0.144,-0.157,0.534,0.717,0.698,-0.123,-0.082,-0.083
8500,B1_3,-0.114,0.12,-0.011,0.118,0.378,0.768,1.0,0.099,-0.031,0.047,0.314,0.473,0.399,-0.406,-0.378,-0.362
8500,A2_1,-0.8,0.952,0.981,0.962,-0.167,-0.048,0.099,1.0,0.963,0.975,0.148,0.221,-0.257,-0.667,-0.705,-0.674
8500,A2_2,-0.652,0.935,0.963,0.931,-0.303,-0.144,-0.031,0.963,1.0,0.983,0.089,0.174,-0.383,-0.682,-0.73,-0.702
8500,A2_3,-0.688,0.976,0.965,0.968,-0.305,-0.157,0.047,0.975,0.983,1.0,0.003,0.126,-0.41,-0.725,-0.772,-0.741
8500,B2_1,-0.316,-0.06,0.104,-0.042,0.508,0.534,0.314,0.148,0.089,0.003,1.0,0.639,0.657,0.2,0.205,0.211
8500,B2_2,-0.218,0.04,0.135,0.154,0.726,0.717,0.473,0.221,0.174,0.126,0.639,1.0,0.671,-0.156,-0.141,-0.142
8500,B2_3,-0.053,-0.415,-0.348,-0.35,0.799,0.698,0.399,-0.257,-0.383,-0.41,0.657,0.671,1.0,0.449,0.47,0.476
8500,y1,0.236,-0.724,-0.678,-0.723,0.341,-0.123,-0.406,-0.667,-0.682,-0.725,0.2,-0.156,0.449,1.0,0.995,0.998
8500,y2,0.262,-0.772,-0.712,-0.762,0.368,-0.082,-0.378,-0.705,-0.73,-0.772,0.205,-0.141,0.47,0.995,1.0,0.997
8500,y3,0.224,-0.732,-0.692,-0.725,0.379,-0.083,-0.362,-0.674,-0.702,-0.741,0.211,-0.142,0.476,0.998,0.997,1.0
9000,.,1.0,-0.687,-0.738,-0.731,-0.176,-0.069,-0.098,-0.797,-0.664,-0.692,-0.301,-0.207,-0.052,0.142,0.165,0.131
9000,A1_1,-0.687,1.0,0.939,0.986,-0.278,-0.15,0.128,0.959,0.946,0.98,-0.033,0.068,-0.392,-0.698,-0.723,-0.701
9000,A1_2,-0.738,0.939,1.0,0.945,-0.299,-0.142,-0.016,0.982,0.973,0.974,0.086,0.116,-0.363,-0.654,-0.667,-0.639
9000,A1_3,-0.731,0.986,0.945,1.0,-0.164,-0.111,0.118,0.972,0.945,0.976,-0.007,0.157,-0.341,-0.682,-0.699,-0.683
9000,B1_1,-0.176,-0.278,-0.299,-0.164,1.0,0.578,0.38,-0.162,-0.303,-0.295,0.509,0.729,0.8,0.384,0.379,0.365
9000,B1_2,-0.069,-0.15,-0.142,-0.111,0.578,1.0,0.768,-0.036,-0.139,-0.147,0.536,0.719,0.701,-0.089,-0.113,-0.089
9000,B1_3,-0.098,0.128,-0.016,0.118,0.38,0.768,1.0,0.097,-0.029,0.043,0.316,0.477,0.402,-0.367,-0.403,-0.389
9000,A2_1,-0.797,0.959,0.982,0.972,-0.162,-0.036,0.097,1.0,0.969,0.978,0.153,0.218,-0.253,-0.627,-0.649,-0.619
9000,A2_2,-0.664,0.946,0.973,0.945,-0.303,-0.139,-0.029,0.969,1.0,0.986,0.089,0.154,-0.39,-0.672,-0.692,-0.661
9000,A2_3,-0.692,0.98,0.974,0.976,-0.295,-0.147,0.043,0.978,0.986,1.0,0.013,0.126,-0.402,-0.701,-0.721,-0.698
9000,B2_1,-0.301,-0.033,0.086,-0.007,0.509,0.536,0.316,0.153,0.089,0.013,1.0,0.643,0.659,0.203,0.159,0.214
9000,B2_2,-0.207,0.068,0.116,0.157,0.729,0.719,0.477,0.218,0.154,0.126,0.643,1.0,0.679,-0.131,-0.149,-0.146
9000,B2_3,-0.052,-0.392,-0.363,-0.341,0.8,0.701,0.402,-0.253,-0.39,-0.402,0.659,0.679,1.0,0.487,0.457,0.468
9000,y1,0.142,-0.698,-0.654,-0.682,0.384,-0.089,-0.367,-0.627,-0.672,-0.701,0.203,-0.131,0.487,1.0,0.996,0.997
9000,y2,0.165,-0.723,-0.667,-0.699,0.379,-0.113,-0.403,-0.649,-0.692,-0.721,0.159,-0.149,0.457,0.996,1.0,0.996
9000,y3,0.131,-0.701,-0.639,-0.683,0.365,-0.089,-0.389,-0.619,-0.661,-0.698,0.214,-0.146,0.468,0.997,0.996,1.0
9500,.,1.0,-0.668,-0.722,-0.718,-0.182,-0.08,-0.114,-0.78,-0.64,-0.687,-0.288,-0.2,-0.054,0.104,0.147,0.116
9500,A1_1,-0.668,1.0,0.945,0.984,-0.285,-0.128,0.143,0.961,0.946,0.977,-0.034,0.068,-0.394,-0.684,-0.734,-0.726
9500,A1_2,-0.722,0.945,1.0,0.959,-0.297,-0.131,-0.004,0.985,0.976,0.978,0.093,0.113,-0.369,-0.634,-0.681,-0.659
9500,A1_3,-0.718,0.984,0.959,1.0,-0.161,-0.09,0.114,0.979,0.954,0.98,0.037,0.176,-0.326,-0.655,-0.696,-0.688
9500,B1_1,-0.182,-0.285,-0.297,-0.161,1.0,0.58,0.383,-0.17,-0.313,-0.273,0.52,0.731,0.802,0.346,0.398,0.407
9500,B1_2,-0.08,-0.128,-0.131,-0.09,0.58,1.0,0.768,-0.043,-0.133,-0.123,0.559,0.721,0.702,-0.125,-0.102,-0.054
9500,B1_3,-0.114,0.143,-0.004,0.114,0.383,0.768,1.0,0.09,-0.024,0.047,0.334,0.478,0.404,-0.389,-0.374,-0.342
9500,A2_1,-0.78,0.961,0.985,0.979,-0.17,-0.043,0.09,1.0,0.967,0.982,0.161,0.205,-0.254,-0.595,-0.644,-0.621
9500,A2_2,-0.64,0.946,0.976,0.954,-0.313,-0.133,-0.024,0.967,1.0,0.989,0.091,0.145,-0.397,-0.646,-0.708,-0.685
9500,A2_3,-0.687,0.977,0.978,0.98,-0.273,-0.123,0.047,0.982,0.989,1.0,0.049,0.149,-0.378,-0.661,-0.716,-0.7
9500,B2_1,-0.288,-0.034,0.093,0.037,0.52,0.559,0.334,0.161,0.091,0.049,1.0,0.666,0.674,0.165,0.132,0.219
9500,B2_2,-0.2,0.068,0.113,0.176,0.731,0.721,0.478,0.205,0.145,0.149,0.666,1.0,0.681,-0.18,-0.146,-0.112
9500,B2_3,-0.054,-0.394,-0.369,-0.326,0.802,0.702,0.404,-0.254,-0.397,-0.378,0.674,0.681,1.0,0.429,0.47,0.502
9500,y1,0.104,-0.684,-0.634,-0.655,0.346,-0.125,-0.389,-0.595,-0.646,-0.661,0.165,-0.18,0.429,1.0,0.989,0.993
9500,y2,0.147,-0.734,-0.681,-0.696,0.398,-0.102,-0.374,-0.644,-0.708,-0.716,0.132,-0.146,0.47,0.989,1.0,0.995
9500,y3,0.116,-0.726,-0.659,-0.688,0.407,-0.054,-0.342,-0.621,-0.685,-0.7,0.219,-0.112,0.502,0.993,0.995,1.0
10000,.,1.0,-0.678,-0.726,-0.714,-0.185,-0.08,-0.111,-0.783,-0.653,-0.696,-0.299,-0.206,-0.052,0.121,0.145,0.115
10000,A1_1,-0.678,1.0,0.951,0.984,-0.283,-0.12,0.137,0.961,0.952,0.981,-0.034,0.072,-0.394,-0.71,-0.711,-0.72
10000,A1_2,-0.726,0.951,1.0,0.961,-0.301,-0.135,-0.008,0.987,0.977,0.982,0.09,0.109,-0.366,-0.656,-0.654,-0.658
10000,A1_3,-0.714,0.984,0.961,1.0,-0.164,-0.087,0.113,0.975,0.954,0.982,0.044,0.177,-0.324,-0.679,-0.676,-0.683
10000,B1_1,-0.185,-0.283,-0.301,-0.164,1.0,0.581,0.384,-0.188,-0.316,-0.268,0.522,0.732,0.803,0.4,0.391,0.431
10000,B1_2,-0.08,-0.12,-0.135,-0.087,0.581,1.0,0.768,-0.056,-0.128,-0.11,0.562,0.721,0.704,-0.094,-0.149,-0.057
10000,B1_3,-0.111,0.137,-0.008,0.113,0.384,0.768,1.0,0.073,-0.021,0.055,0.337,0.479,0.405,-0.354,-0.4,-0.334
10000,A2_1,-0.783,0.961,0.987,0.975,-0.188,-0.056,0.073,1.0,0.974,0.985,0.17,0.187,-0.262,-0.605,-0.61,-0.607
10000,A2_2,-0.653,0.952,0.977,0.954,-0.316,-0.128,-0.021,0.974,1.0,0.989,0.101,0.137,-0.384,-0.667,-0.669,-0.674
10000,A2_3,-0.696,0.981,0.982,0.982,-0.268,-0.11,0.055,0.985,0.989,1.0,0.062,0.151,-0.366,-0.689,-0.689,-0.696
10000,B2_1,-0.299,-0.034,0.09,0.044,0.522,0.562,0.337,0.17,0.101,0.062,1.0,0.67,0.675,0.189,0.153,0.218
10000,B2_2,-0.206,0.072,0.109,0.177,0.732,0.721,0.479,0.187,0.137,0.151,0.67,1.0,0.684,-0.142,-0.147,-0.105
10000,B2_3,-0.052,-0.394,-0.366,-0.324,0.803,0.704,0.405,-0.262,-0.384,-0.366,0.675,0.684,1.0,0.461,0.447,0.495
10000,y1,0.121,-0.71,-0.656,-0.679,0.4,-0.094,-0.354,-0.605,-0.667,-0.689,0.189,-0.142,0.461,1.0,0.995,0.999
10000,y2,0.145,-0.711,-0.654,-0.676,0.391,-0.149,-0.4,-0.61,-0.669,-0.689,0.153,-0.147,0.447,0.995,1.0,0.994
10000,y3,0.115,-0.72,-0.658,-0.683,0.431,-0.057,-0.334,-0.607,-0.674,-0.696,0.218,-0.105,0.495,0.999,0.994,1.0
