,,.,A1_1,A1_2,A1_3,B1_1,B1_2,B1_3,A2_1,A2_2,A2_3,B2_1,B2_2,B2_3,y1,y2,y3
0,.,1.0,-0.277,0.225,0.231,-0.21,0.127,-0.556,-0.205,-0.379,0.263,-0.511,0.221,-0.203,0.23,-0.342,0.054
0,A1_1,-0.277,1.0,-0.197,-0.251,-0.022,0.119,0.331,0.073,0.366,-0.057,0.136,0.513,0.177,-0.349,-0.018,-0.177
0,A1_2,0.225,-0.197,1.0,0.476,-0.25,0.255,-0.172,0.373,-0.319,0.014,-0.606,-0.136,0.381,0.307,-0.142,-0.184
0,A1_3,0.231,-0.251,0.476,1.0,-0.031,-0.3,-0.096,-0.268,-0.434,-0.239,-0.323,-0.375,0.16,0.142,-0.481,0.415
0,B1_1,-0.21,-0.022,-0.25,-0.031,1.0,0.345,0.108,0.367,-0.163,-0.368,-0.128,-0.041,0.34,0.212,0.239,0.259
0,B1_2,0.127,0.119,0.255,-0.3,0.345,1.0,0.036,0.594,-0.266,0.238,-0.471,0.556,0.377,0.405,0.023,-0.625
0,B1_3,-0.556,0.331,-0.172,-0.096,0.108,0.036,1.0,0.176,-0.094,0.007,0.113,-0.152,0.249,-0.121,0.392,-0.158
0,A2_1,-0.205,0.073,0.373,-0.268,0.367,0.594,0.176,1.0,-0.325,-0.138,-0.445,-0.115,0.142,0.342,0.206,-0.075
0,A2_2,-0.379,0.366,-0.319,-0.434,-0.163,-0.266,-0.094,-0.325,1.0,-0.247,0.426,0.2,0.227,-0.287,0.364,-0.29
0,A2_3,0.263,-0.057,0.014,-0.239,-0.368,0.238,0.007,-0.138,-0.247,1.0,0.273,0.488,-0.12,0.158,-0.288,-0.409
0,B2_1,-0.511,0.136,-0.606,-0.323,-0.128,-0.471,0.113,-0.445,0.426,0.273,1.0,0.123,-0.259,-0.452,0.074,0.075
0,B2_2,0.221,0.513,-0.136,-0.375,-0.041,0.556,-0.152,-0.115,0.2,0.488,0.123,1.0,0.202,-0.093,-0.144,-0.613
0,B2_3,-0.203,0.177,0.381,0.16,0.34,0.377,0.249,0.142,0.227,-0.12,-0.259,0.202,1.0,0.332,0.301,-0.455
0,y1,0.23,-0.349,0.307,0.142,0.212,0.405,-0.121,0.342,-0.287,0.158,-0.452,-0.093,0.332,1.0,-0.298,-0.173
0,y2,-0.342,-0.018,-0.142,-0.481,0.239,0.023,0.392,0.206,0.364,-0.288,0.074,-0.144,0.301,-0.298,1.0,-0.185
0,y3,0.054,-0.177,-0.184,0.415,0.259,-0.625,-0.158,-0.075,-0.29,-0.409,0.075,-0.613,-0.455,-0.173,-0.185,1.0
500,.,1.0,0.24,-0.175,0.129,-0.229,-0.32,0.044,-0.335,-0.038,-0.228,-0.206,0.009,-0.147,-0.373,-0.153,-0.07
500,A1_1,0.24,1.0,-0.268,-0.29,0.022,0.051,0.455,0.051,0.413,-0.001,0.191,0.334,0.255,-0.573,-0.062,-0.423
500,A1_2,-0.175,-0.268,1.0,0.504,-0.206,0.031,-0.09,0.421,-0.262,0.062,-0.575,-0.367,0.431,0.739,0.091,0.053
500,A1_3,0.129,-0.29,0.504,1.0,0.041,-0.427,-0.089,-0.126,-0.353,-0.114,-0.227,-0.524,0.15,0.262,-0.367,0.457
500,B1_1,-0.229,0.022,-0.206,0.041,1.0,0.475,0.317,0.408,-0.141,-0.342,0.075,0.166,0.442,0.09,-0.147,-0.032
500,B1_2,-0.32,0.051,0.031,-0.427,0.475,1.0,0.288,0.489,-0.305,0.095,-0.251,0.679,0.438,0.337,-0.16,-0.52
500,B1_3,0.044,0.455,-0.09,-0.089,0.317,0.288,1.0,0.469,-0.141,0.05,0.09,0.002,0.282,-0.431,0.039,-0.391
500,A2_1,-0.335,0.051,0.421,-0.126,0.408,0.489,0.469,1.0,-0.278,-0.078,-0.283,-0.14,0.298,0.407,0.126,-0.047
500,A2_2,-0.038,0.413,-0.262,-0.353,-0.141,-0.305,-0.141,-0.278,1.0,-0.101,0.356,-0.033,0.179,-0.307,0.467,-0.345
500,A2_3,-0.228,-0.001,0.062,-0.114,-0.342,0.095,0.05,-0.078,-0.101,1.0,0.284,0.279,-0.101,0.041,0.001,-0.163
500,B2_1,-0.206,0.191,-0.575,-0.227,0.075,-0.251,0.09,-0.283,0.356,0.284,1.0,0.164,-0.235,-0.562,-0.036,-0.111
500,B2_2,0.009,0.334,-0.367,-0.524,0.166,0.679,0.002,-0.14,-0.033,0.279,0.164,1.0,0.207,-0.093,-0.329,-0.601
500,B2_3,-0.147,0.255,0.431,0.15,0.442,0.438,0.282,0.298,0.179,-0.101,-0.235,0.207,1.0,0.301,0.148,-0.579
500,y1,-0.373,-0.573,0.739,0.262,0.09,0.337,-0.431,0.407,-0.307,0.041,-0.562,-0.093,0.301,1.0,-0.028,0.15
500,y2,-0.153,-0.062,0.091,-0.367,-0.147,-0.16,0.039,0.126,0.467,0.001,-0.036,-0.329,0.148,-0.028,1.0,-0.115
500,y3,-0.07,-0.423,0.053,0.457,-0.032,-0.52,-0.391,-0.047,-0.345,-0.163,-0.111,-0.601,-0.579,0.15,-0.115,1.0
1000,.,1.0,0.237,-0.146,0.123,-0.228,-0.313,0.043,-0.314,-0.024,-0.23,-0.209,0.008,-0.144,-0.37,-0.15,-0.191
1000,A1_1,0.237,1.0,-0.266,-0.285,0.03,0.044,0.459,0.065,0.427,0.016,0.198,0.325,0.251,-0.626,-0.046,-0.481
1000,A1_2,-0.146,-0.266,1.0,0.523,-0.199,0.004,-0.061,0.432,-0.244,0.058,-0.575,-0.406,0.427,0.695,0.09,0.126
1000,A1_3,0.123,-0.285,0.523,1.0,0.046,-0.441,-0.094,-0.108,-0.326,-0.1,-0.212,-0.534,0.137,0.251,-0.345,0.474
1000,B1_1,-0.228,0.03,-0.199,0.046,1.0,0.478,0.328,0.4,-0.143,-0.332,0.085,0.172,0.452,0.16,-0.168,-0.007
1000,B1_2,-0.313,0.044,0.004,-0.441,0.478,1.0,0.297,0.473,-0.315,0.085,-0.241,0.681,0.442,0.319,-0.188,-0.499
1000,B1_3,0.043,0.459,-0.061,-0.094,0.328,0.297,1.0,0.483,-0.113,0.04,0.096,0.009,0.287,-0.43,-0.022,-0.344
1000,A2_1,-0.314,0.065,0.432,-0.108,0.4,0.473,0.483,1.0,-0.27,-0.055,-0.27,-0.149,0.301,0.421,0.104,0.025
1000,A2_2,-0.024,0.427,-0.244,-0.326,-0.143,-0.315,-0.113,-0.27,1.0,-0.101,0.345,-0.057,0.177,-0.347,0.443,-0.294
1000,A2_3,-0.23,0.016,0.058,-0.1,-0.332,0.085,0.04,-0.055,-0.101,1.0,0.292,0.274,-0.109,-0.065,0.076,-0.167
1000,B2_1,-0.209,0.198,-0.575,-0.212,0.085,-0.241,0.096,-0.27,0.345,0.292,1.0,0.167,-0.229,-0.516,-0.026,-0.149
1000,B2_2,0.008,0.325,-0.406,-0.534,0.172,0.681,0.009,-0.149,-0.057,0.274,0.167,1.0,0.209,-0.126,-0.31,-0.696
1000,B2_3,-0.144,0.251,0.427,0.137,0.452,0.442,0.287,0.301,0.177,-0.109,-0.229,0.209,1.0,0.3,0.122,-0.514
1000,y1,-0.37,-0.626,0.695,0.251,0.16,0.319,-0.43,0.421,-0.347,-0.065,-0.516,-0.126,0.3,1.0,0.035,0.244
1000,y2,-0.15,-0.046,0.09,-0.345,-0.168,-0.188,-0.022,0.104,0.443,0.076,-0.026,-0.31,0.122,0.035,1.0,0.031
1000,y3,-0.191,-0.481,0.126,0.474,-0.007,-0.499,-0.344,0.025,-0.294,-0.167,-0.149,-0.696,-0.514,0.244,0.031,1.0
1500,.,1.0,0.182,-0.127,0.134,-0.199,-0.302,0.038,-0.286,-0.061,-0.238,-0.19,0.002,-0.16,-0.284,-0.187,-0.195
1500,A1_1,0.182,1.0,-0.26,-0.286,0.033,0.04,0.455,0.075,0.434,0.042,0.209,0.325,0.246,-0.649,-0.02,-0.517
1500,A1_2,-0.127,-0.26,1.0,0.536,-0.195,-0.012,-0.068,0.439,-0.239,0.088,-0.563,-0.41,0.417,0.684,0.097,0.133
1500,A1_3,0.134,-0.286,0.536,1.0,0.049,-0.452,-0.112,-0.092,-0.315,-0.07,-0.197,-0.538,0.121,0.242,-0.277,0.43
1500,B1_1,-0.199,0.033,-0.195,0.049,1.0,0.482,0.338,0.39,-0.141,-0.357,0.095,0.179,0.461,0.152,-0.142,-0.016
1500,B1_2,-0.302,0.04,-0.012,-0.452,0.482,1.0,0.304,0.461,-0.319,0.074,-0.232,0.684,0.446,0.3,-0.2,-0.506
1500,B1_3,0.038,0.455,-0.068,-0.112,0.338,0.304,1.0,0.499,-0.1,0.055,0.1,0.015,0.291,-0.411,-0.045,-0.324
1500,A2_1,-0.286,0.075,0.439,-0.092,0.39,0.461,0.499,1.0,-0.263,-0.048,-0.261,-0.155,0.302,0.434,0.101,0.04
1500,A2_2,-0.061,0.434,-0.239,-0.315,-0.141,-0.319,-0.1,-0.263,1.0,-0.097,0.344,-0.065,0.176,-0.372,0.374,-0.165
1500,A2_3,-0.238,0.042,0.088,-0.07,-0.357,0.074,0.055,-0.048,-0.097,1.0,0.272,0.256,-0.113,-0.124,0.091,-0.234
1500,B2_1,-0.19,0.209,-0.563,-0.197,0.095,-0.232,0.1,-0.261,0.344,0.272,1.0,0.17,-0.223,-0.515,-0.016,-0.187
1500,B2_2,0.002,0.325,-0.41,-0.538,0.179,0.684,0.015,-0.155,-0.065,0.256,0.17,1.0,0.21,-0.158,-0.293,-0.775
1500,B2_3,-0.16,0.246,0.417,0.121,0.461,0.446,0.291,0.302,0.176,-0.113,-0.223,0.21,1.0,0.261,0.144,-0.481
1500,y1,-0.284,-0.649,0.684,0.242,0.152,0.3,-0.411,0.434,-0.372,-0.124,-0.515,-0.158,0.261,1.0,0.054,0.265
1500,y2,-0.187,-0.02,0.097,-0.277,-0.142,-0.2,-0.045,0.101,0.374,0.091,-0.016,-0.293,0.144,0.054,1.0,0.146
1500,y3,-0.195,-0.517,0.133,0.43,-0.016,-0.506,-0.324,0.04,-0.165,-0.234,-0.187,-0.775,-0.481,0.265,0.146,1.0
2000,.,1.0,0.141,-0.117,0.149,-0.201,-0.299,0.04,-0.282,-0.091,-0.223,-0.159,0.005,-0.181,-0.189,-0.266,-0.232
2000,A1_1,0.141,1.0,-0.228,-0.277,0.037,0.038,0.443,0.087,0.431,0.072,0.231,0.331,0.246,-0.614,0.01,-0.578
2000,A1_2,-0.117,-0.228,1.0,0.554,-0.205,-0.025,-0.049,0.431,-0.235,0.11,-0.576,-0.425,0.397,0.64,0.148,0.083
2000,A1_3,0.149,-0.277,0.554,1.0,0.036,-0.464,-0.13,-0.084,-0.304,-0.05,-0.201,-0.544,0.102,0.314,-0.237,0.365
2000,B1_1,-0.201,0.037,-0.205,0.036,1.0,0.491,0.371,0.383,-0.131,-0.377,0.127,0.195,0.486,0.199,-0.204,-0.012
2000,B1_2,-0.299,0.038,-0.025,-0.464,0.491,1.0,0.331,0.449,-0.319,0.064,-0.202,0.689,0.456,0.178,-0.227,-0.506
2000,B1_3,0.04,0.443,-0.049,-0.13,0.371,0.331,1.0,0.518,-0.1,0.043,0.119,0.041,0.309,-0.424,0.014,-0.452
2000,A2_1,-0.282,0.087,0.431,-0.084,0.383,0.449,0.518,1.0,-0.26,-0.029,-0.231,-0.157,0.298,0.352,0.219,-0.089
2000,A2_2,-0.091,0.431,-0.235,-0.304,-0.131,-0.319,-0.1,-0.26,1.0,-0.085,0.352,-0.062,0.178,-0.241,0.279,-0.03
2000,A2_3,-0.223,0.072,0.11,-0.05,-0.377,0.064,0.043,-0.029,-0.085,1.0,0.241,0.24,-0.122,-0.195,0.123,-0.301
2000,B2_1,-0.159,0.231,-0.576,-0.201,0.127,-0.202,0.119,-0.231,0.352,0.241,1.0,0.187,-0.196,-0.509,-0.034,-0.2
2000,B2_2,0.005,0.331,-0.425,-0.544,0.195,0.689,0.041,-0.157,-0.062,0.24,0.187,1.0,0.219,-0.246,-0.378,-0.734
2000,B2_3,-0.181,0.246,0.397,0.102,0.486,0.456,0.309,0.298,0.178,-0.122,-0.196,0.219,1.0,0.342,0.07,-0.381
2000,y1,-0.189,-0.614,0.64,0.314,0.199,0.178,-0.424,0.352,-0.241,-0.195,-0.509,-0.246,0.342,1.0,0.145,0.373
2000,y2,-0.266,0.01,0.148,-0.237,-0.204,-0.227,0.014,0.219,0.279,0.123,-0.034,-0.378,0.07,0.145,1.0,0.3
2000,y3,-0.232,-0.578,0.083,0.365,-0.012,-0.506,-0.452,-0.089,-0.03,-0.301,-0.2,-0.734,-0.381,0.373,0.3,1.0
2500,.,1.0,0.117,-0.107,0.145,-0.195,-0.292,0.066,-0.233,-0.124,-0.237,-0.145,-0.011,-0.202,-0.148,-0.265,-0.353
2500,A1_1,0.117,1.0,-0.198,-0.259,0.036,0.033,0.462,0.091,0.45,0.092,0.242,0.319,0.247,-0.598,-0.09,-0.567
2500,A1_2,-0.107,-0.198,1.0,0.581,-0.202,-0.039,-0.033,0.416,-0.23,0.132,-0.577,-0.43,0.379,0.537,0.112,0.082
2500,A1_3,0.145,-0.259,0.581,1.0,0.028,-0.468,-0.129,-0.073,-0.286,-0.033,-0.201,-0.542,0.101,0.287,-0.262,0.314
2500,B1_1,-0.195,0.036,-0.202,0.028,1.0,0.503,0.396,0.383,-0.123,-0.377,0.154,0.21,0.504,0.232,-0.254,0.012
2500,B1_2,-0.292,0.033,-0.039,-0.468,0.503,1.0,0.349,0.429,-0.313,0.052,-0.171,0.692,0.462,0.158,-0.221,-0.438
2500,B1_3,0.066,0.462,-0.033,-0.129,0.396,0.349,1.0,0.51,-0.071,0.041,0.142,0.062,0.327,-0.42,-0.04,-0.502
2500,A2_1,-0.233,0.091,0.416,-0.073,0.383,0.429,0.51,1.0,-0.255,0.002,-0.193,-0.154,0.277,0.354,0.264,-0.104
2500,A2_2,-0.124,0.45,-0.23,-0.286,-0.123,-0.313,-0.071,-0.255,1.0,-0.065,0.354,-0.065,0.182,-0.277,0.165,0.011
2500,A2_3,-0.237,0.092,0.132,-0.033,-0.377,0.052,0.041,0.002,-0.065,1.0,0.221,0.221,-0.114,-0.165,0.131,-0.25
2500,B2_1,-0.145,0.242,-0.577,-0.201,0.154,-0.171,0.142,-0.193,0.354,0.221,1.0,0.21,-0.163,-0.503,-0.062,-0.215
2500,B2_2,-0.011,0.319,-0.43,-0.542,0.21,0.692,0.062,-0.154,-0.065,0.221,0.21,1.0,0.229,-0.235,-0.407,-0.663
2500,B2_3,-0.202,0.247,0.379,0.101,0.504,0.462,0.327,0.277,0.182,-0.114,-0.163,0.229,1.0,0.299,-0.055,-0.276
2500,y1,-0.148,-0.598,0.537,0.287,0.232,0.158,-0.42,0.354,-0.277,-0.165,-0.503,-0.235,0.299,1.0,0.238,0.457
2500,y2,-0.265,-0.09,0.112,-0.262,-0.254,-0.221,-0.04,0.264,0.165,0.131,-0.062,-0.407,-0.055,0.238,1.0,0.393
2500,y3,-0.353,-0.567,0.082,0.314,0.012,-0.438,-0.502,-0.104,0.011,-0.25,-0.215,-0.663,-0.276,0.457,0.393,1.0
3000,.,1.0,0.101,-0.11,0.125,-0.202,-0.285,0.056,-0.214,-0.142,-0.231,-0.134,-0.004,-0.229,-0.219,-0.299,-0.389
3000,A1_1,0.101,1.0,-0.161,-0.247,0.021,0.02,0.463,0.094,0.459,0.119,0.247,0.311,0.238,-0.577,-0.102,-0.568
3000,A1_2,-0.11,-0.161,1.0,0.601,-0.201,-0.055,-0.018,0.417,-0.213,0.162,-0.56,-0.435,0.362,0.556,0.099,0.101
3000,A1_3,0.125,-0.247,0.601,1.0,0.023,-0.467,-0.11,-0.064,-0.268,-0.026,-0.202,-0.546,0.103,0.337,-0.222,0.322
3000,B1_1,-0.202,0.021,-0.201,0.023,1.0,0.517,0.429,0.363,-0.118,-0.386,0.185,0.229,0.517,0.18,-0.259,-0.013
3000,B1_2,-0.285,0.02,-0.055,-0.467,0.517,1.0,0.367,0.399,-0.313,0.044,-0.145,0.694,0.467,0.099,-0.255,-0.432
3000,B1_3,0.056,0.463,-0.018,-0.11,0.429,0.367,1.0,0.522,-0.055,0.04,0.169,0.084,0.351,-0.443,-0.135,-0.516
3000,A2_1,-0.214,0.094,0.417,-0.064,0.363,0.399,0.522,1.0,-0.239,0.031,-0.176,-0.175,0.259,0.265,0.255,-0.078
3000,A2_2,-0.142,0.459,-0.213,-0.268,-0.118,-0.313,-0.055,-0.239,1.0,-0.05,0.364,-0.062,0.178,-0.247,0.171,-0.003
3000,A2_3,-0.231,0.119,0.162,-0.026,-0.386,0.044,0.04,0.031,-0.05,1.0,0.195,0.202,-0.116,-0.144,0.121,-0.228
3000,B2_1,-0.134,0.247,-0.56,-0.202,0.185,-0.145,0.169,-0.176,0.364,0.195,1.0,0.229,-0.126,-0.468,-0.05,-0.225
3000,B2_2,-0.004,0.311,-0.435,-0.546,0.229,0.694,0.084,-0.175,-0.062,0.202,0.229,1.0,0.239,-0.251,-0.423,-0.669
3000,B2_3,-0.229,0.238,0.362,0.103,0.517,0.467,0.351,0.259,0.178,-0.116,-0.126,0.239,1.0,0.369,-0.043,-0.269
3000,y1,-0.219,-0.577,0.556,0.337,0.18,0.099,-0.443,0.265,-0.247,-0.144,-0.468,-0.251,0.369,1.0,0.337,0.49
3000,y2,-0.299,-0.102,0.099,-0.222,-0.259,-0.255,-0.135,0.255,0.171,0.121,-0.05,-0.423,-0.043,0.337,1.0,0.444
3000,y3,-0.389,-0.568,0.101,0.322,-0.013,-0.432,-0.516,-0.078,-0.003,-0.228,-0.225,-0.669,-0.269,0.49,0.444,1.0
3500,.,1.0,0.13,-0.084,0.149,-0.228,-0.299,0.057,-0.239,-0.133,-0.199,-0.109,0.012,-0.222,-0.306,-0.338,-0.446
3500,A1_1,0.13,1.0,-0.128,-0.23,0.013,0.007,0.47,0.104,0.474,0.139,0.26,0.299,0.232,-0.58,-0.13,-0.553
3500,A1_2,-0.084,-0.128,1.0,0.608,-0.196,-0.069,-0.032,0.423,-0.189,0.186,-0.546,-0.425,0.348,0.564,0.065,0.153
3500,A1_3,0.149,-0.23,0.608,1.0,0.023,-0.471,-0.113,-0.055,-0.255,-0.022,-0.201,-0.542,0.095,0.318,-0.236,0.369
3500,B1_1,-0.228,0.013,-0.196,0.023,1.0,0.519,0.438,0.344,-0.12,-0.39,0.203,0.236,0.527,0.186,-0.273,-0.016
3500,B1_2,-0.299,0.007,-0.069,-0.471,0.519,1.0,0.378,0.379,-0.313,0.042,-0.122,0.694,0.471,0.114,-0.245,-0.442
3500,B1_3,0.057,0.47,-0.032,-0.113,0.438,0.378,1.0,0.543,-0.029,0.042,0.184,0.1,0.361,-0.434,-0.19,-0.506
3500,A2_1,-0.239,0.104,0.423,-0.055,0.344,0.379,0.543,1.0,-0.221,0.05,-0.175,-0.2,0.245,0.263,0.226,-0.061
3500,A2_2,-0.133,0.474,-0.189,-0.255,-0.12,-0.313,-0.029,-0.221,1.0,-0.041,0.364,-0.07,0.176,-0.246,0.134,-0.008
3500,A2_3,-0.199,0.139,0.186,-0.022,-0.39,0.042,0.042,0.05,-0.041,1.0,0.173,0.191,-0.116,-0.135,0.147,-0.179
3500,B2_1,-0.109,0.26,-0.546,-0.201,0.203,-0.122,0.184,-0.175,0.364,0.173,1.0,0.252,-0.101,-0.434,-0.052,-0.236
3500,B2_2,0.012,0.299,-0.425,-0.542,0.236,0.694,0.1,-0.2,-0.07,0.191,0.252,1.0,0.246,-0.253,-0.394,-0.686
3500,B2_3,-0.222,0.232,0.348,0.095,0.527,0.471,0.361,0.245,0.176,-0.116,-0.101,0.246,1.0,0.377,-0.061,-0.201
3500,y1,-0.306,-0.58,0.564,0.318,0.186,0.114,-0.434,0.263,-0.246,-0.135,-0.434,-0.253,0.377,1.0,0.36,0.532
3500,y2,-0.338,-0.13,0.065,-0.236,-0.273,-0.245,-0.19,0.226,0.134,0.147,-0.052,-0.394,-0.061,0.36,1.0,0.484
3500,y3,-0.446,-0.553,0.153,0.369,-0.016,-0.442,-0.506,-0.061,-0.008,-0.179,-0.236,-0.686,-0.201,0.532,0.484,1.0
4000,.,1.0,0.125,-0.069,0.162,-0.234,-0.286,0.07,-0.232,-0.147,-0.184,-0.092,0.016,-0.218,-0.334,-0.384,-0.518
4000,A1_1,0.125,1.0,-0.109,-0.224,0.012,-0.003,0.462,0.108,0.486,0.157,0.283,0.3,0.225,-0.568,-0.14,-0.543
4000,A1_2,-0.069,-0.109,1.0,0.615,-0.2,-0.077,-0.004,0.429,-0.169,0.194,-0.549,-0.436,0.345,0.492,0.063,0.152
4000,A1_3,0.162,-0.224,0.615,1.0,0.011,-0.475,-0.116,-0.048,-0.251,-0.011,-0.207,-0.542,0.088,0.328,-0.234,0.341
4000,B1_1,-0.234,0.012,-0.2,0.011,1.0,0.529,0.44,0.326,-0.123,-0.388,0.217,0.256,0.53,0.175,-0.295,0.002
4000,B1_2,-0.286,-0.003,-0.077,-0.475,0.529,1.0,0.382,0.36,-0.313,0.037,-0.104,0.7,0.472,0.067,-0.251,-0.391
4000,B1_3,0.07,0.462,-0.004,-0.116,0.44,0.382,1.0,0.55,-0.026,0.05,0.194,0.108,0.364,-0.47,-0.209,-0.509
4000,A2_1,-0.232,0.108,0.429,-0.048,0.326,0.36,0.55,1.0,-0.207,0.074,-0.169,-0.21,0.233,0.206,0.238,-0.041
4000,A2_2,-0.147,0.486,-0.169,-0.251,-0.123,-0.313,-0.026,-0.207,1.0,-0.026,0.365,-0.069,0.176,-0.26,0.145,-0.034
4000,A2_3,-0.184,0.157,0.194,-0.011,-0.388,0.037,0.05,0.074,-0.026,1.0,0.167,0.172,-0.11,-0.124,0.161,-0.18
4000,B2_1,-0.092,0.283,-0.549,-0.207,0.217,-0.104,0.194,-0.169,0.365,0.167,1.0,0.27,-0.087,-0.4,-0.067,-0.258
4000,B2_2,0.016,0.3,-0.436,-0.542,0.256,0.7,0.108,-0.21,-0.069,0.172,0.27,1.0,0.251,-0.256,-0.414,-0.646
4000,B2_3,-0.218,0.225,0.345,0.088,0.53,0.472,0.364,0.233,0.176,-0.11,-0.087,0.251,1.0,0.346,-0.077,-0.158
4000,y1,-0.334,-0.568,0.492,0.328,0.175,0.067,-0.47,0.206,-0.26,-0.124,-0.4,-0.256,0.346,1.0,0.407,0.609
4000,y2,-0.384,-0.14,0.063,-0.234,-0.295,-0.251,-0.209,0.238,0.145,0.161,-0.067,-0.414,-0.077,0.407,1.0,0.524
4000,y3,-0.518,-0.543,0.152,0.341,0.002,-0.391,-0.509,-0.041,-0.034,-0.18,-0.258,-0.646,-0.158,0.609,0.524,1.0
4500,.,1.0,0.129,-0.056,0.151,-0.236,-0.247,0.1,-0.196,-0.156,-0.175,-0.098,0.036,-0.222,-0.431,-0.434,-0.554
4500,A1_1,0.129,1.0,-0.08,-0.216,0.008,-0.007,0.464,0.124,0.497,0.181,0.289,0.296,0.223,-0.549,-0.152,-0.54
4500,A1_2,-0.056,-0.08,1.0,0.627,-0.194,-0.088,-0.015,0.432,-0.143,0.218,-0.524,-0.43,0.336,0.478,0.011,0.119
4500,A1_3,0.151,-0.216,0.627,1.0,0.012,-0.467,-0.106,-0.035,-0.248,0.004,-0.22,-0.544,0.082,0.308,-0.248,0.302
4500,B1_1,-0.236,0.008,-0.194,0.012,1.0,0.534,0.452,0.312,-0.133,-0.363,0.228,0.264,0.535,0.181,-0.267,-0.048
4500,B1_2,-0.247,-0.007,-0.088,-0.467,0.534,1.0,0.393,0.345,-0.32,0.038,-0.092,0.701,0.476,0.078,-0.219,-0.395
4500,B1_3,0.1,0.464,-0.015,-0.106,0.452,0.393,1.0,0.546,-0.022,0.062,0.207,0.121,0.37,-0.461,-0.236,-0.56
4500,A2_1,-0.196,0.124,0.432,-0.035,0.312,0.345,0.546,1.0,-0.194,0.102,-0.148,-0.212,0.226,0.212,0.185,-0.129
4500,A2_2,-0.156,0.497,-0.143,-0.248,-0.133,-0.32,-0.022,-0.194,1.0,0.007,0.37,-0.069,0.168,-0.261,0.099,-0.02
4500,A2_3,-0.175,0.181,0.218,0.004,-0.363,0.038,0.062,0.102,0.007,1.0,0.183,0.166,-0.088,-0.072,0.128,-0.196
4500,B2_1,-0.098,0.289,-0.524,-0.22,0.228,-0.092,0.207,-0.148,0.37,0.183,1.0,0.279,-0.074,-0.385,-0.065,-0.278
4500,B2_2,0.036,0.296,-0.43,-0.544,0.264,0.701,0.121,-0.212,-0.069,0.166,0.279,1.0,0.255,-0.25,-0.359,-0.609
4500,B2_3,-0.222,0.223,0.336,0.082,0.535,0.476,0.37,0.226,0.168,-0.088,-0.074,0.255,1.0,0.345,-0.04,-0.143
4500,y1,-0.431,-0.549,0.478,0.308,0.181,0.078,-0.461,0.212,-0.261,-0.072,-0.385,-0.25,0.345,1.0,0.455,0.637
4500,y2,-0.434,-0.152,0.011,-0.248,-0.267,-0.219,-0.236,0.185,0.099,0.128,-0.065,-0.359,-0.04,0.455,1.0,0.554
4500,y3,-0.554,-0.54,0.119,0.302,-0.048,-0.395,-0.56,-0.129,-0.02,-0.196,-0.278,-0.609,-0.143,0.637,0.554,1.0
5000,.,1.0,0.158,-0.021,0.178,-0.252,-0.278,0.141,-0.142,-0.131,-0.154,-0.089,-0.01,-0.219,-0.505,-0.542,-0.759
5000,A1_1,0.158,1.0,-0.035,-0.192,-0.001,-0.02,0.468,0.139,0.504,0.21,0.288,0.285,0.214,-0.592,-0.194,-0.563
5000,A1_2,-0.021,-0.035,1.0,0.644,-0.194,-0.108,-0.009,0.434,-0.116,0.251,-0.504,-0.431,0.31,0.294,0.013,0.248
5000,A1_3,0.178,-0.192,0.644,1.0,0.008,-0.463,-0.115,-0.011,-0.238,0.038,-0.208,-0.523,0.068,0.19,-0.308,0.188
5000,B1_1,-0.252,-0.001,-0.194,0.008,1.0,0.55,0.47,0.281,-0.134,-0.356,0.241,0.282,0.547,0.108,-0.181,0.102
5000,B1_2,-0.278,-0.02,-0.108,-0.463,0.55,1.0,0.404,0.292,-0.326,0.026,-0.071,0.702,0.492,0.053,-0.072,-0.082
5000,B1_3,0.141,0.468,-0.009,-0.115,0.47,0.404,1.0,0.538,-0.03,0.065,0.224,0.141,0.38,-0.54,-0.247,-0.458
5000,A2_1,-0.142,0.139,0.434,-0.011,0.281,0.292,0.538,1.0,-0.174,0.137,-0.144,-0.248,0.188,0.133,0.293,0.175
5000,A2_2,-0.131,0.504,-0.116,-0.238,-0.134,-0.326,-0.03,-0.174,1.0,0.029,0.374,-0.065,0.16,-0.29,0.066,-0.096
5000,A2_3,-0.154,0.21,0.251,0.038,-0.356,0.026,0.065,0.137,0.029,1.0,0.183,0.155,-0.089,-0.093,0.141,-0.073
5000,B2_1,-0.089,0.288,-0.504,-0.208,0.241,-0.071,0.224,-0.144,0.374,0.183,1.0,0.297,-0.055,-0.431,-0.074,-0.246
5000,B2_2,-0.01,0.285,-0.431,-0.523,0.282,0.702,0.141,-0.248,-0.065,0.155,0.297,1.0,0.272,-0.262,-0.29,-0.466
5000,B2_3,-0.219,0.214,0.31,0.068,0.547,0.492,0.38,0.188,0.16,-0.089,-0.055,0.272,1.0,0.183,0.001,0.016
5000,y1,-0.505,-0.592,0.294,0.19,0.108,0.053,-0.54,0.133,-0.29,-0.093,-0.431,-0.262,0.183,1.0,0.636,0.851
5000,y2,-0.542,-0.194,0.013,-0.308,-0.181,-0.072,-0.247,0.293,0.066,0.141,-0.074,-0.29,0.001,0.636,1.0,0.644
5000,y3,-0.759,-0.563,0.248,0.188,0.102,-0.082,-0.458,0.175,-0.096,-0.073,-0.246,-0.466,0.016,0.851,0.644,1.0
5500,.,1.0,0.179,-0.0,0.173,-0.226,-0.237,0.167,-0.1,-0.155,-0.141,-0.084,0.032,-0.198,-0.573,-0.55,-0.724
5500,A1_1,0.179,1.0,-0.007,-0.167,-0.018,-0.035,0.455,0.146,0.513,0.228,0.286,0.274,0.202,-0.613,-0.18,-0.568
5500,A1_2,-0.0,-0.007,1.0,0.652,-0.207,-0.124,-0.01,0.449,-0.098,0.276,-0.499,-0.437,0.295,0.311,0.062,0.194
5500,A1_3,0.173,-0.167,0.652,1.0,0.003,-0.461,-0.105,0.018,-0.23,0.058,-0.2,-0.513,0.066,0.16,-0.254,0.156
5500,B1_1,-0.226,-0.018,-0.207,0.003,1.0,0.562,0.485,0.24,-0.132,-0.364,0.25,0.293,0.554,0.12,-0.138,0.136
5500,B1_2,-0.237,-0.035,-0.124,-0.461,0.562,1.0,0.413,0.246,-0.316,0.009,-0.055,0.699,0.511,0.108,-0.089,-0.093
5500,B1_3,0.167,0.455,-0.01,-0.105,0.485,0.413,1.0,0.521,-0.012,0.056,0.235,0.151,0.395,-0.473,-0.234,-0.512
5500,A2_1,-0.1,0.146,0.449,0.018,0.24,0.246,0.521,1.0,-0.154,0.165,-0.147,-0.286,0.155,0.179,0.346,0.131
5500,A2_2,-0.155,0.513,-0.098,-0.23,-0.132,-0.316,-0.012,-0.154,1.0,0.033,0.369,-0.069,0.16,-0.296,0.111,-0.05
5500,A2_3,-0.141,0.228,0.276,0.058,-0.364,0.009,0.056,0.165,0.033,1.0,0.169,0.134,-0.097,-0.061,0.164,-0.172
5500,B2_1,-0.084,0.286,-0.499,-0.2,0.25,-0.055,0.235,-0.147,0.369,0.169,1.0,0.309,-0.043,-0.434,-0.044,-0.22
5500,B2_2,0.032,0.274,-0.437,-0.513,0.293,0.699,0.151,-0.286,-0.069,0.134,0.309,1.0,0.287,-0.281,-0.325,-0.439
5500,B2_3,-0.198,0.202,0.295,0.066,0.554,0.511,0.395,0.155,0.16,-0.097,-0.043,0.287,1.0,0.21,0.042,0.056
5500,y1,-0.573,-0.613,0.311,0.16,0.12,0.108,-0.473,0.179,-0.296,-0.061,-0.434,-0.281,0.21,1.0,0.672,0.898
5500,y2,-0.55,-0.18,0.062,-0.254,-0.138,-0.089,-0.234,0.346,0.111,0.164,-0.044,-0.325,0.042,0.672,1.0,0.667
5500,y3,-0.724,-0.568,0.194,0.156,0.136,-0.093,-0.512,0.131,-0.05,-0.172,-0.22,-0.439,0.056,0.898,0.667,1.0
6000,.,1.0,0.232,-0.037,0.112,-0.22,-0.181,0.186,-0.109,-0.179,-0.176,-0.086,0.094,-0.211,-0.65,-0.559,-0.763
6000,A1_1,0.232,1.0,0.05,-0.119,-0.03,-0.059,0.416,0.169,0.538,0.255,0.288,0.247,0.175,-0.588,-0.234,-0.553
6000,A1_2,-0.037,0.05,1.0,0.658,-0.212,-0.159,-0.019,0.468,-0.052,0.32,-0.472,-0.438,0.25,0.32,0.039,0.202
6000,A1_3,0.112,-0.119,0.658,1.0,0.003,-0.476,-0.097,0.055,-0.187,0.087,-0.188,-0.51,0.04,0.117,-0.288,0.111
6000,B1_1,-0.22,-0.03,-0.212,0.003,1.0,0.571,0.536,0.223,-0.142,-0.368,0.298,0.319,0.579,0.078,-0.172,0.104
6000,B1_2,-0.181,-0.059,-0.159,-0.476,0.571,1.0,0.464,0.199,-0.33,-0.017,0.0,0.713,0.538,0.097,-0.068,-0.073
6000,B1_3,0.186,0.416,-0.019,-0.097,0.536,0.464,1.0,0.502,-0.041,0.044,0.273,0.205,0.428,-0.418,-0.275,-0.469
6000,A2_1,-0.109,0.169,0.468,0.055,0.223,0.199,0.502,1.0,-0.122,0.198,-0.13,-0.304,0.125,0.237,0.324,0.136
6000,A2_2,-0.179,0.538,-0.052,-0.187,-0.142,-0.33,-0.041,-0.122,1.0,0.06,0.346,-0.093,0.126,-0.297,0.051,-0.046
6000,A2_3,-0.176,0.255,0.32,0.087,-0.368,-0.017,0.044,0.198,0.06,1.0,0.166,0.108,-0.116,-0.052,0.143,-0.191
6000,B2_1,-0.086,0.288,-0.472,-0.188,0.298,0.0,0.273,-0.13,0.346,0.166,1.0,0.341,0.006,-0.395,-0.099,-0.195
6000,B2_2,0.094,0.247,-0.438,-0.51,0.319,0.713,0.205,-0.304,-0.093,0.108,0.341,1.0,0.322,-0.31,-0.313,-0.423
6000,B2_3,-0.211,0.175,0.25,0.04,0.579,0.538,0.428,0.125,0.126,-0.116,0.006,0.322,1.0,0.197,0.014,0.11
6000,y1,-0.65,-0.588,0.32,0.117,0.078,0.097,-0.418,0.237,-0.297,-0.052,-0.395,-0.31,0.197,1.0,0.737,0.916
6000,y2,-0.559,-0.234,0.039,-0.288,-0.172,-0.068,-0.275,0.324,0.051,0.143,-0.099,-0.313,0.014,0.737,1.0,0.693
6000,y3,-0.763,-0.553,0.202,0.111,0.104,-0.073,-0.469,0.136,-0.046,-0.191,-0.195,-0.423,0.11,0.916,0.693,1.0
6500,.,1.0,0.236,-0.019,0.117,-0.208,-0.162,0.194,-0.091,-0.193,-0.169,-0.083,0.106,-0.22,-0.69,-0.622,-0.755
6500,A1_1,0.236,1.0,0.098,-0.097,-0.041,-0.068,0.421,0.185,0.548,0.26,0.274,0.227,0.167,-0.577,-0.18,-0.539
6500,A1_2,-0.019,0.098,1.0,0.664,-0.224,-0.173,-0.014,0.502,-0.035,0.352,-0.457,-0.436,0.218,0.265,0.107,0.191
6500,A1_3,0.117,-0.097,0.664,1.0,-0.008,-0.484,-0.098,0.079,-0.172,0.105,-0.192,-0.518,0.026,0.074,-0.2,0.104
6500,B1_1,-0.208,-0.041,-0.224,-0.008,1.0,0.574,0.54,0.197,-0.149,-0.372,0.305,0.323,0.581,0.107,-0.144,0.125
6500,B1_2,-0.162,-0.068,-0.173,-0.484,0.574,1.0,0.468,0.173,-0.339,-0.032,0.007,0.716,0.544,0.09,-0.098,-0.078
6500,B1_3,0.194,0.421,-0.014,-0.098,0.54,0.468,1.0,0.487,-0.026,0.037,0.279,0.211,0.43,-0.438,-0.257,-0.475
6500,A2_1,-0.091,0.185,0.502,0.079,0.197,0.173,0.487,1.0,-0.09,0.216,-0.144,-0.324,0.11,0.187,0.297,0.139
6500,A2_2,-0.193,0.548,-0.035,-0.172,-0.149,-0.339,-0.026,-0.09,1.0,0.069,0.344,-0.108,0.115,-0.151,0.125,0.026
6500,A2_3,-0.169,0.26,0.352,0.105,-0.372,-0.032,0.037,0.216,0.069,1.0,0.157,0.095,-0.122,-0.047,0.162,-0.184
6500,B2_1,-0.083,0.274,-0.457,-0.192,0.305,0.007,0.279,-0.144,0.344,0.157,1.0,0.346,0.014,-0.313,-0.036,-0.186
6500,B2_2,0.106,0.227,-0.436,-0.518,0.323,0.716,0.211,-0.324,-0.108,0.095,0.346,1.0,0.33,-0.279,-0.316,-0.415
6500,B2_3,-0.22,0.167,0.218,0.026,0.581,0.544,0.43,0.11,0.115,-0.122,0.014,0.33,1.0,0.266,0.127,0.161
6500,y1,-0.69,-0.577,0.265,0.074,0.107,0.09,-0.438,0.187,-0.151,-0.047,-0.313,-0.279,0.266,1.0,0.759,0.941
6500,y2,-0.622,-0.18,0.107,-0.2,-0.144,-0.098,-0.257,0.297,0.125,0.162,-0.036,-0.316,0.127,0.759,1.0,0.727
6500,y3,-0.755,-0.539,0.191,0.104,0.125,-0.078,-0.475,0.139,0.026,-0.184,-0.186,-0.415,0.161,0.941,0.727,1.0
7000,.,1.0,0.25,-0.002,0.115,-0.208,-0.149,0.2,-0.077,-0.179,-0.158,-0.08,0.116,-0.208,-0.698,-0.653,-0.78
7000,A1_1,0.25,1.0,0.119,-0.082,-0.052,-0.08,0.409,0.189,0.56,0.27,0.271,0.222,0.162,-0.613,-0.244,-0.55
7000,A1_2,-0.002,0.119,1.0,0.663,-0.225,-0.173,-0.005,0.526,-0.022,0.369,-0.455,-0.435,0.215,0.228,0.033,0.185
7000,A1_3,0.115,-0.082,0.663,1.0,-0.015,-0.484,-0.093,0.09,-0.164,0.116,-0.203,-0.52,0.03,0.108,-0.255,0.137
7000,B1_1,-0.208,-0.052,-0.225,-0.015,1.0,0.575,0.543,0.179,-0.152,-0.376,0.308,0.326,0.583,0.109,-0.11,0.092
7000,B1_2,-0.149,-0.08,-0.173,-0.484,0.575,1.0,0.47,0.157,-0.343,-0.037,0.01,0.716,0.545,0.037,-0.067,-0.122
7000,B1_3,0.2,0.409,-0.005,-0.093,0.543,0.47,1.0,0.473,-0.025,0.039,0.282,0.215,0.432,-0.419,-0.296,-0.492
7000,A2_1,-0.077,0.189,0.526,0.09,0.179,0.157,0.473,1.0,-0.072,0.231,-0.153,-0.333,0.104,0.179,0.279,0.137
7000,A2_2,-0.179,0.56,-0.022,-0.164,-0.152,-0.343,-0.025,-0.072,1.0,0.075,0.341,-0.113,0.111,-0.182,0.11,-0.003
7000,A2_3,-0.158,0.27,0.369,0.116,-0.376,-0.037,0.039,0.231,0.075,1.0,0.144,0.085,-0.122,-0.07,0.126,-0.122
7000,B2_1,-0.08,0.271,-0.455,-0.203,0.308,0.01,0.282,-0.153,0.341,0.144,1.0,0.348,0.017,-0.324,-0.035,-0.21
7000,B2_2,0.116,0.222,-0.435,-0.52,0.326,0.716,0.215,-0.333,-0.113,0.085,0.348,1.0,0.332,-0.354,-0.292,-0.455
7000,B2_3,-0.208,0.162,0.215,0.03,0.583,0.545,0.432,0.104,0.111,-0.122,0.017,0.332,1.0,0.228,0.086,0.105
7000,y1,-0.698,-0.613,0.228,0.108,0.109,0.037,-0.419,0.179,-0.182,-0.07,-0.324,-0.354,0.228,1.0,0.789,0.952
7000,y2,-0.653,-0.244,0.033,-0.255,-0.11,-0.067,-0.296,0.279,0.11,0.126,-0.035,-0.292,0.086,0.789,1.0,0.764
7000,y3,-0.78,-0.55,0.185,0.137,0.092,-0.122,-0.492,0.137,-0.003,-0.122,-0.21,-0.455,0.105,0.952,0.764,1.0
7500,.,1.0,0.258,0.014,0.113,-0.21,-0.142,0.211,-0.079,-0.169,-0.15,-0.077,0.122,-0.202,-0.724,-0.68,-0.812
7500,A1_1,0.258,1.0,0.143,-0.067,-0.056,-0.087,0.399,0.194,0.567,0.29,0.277,0.222,0.154,-0.618,-0.255,-0.562
7500,A1_2,0.014,0.143,1.0,0.67,-0.223,-0.176,0.007,0.531,-0.019,0.386,-0.437,-0.426,0.205,0.19,0.003,0.143
7500,A1_3,0.113,-0.067,0.67,1.0,-0.012,-0.482,-0.076,0.097,-0.16,0.124,-0.211,-0.525,0.036,0.093,-0.26,0.103
7500,B1_1,-0.21,-0.056,-0.223,-0.012,1.0,0.576,0.544,0.178,-0.149,-0.37,0.309,0.327,0.583,0.124,-0.062,0.062
7500,B1_2,-0.142,-0.087,-0.176,-0.482,0.576,1.0,0.47,0.156,-0.341,-0.037,0.011,0.717,0.545,0.053,-0.036,-0.107
7500,B1_3,0.211,0.399,0.007,-0.076,0.544,0.47,1.0,0.479,-0.019,0.044,0.283,0.216,0.432,-0.399,-0.258,-0.492
7500,A2_1,-0.079,0.194,0.531,0.097,0.178,0.156,0.479,1.0,-0.064,0.241,-0.157,-0.336,0.104,0.206,0.312,0.136
7500,A2_2,-0.169,0.567,-0.019,-0.16,-0.149,-0.341,-0.019,-0.064,1.0,0.074,0.341,-0.112,0.112,-0.204,0.093,-0.058
7500,A2_3,-0.15,0.29,0.386,0.124,-0.37,-0.037,0.044,0.241,0.074,1.0,0.142,0.082,-0.123,-0.03,0.14,-0.088
7500,B2_1,-0.077,0.277,-0.437,-0.211,0.309,0.011,0.283,-0.157,0.341,0.142,1.0,0.349,0.018,-0.316,-0.041,-0.229
7500,B2_2,0.122,0.222,-0.426,-0.525,0.327,0.717,0.216,-0.336,-0.112,0.082,0.349,1.0,0.333,-0.351,-0.294,-0.45
7500,B2_3,-0.202,0.154,0.205,0.036,0.583,0.545,0.432,0.104,0.112,-0.123,0.018,0.333,1.0,0.195,0.086,0.057
7500,y1,-0.724,-0.618,0.19,0.093,0.124,0.053,-0.399,0.206,-0.204,-0.03,-0.316,-0.351,0.195,1.0,0.804,0.95
7500,y2,-0.68,-0.255,0.003,-0.26,-0.062,-0.036,-0.258,0.312,0.093,0.14,-0.041,-0.294,0.086,0.804,1.0,0.783
7500,y3,-0.812,-0.562,0.143,0.103,0.062,-0.107,-0.492,0.136,-0.058,-0.088,-0.229,-0.45,0.057,0.95,0.783,1.0
8000,.,1.0,0.253,0.015,0.11,-0.198,-0.136,0.219,-0.073,-0.174,-0.168,-0.08,0.118,-0.195,-0.721,-0.675,-0.815
8000,A1_1,0.253,1.0,0.172,-0.056,-0.069,-0.103,0.388,0.197,0.573,0.303,0.279,0.213,0.14,-0.598,-0.258,-0.562
8000,A1_2,0.015,0.172,1.0,0.674,-0.231,-0.189,0.004,0.535,-0.005,0.412,-0.42,-0.42,0.19,0.211,0.015,0.109
8000,A1_3,0.11,-0.056,0.674,1.0,-0.016,-0.484,-0.073,0.104,-0.152,0.134,-0.21,-0.529,0.038,0.107,-0.234,0.069
8000,B1_1,-0.198,-0.069,-0.231,-0.016,1.0,0.576,0.544,0.161,-0.146,-0.374,0.31,0.328,0.584,0.129,-0.033,0.082
8000,B1_2,-0.136,-0.103,-0.189,-0.484,0.576,1.0,0.471,0.139,-0.343,-0.042,0.012,0.718,0.546,0.084,-0.008,-0.071
8000,B1_3,0.219,0.388,0.004,-0.073,0.544,0.471,1.0,0.471,-0.014,0.042,0.284,0.219,0.433,-0.355,-0.207,-0.492
8000,A2_1,-0.073,0.197,0.535,0.104,0.161,0.139,0.471,1.0,-0.052,0.253,-0.164,-0.347,0.093,0.26,0.355,0.138
8000,A2_2,-0.174,0.573,-0.005,-0.152,-0.146,-0.343,-0.014,-0.052,1.0,0.077,0.345,-0.113,0.109,-0.241,0.028,-0.071
8000,A2_3,-0.168,0.303,0.412,0.134,-0.374,-0.042,0.042,0.253,0.077,1.0,0.135,0.076,-0.126,0.031,0.149,-0.089
8000,B2_1,-0.08,0.279,-0.42,-0.21,0.31,0.012,0.284,-0.164,0.345,0.135,1.0,0.35,0.02,-0.329,-0.05,-0.224
8000,B2_2,0.118,0.213,-0.42,-0.529,0.328,0.718,0.219,-0.347,-0.113,0.076,0.35,1.0,0.333,-0.345,-0.298,-0.415
8000,B2_3,-0.195,0.14,0.19,0.038,0.584,0.546,0.433,0.093,0.109,-0.126,0.02,0.333,1.0,0.197,0.098,0.056
8000,y1,-0.721,-0.598,0.211,0.107,0.129,0.084,-0.355,0.26,-0.241,0.031,-0.329,-0.345,0.197,1.0,0.81,0.936
8000,y2,-0.675,-0.258,0.015,-0.234,-0.033,-0.008,-0.207,0.355,0.028,0.149,-0.05,-0.298,0.098,0.81,1.0,0.777
8000,y3,-0.815,-0.562,0.109,0.069,0.082,-0.071,-0.492,0.138,-0.071,-0.089,-0.224,-0.415,0.056,0.936,0.777,1.0
8500,.,1.0,0.249,0.015,0.11,-0.189,-0.129,0.226,-0.066,-0.18,-0.174,-0.08,0.119,-0.192,-0.715,-0.659,-0.818
8500,A1_1,0.249,1.0,0.19,-0.048,-0.083,-0.118,0.379,0.2,0.581,0.31,0.277,0.202,0.129,-0.606,-0.257,-0.545
8500,A1_2,0.015,0.19,1.0,0.677,-0.24,-0.197,0.005,0.543,0.004,0.432,-0.412,-0.418,0.181,0.191,0.009,0.113
8500,A1_3,0.11,-0.048,0.677,1.0,-0.025,-0.487,-0.066,0.12,-0.147,0.141,-0.223,-0.54,0.037,0.118,-0.268,0.064
8500,B1_1,-0.189,-0.083,-0.24,-0.025,1.0,0.577,0.545,0.141,-0.145,-0.379,0.311,0.33,0.585,0.139,-0.031,0.117
8500,B1_2,-0.129,-0.118,-0.197,-0.487,0.577,1.0,0.472,0.117,-0.345,-0.048,0.013,0.719,0.546,0.084,0.034,-0.044
8500,B1_3,0.226,0.379,0.005,-0.066,0.545,0.472,1.0,0.46,-0.012,0.04,0.285,0.222,0.434,-0.342,-0.2,-0.457
8500,A2_1,-0.066,0.2,0.543,0.12,0.141,0.117,0.46,1.0,-0.043,0.269,-0.167,-0.361,0.077,0.245,0.375,0.17
8500,A2_2,-0.18,0.581,0.004,-0.147,-0.145,-0.345,-0.012,-0.043,1.0,0.079,0.349,-0.114,0.105,-0.261,0.008,-0.062
8500,A2_3,-0.174,0.31,0.432,0.141,-0.379,-0.048,0.04,0.269,0.079,1.0,0.126,0.068,-0.132,0.025,0.148,-0.078
8500,B2_1,-0.08,0.277,-0.412,-0.223,0.311,0.013,0.285,-0.167,0.349,0.126,1.0,0.351,0.021,-0.331,-0.066,-0.211
8500,B2_2,0.119,0.202,-0.418,-0.54,0.33,0.719,0.222,-0.361,-0.114,0.068,0.351,1.0,0.333,-0.346,-0.266,-0.401
8500,B2_3,-0.192,0.129,0.181,0.037,0.585,0.546,0.434,0.077,0.105,-0.132,0.021,0.333,1.0,0.208,0.1,0.099
8500,y1,-0.715,-0.606,0.191,0.118,0.139,0.084,-0.342,0.245,-0.261,0.025,-0.331,-0.346,0.208,1.0,0.802,0.941
8500,y2,-0.659,-0.257,0.009,-0.268,-0.031,0.034,-0.2,0.375,0.008,0.148,-0.066,-0.266,0.1,0.802,1.0,0.781
8500,y3,-0.818,-0.545,0.113,0.064,0.117,-0.044,-0.457,0.17,-0.062,-0.078,-0.211,-0.401,0.099,0.941,0.781,1.0
9000,.,1.0,0.244,0.011,0.104,-0.185,-0.122,0.228,-0.06,-0.187,-0.181,-0.085,0.12,-0.198,-0.696,-0.682,-0.792
9000,A1_1,0.244,1.0,0.207,-0.039,-0.094,-0.129,0.375,0.201,0.59,0.315,0.271,0.192,0.123,-0.606,-0.281,-0.568
9000,A1_2,0.011,0.207,1.0,0.678,-0.248,-0.207,-0.002,0.55,0.017,0.454,-0.398,-0.413,0.168,0.175,-0.01,0.095
9000,A1_3,0.104,-0.039,0.678,1.0,-0.035,-0.493,-0.066,0.131,-0.138,0.152,-0.226,-0.545,0.034,0.109,-0.246,0.078
9000,B1_1,-0.185,-0.094,-0.248,-0.035,1.0,0.577,0.546,0.127,-0.148,-0.386,0.312,0.331,0.585,0.134,-0.034,0.126
9000,B1_2,-0.122,-0.129,-0.207,-0.493,0.577,1.0,0.472,0.101,-0.349,-0.055,0.014,0.72,0.546,0.065,0.011,-0.058
9000,B1_3,0.228,0.375,-0.002,-0.066,0.546,0.472,1.0,0.451,-0.013,0.035,0.286,0.223,0.435,-0.348,-0.231,-0.456
9000,A2_1,-0.06,0.201,0.55,0.131,0.127,0.101,0.451,1.0,-0.035,0.283,-0.167,-0.371,0.063,0.268,0.327,0.169
9000,A2_2,-0.187,0.59,0.017,-0.138,-0.148,-0.349,-0.013,-0.035,1.0,0.086,0.351,-0.115,0.101,-0.27,0.001,-0.089
9000,A2_3,-0.181,0.315,0.454,0.152,-0.386,-0.055,0.035,0.283,0.086,1.0,0.116,0.058,-0.134,0.019,0.143,-0.103
9000,B2_1,-0.085,0.271,-0.398,-0.226,0.312,0.014,0.286,-0.167,0.351,0.116,1.0,0.351,0.022,-0.333,-0.076,-0.234
9000,B2_2,0.12,0.192,-0.413,-0.545,0.331,0.72,0.223,-0.371,-0.115,0.058,0.351,1.0,0.334,-0.366,-0.278,-0.425
9000,B2_3,-0.198,0.123,0.168,0.034,0.585,0.546,0.435,0.063,0.101,-0.134,0.022,0.334,1.0,0.168,0.094,0.084
9000,y1,-0.696,-0.606,0.175,0.109,0.134,0.065,-0.348,0.268,-0.27,0.019,-0.333,-0.366,0.168,1.0,0.828,0.948
9000,y2,-0.682,-0.281,-0.01,-0.246,-0.034,0.011,-0.231,0.327,0.001,0.143,-0.076,-0.278,0.094,0.828,1.0,0.793
9000,y3,-0.792,-0.568,0.095,0.078,0.126,-0.058,-0.456,0.169,-0.089,-0.103,-0.234,-0.425,0.084,0.948,0.793,1.0
9500,.,1.0,0.242,0.01,0.098,-0.179,-0.114,0.234,-0.055,-0.189,-0.19,-0.09,0.119,-0.196,-0.687,-0.668,-0.802
9500,A1_1,0.242,1.0,0.222,-0.027,-0.103,-0.139,0.365,0.197,0.594,0.33,0.273,0.189,0.114,-0.624,-0.286,-0.57
9500,A1_2,0.01,0.222,1.0,0.681,-0.252,-0.209,0.006,0.554,0.023,0.473,-0.392,-0.412,0.161,0.112,-0.003,0.108
9500,A1_3,0.098,-0.027,0.681,1.0,-0.043,-0.497,-0.067,0.14,-0.13,0.162,-0.23,-0.55,0.031,0.079,-0.226,0.085
9500,B1_1,-0.179,-0.103,-0.252,-0.043,1.0,0.577,0.547,0.121,-0.148,-0.391,0.313,0.332,0.586,0.145,-0.015,0.111
9500,B1_2,-0.114,-0.139,-0.209,-0.497,0.577,1.0,0.473,0.094,-0.353,-0.062,0.014,0.72,0.546,0.058,0.01,-0.044
9500,B1_3,0.234,0.365,0.006,-0.067,0.547,0.473,1.0,0.454,-0.016,0.031,0.287,0.224,0.435,-0.357,-0.221,-0.46
9500,A2_1,-0.055,0.197,0.554,0.14,0.121,0.094,0.454,1.0,-0.033,0.292,-0.171,-0.381,0.058,0.223,0.347,0.176
9500,A2_2,-0.189,0.594,0.023,-0.13,-0.148,-0.353,-0.016,-0.033,1.0,0.093,0.357,-0.113,0.097,-0.259,-0.017,-0.114
9500,A2_3,-0.19,0.33,0.473,0.162,-0.391,-0.062,0.031,0.292,0.093,1.0,0.109,0.05,-0.14,-0.056,0.134,-0.055
9500,B2_1,-0.09,0.273,-0.392,-0.23,0.313,0.014,0.287,-0.171,0.357,0.109,1.0,0.352,0.023,-0.333,-0.079,-0.24
9500,B2_2,0.119,0.189,-0.412,-0.55,0.332,0.72,0.224,-0.381,-0.113,0.05,0.352,1.0,0.334,-0.368,-0.288,-0.412
9500,B2_3,-0.196,0.114,0.161,0.031,0.586,0.546,0.435,0.058,0.097,-0.14,0.023,0.334,1.0,0.185,0.095,0.072
9500,y1,-0.687,-0.624,0.112,0.079,0.145,0.058,-0.357,0.223,-0.259,-0.056,-0.333,-0.368,0.185,1.0,0.84,0.955
9500,y2,-0.668,-0.286,-0.003,-0.226,-0.015,0.01,-0.221,0.347,-0.017,0.134,-0.079,-0.288,0.095,0.84,1.0,0.796
9500,y3,-0.802,-0.57,0.108,0.085,0.111,-0.044,-0.46,0.176,-0.114,-0.055,-0.24,-0.412,0.072,0.955,0.796,1.0
10000,.,1.0,0.242,0.01,0.093,-0.177,-0.109,0.237,-0.047,-0.191,-0.195,-0.094,0.118,-0.198,-0.672,-0.657,-0.789
10000,A1_1,0.242,1.0,0.235,-0.022,-0.111,-0.148,0.359,0.2,0.596,0.336,0.273,0.184,0.108,-0.625,-0.291,-0.587
10000,A1_2,0.01,0.235,1.0,0.679,-0.256,-0.209,0.012,0.564,0.03,0.49,-0.387,-0.41,0.159,0.088,-0.02,0.052
10000,A1_3,0.093,-0.022,0.679,1.0,-0.047,-0.5,-0.063,0.15,-0.126,0.165,-0.237,-0.558,0.032,0.087,-0.23,0.082
10000,B1_1,-0.177,-0.111,-0.256,-0.047,1.0,0.578,0.547,0.111,-0.149,-0.399,0.314,0.333,0.586,0.121,-0.017,0.137
10000,B1_2,-0.109,-0.148,-0.209,-0.5,0.578,1.0,0.473,0.081,-0.353,-0.069,0.015,0.72,0.547,0.025,0.008,-0.05
10000,B1_3,0.237,0.359,0.012,-0.063,0.547,0.473,1.0,0.44,-0.011,0.027,0.287,0.225,0.435,-0.39,-0.226,-0.458
10000,A2_1,-0.047,0.2,0.564,0.15,0.111,0.081,0.44,1.0,-0.026,0.308,-0.163,-0.382,0.046,0.19,0.345,0.134
10000,A2_2,-0.191,0.596,0.03,-0.126,-0.149,-0.353,-0.011,-0.026,1.0,0.097,0.355,-0.117,0.095,-0.264,-0.025,-0.127
10000,A2_3,-0.195,0.336,0.49,0.165,-0.399,-0.069,0.027,0.308,0.097,1.0,0.096,0.039,-0.142,-0.059,0.135,-0.108
10000,B2_1,-0.094,0.273,-0.387,-0.237,0.314,0.015,0.287,-0.163,0.355,0.096,1.0,0.352,0.024,-0.337,-0.083,-0.234
10000,B2_2,0.118,0.184,-0.41,-0.558,0.333,0.72,0.225,-0.382,-0.117,0.039,0.352,1.0,0.334,-0.374,-0.286,-0.408
10000,B2_3,-0.198,0.108,0.159,0.032,0.586,0.547,0.435,0.046,0.095,-0.142,0.024,0.334,1.0,0.164,0.08,0.088
10000,y1,-0.672,-0.625,0.088,0.087,0.121,0.025,-0.39,0.19,-0.264,-0.059,-0.337,-0.374,0.164,1.0,0.84,0.957
10000,y2,-0.657,-0.291,-0.02,-0.23,-0.017,0.008,-0.226,0.345,-0.025,0.135,-0.083,-0.286,0.08,0.84,1.0,0.79
10000,y3,-0.789,-0.587,0.052,0.082,0.137,-0.05,-0.458,0.134,-0.127,-0.108,-0.234,-0.408,0.088,0.957,0.79,1.0
