,,.,A1_1,A1_2,A1_3,B1_1,B1_2,B1_3,A2_1,A2_2,A2_3,B2_1,B2_2,B2_3,y1,y2,y3
0,.,1.0,-0.437,-0.168,-0.386,0.1,-0.135,-0.177,-0.532,0.209,-0.402,0.035,-0.139,-0.368,0.029,-0.336,-0.064
0,A1_1,-0.437,1.0,0.089,0.167,-0.449,0.3,0.139,0.36,0.123,0.175,-0.522,0.074,0.25,-0.105,0.07,-0.009
0,A1_2,-0.168,0.089,1.0,0.06,0.089,-0.103,0.076,0.188,0.068,0.378,0.47,0.611,-0.258,0.181,0.201,0.452
0,A1_3,-0.386,0.167,0.06,1.0,0.301,0.306,0.002,0.562,-0.572,0.533,0.147,0.136,-0.157,-0.083,0.286,0.189
0,B1_1,0.1,-0.449,0.089,0.301,1.0,-0.076,0.264,0.168,0.026,0.162,0.281,0.077,-0.149,-0.213,0.029,-0.247
0,B1_2,-0.135,0.3,-0.103,0.306,-0.076,1.0,-0.361,0.373,-0.306,0.185,0.029,-0.11,-0.246,0.325,-0.096,0.283
0,B1_3,-0.177,0.139,0.076,0.002,0.264,-0.361,1.0,0.264,0.44,-0.003,-0.162,0.04,0.121,-0.265,0.14,-0.548
0,A2_1,-0.532,0.36,0.188,0.562,0.168,0.373,0.264,1.0,-0.315,0.601,0.304,-0.111,0.139,0.114,0.168,-0.004
0,A2_2,0.209,0.123,0.068,-0.572,0.026,-0.306,0.44,-0.315,1.0,-0.489,-0.18,0.181,0.235,-0.335,-0.337,-0.47
0,A2_3,-0.402,0.175,0.378,0.533,0.162,0.185,-0.003,0.601,-0.489,1.0,0.286,-0.074,-0.278,0.425,0.229,0.268
0,B2_1,0.035,-0.522,0.47,0.147,0.281,0.029,-0.162,0.304,-0.18,0.286,1.0,0.092,-0.199,0.256,0.027,0.182
0,B2_2,-0.139,0.074,0.611,0.136,0.077,-0.11,0.04,-0.111,0.181,-0.074,0.092,1.0,-0.198,-0.263,0.385,0.226
0,B2_3,-0.368,0.25,-0.258,-0.157,-0.149,-0.246,0.121,0.139,0.235,-0.278,-0.199,-0.198,1.0,-0.063,-0.294,-0.212
0,y1,0.029,-0.105,0.181,-0.083,-0.213,0.325,-0.265,0.114,-0.335,0.425,0.256,-0.263,-0.063,1.0,-0.294,0.489
0,y2,-0.336,0.07,0.201,0.286,0.029,-0.096,0.14,0.168,-0.337,0.229,0.027,0.385,-0.294,-0.294,1.0,-0.067
0,y3,-0.064,-0.009,0.452,0.189,-0.247,0.283,-0.548,-0.004,-0.47,0.268,0.182,0.226,-0.212,0.489,-0.067,1.0
1,.,1.0,-0.439,-0.166,-0.386,0.101,-0.136,-0.178,-0.532,0.209,-0.401,0.036,-0.138,-0.371,0.031,-0.337,-0.061
1,A1_1,-0.439,1.0,0.09,0.167,-0.448,0.301,0.14,0.36,0.123,0.176,-0.522,0.073,0.25,-0.105,0.07,-0.01
1,A1_2,-0.166,0.09,1.0,0.06,0.089,-0.102,0.076,0.189,0.067,0.378,0.47,0.61,-0.258,0.181,0.201,0.452
1,A1_3,-0.386,0.167,0.06,1.0,0.3,0.307,0.002,0.563,-0.572,0.534,0.146,0.135,-0.158,-0.081,0.287,0.19
1,B1_1,0.101,-0.448,0.089,0.3,1.0,-0.077,0.265,0.167,0.026,0.162,0.28,0.078,-0.149,-0.212,0.031,-0.248
1,B1_2,-0.136,0.301,-0.102,0.307,-0.077,1.0,-0.362,0.373,-0.305,0.186,0.027,-0.111,-0.247,0.324,-0.096,0.282
1,B1_3,-0.178,0.14,0.076,0.002,0.265,-0.362,1.0,0.262,0.44,-0.003,-0.163,0.041,0.122,-0.266,0.141,-0.549
1,A2_1,-0.532,0.36,0.189,0.563,0.167,0.373,0.262,1.0,-0.315,0.601,0.304,-0.112,0.138,0.115,0.168,-0.004
1,A2_2,0.209,0.123,0.067,-0.572,0.026,-0.305,0.44,-0.315,1.0,-0.489,-0.18,0.181,0.235,-0.335,-0.338,-0.47
1,A2_3,-0.401,0.176,0.378,0.534,0.162,0.186,-0.003,0.601,-0.489,1.0,0.287,-0.074,-0.277,0.426,0.229,0.268
1,B2_1,0.036,-0.522,0.47,0.146,0.28,0.027,-0.163,0.304,-0.18,0.287,1.0,0.092,-0.201,0.257,0.03,0.182
1,B2_2,-0.138,0.073,0.61,0.135,0.078,-0.111,0.041,-0.112,0.181,-0.074,0.092,1.0,-0.198,-0.264,0.386,0.224
1,B2_3,-0.371,0.25,-0.258,-0.158,-0.149,-0.247,0.122,0.138,0.235,-0.277,-0.201,-0.198,1.0,-0.063,-0.292,-0.213
1,y1,0.031,-0.105,0.181,-0.081,-0.212,0.324,-0.266,0.115,-0.335,0.426,0.257,-0.264,-0.063,1.0,-0.295,0.489
1,y2,-0.337,0.07,0.201,0.287,0.031,-0.096,0.141,0.168,-0.338,0.229,0.03,0.386,-0.292,-0.295,1.0,-0.068
1,y3,-0.061,-0.01,0.452,0.19,-0.248,0.282,-0.549,-0.004,-0.47,0.268,0.182,0.224,-0.213,0.489,-0.068,1.0
2,.,1.0,-0.441,-0.164,-0.386,0.102,-0.137,-0.18,-0.533,0.21,-0.401,0.036,-0.137,-0.374,0.032,-0.337,-0.06
2,A1_1,-0.441,1.0,0.09,0.169,-0.448,0.303,0.14,0.361,0.124,0.177,-0.522,0.074,0.25,-0.104,0.069,-0.01
2,A1_2,-0.164,0.09,1.0,0.06,0.089,-0.101,0.076,0.19,0.066,0.378,0.471,0.61,-0.258,0.182,0.201,0.453
2,A1_3,-0.386,0.169,0.06,1.0,0.3,0.308,0.002,0.563,-0.572,0.534,0.146,0.135,-0.158,-0.081,0.288,0.19
2,B1_1,0.102,-0.448,0.089,0.3,1.0,-0.078,0.265,0.166,0.025,0.161,0.279,0.078,-0.15,-0.213,0.033,-0.248
2,B1_2,-0.137,0.303,-0.101,0.308,-0.078,1.0,-0.362,0.373,-0.305,0.187,0.025,-0.11,-0.249,0.324,-0.095,0.281
2,B1_3,-0.18,0.14,0.076,0.002,0.265,-0.362,1.0,0.261,0.44,-0.003,-0.164,0.043,0.124,-0.266,0.142,-0.549
2,A2_1,-0.533,0.361,0.19,0.563,0.166,0.373,0.261,1.0,-0.315,0.602,0.304,-0.113,0.137,0.116,0.169,-0.004
2,A2_2,0.21,0.124,0.066,-0.572,0.025,-0.305,0.44,-0.315,1.0,-0.49,-0.181,0.181,0.235,-0.334,-0.338,-0.47
2,A2_3,-0.401,0.177,0.378,0.534,0.161,0.187,-0.003,0.602,-0.49,1.0,0.287,-0.074,-0.277,0.427,0.229,0.269
2,B2_1,0.036,-0.522,0.471,0.146,0.279,0.025,-0.164,0.304,-0.181,0.287,1.0,0.092,-0.203,0.258,0.032,0.182
2,B2_2,-0.137,0.074,0.61,0.135,0.078,-0.11,0.043,-0.113,0.181,-0.074,0.092,1.0,-0.197,-0.265,0.386,0.223
2,B2_3,-0.374,0.25,-0.258,-0.158,-0.15,-0.249,0.124,0.137,0.235,-0.277,-0.203,-0.197,1.0,-0.063,-0.291,-0.213
2,y1,0.032,-0.104,0.182,-0.081,-0.213,0.324,-0.266,0.116,-0.334,0.427,0.258,-0.265,-0.063,1.0,-0.296,0.488
2,y2,-0.337,0.069,0.201,0.288,0.033,-0.095,0.142,0.169,-0.338,0.229,0.032,0.386,-0.291,-0.296,1.0,-0.07
2,y3,-0.06,-0.01,0.453,0.19,-0.248,0.281,-0.549,-0.004,-0.47,0.269,0.182,0.223,-0.213,0.488,-0.07,1.0
3,.,1.0,-0.444,-0.161,-0.386,0.103,-0.139,-0.181,-0.534,0.211,-0.399,0.037,-0.135,-0.377,0.035,-0.338,-0.058
3,A1_1,-0.444,1.0,0.091,0.17,-0.447,0.304,0.141,0.362,0.124,0.177,-0.522,0.073,0.251,-0.105,0.068,-0.01
3,A1_2,-0.161,0.091,1.0,0.06,0.089,-0.1,0.076,0.191,0.066,0.378,0.472,0.609,-0.257,0.182,0.201,0.453
3,A1_3,-0.386,0.17,0.06,1.0,0.299,0.309,0.002,0.564,-0.572,0.534,0.145,0.134,-0.158,-0.08,0.289,0.191
3,B1_1,0.103,-0.447,0.089,0.299,1.0,-0.079,0.266,0.165,0.025,0.161,0.278,0.079,-0.15,-0.212,0.035,-0.249
3,B1_2,-0.139,0.304,-0.1,0.309,-0.079,1.0,-0.363,0.374,-0.304,0.188,0.023,-0.11,-0.25,0.323,-0.094,0.28
3,B1_3,-0.181,0.141,0.076,0.002,0.266,-0.363,1.0,0.259,0.44,-0.002,-0.165,0.044,0.125,-0.267,0.143,-0.55
3,A2_1,-0.534,0.362,0.191,0.564,0.165,0.374,0.259,1.0,-0.315,0.603,0.303,-0.113,0.136,0.116,0.169,-0.003
3,A2_2,0.211,0.124,0.066,-0.572,0.025,-0.304,0.44,-0.315,1.0,-0.489,-0.181,0.18,0.235,-0.334,-0.339,-0.47
3,A2_3,-0.399,0.177,0.378,0.534,0.161,0.188,-0.002,0.603,-0.489,1.0,0.288,-0.074,-0.276,0.427,0.229,0.269
3,B2_1,0.037,-0.522,0.472,0.145,0.278,0.023,-0.165,0.303,-0.181,0.288,1.0,0.092,-0.204,0.259,0.034,0.183
3,B2_2,-0.135,0.073,0.609,0.134,0.079,-0.11,0.044,-0.113,0.18,-0.074,0.092,1.0,-0.196,-0.265,0.387,0.222
3,B2_3,-0.377,0.251,-0.257,-0.158,-0.15,-0.25,0.125,0.136,0.235,-0.276,-0.204,-0.196,1.0,-0.063,-0.29,-0.213
3,y1,0.035,-0.105,0.182,-0.08,-0.212,0.323,-0.267,0.116,-0.334,0.427,0.259,-0.265,-0.063,1.0,-0.296,0.488
3,y2,-0.338,0.068,0.201,0.289,0.035,-0.094,0.143,0.169,-0.339,0.229,0.034,0.387,-0.29,-0.296,1.0,-0.07
3,y3,-0.058,-0.01,0.453,0.191,-0.249,0.28,-0.55,-0.003,-0.47,0.269,0.183,0.222,-0.213,0.488,-0.07,1.0
4,.,1.0,-0.446,-0.16,-0.386,0.105,-0.14,-0.182,-0.534,0.211,-0.399,0.037,-0.134,-0.38,0.036,-0.338,-0.057
4,A1_1,-0.446,1.0,0.091,0.171,-0.446,0.305,0.141,0.362,0.124,0.178,-0.522,0.074,0.25,-0.106,0.068,-0.011
4,A1_2,-0.16,0.091,1.0,0.06,0.089,-0.099,0.077,0.192,0.066,0.379,0.472,0.609,-0.257,0.183,0.2,0.453
4,A1_3,-0.386,0.171,0.06,1.0,0.298,0.31,0.002,0.564,-0.572,0.534,0.145,0.133,-0.158,-0.078,0.29,0.193
4,B1_1,0.105,-0.446,0.089,0.298,1.0,-0.08,0.267,0.164,0.025,0.161,0.276,0.08,-0.15,-0.212,0.037,-0.248
4,B1_2,-0.14,0.305,-0.099,0.31,-0.08,1.0,-0.363,0.374,-0.304,0.19,0.021,-0.11,-0.251,0.323,-0.094,0.28
4,B1_3,-0.182,0.141,0.077,0.002,0.267,-0.363,1.0,0.259,0.44,-0.002,-0.165,0.046,0.125,-0.268,0.144,-0.551
4,A2_1,-0.534,0.362,0.192,0.564,0.164,0.374,0.259,1.0,-0.314,0.603,0.302,-0.114,0.134,0.117,0.17,-0.003
4,A2_2,0.211,0.124,0.066,-0.572,0.025,-0.304,0.44,-0.314,1.0,-0.489,-0.182,0.18,0.234,-0.334,-0.339,-0.47
4,A2_3,-0.399,0.178,0.379,0.534,0.161,0.19,-0.002,0.603,-0.489,1.0,0.288,-0.074,-0.276,0.428,0.229,0.27
4,B2_1,0.037,-0.522,0.472,0.145,0.276,0.021,-0.165,0.302,-0.182,0.288,1.0,0.092,-0.205,0.259,0.036,0.183
4,B2_2,-0.134,0.074,0.609,0.133,0.08,-0.11,0.046,-0.114,0.18,-0.074,0.092,1.0,-0.196,-0.266,0.387,0.221
4,B2_3,-0.38,0.25,-0.257,-0.158,-0.15,-0.251,0.125,0.134,0.234,-0.276,-0.205,-0.196,1.0,-0.063,-0.289,-0.214
4,y1,0.036,-0.106,0.183,-0.078,-0.212,0.323,-0.268,0.117,-0.334,0.428,0.259,-0.266,-0.063,1.0,-0.297,0.488
4,y2,-0.338,0.068,0.2,0.29,0.037,-0.094,0.144,0.17,-0.339,0.229,0.036,0.387,-0.289,-0.297,1.0,-0.071
4,y3,-0.057,-0.011,0.453,0.193,-0.248,0.28,-0.551,-0.003,-0.47,0.27,0.183,0.221,-0.214,0.488,-0.071,1.0
5,.,1.0,-0.447,-0.158,-0.386,0.105,-0.141,-0.183,-0.534,0.211,-0.398,0.037,-0.134,-0.383,0.038,-0.337,-0.056
5,A1_1,-0.447,1.0,0.092,0.172,-0.446,0.307,0.142,0.363,0.124,0.179,-0.521,0.073,0.251,-0.106,0.067,-0.011
5,A1_2,-0.158,0.092,1.0,0.06,0.089,-0.098,0.077,0.192,0.066,0.379,0.472,0.608,-0.257,0.183,0.2,0.453
5,A1_3,-0.386,0.172,0.06,1.0,0.298,0.311,0.002,0.565,-0.572,0.534,0.144,0.133,-0.158,-0.078,0.291,0.193
5,B1_1,0.105,-0.446,0.089,0.298,1.0,-0.082,0.267,0.163,0.025,0.161,0.275,0.081,-0.15,-0.211,0.039,-0.249
5,B1_2,-0.141,0.307,-0.098,0.311,-0.082,1.0,-0.364,0.374,-0.304,0.191,0.02,-0.11,-0.252,0.322,-0.093,0.279
5,B1_3,-0.183,0.142,0.077,0.002,0.267,-0.364,1.0,0.257,0.441,-0.001,-0.166,0.047,0.127,-0.268,0.145,-0.552
5,A2_1,-0.534,0.363,0.192,0.565,0.163,0.374,0.257,1.0,-0.313,0.604,0.301,-0.115,0.133,0.118,0.17,-0.003
5,A2_2,0.211,0.124,0.066,-0.572,0.025,-0.304,0.441,-0.313,1.0,-0.49,-0.182,0.18,0.234,-0.333,-0.339,-0.47
5,A2_3,-0.398,0.179,0.379,0.534,0.161,0.191,-0.001,0.604,-0.49,1.0,0.289,-0.075,-0.275,0.428,0.229,0.27
5,B2_1,0.037,-0.521,0.472,0.144,0.275,0.02,-0.166,0.301,-0.182,0.289,1.0,0.092,-0.207,0.26,0.038,0.183
5,B2_2,-0.134,0.073,0.608,0.133,0.081,-0.11,0.047,-0.115,0.18,-0.075,0.092,1.0,-0.195,-0.267,0.387,0.22
5,B2_3,-0.383,0.251,-0.257,-0.158,-0.15,-0.252,0.127,0.133,0.234,-0.275,-0.207,-0.195,1.0,-0.063,-0.288,-0.214
5,y1,0.038,-0.106,0.183,-0.078,-0.211,0.322,-0.268,0.118,-0.333,0.428,0.26,-0.267,-0.063,1.0,-0.298,0.487
5,y2,-0.337,0.067,0.2,0.291,0.039,-0.093,0.145,0.17,-0.339,0.229,0.038,0.387,-0.288,-0.298,1.0,-0.073
5,y3,-0.056,-0.011,0.453,0.193,-0.249,0.279,-0.552,-0.003,-0.47,0.27,0.183,0.22,-0.214,0.487,-0.073,1.0
6,.,1.0,-0.448,-0.156,-0.387,0.106,-0.141,-0.184,-0.535,0.211,-0.398,0.037,-0.133,-0.386,0.04,-0.338,-0.054
6,A1_1,-0.448,1.0,0.092,0.173,-0.446,0.308,0.143,0.364,0.125,0.18,-0.521,0.073,0.251,-0.107,0.066,-0.011
6,A1_2,-0.156,0.092,1.0,0.06,0.089,-0.097,0.077,0.193,0.065,0.379,0.473,0.607,-0.257,0.183,0.2,0.453
6,A1_3,-0.387,0.173,0.06,1.0,0.297,0.312,0.002,0.566,-0.572,0.534,0.144,0.132,-0.158,-0.076,0.291,0.194
6,B1_1,0.106,-0.446,0.089,0.297,1.0,-0.083,0.268,0.162,0.024,0.161,0.274,0.082,-0.151,-0.21,0.041,-0.249
6,B1_2,-0.141,0.308,-0.097,0.312,-0.083,1.0,-0.364,0.374,-0.303,0.192,0.018,-0.11,-0.254,0.321,-0.092,0.278
6,B1_3,-0.184,0.143,0.077,0.002,0.268,-0.364,1.0,0.256,0.441,-0.001,-0.167,0.049,0.128,-0.269,0.146,-0.553
6,A2_1,-0.535,0.364,0.193,0.566,0.162,0.374,0.256,1.0,-0.313,0.604,0.301,-0.115,0.133,0.118,0.17,-0.002
6,A2_2,0.211,0.125,0.065,-0.572,0.024,-0.303,0.441,-0.313,1.0,-0.49,-0.182,0.18,0.234,-0.333,-0.34,-0.47
6,A2_3,-0.398,0.18,0.379,0.534,0.161,0.192,-0.001,0.604,-0.49,1.0,0.289,-0.075,-0.275,0.428,0.229,0.27
6,B2_1,0.037,-0.521,0.473,0.144,0.274,0.018,-0.167,0.301,-0.182,0.289,1.0,0.092,-0.209,0.262,0.04,0.184
6,B2_2,-0.133,0.073,0.607,0.132,0.082,-0.11,0.049,-0.115,0.18,-0.075,0.092,1.0,-0.194,-0.268,0.388,0.219
6,B2_3,-0.386,0.251,-0.257,-0.158,-0.151,-0.254,0.128,0.133,0.234,-0.275,-0.209,-0.194,1.0,-0.063,-0.287,-0.214
6,y1,0.04,-0.107,0.183,-0.076,-0.21,0.321,-0.269,0.118,-0.333,0.428,0.262,-0.268,-0.063,1.0,-0.299,0.486
6,y2,-0.338,0.066,0.2,0.291,0.041,-0.092,0.146,0.17,-0.34,0.229,0.04,0.388,-0.287,-0.299,1.0,-0.074
6,y3,-0.054,-0.011,0.453,0.194,-0.249,0.278,-0.553,-0.002,-0.47,0.27,0.184,0.219,-0.214,0.486,-0.074,1.0
7,.,1.0,-0.45,-0.154,-0.387,0.108,-0.142,-0.185,-0.535,0.212,-0.398,0.038,-0.133,-0.387,0.041,-0.338,-0.054
7,A1_1,-0.45,1.0,0.093,0.173,-0.445,0.309,0.143,0.365,0.125,0.181,-0.521,0.073,0.251,-0.107,0.065,-0.011
7,A1_2,-0.154,0.093,1.0,0.06,0.089,-0.096,0.077,0.194,0.065,0.379,0.473,0.607,-0.257,0.184,0.2,0.454
7,A1_3,-0.387,0.173,0.06,1.0,0.297,0.313,0.002,0.566,-0.572,0.534,0.144,0.131,-0.158,-0.076,0.292,0.194
7,B1_1,0.108,-0.445,0.089,0.297,1.0,-0.084,0.268,0.161,0.024,0.161,0.273,0.083,-0.151,-0.21,0.043,-0.249
7,B1_2,-0.142,0.309,-0.096,0.313,-0.084,1.0,-0.364,0.374,-0.303,0.193,0.016,-0.109,-0.255,0.32,-0.09,0.277
7,B1_3,-0.185,0.143,0.077,0.002,0.268,-0.364,1.0,0.255,0.441,-0.001,-0.167,0.05,0.129,-0.269,0.147,-0.553
7,A2_1,-0.535,0.365,0.194,0.566,0.161,0.374,0.255,1.0,-0.312,0.605,0.3,-0.116,0.132,0.119,0.171,-0.002
7,A2_2,0.212,0.125,0.065,-0.572,0.024,-0.303,0.441,-0.312,1.0,-0.49,-0.183,0.179,0.235,-0.332,-0.341,-0.469
7,A2_3,-0.398,0.181,0.379,0.534,0.161,0.193,-0.001,0.605,-0.49,1.0,0.289,-0.075,-0.274,0.429,0.229,0.27
7,B2_1,0.038,-0.521,0.473,0.144,0.273,0.016,-0.167,0.3,-0.183,0.289,1.0,0.092,-0.21,0.262,0.042,0.183
7,B2_2,-0.133,0.073,0.607,0.131,0.083,-0.109,0.05,-0.116,0.179,-0.075,0.092,1.0,-0.193,-0.269,0.388,0.217
7,B2_3,-0.387,0.251,-0.257,-0.158,-0.151,-0.255,0.129,0.132,0.235,-0.274,-0.21,-0.193,1.0,-0.063,-0.286,-0.214
7,y1,0.041,-0.107,0.184,-0.076,-0.21,0.32,-0.269,0.119,-0.332,0.429,0.262,-0.269,-0.063,1.0,-0.299,0.486
7,y2,-0.338,0.065,0.2,0.292,0.043,-0.09,0.147,0.171,-0.341,0.229,0.042,0.388,-0.286,-0.299,1.0,-0.075
7,y3,-0.054,-0.011,0.454,0.194,-0.249,0.277,-0.553,-0.002,-0.469,0.27,0.183,0.217,-0.214,0.486,-0.075,1.0
8,.,1.0,-0.451,-0.152,-0.386,0.109,-0.142,-0.187,-0.534,0.213,-0.397,0.039,-0.132,-0.39,0.043,-0.339,-0.052
8,A1_1,-0.451,1.0,0.093,0.175,-0.445,0.311,0.143,0.366,0.125,0.182,-0.521,0.073,0.251,-0.107,0.065,-0.011
8,A1_2,-0.152,0.093,1.0,0.06,0.089,-0.095,0.077,0.194,0.064,0.379,0.474,0.606,-0.257,0.185,0.199,0.455
8,A1_3,-0.386,0.175,0.06,1.0,0.297,0.314,0.002,0.567,-0.572,0.534,0.143,0.131,-0.158,-0.075,0.293,0.195
8,B1_1,0.109,-0.445,0.089,0.297,1.0,-0.084,0.269,0.16,0.024,0.161,0.273,0.084,-0.152,-0.209,0.044,-0.249
8,B1_2,-0.142,0.311,-0.095,0.314,-0.084,1.0,-0.365,0.374,-0.302,0.195,0.015,-0.109,-0.256,0.32,-0.089,0.277
8,B1_3,-0.187,0.143,0.077,0.002,0.269,-0.365,1.0,0.254,0.441,0.0,-0.168,0.052,0.129,-0.27,0.147,-0.554
8,A2_1,-0.534,0.366,0.194,0.567,0.16,0.374,0.254,1.0,-0.311,0.606,0.299,-0.117,0.131,0.12,0.171,-0.002
8,A2_2,0.213,0.125,0.064,-0.572,0.024,-0.302,0.441,-0.311,1.0,-0.49,-0.183,0.179,0.235,-0.332,-0.341,-0.468
8,A2_3,-0.397,0.182,0.379,0.534,0.161,0.195,0.0,0.606,-0.49,1.0,0.289,-0.076,-0.274,0.43,0.229,0.27
8,B2_1,0.039,-0.521,0.474,0.143,0.273,0.015,-0.168,0.299,-0.183,0.289,1.0,0.093,-0.211,0.263,0.045,0.184
8,B2_2,-0.132,0.073,0.606,0.131,0.084,-0.109,0.052,-0.117,0.179,-0.076,0.093,1.0,-0.192,-0.269,0.388,0.216
8,B2_3,-0.39,0.251,-0.257,-0.158,-0.152,-0.256,0.129,0.131,0.235,-0.274,-0.211,-0.192,1.0,-0.064,-0.285,-0.215
8,y1,0.043,-0.107,0.185,-0.075,-0.209,0.32,-0.27,0.12,-0.332,0.43,0.263,-0.269,-0.064,1.0,-0.299,0.485
8,y2,-0.339,0.065,0.199,0.293,0.044,-0.089,0.147,0.171,-0.341,0.229,0.045,0.388,-0.285,-0.299,1.0,-0.076
8,y3,-0.052,-0.011,0.455,0.195,-0.249,0.277,-0.554,-0.002,-0.468,0.27,0.184,0.216,-0.215,0.485,-0.076,1.0
9,.,1.0,-0.452,-0.151,-0.387,0.11,-0.143,-0.189,-0.534,0.212,-0.397,0.039,-0.131,-0.392,0.044,-0.339,-0.05
9,A1_1,-0.452,1.0,0.094,0.176,-0.444,0.312,0.144,0.367,0.126,0.183,-0.521,0.073,0.251,-0.107,0.064,-0.011
9,A1_2,-0.151,0.094,1.0,0.061,0.089,-0.094,0.077,0.195,0.064,0.38,0.474,0.605,-0.257,0.185,0.199,0.455
9,A1_3,-0.387,0.176,0.061,1.0,0.296,0.315,0.002,0.567,-0.572,0.534,0.143,0.13,-0.158,-0.073,0.294,0.196
9,B1_1,0.11,-0.444,0.089,0.296,1.0,-0.085,0.27,0.159,0.023,0.161,0.272,0.085,-0.152,-0.208,0.046,-0.249
9,B1_2,-0.143,0.312,-0.094,0.315,-0.085,1.0,-0.366,0.375,-0.302,0.196,0.014,-0.108,-0.257,0.319,-0.088,0.276
9,B1_3,-0.189,0.144,0.077,0.002,0.27,-0.366,1.0,0.253,0.441,0.0,-0.168,0.053,0.131,-0.271,0.148,-0.555
9,A2_1,-0.534,0.367,0.195,0.567,0.159,0.375,0.253,1.0,-0.31,0.606,0.298,-0.117,0.13,0.121,0.172,-0.002
9,A2_2,0.212,0.126,0.064,-0.572,0.023,-0.302,0.441,-0.31,1.0,-0.49,-0.183,0.178,0.234,-0.331,-0.342,-0.468
9,A2_3,-0.397,0.183,0.38,0.534,0.161,0.196,0.0,0.606,-0.49,1.0,0.29,-0.076,-0.273,0.43,0.229,0.27
9,B2_1,0.039,-0.521,0.474,0.143,0.272,0.014,-0.168,0.298,-0.183,0.29,1.0,0.093,-0.213,0.264,0.047,0.184
9,B2_2,-0.131,0.073,0.605,0.13,0.085,-0.108,0.053,-0.117,0.178,-0.076,0.093,1.0,-0.191,-0.27,0.389,0.215
9,B2_3,-0.392,0.251,-0.257,-0.158,-0.152,-0.257,0.131,0.13,0.234,-0.273,-0.213,-0.191,1.0,-0.064,-0.284,-0.215
9,y1,0.044,-0.107,0.185,-0.073,-0.208,0.319,-0.271,0.121,-0.331,0.43,0.264,-0.27,-0.064,1.0,-0.3,0.485
9,y2,-0.339,0.064,0.199,0.294,0.046,-0.088,0.148,0.172,-0.342,0.229,0.047,0.389,-0.284,-0.3,1.0,-0.077
9,y3,-0.05,-0.011,0.455,0.196,-0.249,0.276,-0.555,-0.002,-0.468,0.27,0.184,0.215,-0.215,0.485,-0.077,1.0
10,.,1.0,-0.454,-0.149,-0.387,0.111,-0.144,-0.19,-0.534,0.212,-0.396,0.041,-0.131,-0.393,0.045,-0.339,-0.049
10,A1_1,-0.454,1.0,0.095,0.177,-0.444,0.313,0.144,0.368,0.126,0.183,-0.521,0.072,0.252,-0.107,0.063,-0.011
10,A1_2,-0.149,0.095,1.0,0.061,0.089,-0.093,0.077,0.196,0.064,0.38,0.474,0.605,-0.256,0.186,0.199,0.455
10,A1_3,-0.387,0.177,0.061,1.0,0.296,0.316,0.002,0.568,-0.572,0.535,0.143,0.13,-0.158,-0.071,0.294,0.197
10,B1_1,0.111,-0.444,0.089,0.296,1.0,-0.086,0.271,0.158,0.023,0.161,0.271,0.086,-0.152,-0.207,0.048,-0.249
10,B1_2,-0.144,0.313,-0.093,0.316,-0.086,1.0,-0.366,0.375,-0.302,0.197,0.012,-0.108,-0.258,0.319,-0.087,0.276
10,B1_3,-0.19,0.144,0.077,0.002,0.271,-0.366,1.0,0.252,0.441,0.0,-0.169,0.055,0.132,-0.272,0.149,-0.555
10,A2_1,-0.534,0.368,0.196,0.568,0.158,0.375,0.252,1.0,-0.31,0.607,0.297,-0.118,0.129,0.122,0.172,-0.001
10,A2_2,0.212,0.126,0.064,-0.572,0.023,-0.302,0.441,-0.31,1.0,-0.49,-0.183,0.178,0.235,-0.331,-0.342,-0.468
10,A2_3,-0.396,0.183,0.38,0.535,0.161,0.197,0.0,0.607,-0.49,1.0,0.29,-0.076,-0.273,0.431,0.229,0.27
10,B2_1,0.041,-0.521,0.474,0.143,0.271,0.012,-0.169,0.297,-0.183,0.29,1.0,0.093,-0.214,0.265,0.049,0.184
10,B2_2,-0.131,0.072,0.605,0.13,0.086,-0.108,0.055,-0.118,0.178,-0.076,0.093,1.0,-0.19,-0.271,0.389,0.214
10,B2_3,-0.393,0.252,-0.256,-0.158,-0.152,-0.258,0.132,0.129,0.235,-0.273,-0.214,-0.19,1.0,-0.064,-0.283,-0.216
10,y1,0.045,-0.107,0.186,-0.071,-0.207,0.319,-0.272,0.122,-0.331,0.431,0.265,-0.271,-0.064,1.0,-0.3,0.485
10,y2,-0.339,0.063,0.199,0.294,0.048,-0.087,0.149,0.172,-0.342,0.229,0.049,0.389,-0.283,-0.3,1.0,-0.078
10,y3,-0.049,-0.011,0.455,0.197,-0.249,0.276,-0.555,-0.001,-0.468,0.27,0.184,0.214,-0.216,0.485,-0.078,1.0
11,.,1.0,-0.455,-0.148,-0.387,0.111,-0.144,-0.191,-0.534,0.213,-0.396,0.041,-0.131,-0.395,0.047,-0.34,-0.047
11,A1_1,-0.455,1.0,0.095,0.177,-0.443,0.315,0.144,0.369,0.126,0.184,-0.521,0.072,0.252,-0.108,0.061,-0.012
11,A1_2,-0.148,0.095,1.0,0.06,0.089,-0.092,0.078,0.197,0.064,0.38,0.475,0.604,-0.256,0.187,0.199,0.455
11,A1_3,-0.387,0.177,0.06,1.0,0.295,0.317,0.002,0.569,-0.572,0.535,0.143,0.129,-0.158,-0.071,0.295,0.198
11,B1_1,0.111,-0.443,0.089,0.295,1.0,-0.087,0.272,0.157,0.023,0.161,0.27,0.088,-0.153,-0.207,0.051,-0.249
11,B1_2,-0.144,0.315,-0.092,0.317,-0.087,1.0,-0.367,0.375,-0.301,0.198,0.01,-0.107,-0.259,0.318,-0.086,0.275
11,B1_3,-0.191,0.144,0.078,0.002,0.272,-0.367,1.0,0.25,0.441,0.0,-0.169,0.056,0.133,-0.273,0.15,-0.556
11,A2_1,-0.534,0.369,0.197,0.569,0.157,0.375,0.25,1.0,-0.309,0.608,0.297,-0.118,0.128,0.123,0.172,0.0
11,A2_2,0.213,0.126,0.064,-0.572,0.023,-0.301,0.441,-0.309,1.0,-0.49,-0.184,0.178,0.235,-0.33,-0.342,-0.468
11,A2_3,-0.396,0.184,0.38,0.535,0.161,0.198,0.0,0.608,-0.49,1.0,0.29,-0.077,-0.272,0.431,0.229,0.271
11,B2_1,0.041,-0.521,0.475,0.143,0.27,0.01,-0.169,0.297,-0.184,0.29,1.0,0.094,-0.215,0.266,0.051,0.185
11,B2_2,-0.131,0.072,0.604,0.129,0.088,-0.107,0.056,-0.118,0.178,-0.077,0.094,1.0,-0.19,-0.271,0.389,0.213
11,B2_3,-0.395,0.252,-0.256,-0.158,-0.153,-0.259,0.133,0.128,0.235,-0.272,-0.215,-0.19,1.0,-0.065,-0.282,-0.217
11,y1,0.047,-0.108,0.187,-0.071,-0.207,0.318,-0.273,0.123,-0.33,0.431,0.266,-0.271,-0.065,1.0,-0.301,0.485
11,y2,-0.34,0.061,0.199,0.295,0.051,-0.086,0.15,0.172,-0.342,0.229,0.051,0.389,-0.282,-0.301,1.0,-0.079
11,y3,-0.047,-0.012,0.455,0.198,-0.249,0.275,-0.556,0.0,-0.468,0.271,0.185,0.213,-0.217,0.485,-0.079,1.0
12,.,1.0,-0.456,-0.146,-0.388,0.112,-0.145,-0.193,-0.533,0.213,-0.396,0.042,-0.13,-0.397,0.05,-0.341,-0.045
12,A1_1,-0.456,1.0,0.096,0.178,-0.443,0.316,0.145,0.37,0.127,0.185,-0.521,0.072,0.253,-0.108,0.06,-0.013
12,A1_2,-0.146,0.096,1.0,0.061,0.089,-0.091,0.077,0.198,0.064,0.38,0.475,0.603,-0.256,0.188,0.199,0.456
12,A1_3,-0.388,0.178,0.061,1.0,0.295,0.319,0.002,0.57,-0.573,0.535,0.143,0.128,-0.158,-0.069,0.296,0.199
12,B1_1,0.112,-0.443,0.089,0.295,1.0,-0.088,0.272,0.156,0.023,0.161,0.27,0.089,-0.153,-0.206,0.052,-0.249
12,B1_2,-0.145,0.316,-0.091,0.319,-0.088,1.0,-0.367,0.375,-0.3,0.2,0.009,-0.106,-0.26,0.318,-0.085,0.274
12,B1_3,-0.193,0.145,0.077,0.002,0.272,-0.367,1.0,0.249,0.441,0.001,-0.169,0.057,0.135,-0.274,0.151,-0.557
12,A2_1,-0.533,0.37,0.198,0.57,0.156,0.375,0.249,1.0,-0.309,0.608,0.296,-0.119,0.127,0.124,0.173,0.0
12,A2_2,0.213,0.127,0.064,-0.573,0.023,-0.3,0.441,-0.309,1.0,-0.49,-0.184,0.177,0.235,-0.33,-0.343,-0.467
12,A2_3,-0.396,0.185,0.38,0.535,0.161,0.2,0.001,0.608,-0.49,1.0,0.291,-0.077,-0.272,0.432,0.229,0.271
12,B2_1,0.042,-0.521,0.475,0.143,0.27,0.009,-0.169,0.296,-0.184,0.291,1.0,0.094,-0.217,0.267,0.054,0.185
12,B2_2,-0.13,0.072,0.603,0.128,0.089,-0.106,0.057,-0.119,0.177,-0.077,0.094,1.0,-0.189,-0.272,0.389,0.212
12,B2_3,-0.397,0.253,-0.256,-0.158,-0.153,-0.26,0.135,0.127,0.235,-0.272,-0.217,-0.189,1.0,-0.065,-0.281,-0.217
12,y1,0.05,-0.108,0.188,-0.069,-0.206,0.318,-0.274,0.124,-0.33,0.432,0.267,-0.272,-0.065,1.0,-0.301,0.485
12,y2,-0.341,0.06,0.199,0.296,0.052,-0.085,0.151,0.173,-0.343,0.229,0.054,0.389,-0.281,-0.301,1.0,-0.08
12,y3,-0.045,-0.013,0.456,0.199,-0.249,0.274,-0.557,0.0,-0.467,0.271,0.185,0.212,-0.217,0.485,-0.08,1.0
13,.,1.0,-0.457,-0.144,-0.387,0.113,-0.145,-0.195,-0.533,0.213,-0.396,0.043,-0.129,-0.399,0.051,-0.342,-0.042
13,A1_1,-0.457,1.0,0.097,0.179,-0.442,0.317,0.145,0.371,0.127,0.186,-0.521,0.072,0.253,-0.108,0.06,-0.013
13,A1_2,-0.144,0.097,1.0,0.061,0.089,-0.09,0.077,0.199,0.064,0.381,0.476,0.602,-0.255,0.188,0.199,0.456
13,A1_3,-0.387,0.179,0.061,1.0,0.295,0.32,0.002,0.571,-0.573,0.536,0.143,0.127,-0.158,-0.068,0.297,0.199
13,B1_1,0.113,-0.442,0.089,0.295,1.0,-0.088,0.273,0.155,0.023,0.161,0.269,0.09,-0.153,-0.205,0.054,-0.249
13,B1_2,-0.145,0.317,-0.09,0.32,-0.088,1.0,-0.368,0.376,-0.3,0.201,0.008,-0.105,-0.261,0.317,-0.083,0.273
13,B1_3,-0.195,0.145,0.077,0.002,0.273,-0.368,1.0,0.248,0.441,0.001,-0.17,0.058,0.136,-0.274,0.152,-0.558
13,A2_1,-0.533,0.371,0.199,0.571,0.155,0.376,0.248,1.0,-0.308,0.609,0.296,-0.119,0.126,0.125,0.174,0.001
13,A2_2,0.213,0.127,0.064,-0.573,0.023,-0.3,0.441,-0.308,1.0,-0.49,-0.184,0.177,0.235,-0.329,-0.344,-0.466
13,A2_3,-0.396,0.186,0.381,0.536,0.161,0.201,0.001,0.609,-0.49,1.0,0.291,-0.077,-0.271,0.432,0.229,0.271
13,B2_1,0.043,-0.521,0.476,0.143,0.269,0.008,-0.17,0.296,-0.184,0.291,1.0,0.095,-0.218,0.268,0.056,0.186
13,B2_2,-0.129,0.072,0.602,0.127,0.09,-0.105,0.058,-0.119,0.177,-0.077,0.095,1.0,-0.188,-0.273,0.389,0.211
13,B2_3,-0.399,0.253,-0.255,-0.158,-0.153,-0.261,0.136,0.126,0.235,-0.271,-0.218,-0.188,1.0,-0.065,-0.281,-0.218
13,y1,0.051,-0.108,0.188,-0.068,-0.205,0.317,-0.274,0.125,-0.329,0.432,0.268,-0.273,-0.065,1.0,-0.302,0.485
13,y2,-0.342,0.06,0.199,0.297,0.054,-0.083,0.152,0.174,-0.344,0.229,0.056,0.389,-0.281,-0.302,1.0,-0.081
13,y3,-0.042,-0.013,0.456,0.199,-0.249,0.273,-0.558,0.001,-0.466,0.271,0.186,0.211,-0.218,0.485,-0.081,1.0
14,.,1.0,-0.458,-0.143,-0.388,0.113,-0.145,-0.197,-0.533,0.213,-0.396,0.044,-0.129,-0.4,0.053,-0.342,-0.04
14,A1_1,-0.458,1.0,0.097,0.18,-0.442,0.318,0.146,0.372,0.127,0.188,-0.521,0.071,0.253,-0.109,0.058,-0.013
14,A1_2,-0.143,0.097,1.0,0.061,0.089,-0.089,0.077,0.199,0.064,0.381,0.476,0.602,-0.255,0.189,0.199,0.456
14,A1_3,-0.388,0.18,0.061,1.0,0.294,0.321,0.002,0.571,-0.573,0.536,0.142,0.127,-0.157,-0.067,0.297,0.2
14,B1_1,0.113,-0.442,0.089,0.294,1.0,-0.089,0.273,0.154,0.022,0.161,0.269,0.091,-0.154,-0.204,0.055,-0.249
14,B1_2,-0.145,0.318,-0.089,0.321,-0.089,1.0,-0.368,0.376,-0.299,0.202,0.006,-0.105,-0.262,0.317,-0.083,0.273
14,B1_3,-0.197,0.146,0.077,0.002,0.273,-0.368,1.0,0.247,0.442,0.001,-0.17,0.059,0.137,-0.275,0.152,-0.559
14,A2_1,-0.533,0.372,0.199,0.571,0.154,0.376,0.247,1.0,-0.307,0.61,0.295,-0.12,0.125,0.126,0.174,0.001
14,A2_2,0.213,0.127,0.064,-0.573,0.022,-0.299,0.442,-0.307,1.0,-0.49,-0.184,0.177,0.236,-0.328,-0.344,-0.466
14,A2_3,-0.396,0.188,0.381,0.536,0.161,0.202,0.001,0.61,-0.49,1.0,0.291,-0.078,-0.27,0.432,0.229,0.271
14,B2_1,0.044,-0.521,0.476,0.142,0.269,0.006,-0.17,0.295,-0.184,0.291,1.0,0.095,-0.219,0.269,0.058,0.186
14,B2_2,-0.129,0.071,0.602,0.127,0.091,-0.105,0.059,-0.12,0.177,-0.078,0.095,1.0,-0.187,-0.274,0.389,0.21
14,B2_3,-0.4,0.253,-0.255,-0.157,-0.154,-0.262,0.137,0.125,0.236,-0.27,-0.219,-0.187,1.0,-0.065,-0.281,-0.218
14,y1,0.053,-0.109,0.189,-0.067,-0.204,0.317,-0.275,0.126,-0.328,0.432,0.269,-0.274,-0.065,1.0,-0.303,0.485
14,y2,-0.342,0.058,0.199,0.297,0.055,-0.083,0.152,0.174,-0.344,0.229,0.058,0.389,-0.281,-0.303,1.0,-0.082
14,y3,-0.04,-0.013,0.456,0.2,-0.249,0.273,-0.559,0.001,-0.466,0.271,0.186,0.21,-0.218,0.485,-0.082,1.0
15,.,1.0,-0.459,-0.142,-0.388,0.113,-0.145,-0.199,-0.532,0.213,-0.396,0.045,-0.129,-0.402,0.055,-0.342,-0.038
15,A1_1,-0.459,1.0,0.098,0.181,-0.441,0.319,0.146,0.372,0.128,0.188,-0.521,0.071,0.254,-0.109,0.057,-0.014
15,A1_2,-0.142,0.098,1.0,0.061,0.089,-0.088,0.077,0.2,0.063,0.381,0.476,0.601,-0.255,0.189,0.199,0.457
15,A1_3,-0.388,0.181,0.061,1.0,0.294,0.322,0.002,0.572,-0.573,0.536,0.142,0.126,-0.157,-0.067,0.297,0.201
15,B1_1,0.113,-0.441,0.089,0.294,1.0,-0.09,0.275,0.152,0.022,0.161,0.268,0.092,-0.154,-0.203,0.057,-0.248
15,B1_2,-0.145,0.319,-0.088,0.322,-0.09,1.0,-0.368,0.376,-0.299,0.203,0.005,-0.104,-0.263,0.316,-0.081,0.272
15,B1_3,-0.199,0.146,0.077,0.002,0.275,-0.368,1.0,0.246,0.442,0.001,-0.17,0.061,0.138,-0.276,0.153,-0.559
15,A2_1,-0.532,0.372,0.2,0.572,0.152,0.376,0.246,1.0,-0.307,0.61,0.295,-0.121,0.125,0.127,0.174,0.002
15,A2_2,0.213,0.128,0.063,-0.573,0.022,-0.299,0.442,-0.307,1.0,-0.49,-0.185,0.176,0.236,-0.327,-0.344,-0.466
15,A2_3,-0.396,0.188,0.381,0.536,0.161,0.203,0.001,0.61,-0.49,1.0,0.292,-0.078,-0.27,0.432,0.229,0.271
15,B2_1,0.045,-0.521,0.476,0.142,0.268,0.005,-0.17,0.295,-0.185,0.292,1.0,0.095,-0.22,0.27,0.061,0.187
15,B2_2,-0.129,0.071,0.601,0.126,0.092,-0.104,0.061,-0.121,0.176,-0.078,0.095,1.0,-0.186,-0.274,0.388,0.209
15,B2_3,-0.402,0.254,-0.255,-0.157,-0.154,-0.263,0.138,0.125,0.236,-0.27,-0.22,-0.186,1.0,-0.066,-0.28,-0.219
15,y1,0.055,-0.109,0.189,-0.067,-0.203,0.316,-0.276,0.127,-0.327,0.432,0.27,-0.274,-0.066,1.0,-0.303,0.484
15,y2,-0.342,0.057,0.199,0.297,0.057,-0.081,0.153,0.174,-0.344,0.229,0.061,0.388,-0.28,-0.303,1.0,-0.083
15,y3,-0.038,-0.014,0.457,0.201,-0.248,0.272,-0.559,0.002,-0.466,0.271,0.187,0.209,-0.219,0.484,-0.083,1.0
16,.,1.0,-0.46,-0.141,-0.388,0.113,-0.145,-0.201,-0.532,0.213,-0.396,0.046,-0.128,-0.403,0.058,-0.343,-0.035
16,A1_1,-0.46,1.0,0.099,0.182,-0.441,0.32,0.146,0.373,0.128,0.189,-0.52,0.071,0.254,-0.109,0.056,-0.014
16,A1_2,-0.141,0.099,1.0,0.06,0.09,-0.087,0.077,0.201,0.063,0.382,0.476,0.6,-0.254,0.19,0.199,0.457
16,A1_3,-0.388,0.182,0.06,1.0,0.294,0.323,0.002,0.573,-0.573,0.536,0.141,0.125,-0.157,-0.066,0.298,0.202
16,B1_1,0.113,-0.441,0.09,0.294,1.0,-0.09,0.275,0.151,0.022,0.161,0.268,0.093,-0.154,-0.203,0.06,-0.248
16,B1_2,-0.145,0.32,-0.087,0.323,-0.09,1.0,-0.369,0.376,-0.298,0.204,0.004,-0.103,-0.264,0.315,-0.08,0.271
16,B1_3,-0.201,0.146,0.077,0.002,0.275,-0.369,1.0,0.245,0.442,0.001,-0.171,0.062,0.139,-0.276,0.154,-0.56
16,A2_1,-0.532,0.373,0.201,0.573,0.151,0.376,0.245,1.0,-0.306,0.611,0.294,-0.121,0.124,0.127,0.175,0.002
16,A2_2,0.213,0.128,0.063,-0.573,0.022,-0.298,0.442,-0.306,1.0,-0.49,-0.185,0.176,0.236,-0.326,-0.345,-0.465
16,A2_3,-0.396,0.189,0.382,0.536,0.161,0.204,0.001,0.611,-0.49,1.0,0.292,-0.078,-0.269,0.432,0.229,0.271
16,B2_1,0.046,-0.52,0.476,0.141,0.268,0.004,-0.171,0.294,-0.185,0.292,1.0,0.095,-0.221,0.271,0.063,0.187
16,B2_2,-0.128,0.071,0.6,0.125,0.093,-0.103,0.062,-0.121,0.176,-0.078,0.095,1.0,-0.185,-0.275,0.388,0.208
16,B2_3,-0.403,0.254,-0.254,-0.157,-0.154,-0.264,0.139,0.124,0.236,-0.269,-0.221,-0.185,1.0,-0.067,-0.279,-0.22
16,y1,0.058,-0.109,0.19,-0.066,-0.203,0.315,-0.276,0.127,-0.326,0.432,0.271,-0.275,-0.067,1.0,-0.304,0.484
16,y2,-0.343,0.056,0.199,0.298,0.06,-0.08,0.154,0.175,-0.345,0.229,0.063,0.388,-0.279,-0.304,1.0,-0.085
16,y3,-0.035,-0.014,0.457,0.202,-0.248,0.271,-0.56,0.002,-0.465,0.271,0.187,0.208,-0.22,0.484,-0.085,1.0
17,.,1.0,-0.461,-0.14,-0.387,0.113,-0.145,-0.204,-0.531,0.213,-0.395,0.047,-0.128,-0.404,0.06,-0.345,-0.032
17,A1_1,-0.461,1.0,0.1,0.183,-0.44,0.321,0.146,0.374,0.129,0.19,-0.52,0.071,0.254,-0.109,0.055,-0.015
17,A1_2,-0.14,0.1,1.0,0.06,0.089,-0.086,0.078,0.202,0.063,0.382,0.477,0.599,-0.254,0.191,0.198,0.457
17,A1_3,-0.387,0.183,0.06,1.0,0.293,0.325,0.002,0.573,-0.573,0.536,0.141,0.125,-0.157,-0.065,0.298,0.202
17,B1_1,0.113,-0.44,0.089,0.293,1.0,-0.091,0.276,0.151,0.022,0.161,0.267,0.095,-0.155,-0.202,0.062,-0.248
17,B1_2,-0.145,0.321,-0.086,0.325,-0.091,1.0,-0.369,0.376,-0.298,0.206,0.003,-0.102,-0.265,0.314,-0.079,0.271
17,B1_3,-0.204,0.146,0.078,0.002,0.276,-0.369,1.0,0.244,0.442,0.001,-0.171,0.063,0.14,-0.276,0.154,-0.561
17,A2_1,-0.531,0.374,0.202,0.573,0.151,0.376,0.244,1.0,-0.305,0.612,0.294,-0.121,0.123,0.128,0.175,0.002
17,A2_2,0.213,0.129,0.063,-0.573,0.022,-0.298,0.442,-0.305,1.0,-0.49,-0.185,0.176,0.236,-0.325,-0.345,-0.465
17,A2_3,-0.395,0.19,0.382,0.536,0.161,0.206,0.001,0.612,-0.49,1.0,0.292,-0.079,-0.269,0.433,0.228,0.271
17,B2_1,0.047,-0.52,0.477,0.141,0.267,0.003,-0.171,0.294,-0.185,0.292,1.0,0.096,-0.222,0.272,0.064,0.188
17,B2_2,-0.128,0.071,0.599,0.125,0.095,-0.102,0.063,-0.121,0.176,-0.079,0.096,1.0,-0.184,-0.276,0.388,0.207
17,B2_3,-0.404,0.254,-0.254,-0.157,-0.155,-0.265,0.14,0.123,0.236,-0.269,-0.222,-0.184,1.0,-0.068,-0.278,-0.221
17,y1,0.06,-0.109,0.191,-0.065,-0.202,0.314,-0.276,0.128,-0.325,0.433,0.272,-0.276,-0.068,1.0,-0.304,0.483
17,y2,-0.345,0.055,0.198,0.298,0.062,-0.079,0.154,0.175,-0.345,0.228,0.064,0.388,-0.278,-0.304,1.0,-0.086
17,y3,-0.032,-0.015,0.457,0.202,-0.248,0.271,-0.561,0.002,-0.465,0.271,0.188,0.207,-0.221,0.483,-0.086,1.0
18,.,1.0,-0.461,-0.139,-0.388,0.113,-0.145,-0.206,-0.531,0.213,-0.396,0.048,-0.129,-0.405,0.061,-0.346,-0.03
18,A1_1,-0.461,1.0,0.1,0.184,-0.44,0.322,0.147,0.375,0.129,0.191,-0.52,0.07,0.254,-0.11,0.054,-0.015
18,A1_2,-0.139,0.1,1.0,0.061,0.089,-0.085,0.078,0.203,0.063,0.382,0.477,0.598,-0.254,0.191,0.198,0.457
18,A1_3,-0.388,0.184,0.061,1.0,0.293,0.326,0.002,0.574,-0.573,0.536,0.141,0.124,-0.157,-0.064,0.299,0.203
18,B1_1,0.113,-0.44,0.089,0.293,1.0,-0.091,0.277,0.15,0.021,0.161,0.266,0.096,-0.155,-0.202,0.063,-0.248
18,B1_2,-0.145,0.322,-0.085,0.326,-0.091,1.0,-0.37,0.376,-0.297,0.207,0.001,-0.102,-0.265,0.313,-0.078,0.27
18,B1_3,-0.206,0.147,0.078,0.002,0.277,-0.37,1.0,0.243,0.442,0.002,-0.171,0.064,0.141,-0.277,0.155,-0.562
18,A2_1,-0.531,0.375,0.203,0.574,0.15,0.376,0.243,1.0,-0.304,0.612,0.293,-0.122,0.123,0.129,0.176,0.002
18,A2_2,0.213,0.129,0.063,-0.573,0.021,-0.297,0.442,-0.304,1.0,-0.49,-0.185,0.176,0.236,-0.325,-0.346,-0.464
18,A2_3,-0.396,0.191,0.382,0.536,0.161,0.207,0.002,0.612,-0.49,1.0,0.292,-0.079,-0.268,0.433,0.228,0.272
18,B2_1,0.048,-0.52,0.477,0.141,0.266,0.001,-0.171,0.293,-0.185,0.292,1.0,0.096,-0.222,0.272,0.066,0.188
18,B2_2,-0.129,0.07,0.598,0.124,0.096,-0.102,0.064,-0.122,0.176,-0.079,0.096,1.0,-0.183,-0.277,0.387,0.205
18,B2_3,-0.405,0.254,-0.254,-0.157,-0.155,-0.265,0.141,0.123,0.236,-0.268,-0.222,-0.183,1.0,-0.068,-0.278,-0.222
18,y1,0.061,-0.11,0.191,-0.064,-0.202,0.313,-0.277,0.129,-0.325,0.433,0.272,-0.277,-0.068,1.0,-0.305,0.484
18,y2,-0.346,0.054,0.198,0.299,0.063,-0.078,0.155,0.176,-0.346,0.228,0.066,0.387,-0.278,-0.305,1.0,-0.087
18,y3,-0.03,-0.015,0.457,0.203,-0.248,0.27,-0.562,0.002,-0.464,0.272,0.188,0.205,-0.222,0.484,-0.087,1.0
19,.,1.0,-0.462,-0.138,-0.389,0.113,-0.145,-0.208,-0.53,0.214,-0.396,0.049,-0.129,-0.406,0.063,-0.347,-0.028
19,A1_1,-0.462,1.0,0.101,0.185,-0.439,0.323,0.147,0.375,0.13,0.192,-0.52,0.07,0.254,-0.11,0.053,-0.016
19,A1_2,-0.138,0.101,1.0,0.061,0.09,-0.084,0.078,0.203,0.063,0.382,0.478,0.598,-0.254,0.191,0.198,0.458
19,A1_3,-0.389,0.185,0.061,1.0,0.292,0.327,0.002,0.575,-0.573,0.536,0.141,0.124,-0.156,-0.064,0.3,0.204
19,B1_1,0.113,-0.439,0.09,0.292,1.0,-0.092,0.277,0.149,0.021,0.161,0.266,0.097,-0.155,-0.202,0.065,-0.247
19,B1_2,-0.145,0.323,-0.084,0.327,-0.092,1.0,-0.37,0.376,-0.297,0.208,0.0,-0.101,-0.266,0.313,-0.077,0.269
19,B1_3,-0.208,0.147,0.078,0.002,0.277,-0.37,1.0,0.242,0.443,0.002,-0.172,0.065,0.142,-0.277,0.155,-0.562
19,A2_1,-0.53,0.375,0.203,0.575,0.149,0.376,0.242,1.0,-0.304,0.613,0.292,-0.123,0.122,0.129,0.176,0.003
19,A2_2,0.214,0.13,0.063,-0.573,0.021,-0.297,0.443,-0.304,1.0,-0.49,-0.185,0.175,0.237,-0.324,-0.347,-0.464
19,A2_3,-0.396,0.192,0.382,0.536,0.161,0.208,0.002,0.613,-0.49,1.0,0.293,-0.08,-0.268,0.433,0.228,0.272
19,B2_1,0.049,-0.52,0.478,0.141,0.266,0.0,-0.172,0.292,-0.185,0.293,1.0,0.097,-0.223,0.273,0.069,0.189
19,B2_2,-0.129,0.07,0.598,0.124,0.097,-0.101,0.065,-0.123,0.175,-0.08,0.097,1.0,-0.182,-0.278,0.387,0.204
19,B2_3,-0.406,0.254,-0.254,-0.156,-0.155,-0.266,0.142,0.122,0.237,-0.268,-0.223,-0.182,1.0,-0.068,-0.278,-0.222
19,y1,0.063,-0.11,0.191,-0.064,-0.202,0.313,-0.277,0.129,-0.324,0.433,0.273,-0.278,-0.068,1.0,-0.305,0.483
19,y2,-0.347,0.053,0.198,0.3,0.065,-0.077,0.155,0.176,-0.347,0.228,0.069,0.387,-0.278,-0.305,1.0,-0.087
19,y3,-0.028,-0.016,0.458,0.204,-0.247,0.269,-0.562,0.003,-0.464,0.272,0.189,0.204,-0.222,0.483,-0.087,1.0
20,.,1.0,-0.462,-0.137,-0.389,0.112,-0.144,-0.211,-0.529,0.213,-0.396,0.049,-0.129,-0.407,0.065,-0.347,-0.026
20,A1_1,-0.462,1.0,0.102,0.186,-0.438,0.324,0.147,0.376,0.13,0.193,-0.52,0.07,0.255,-0.11,0.052,-0.016
20,A1_2,-0.137,0.102,1.0,0.061,0.09,-0.083,0.078,0.204,0.063,0.383,0.478,0.597,-0.254,0.192,0.197,0.458
20,A1_3,-0.389,0.186,0.061,1.0,0.292,0.328,0.002,0.576,-0.573,0.536,0.141,0.123,-0.156,-0.063,0.3,0.204
20,B1_1,0.112,-0.438,0.09,0.292,1.0,-0.092,0.278,0.148,0.021,0.161,0.266,0.098,-0.155,-0.201,0.067,-0.247
20,B1_2,-0.144,0.324,-0.083,0.328,-0.092,1.0,-0.371,0.376,-0.296,0.209,-0.001,-0.1,-0.266,0.312,-0.075,0.268
20,B1_3,-0.211,0.147,0.078,0.002,0.278,-0.371,1.0,0.241,0.443,0.002,-0.172,0.067,0.143,-0.278,0.155,-0.563
20,A2_1,-0.529,0.376,0.204,0.576,0.148,0.376,0.241,1.0,-0.303,0.614,0.292,-0.124,0.121,0.13,0.177,0.003
20,A2_2,0.213,0.13,0.063,-0.573,0.021,-0.296,0.443,-0.303,1.0,-0.49,-0.186,0.175,0.237,-0.324,-0.348,-0.463
20,A2_3,-0.396,0.193,0.383,0.536,0.161,0.209,0.002,0.614,-0.49,1.0,0.293,-0.081,-0.267,0.434,0.228,0.272
20,B2_1,0.049,-0.52,0.478,0.141,0.266,-0.001,-0.172,0.292,-0.186,0.293,1.0,0.097,-0.224,0.273,0.071,0.189
20,B2_2,-0.129,0.07,0.597,0.123,0.098,-0.1,0.067,-0.124,0.175,-0.081,0.097,1.0,-0.182,-0.279,0.386,0.203
20,B2_3,-0.407,0.255,-0.254,-0.156,-0.155,-0.266,0.143,0.121,0.237,-0.267,-0.224,-0.182,1.0,-0.069,-0.278,-0.223
20,y1,0.065,-0.11,0.192,-0.063,-0.201,0.312,-0.278,0.13,-0.324,0.434,0.273,-0.279,-0.069,1.0,-0.305,0.483
20,y2,-0.347,0.052,0.197,0.3,0.067,-0.075,0.155,0.177,-0.348,0.228,0.071,0.386,-0.278,-0.305,1.0,-0.088
20,y3,-0.026,-0.016,0.458,0.204,-0.247,0.268,-0.563,0.003,-0.463,0.272,0.189,0.203,-0.223,0.483,-0.088,1.0
21,.,1.0,-0.463,-0.136,-0.39,0.112,-0.144,-0.213,-0.528,0.213,-0.395,0.051,-0.13,-0.408,0.067,-0.348,-0.024
21,A1_1,-0.463,1.0,0.102,0.187,-0.438,0.325,0.148,0.377,0.131,0.193,-0.52,0.069,0.255,-0.111,0.051,-0.017
21,A1_2,-0.136,0.102,1.0,0.061,0.089,-0.082,0.078,0.205,0.063,0.383,0.478,0.596,-0.253,0.192,0.197,0.458
21,A1_3,-0.39,0.187,0.061,1.0,0.292,0.329,0.002,0.576,-0.573,0.536,0.14,0.122,-0.156,-0.062,0.301,0.205
21,B1_1,0.112,-0.438,0.089,0.292,1.0,-0.092,0.278,0.148,0.021,0.161,0.265,0.099,-0.154,-0.201,0.068,-0.247
21,B1_2,-0.144,0.325,-0.082,0.329,-0.092,1.0,-0.371,0.376,-0.295,0.21,-0.002,-0.099,-0.267,0.311,-0.073,0.267
21,B1_3,-0.213,0.148,0.078,0.002,0.278,-0.371,1.0,0.24,0.443,0.002,-0.172,0.068,0.144,-0.279,0.155,-0.563
21,A2_1,-0.528,0.377,0.205,0.576,0.148,0.376,0.24,1.0,-0.302,0.614,0.291,-0.124,0.121,0.13,0.177,0.003
21,A2_2,0.213,0.131,0.063,-0.573,0.021,-0.295,0.443,-0.302,1.0,-0.49,-0.186,0.175,0.237,-0.323,-0.349,-0.463
21,A2_3,-0.395,0.193,0.383,0.536,0.161,0.21,0.002,0.614,-0.49,1.0,0.293,-0.081,-0.267,0.434,0.228,0.272
21,B2_1,0.051,-0.52,0.478,0.14,0.265,-0.002,-0.172,0.291,-0.186,0.293,1.0,0.098,-0.225,0.274,0.073,0.189
21,B2_2,-0.13,0.069,0.596,0.122,0.099,-0.099,0.068,-0.124,0.175,-0.081,0.098,1.0,-0.18,-0.279,0.385,0.202
21,B2_3,-0.408,0.255,-0.253,-0.156,-0.154,-0.267,0.144,0.121,0.237,-0.267,-0.225,-0.18,1.0,-0.069,-0.277,-0.224
21,y1,0.067,-0.111,0.192,-0.062,-0.201,0.311,-0.279,0.13,-0.323,0.434,0.274,-0.279,-0.069,1.0,-0.305,0.483
21,y2,-0.348,0.051,0.197,0.301,0.068,-0.073,0.155,0.177,-0.349,0.228,0.073,0.385,-0.277,-0.305,1.0,-0.089
21,y3,-0.024,-0.017,0.458,0.205,-0.247,0.267,-0.563,0.003,-0.463,0.272,0.189,0.202,-0.224,0.483,-0.089,1.0
22,.,1.0,-0.465,-0.135,-0.389,0.112,-0.143,-0.216,-0.527,0.212,-0.395,0.053,-0.13,-0.41,0.069,-0.349,-0.021
22,A1_1,-0.465,1.0,0.103,0.188,-0.437,0.326,0.148,0.378,0.131,0.194,-0.52,0.069,0.255,-0.112,0.05,-0.017
22,A1_2,-0.135,0.103,1.0,0.061,0.089,-0.081,0.078,0.206,0.063,0.383,0.479,0.595,-0.253,0.192,0.197,0.458
22,A1_3,-0.389,0.188,0.061,1.0,0.291,0.33,0.002,0.577,-0.573,0.537,0.14,0.122,-0.155,-0.061,0.302,0.206
22,B1_1,0.112,-0.437,0.089,0.291,1.0,-0.093,0.279,0.146,0.02,0.161,0.265,0.101,-0.154,-0.2,0.07,-0.247
22,B1_2,-0.143,0.326,-0.081,0.33,-0.093,1.0,-0.372,0.377,-0.295,0.211,-0.004,-0.098,-0.268,0.31,-0.073,0.266
22,B1_3,-0.216,0.148,0.078,0.002,0.279,-0.372,1.0,0.24,0.443,0.002,-0.172,0.069,0.145,-0.28,0.155,-0.564
22,A2_1,-0.527,0.378,0.206,0.577,0.146,0.377,0.24,1.0,-0.301,0.615,0.29,-0.125,0.12,0.131,0.178,0.003
22,A2_2,0.212,0.131,0.063,-0.573,0.02,-0.295,0.443,-0.301,1.0,-0.49,-0.186,0.174,0.238,-0.323,-0.35,-0.462
22,A2_3,-0.395,0.194,0.383,0.537,0.161,0.211,0.002,0.615,-0.49,1.0,0.294,-0.081,-0.266,0.434,0.228,0.272
22,B2_1,0.053,-0.52,0.479,0.14,0.265,-0.004,-0.172,0.29,-0.186,0.294,1.0,0.098,-0.226,0.275,0.075,0.189
22,B2_2,-0.13,0.069,0.595,0.122,0.101,-0.098,0.069,-0.125,0.174,-0.081,0.098,1.0,-0.179,-0.28,0.385,0.201
22,B2_3,-0.41,0.255,-0.253,-0.155,-0.154,-0.268,0.145,0.12,0.238,-0.266,-0.226,-0.179,1.0,-0.071,-0.277,-0.225
22,y1,0.069,-0.112,0.192,-0.061,-0.2,0.31,-0.28,0.131,-0.323,0.434,0.275,-0.28,-0.071,1.0,-0.305,0.482
22,y2,-0.349,0.05,0.197,0.302,0.07,-0.073,0.155,0.178,-0.35,0.228,0.075,0.385,-0.277,-0.305,1.0,-0.09
22,y3,-0.021,-0.017,0.458,0.206,-0.247,0.266,-0.564,0.003,-0.462,0.272,0.189,0.201,-0.225,0.482,-0.09,1.0
23,.,1.0,-0.465,-0.134,-0.39,0.112,-0.142,-0.219,-0.526,0.212,-0.395,0.054,-0.13,-0.411,0.071,-0.35,-0.018
23,A1_1,-0.465,1.0,0.104,0.189,-0.437,0.327,0.148,0.379,0.132,0.195,-0.52,0.068,0.255,-0.112,0.049,-0.018
23,A1_2,-0.134,0.104,1.0,0.062,0.089,-0.081,0.078,0.206,0.063,0.384,0.479,0.594,-0.253,0.193,0.196,0.459
23,A1_3,-0.39,0.189,0.062,1.0,0.291,0.331,0.002,0.578,-0.573,0.537,0.14,0.121,-0.155,-0.06,0.303,0.206
23,B1_1,0.112,-0.437,0.089,0.291,1.0,-0.093,0.28,0.146,0.02,0.16,0.265,0.102,-0.154,-0.199,0.072,-0.247
23,B1_2,-0.142,0.327,-0.081,0.331,-0.093,1.0,-0.372,0.377,-0.294,0.212,-0.005,-0.098,-0.268,0.309,-0.071,0.266
23,B1_3,-0.219,0.148,0.078,0.002,0.28,-0.372,1.0,0.239,0.443,0.002,-0.172,0.07,0.146,-0.281,0.156,-0.565
23,A2_1,-0.526,0.379,0.206,0.578,0.146,0.377,0.239,1.0,-0.3,0.615,0.289,-0.126,0.12,0.131,0.178,0.003
23,A2_2,0.212,0.132,0.063,-0.573,0.02,-0.294,0.443,-0.3,1.0,-0.489,-0.186,0.174,0.238,-0.322,-0.351,-0.462
23,A2_3,-0.395,0.195,0.384,0.537,0.16,0.212,0.002,0.615,-0.489,1.0,0.294,-0.081,-0.266,0.434,0.228,0.272
23,B2_1,0.054,-0.52,0.479,0.14,0.265,-0.005,-0.172,0.289,-0.186,0.294,1.0,0.099,-0.227,0.275,0.077,0.189
23,B2_2,-0.13,0.068,0.594,0.121,0.102,-0.098,0.07,-0.126,0.174,-0.081,0.099,1.0,-0.178,-0.281,0.384,0.2
23,B2_3,-0.411,0.255,-0.253,-0.155,-0.154,-0.268,0.146,0.12,0.238,-0.266,-0.227,-0.178,1.0,-0.071,-0.277,-0.225
23,y1,0.071,-0.112,0.193,-0.06,-0.199,0.309,-0.281,0.131,-0.322,0.434,0.275,-0.281,-0.071,1.0,-0.306,0.483
23,y2,-0.35,0.049,0.196,0.303,0.072,-0.071,0.156,0.178,-0.351,0.228,0.077,0.384,-0.277,-0.306,1.0,-0.091
23,y3,-0.018,-0.018,0.459,0.206,-0.247,0.266,-0.565,0.003,-0.462,0.272,0.189,0.2,-0.225,0.483,-0.091,1.0
24,.,1.0,-0.465,-0.134,-0.39,0.111,-0.141,-0.221,-0.526,0.212,-0.395,0.054,-0.131,-0.412,0.073,-0.35,-0.016
24,A1_1,-0.465,1.0,0.105,0.19,-0.436,0.328,0.149,0.38,0.133,0.196,-0.52,0.068,0.255,-0.113,0.047,-0.018
24,A1_2,-0.134,0.105,1.0,0.062,0.089,-0.08,0.078,0.207,0.062,0.384,0.479,0.593,-0.252,0.193,0.196,0.458
24,A1_3,-0.39,0.19,0.062,1.0,0.29,0.332,0.002,0.579,-0.573,0.537,0.14,0.121,-0.155,-0.059,0.303,0.207
24,B1_1,0.111,-0.436,0.089,0.29,1.0,-0.094,0.28,0.145,0.02,0.16,0.264,0.103,-0.154,-0.199,0.073,-0.247
24,B1_2,-0.141,0.328,-0.08,0.332,-0.094,1.0,-0.372,0.376,-0.293,0.213,-0.006,-0.097,-0.269,0.308,-0.07,0.265
24,B1_3,-0.221,0.149,0.078,0.002,0.28,-0.372,1.0,0.238,0.443,0.002,-0.172,0.071,0.148,-0.281,0.156,-0.566
24,A2_1,-0.526,0.38,0.207,0.579,0.145,0.376,0.238,1.0,-0.299,0.616,0.289,-0.126,0.119,0.131,0.179,0.003
24,A2_2,0.212,0.133,0.062,-0.573,0.02,-0.293,0.443,-0.299,1.0,-0.489,-0.186,0.174,0.238,-0.322,-0.352,-0.461
24,A2_3,-0.395,0.196,0.384,0.537,0.16,0.213,0.002,0.616,-0.489,1.0,0.294,-0.082,-0.265,0.434,0.228,0.272
24,B2_1,0.054,-0.52,0.479,0.14,0.264,-0.006,-0.172,0.289,-0.186,0.294,1.0,0.099,-0.227,0.276,0.079,0.189
24,B2_2,-0.131,0.068,0.593,0.121,0.103,-0.097,0.071,-0.126,0.174,-0.082,0.099,1.0,-0.176,-0.282,0.384,0.198
24,B2_3,-0.412,0.255,-0.252,-0.155,-0.154,-0.269,0.148,0.119,0.238,-0.265,-0.227,-0.176,1.0,-0.072,-0.276,-0.226
24,y1,0.073,-0.113,0.193,-0.059,-0.199,0.308,-0.281,0.131,-0.322,0.434,0.276,-0.282,-0.072,1.0,-0.306,0.483
24,y2,-0.35,0.047,0.196,0.303,0.073,-0.07,0.156,0.179,-0.352,0.228,0.079,0.384,-0.276,-0.306,1.0,-0.092
24,y3,-0.016,-0.018,0.458,0.207,-0.247,0.265,-0.566,0.003,-0.461,0.272,0.189,0.198,-0.226,0.483,-0.092,1.0
25,.,1.0,-0.466,-0.133,-0.391,0.11,-0.141,-0.225,-0.525,0.212,-0.395,0.055,-0.131,-0.412,0.075,-0.352,-0.013
25,A1_1,-0.466,1.0,0.105,0.191,-0.436,0.329,0.149,0.381,0.133,0.197,-0.519,0.068,0.256,-0.113,0.046,-0.019
25,A1_2,-0.133,0.105,1.0,0.062,0.089,-0.079,0.078,0.208,0.062,0.385,0.479,0.593,-0.252,0.193,0.196,0.459
25,A1_3,-0.391,0.191,0.062,1.0,0.29,0.333,0.002,0.579,-0.573,0.537,0.139,0.12,-0.154,-0.058,0.303,0.207
25,B1_1,0.11,-0.436,0.089,0.29,1.0,-0.095,0.281,0.144,0.02,0.16,0.264,0.104,-0.153,-0.199,0.075,-0.247
25,B1_2,-0.141,0.329,-0.079,0.333,-0.095,1.0,-0.373,0.376,-0.293,0.214,-0.007,-0.096,-0.27,0.308,-0.069,0.264
25,B1_3,-0.225,0.149,0.078,0.002,0.281,-0.373,1.0,0.237,0.444,0.002,-0.173,0.072,0.149,-0.282,0.157,-0.566
25,A2_1,-0.525,0.381,0.208,0.579,0.144,0.376,0.237,1.0,-0.299,0.616,0.288,-0.127,0.118,0.132,0.179,0.003
25,A2_2,0.212,0.133,0.062,-0.573,0.02,-0.293,0.444,-0.299,1.0,-0.489,-0.187,0.173,0.239,-0.321,-0.352,-0.461
25,A2_3,-0.395,0.197,0.385,0.537,0.16,0.214,0.002,0.616,-0.489,1.0,0.294,-0.082,-0.265,0.434,0.227,0.272
25,B2_1,0.055,-0.519,0.479,0.139,0.264,-0.007,-0.173,0.288,-0.187,0.294,1.0,0.1,-0.228,0.276,0.081,0.19
25,B2_2,-0.131,0.068,0.593,0.12,0.104,-0.096,0.072,-0.127,0.173,-0.082,0.1,1.0,-0.175,-0.283,0.383,0.197
25,B2_3,-0.412,0.256,-0.252,-0.154,-0.153,-0.27,0.149,0.118,0.239,-0.265,-0.228,-0.175,1.0,-0.073,-0.276,-0.227
25,y1,0.075,-0.113,0.193,-0.058,-0.199,0.308,-0.282,0.132,-0.321,0.434,0.276,-0.283,-0.073,1.0,-0.306,0.483
25,y2,-0.352,0.046,0.196,0.303,0.075,-0.069,0.157,0.179,-0.352,0.227,0.081,0.383,-0.276,-0.306,1.0,-0.092
25,y3,-0.013,-0.019,0.459,0.207,-0.247,0.264,-0.566,0.003,-0.461,0.272,0.19,0.197,-0.227,0.483,-0.092,1.0
26,.,1.0,-0.466,-0.133,-0.392,0.109,-0.14,-0.228,-0.525,0.212,-0.395,0.055,-0.132,-0.413,0.077,-0.353,-0.01
26,A1_1,-0.466,1.0,0.106,0.192,-0.435,0.33,0.149,0.382,0.134,0.197,-0.519,0.068,0.256,-0.114,0.045,-0.02
26,A1_2,-0.133,0.106,1.0,0.062,0.089,-0.078,0.078,0.209,0.062,0.385,0.479,0.592,-0.252,0.194,0.197,0.459
26,A1_3,-0.392,0.192,0.062,1.0,0.289,0.334,0.002,0.58,-0.573,0.537,0.139,0.119,-0.154,-0.058,0.304,0.207
26,B1_1,0.109,-0.435,0.089,0.289,1.0,-0.095,0.282,0.143,0.02,0.16,0.264,0.105,-0.153,-0.198,0.076,-0.247
26,B1_2,-0.14,0.33,-0.078,0.334,-0.095,1.0,-0.373,0.377,-0.292,0.215,-0.008,-0.095,-0.27,0.307,-0.068,0.263
26,B1_3,-0.228,0.149,0.078,0.002,0.282,-0.373,1.0,0.237,0.444,0.002,-0.173,0.074,0.15,-0.283,0.157,-0.567
26,A2_1,-0.525,0.382,0.209,0.58,0.143,0.377,0.237,1.0,-0.298,0.617,0.287,-0.127,0.118,0.132,0.18,0.003
26,A2_2,0.212,0.134,0.062,-0.573,0.02,-0.292,0.444,-0.298,1.0,-0.489,-0.187,0.173,0.239,-0.321,-0.353,-0.46
26,A2_3,-0.395,0.197,0.385,0.537,0.16,0.215,0.002,0.617,-0.489,1.0,0.294,-0.082,-0.264,0.435,0.227,0.272
26,B2_1,0.055,-0.519,0.479,0.139,0.264,-0.008,-0.173,0.287,-0.187,0.294,1.0,0.1,-0.228,0.277,0.083,0.19
26,B2_2,-0.132,0.068,0.592,0.119,0.105,-0.095,0.074,-0.127,0.173,-0.082,0.1,1.0,-0.174,-0.284,0.383,0.196
26,B2_3,-0.413,0.256,-0.252,-0.154,-0.153,-0.27,0.15,0.118,0.239,-0.264,-0.228,-0.174,1.0,-0.074,-0.276,-0.228
26,y1,0.077,-0.114,0.194,-0.058,-0.198,0.307,-0.283,0.132,-0.321,0.435,0.277,-0.284,-0.074,1.0,-0.306,0.482
26,y2,-0.353,0.045,0.197,0.304,0.076,-0.068,0.157,0.18,-0.353,0.227,0.083,0.383,-0.276,-0.306,1.0,-0.093
26,y3,-0.01,-0.02,0.459,0.207,-0.247,0.263,-0.567,0.003,-0.46,0.272,0.19,0.196,-0.228,0.482,-0.093,1.0
27,.,1.0,-0.467,-0.132,-0.392,0.108,-0.139,-0.23,-0.524,0.212,-0.396,0.056,-0.132,-0.414,0.08,-0.354,-0.007
27,A1_1,-0.467,1.0,0.106,0.193,-0.435,0.331,0.149,0.382,0.134,0.198,-0.519,0.067,0.256,-0.114,0.044,-0.02
27,A1_2,-0.132,0.106,1.0,0.062,0.089,-0.077,0.078,0.209,0.062,0.385,0.48,0.591,-0.252,0.194,0.196,0.459
27,A1_3,-0.392,0.193,0.062,1.0,0.289,0.336,0.002,0.581,-0.573,0.538,0.139,0.119,-0.153,-0.057,0.304,0.208
27,B1_1,0.108,-0.435,0.089,0.289,1.0,-0.095,0.282,0.142,0.019,0.16,0.263,0.107,-0.153,-0.197,0.078,-0.247
27,B1_2,-0.139,0.331,-0.077,0.336,-0.095,1.0,-0.373,0.377,-0.291,0.215,-0.01,-0.095,-0.271,0.306,-0.067,0.262
27,B1_3,-0.23,0.149,0.078,0.002,0.282,-0.373,1.0,0.236,0.444,0.002,-0.173,0.075,0.151,-0.283,0.156,-0.568
27,A2_1,-0.524,0.382,0.209,0.581,0.142,0.377,0.236,1.0,-0.297,0.617,0.287,-0.128,0.117,0.132,0.18,0.003
27,A2_2,0.212,0.134,0.062,-0.573,0.019,-0.291,0.444,-0.297,1.0,-0.489,-0.187,0.173,0.24,-0.32,-0.353,-0.46
27,A2_3,-0.396,0.198,0.385,0.538,0.16,0.215,0.002,0.617,-0.489,1.0,0.294,-0.083,-0.264,0.435,0.227,0.272
27,B2_1,0.056,-0.519,0.48,0.139,0.263,-0.01,-0.173,0.287,-0.187,0.294,1.0,0.101,-0.229,0.277,0.085,0.19
27,B2_2,-0.132,0.067,0.591,0.119,0.107,-0.095,0.075,-0.128,0.173,-0.083,0.101,1.0,-0.173,-0.285,0.382,0.195
27,B2_3,-0.414,0.256,-0.252,-0.153,-0.153,-0.271,0.151,0.117,0.24,-0.264,-0.229,-0.173,1.0,-0.075,-0.276,-0.228
27,y1,0.08,-0.114,0.194,-0.057,-0.197,0.306,-0.283,0.132,-0.32,0.435,0.277,-0.285,-0.075,1.0,-0.306,0.482
27,y2,-0.354,0.044,0.196,0.304,0.078,-0.067,0.156,0.18,-0.353,0.227,0.085,0.382,-0.276,-0.306,1.0,-0.094
27,y3,-0.007,-0.02,0.459,0.208,-0.247,0.262,-0.568,0.003,-0.46,0.272,0.19,0.195,-0.228,0.482,-0.094,1.0
28,.,1.0,-0.467,-0.13,-0.393,0.107,-0.138,-0.233,-0.523,0.211,-0.395,0.058,-0.132,-0.416,0.081,-0.354,-0.004
28,A1_1,-0.467,1.0,0.107,0.195,-0.434,0.332,0.15,0.383,0.135,0.199,-0.519,0.067,0.256,-0.114,0.043,-0.021
28,A1_2,-0.13,0.107,1.0,0.062,0.089,-0.076,0.078,0.21,0.063,0.385,0.48,0.59,-0.251,0.194,0.196,0.459
28,A1_3,-0.393,0.195,0.062,1.0,0.288,0.337,0.002,0.582,-0.573,0.538,0.139,0.118,-0.153,-0.056,0.305,0.209
28,B1_1,0.107,-0.434,0.089,0.288,1.0,-0.095,0.283,0.142,0.019,0.16,0.263,0.108,-0.153,-0.197,0.08,-0.247
28,B1_2,-0.138,0.332,-0.076,0.337,-0.095,1.0,-0.373,0.377,-0.29,0.216,-0.011,-0.094,-0.271,0.305,-0.066,0.261
28,B1_3,-0.233,0.15,0.078,0.002,0.283,-0.373,1.0,0.235,0.444,0.002,-0.173,0.076,0.153,-0.284,0.157,-0.568
28,A2_1,-0.523,0.383,0.21,0.582,0.142,0.377,0.235,1.0,-0.296,0.617,0.286,-0.128,0.116,0.132,0.18,0.004
28,A2_2,0.211,0.135,0.063,-0.573,0.019,-0.29,0.444,-0.296,1.0,-0.489,-0.187,0.173,0.24,-0.32,-0.354,-0.459
28,A2_3,-0.395,0.199,0.385,0.538,0.16,0.216,0.002,0.617,-0.489,1.0,0.295,-0.083,-0.263,0.435,0.227,0.272
28,B2_1,0.058,-0.519,0.48,0.139,0.263,-0.011,-0.173,0.286,-0.187,0.295,1.0,0.101,-0.229,0.277,0.086,0.19
28,B2_2,-0.132,0.067,0.59,0.118,0.108,-0.094,0.076,-0.128,0.173,-0.083,0.101,1.0,-0.171,-0.286,0.382,0.193
28,B2_3,-0.416,0.256,-0.251,-0.153,-0.153,-0.271,0.153,0.116,0.24,-0.263,-0.229,-0.171,1.0,-0.075,-0.276,-0.229
28,y1,0.081,-0.114,0.194,-0.056,-0.197,0.305,-0.284,0.132,-0.32,0.435,0.277,-0.286,-0.075,1.0,-0.307,0.482
28,y2,-0.354,0.043,0.196,0.305,0.08,-0.066,0.157,0.18,-0.354,0.227,0.086,0.382,-0.276,-0.307,1.0,-0.094
28,y3,-0.004,-0.021,0.459,0.209,-0.247,0.261,-0.568,0.004,-0.459,0.272,0.19,0.193,-0.229,0.482,-0.094,1.0
29,.,1.0,-0.467,-0.13,-0.392,0.105,-0.137,-0.236,-0.522,0.211,-0.395,0.058,-0.131,-0.417,0.084,-0.355,-0.001
29,A1_1,-0.467,1.0,0.108,0.195,-0.434,0.333,0.15,0.384,0.136,0.199,-0.519,0.066,0.256,-0.115,0.042,-0.021
29,A1_2,-0.13,0.108,1.0,0.062,0.089,-0.076,0.078,0.211,0.063,0.386,0.48,0.589,-0.251,0.194,0.196,0.459
29,A1_3,-0.392,0.195,0.062,1.0,0.287,0.338,0.002,0.583,-0.573,0.538,0.139,0.117,-0.153,-0.055,0.306,0.209
29,B1_1,0.105,-0.434,0.089,0.287,1.0,-0.096,0.284,0.141,0.018,0.159,0.263,0.11,-0.152,-0.197,0.082,-0.247
29,B1_2,-0.137,0.333,-0.076,0.338,-0.096,1.0,-0.374,0.377,-0.29,0.217,-0.012,-0.093,-0.272,0.304,-0.064,0.26
29,B1_3,-0.236,0.15,0.078,0.002,0.284,-0.374,1.0,0.234,0.444,0.002,-0.173,0.077,0.154,-0.285,0.157,-0.569
29,A2_1,-0.522,0.384,0.211,0.583,0.141,0.377,0.234,1.0,-0.295,0.618,0.286,-0.129,0.116,0.132,0.181,0.004
29,A2_2,0.211,0.136,0.063,-0.573,0.018,-0.29,0.444,-0.295,1.0,-0.489,-0.187,0.173,0.24,-0.319,-0.355,-0.459
29,A2_3,-0.395,0.199,0.386,0.538,0.159,0.217,0.002,0.618,-0.489,1.0,0.295,-0.083,-0.263,0.435,0.227,0.272
29,B2_1,0.058,-0.519,0.48,0.139,0.263,-0.012,-0.173,0.286,-0.187,0.295,1.0,0.102,-0.23,0.277,0.088,0.19
29,B2_2,-0.131,0.066,0.589,0.117,0.11,-0.093,0.077,-0.129,0.173,-0.083,0.102,1.0,-0.17,-0.287,0.381,0.192
29,B2_3,-0.417,0.256,-0.251,-0.153,-0.152,-0.272,0.154,0.116,0.24,-0.263,-0.23,-0.17,1.0,-0.076,-0.276,-0.23
29,y1,0.084,-0.115,0.194,-0.055,-0.197,0.304,-0.285,0.132,-0.319,0.435,0.277,-0.287,-0.076,1.0,-0.307,0.482
29,y2,-0.355,0.042,0.196,0.306,0.082,-0.064,0.157,0.181,-0.355,0.227,0.088,0.381,-0.276,-0.307,1.0,-0.095
29,y3,-0.001,-0.021,0.459,0.209,-0.247,0.26,-0.569,0.004,-0.459,0.272,0.19,0.192,-0.23,0.482,-0.095,1.0
30,.,1.0,-0.468,-0.129,-0.393,0.104,-0.137,-0.24,-0.522,0.21,-0.395,0.059,-0.131,-0.418,0.086,-0.355,0.002
30,A1_1,-0.468,1.0,0.109,0.196,-0.433,0.334,0.15,0.384,0.136,0.201,-0.519,0.066,0.256,-0.116,0.041,-0.022
30,A1_2,-0.129,0.109,1.0,0.062,0.089,-0.075,0.079,0.212,0.062,0.386,0.48,0.588,-0.25,0.194,0.196,0.459
30,A1_3,-0.393,0.196,0.062,1.0,0.287,0.339,0.002,0.583,-0.573,0.538,0.138,0.116,-0.152,-0.055,0.306,0.21
30,B1_1,0.104,-0.433,0.089,0.287,1.0,-0.096,0.285,0.14,0.018,0.159,0.263,0.111,-0.152,-0.197,0.083,-0.246
30,B1_2,-0.137,0.334,-0.075,0.339,-0.096,1.0,-0.374,0.377,-0.289,0.218,-0.013,-0.092,-0.272,0.303,-0.063,0.259
30,B1_3,-0.24,0.15,0.079,0.002,0.285,-0.374,1.0,0.233,0.444,0.002,-0.173,0.078,0.155,-0.286,0.157,-0.57
30,A2_1,-0.522,0.384,0.212,0.583,0.14,0.377,0.233,1.0,-0.295,0.619,0.285,-0.129,0.115,0.133,0.182,0.004
30,A2_2,0.21,0.136,0.062,-0.573,0.018,-0.289,0.444,-0.295,1.0,-0.489,-0.187,0.172,0.241,-0.318,-0.356,-0.459
30,A2_3,-0.395,0.201,0.386,0.538,0.159,0.218,0.002,0.619,-0.489,1.0,0.295,-0.084,-0.263,0.435,0.227,0.272
30,B2_1,0.059,-0.519,0.48,0.138,0.263,-0.013,-0.173,0.285,-0.187,0.295,1.0,0.103,-0.23,0.278,0.09,0.19
30,B2_2,-0.131,0.066,0.588,0.116,0.111,-0.092,0.078,-0.129,0.172,-0.084,0.103,1.0,-0.169,-0.288,0.381,0.19
30,B2_3,-0.418,0.256,-0.25,-0.152,-0.152,-0.272,0.155,0.115,0.241,-0.263,-0.23,-0.169,1.0,-0.077,-0.276,-0.23
30,y1,0.086,-0.116,0.194,-0.055,-0.197,0.303,-0.286,0.133,-0.318,0.435,0.278,-0.288,-0.077,1.0,-0.307,0.482
30,y2,-0.355,0.041,0.196,0.306,0.083,-0.063,0.157,0.182,-0.356,0.227,0.09,0.381,-0.276,-0.307,1.0,-0.095
30,y3,0.002,-0.022,0.459,0.21,-0.246,0.259,-0.57,0.004,-0.459,0.272,0.19,0.19,-0.23,0.482,-0.095,1.0
31,.,1.0,-0.468,-0.128,-0.393,0.103,-0.136,-0.242,-0.521,0.21,-0.395,0.06,-0.132,-0.419,0.088,-0.356,0.004
31,A1_1,-0.468,1.0,0.109,0.197,-0.433,0.335,0.15,0.385,0.137,0.201,-0.519,0.066,0.256,-0.117,0.04,-0.022
31,A1_2,-0.128,0.109,1.0,0.062,0.09,-0.074,0.079,0.213,0.062,0.387,0.48,0.587,-0.25,0.194,0.196,0.459
31,A1_3,-0.393,0.197,0.062,1.0,0.286,0.34,0.002,0.584,-0.573,0.538,0.138,0.116,-0.152,-0.054,0.307,0.21
31,B1_1,0.103,-0.433,0.09,0.286,1.0,-0.096,0.285,0.14,0.018,0.159,0.262,0.112,-0.152,-0.196,0.085,-0.246
31,B1_2,-0.136,0.335,-0.074,0.34,-0.096,1.0,-0.374,0.377,-0.288,0.219,-0.014,-0.091,-0.272,0.302,-0.062,0.258
31,B1_3,-0.242,0.15,0.079,0.002,0.285,-0.374,1.0,0.233,0.444,0.002,-0.173,0.08,0.156,-0.286,0.157,-0.571
31,A2_1,-0.521,0.385,0.213,0.584,0.14,0.377,0.233,1.0,-0.294,0.619,0.284,-0.129,0.115,0.133,0.182,0.004
31,A2_2,0.21,0.137,0.062,-0.573,0.018,-0.288,0.444,-0.294,1.0,-0.488,-0.188,0.172,0.241,-0.318,-0.357,-0.458
31,A2_3,-0.395,0.201,0.387,0.538,0.159,0.219,0.002,0.619,-0.488,1.0,0.295,-0.084,-0.262,0.435,0.227,0.273
31,B2_1,0.06,-0.519,0.48,0.138,0.262,-0.014,-0.173,0.284,-0.188,0.295,1.0,0.103,-0.23,0.278,0.092,0.19
31,B2_2,-0.132,0.066,0.587,0.116,0.112,-0.091,0.08,-0.129,0.172,-0.084,0.103,1.0,-0.168,-0.289,0.38,0.189
31,B2_3,-0.419,0.256,-0.25,-0.152,-0.152,-0.272,0.156,0.115,0.241,-0.262,-0.23,-0.168,1.0,-0.077,-0.276,-0.231
31,y1,0.088,-0.117,0.194,-0.054,-0.196,0.302,-0.286,0.133,-0.318,0.435,0.278,-0.289,-0.077,1.0,-0.307,0.482
31,y2,-0.356,0.04,0.196,0.307,0.085,-0.062,0.157,0.182,-0.357,0.227,0.092,0.38,-0.276,-0.307,1.0,-0.095
31,y3,0.004,-0.022,0.459,0.21,-0.246,0.258,-0.571,0.004,-0.458,0.273,0.19,0.189,-0.231,0.482,-0.095,1.0
32,.,1.0,-0.468,-0.127,-0.394,0.102,-0.135,-0.245,-0.52,0.21,-0.396,0.062,-0.132,-0.42,0.09,-0.357,0.007
32,A1_1,-0.468,1.0,0.11,0.198,-0.432,0.336,0.151,0.386,0.137,0.202,-0.519,0.065,0.256,-0.117,0.039,-0.023
32,A1_2,-0.127,0.11,1.0,0.062,0.089,-0.073,0.079,0.214,0.062,0.387,0.48,0.587,-0.25,0.195,0.196,0.459
32,A1_3,-0.394,0.198,0.062,1.0,0.286,0.341,0.002,0.585,-0.573,0.538,0.138,0.115,-0.151,-0.053,0.308,0.211
32,B1_1,0.102,-0.432,0.089,0.286,1.0,-0.096,0.286,0.139,0.017,0.159,0.262,0.114,-0.151,-0.196,0.086,-0.246
32,B1_2,-0.135,0.336,-0.073,0.341,-0.096,1.0,-0.374,0.377,-0.287,0.22,-0.015,-0.09,-0.273,0.301,-0.061,0.257
32,B1_3,-0.245,0.151,0.079,0.002,0.286,-0.374,1.0,0.232,0.444,0.003,-0.173,0.081,0.157,-0.287,0.157,-0.571
32,A2_1,-0.52,0.386,0.214,0.585,0.139,0.377,0.232,1.0,-0.293,0.62,0.284,-0.13,0.114,0.133,0.182,0.004
32,A2_2,0.21,0.137,0.062,-0.573,0.017,-0.287,0.444,-0.293,1.0,-0.488,-0.187,0.172,0.241,-0.317,-0.358,-0.458
32,A2_3,-0.396,0.202,0.387,0.538,0.159,0.22,0.003,0.62,-0.488,1.0,0.295,-0.084,-0.262,0.435,0.227,0.273
32,B2_1,0.062,-0.519,0.48,0.138,0.262,-0.015,-0.173,0.284,-0.187,0.295,1.0,0.104,-0.231,0.279,0.094,0.191
32,B2_2,-0.132,0.065,0.587,0.115,0.114,-0.09,0.081,-0.13,0.172,-0.084,0.104,1.0,-0.167,-0.29,0.379,0.188
32,B2_3,-0.42,0.256,-0.25,-0.151,-0.151,-0.273,0.157,0.114,0.241,-0.262,-0.231,-0.167,1.0,-0.078,-0.276,-0.232
32,y1,0.09,-0.117,0.195,-0.053,-0.196,0.301,-0.287,0.133,-0.317,0.435,0.279,-0.29,-0.078,1.0,-0.307,0.483
32,y2,-0.357,0.039,0.196,0.308,0.086,-0.061,0.157,0.182,-0.358,0.227,0.094,0.379,-0.276,-0.307,1.0,-0.096
32,y3,0.007,-0.023,0.459,0.211,-0.246,0.257,-0.571,0.004,-0.458,0.273,0.191,0.188,-0.232,0.483,-0.096,1.0
33,.,1.0,-0.469,-0.127,-0.395,0.1,-0.135,-0.248,-0.52,0.21,-0.396,0.062,-0.132,-0.42,0.093,-0.357,0.009
33,A1_1,-0.469,1.0,0.11,0.199,-0.432,0.336,0.151,0.387,0.138,0.203,-0.519,0.065,0.256,-0.118,0.038,-0.024
33,A1_2,-0.127,0.11,1.0,0.063,0.089,-0.072,0.079,0.215,0.062,0.387,0.48,0.586,-0.25,0.195,0.195,0.459
33,A1_3,-0.395,0.199,0.063,1.0,0.286,0.342,0.002,0.585,-0.573,0.539,0.137,0.115,-0.151,-0.052,0.308,0.211
33,B1_1,0.1,-0.432,0.089,0.286,1.0,-0.096,0.287,0.138,0.017,0.158,0.262,0.115,-0.151,-0.195,0.087,-0.246
33,B1_2,-0.135,0.336,-0.072,0.342,-0.096,1.0,-0.375,0.377,-0.287,0.221,-0.017,-0.089,-0.273,0.3,-0.06,0.256
33,B1_3,-0.248,0.151,0.079,0.002,0.287,-0.375,1.0,0.231,0.445,0.003,-0.173,0.082,0.159,-0.288,0.157,-0.572
33,A2_1,-0.52,0.387,0.215,0.585,0.138,0.377,0.231,1.0,-0.292,0.62,0.283,-0.13,0.114,0.133,0.183,0.004
33,A2_2,0.21,0.138,0.062,-0.573,0.017,-0.287,0.445,-0.292,1.0,-0.488,-0.188,0.171,0.242,-0.317,-0.358,-0.457
33,A2_3,-0.396,0.203,0.387,0.539,0.158,0.221,0.003,0.62,-0.488,1.0,0.295,-0.084,-0.262,0.435,0.227,0.273
33,B2_1,0.062,-0.519,0.48,0.137,0.262,-0.017,-0.173,0.283,-0.188,0.295,1.0,0.104,-0.231,0.28,0.095,0.191
33,B2_2,-0.132,0.065,0.586,0.115,0.115,-0.089,0.082,-0.13,0.171,-0.084,0.104,1.0,-0.166,-0.29,0.379,0.187
33,B2_3,-0.42,0.256,-0.25,-0.151,-0.151,-0.273,0.159,0.114,0.242,-0.262,-0.231,-0.166,1.0,-0.079,-0.276,-0.233
33,y1,0.093,-0.118,0.195,-0.052,-0.195,0.3,-0.288,0.133,-0.317,0.435,0.28,-0.29,-0.079,1.0,-0.308,0.483
33,y2,-0.357,0.038,0.195,0.308,0.087,-0.06,0.157,0.183,-0.358,0.227,0.095,0.379,-0.276,-0.308,1.0,-0.096
33,y3,0.009,-0.024,0.459,0.211,-0.246,0.256,-0.572,0.004,-0.457,0.273,0.191,0.187,-0.233,0.483,-0.096,1.0
34,.,1.0,-0.469,-0.126,-0.395,0.098,-0.134,-0.251,-0.519,0.21,-0.396,0.063,-0.133,-0.421,0.095,-0.358,0.012
34,A1_1,-0.469,1.0,0.111,0.2,-0.431,0.337,0.151,0.388,0.139,0.204,-0.519,0.064,0.256,-0.119,0.037,-0.025
34,A1_2,-0.126,0.111,1.0,0.063,0.089,-0.072,0.079,0.216,0.063,0.388,0.481,0.585,-0.249,0.195,0.195,0.459
34,A1_3,-0.395,0.2,0.063,1.0,0.285,0.343,0.002,0.586,-0.573,0.539,0.137,0.114,-0.151,-0.052,0.309,0.211
34,B1_1,0.098,-0.431,0.089,0.285,1.0,-0.096,0.288,0.138,0.017,0.158,0.262,0.116,-0.15,-0.195,0.088,-0.246
34,B1_2,-0.134,0.337,-0.072,0.343,-0.096,1.0,-0.375,0.377,-0.286,0.221,-0.017,-0.088,-0.274,0.299,-0.058,0.255
34,B1_3,-0.251,0.151,0.079,0.002,0.288,-0.375,1.0,0.23,0.445,0.003,-0.172,0.084,0.16,-0.289,0.158,-0.573
34,A2_1,-0.519,0.388,0.216,0.586,0.138,0.377,0.23,1.0,-0.291,0.621,0.283,-0.13,0.113,0.133,0.183,0.004
34,A2_2,0.21,0.139,0.063,-0.573,0.017,-0.286,0.445,-0.291,1.0,-0.488,-0.188,0.171,0.242,-0.316,-0.359,-0.457
34,A2_3,-0.396,0.204,0.388,0.539,0.158,0.221,0.003,0.621,-0.488,1.0,0.295,-0.085,-0.261,0.434,0.226,0.272
34,B2_1,0.063,-0.519,0.481,0.137,0.262,-0.017,-0.172,0.283,-0.188,0.295,1.0,0.105,-0.232,0.28,0.096,0.191
34,B2_2,-0.133,0.064,0.585,0.114,0.116,-0.088,0.084,-0.13,0.171,-0.085,0.105,1.0,-0.165,-0.291,0.378,0.186
34,B2_3,-0.421,0.256,-0.249,-0.151,-0.15,-0.274,0.16,0.113,0.242,-0.261,-0.232,-0.165,1.0,-0.08,-0.276,-0.234
34,y1,0.095,-0.119,0.195,-0.052,-0.195,0.299,-0.289,0.133,-0.316,0.434,0.28,-0.291,-0.08,1.0,-0.308,0.482
34,y2,-0.358,0.037,0.195,0.309,0.088,-0.058,0.158,0.183,-0.359,0.226,0.096,0.378,-0.276,-0.308,1.0,-0.097
34,y3,0.012,-0.025,0.459,0.211,-0.246,0.255,-0.573,0.004,-0.457,0.272,0.191,0.186,-0.234,0.482,-0.097,1.0
35,.,1.0,-0.469,-0.126,-0.396,0.097,-0.133,-0.254,-0.518,0.209,-0.396,0.064,-0.133,-0.422,0.097,-0.359,0.015
35,A1_1,-0.469,1.0,0.111,0.201,-0.431,0.338,0.152,0.389,0.139,0.205,-0.519,0.064,0.256,-0.12,0.036,-0.025
35,A1_2,-0.126,0.111,1.0,0.063,0.089,-0.071,0.079,0.216,0.063,0.388,0.481,0.584,-0.249,0.195,0.195,0.459
35,A1_3,-0.396,0.201,0.063,1.0,0.285,0.344,0.002,0.587,-0.572,0.539,0.137,0.113,-0.151,-0.051,0.309,0.211
35,B1_1,0.097,-0.431,0.089,0.285,1.0,-0.097,0.288,0.137,0.016,0.158,0.262,0.117,-0.149,-0.195,0.089,-0.246
35,B1_2,-0.133,0.338,-0.071,0.344,-0.097,1.0,-0.375,0.377,-0.285,0.222,-0.019,-0.088,-0.274,0.298,-0.058,0.253
35,B1_3,-0.254,0.152,0.079,0.002,0.288,-0.375,1.0,0.229,0.445,0.003,-0.172,0.085,0.161,-0.29,0.158,-0.574
35,A2_1,-0.518,0.389,0.216,0.587,0.137,0.377,0.229,1.0,-0.29,0.622,0.282,-0.131,0.112,0.133,0.183,0.003
35,A2_2,0.209,0.139,0.063,-0.572,0.016,-0.285,0.445,-0.29,1.0,-0.487,-0.188,0.171,0.243,-0.316,-0.36,-0.457
35,A2_3,-0.396,0.205,0.388,0.539,0.158,0.222,0.003,0.622,-0.487,1.0,0.295,-0.085,-0.261,0.434,0.226,0.272
35,B2_1,0.064,-0.519,0.481,0.137,0.262,-0.019,-0.172,0.282,-0.188,0.295,1.0,0.105,-0.232,0.28,0.098,0.191
35,B2_2,-0.133,0.064,0.584,0.113,0.117,-0.088,0.085,-0.131,0.171,-0.085,0.105,1.0,-0.164,-0.292,0.377,0.184
35,B2_3,-0.422,0.256,-0.249,-0.151,-0.149,-0.274,0.161,0.112,0.243,-0.261,-0.232,-0.164,1.0,-0.081,-0.276,-0.235
35,y1,0.097,-0.12,0.195,-0.051,-0.195,0.298,-0.29,0.133,-0.316,0.434,0.28,-0.292,-0.081,1.0,-0.308,0.482
35,y2,-0.359,0.036,0.195,0.309,0.089,-0.058,0.158,0.183,-0.36,0.226,0.098,0.377,-0.276,-0.308,1.0,-0.098
35,y3,0.015,-0.025,0.459,0.211,-0.246,0.253,-0.574,0.003,-0.457,0.272,0.191,0.184,-0.235,0.482,-0.098,1.0
36,.,1.0,-0.469,-0.125,-0.396,0.095,-0.132,-0.258,-0.517,0.209,-0.396,0.065,-0.134,-0.423,0.1,-0.359,0.018
36,A1_1,-0.469,1.0,0.112,0.202,-0.43,0.339,0.152,0.389,0.14,0.206,-0.519,0.064,0.256,-0.12,0.035,-0.026
36,A1_2,-0.125,0.112,1.0,0.063,0.089,-0.071,0.079,0.217,0.063,0.388,0.481,0.583,-0.249,0.195,0.194,0.459
36,A1_3,-0.396,0.202,0.063,1.0,0.284,0.345,0.002,0.588,-0.573,0.539,0.136,0.113,-0.151,-0.05,0.309,0.212
36,B1_1,0.095,-0.43,0.089,0.284,1.0,-0.097,0.289,0.137,0.016,0.158,0.262,0.118,-0.149,-0.195,0.09,-0.246
36,B1_2,-0.132,0.339,-0.071,0.345,-0.097,1.0,-0.375,0.377,-0.284,0.223,-0.02,-0.087,-0.274,0.297,-0.057,0.252
36,B1_3,-0.258,0.152,0.079,0.002,0.289,-0.375,1.0,0.229,0.445,0.003,-0.172,0.086,0.163,-0.291,0.158,-0.575
36,A2_1,-0.517,0.389,0.217,0.588,0.137,0.377,0.229,1.0,-0.289,0.622,0.281,-0.131,0.112,0.133,0.183,0.003
36,A2_2,0.209,0.14,0.063,-0.573,0.016,-0.284,0.445,-0.289,1.0,-0.487,-0.188,0.171,0.243,-0.315,-0.36,-0.456
36,A2_3,-0.396,0.206,0.388,0.539,0.158,0.223,0.003,0.622,-0.487,1.0,0.296,-0.085,-0.261,0.434,0.226,0.272
36,B2_1,0.065,-0.519,0.481,0.136,0.262,-0.02,-0.172,0.281,-0.188,0.296,1.0,0.106,-0.232,0.28,0.1,0.19
36,B2_2,-0.134,0.064,0.583,0.113,0.118,-0.087,0.086,-0.131,0.171,-0.085,0.106,1.0,-0.163,-0.293,0.376,0.183
36,B2_3,-0.423,0.256,-0.249,-0.151,-0.149,-0.274,0.163,0.112,0.243,-0.261,-0.232,-0.163,1.0,-0.081,-0.277,-0.235
36,y1,0.1,-0.12,0.195,-0.05,-0.195,0.297,-0.291,0.133,-0.315,0.434,0.28,-0.293,-0.081,1.0,-0.308,0.483
36,y2,-0.359,0.035,0.194,0.309,0.09,-0.057,0.158,0.183,-0.36,0.226,0.1,0.376,-0.277,-0.308,1.0,-0.099
36,y3,0.018,-0.026,0.459,0.212,-0.246,0.252,-0.575,0.003,-0.456,0.272,0.19,0.183,-0.235,0.483,-0.099,1.0
37,.,1.0,-0.47,-0.125,-0.397,0.093,-0.131,-0.261,-0.516,0.208,-0.396,0.065,-0.135,-0.424,0.102,-0.36,0.021
37,A1_1,-0.47,1.0,0.113,0.203,-0.43,0.339,0.152,0.39,0.141,0.206,-0.519,0.064,0.256,-0.121,0.034,-0.027
37,A1_2,-0.125,0.113,1.0,0.063,0.089,-0.07,0.08,0.218,0.063,0.389,0.481,0.582,-0.248,0.195,0.194,0.459
37,A1_3,-0.397,0.203,0.063,1.0,0.284,0.346,0.003,0.588,-0.572,0.539,0.136,0.112,-0.15,-0.05,0.31,0.212
37,B1_1,0.093,-0.43,0.089,0.284,1.0,-0.097,0.29,0.136,0.016,0.157,0.262,0.119,-0.148,-0.194,0.091,-0.246
37,B1_2,-0.131,0.339,-0.07,0.346,-0.097,1.0,-0.375,0.377,-0.284,0.224,-0.021,-0.086,-0.275,0.296,-0.056,0.251
37,B1_3,-0.261,0.152,0.08,0.003,0.29,-0.375,1.0,0.228,0.445,0.003,-0.172,0.088,0.164,-0.292,0.157,-0.575
37,A2_1,-0.516,0.39,0.218,0.588,0.136,0.377,0.228,1.0,-0.288,0.622,0.281,-0.132,0.112,0.133,0.184,0.003
37,A2_2,0.208,0.141,0.063,-0.572,0.016,-0.284,0.445,-0.288,1.0,-0.487,-0.188,0.17,0.243,-0.315,-0.361,-0.456
37,A2_3,-0.396,0.206,0.389,0.539,0.157,0.224,0.003,0.622,-0.487,1.0,0.296,-0.086,-0.26,0.433,0.226,0.272
37,B2_1,0.065,-0.519,0.481,0.136,0.262,-0.021,-0.172,0.281,-0.188,0.296,1.0,0.107,-0.232,0.28,0.102,0.19
37,B2_2,-0.135,0.064,0.582,0.112,0.119,-0.086,0.088,-0.132,0.17,-0.086,0.107,1.0,-0.161,-0.294,0.375,0.182
37,B2_3,-0.424,0.256,-0.248,-0.15,-0.148,-0.275,0.164,0.112,0.243,-0.26,-0.232,-0.161,1.0,-0.082,-0.277,-0.236
37,y1,0.102,-0.121,0.195,-0.05,-0.194,0.296,-0.292,0.133,-0.315,0.433,0.28,-0.294,-0.082,1.0,-0.308,0.483
37,y2,-0.36,0.034,0.194,0.31,0.091,-0.056,0.157,0.184,-0.361,0.226,0.102,0.375,-0.277,-0.308,1.0,-0.099
37,y3,0.021,-0.027,0.459,0.212,-0.246,0.251,-0.575,0.003,-0.456,0.272,0.19,0.182,-0.236,0.483,-0.099,1.0
38,.,1.0,-0.47,-0.124,-0.398,0.092,-0.13,-0.264,-0.515,0.208,-0.396,0.067,-0.135,-0.425,0.104,-0.36,0.024
38,A1_1,-0.47,1.0,0.114,0.204,-0.429,0.34,0.153,0.391,0.141,0.207,-0.519,0.063,0.256,-0.122,0.033,-0.028
38,A1_2,-0.124,0.114,1.0,0.063,0.088,-0.069,0.079,0.219,0.063,0.389,0.481,0.581,-0.248,0.195,0.194,0.459
38,A1_3,-0.398,0.204,0.063,1.0,0.283,0.347,0.003,0.589,-0.572,0.539,0.136,0.111,-0.15,-0.049,0.31,0.212
38,B1_1,0.092,-0.429,0.088,0.283,1.0,-0.097,0.29,0.135,0.015,0.157,0.262,0.12,-0.147,-0.194,0.092,-0.246
38,B1_2,-0.13,0.34,-0.069,0.347,-0.097,1.0,-0.375,0.377,-0.283,0.224,-0.022,-0.085,-0.275,0.294,-0.055,0.25
38,B1_3,-0.264,0.153,0.079,0.003,0.29,-0.375,1.0,0.228,0.445,0.003,-0.172,0.089,0.165,-0.292,0.157,-0.576
38,A2_1,-0.515,0.391,0.219,0.589,0.135,0.377,0.228,1.0,-0.287,0.623,0.28,-0.132,0.111,0.133,0.184,0.002
38,A2_2,0.208,0.141,0.063,-0.572,0.015,-0.283,0.445,-0.287,1.0,-0.487,-0.188,0.17,0.244,-0.314,-0.362,-0.455
38,A2_3,-0.396,0.207,0.389,0.539,0.157,0.224,0.003,0.623,-0.487,1.0,0.296,-0.086,-0.26,0.433,0.226,0.271
38,B2_1,0.067,-0.519,0.481,0.136,0.262,-0.022,-0.172,0.28,-0.188,0.296,1.0,0.108,-0.232,0.281,0.103,0.19
38,B2_2,-0.135,0.063,0.581,0.111,0.12,-0.085,0.089,-0.132,0.17,-0.086,0.108,1.0,-0.16,-0.295,0.374,0.181
38,B2_3,-0.425,0.256,-0.248,-0.15,-0.147,-0.275,0.165,0.111,0.244,-0.26,-0.232,-0.16,1.0,-0.083,-0.277,-0.237
38,y1,0.104,-0.122,0.195,-0.049,-0.194,0.294,-0.292,0.133,-0.314,0.433,0.281,-0.295,-0.083,1.0,-0.307,0.482
38,y2,-0.36,0.033,0.194,0.31,0.092,-0.055,0.157,0.184,-0.362,0.226,0.103,0.374,-0.277,-0.307,1.0,-0.099
38,y3,0.024,-0.028,0.459,0.212,-0.246,0.25,-0.576,0.002,-0.455,0.271,0.19,0.181,-0.237,0.482,-0.099,1.0
39,.,1.0,-0.47,-0.123,-0.398,0.09,-0.129,-0.268,-0.514,0.207,-0.396,0.067,-0.135,-0.426,0.106,-0.361,0.028
39,A1_1,-0.47,1.0,0.115,0.205,-0.429,0.341,0.153,0.391,0.142,0.208,-0.519,0.063,0.256,-0.123,0.033,-0.029
39,A1_2,-0.123,0.115,1.0,0.064,0.088,-0.068,0.08,0.22,0.063,0.39,0.481,0.58,-0.248,0.196,0.193,0.458
39,A1_3,-0.398,0.205,0.064,1.0,0.283,0.348,0.003,0.589,-0.572,0.54,0.136,0.111,-0.15,-0.049,0.311,0.213
39,B1_1,0.09,-0.429,0.088,0.283,1.0,-0.097,0.291,0.135,0.015,0.157,0.262,0.121,-0.146,-0.194,0.093,-0.245
39,B1_2,-0.129,0.341,-0.068,0.348,-0.097,1.0,-0.375,0.377,-0.282,0.225,-0.023,-0.085,-0.275,0.293,-0.053,0.248
39,B1_3,-0.268,0.153,0.08,0.003,0.291,-0.375,1.0,0.227,0.446,0.003,-0.172,0.09,0.167,-0.293,0.157,-0.577
39,A2_1,-0.514,0.391,0.22,0.589,0.135,0.377,0.227,1.0,-0.286,0.623,0.279,-0.133,0.111,0.133,0.185,0.002
39,A2_2,0.207,0.142,0.063,-0.572,0.015,-0.282,0.446,-0.286,1.0,-0.486,-0.188,0.17,0.244,-0.314,-0.363,-0.455
39,A2_3,-0.396,0.208,0.39,0.54,0.157,0.225,0.003,0.623,-0.486,1.0,0.296,-0.086,-0.259,0.433,0.226,0.271
39,B2_1,0.067,-0.519,0.481,0.136,0.262,-0.023,-0.172,0.279,-0.188,0.296,1.0,0.108,-0.232,0.281,0.104,0.19
39,B2_2,-0.135,0.063,0.58,0.111,0.121,-0.085,0.09,-0.133,0.17,-0.086,0.108,1.0,-0.159,-0.295,0.373,0.18
39,B2_3,-0.426,0.256,-0.248,-0.15,-0.146,-0.275,0.167,0.111,0.244,-0.259,-0.232,-0.159,1.0,-0.083,-0.278,-0.238
39,y1,0.106,-0.123,0.196,-0.049,-0.194,0.293,-0.293,0.133,-0.314,0.433,0.281,-0.295,-0.083,1.0,-0.307,0.482
39,y2,-0.361,0.033,0.193,0.311,0.093,-0.053,0.157,0.185,-0.363,0.226,0.104,0.373,-0.278,-0.307,1.0,-0.099
39,y3,0.028,-0.029,0.458,0.213,-0.245,0.248,-0.577,0.002,-0.455,0.271,0.19,0.18,-0.238,0.482,-0.099,1.0
40,.,1.0,-0.47,-0.123,-0.398,0.088,-0.127,-0.271,-0.513,0.207,-0.396,0.068,-0.136,-0.426,0.109,-0.361,0.031
40,A1_1,-0.47,1.0,0.116,0.206,-0.428,0.341,0.153,0.392,0.143,0.209,-0.518,0.063,0.256,-0.124,0.032,-0.029
40,A1_2,-0.123,0.116,1.0,0.064,0.088,-0.068,0.08,0.221,0.062,0.39,0.481,0.58,-0.247,0.196,0.193,0.459
40,A1_3,-0.398,0.206,0.064,1.0,0.282,0.349,0.003,0.59,-0.572,0.54,0.135,0.11,-0.149,-0.048,0.311,0.213
40,B1_1,0.088,-0.428,0.088,0.282,1.0,-0.097,0.292,0.135,0.015,0.157,0.262,0.122,-0.146,-0.193,0.094,-0.245
40,B1_2,-0.127,0.341,-0.068,0.349,-0.097,1.0,-0.375,0.377,-0.282,0.226,-0.024,-0.084,-0.275,0.292,-0.053,0.247
40,B1_3,-0.271,0.153,0.08,0.003,0.292,-0.375,1.0,0.227,0.446,0.004,-0.171,0.092,0.168,-0.294,0.157,-0.578
40,A2_1,-0.513,0.392,0.221,0.59,0.135,0.377,0.227,1.0,-0.285,0.623,0.279,-0.133,0.11,0.133,0.185,0.002
40,A2_2,0.207,0.143,0.062,-0.572,0.015,-0.282,0.446,-0.285,1.0,-0.486,-0.188,0.17,0.244,-0.313,-0.364,-0.454
40,A2_3,-0.396,0.209,0.39,0.54,0.157,0.226,0.004,0.623,-0.486,1.0,0.296,-0.087,-0.259,0.433,0.226,0.271
40,B2_1,0.068,-0.518,0.481,0.135,0.262,-0.024,-0.171,0.279,-0.188,0.296,1.0,0.109,-0.232,0.281,0.106,0.19
40,B2_2,-0.136,0.063,0.58,0.11,0.122,-0.084,0.092,-0.133,0.17,-0.087,0.109,1.0,-0.158,-0.296,0.372,0.179
40,B2_3,-0.426,0.256,-0.247,-0.149,-0.146,-0.275,0.168,0.11,0.244,-0.259,-0.232,-0.158,1.0,-0.084,-0.278,-0.239
40,y1,0.109,-0.124,0.196,-0.048,-0.193,0.292,-0.294,0.133,-0.313,0.433,0.281,-0.296,-0.084,1.0,-0.307,0.482
40,y2,-0.361,0.032,0.193,0.311,0.094,-0.053,0.157,0.185,-0.364,0.226,0.106,0.372,-0.278,-0.307,1.0,-0.099
40,y3,0.031,-0.029,0.459,0.213,-0.245,0.247,-0.578,0.002,-0.454,0.271,0.19,0.179,-0.239,0.482,-0.099,1.0
41,.,1.0,-0.47,-0.123,-0.399,0.086,-0.125,-0.275,-0.512,0.206,-0.395,0.069,-0.137,-0.428,0.111,-0.362,0.033
41,A1_1,-0.47,1.0,0.116,0.207,-0.428,0.342,0.153,0.393,0.143,0.21,-0.518,0.063,0.256,-0.124,0.03,-0.03
41,A1_2,-0.123,0.116,1.0,0.064,0.087,-0.067,0.08,0.222,0.062,0.39,0.481,0.579,-0.247,0.195,0.193,0.459
41,A1_3,-0.399,0.207,0.064,1.0,0.282,0.349,0.003,0.59,-0.572,0.54,0.135,0.11,-0.149,-0.047,0.312,0.214
41,B1_1,0.086,-0.428,0.087,0.282,1.0,-0.096,0.293,0.134,0.015,0.157,0.262,0.123,-0.145,-0.193,0.094,-0.245
41,B1_2,-0.125,0.342,-0.067,0.349,-0.096,1.0,-0.375,0.377,-0.281,0.227,-0.025,-0.083,-0.276,0.291,-0.051,0.246
41,B1_3,-0.275,0.153,0.08,0.003,0.293,-0.375,1.0,0.226,0.446,0.004,-0.171,0.093,0.169,-0.295,0.157,-0.578
41,A2_1,-0.512,0.393,0.222,0.59,0.134,0.377,0.226,1.0,-0.285,0.624,0.278,-0.134,0.11,0.133,0.185,0.001
41,A2_2,0.206,0.143,0.062,-0.572,0.015,-0.281,0.446,-0.285,1.0,-0.486,-0.188,0.17,0.245,-0.313,-0.365,-0.454
41,A2_3,-0.395,0.21,0.39,0.54,0.157,0.227,0.004,0.624,-0.486,1.0,0.296,-0.087,-0.258,0.433,0.225,0.271
41,B2_1,0.069,-0.518,0.481,0.135,0.262,-0.025,-0.171,0.278,-0.188,0.296,1.0,0.11,-0.232,0.281,0.107,0.19
41,B2_2,-0.137,0.063,0.579,0.11,0.123,-0.083,0.093,-0.134,0.17,-0.087,0.11,1.0,-0.157,-0.297,0.371,0.177
41,B2_3,-0.428,0.256,-0.247,-0.149,-0.145,-0.276,0.169,0.11,0.245,-0.258,-0.232,-0.157,1.0,-0.086,-0.279,-0.24
41,y1,0.111,-0.124,0.195,-0.047,-0.193,0.291,-0.295,0.133,-0.313,0.433,0.281,-0.297,-0.086,1.0,-0.307,0.482
41,y2,-0.362,0.03,0.193,0.312,0.094,-0.051,0.157,0.185,-0.365,0.225,0.107,0.371,-0.279,-0.307,1.0,-0.099
41,y3,0.033,-0.03,0.459,0.214,-0.245,0.246,-0.578,0.001,-0.454,0.271,0.19,0.177,-0.24,0.482,-0.099,1.0
42,.,1.0,-0.471,-0.123,-0.399,0.085,-0.125,-0.278,-0.512,0.206,-0.396,0.069,-0.137,-0.428,0.113,-0.361,0.036
42,A1_1,-0.471,1.0,0.117,0.208,-0.427,0.343,0.154,0.394,0.144,0.21,-0.518,0.062,0.256,-0.125,0.029,-0.031
42,A1_2,-0.123,0.117,1.0,0.064,0.087,-0.066,0.08,0.222,0.063,0.391,0.481,0.578,-0.246,0.195,0.193,0.458
42,A1_3,-0.399,0.208,0.064,1.0,0.282,0.35,0.003,0.591,-0.572,0.54,0.135,0.109,-0.149,-0.047,0.312,0.213
42,B1_1,0.085,-0.427,0.087,0.282,1.0,-0.096,0.293,0.133,0.014,0.157,0.262,0.124,-0.144,-0.192,0.095,-0.245
42,B1_2,-0.125,0.343,-0.066,0.35,-0.096,1.0,-0.375,0.377,-0.28,0.227,-0.026,-0.082,-0.276,0.29,-0.05,0.245
42,B1_3,-0.278,0.154,0.08,0.003,0.293,-0.375,1.0,0.226,0.446,0.004,-0.171,0.094,0.171,-0.296,0.156,-0.579
42,A2_1,-0.512,0.394,0.222,0.591,0.133,0.377,0.226,1.0,-0.284,0.624,0.278,-0.134,0.11,0.133,0.186,0.001
42,A2_2,0.206,0.144,0.063,-0.572,0.014,-0.28,0.446,-0.284,1.0,-0.485,-0.189,0.169,0.245,-0.313,-0.365,-0.454
42,A2_3,-0.396,0.21,0.391,0.54,0.157,0.227,0.004,0.624,-0.485,1.0,0.296,-0.087,-0.258,0.433,0.225,0.271
42,B2_1,0.069,-0.518,0.481,0.135,0.262,-0.026,-0.171,0.278,-0.189,0.296,1.0,0.11,-0.232,0.281,0.109,0.19
42,B2_2,-0.137,0.062,0.578,0.109,0.124,-0.082,0.094,-0.134,0.169,-0.087,0.11,1.0,-0.155,-0.298,0.37,0.176
42,B2_3,-0.428,0.256,-0.246,-0.149,-0.144,-0.276,0.171,0.11,0.245,-0.258,-0.232,-0.155,1.0,-0.086,-0.279,-0.241
42,y1,0.113,-0.125,0.195,-0.047,-0.192,0.29,-0.296,0.133,-0.313,0.433,0.281,-0.298,-0.086,1.0,-0.307,0.482
42,y2,-0.361,0.029,0.193,0.312,0.095,-0.05,0.156,0.186,-0.365,0.225,0.109,0.37,-0.279,-0.307,1.0,-0.099
42,y3,0.036,-0.031,0.458,0.213,-0.245,0.245,-0.579,0.001,-0.454,0.271,0.19,0.176,-0.241,0.482,-0.099,1.0
43,.,1.0,-0.47,-0.122,-0.399,0.082,-0.123,-0.282,-0.511,0.205,-0.396,0.07,-0.138,-0.429,0.115,-0.362,0.039
43,A1_1,-0.47,1.0,0.118,0.208,-0.427,0.343,0.154,0.394,0.145,0.211,-0.518,0.062,0.256,-0.127,0.028,-0.032
43,A1_2,-0.122,0.118,1.0,0.064,0.087,-0.066,0.08,0.223,0.063,0.391,0.481,0.577,-0.246,0.195,0.193,0.458
43,A1_3,-0.399,0.208,0.064,1.0,0.281,0.351,0.004,0.591,-0.572,0.54,0.134,0.108,-0.148,-0.047,0.313,0.213
43,B1_1,0.082,-0.427,0.087,0.281,1.0,-0.096,0.294,0.133,0.014,0.157,0.262,0.126,-0.143,-0.192,0.097,-0.245
43,B1_2,-0.123,0.343,-0.066,0.351,-0.096,1.0,-0.375,0.377,-0.28,0.228,-0.026,-0.082,-0.276,0.289,-0.049,0.243
43,B1_3,-0.282,0.154,0.08,0.004,0.294,-0.375,1.0,0.225,0.447,0.004,-0.17,0.095,0.172,-0.297,0.156,-0.58
43,A2_1,-0.511,0.394,0.223,0.591,0.133,0.377,0.225,1.0,-0.283,0.625,0.277,-0.134,0.109,0.132,0.186,0.001
43,A2_2,0.205,0.145,0.063,-0.572,0.014,-0.28,0.447,-0.283,1.0,-0.485,-0.189,0.169,0.245,-0.312,-0.366,-0.453
43,A2_3,-0.396,0.211,0.391,0.54,0.157,0.228,0.004,0.625,-0.485,1.0,0.296,-0.088,-0.258,0.432,0.225,0.27
43,B2_1,0.07,-0.518,0.481,0.134,0.262,-0.026,-0.17,0.277,-0.189,0.296,1.0,0.111,-0.233,0.282,0.11,0.19
43,B2_2,-0.138,0.062,0.577,0.108,0.126,-0.082,0.095,-0.134,0.169,-0.088,0.111,1.0,-0.154,-0.299,0.369,0.175
43,B2_3,-0.429,0.256,-0.246,-0.148,-0.143,-0.276,0.172,0.109,0.245,-0.258,-0.233,-0.154,1.0,-0.087,-0.28,-0.242
43,y1,0.115,-0.127,0.195,-0.047,-0.192,0.289,-0.297,0.132,-0.312,0.432,0.282,-0.299,-0.087,1.0,-0.307,0.482
43,y2,-0.362,0.028,0.193,0.313,0.097,-0.049,0.156,0.186,-0.366,0.225,0.11,0.369,-0.28,-0.307,1.0,-0.099
43,y3,0.039,-0.032,0.458,0.213,-0.245,0.243,-0.58,0.001,-0.453,0.27,0.19,0.175,-0.242,0.482,-0.099,1.0
44,.,1.0,-0.471,-0.122,-0.399,0.08,-0.122,-0.285,-0.51,0.204,-0.396,0.071,-0.138,-0.429,0.118,-0.362,0.042
44,A1_1,-0.471,1.0,0.118,0.209,-0.426,0.344,0.154,0.395,0.146,0.212,-0.518,0.062,0.256,-0.127,0.027,-0.033
44,A1_2,-0.122,0.118,1.0,0.065,0.087,-0.065,0.08,0.224,0.063,0.391,0.481,0.577,-0.246,0.194,0.192,0.458
44,A1_3,-0.399,0.209,0.065,1.0,0.281,0.352,0.004,0.592,-0.571,0.54,0.134,0.108,-0.148,-0.047,0.314,0.214
44,B1_1,0.08,-0.426,0.087,0.281,1.0,-0.097,0.295,0.132,0.014,0.156,0.262,0.127,-0.142,-0.192,0.097,-0.245
44,B1_2,-0.122,0.344,-0.065,0.352,-0.097,1.0,-0.375,0.377,-0.279,0.229,-0.027,-0.081,-0.276,0.288,-0.048,0.242
44,B1_3,-0.285,0.154,0.08,0.004,0.295,-0.375,1.0,0.225,0.447,0.004,-0.17,0.096,0.173,-0.298,0.155,-0.58
44,A2_1,-0.51,0.395,0.224,0.592,0.132,0.377,0.225,1.0,-0.282,0.625,0.277,-0.134,0.109,0.132,0.186,0.0
44,A2_2,0.204,0.146,0.063,-0.571,0.014,-0.279,0.447,-0.282,1.0,-0.485,-0.189,0.169,0.245,-0.312,-0.367,-0.453
44,A2_3,-0.396,0.212,0.391,0.54,0.156,0.229,0.004,0.625,-0.485,1.0,0.296,-0.088,-0.257,0.432,0.225,0.27
44,B2_1,0.071,-0.518,0.481,0.134,0.262,-0.027,-0.17,0.277,-0.189,0.296,1.0,0.111,-0.233,0.282,0.112,0.19
44,B2_2,-0.138,0.062,0.577,0.108,0.127,-0.081,0.096,-0.134,0.169,-0.088,0.111,1.0,-0.154,-0.3,0.368,0.174
44,B2_3,-0.429,0.256,-0.246,-0.148,-0.142,-0.276,0.173,0.109,0.245,-0.257,-0.233,-0.154,1.0,-0.088,-0.281,-0.243
44,y1,0.118,-0.127,0.194,-0.047,-0.192,0.288,-0.298,0.132,-0.312,0.432,0.282,-0.3,-0.088,1.0,-0.307,0.481
44,y2,-0.362,0.027,0.192,0.314,0.097,-0.048,0.155,0.186,-0.367,0.225,0.112,0.368,-0.281,-0.307,1.0,-0.099
44,y3,0.042,-0.033,0.458,0.214,-0.245,0.242,-0.58,0.0,-0.453,0.27,0.19,0.174,-0.243,0.481,-0.099,1.0
45,.,1.0,-0.47,-0.122,-0.4,0.078,-0.12,-0.289,-0.51,0.204,-0.397,0.071,-0.139,-0.429,0.119,-0.362,0.044
45,A1_1,-0.47,1.0,0.119,0.21,-0.426,0.344,0.155,0.396,0.147,0.212,-0.518,0.061,0.256,-0.128,0.026,-0.034
45,A1_2,-0.122,0.119,1.0,0.065,0.087,-0.065,0.081,0.225,0.063,0.391,0.481,0.576,-0.246,0.194,0.192,0.457
45,A1_3,-0.4,0.21,0.065,1.0,0.281,0.353,0.004,0.593,-0.571,0.54,0.134,0.107,-0.148,-0.046,0.314,0.214
45,B1_1,0.078,-0.426,0.087,0.281,1.0,-0.096,0.296,0.132,0.014,0.157,0.262,0.129,-0.141,-0.192,0.099,-0.245
45,B1_2,-0.12,0.344,-0.065,0.353,-0.096,1.0,-0.375,0.377,-0.278,0.229,-0.028,-0.08,-0.276,0.286,-0.047,0.24
45,B1_3,-0.289,0.155,0.081,0.004,0.296,-0.375,1.0,0.225,0.447,0.004,-0.169,0.097,0.175,-0.298,0.155,-0.581
45,A2_1,-0.51,0.396,0.225,0.593,0.132,0.377,0.225,1.0,-0.281,0.625,0.276,-0.134,0.109,0.132,0.186,-0.001
45,A2_2,0.204,0.147,0.063,-0.571,0.014,-0.278,0.447,-0.281,1.0,-0.484,-0.189,0.169,0.246,-0.311,-0.368,-0.452
45,A2_3,-0.397,0.212,0.391,0.54,0.157,0.229,0.004,0.625,-0.484,1.0,0.296,-0.088,-0.257,0.432,0.225,0.269
45,B2_1,0.071,-0.518,0.481,0.134,0.262,-0.028,-0.169,0.276,-0.189,0.296,1.0,0.112,-0.233,0.282,0.113,0.19
45,B2_2,-0.139,0.061,0.576,0.107,0.129,-0.08,0.097,-0.134,0.169,-0.088,0.112,1.0,-0.153,-0.301,0.367,0.173
45,B2_3,-0.429,0.256,-0.246,-0.148,-0.141,-0.276,0.175,0.109,0.246,-0.257,-0.233,-0.153,1.0,-0.088,-0.282,-0.243
45,y1,0.119,-0.128,0.194,-0.046,-0.192,0.286,-0.298,0.132,-0.311,0.432,0.282,-0.301,-0.088,1.0,-0.307,0.481
45,y2,-0.362,0.026,0.192,0.314,0.099,-0.047,0.155,0.186,-0.368,0.225,0.113,0.367,-0.282,-0.307,1.0,-0.099
45,y3,0.044,-0.034,0.457,0.214,-0.245,0.24,-0.581,-0.001,-0.452,0.269,0.19,0.173,-0.243,0.481,-0.099,1.0
46,.,1.0,-0.47,-0.122,-0.4,0.075,-0.12,-0.292,-0.509,0.204,-0.397,0.071,-0.139,-0.43,0.121,-0.362,0.047
46,A1_1,-0.47,1.0,0.12,0.211,-0.425,0.345,0.155,0.396,0.147,0.213,-0.518,0.061,0.256,-0.129,0.025,-0.035
46,A1_2,-0.122,0.12,1.0,0.065,0.087,-0.064,0.081,0.225,0.064,0.391,0.481,0.575,-0.246,0.194,0.191,0.457
46,A1_3,-0.4,0.211,0.065,1.0,0.281,0.354,0.004,0.593,-0.571,0.54,0.134,0.107,-0.147,-0.046,0.315,0.214
46,B1_1,0.075,-0.425,0.087,0.281,1.0,-0.097,0.297,0.131,0.013,0.157,0.262,0.13,-0.14,-0.192,0.1,-0.245
46,B1_2,-0.12,0.345,-0.064,0.354,-0.097,1.0,-0.375,0.378,-0.278,0.23,-0.029,-0.079,-0.276,0.285,-0.046,0.239
46,B1_3,-0.292,0.155,0.081,0.004,0.297,-0.375,1.0,0.224,0.447,0.005,-0.169,0.098,0.176,-0.299,0.155,-0.582
46,A2_1,-0.509,0.396,0.225,0.593,0.131,0.378,0.224,1.0,-0.28,0.626,0.276,-0.135,0.108,0.131,0.186,-0.001
46,A2_2,0.204,0.147,0.064,-0.571,0.013,-0.278,0.447,-0.28,1.0,-0.484,-0.189,0.169,0.246,-0.311,-0.368,-0.452
46,A2_3,-0.397,0.213,0.391,0.54,0.157,0.23,0.005,0.626,-0.484,1.0,0.296,-0.088,-0.257,0.431,0.224,0.269
46,B2_1,0.071,-0.518,0.481,0.134,0.262,-0.029,-0.169,0.276,-0.189,0.296,1.0,0.112,-0.232,0.283,0.114,0.19
46,B2_2,-0.139,0.061,0.575,0.107,0.13,-0.079,0.098,-0.135,0.169,-0.088,0.112,1.0,-0.152,-0.302,0.366,0.172
46,B2_3,-0.43,0.256,-0.246,-0.147,-0.14,-0.276,0.176,0.108,0.246,-0.257,-0.232,-0.152,1.0,-0.089,-0.282,-0.244
46,y1,0.121,-0.129,0.194,-0.046,-0.192,0.285,-0.299,0.131,-0.311,0.431,0.283,-0.302,-0.089,1.0,-0.307,0.481
46,y2,-0.362,0.025,0.191,0.315,0.1,-0.046,0.155,0.186,-0.368,0.224,0.114,0.366,-0.282,-0.307,1.0,-0.099
46,y3,0.047,-0.035,0.457,0.214,-0.245,0.239,-0.582,-0.001,-0.452,0.269,0.19,0.172,-0.244,0.481,-0.099,1.0
47,.,1.0,-0.469,-0.122,-0.401,0.072,-0.118,-0.295,-0.508,0.204,-0.397,0.071,-0.14,-0.43,0.123,-0.363,0.05
47,A1_1,-0.469,1.0,0.121,0.212,-0.424,0.346,0.156,0.397,0.148,0.213,-0.518,0.061,0.256,-0.13,0.024,-0.037
47,A1_2,-0.122,0.121,1.0,0.065,0.087,-0.064,0.081,0.226,0.064,0.392,0.48,0.574,-0.245,0.194,0.191,0.456
47,A1_3,-0.401,0.212,0.065,1.0,0.28,0.354,0.004,0.594,-0.571,0.54,0.133,0.107,-0.147,-0.045,0.316,0.214
47,B1_1,0.072,-0.424,0.087,0.28,1.0,-0.097,0.297,0.131,0.013,0.157,0.262,0.131,-0.139,-0.192,0.101,-0.245
47,B1_2,-0.118,0.346,-0.064,0.354,-0.097,1.0,-0.375,0.378,-0.277,0.23,-0.03,-0.078,-0.276,0.284,-0.045,0.238
47,B1_3,-0.295,0.156,0.081,0.004,0.297,-0.375,1.0,0.224,0.447,0.005,-0.169,0.099,0.177,-0.299,0.154,-0.582
47,A2_1,-0.508,0.397,0.226,0.594,0.131,0.378,0.224,1.0,-0.28,0.626,0.276,-0.135,0.108,0.131,0.187,-0.002
47,A2_2,0.204,0.148,0.064,-0.571,0.013,-0.277,0.447,-0.28,1.0,-0.483,-0.189,0.168,0.246,-0.311,-0.369,-0.452
47,A2_3,-0.397,0.213,0.392,0.54,0.157,0.23,0.005,0.626,-0.483,1.0,0.296,-0.089,-0.256,0.431,0.224,0.268
47,B2_1,0.071,-0.518,0.48,0.133,0.262,-0.03,-0.169,0.276,-0.189,0.296,1.0,0.113,-0.232,0.283,0.115,0.19
47,B2_2,-0.14,0.061,0.574,0.107,0.131,-0.078,0.099,-0.135,0.168,-0.089,0.113,1.0,-0.151,-0.303,0.365,0.17
47,B2_3,-0.43,0.256,-0.245,-0.147,-0.139,-0.276,0.177,0.108,0.246,-0.256,-0.232,-0.151,1.0,-0.09,-0.282,-0.245
47,y1,0.123,-0.13,0.194,-0.045,-0.192,0.284,-0.299,0.131,-0.311,0.431,0.283,-0.303,-0.09,1.0,-0.306,0.481
47,y2,-0.363,0.024,0.191,0.316,0.101,-0.045,0.154,0.187,-0.369,0.224,0.115,0.365,-0.282,-0.306,1.0,-0.099
47,y3,0.05,-0.037,0.456,0.214,-0.245,0.238,-0.582,-0.002,-0.452,0.268,0.19,0.17,-0.245,0.481,-0.099,1.0
48,.,1.0,-0.469,-0.121,-0.401,0.07,-0.117,-0.298,-0.507,0.203,-0.397,0.072,-0.141,-0.431,0.125,-0.363,0.053
48,A1_1,-0.469,1.0,0.121,0.212,-0.424,0.346,0.156,0.398,0.148,0.214,-0.518,0.061,0.256,-0.131,0.024,-0.038
48,A1_2,-0.121,0.121,1.0,0.065,0.087,-0.063,0.081,0.227,0.064,0.392,0.48,0.574,-0.245,0.193,0.19,0.456
48,A1_3,-0.401,0.212,0.065,1.0,0.28,0.355,0.005,0.594,-0.571,0.54,0.133,0.106,-0.147,-0.045,0.316,0.214
48,B1_1,0.07,-0.424,0.087,0.28,1.0,-0.096,0.298,0.131,0.013,0.157,0.262,0.132,-0.138,-0.192,0.102,-0.244
48,B1_2,-0.117,0.346,-0.063,0.355,-0.096,1.0,-0.374,0.377,-0.277,0.231,-0.03,-0.077,-0.276,0.283,-0.044,0.236
48,B1_3,-0.298,0.156,0.081,0.005,0.298,-0.374,1.0,0.224,0.448,0.005,-0.168,0.1,0.178,-0.3,0.153,-0.583
48,A2_1,-0.507,0.398,0.227,0.594,0.131,0.377,0.224,1.0,-0.279,0.626,0.275,-0.135,0.108,0.131,0.187,-0.003
48,A2_2,0.203,0.148,0.064,-0.571,0.013,-0.277,0.448,-0.279,1.0,-0.483,-0.189,0.168,0.246,-0.31,-0.37,-0.452
48,A2_3,-0.397,0.214,0.392,0.54,0.157,0.231,0.005,0.626,-0.483,1.0,0.296,-0.089,-0.256,0.431,0.224,0.268
48,B2_1,0.072,-0.518,0.48,0.133,0.262,-0.03,-0.168,0.275,-0.189,0.296,1.0,0.113,-0.232,0.283,0.116,0.19
48,B2_2,-0.141,0.061,0.574,0.106,0.132,-0.077,0.1,-0.135,0.168,-0.089,0.113,1.0,-0.149,-0.304,0.364,0.169
48,B2_3,-0.431,0.256,-0.245,-0.147,-0.138,-0.276,0.178,0.108,0.246,-0.256,-0.232,-0.149,1.0,-0.091,-0.283,-0.246
48,y1,0.125,-0.131,0.193,-0.045,-0.192,0.283,-0.3,0.131,-0.31,0.431,0.283,-0.304,-0.091,1.0,-0.306,0.481
48,y2,-0.363,0.024,0.19,0.316,0.102,-0.044,0.153,0.187,-0.37,0.224,0.116,0.364,-0.283,-0.306,1.0,-0.099
48,y3,0.053,-0.038,0.456,0.214,-0.244,0.236,-0.583,-0.003,-0.452,0.268,0.19,0.169,-0.246,0.481,-0.099,1.0
49,.,1.0,-0.468,-0.121,-0.402,0.067,-0.116,-0.301,-0.506,0.203,-0.397,0.072,-0.141,-0.431,0.127,-0.363,0.056
49,A1_1,-0.468,1.0,0.122,0.213,-0.423,0.347,0.156,0.398,0.149,0.215,-0.518,0.06,0.256,-0.132,0.023,-0.039
49,A1_2,-0.121,0.122,1.0,0.066,0.087,-0.063,0.082,0.227,0.064,0.392,0.48,0.573,-0.245,0.193,0.19,0.456
49,A1_3,-0.402,0.213,0.066,1.0,0.279,0.356,0.005,0.595,-0.57,0.541,0.133,0.106,-0.147,-0.044,0.317,0.215
49,B1_1,0.067,-0.423,0.087,0.279,1.0,-0.097,0.299,0.13,0.013,0.157,0.262,0.134,-0.138,-0.192,0.103,-0.244
49,B1_2,-0.116,0.347,-0.063,0.356,-0.097,1.0,-0.374,0.378,-0.276,0.231,-0.031,-0.077,-0.276,0.282,-0.043,0.235
49,B1_3,-0.301,0.156,0.082,0.005,0.299,-0.374,1.0,0.224,0.448,0.006,-0.168,0.101,0.179,-0.3,0.153,-0.583
49,A2_1,-0.506,0.398,0.227,0.595,0.13,0.378,0.224,1.0,-0.278,0.627,0.275,-0.135,0.108,0.13,0.187,-0.003
49,A2_2,0.203,0.149,0.064,-0.57,0.013,-0.276,0.448,-0.278,1.0,-0.483,-0.19,0.168,0.247,-0.31,-0.37,-0.451
49,A2_3,-0.397,0.215,0.392,0.541,0.157,0.231,0.006,0.627,-0.483,1.0,0.296,-0.089,-0.256,0.43,0.224,0.267
49,B2_1,0.072,-0.518,0.48,0.133,0.262,-0.031,-0.168,0.275,-0.19,0.296,1.0,0.114,-0.232,0.283,0.117,0.19
49,B2_2,-0.141,0.06,0.573,0.106,0.134,-0.077,0.101,-0.135,0.168,-0.089,0.114,1.0,-0.149,-0.305,0.363,0.168
49,B2_3,-0.431,0.256,-0.245,-0.147,-0.138,-0.276,0.179,0.108,0.247,-0.256,-0.232,-0.149,1.0,-0.092,-0.284,-0.246
49,y1,0.127,-0.132,0.193,-0.044,-0.192,0.282,-0.3,0.13,-0.31,0.43,0.283,-0.305,-0.092,1.0,-0.306,0.48
49,y2,-0.363,0.023,0.19,0.317,0.103,-0.043,0.153,0.187,-0.37,0.224,0.117,0.363,-0.284,-0.306,1.0,-0.099
49,y3,0.056,-0.039,0.456,0.215,-0.244,0.235,-0.583,-0.003,-0.451,0.267,0.19,0.168,-0.246,0.48,-0.099,1.0
50,.,1.0,-0.467,-0.121,-0.402,0.065,-0.114,-0.305,-0.505,0.203,-0.397,0.071,-0.142,-0.431,0.129,-0.364,0.058
50,A1_1,-0.467,1.0,0.122,0.214,-0.423,0.348,0.156,0.399,0.15,0.215,-0.518,0.06,0.255,-0.133,0.022,-0.04
50,A1_2,-0.121,0.122,1.0,0.066,0.087,-0.062,0.082,0.228,0.064,0.392,0.48,0.572,-0.245,0.193,0.19,0.455
50,A1_3,-0.402,0.214,0.066,1.0,0.279,0.357,0.005,0.596,-0.57,0.541,0.133,0.106,-0.146,-0.044,0.317,0.215
50,B1_1,0.065,-0.423,0.087,0.279,1.0,-0.097,0.3,0.13,0.013,0.156,0.262,0.135,-0.137,-0.192,0.103,-0.244
50,B1_2,-0.114,0.348,-0.062,0.357,-0.097,1.0,-0.374,0.378,-0.276,0.232,-0.032,-0.076,-0.276,0.28,-0.042,0.233
50,B1_3,-0.305,0.156,0.082,0.005,0.3,-0.374,1.0,0.224,0.448,0.006,-0.167,0.102,0.181,-0.301,0.152,-0.584
50,A2_1,-0.505,0.399,0.228,0.596,0.13,0.378,0.224,1.0,-0.277,0.627,0.274,-0.135,0.107,0.129,0.187,-0.004
50,A2_2,0.203,0.15,0.064,-0.57,0.013,-0.276,0.448,-0.277,1.0,-0.482,-0.19,0.168,0.247,-0.309,-0.371,-0.451
50,A2_3,-0.397,0.215,0.392,0.541,0.156,0.232,0.006,0.627,-0.482,1.0,0.296,-0.09,-0.256,0.43,0.224,0.267
50,B2_1,0.071,-0.518,0.48,0.133,0.262,-0.032,-0.167,0.274,-0.19,0.296,1.0,0.114,-0.232,0.283,0.118,0.19
50,B2_2,-0.142,0.06,0.572,0.106,0.135,-0.076,0.102,-0.135,0.168,-0.09,0.114,1.0,-0.148,-0.306,0.361,0.167
50,B2_3,-0.431,0.255,-0.245,-0.146,-0.137,-0.276,0.181,0.107,0.247,-0.256,-0.232,-0.148,1.0,-0.092,-0.284,-0.248
50,y1,0.129,-0.133,0.193,-0.044,-0.192,0.28,-0.301,0.129,-0.309,0.43,0.283,-0.306,-0.092,1.0,-0.306,0.48
50,y2,-0.364,0.022,0.19,0.317,0.103,-0.042,0.152,0.187,-0.371,0.224,0.118,0.361,-0.284,-0.306,1.0,-0.099
50,y3,0.058,-0.04,0.455,0.215,-0.244,0.233,-0.584,-0.004,-0.451,0.267,0.19,0.167,-0.248,0.48,-0.099,1.0
51,.,1.0,-0.467,-0.121,-0.402,0.062,-0.113,-0.308,-0.504,0.202,-0.397,0.072,-0.142,-0.432,0.132,-0.364,0.061
51,A1_1,-0.467,1.0,0.123,0.215,-0.423,0.348,0.157,0.399,0.15,0.216,-0.518,0.06,0.255,-0.135,0.021,-0.041
51,A1_2,-0.121,0.123,1.0,0.066,0.087,-0.062,0.082,0.229,0.064,0.393,0.48,0.572,-0.245,0.192,0.189,0.455
51,A1_3,-0.402,0.215,0.066,1.0,0.279,0.357,0.005,0.596,-0.57,0.541,0.132,0.105,-0.146,-0.044,0.318,0.215
51,B1_1,0.062,-0.423,0.087,0.279,1.0,-0.097,0.301,0.13,0.013,0.156,0.262,0.136,-0.136,-0.191,0.104,-0.244
51,B1_2,-0.113,0.348,-0.062,0.357,-0.097,1.0,-0.374,0.377,-0.275,0.233,-0.033,-0.075,-0.276,0.279,-0.042,0.232
51,B1_3,-0.308,0.157,0.082,0.005,0.301,-0.374,1.0,0.224,0.448,0.006,-0.167,0.103,0.182,-0.301,0.151,-0.584
51,A2_1,-0.504,0.399,0.229,0.596,0.13,0.377,0.224,1.0,-0.276,0.627,0.274,-0.136,0.107,0.128,0.187,-0.005
51,A2_2,0.202,0.15,0.064,-0.57,0.013,-0.275,0.448,-0.276,1.0,-0.482,-0.19,0.168,0.247,-0.309,-0.372,-0.451
51,A2_3,-0.397,0.216,0.393,0.541,0.156,0.233,0.006,0.627,-0.482,1.0,0.296,-0.09,-0.255,0.429,0.223,0.266
51,B2_1,0.072,-0.518,0.48,0.132,0.262,-0.033,-0.167,0.274,-0.19,0.296,1.0,0.115,-0.231,0.283,0.119,0.189
51,B2_2,-0.142,0.06,0.572,0.105,0.136,-0.075,0.103,-0.136,0.168,-0.09,0.115,1.0,-0.146,-0.307,0.36,0.166
51,B2_3,-0.432,0.255,-0.245,-0.146,-0.136,-0.276,0.182,0.107,0.247,-0.255,-0.231,-0.146,1.0,-0.093,-0.285,-0.248
51,y1,0.132,-0.135,0.192,-0.044,-0.191,0.279,-0.301,0.128,-0.309,0.429,0.283,-0.307,-0.093,1.0,-0.306,0.48
51,y2,-0.364,0.021,0.189,0.318,0.104,-0.042,0.151,0.187,-0.372,0.223,0.119,0.36,-0.285,-0.306,1.0,-0.099
51,y3,0.061,-0.041,0.455,0.215,-0.244,0.232,-0.584,-0.005,-0.451,0.266,0.189,0.166,-0.248,0.48,-0.099,1.0
52,.,1.0,-0.467,-0.121,-0.403,0.06,-0.112,-0.311,-0.504,0.202,-0.397,0.071,-0.142,-0.433,0.133,-0.364,0.064
52,A1_1,-0.467,1.0,0.124,0.216,-0.422,0.349,0.157,0.4,0.151,0.217,-0.518,0.06,0.255,-0.136,0.02,-0.042
52,A1_2,-0.121,0.124,1.0,0.067,0.087,-0.061,0.082,0.229,0.064,0.393,0.48,0.571,-0.244,0.192,0.189,0.455
52,A1_3,-0.403,0.216,0.067,1.0,0.278,0.358,0.006,0.597,-0.57,0.541,0.132,0.105,-0.146,-0.044,0.319,0.215
52,B1_1,0.06,-0.422,0.087,0.278,1.0,-0.097,0.301,0.129,0.012,0.156,0.262,0.137,-0.135,-0.191,0.105,-0.244
52,B1_2,-0.112,0.349,-0.061,0.358,-0.097,1.0,-0.374,0.378,-0.275,0.234,-0.034,-0.075,-0.276,0.277,-0.041,0.231
52,B1_3,-0.311,0.157,0.082,0.006,0.301,-0.374,1.0,0.224,0.449,0.006,-0.166,0.104,0.183,-0.302,0.151,-0.585
52,A2_1,-0.504,0.4,0.229,0.597,0.129,0.378,0.224,1.0,-0.276,0.628,0.274,-0.136,0.107,0.128,0.188,-0.005
52,A2_2,0.202,0.151,0.064,-0.57,0.012,-0.275,0.449,-0.276,1.0,-0.481,-0.19,0.168,0.247,-0.308,-0.372,-0.451
52,A2_3,-0.397,0.217,0.393,0.541,0.156,0.234,0.006,0.628,-0.481,1.0,0.296,-0.09,-0.255,0.429,0.223,0.266
52,B2_1,0.071,-0.518,0.48,0.132,0.262,-0.034,-0.166,0.274,-0.19,0.296,1.0,0.115,-0.231,0.283,0.12,0.189
52,B2_2,-0.142,0.06,0.571,0.105,0.137,-0.075,0.104,-0.136,0.168,-0.09,0.115,1.0,-0.145,-0.308,0.359,0.165
52,B2_3,-0.433,0.255,-0.244,-0.146,-0.135,-0.276,0.183,0.107,0.247,-0.255,-0.231,-0.145,1.0,-0.094,-0.285,-0.249
52,y1,0.133,-0.136,0.192,-0.044,-0.191,0.277,-0.302,0.128,-0.308,0.429,0.283,-0.308,-0.094,1.0,-0.306,0.479
52,y2,-0.364,0.02,0.189,0.319,0.105,-0.041,0.151,0.188,-0.372,0.223,0.12,0.359,-0.285,-0.306,1.0,-0.099
52,y3,0.064,-0.042,0.455,0.215,-0.244,0.231,-0.585,-0.005,-0.451,0.266,0.189,0.165,-0.249,0.479,-0.099,1.0
53,.,1.0,-0.466,-0.12,-0.404,0.057,-0.111,-0.315,-0.504,0.202,-0.398,0.072,-0.142,-0.433,0.135,-0.364,0.067
53,A1_1,-0.466,1.0,0.124,0.216,-0.421,0.349,0.157,0.401,0.151,0.217,-0.518,0.059,0.255,-0.137,0.019,-0.044
53,A1_2,-0.12,0.124,1.0,0.067,0.086,-0.06,0.083,0.23,0.064,0.394,0.48,0.571,-0.244,0.191,0.189,0.454
53,A1_3,-0.404,0.216,0.067,1.0,0.278,0.359,0.005,0.597,-0.569,0.541,0.132,0.105,-0.146,-0.044,0.319,0.215
53,B1_1,0.057,-0.421,0.086,0.278,1.0,-0.097,0.302,0.129,0.012,0.156,0.263,0.138,-0.134,-0.191,0.104,-0.244
53,B1_2,-0.111,0.349,-0.06,0.359,-0.097,1.0,-0.373,0.378,-0.274,0.234,-0.035,-0.074,-0.276,0.276,-0.04,0.229
53,B1_3,-0.315,0.157,0.083,0.005,0.302,-0.373,1.0,0.223,0.449,0.006,-0.166,0.105,0.185,-0.303,0.15,-0.586
53,A2_1,-0.504,0.401,0.23,0.597,0.129,0.378,0.223,1.0,-0.275,0.628,0.273,-0.136,0.107,0.127,0.188,-0.006
53,A2_2,0.202,0.151,0.064,-0.569,0.012,-0.274,0.449,-0.275,1.0,-0.481,-0.19,0.167,0.247,-0.308,-0.373,-0.45
53,A2_3,-0.398,0.217,0.394,0.541,0.156,0.234,0.006,0.628,-0.481,1.0,0.296,-0.09,-0.255,0.428,0.223,0.266
53,B2_1,0.072,-0.518,0.48,0.132,0.263,-0.035,-0.166,0.273,-0.19,0.296,1.0,0.116,-0.231,0.283,0.12,0.189
53,B2_2,-0.142,0.059,0.571,0.105,0.138,-0.074,0.105,-0.136,0.167,-0.09,0.116,1.0,-0.145,-0.309,0.358,0.163
53,B2_3,-0.433,0.255,-0.244,-0.146,-0.134,-0.276,0.185,0.107,0.247,-0.255,-0.231,-0.145,1.0,-0.095,-0.286,-0.25
53,y1,0.135,-0.137,0.191,-0.044,-0.191,0.276,-0.303,0.127,-0.308,0.428,0.283,-0.309,-0.095,1.0,-0.306,0.48
53,y2,-0.364,0.019,0.189,0.319,0.104,-0.04,0.15,0.188,-0.373,0.223,0.12,0.358,-0.286,-0.306,1.0,-0.099
53,y3,0.067,-0.044,0.454,0.215,-0.244,0.229,-0.586,-0.006,-0.45,0.266,0.189,0.163,-0.25,0.48,-0.099,1.0
54,.,1.0,-0.467,-0.12,-0.405,0.056,-0.111,-0.318,-0.504,0.201,-0.398,0.072,-0.142,-0.433,0.137,-0.364,0.069
54,A1_1,-0.467,1.0,0.125,0.217,-0.421,0.35,0.158,0.401,0.152,0.218,-0.518,0.059,0.255,-0.138,0.018,-0.045
54,A1_2,-0.12,0.125,1.0,0.067,0.086,-0.06,0.083,0.231,0.064,0.394,0.48,0.57,-0.244,0.191,0.188,0.454
54,A1_3,-0.405,0.217,0.067,1.0,0.277,0.36,0.006,0.598,-0.569,0.542,0.132,0.104,-0.145,-0.043,0.32,0.215
54,B1_1,0.056,-0.421,0.086,0.277,1.0,-0.097,0.303,0.129,0.012,0.156,0.263,0.139,-0.134,-0.191,0.105,-0.244
54,B1_2,-0.111,0.35,-0.06,0.36,-0.097,1.0,-0.373,0.378,-0.274,0.235,-0.036,-0.073,-0.276,0.275,-0.039,0.228
54,B1_3,-0.318,0.158,0.083,0.006,0.303,-0.373,1.0,0.223,0.449,0.007,-0.165,0.106,0.186,-0.304,0.15,-0.586
54,A2_1,-0.504,0.401,0.231,0.598,0.129,0.378,0.223,1.0,-0.274,0.629,0.273,-0.136,0.107,0.127,0.188,-0.006
54,A2_2,0.201,0.152,0.064,-0.569,0.012,-0.274,0.449,-0.274,1.0,-0.481,-0.19,0.167,0.248,-0.308,-0.373,-0.45
54,A2_3,-0.398,0.218,0.394,0.542,0.156,0.235,0.007,0.629,-0.481,1.0,0.296,-0.09,-0.254,0.427,0.223,0.265
54,B2_1,0.072,-0.518,0.48,0.132,0.263,-0.036,-0.165,0.273,-0.19,0.296,1.0,0.116,-0.231,0.283,0.121,0.189
54,B2_2,-0.142,0.059,0.57,0.104,0.139,-0.073,0.106,-0.136,0.167,-0.09,0.116,1.0,-0.144,-0.31,0.357,0.162
54,B2_3,-0.433,0.255,-0.244,-0.145,-0.134,-0.276,0.186,0.107,0.248,-0.254,-0.231,-0.144,1.0,-0.095,-0.286,-0.251
54,y1,0.137,-0.138,0.191,-0.043,-0.191,0.275,-0.304,0.127,-0.308,0.427,0.283,-0.31,-0.095,1.0,-0.306,0.48
54,y2,-0.364,0.018,0.188,0.32,0.105,-0.039,0.15,0.188,-0.373,0.223,0.121,0.357,-0.286,-0.306,1.0,-0.099
54,y3,0.069,-0.045,0.454,0.215,-0.244,0.228,-0.586,-0.006,-0.45,0.265,0.189,0.162,-0.251,0.48,-0.099,1.0
55,.,1.0,-0.467,-0.12,-0.405,0.054,-0.11,-0.321,-0.503,0.201,-0.399,0.073,-0.143,-0.433,0.138,-0.364,0.071
55,A1_1,-0.467,1.0,0.126,0.218,-0.42,0.35,0.158,0.401,0.153,0.219,-0.518,0.059,0.255,-0.139,0.017,-0.046
55,A1_2,-0.12,0.126,1.0,0.068,0.086,-0.059,0.083,0.232,0.064,0.394,0.48,0.569,-0.243,0.191,0.188,0.453
55,A1_3,-0.405,0.218,0.068,1.0,0.277,0.36,0.006,0.598,-0.569,0.542,0.131,0.104,-0.145,-0.044,0.321,0.215
55,B1_1,0.054,-0.42,0.086,0.277,1.0,-0.096,0.304,0.129,0.012,0.156,0.263,0.14,-0.132,-0.191,0.106,-0.244
55,B1_2,-0.11,0.35,-0.059,0.36,-0.096,1.0,-0.373,0.378,-0.273,0.236,-0.036,-0.073,-0.277,0.274,-0.038,0.227
55,B1_3,-0.321,0.158,0.083,0.006,0.304,-0.373,1.0,0.223,0.449,0.007,-0.164,0.107,0.187,-0.304,0.149,-0.587
55,A2_1,-0.503,0.401,0.232,0.598,0.129,0.378,0.223,1.0,-0.274,0.629,0.273,-0.136,0.106,0.126,0.189,-0.007
55,A2_2,0.201,0.153,0.064,-0.569,0.012,-0.273,0.449,-0.274,1.0,-0.481,-0.19,0.167,0.248,-0.307,-0.374,-0.45
55,A2_3,-0.399,0.219,0.394,0.542,0.156,0.236,0.007,0.629,-0.481,1.0,0.296,-0.09,-0.254,0.427,0.223,0.265
55,B2_1,0.073,-0.518,0.48,0.131,0.263,-0.036,-0.164,0.273,-0.19,0.296,1.0,0.117,-0.231,0.283,0.123,0.189
55,B2_2,-0.143,0.059,0.569,0.104,0.14,-0.073,0.107,-0.136,0.167,-0.09,0.117,1.0,-0.143,-0.311,0.356,0.161
55,B2_3,-0.433,0.255,-0.243,-0.145,-0.132,-0.277,0.187,0.106,0.248,-0.254,-0.231,-0.143,1.0,-0.096,-0.287,-0.252
55,y1,0.138,-0.139,0.191,-0.044,-0.191,0.274,-0.304,0.126,-0.307,0.427,0.283,-0.311,-0.096,1.0,-0.305,0.48
55,y2,-0.364,0.017,0.188,0.321,0.106,-0.038,0.149,0.189,-0.374,0.223,0.123,0.356,-0.287,-0.305,1.0,-0.098
55,y3,0.071,-0.046,0.453,0.215,-0.244,0.227,-0.587,-0.007,-0.45,0.265,0.189,0.161,-0.252,0.48,-0.098,1.0
56,.,1.0,-0.467,-0.12,-0.405,0.052,-0.109,-0.324,-0.503,0.2,-0.399,0.073,-0.143,-0.433,0.14,-0.364,0.073
56,A1_1,-0.467,1.0,0.126,0.219,-0.419,0.351,0.158,0.402,0.154,0.219,-0.518,0.059,0.255,-0.14,0.017,-0.047
56,A1_2,-0.12,0.126,1.0,0.068,0.086,-0.059,0.083,0.232,0.064,0.395,0.48,0.569,-0.243,0.19,0.187,0.453
56,A1_3,-0.405,0.219,0.068,1.0,0.276,0.361,0.006,0.599,-0.569,0.542,0.131,0.103,-0.145,-0.043,0.321,0.215
56,B1_1,0.052,-0.419,0.086,0.276,1.0,-0.096,0.305,0.128,0.012,0.156,0.263,0.141,-0.131,-0.191,0.106,-0.245
56,B1_2,-0.109,0.351,-0.059,0.361,-0.096,1.0,-0.373,0.378,-0.273,0.237,-0.037,-0.072,-0.276,0.272,-0.037,0.225
56,B1_3,-0.324,0.158,0.083,0.006,0.305,-0.373,1.0,0.223,0.45,0.007,-0.164,0.108,0.188,-0.305,0.148,-0.587
56,A2_1,-0.503,0.402,0.232,0.599,0.128,0.378,0.223,1.0,-0.273,0.63,0.273,-0.136,0.106,0.126,0.189,-0.007
56,A2_2,0.2,0.154,0.064,-0.569,0.012,-0.273,0.45,-0.273,1.0,-0.48,-0.19,0.167,0.248,-0.307,-0.374,-0.45
56,A2_3,-0.399,0.219,0.395,0.542,0.156,0.237,0.007,0.63,-0.48,1.0,0.296,-0.09,-0.253,0.427,0.223,0.265
56,B2_1,0.073,-0.518,0.48,0.131,0.263,-0.037,-0.164,0.273,-0.19,0.296,1.0,0.117,-0.23,0.283,0.123,0.189
56,B2_2,-0.143,0.059,0.569,0.103,0.141,-0.072,0.108,-0.136,0.167,-0.09,0.117,1.0,-0.142,-0.312,0.354,0.159
56,B2_3,-0.433,0.255,-0.243,-0.145,-0.131,-0.276,0.188,0.106,0.248,-0.253,-0.23,-0.142,1.0,-0.096,-0.288,-0.252
56,y1,0.14,-0.14,0.19,-0.043,-0.191,0.272,-0.305,0.126,-0.307,0.427,0.283,-0.312,-0.096,1.0,-0.305,0.48
56,y2,-0.364,0.017,0.187,0.321,0.106,-0.037,0.148,0.189,-0.374,0.223,0.123,0.354,-0.288,-0.305,1.0,-0.098
56,y3,0.073,-0.047,0.453,0.215,-0.245,0.225,-0.587,-0.007,-0.45,0.265,0.189,0.159,-0.252,0.48,-0.098,1.0
57,.,1.0,-0.467,-0.121,-0.406,0.049,-0.108,-0.327,-0.502,0.2,-0.399,0.073,-0.144,-0.434,0.142,-0.365,0.076
57,A1_1,-0.467,1.0,0.127,0.219,-0.419,0.351,0.159,0.402,0.154,0.22,-0.518,0.058,0.255,-0.141,0.016,-0.048
57,A1_2,-0.121,0.127,1.0,0.068,0.085,-0.058,0.083,0.233,0.064,0.395,0.48,0.568,-0.243,0.19,0.187,0.452
57,A1_3,-0.406,0.219,0.068,1.0,0.276,0.361,0.006,0.599,-0.568,0.542,0.131,0.103,-0.145,-0.043,0.322,0.215
57,B1_1,0.049,-0.419,0.085,0.276,1.0,-0.096,0.305,0.128,0.012,0.156,0.263,0.142,-0.13,-0.191,0.107,-0.245
57,B1_2,-0.108,0.351,-0.058,0.361,-0.096,1.0,-0.372,0.379,-0.272,0.237,-0.038,-0.072,-0.276,0.271,-0.037,0.224
57,B1_3,-0.327,0.159,0.083,0.006,0.305,-0.372,1.0,0.223,0.45,0.007,-0.163,0.109,0.19,-0.305,0.147,-0.588
57,A2_1,-0.502,0.402,0.233,0.599,0.128,0.379,0.223,1.0,-0.272,0.63,0.272,-0.136,0.106,0.125,0.189,-0.008
57,A2_2,0.2,0.154,0.064,-0.568,0.012,-0.272,0.45,-0.272,1.0,-0.48,-0.19,0.167,0.248,-0.307,-0.375,-0.45
57,A2_3,-0.399,0.22,0.395,0.542,0.156,0.237,0.007,0.63,-0.48,1.0,0.296,-0.09,-0.253,0.426,0.223,0.264
57,B2_1,0.073,-0.518,0.48,0.131,0.263,-0.038,-0.163,0.272,-0.19,0.296,1.0,0.118,-0.23,0.283,0.125,0.188
57,B2_2,-0.144,0.058,0.568,0.103,0.142,-0.072,0.109,-0.136,0.167,-0.09,0.118,1.0,-0.14,-0.313,0.353,0.158
57,B2_3,-0.434,0.255,-0.243,-0.145,-0.13,-0.276,0.19,0.106,0.248,-0.253,-0.23,-0.14,1.0,-0.097,-0.288,-0.253
57,y1,0.142,-0.141,0.19,-0.043,-0.191,0.271,-0.305,0.125,-0.307,0.426,0.283,-0.313,-0.097,1.0,-0.305,0.48
57,y2,-0.365,0.016,0.187,0.322,0.107,-0.037,0.147,0.189,-0.375,0.223,0.125,0.353,-0.288,-0.305,1.0,-0.097
57,y3,0.076,-0.048,0.452,0.215,-0.245,0.224,-0.588,-0.008,-0.45,0.264,0.188,0.158,-0.253,0.48,-0.097,1.0
58,.,1.0,-0.467,-0.12,-0.406,0.047,-0.108,-0.33,-0.502,0.2,-0.399,0.073,-0.144,-0.434,0.144,-0.365,0.079
58,A1_1,-0.467,1.0,0.127,0.22,-0.418,0.352,0.159,0.403,0.155,0.22,-0.518,0.058,0.255,-0.142,0.015,-0.05
58,A1_2,-0.12,0.127,1.0,0.068,0.085,-0.058,0.083,0.233,0.064,0.396,0.48,0.568,-0.242,0.189,0.187,0.452
58,A1_3,-0.406,0.22,0.068,1.0,0.276,0.362,0.007,0.6,-0.568,0.543,0.131,0.103,-0.145,-0.043,0.322,0.215
58,B1_1,0.047,-0.418,0.085,0.276,1.0,-0.096,0.306,0.128,0.012,0.155,0.263,0.143,-0.129,-0.191,0.107,-0.245
58,B1_2,-0.108,0.352,-0.058,0.362,-0.096,1.0,-0.372,0.379,-0.272,0.238,-0.039,-0.071,-0.276,0.27,-0.036,0.223
58,B1_3,-0.33,0.159,0.083,0.007,0.306,-0.372,1.0,0.223,0.45,0.007,-0.162,0.109,0.191,-0.306,0.146,-0.589
58,A2_1,-0.502,0.403,0.233,0.6,0.128,0.379,0.223,1.0,-0.271,0.63,0.272,-0.137,0.106,0.125,0.189,-0.009
58,A2_2,0.2,0.155,0.064,-0.568,0.012,-0.272,0.45,-0.271,1.0,-0.479,-0.19,0.166,0.248,-0.307,-0.376,-0.45
58,A2_3,-0.399,0.22,0.396,0.543,0.155,0.238,0.007,0.63,-0.479,1.0,0.296,-0.091,-0.253,0.425,0.223,0.264
58,B2_1,0.073,-0.518,0.48,0.131,0.263,-0.039,-0.162,0.272,-0.19,0.296,1.0,0.119,-0.23,0.283,0.126,0.188
58,B2_2,-0.144,0.058,0.568,0.103,0.143,-0.071,0.109,-0.137,0.166,-0.091,0.119,1.0,-0.14,-0.314,0.352,0.157
58,B2_3,-0.434,0.255,-0.242,-0.145,-0.129,-0.276,0.191,0.106,0.248,-0.253,-0.23,-0.14,1.0,-0.098,-0.289,-0.254
58,y1,0.144,-0.142,0.189,-0.043,-0.191,0.27,-0.306,0.125,-0.307,0.425,0.283,-0.314,-0.098,1.0,-0.305,0.48
58,y2,-0.365,0.015,0.187,0.322,0.107,-0.036,0.146,0.189,-0.376,0.223,0.126,0.352,-0.289,-0.305,1.0,-0.097
