,,.,A1_1,A1_2,A1_3,B1_1,B1_2,B1_3,A2_1,A2_2,A2_3,B2_1,B2_2,B2_3,y1,y2,y3
0,.,1.0,0.624,-0.03,0.27,-0.27,0.357,-0.471,0.256,-0.327,-0.28,-0.374,-0.164,-0.102,0.279,0.167,0.598
0,A1_1,0.624,1.0,-0.022,0.195,-0.197,0.158,0.037,0.003,0.107,0.042,-0.453,0.031,-0.053,0.198,0.273,0.342
0,A1_2,-0.03,-0.022,1.0,-0.067,-0.243,0.378,0.141,-0.288,-0.012,-0.246,-0.118,0.138,-0.194,-0.263,-0.083,-0.316
0,A1_3,0.27,0.195,-0.067,1.0,-0.286,-0.228,-0.086,-0.136,-0.423,-0.273,0.349,-0.78,0.332,0.244,0.072,0.475
0,B1_1,-0.27,-0.197,-0.243,-0.286,1.0,-0.496,0.269,0.348,0.044,0.167,-0.126,-0.1,0.208,-0.134,0.194,-0.359
0,B1_2,0.357,0.158,0.378,-0.228,-0.496,1.0,-0.135,-0.081,-0.045,-0.01,-0.18,0.221,-0.056,0.156,-0.226,0.078
0,B1_3,-0.471,0.037,0.141,-0.086,0.269,-0.135,1.0,0.154,0.392,0.276,0.085,0.037,0.344,-0.206,-0.002,-0.519
0,A2_1,0.256,0.003,-0.288,-0.136,0.348,-0.081,0.154,1.0,-0.367,0.114,-0.252,-0.016,0.26,-0.076,-0.209,0.157
0,A2_2,-0.327,0.107,-0.012,-0.423,0.044,-0.045,0.392,-0.367,1.0,0.473,0.145,0.466,-0.209,0.107,0.105,-0.531
0,A2_3,-0.28,0.042,-0.246,-0.273,0.167,-0.01,0.276,0.114,0.473,1.0,0.211,0.196,-0.124,0.349,-0.049,-0.245
0,B2_1,-0.374,-0.453,-0.118,0.349,-0.126,-0.18,0.085,-0.252,0.145,0.211,1.0,-0.179,0.058,0.426,-0.276,-0.076
0,B2_2,-0.164,0.031,0.138,-0.78,-0.1,0.221,0.037,-0.016,0.466,0.196,-0.179,1.0,-0.529,-0.155,-0.111,-0.42
0,B2_3,-0.102,-0.053,-0.194,0.332,0.208,-0.056,0.344,0.26,-0.209,-0.124,0.058,-0.529,1.0,-0.112,-0.315,0.201
0,y1,0.279,0.198,-0.263,0.244,-0.134,0.156,-0.206,-0.076,0.107,0.349,0.426,-0.155,-0.112,1.0,-0.042,0.161
0,y2,0.167,0.273,-0.083,0.072,0.194,-0.226,-0.002,-0.209,0.105,-0.049,-0.276,-0.111,-0.315,-0.042,1.0,0.116
0,y3,0.598,0.342,-0.316,0.475,-0.359,0.078,-0.519,0.157,-0.531,-0.245,-0.076,-0.42,0.201,0.161,0.116,1.0
500,.,1.0,0.642,-0.057,0.312,-0.213,0.084,-0.457,0.053,-0.187,-0.208,-0.403,-0.198,-0.355,0.413,0.556,0.548
500,A1_1,0.642,1.0,-0.056,0.228,-0.212,0.112,0.052,0.033,0.129,0.059,-0.43,0.06,-0.038,0.246,0.256,0.382
500,A1_2,-0.057,-0.056,1.0,-0.071,-0.212,0.4,0.163,-0.192,0.017,-0.272,-0.129,0.17,-0.149,-0.409,-0.313,-0.424
500,A1_3,0.312,0.228,-0.071,1.0,-0.392,-0.203,-0.057,-0.17,-0.403,-0.335,0.284,-0.76,0.309,0.147,0.128,0.357
500,B1_1,-0.213,-0.212,-0.212,-0.392,1.0,-0.471,0.304,0.343,0.074,0.176,-0.104,-0.04,0.234,-0.155,0.031,-0.392
500,B1_2,0.084,0.112,0.4,-0.203,-0.471,1.0,-0.097,-0.012,0.012,0.07,-0.156,0.227,-0.026,0.103,-0.194,0.184
500,B1_3,-0.457,0.052,0.163,-0.057,0.304,-0.097,1.0,0.169,0.41,0.307,0.134,0.079,0.407,-0.331,-0.183,-0.506
500,A2_1,0.053,0.033,-0.192,-0.17,0.343,-0.012,0.169,1.0,-0.336,0.141,-0.272,0.02,0.222,-0.027,-0.126,-0.006
500,A2_2,-0.187,0.129,0.017,-0.403,0.074,0.012,0.41,-0.336,1.0,0.495,0.178,0.495,-0.172,0.044,-0.049,-0.474
500,A2_3,-0.208,0.059,-0.272,-0.335,0.176,0.07,0.307,0.141,0.495,1.0,0.236,0.246,-0.118,0.423,-0.144,-0.249
500,B2_1,-0.403,-0.43,-0.129,0.284,-0.104,-0.156,0.134,-0.272,0.178,0.236,1.0,-0.113,0.123,0.211,-0.283,-0.209
500,B2_2,-0.198,0.06,0.17,-0.76,-0.04,0.227,0.079,0.02,0.495,0.246,-0.113,1.0,-0.466,-0.14,-0.163,-0.338
500,B2_3,-0.355,-0.038,-0.149,0.309,0.234,-0.026,0.407,0.222,-0.172,-0.118,0.123,-0.466,1.0,-0.208,-0.232,0.056
500,y1,0.413,0.246,-0.409,0.147,-0.155,0.103,-0.331,-0.027,0.044,0.423,0.211,-0.14,-0.208,1.0,0.294,0.372
500,y2,0.556,0.256,-0.313,0.128,0.031,-0.194,-0.183,-0.126,-0.049,-0.144,-0.283,-0.163,-0.232,0.294,1.0,0.511
500,y3,0.548,0.382,-0.424,0.357,-0.392,0.184,-0.506,-0.006,-0.474,-0.249,-0.209,-0.338,0.056,0.372,0.511,1.0
1000,.,1.0,0.603,-0.046,0.326,-0.204,0.061,-0.47,0.023,-0.194,-0.229,-0.387,-0.212,-0.368,0.413,0.591,0.533
1000,A1_1,0.603,1.0,-0.048,0.235,-0.213,0.108,0.056,0.03,0.144,0.062,-0.403,0.083,-0.029,0.253,0.273,0.378
1000,A1_2,-0.046,-0.048,1.0,-0.042,-0.197,0.401,0.17,-0.154,0.03,-0.259,-0.131,0.168,-0.145,-0.427,-0.422,-0.425
1000,A1_3,0.326,0.235,-0.042,1.0,-0.398,-0.178,-0.047,-0.156,-0.394,-0.332,0.281,-0.745,0.299,0.08,0.163,0.287
1000,B1_1,-0.204,-0.213,-0.197,-0.398,1.0,-0.475,0.327,0.321,0.071,0.158,-0.091,-0.047,0.239,-0.147,-0.043,-0.407
1000,B1_2,0.061,0.108,0.401,-0.178,-0.475,1.0,-0.108,0.0,0.013,0.091,-0.159,0.222,-0.025,0.099,-0.159,0.202
1000,B1_3,-0.47,0.056,0.17,-0.047,0.327,-0.108,1.0,0.174,0.408,0.31,0.139,0.064,0.415,-0.31,-0.283,-0.489
1000,A2_1,0.023,0.03,-0.154,-0.156,0.321,0.0,0.174,1.0,-0.311,0.137,-0.253,0.034,0.232,-0.059,-0.163,-0.066
1000,A2_2,-0.194,0.144,0.03,-0.394,0.071,0.013,0.408,-0.311,1.0,0.505,0.178,0.493,-0.171,0.06,-0.102,-0.441
1000,A2_3,-0.229,0.062,-0.259,-0.332,0.158,0.091,0.31,0.137,0.505,1.0,0.245,0.258,-0.127,0.421,-0.112,-0.244
1000,B2_1,-0.387,-0.403,-0.131,0.281,-0.091,-0.159,0.139,-0.253,0.178,0.245,1.0,-0.108,0.126,0.138,-0.265,-0.255
1000,B2_2,-0.212,0.083,0.168,-0.745,-0.047,0.222,0.064,0.034,0.493,0.258,-0.108,1.0,-0.461,-0.093,-0.22,-0.271
1000,B2_3,-0.368,-0.029,-0.145,0.299,0.239,-0.025,0.415,0.232,-0.171,-0.127,0.126,-0.461,1.0,-0.242,-0.164,0.002
1000,y1,0.413,0.253,-0.427,0.08,-0.147,0.099,-0.31,-0.059,0.06,0.421,0.138,-0.093,-0.242,1.0,0.433,0.409
1000,y2,0.591,0.273,-0.422,0.163,-0.043,-0.159,-0.283,-0.163,-0.102,-0.112,-0.265,-0.22,-0.164,0.433,1.0,0.676
1000,y3,0.533,0.378,-0.425,0.287,-0.407,0.202,-0.489,-0.066,-0.441,-0.244,-0.255,-0.271,0.002,0.409,0.676,1.0
1500,.,1.0,0.578,-0.042,0.331,-0.207,0.06,-0.477,0.016,-0.199,-0.238,-0.379,-0.223,-0.376,0.411,0.612,0.496
1500,A1_1,0.578,1.0,-0.029,0.234,-0.205,0.105,0.062,0.039,0.154,0.057,-0.39,0.102,-0.024,0.251,0.278,0.344
1500,A1_2,-0.042,-0.029,1.0,-0.025,-0.194,0.406,0.169,-0.123,0.034,-0.255,-0.134,0.171,-0.14,-0.435,-0.489,-0.442
1500,A1_3,0.331,0.234,-0.025,1.0,-0.39,-0.178,-0.039,-0.134,-0.391,-0.341,0.28,-0.735,0.298,0.032,0.159,0.232
1500,B1_1,-0.207,-0.205,-0.194,-0.39,1.0,-0.476,0.344,0.311,0.073,0.158,-0.086,-0.049,0.24,-0.16,-0.086,-0.432
1500,B1_2,0.06,0.105,0.406,-0.178,-0.476,1.0,-0.119,0.015,0.015,0.094,-0.16,0.222,-0.024,0.105,-0.118,0.194
1500,B1_3,-0.477,0.062,0.169,-0.039,0.344,-0.119,1.0,0.17,0.402,0.31,0.143,0.056,0.42,-0.288,-0.369,-0.469
1500,A2_1,0.016,0.039,-0.123,-0.134,0.311,0.015,0.17,1.0,-0.302,0.145,-0.248,0.038,0.236,-0.103,-0.183,-0.102
1500,A2_2,-0.199,0.154,0.034,-0.391,0.073,0.015,0.402,-0.302,1.0,0.508,0.178,0.492,-0.172,0.097,-0.134,-0.408
1500,A2_3,-0.238,0.057,-0.255,-0.341,0.158,0.094,0.31,0.145,0.508,1.0,0.252,0.264,-0.125,0.411,-0.084,-0.238
1500,B2_1,-0.379,-0.39,-0.134,0.28,-0.086,-0.16,0.143,-0.248,0.178,0.252,1.0,-0.106,0.126,0.095,-0.27,-0.27
1500,B2_2,-0.223,0.102,0.171,-0.735,-0.049,0.222,0.056,0.038,0.492,0.264,-0.106,1.0,-0.46,-0.056,-0.259,-0.215
1500,B2_3,-0.376,-0.024,-0.14,0.298,0.24,-0.024,0.42,0.236,-0.172,-0.125,0.126,-0.46,1.0,-0.27,-0.138,-0.025
1500,y1,0.411,0.251,-0.435,0.032,-0.16,0.105,-0.288,-0.103,0.097,0.411,0.095,-0.056,-0.27,1.0,0.538,0.423
1500,y2,0.612,0.278,-0.489,0.159,-0.086,-0.118,-0.369,-0.183,-0.134,-0.084,-0.27,-0.259,-0.138,0.538,1.0,0.75
1500,y3,0.496,0.344,-0.442,0.232,-0.432,0.194,-0.469,-0.102,-0.408,-0.238,-0.27,-0.215,-0.025,0.423,0.75,1.0
2000,.,1.0,0.569,-0.019,0.339,-0.208,0.069,-0.48,0.004,-0.209,-0.255,-0.38,-0.23,-0.383,0.396,0.597,0.464
2000,A1_1,0.569,1.0,0.0,0.234,-0.21,0.129,0.059,0.049,0.162,0.056,-0.4,0.112,-0.028,0.254,0.237,0.311
2000,A1_2,-0.019,0.0,1.0,0.0,-0.194,0.411,0.164,-0.107,0.042,-0.248,-0.147,0.168,-0.138,-0.446,-0.528,-0.456
2000,A1_3,0.339,0.234,0.0,1.0,-0.386,-0.174,-0.035,-0.106,-0.388,-0.348,0.271,-0.725,0.292,-0.005,0.127,0.177
2000,B1_1,-0.208,-0.21,-0.194,-0.386,1.0,-0.476,0.346,0.303,0.083,0.157,-0.079,-0.05,0.242,-0.186,-0.102,-0.436
2000,B1_2,0.069,0.129,0.411,-0.174,-0.476,1.0,-0.116,0.025,0.012,0.104,-0.171,0.221,-0.022,0.109,-0.107,0.181
2000,B1_3,-0.48,0.059,0.164,-0.035,0.346,-0.116,1.0,0.169,0.414,0.314,0.141,0.057,0.421,-0.276,-0.409,-0.448
2000,A2_1,0.004,0.049,-0.107,-0.106,0.303,0.025,0.169,1.0,-0.29,0.154,-0.238,0.04,0.243,-0.138,-0.194,-0.148
2000,A2_2,-0.209,0.162,0.042,-0.388,0.083,0.012,0.414,-0.29,1.0,0.511,0.181,0.489,-0.169,0.117,-0.166,-0.383
2000,A2_3,-0.255,0.056,-0.248,-0.348,0.157,0.104,0.314,0.154,0.511,1.0,0.257,0.271,-0.124,0.402,-0.059,-0.229
2000,B2_1,-0.38,-0.4,-0.147,0.271,-0.079,-0.171,0.141,-0.238,0.181,0.257,1.0,-0.098,0.121,0.055,-0.26,-0.277
2000,B2_2,-0.23,0.112,0.168,-0.725,-0.05,0.221,0.057,0.04,0.489,0.271,-0.098,1.0,-0.458,-0.03,-0.275,-0.185
2000,B2_3,-0.383,-0.028,-0.138,0.292,0.242,-0.022,0.421,0.243,-0.169,-0.124,0.121,-0.458,1.0,-0.275,-0.145,-0.046
2000,y1,0.396,0.254,-0.446,-0.005,-0.186,0.109,-0.276,-0.138,0.117,0.402,0.055,-0.03,-0.275,1.0,0.591,0.472
2000,y2,0.597,0.237,-0.528,0.127,-0.102,-0.107,-0.409,-0.194,-0.166,-0.059,-0.26,-0.275,-0.145,0.591,1.0,0.777
2000,y3,0.464,0.311,-0.456,0.177,-0.436,0.181,-0.448,-0.148,-0.383,-0.229,-0.277,-0.185,-0.046,0.472,0.777,1.0
2500,.,1.0,0.552,0.003,0.328,-0.192,0.071,-0.491,-0.003,-0.195,-0.267,-0.382,-0.221,-0.392,0.344,0.562,0.44
2500,A1_1,0.552,1.0,0.022,0.236,-0.211,0.137,0.064,0.061,0.176,0.059,-0.407,0.126,-0.031,0.228,0.227,0.28
2500,A1_2,0.003,0.022,1.0,0.016,-0.188,0.409,0.163,-0.088,0.046,-0.238,-0.159,0.164,-0.134,-0.459,-0.529,-0.477
2500,A1_3,0.328,0.236,0.016,1.0,-0.373,-0.182,-0.026,-0.089,-0.387,-0.348,0.248,-0.724,0.285,-0.014,0.092,0.136
2500,B1_1,-0.192,-0.211,-0.188,-0.373,1.0,-0.476,0.346,0.301,0.088,0.152,-0.072,-0.048,0.242,-0.211,-0.123,-0.419
2500,B1_2,0.071,0.137,0.409,-0.182,-0.476,1.0,-0.113,0.027,0.014,0.114,-0.186,0.218,-0.022,0.107,-0.068,0.166
2500,B1_3,-0.491,0.064,0.163,-0.026,0.346,-0.113,1.0,0.18,0.412,0.319,0.142,0.057,0.421,-0.255,-0.406,-0.448
2500,A2_1,-0.003,0.061,-0.088,-0.089,0.301,0.027,0.18,1.0,-0.27,0.157,-0.23,0.04,0.249,-0.164,-0.225,-0.184
2500,A2_2,-0.195,0.176,0.046,-0.387,0.088,0.014,0.412,-0.27,1.0,0.516,0.19,0.491,-0.173,0.12,-0.161,-0.38
2500,A2_3,-0.267,0.059,-0.238,-0.348,0.152,0.114,0.319,0.157,0.516,1.0,0.261,0.276,-0.126,0.395,-0.04,-0.222
2500,B2_1,-0.382,-0.407,-0.159,0.248,-0.072,-0.186,0.142,-0.23,0.19,0.261,1.0,-0.085,0.115,0.059,-0.268,-0.296
2500,B2_2,-0.221,0.126,0.164,-0.724,-0.048,0.218,0.057,0.04,0.491,0.276,-0.085,1.0,-0.454,-0.03,-0.265,-0.176
2500,B2_3,-0.392,-0.031,-0.134,0.285,0.242,-0.022,0.421,0.249,-0.173,-0.126,0.115,-0.454,1.0,-0.254,-0.139,-0.068
2500,y1,0.344,0.228,-0.459,-0.014,-0.211,0.107,-0.255,-0.164,0.12,0.395,0.059,-0.03,-0.254,1.0,0.641,0.51
2500,y2,0.562,0.227,-0.529,0.092,-0.123,-0.068,-0.406,-0.225,-0.161,-0.04,-0.268,-0.265,-0.139,0.641,1.0,0.811
2500,y3,0.44,0.28,-0.477,0.136,-0.419,0.166,-0.448,-0.184,-0.38,-0.222,-0.296,-0.176,-0.068,0.51,0.811,1.0
3000,.,1.0,0.541,0.014,0.313,-0.158,0.051,-0.492,-0.01,-0.161,-0.276,-0.365,-0.2,-0.408,0.288,0.475,0.363
3000,A1_1,0.541,1.0,0.033,0.236,-0.216,0.138,0.067,0.063,0.188,0.06,-0.413,0.127,-0.031,0.226,0.198,0.267
3000,A1_2,0.014,0.033,1.0,0.015,-0.186,0.411,0.163,-0.072,0.056,-0.233,-0.161,0.167,-0.134,-0.47,-0.54,-0.509
3000,A1_3,0.313,0.236,0.015,1.0,-0.373,-0.191,-0.025,-0.069,-0.371,-0.338,0.242,-0.72,0.273,-0.029,0.064,0.118
3000,B1_1,-0.158,-0.216,-0.186,-0.373,1.0,-0.468,0.35,0.29,0.096,0.144,-0.063,-0.039,0.241,-0.233,-0.155,-0.41
3000,B1_2,0.051,0.138,0.411,-0.191,-0.468,1.0,-0.109,0.025,0.013,0.121,-0.19,0.212,-0.021,0.127,-0.039,0.126
3000,B1_3,-0.492,0.067,0.163,-0.025,0.35,-0.109,1.0,0.182,0.416,0.317,0.147,0.059,0.422,-0.247,-0.406,-0.425
3000,A2_1,-0.01,0.063,-0.072,-0.069,0.29,0.025,0.182,1.0,-0.255,0.16,-0.222,0.041,0.253,-0.2,-0.253,-0.243
3000,A2_2,-0.161,0.188,0.056,-0.371,0.096,0.013,0.416,-0.255,1.0,0.525,0.187,0.482,-0.17,0.091,-0.169,-0.352
3000,A2_3,-0.276,0.06,-0.233,-0.338,0.144,0.121,0.317,0.16,0.525,1.0,0.263,0.278,-0.126,0.379,-0.024,-0.221
3000,B2_1,-0.365,-0.413,-0.161,0.242,-0.063,-0.19,0.147,-0.222,0.187,0.263,1.0,-0.08,0.118,0.02,-0.272,-0.285
3000,B2_2,-0.2,0.127,0.167,-0.72,-0.039,0.212,0.059,0.041,0.482,0.278,-0.08,1.0,-0.447,-0.046,-0.264,-0.176
3000,B2_3,-0.408,-0.031,-0.134,0.273,0.241,-0.021,0.422,0.253,-0.17,-0.126,0.118,-0.447,1.0,-0.235,-0.135,-0.059
3000,y1,0.288,0.226,-0.47,-0.029,-0.233,0.127,-0.247,-0.2,0.091,0.379,0.02,-0.046,-0.235,1.0,0.691,0.59
3000,y2,0.475,0.198,-0.54,0.064,-0.155,-0.039,-0.406,-0.253,-0.169,-0.024,-0.272,-0.264,-0.135,0.691,1.0,0.846
3000,y3,0.363,0.267,-0.509,0.118,-0.41,0.126,-0.425,-0.243,-0.352,-0.221,-0.285,-0.176,-0.059,0.59,0.846,1.0
3500,.,1.0,0.53,-0.026,0.298,-0.123,-0.015,-0.47,-0.059,-0.073,-0.236,-0.301,-0.17,-0.431,0.292,0.388,0.328
3500,A1_1,0.53,1.0,0.057,0.246,-0.226,0.127,0.059,0.079,0.217,0.072,-0.428,0.115,-0.037,0.229,0.175,0.217
3500,A1_2,-0.026,0.057,1.0,0.017,-0.206,0.448,0.135,-0.046,0.066,-0.223,-0.17,0.182,-0.141,-0.475,-0.532,-0.512
3500,A1_3,0.298,0.246,0.017,1.0,-0.385,-0.19,-0.036,-0.042,-0.359,-0.31,0.217,-0.718,0.259,-0.04,0.061,0.1
3500,B1_1,-0.123,-0.226,-0.206,-0.385,1.0,-0.455,0.367,0.259,0.087,0.11,-0.024,-0.02,0.251,-0.288,-0.221,-0.405
3500,B1_2,-0.015,0.127,0.448,-0.19,-0.455,1.0,-0.113,0.014,0.021,0.12,-0.198,0.199,-0.022,0.146,-0.012,0.143
3500,B1_3,-0.47,0.059,0.135,-0.036,0.367,-0.113,1.0,0.148,0.396,0.29,0.176,0.069,0.427,-0.264,-0.365,-0.441
3500,A2_1,-0.059,0.079,-0.046,-0.042,0.259,0.014,0.148,1.0,-0.219,0.18,-0.238,0.019,0.247,-0.213,-0.304,-0.235
3500,A2_2,-0.073,0.217,0.066,-0.359,0.087,0.021,0.396,-0.219,1.0,0.536,0.159,0.48,-0.17,0.067,-0.154,-0.377
3500,A2_3,-0.236,0.072,-0.223,-0.31,0.11,0.12,0.29,0.18,0.536,1.0,0.245,0.271,-0.133,0.334,-0.02,-0.185
3500,B2_1,-0.301,-0.428,-0.17,0.217,-0.024,-0.198,0.176,-0.238,0.159,0.245,1.0,-0.066,0.128,-0.064,-0.283,-0.288
3500,B2_2,-0.17,0.115,0.182,-0.718,-0.02,0.199,0.069,0.019,0.48,0.271,-0.066,1.0,-0.442,-0.063,-0.277,-0.203
3500,B2_3,-0.431,-0.037,-0.141,0.259,0.251,-0.022,0.427,0.247,-0.17,-0.133,0.128,-0.442,1.0,-0.224,-0.107,-0.075
3500,y1,0.292,0.229,-0.475,-0.04,-0.288,0.146,-0.264,-0.213,0.067,0.334,-0.064,-0.063,-0.224,1.0,0.736,0.675
3500,y2,0.388,0.175,-0.532,0.061,-0.221,-0.012,-0.365,-0.304,-0.154,-0.02,-0.283,-0.277,-0.107,0.736,1.0,0.885
3500,y3,0.328,0.217,-0.512,0.1,-0.405,0.143,-0.441,-0.235,-0.377,-0.185,-0.288,-0.203,-0.075,0.675,0.885,1.0
4000,.,1.0,0.534,-0.025,0.292,-0.111,-0.021,-0.459,-0.077,-0.044,-0.215,-0.285,-0.157,-0.434,0.317,0.349,0.319
4000,A1_1,0.534,1.0,0.071,0.265,-0.251,0.132,0.047,0.097,0.233,0.101,-0.432,0.1,-0.042,0.252,0.139,0.195
4000,A1_2,-0.025,0.071,1.0,0.026,-0.211,0.446,0.126,-0.017,0.076,-0.216,-0.176,0.191,-0.143,-0.494,-0.543,-0.527
4000,A1_3,0.292,0.265,0.026,1.0,-0.407,-0.191,-0.055,-0.01,-0.346,-0.283,0.193,-0.717,0.241,-0.01,0.028,0.091
4000,B1_1,-0.111,-0.251,-0.211,-0.407,1.0,-0.427,0.372,0.243,0.079,0.093,-0.001,0.003,0.257,-0.289,-0.26,-0.397
4000,B1_2,-0.021,0.132,0.446,-0.191,-0.427,1.0,-0.106,0.001,0.03,0.124,-0.191,0.202,-0.019,0.113,0.035,0.126
4000,B1_3,-0.459,0.047,0.126,-0.055,0.372,-0.106,1.0,0.14,0.386,0.274,0.19,0.079,0.434,-0.222,-0.418,-0.414
4000,A2_1,-0.077,0.097,-0.017,-0.01,0.243,0.001,0.14,1.0,-0.185,0.186,-0.25,0.012,0.241,-0.245,-0.25,-0.277
4000,A2_2,-0.044,0.233,0.076,-0.346,0.079,0.03,0.386,-0.185,1.0,0.549,0.14,0.475,-0.17,0.038,-0.2,-0.344
4000,A2_3,-0.215,0.101,-0.216,-0.283,0.093,0.124,0.274,0.186,0.549,1.0,0.219,0.262,-0.139,0.262,0.009,-0.157
4000,B2_1,-0.285,-0.432,-0.176,0.193,-0.001,-0.191,0.19,-0.25,0.14,0.219,1.0,-0.056,0.133,-0.101,-0.292,-0.275
4000,B2_2,-0.157,0.1,0.191,-0.717,0.003,0.202,0.079,0.012,0.475,0.262,-0.056,1.0,-0.437,-0.095,-0.27,-0.224
4000,B2_3,-0.434,-0.042,-0.143,0.241,0.257,-0.019,0.434,0.241,-0.17,-0.139,0.133,-0.437,1.0,-0.211,-0.124,-0.105
4000,y1,0.317,0.252,-0.494,-0.01,-0.289,0.113,-0.222,-0.245,0.038,0.262,-0.101,-0.095,-0.211,1.0,0.775,0.73
4000,y2,0.349,0.139,-0.543,0.028,-0.26,0.035,-0.418,-0.25,-0.2,0.009,-0.292,-0.27,-0.124,0.775,1.0,0.916
4000,y3,0.319,0.195,-0.527,0.091,-0.397,0.126,-0.414,-0.277,-0.344,-0.157,-0.275,-0.224,-0.105,0.73,0.916,1.0
4500,.,1.0,0.542,-0.016,0.281,-0.116,-0.021,-0.458,-0.074,-0.022,-0.2,-0.283,-0.145,-0.436,0.376,0.382,0.252
4500,A1_1,0.542,1.0,0.09,0.278,-0.271,0.123,0.033,0.109,0.253,0.114,-0.435,0.09,-0.053,0.279,0.144,0.145
4500,A1_2,-0.016,0.09,1.0,0.04,-0.214,0.433,0.119,0.0,0.083,-0.213,-0.185,0.19,-0.139,-0.504,-0.499,-0.578
4500,A1_3,0.281,0.278,0.04,1.0,-0.427,-0.207,-0.077,0.01,-0.332,-0.264,0.178,-0.717,0.231,0.027,0.026,0.067
4500,B1_1,-0.116,-0.271,-0.214,-0.427,1.0,-0.392,0.38,0.23,0.072,0.087,0.015,0.03,0.263,-0.319,-0.293,-0.381
4500,B1_2,-0.021,0.123,0.433,-0.207,-0.392,1.0,-0.093,0.007,0.042,0.135,-0.17,0.214,-0.018,0.099,0.087,0.059
4500,B1_3,-0.458,0.033,0.119,-0.077,0.38,-0.093,1.0,0.13,0.375,0.273,0.196,0.096,0.431,-0.254,-0.426,-0.386
4500,A2_1,-0.074,0.109,0.0,0.01,0.23,0.007,0.13,1.0,-0.167,0.189,-0.258,0.0,0.238,-0.233,-0.215,-0.308
4500,A2_2,-0.022,0.253,0.083,-0.332,0.072,0.042,0.375,-0.167,1.0,0.557,0.123,0.465,-0.169,-0.003,-0.225,-0.309
4500,A2_3,-0.2,0.114,-0.213,-0.264,0.087,0.135,0.273,0.189,0.557,1.0,0.21,0.251,-0.143,0.206,-0.008,-0.125
4500,B2_1,-0.283,-0.435,-0.185,0.178,0.015,-0.17,0.196,-0.258,0.123,0.21,1.0,-0.049,0.145,-0.141,-0.326,-0.234
4500,B2_2,-0.145,0.09,0.19,-0.717,0.03,0.214,0.096,0.0,0.465,0.251,-0.049,1.0,-0.432,-0.132,-0.275,-0.23
4500,B2_3,-0.436,-0.053,-0.139,0.231,0.263,-0.018,0.431,0.238,-0.169,-0.143,0.145,-0.432,1.0,-0.22,-0.178,-0.103
4500,y1,0.376,0.279,-0.504,0.027,-0.319,0.099,-0.254,-0.233,-0.003,0.206,-0.141,-0.132,-0.22,1.0,0.798,0.788
4500,y2,0.382,0.144,-0.499,0.026,-0.293,0.087,-0.426,-0.215,-0.225,-0.008,-0.326,-0.275,-0.178,0.798,1.0,0.926
4500,y3,0.252,0.145,-0.578,0.067,-0.381,0.059,-0.386,-0.308,-0.309,-0.125,-0.234,-0.23,-0.103,0.788,0.926,1.0
5000,.,1.0,0.556,-0.003,0.288,-0.132,-0.035,-0.445,-0.073,0.004,-0.187,-0.271,-0.139,-0.442,0.42,0.321,0.251
5000,A1_1,0.556,1.0,0.104,0.298,-0.29,0.116,0.026,0.138,0.264,0.126,-0.442,0.075,-0.056,0.303,0.095,0.127
5000,A1_2,-0.003,0.104,1.0,0.055,-0.226,0.409,0.114,0.007,0.083,-0.207,-0.197,0.184,-0.142,-0.503,-0.535,-0.563
5000,A1_3,0.288,0.298,0.055,1.0,-0.44,-0.218,-0.093,0.024,-0.318,-0.246,0.152,-0.722,0.213,0.088,-0.011,0.056
5000,B1_1,-0.132,-0.29,-0.226,-0.44,1.0,-0.357,0.385,0.227,0.068,0.085,0.038,0.06,0.273,-0.362,-0.252,-0.402
5000,B1_2,-0.035,0.116,0.409,-0.218,-0.357,1.0,-0.072,0.004,0.038,0.151,-0.149,0.225,-0.006,0.068,0.057,0.092
5000,B1_3,-0.445,0.026,0.114,-0.093,0.385,-0.072,1.0,0.127,0.369,0.27,0.196,0.113,0.433,-0.289,-0.412,-0.386
5000,A2_1,-0.073,0.138,0.007,0.024,0.227,0.004,0.127,1.0,-0.151,0.2,-0.269,-0.009,0.23,-0.247,-0.256,-0.281
5000,A2_2,0.004,0.264,0.083,-0.318,0.068,0.038,0.369,-0.151,1.0,0.559,0.109,0.453,-0.167,-0.065,-0.229,-0.269
5000,A2_3,-0.187,0.126,-0.207,-0.246,0.085,0.151,0.27,0.2,0.559,1.0,0.202,0.24,-0.139,0.096,-0.016,-0.061
5000,B2_1,-0.271,-0.442,-0.197,0.152,0.038,-0.149,0.196,-0.269,0.109,0.202,1.0,-0.035,0.148,-0.184,-0.315,-0.218
5000,B2_2,-0.139,0.075,0.184,-0.722,0.06,0.225,0.113,-0.009,0.453,0.24,-0.035,1.0,-0.416,-0.171,-0.296,-0.246
5000,B2_3,-0.442,-0.056,-0.142,0.213,0.273,-0.006,0.433,0.23,-0.167,-0.139,0.148,-0.416,1.0,-0.222,-0.156,-0.141
5000,y1,0.42,0.303,-0.503,0.088,-0.362,0.068,-0.289,-0.247,-0.065,0.096,-0.184,-0.171,-0.222,1.0,0.837,0.852
5000,y2,0.321,0.095,-0.535,-0.011,-0.252,0.057,-0.412,-0.256,-0.229,-0.016,-0.315,-0.296,-0.156,0.837,1.0,0.95
5000,y3,0.251,0.127,-0.563,0.056,-0.402,0.092,-0.386,-0.281,-0.269,-0.061,-0.218,-0.246,-0.141,0.852,0.95,1.0
5500,.,1.0,0.561,-0.002,0.294,-0.146,-0.048,-0.448,-0.075,0.015,-0.182,-0.283,-0.152,-0.446,0.442,0.317,0.26
5500,A1_1,0.561,1.0,0.118,0.303,-0.302,0.114,0.019,0.148,0.278,0.132,-0.449,0.06,-0.058,0.309,0.09,0.114
5500,A1_2,-0.002,0.118,1.0,0.062,-0.225,0.395,0.111,0.018,0.088,-0.203,-0.206,0.179,-0.145,-0.468,-0.553,-0.582
5500,A1_3,0.294,0.303,0.062,1.0,-0.439,-0.223,-0.099,0.039,-0.306,-0.237,0.131,-0.73,0.21,0.088,0.01,0.035
5500,B1_1,-0.146,-0.302,-0.225,-0.439,1.0,-0.339,0.392,0.222,0.061,0.081,0.063,0.078,0.282,-0.38,-0.278,-0.372
5500,B1_2,-0.048,0.114,0.395,-0.223,-0.339,1.0,-0.067,0.01,0.04,0.16,-0.137,0.233,-0.002,0.081,0.054,0.049
5500,B1_3,-0.448,0.019,0.111,-0.099,0.392,-0.067,1.0,0.124,0.359,0.269,0.209,0.123,0.438,-0.305,-0.401,-0.387
5500,A2_1,-0.075,0.148,0.018,0.039,0.222,0.01,0.124,1.0,-0.128,0.207,-0.276,-0.022,0.231,-0.27,-0.234,-0.286
5500,A2_2,0.015,0.278,0.088,-0.306,0.061,0.04,0.359,-0.128,1.0,0.568,0.094,0.434,-0.167,-0.066,-0.222,-0.275
5500,A2_3,-0.182,0.132,-0.203,-0.237,0.081,0.16,0.269,0.207,0.568,1.0,0.201,0.236,-0.136,0.085,-0.025,-0.084
5500,B2_1,-0.283,-0.449,-0.206,0.131,0.063,-0.137,0.209,-0.276,0.094,0.201,1.0,-0.014,0.159,-0.218,-0.307,-0.252
5500,B2_2,-0.152,0.06,0.179,-0.73,0.078,0.233,0.123,-0.022,0.434,0.236,-0.014,1.0,-0.403,-0.185,-0.316,-0.247
5500,B2_3,-0.446,-0.058,-0.145,0.21,0.282,-0.002,0.438,0.231,-0.167,-0.136,0.159,-0.403,1.0,-0.249,-0.135,-0.161
5500,y1,0.442,0.309,-0.468,0.088,-0.38,0.081,-0.305,-0.27,-0.066,0.085,-0.218,-0.185,-0.249,1.0,0.841,0.851
5500,y2,0.317,0.09,-0.553,0.01,-0.278,0.054,-0.401,-0.234,-0.222,-0.025,-0.307,-0.316,-0.135,0.841,1.0,0.954
5500,y3,0.26,0.114,-0.582,0.035,-0.372,0.049,-0.387,-0.286,-0.275,-0.084,-0.252,-0.247,-0.161,0.851,0.954,1.0
6000,.,1.0,0.553,-0.0,0.309,-0.151,-0.07,-0.444,-0.083,0.029,-0.157,-0.272,-0.156,-0.47,0.447,0.31,0.241
6000,A1_1,0.553,1.0,0.13,0.314,-0.308,0.108,0.012,0.156,0.292,0.144,-0.465,0.046,-0.082,0.329,0.122,0.118
6000,A1_2,-0.0,0.13,1.0,0.077,-0.233,0.395,0.106,0.036,0.095,-0.192,-0.201,0.173,-0.143,-0.467,-0.522,-0.606
6000,A1_3,0.309,0.314,0.077,1.0,-0.455,-0.226,-0.119,0.062,-0.286,-0.214,0.102,-0.735,0.185,0.094,0.001,0.038
6000,B1_1,-0.151,-0.308,-0.233,-0.455,1.0,-0.305,0.401,0.215,0.06,0.078,0.098,0.11,0.302,-0.416,-0.319,-0.368
6000,B1_2,-0.07,0.108,0.395,-0.226,-0.305,1.0,-0.056,0.013,0.037,0.158,-0.136,0.241,-0.002,0.059,0.061,0.024
6000,B1_3,-0.444,0.012,0.106,-0.119,0.401,-0.056,1.0,0.114,0.353,0.261,0.231,0.135,0.453,-0.339,-0.4,-0.395
6000,A2_1,-0.083,0.156,0.036,0.062,0.215,0.013,0.114,1.0,-0.115,0.209,-0.295,-0.043,0.204,-0.264,-0.256,-0.269
6000,A2_2,0.029,0.292,0.095,-0.286,0.06,0.037,0.353,-0.115,1.0,0.581,0.071,0.419,-0.179,-0.083,-0.178,-0.265
6000,A2_3,-0.157,0.144,-0.192,-0.214,0.078,0.158,0.261,0.209,0.581,1.0,0.173,0.215,-0.149,0.047,-0.047,-0.069
6000,B2_1,-0.272,-0.465,-0.201,0.102,0.098,-0.136,0.231,-0.295,0.071,0.173,1.0,-0.001,0.188,-0.268,-0.355,-0.267
6000,B2_2,-0.156,0.046,0.173,-0.735,0.11,0.241,0.135,-0.043,0.419,0.215,-0.001,1.0,-0.391,-0.198,-0.292,-0.264
6000,B2_3,-0.47,-0.082,-0.143,0.185,0.302,-0.002,0.453,0.204,-0.179,-0.149,0.188,-0.391,1.0,-0.255,-0.166,-0.152
6000,y1,0.447,0.329,-0.467,0.094,-0.416,0.059,-0.339,-0.264,-0.083,0.047,-0.268,-0.198,-0.255,1.0,0.875,0.875
6000,y2,0.31,0.122,-0.522,0.001,-0.319,0.061,-0.4,-0.256,-0.178,-0.047,-0.355,-0.292,-0.166,0.875,1.0,0.963
6000,y3,0.241,0.118,-0.606,0.038,-0.368,0.024,-0.395,-0.269,-0.265,-0.069,-0.267,-0.264,-0.152,0.875,0.963,1.0
6500,.,1.0,0.545,0.009,0.293,-0.114,-0.091,-0.413,-0.076,0.081,-0.087,-0.248,-0.129,-0.49,0.365,0.29,0.168
6500,A1_1,0.545,1.0,0.158,0.344,-0.333,0.104,-0.012,0.201,0.302,0.166,-0.49,0.018,-0.111,0.303,0.163,0.098
6500,A1_2,0.009,0.158,1.0,0.106,-0.243,0.384,0.089,0.07,0.115,-0.161,-0.208,0.154,-0.158,-0.421,-0.503,-0.619
6500,A1_3,0.293,0.344,0.106,1.0,-0.462,-0.244,-0.134,0.102,-0.257,-0.164,0.044,-0.742,0.14,0.06,0.019,0.005
6500,B1_1,-0.114,-0.333,-0.243,-0.462,1.0,-0.268,0.412,0.197,0.046,0.048,0.167,0.142,0.339,-0.414,-0.351,-0.356
6500,B1_2,-0.091,0.104,0.384,-0.244,-0.268,1.0,-0.041,-0.007,0.025,0.144,-0.143,0.24,0.008,0.073,0.079,0.013
6500,B1_3,-0.413,-0.012,0.089,-0.134,0.412,-0.041,1.0,0.097,0.334,0.231,0.273,0.153,0.471,-0.317,-0.436,-0.396
6500,A2_1,-0.076,0.201,0.07,0.102,0.197,-0.007,0.097,1.0,-0.076,0.239,-0.338,-0.074,0.157,-0.301,-0.322,-0.268
6500,A2_2,0.081,0.302,0.115,-0.257,0.046,0.025,0.334,-0.076,1.0,0.59,0.038,0.393,-0.194,-0.131,-0.175,-0.269
6500,A2_3,-0.087,0.166,-0.161,-0.164,0.048,0.144,0.231,0.239,0.59,1.0,0.122,0.174,-0.181,-0.045,-0.112,-0.076
6500,B2_1,-0.248,-0.49,-0.208,0.044,0.167,-0.143,0.273,-0.338,0.038,0.122,1.0,0.026,0.24,-0.337,-0.351,-0.27
6500,B2_2,-0.129,0.018,0.154,-0.742,0.142,0.24,0.153,-0.074,0.393,0.174,0.026,1.0,-0.351,-0.2,-0.302,-0.257
6500,B2_3,-0.49,-0.111,-0.158,0.14,0.339,0.008,0.471,0.157,-0.194,-0.181,0.24,-0.351,1.0,-0.221,-0.126,-0.127
6500,y1,0.365,0.303,-0.421,0.06,-0.414,0.073,-0.317,-0.301,-0.131,-0.045,-0.337,-0.2,-0.221,1.0,0.914,0.902
6500,y2,0.29,0.163,-0.503,0.019,-0.351,0.079,-0.436,-0.322,-0.175,-0.112,-0.351,-0.302,-0.126,0.914,1.0,0.96
6500,y3,0.168,0.098,-0.619,0.005,-0.356,0.013,-0.396,-0.268,-0.269,-0.076,-0.27,-0.257,-0.127,0.902,0.96,1.0
7000,.,1.0,0.541,0.016,0.294,-0.109,-0.099,-0.407,-0.078,0.094,-0.076,-0.252,-0.127,-0.491,0.295,0.238,0.157
7000,A1_1,0.541,1.0,0.185,0.367,-0.329,0.087,-0.011,0.238,0.32,0.183,-0.504,-0.004,-0.112,0.233,0.097,0.078
7000,A1_2,0.016,0.185,1.0,0.124,-0.238,0.371,0.083,0.086,0.13,-0.135,-0.211,0.149,-0.166,-0.424,-0.519,-0.624
7000,A1_3,0.294,0.367,0.124,1.0,-0.46,-0.241,-0.139,0.129,-0.232,-0.138,0.027,-0.739,0.13,0.01,-0.077,-0.04
7000,B1_1,-0.109,-0.329,-0.238,-0.46,1.0,-0.252,0.415,0.192,0.041,0.043,0.186,0.151,0.346,-0.422,-0.327,-0.342
7000,B1_2,-0.099,0.087,0.371,-0.241,-0.252,1.0,-0.036,-0.016,0.013,0.131,-0.133,0.241,0.017,0.06,0.074,0.028
7000,B1_3,-0.407,-0.011,0.083,-0.139,0.415,-0.036,1.0,0.096,0.328,0.224,0.283,0.155,0.475,-0.319,-0.435,-0.385
7000,A2_1,-0.078,0.238,0.086,0.129,0.192,-0.016,0.096,1.0,-0.05,0.258,-0.351,-0.081,0.151,-0.318,-0.353,-0.293
7000,A2_2,0.094,0.32,0.13,-0.232,0.041,0.013,0.328,-0.05,1.0,0.602,0.019,0.378,-0.197,-0.176,-0.197,-0.238
7000,A2_3,-0.076,0.183,-0.135,-0.138,0.043,0.131,0.224,0.258,0.602,1.0,0.101,0.162,-0.187,-0.104,-0.118,-0.07
7000,B2_1,-0.252,-0.504,-0.211,0.027,0.186,-0.133,0.283,-0.351,0.019,0.101,1.0,0.036,0.256,-0.331,-0.327,-0.247
7000,B2_2,-0.127,-0.004,0.149,-0.739,0.151,0.241,0.155,-0.081,0.378,0.162,0.036,1.0,-0.343,-0.184,-0.243,-0.231
7000,B2_3,-0.491,-0.112,-0.166,0.13,0.346,0.017,0.475,0.151,-0.197,-0.187,0.256,-0.343,1.0,-0.189,-0.132,-0.112
7000,y1,0.295,0.233,-0.424,0.01,-0.422,0.06,-0.319,-0.318,-0.176,-0.104,-0.331,-0.184,-0.189,1.0,0.921,0.913
7000,y2,0.238,0.097,-0.519,-0.077,-0.327,0.074,-0.435,-0.353,-0.197,-0.118,-0.327,-0.243,-0.132,0.921,1.0,0.971
7000,y3,0.157,0.078,-0.624,-0.04,-0.342,0.028,-0.385,-0.293,-0.238,-0.07,-0.247,-0.231,-0.112,0.913,0.971,1.0
7500,.,1.0,0.535,0.023,0.286,-0.114,-0.108,-0.404,-0.084,0.098,-0.074,-0.262,-0.122,-0.51,0.303,0.236,0.147
7500,A1_1,0.535,1.0,0.197,0.373,-0.327,0.074,-0.009,0.257,0.331,0.195,-0.514,-0.02,-0.119,0.254,0.059,0.07
7500,A1_2,0.023,0.197,1.0,0.132,-0.242,0.365,0.082,0.092,0.137,-0.121,-0.21,0.135,-0.169,-0.417,-0.535,-0.62
7500,A1_3,0.286,0.373,0.132,1.0,-0.458,-0.247,-0.139,0.142,-0.22,-0.125,0.014,-0.743,0.125,0.03,-0.093,-0.073
7500,B1_1,-0.114,-0.327,-0.242,-0.458,1.0,-0.245,0.415,0.192,0.039,0.043,0.195,0.159,0.348,-0.438,-0.325,-0.322
7500,B1_2,-0.108,0.074,0.365,-0.247,-0.245,1.0,-0.038,-0.016,0.002,0.123,-0.12,0.242,0.024,0.067,0.052,0.021
7500,B1_3,-0.404,-0.009,0.082,-0.139,0.415,-0.038,1.0,0.097,0.327,0.22,0.289,0.155,0.476,-0.34,-0.433,-0.366
7500,A2_1,-0.084,0.257,0.092,0.142,0.192,-0.016,0.097,1.0,-0.033,0.27,-0.346,-0.086,0.152,-0.319,-0.354,-0.307
7500,A2_2,0.098,0.331,0.137,-0.22,0.039,0.002,0.327,-0.033,1.0,0.61,0.007,0.359,-0.201,-0.167,-0.226,-0.214
7500,A2_3,-0.074,0.195,-0.121,-0.125,0.043,0.123,0.22,0.27,0.61,1.0,0.091,0.145,-0.189,-0.088,-0.156,-0.077
7500,B2_1,-0.262,-0.514,-0.21,0.014,0.195,-0.12,0.289,-0.346,0.007,0.091,1.0,0.053,0.266,-0.36,-0.317,-0.26
7500,B2_2,-0.122,-0.02,0.135,-0.743,0.159,0.242,0.155,-0.086,0.359,0.145,0.053,1.0,-0.327,-0.206,-0.228,-0.217
7500,B2_3,-0.51,-0.119,-0.169,0.125,0.348,0.024,0.476,0.152,-0.201,-0.189,0.266,-0.327,1.0,-0.191,-0.145,-0.099
7500,y1,0.303,0.254,-0.417,0.03,-0.438,0.067,-0.34,-0.319,-0.167,-0.088,-0.36,-0.206,-0.191,1.0,0.929,0.922
7500,y2,0.236,0.059,-0.535,-0.093,-0.325,0.052,-0.433,-0.354,-0.226,-0.156,-0.317,-0.228,-0.145,0.929,1.0,0.978
7500,y3,0.147,0.07,-0.62,-0.073,-0.322,0.021,-0.366,-0.307,-0.214,-0.077,-0.26,-0.217,-0.099,0.922,0.978,1.0
8000,.,1.0,0.528,0.032,0.274,-0.118,-0.121,-0.399,-0.087,0.107,-0.067,-0.263,-0.122,-0.523,0.288,0.183,0.153
8000,A1_1,0.528,1.0,0.21,0.376,-0.33,0.068,-0.008,0.271,0.339,0.205,-0.521,-0.045,-0.12,0.223,0.051,0.043
8000,A1_2,0.032,0.21,1.0,0.149,-0.24,0.354,0.083,0.098,0.148,-0.107,-0.213,0.117,-0.174,-0.436,-0.568,-0.617
8000,A1_3,0.274,0.376,0.149,1.0,-0.46,-0.243,-0.141,0.152,-0.208,-0.113,0.004,-0.751,0.124,0.002,-0.06,-0.092
8000,B1_1,-0.118,-0.33,-0.24,-0.46,1.0,-0.238,0.419,0.19,0.034,0.039,0.205,0.179,0.353,-0.423,-0.342,-0.334
8000,B1_2,-0.121,0.068,0.354,-0.243,-0.238,1.0,-0.037,-0.02,-0.003,0.115,-0.119,0.235,0.026,0.089,0.018,0.041
8000,B1_3,-0.399,-0.008,0.083,-0.141,0.419,-0.037,1.0,0.097,0.325,0.216,0.291,0.16,0.479,-0.33,-0.417,-0.392
8000,A2_1,-0.087,0.271,0.098,0.152,0.19,-0.02,0.097,1.0,-0.02,0.282,-0.349,-0.101,0.147,-0.314,-0.341,-0.329
8000,A2_2,0.107,0.339,0.148,-0.208,0.034,-0.003,0.325,-0.02,1.0,0.619,-0.002,0.333,-0.202,-0.214,-0.232,-0.231
8000,A2_3,-0.067,0.205,-0.107,-0.113,0.039,0.115,0.216,0.282,0.619,1.0,0.077,0.117,-0.191,-0.115,-0.133,-0.113
8000,B2_1,-0.263,-0.521,-0.213,0.004,0.205,-0.119,0.291,-0.349,-0.002,0.077,1.0,0.076,0.273,-0.346,-0.296,-0.233
8000,B2_2,-0.122,-0.045,0.117,-0.751,0.179,0.235,0.16,-0.101,0.333,0.117,0.076,1.0,-0.304,-0.204,-0.257,-0.209
8000,B2_3,-0.523,-0.12,-0.174,0.124,0.353,0.026,0.479,0.147,-0.202,-0.191,0.273,-0.304,1.0,-0.166,-0.105,-0.088
8000,y1,0.288,0.223,-0.436,0.002,-0.423,0.089,-0.33,-0.314,-0.214,-0.115,-0.346,-0.204,-0.166,1.0,0.946,0.935
8000,y2,0.183,0.051,-0.568,-0.06,-0.342,0.018,-0.417,-0.341,-0.232,-0.133,-0.296,-0.257,-0.105,0.946,1.0,0.988
8000,y3,0.153,0.043,-0.617,-0.092,-0.334,0.041,-0.392,-0.329,-0.231,-0.113,-0.233,-0.209,-0.088,0.935,0.988,1.0
8500,.,1.0,0.526,0.035,0.272,-0.118,-0.127,-0.392,-0.092,0.114,-0.062,-0.259,-0.119,-0.523,0.263,0.204,0.133
8500,A1_1,0.526,1.0,0.228,0.386,-0.325,0.069,-0.008,0.292,0.357,0.224,-0.52,-0.045,-0.122,0.177,0.031,-0.011
8500,A1_2,0.035,0.228,1.0,0.171,-0.242,0.351,0.08,0.106,0.166,-0.093,-0.214,0.111,-0.176,-0.44,-0.572,-0.622
8500,A1_3,0.272,0.386,0.171,1.0,-0.459,-0.235,-0.137,0.167,-0.18,-0.094,-0.0,-0.745,0.12,-0.002,-0.093,-0.12
8500,B1_1,-0.118,-0.325,-0.242,-0.459,1.0,-0.238,0.419,0.189,0.032,0.037,0.207,0.179,0.353,-0.465,-0.349,-0.34
8500,B1_2,-0.127,0.069,0.351,-0.235,-0.238,1.0,-0.037,-0.02,-0.007,0.113,-0.12,0.235,0.027,0.088,0.039,0.031
8500,B1_3,-0.392,-0.008,0.08,-0.137,0.419,-0.037,1.0,0.097,0.315,0.213,0.291,0.16,0.479,-0.356,-0.418,-0.379
8500,A2_1,-0.092,0.292,0.106,0.167,0.189,-0.02,0.097,1.0,0.006,0.293,-0.349,-0.102,0.145,-0.33,-0.349,-0.359
8500,A2_2,0.114,0.357,0.166,-0.18,0.032,-0.007,0.315,0.006,1.0,0.625,-0.009,0.321,-0.203,-0.236,-0.258,-0.257
8500,A2_3,-0.062,0.224,-0.093,-0.094,0.037,0.113,0.213,0.293,0.625,1.0,0.068,0.111,-0.194,-0.121,-0.159,-0.108
8500,B2_1,-0.259,-0.52,-0.214,-0.0,0.207,-0.12,0.291,-0.349,-0.009,0.068,1.0,0.08,0.274,-0.315,-0.271,-0.211
8500,B2_2,-0.119,-0.045,0.111,-0.745,0.179,0.235,0.16,-0.102,0.321,0.111,0.08,1.0,-0.303,-0.204,-0.214,-0.206
8500,B2_3,-0.523,-0.122,-0.176,0.12,0.353,0.027,0.479,0.145,-0.203,-0.194,0.274,-0.303,1.0,-0.164,-0.119,-0.1
8500,y1,0.263,0.177,-0.44,-0.002,-0.465,0.088,-0.356,-0.33,-0.236,-0.121,-0.315,-0.204,-0.164,1.0,0.957,0.94
8500,y2,0.204,0.031,-0.572,-0.093,-0.349,0.039,-0.418,-0.349,-0.258,-0.159,-0.271,-0.214,-0.119,0.957,1.0,0.989
8500,y3,0.133,-0.011,-0.622,-0.12,-0.34,0.031,-0.379,-0.359,-0.257,-0.108,-0.211,-0.206,-0.1,0.94,0.989,1.0
9000,.,1.0,0.523,0.047,0.267,-0.144,-0.142,-0.389,-0.109,0.129,-0.057,-0.257,-0.12,-0.538,0.291,0.156,0.155
9000,A1_1,0.523,1.0,0.24,0.391,-0.336,0.063,-0.019,0.31,0.365,0.239,-0.526,-0.058,-0.126,0.16,0.001,-0.029
9000,A1_2,0.047,0.24,1.0,0.187,-0.243,0.346,0.072,0.113,0.178,-0.081,-0.22,0.099,-0.177,-0.437,-0.577,-0.611
9000,A1_3,0.267,0.391,0.187,1.0,-0.455,-0.234,-0.136,0.178,-0.161,-0.08,-0.005,-0.746,0.122,-0.065,-0.127,-0.126
9000,B1_1,-0.144,-0.336,-0.243,-0.455,1.0,-0.221,0.429,0.185,0.024,0.034,0.219,0.183,0.362,-0.431,-0.346,-0.363
9000,B1_2,-0.142,0.063,0.346,-0.234,-0.221,1.0,-0.035,-0.021,-0.012,0.11,-0.111,0.235,0.032,0.067,0.047,0.066
9000,B1_3,-0.389,-0.019,0.072,-0.136,0.429,-0.035,1.0,0.092,0.309,0.213,0.298,0.163,0.486,-0.388,-0.383,-0.405
9000,A2_1,-0.109,0.31,0.113,0.178,0.185,-0.021,0.092,1.0,0.026,0.3,-0.352,-0.105,0.142,-0.304,-0.34,-0.389
9000,A2_2,0.129,0.365,0.178,-0.161,0.024,-0.012,0.309,0.026,1.0,0.634,-0.02,0.304,-0.202,-0.261,-0.272,-0.304
9000,A2_3,-0.057,0.239,-0.081,-0.08,0.034,0.11,0.213,0.3,0.634,1.0,0.056,0.1,-0.19,-0.149,-0.155,-0.158
9000,B2_1,-0.257,-0.526,-0.22,-0.005,0.219,-0.111,0.298,-0.352,-0.02,0.056,1.0,0.088,0.281,-0.359,-0.258,-0.183
9000,B2_2,-0.12,-0.058,0.099,-0.746,0.183,0.235,0.163,-0.105,0.304,0.1,0.088,1.0,-0.296,-0.158,-0.201,-0.179
9000,B2_3,-0.538,-0.126,-0.177,0.122,0.362,0.032,0.486,0.142,-0.202,-0.19,0.281,-0.296,1.0,-0.221,-0.098,-0.114
9000,y1,0.291,0.16,-0.437,-0.065,-0.431,0.067,-0.388,-0.304,-0.261,-0.149,-0.359,-0.158,-0.221,1.0,0.953,0.932
9000,y2,0.156,0.001,-0.577,-0.127,-0.346,0.047,-0.383,-0.34,-0.272,-0.155,-0.258,-0.201,-0.098,0.953,1.0,0.989
9000,y3,0.155,-0.029,-0.611,-0.126,-0.363,0.066,-0.405,-0.389,-0.304,-0.158,-0.183,-0.179,-0.114,0.932,0.989,1.0
9500,.,1.0,0.514,0.045,0.265,-0.156,-0.157,-0.384,-0.122,0.127,-0.064,-0.252,-0.124,-0.536,0.261,0.155,0.152
9500,A1_1,0.514,1.0,0.256,0.409,-0.337,0.051,-0.029,0.336,0.374,0.252,-0.527,-0.069,-0.123,0.112,-0.05,-0.03
9500,A1_2,0.045,0.256,1.0,0.201,-0.242,0.342,0.071,0.123,0.19,-0.074,-0.221,0.093,-0.17,-0.461,-0.607,-0.602
9500,A1_3,0.265,0.409,0.201,1.0,-0.451,-0.227,-0.139,0.194,-0.14,-0.067,-0.012,-0.741,0.128,-0.083,-0.155,-0.16
9500,B1_1,-0.156,-0.337,-0.242,-0.451,1.0,-0.21,0.436,0.184,0.016,0.03,0.226,0.187,0.365,-0.437,-0.316,-0.367
9500,B1_2,-0.157,0.051,0.342,-0.227,-0.21,1.0,-0.031,-0.017,-0.014,0.113,-0.099,0.24,0.035,0.064,0.013,0.049
9500,B1_3,-0.384,-0.029,0.071,-0.139,0.436,-0.031,1.0,0.09,0.299,0.208,0.298,0.164,0.487,-0.364,-0.396,-0.403
9500,A2_1,-0.122,0.336,0.123,0.194,0.184,-0.017,0.09,1.0,0.048,0.31,-0.351,-0.102,0.142,-0.354,-0.356,-0.359
9500,A2_2,0.127,0.374,0.19,-0.14,0.016,-0.014,0.299,0.048,1.0,0.64,-0.029,0.291,-0.204,-0.276,-0.315,-0.282
9500,A2_3,-0.064,0.252,-0.074,-0.067,0.03,0.113,0.208,0.31,0.64,1.0,0.05,0.093,-0.191,-0.157,-0.176,-0.14
9500,B2_1,-0.252,-0.527,-0.221,-0.012,0.226,-0.099,0.298,-0.351,-0.029,0.05,1.0,0.094,0.283,-0.317,-0.24,-0.227
9500,B2_2,-0.124,-0.069,0.093,-0.741,0.187,0.24,0.164,-0.102,0.291,0.093,0.094,1.0,-0.291,-0.153,-0.194,-0.161
9500,B2_3,-0.536,-0.123,-0.17,0.128,0.365,0.035,0.487,0.142,-0.204,-0.191,0.283,-0.291,1.0,-0.187,-0.098,-0.137
9500,y1,0.261,0.112,-0.461,-0.083,-0.437,0.064,-0.364,-0.354,-0.276,-0.157,-0.317,-0.153,-0.187,1.0,0.957,0.947
9500,y2,0.155,-0.05,-0.607,-0.155,-0.316,0.013,-0.396,-0.356,-0.315,-0.176,-0.24,-0.194,-0.098,0.957,1.0,0.992
9500,y3,0.152,-0.03,-0.602,-0.16,-0.367,0.049,-0.403,-0.359,-0.282,-0.14,-0.227,-0.161,-0.137,0.947,0.992,1.0
10000,.,1.0,0.506,0.045,0.256,-0.156,-0.161,-0.378,-0.124,0.13,-0.06,-0.25,-0.123,-0.537,0.225,0.174,0.141
10000,A1_1,0.506,1.0,0.263,0.413,-0.338,0.048,-0.031,0.345,0.382,0.261,-0.529,-0.077,-0.123,0.087,-0.04,-0.05
10000,A1_2,0.045,0.263,1.0,0.21,-0.244,0.34,0.068,0.126,0.193,-0.071,-0.222,0.088,-0.171,-0.483,-0.601,-0.607
10000,A1_3,0.256,0.413,0.21,1.0,-0.446,-0.222,-0.135,0.203,-0.124,-0.055,-0.012,-0.742,0.133,-0.107,-0.166,-0.19
10000,B1_1,-0.156,-0.338,-0.244,-0.446,1.0,-0.208,0.44,0.179,0.013,0.028,0.23,0.19,0.368,-0.443,-0.332,-0.326
10000,B1_2,-0.161,0.048,0.34,-0.222,-0.208,1.0,-0.028,-0.019,-0.021,0.105,-0.095,0.239,0.038,0.031,0.026,0.036
10000,B1_3,-0.378,-0.031,0.068,-0.135,0.44,-0.028,1.0,0.087,0.298,0.204,0.3,0.166,0.489,-0.359,-0.422,-0.371
10000,A2_1,-0.124,0.345,0.126,0.203,0.179,-0.019,0.087,1.0,0.053,0.315,-0.354,-0.106,0.137,-0.343,-0.36,-0.378
10000,A2_2,0.13,0.382,0.193,-0.124,0.013,-0.021,0.298,0.053,1.0,0.643,-0.034,0.281,-0.204,-0.272,-0.308,-0.31
10000,A2_3,-0.06,0.261,-0.071,-0.055,0.028,0.105,0.204,0.315,0.643,1.0,0.045,0.087,-0.193,-0.151,-0.184,-0.179
10000,B2_1,-0.25,-0.529,-0.222,-0.012,0.23,-0.095,0.3,-0.354,-0.034,0.045,1.0,0.099,0.286,-0.306,-0.226,-0.227
10000,B2_2,-0.123,-0.077,0.088,-0.742,0.19,0.239,0.166,-0.106,0.281,0.087,0.099,1.0,-0.286,-0.14,-0.158,-0.156
10000,B2_3,-0.537,-0.123,-0.171,0.133,0.368,0.038,0.489,0.137,-0.204,-0.193,0.286,-0.286,1.0,-0.185,-0.118,-0.097
10000,y1,0.225,0.087,-0.483,-0.107,-0.443,0.031,-0.359,-0.343,-0.272,-0.151,-0.306,-0.14,-0.185,1.0,0.963,0.96
10000,y2,0.174,-0.04,-0.601,-0.166,-0.332,0.026,-0.422,-0.36,-0.308,-0.184,-0.226,-0.158,-0.118,0.963,1.0,0.993
10000,y3,0.141,-0.05,-0.607,-0.19,-0.326,0.036,-0.371,-0.378,-0.31,-0.179,-0.227,-0.156,-0.097,0.96,0.993,1.0
