,,.,A1_1,A1_2,A1_3,B1_1,B1_2,B1_3,A2_1,A2_2,A2_3,B2_1,B2_2,B2_3,y1,y2,y3
0,.,1.0,-0.326,-0.127,0.42,-0.278,0.157,0.119,-0.078,0.203,-0.309,0.098,-0.257,0.177,-0.586,0.542,-0.283
0,A1_1,-0.326,1.0,0.055,-0.491,-0.306,-0.378,-0.172,0.091,0.329,0.159,-0.39,0.33,-0.155,0.462,0.222,0.19
0,A1_2,-0.127,0.055,1.0,0.248,0.229,-0.074,0.046,0.256,-0.005,-0.119,-0.031,0.442,0.242,0.306,-0.544,-0.087
0,A1_3,0.42,-0.491,0.248,1.0,-0.022,0.345,0.339,-0.062,-0.261,0.044,0.205,-0.294,-0.189,-0.312,-0.284,0.038
0,B1_1,-0.278,-0.306,0.229,-0.022,1.0,-0.309,0.472,0.331,-0.134,-0.033,-0.137,-0.239,0.249,-0.162,-0.211,-0.336
0,B1_2,0.157,-0.378,-0.074,0.345,-0.309,1.0,-0.515,0.319,-0.158,-0.044,0.168,0.272,-0.243,0.188,-0.343,0.661
0,B1_3,0.119,-0.172,0.046,0.339,0.472,-0.515,1.0,-0.048,0.056,0.247,0.131,-0.402,-0.143,-0.487,0.261,-0.348
0,A2_1,-0.078,0.091,0.256,-0.062,0.331,0.319,-0.048,1.0,0.141,-0.006,-0.186,0.282,0.223,0.261,-0.095,0.302
0,A2_2,0.203,0.329,-0.005,-0.261,-0.134,-0.158,0.056,0.141,1.0,0.321,0.017,0.226,-0.208,-0.229,0.307,-0.144
0,A2_3,-0.309,0.159,-0.119,0.044,-0.033,-0.044,0.247,-0.006,0.321,1.0,-0.333,0.265,-0.636,-0.249,-0.151,0.317
0,B2_1,0.098,-0.39,-0.031,0.205,-0.137,0.168,0.131,-0.186,0.017,-0.333,1.0,-0.161,-0.066,-0.061,-0.126,-0.238
0,B2_2,-0.257,0.33,0.442,-0.294,-0.239,0.272,-0.402,0.282,0.226,0.265,-0.161,1.0,-0.276,0.333,-0.339,0.441
0,B2_3,0.177,-0.155,0.242,-0.189,0.249,-0.243,-0.143,0.223,-0.208,-0.636,-0.066,-0.276,1.0,0.122,0.135,-0.496
0,y1,-0.586,0.462,0.306,-0.312,-0.162,0.188,-0.487,0.261,-0.229,-0.249,-0.061,0.333,0.122,1.0,-0.314,0.537
0,y2,0.542,0.222,-0.544,-0.284,-0.211,-0.343,0.261,-0.095,0.307,-0.151,-0.126,-0.339,0.135,-0.314,1.0,-0.192
0,y3,-0.283,0.19,-0.087,0.038,-0.336,0.661,-0.348,0.302,-0.144,0.317,-0.238,0.441,-0.496,0.537,-0.192,1.0
500,.,1.0,-0.398,-0.266,-0.148,-0.171,-0.522,0.168,-0.44,0.222,-0.2,0.096,-0.495,0.109,-0.5,0.529,-0.5
500,A1_1,-0.398,1.0,0.088,-0.272,-0.473,-0.063,-0.247,0.061,0.48,0.292,-0.245,0.463,-0.246,0.383,0.21,0.211
500,A1_2,-0.266,0.088,1.0,0.374,0.133,0.103,-0.048,0.309,0.137,0.018,-0.043,0.481,0.235,0.125,-0.526,-0.177
500,A1_3,-0.148,-0.272,0.374,1.0,-0.031,0.47,0.281,0.096,-0.003,0.19,0.245,-0.167,-0.139,-0.517,-0.427,-0.09
500,B1_1,-0.171,-0.473,0.133,-0.031,1.0,-0.247,0.434,0.269,-0.355,-0.177,-0.126,-0.188,0.334,-0.073,-0.211,-0.21
500,B1_2,-0.522,-0.063,0.103,0.47,-0.247,1.0,-0.355,0.41,-0.149,-0.026,0.264,0.312,-0.201,0.281,-0.436,0.639
500,B1_3,0.168,-0.247,-0.048,0.281,0.434,-0.355,1.0,-0.108,-0.119,0.094,0.232,-0.277,-0.055,-0.498,0.21,-0.349
500,A2_1,-0.44,0.061,0.309,0.096,0.269,0.41,-0.108,1.0,0.204,0.067,-0.177,0.343,0.153,0.265,-0.132,0.386
500,A2_2,0.222,0.48,0.137,-0.003,-0.355,-0.149,-0.119,0.204,1.0,0.392,-0.074,0.107,-0.391,-0.274,0.223,-0.179
500,A2_3,-0.2,0.292,0.018,0.19,-0.177,-0.026,0.094,0.067,0.392,1.0,-0.348,0.21,-0.713,-0.332,-0.127,0.221
500,B2_1,0.096,-0.245,-0.043,0.245,-0.126,0.264,0.232,-0.177,-0.074,-0.348,1.0,-0.15,-0.042,-0.099,-0.309,-0.354
500,B2_2,-0.495,0.463,0.481,-0.167,-0.188,0.312,-0.277,0.343,0.107,0.21,-0.15,1.0,-0.3,0.517,-0.215,0.518
500,B2_3,0.109,-0.246,0.235,-0.139,0.334,-0.201,-0.055,0.153,-0.391,-0.713,-0.042,-0.3,1.0,0.344,0.051,-0.301
500,y1,-0.5,0.383,0.125,-0.517,-0.073,0.281,-0.498,0.265,-0.274,-0.332,-0.099,0.517,0.344,1.0,-0.073,0.51
500,y2,0.529,0.21,-0.526,-0.427,-0.211,-0.436,0.21,-0.132,0.223,-0.127,-0.309,-0.215,0.051,-0.073,1.0,0.071
500,y3,-0.5,0.211,-0.177,-0.09,-0.21,0.639,-0.349,0.386,-0.179,0.221,-0.354,0.518,-0.301,0.51,0.071,1.0
1000,.,1.0,-0.404,-0.258,-0.173,-0.18,-0.539,0.151,-0.47,0.202,-0.208,0.094,-0.482,0.099,-0.47,0.463,-0.465
1000,A1_1,-0.404,1.0,0.106,-0.231,-0.488,-0.029,-0.252,0.082,0.501,0.321,-0.234,0.471,-0.271,0.347,0.263,0.192
1000,A1_2,-0.258,0.106,1.0,0.391,0.13,0.111,-0.048,0.324,0.158,0.036,-0.045,0.48,0.222,0.082,-0.465,-0.217
1000,A1_3,-0.173,-0.231,0.391,1.0,-0.012,0.478,0.279,0.127,0.023,0.202,0.24,-0.16,-0.14,-0.523,-0.461,-0.097
1000,B1_1,-0.18,-0.488,0.13,-0.012,1.0,-0.242,0.436,0.264,-0.362,-0.171,-0.118,-0.189,0.334,-0.086,-0.197,-0.227
1000,B1_2,-0.539,-0.029,0.111,0.478,-0.242,1.0,-0.348,0.411,-0.134,-0.025,0.271,0.31,-0.199,0.291,-0.512,0.649
1000,B1_3,0.151,-0.252,-0.048,0.279,0.436,-0.348,1.0,-0.109,-0.128,0.093,0.236,-0.272,-0.055,-0.503,0.238,-0.355
1000,A2_1,-0.47,0.082,0.324,0.127,0.264,0.411,-0.109,1.0,0.225,0.09,-0.179,0.337,0.135,0.253,-0.129,0.374
1000,A2_2,0.202,0.501,0.158,0.023,-0.362,-0.134,-0.128,0.225,1.0,0.408,-0.077,0.112,-0.401,-0.284,0.235,-0.173
1000,A2_3,-0.208,0.321,0.036,0.202,-0.171,-0.025,0.093,0.09,0.408,1.0,-0.348,0.211,-0.711,-0.37,-0.021,0.138
1000,B2_1,0.094,-0.234,-0.045,0.24,-0.118,0.271,0.236,-0.179,-0.077,-0.348,1.0,-0.143,-0.036,-0.087,-0.394,-0.318
1000,B2_2,-0.482,0.471,0.48,-0.16,-0.189,0.31,-0.272,0.337,0.112,0.211,-0.143,1.0,-0.309,0.499,-0.16,0.481
1000,B2_3,0.099,-0.271,0.222,-0.14,0.334,-0.199,-0.055,0.135,-0.401,-0.711,-0.036,-0.309,1.0,0.356,0.024,-0.28
1000,y1,-0.47,0.347,0.082,-0.523,-0.086,0.291,-0.503,0.253,-0.284,-0.37,-0.087,0.499,0.356,1.0,-0.028,0.519
1000,y2,0.463,0.263,-0.465,-0.461,-0.197,-0.512,0.238,-0.129,0.235,-0.021,-0.394,-0.16,0.024,-0.028,1.0,0.106
1000,y3,-0.465,0.192,-0.217,-0.097,-0.227,0.649,-0.355,0.374,-0.173,0.138,-0.318,0.481,-0.28,0.519,0.106,1.0
1500,.,1.0,-0.408,-0.255,-0.189,-0.186,-0.544,0.137,-0.487,0.19,-0.215,0.095,-0.473,0.091,-0.458,0.439,-0.465
1500,A1_1,-0.408,1.0,0.117,-0.203,-0.498,-0.006,-0.254,0.096,0.515,0.339,-0.224,0.474,-0.287,0.337,0.265,0.206
1500,A1_2,-0.255,0.117,1.0,0.402,0.128,0.116,-0.047,0.331,0.163,0.044,-0.044,0.479,0.216,0.069,-0.454,-0.215
1500,A1_3,-0.189,-0.203,0.402,1.0,0.001,0.482,0.279,0.152,0.039,0.21,0.237,-0.156,-0.14,-0.532,-0.482,-0.105
1500,B1_1,-0.186,-0.498,0.128,0.001,1.0,-0.24,0.438,0.26,-0.361,-0.166,-0.114,-0.19,0.334,-0.096,-0.201,-0.226
1500,B1_2,-0.544,-0.006,0.116,0.482,-0.24,1.0,-0.344,0.414,-0.127,-0.024,0.276,0.309,-0.199,0.289,-0.532,0.644
1500,B1_3,0.137,-0.254,-0.047,0.279,0.438,-0.344,1.0,-0.108,-0.131,0.093,0.239,-0.27,-0.054,-0.509,0.235,-0.35
1500,A2_1,-0.487,0.096,0.331,0.152,0.26,0.414,-0.108,1.0,0.237,0.105,-0.18,0.334,0.12,0.24,-0.142,0.384
1500,A2_2,0.19,0.515,0.163,0.039,-0.361,-0.127,-0.131,0.237,1.0,0.417,-0.081,0.11,-0.408,-0.277,0.228,-0.148
1500,A2_3,-0.215,0.339,0.044,0.21,-0.166,-0.024,0.093,0.105,0.417,1.0,-0.347,0.21,-0.71,-0.374,0.013,0.118
1500,B2_1,0.095,-0.224,-0.044,0.237,-0.114,0.276,0.239,-0.18,-0.081,-0.347,1.0,-0.139,-0.032,-0.087,-0.419,-0.306
1500,B2_2,-0.473,0.474,0.479,-0.156,-0.19,0.309,-0.27,0.334,0.11,0.21,-0.139,1.0,-0.315,0.502,-0.138,0.485
1500,B2_3,0.091,-0.287,0.216,-0.14,0.334,-0.199,-0.054,0.12,-0.408,-0.71,-0.032,-0.315,1.0,0.348,0.002,-0.281
1500,y1,-0.458,0.337,0.069,-0.532,-0.096,0.289,-0.509,0.24,-0.277,-0.374,-0.087,0.502,0.348,1.0,-0.012,0.531
1500,y2,0.439,0.265,-0.454,-0.482,-0.201,-0.532,0.235,-0.142,0.228,0.013,-0.419,-0.138,0.002,-0.012,1.0,0.124
1500,y3,-0.465,0.206,-0.215,-0.105,-0.226,0.644,-0.35,0.384,-0.148,0.118,-0.306,0.485,-0.281,0.531,0.124,1.0
2000,.,1.0,-0.414,-0.254,-0.198,-0.191,-0.546,0.125,-0.498,0.179,-0.222,0.095,-0.466,0.086,-0.446,0.415,-0.465
2000,A1_1,-0.414,1.0,0.126,-0.183,-0.503,0.011,-0.256,0.111,0.525,0.351,-0.217,0.475,-0.296,0.331,0.267,0.221
2000,A1_2,-0.254,0.126,1.0,0.411,0.126,0.121,-0.047,0.334,0.166,0.051,-0.044,0.479,0.211,0.063,-0.468,-0.195
2000,A1_3,-0.198,-0.183,0.411,1.0,0.011,0.482,0.281,0.163,0.053,0.217,0.236,-0.153,-0.14,-0.541,-0.502,-0.119
2000,B1_1,-0.191,-0.503,0.126,0.011,1.0,-0.238,0.439,0.259,-0.36,-0.163,-0.11,-0.191,0.333,-0.104,-0.217,-0.221
2000,B1_2,-0.546,0.011,0.121,0.482,-0.238,1.0,-0.342,0.411,-0.122,-0.023,0.279,0.309,-0.198,0.285,-0.526,0.634
2000,B1_3,0.125,-0.256,-0.047,0.281,0.439,-0.342,1.0,-0.107,-0.132,0.093,0.24,-0.269,-0.054,-0.523,0.224,-0.349
2000,A2_1,-0.498,0.111,0.334,0.163,0.259,0.411,-0.107,1.0,0.246,0.115,-0.182,0.327,0.112,0.232,-0.159,0.407
2000,A2_2,0.179,0.525,0.166,0.053,-0.36,-0.122,-0.132,0.246,1.0,0.425,-0.085,0.107,-0.415,-0.277,0.216,-0.127
2000,A2_3,-0.222,0.351,0.051,0.217,-0.163,-0.023,0.093,0.115,0.425,1.0,-0.347,0.21,-0.708,-0.373,0.032,0.098
2000,B2_1,0.095,-0.217,-0.044,0.236,-0.11,0.279,0.24,-0.182,-0.085,-0.347,1.0,-0.137,-0.03,-0.095,-0.421,-0.311
2000,B2_2,-0.466,0.475,0.479,-0.153,-0.191,0.309,-0.269,0.327,0.107,0.21,-0.137,1.0,-0.32,0.507,-0.116,0.498
2000,B2_3,0.086,-0.296,0.211,-0.14,0.333,-0.198,-0.054,0.112,-0.415,-0.708,-0.03,-0.32,1.0,0.34,-0.031,-0.264
2000,y1,-0.446,0.331,0.063,-0.541,-0.104,0.285,-0.523,0.232,-0.277,-0.373,-0.095,0.507,0.34,1.0,0.012,0.551
2000,y2,0.415,0.267,-0.468,-0.502,-0.217,-0.526,0.224,-0.159,0.216,0.032,-0.421,-0.116,-0.031,0.012,1.0,0.164
2000,y3,-0.465,0.221,-0.195,-0.119,-0.221,0.634,-0.349,0.407,-0.127,0.098,-0.311,0.498,-0.264,0.551,0.164,1.0
2500,.,1.0,-0.417,-0.254,-0.207,-0.196,-0.547,0.116,-0.509,0.168,-0.228,0.095,-0.458,0.081,-0.437,0.381,-0.46
2500,A1_1,-0.417,1.0,0.135,-0.163,-0.508,0.024,-0.255,0.121,0.535,0.361,-0.212,0.474,-0.306,0.321,0.267,0.237
2500,A1_2,-0.254,0.135,1.0,0.42,0.124,0.126,-0.046,0.34,0.17,0.056,-0.044,0.478,0.209,0.06,-0.504,-0.16
2500,A1_3,-0.207,-0.163,0.42,1.0,0.02,0.485,0.28,0.177,0.067,0.222,0.235,-0.148,-0.139,-0.542,-0.524,-0.137
2500,B1_1,-0.196,-0.508,0.124,0.02,1.0,-0.236,0.44,0.258,-0.363,-0.157,-0.106,-0.192,0.333,-0.113,-0.239,-0.219
2500,B1_2,-0.547,0.024,0.126,0.485,-0.236,1.0,-0.34,0.41,-0.116,-0.024,0.281,0.309,-0.197,0.287,-0.502,0.621
2500,B1_3,0.116,-0.255,-0.046,0.28,0.44,-0.34,1.0,-0.105,-0.134,0.095,0.242,-0.267,-0.053,-0.537,0.211,-0.354
2500,A2_1,-0.509,0.121,0.34,0.177,0.258,0.41,-0.105,1.0,0.256,0.124,-0.183,0.323,0.104,0.218,-0.183,0.447
2500,A2_2,0.168,0.535,0.17,0.067,-0.363,-0.116,-0.134,0.256,1.0,0.43,-0.088,0.106,-0.419,-0.277,0.185,-0.098
2500,A2_3,-0.228,0.361,0.056,0.222,-0.157,-0.024,0.095,0.124,0.43,1.0,-0.349,0.207,-0.707,-0.373,0.062,0.063
2500,B2_1,0.095,-0.212,-0.044,0.235,-0.106,0.281,0.242,-0.183,-0.088,-0.349,1.0,-0.135,-0.028,-0.11,-0.42,-0.309
2500,B2_2,-0.458,0.474,0.478,-0.148,-0.192,0.309,-0.267,0.323,0.106,0.207,-0.135,1.0,-0.323,0.512,-0.098,0.523
2500,B2_3,0.081,-0.306,0.209,-0.139,0.333,-0.197,-0.053,0.104,-0.419,-0.707,-0.028,-0.323,1.0,0.331,-0.075,-0.231
2500,y1,-0.437,0.321,0.06,-0.542,-0.113,0.287,-0.537,0.218,-0.277,-0.373,-0.11,0.512,0.331,1.0,0.041,0.585
2500,y2,0.381,0.267,-0.504,-0.524,-0.239,-0.502,0.211,-0.183,0.185,0.062,-0.42,-0.098,-0.075,0.041,1.0,0.216
2500,y3,-0.46,0.237,-0.16,-0.137,-0.219,0.621,-0.354,0.447,-0.098,0.063,-0.309,0.523,-0.231,0.585,0.216,1.0
3000,.,1.0,-0.42,-0.257,-0.21,-0.206,-0.544,0.107,-0.523,0.156,-0.236,0.099,-0.45,0.074,-0.431,0.336,-0.449
3000,A1_1,-0.42,1.0,0.147,-0.139,-0.512,0.037,-0.252,0.132,0.545,0.374,-0.206,0.473,-0.315,0.304,0.27,0.256
3000,A1_2,-0.257,0.147,1.0,0.43,0.118,0.133,-0.047,0.347,0.176,0.063,-0.043,0.48,0.204,0.05,-0.539,-0.109
3000,A1_3,-0.21,-0.139,0.43,1.0,0.025,0.487,0.28,0.19,0.077,0.225,0.234,-0.144,-0.138,-0.537,-0.546,-0.168
3000,B1_1,-0.206,-0.512,0.118,0.025,1.0,-0.235,0.441,0.257,-0.363,-0.152,-0.103,-0.192,0.332,-0.118,-0.264,-0.212
3000,B1_2,-0.544,0.037,0.133,0.487,-0.235,1.0,-0.337,0.408,-0.113,-0.023,0.284,0.31,-0.197,0.291,-0.469,0.594
3000,B1_3,0.107,-0.252,-0.047,0.28,0.441,-0.337,1.0,-0.103,-0.136,0.094,0.243,-0.266,-0.053,-0.544,0.191,-0.359
3000,A2_1,-0.523,0.132,0.347,0.19,0.257,0.408,-0.103,1.0,0.263,0.134,-0.186,0.319,0.097,0.205,-0.218,0.506
3000,A2_2,0.156,0.545,0.176,0.077,-0.363,-0.113,-0.136,0.263,1.0,0.435,-0.09,0.104,-0.423,-0.283,0.148,-0.059
3000,A2_3,-0.236,0.374,0.063,0.225,-0.152,-0.023,0.094,0.134,0.435,1.0,-0.349,0.207,-0.705,-0.375,0.101,0.016
3000,B2_1,0.099,-0.206,-0.043,0.234,-0.103,0.284,0.243,-0.186,-0.09,-0.349,1.0,-0.134,-0.026,-0.131,-0.417,-0.304
3000,B2_2,-0.45,0.473,0.48,-0.144,-0.192,0.31,-0.266,0.319,0.104,0.207,-0.134,1.0,-0.326,0.506,-0.064,0.552
3000,B2_3,0.074,-0.315,0.204,-0.138,0.332,-0.197,-0.053,0.097,-0.423,-0.705,-0.026,-0.326,1.0,0.328,-0.136,-0.177
3000,y1,-0.431,0.304,0.05,-0.537,-0.118,0.291,-0.544,0.205,-0.283,-0.375,-0.131,0.506,0.328,1.0,0.087,0.632
3000,y2,0.336,0.27,-0.539,-0.546,-0.264,-0.469,0.191,-0.218,0.148,0.101,-0.417,-0.064,-0.136,0.087,1.0,0.265
3000,y3,-0.449,0.256,-0.109,-0.168,-0.212,0.594,-0.359,0.506,-0.059,0.016,-0.304,0.552,-0.177,0.632,0.265,1.0
3500,.,1.0,-0.425,-0.261,-0.214,-0.211,-0.543,0.104,-0.531,0.145,-0.241,0.101,-0.45,0.073,-0.421,0.305,-0.433
3500,A1_1,-0.425,1.0,0.159,-0.127,-0.513,0.046,-0.251,0.141,0.553,0.381,-0.203,0.472,-0.319,0.295,0.27,0.276
3500,A1_2,-0.261,0.159,1.0,0.436,0.111,0.139,-0.051,0.352,0.183,0.069,-0.043,0.482,0.2,0.05,-0.561,-0.062
3500,A1_3,-0.214,-0.127,0.436,1.0,0.032,0.489,0.279,0.202,0.086,0.227,0.234,-0.141,-0.135,-0.527,-0.564,-0.204
3500,B1_1,-0.211,-0.513,0.111,0.032,1.0,-0.231,0.443,0.255,-0.367,-0.148,-0.098,-0.193,0.33,-0.125,-0.284,-0.211
3500,B1_2,-0.543,0.046,0.139,0.489,-0.231,1.0,-0.335,0.407,-0.109,-0.024,0.287,0.31,-0.196,0.295,-0.438,0.56
3500,B1_3,0.104,-0.251,-0.051,0.279,0.443,-0.335,1.0,-0.102,-0.137,0.094,0.244,-0.265,-0.053,-0.552,0.174,-0.368
3500,A2_1,-0.531,0.141,0.352,0.202,0.255,0.407,-0.102,1.0,0.269,0.14,-0.189,0.314,0.092,0.189,-0.241,0.539
3500,A2_2,0.145,0.553,0.183,0.086,-0.367,-0.109,-0.137,0.269,1.0,0.441,-0.093,0.103,-0.426,-0.286,0.121,-0.021
3500,A2_3,-0.241,0.381,0.069,0.227,-0.148,-0.024,0.094,0.14,0.441,1.0,-0.35,0.205,-0.704,-0.383,0.122,-0.025
3500,B2_1,0.101,-0.203,-0.043,0.234,-0.098,0.287,0.244,-0.189,-0.093,-0.35,1.0,-0.133,-0.024,-0.157,-0.403,-0.296
3500,B2_2,-0.45,0.472,0.482,-0.141,-0.193,0.31,-0.265,0.314,0.103,0.205,-0.133,1.0,-0.328,0.503,-0.036,0.584
3500,B2_3,0.073,-0.319,0.2,-0.135,0.33,-0.196,-0.053,0.092,-0.426,-0.704,-0.024,-0.328,1.0,0.327,-0.18,-0.138
3500,y1,-0.421,0.295,0.05,-0.527,-0.125,0.295,-0.552,0.189,-0.286,-0.383,-0.157,0.503,0.327,1.0,0.128,0.669
3500,y2,0.305,0.27,-0.561,-0.564,-0.284,-0.438,0.174,-0.241,0.121,0.122,-0.403,-0.036,-0.18,0.128,1.0,0.289
3500,y3,-0.433,0.276,-0.062,-0.204,-0.211,0.56,-0.368,0.539,-0.021,-0.025,-0.296,0.584,-0.138,0.669,0.289,1.0
4000,.,1.0,-0.428,-0.263,-0.217,-0.216,-0.546,0.103,-0.542,0.132,-0.246,0.099,-0.447,0.072,-0.409,0.3,-0.425
4000,A1_1,-0.428,1.0,0.163,-0.112,-0.511,0.052,-0.245,0.146,0.561,0.391,-0.202,0.466,-0.327,0.283,0.27,0.281
4000,A1_2,-0.263,0.163,1.0,0.441,0.109,0.141,-0.05,0.353,0.188,0.074,-0.043,0.481,0.197,0.044,-0.565,-0.042
4000,A1_3,-0.217,-0.112,0.441,1.0,0.04,0.489,0.279,0.209,0.095,0.229,0.234,-0.142,-0.133,-0.518,-0.583,-0.234
4000,B1_1,-0.216,-0.511,0.109,0.04,1.0,-0.229,0.445,0.253,-0.372,-0.145,-0.094,-0.193,0.328,-0.131,-0.295,-0.214
4000,B1_2,-0.546,0.052,0.141,0.489,-0.229,1.0,-0.333,0.405,-0.104,-0.023,0.29,0.311,-0.195,0.297,-0.432,0.538
4000,B1_3,0.103,-0.245,-0.05,0.279,0.445,-0.333,1.0,-0.101,-0.14,0.093,0.245,-0.264,-0.053,-0.554,0.164,-0.378
4000,A2_1,-0.542,0.146,0.353,0.209,0.253,0.405,-0.101,1.0,0.275,0.148,-0.191,0.309,0.086,0.177,-0.245,0.543
4000,A2_2,0.132,0.561,0.188,0.095,-0.372,-0.104,-0.14,0.275,1.0,0.448,-0.096,0.104,-0.43,-0.282,0.114,-0.007
4000,A2_3,-0.246,0.391,0.074,0.229,-0.145,-0.023,0.093,0.148,0.448,1.0,-0.35,0.205,-0.703,-0.387,0.121,-0.042
4000,B2_1,0.099,-0.202,-0.043,0.234,-0.094,0.29,0.245,-0.191,-0.096,-0.35,1.0,-0.133,-0.023,-0.181,-0.389,-0.288
4000,B2_2,-0.447,0.466,0.481,-0.142,-0.193,0.311,-0.264,0.309,0.104,0.205,-0.133,1.0,-0.331,0.496,-0.015,0.608
4000,B2_3,0.072,-0.327,0.197,-0.133,0.328,-0.195,-0.053,0.086,-0.43,-0.703,-0.023,-0.331,1.0,0.323,-0.195,-0.126
4000,y1,-0.409,0.283,0.044,-0.518,-0.131,0.297,-0.554,0.177,-0.282,-0.387,-0.181,0.496,0.323,1.0,0.16,0.695
4000,y2,0.3,0.27,-0.565,-0.583,-0.295,-0.432,0.164,-0.245,0.114,0.121,-0.389,-0.015,-0.195,0.16,1.0,0.297
4000,y3,-0.425,0.281,-0.042,-0.234,-0.214,0.538,-0.378,0.543,-0.007,-0.042,-0.288,0.608,-0.126,0.695,0.297,1.0
4500,.,1.0,-0.431,-0.267,-0.219,-0.22,-0.545,0.101,-0.546,0.127,-0.249,0.1,-0.447,0.071,-0.395,0.295,-0.422
4500,A1_1,-0.431,1.0,0.172,-0.105,-0.511,0.057,-0.243,0.152,0.565,0.398,-0.2,0.463,-0.33,0.276,0.282,0.285
4500,A1_2,-0.267,0.172,1.0,0.443,0.104,0.146,-0.051,0.357,0.191,0.08,-0.043,0.482,0.194,0.048,-0.549,-0.027
4500,A1_3,-0.219,-0.105,0.443,1.0,0.049,0.491,0.278,0.22,0.102,0.231,0.234,-0.143,-0.13,-0.507,-0.612,-0.251
4500,B1_1,-0.22,-0.511,0.104,0.049,1.0,-0.225,0.447,0.253,-0.37,-0.142,-0.089,-0.194,0.327,-0.138,-0.302,-0.218
4500,B1_2,-0.545,0.057,0.146,0.491,-0.225,1.0,-0.331,0.403,-0.104,-0.023,0.292,0.311,-0.194,0.298,-0.441,0.525
4500,B1_3,0.101,-0.243,-0.051,0.278,0.447,-0.331,1.0,-0.098,-0.139,0.093,0.246,-0.263,-0.053,-0.557,0.155,-0.386
4500,A2_1,-0.546,0.152,0.357,0.22,0.253,0.403,-0.098,1.0,0.277,0.155,-0.194,0.303,0.081,0.165,-0.238,0.535
4500,A2_2,0.127,0.565,0.191,0.102,-0.37,-0.104,-0.139,0.277,1.0,0.454,-0.101,0.098,-0.435,-0.278,0.124,-0.008
4500,A2_3,-0.249,0.398,0.08,0.231,-0.142,-0.023,0.093,0.155,0.454,1.0,-0.351,0.204,-0.702,-0.394,0.119,-0.044
4500,B2_1,0.1,-0.2,-0.043,0.234,-0.089,0.292,0.246,-0.194,-0.101,-0.351,1.0,-0.132,-0.021,-0.201,-0.376,-0.287
4500,B2_2,-0.447,0.463,0.482,-0.143,-0.194,0.311,-0.263,0.303,0.098,0.204,-0.132,1.0,-0.333,0.493,0.018,0.627
4500,B2_3,0.071,-0.33,0.194,-0.13,0.327,-0.194,-0.053,0.081,-0.435,-0.702,-0.021,-0.333,1.0,0.319,-0.201,-0.128
4500,y1,-0.395,0.276,0.048,-0.507,-0.138,0.298,-0.557,0.165,-0.278,-0.394,-0.201,0.493,0.319,1.0,0.186,0.712
4500,y2,0.295,0.282,-0.549,-0.612,-0.302,-0.441,0.155,-0.238,0.124,0.119,-0.376,0.018,-0.201,0.186,1.0,0.304
4500,y3,-0.422,0.285,-0.027,-0.251,-0.218,0.525,-0.386,0.535,-0.008,-0.044,-0.287,0.627,-0.128,0.712,0.304,1.0
5000,.,1.0,-0.435,-0.268,-0.223,-0.22,-0.548,0.099,-0.549,0.119,-0.252,0.097,-0.446,0.072,-0.386,0.286,-0.42
5000,A1_1,-0.435,1.0,0.18,-0.095,-0.51,0.061,-0.24,0.157,0.57,0.406,-0.198,0.46,-0.332,0.273,0.287,0.292
5000,A1_2,-0.268,0.18,1.0,0.446,0.102,0.148,-0.052,0.358,0.195,0.085,-0.043,0.482,0.192,0.052,-0.534,-0.017
5000,A1_3,-0.223,-0.095,0.446,1.0,0.056,0.492,0.277,0.227,0.108,0.233,0.233,-0.143,-0.127,-0.495,-0.634,-0.267
5000,B1_1,-0.22,-0.51,0.102,0.056,1.0,-0.222,0.449,0.254,-0.369,-0.141,-0.085,-0.195,0.325,-0.146,-0.303,-0.22
5000,B1_2,-0.548,0.061,0.148,0.492,-0.222,1.0,-0.329,0.401,-0.103,-0.022,0.294,0.311,-0.193,0.3,-0.45,0.509
5000,B1_3,0.099,-0.24,-0.052,0.277,0.449,-0.329,1.0,-0.096,-0.139,0.092,0.246,-0.263,-0.053,-0.558,0.152,-0.388
5000,A2_1,-0.549,0.157,0.358,0.227,0.254,0.401,-0.096,1.0,0.281,0.16,-0.197,0.297,0.078,0.163,-0.236,0.529
5000,A2_2,0.119,0.57,0.195,0.108,-0.369,-0.103,-0.139,0.281,1.0,0.46,-0.104,0.095,-0.438,-0.268,0.12,0.001
5000,A2_3,-0.252,0.406,0.085,0.233,-0.141,-0.022,0.092,0.16,0.46,1.0,-0.351,0.204,-0.7,-0.397,0.118,-0.047
5000,B2_1,0.097,-0.198,-0.043,0.233,-0.085,0.294,0.246,-0.197,-0.104,-0.351,1.0,-0.132,-0.019,-0.214,-0.37,-0.288
5000,B2_2,-0.446,0.46,0.482,-0.143,-0.195,0.311,-0.263,0.297,0.095,0.204,-0.132,1.0,-0.335,0.489,0.046,0.639
5000,B2_3,0.072,-0.332,0.192,-0.127,0.325,-0.193,-0.053,0.078,-0.438,-0.7,-0.019,-0.335,1.0,0.318,-0.203,-0.129
5000,y1,-0.386,0.273,0.052,-0.495,-0.146,0.3,-0.558,0.163,-0.268,-0.397,-0.214,0.489,0.318,1.0,0.204,0.726
5000,y2,0.286,0.287,-0.534,-0.634,-0.303,-0.45,0.152,-0.236,0.12,0.118,-0.37,0.046,-0.203,0.204,1.0,0.316
5000,y3,-0.42,0.292,-0.017,-0.267,-0.22,0.509,-0.388,0.529,0.001,-0.047,-0.288,0.639,-0.129,0.726,0.316,1.0
5500,.,1.0,-0.439,-0.271,-0.225,-0.221,-0.549,0.097,-0.552,0.112,-0.253,0.095,-0.447,0.073,-0.379,0.282,-0.421
5500,A1_1,-0.439,1.0,0.19,-0.084,-0.511,0.066,-0.237,0.164,0.575,0.413,-0.197,0.458,-0.334,0.275,0.29,0.296
5500,A1_2,-0.271,0.19,1.0,0.45,0.099,0.151,-0.052,0.361,0.198,0.09,-0.044,0.482,0.189,0.056,-0.514,-0.008
5500,A1_3,-0.225,-0.084,0.45,1.0,0.062,0.493,0.276,0.232,0.114,0.236,0.232,-0.143,-0.125,-0.487,-0.652,-0.28
5500,B1_1,-0.221,-0.511,0.099,0.062,1.0,-0.219,0.452,0.252,-0.369,-0.139,-0.08,-0.195,0.324,-0.155,-0.303,-0.222
5500,B1_2,-0.549,0.066,0.151,0.493,-0.219,1.0,-0.327,0.399,-0.102,-0.021,0.296,0.311,-0.192,0.3,-0.46,0.495
5500,B1_3,0.097,-0.237,-0.052,0.276,0.452,-0.327,1.0,-0.096,-0.139,0.092,0.247,-0.262,-0.053,-0.558,0.15,-0.393
5500,A2_1,-0.552,0.164,0.361,0.232,0.252,0.399,-0.096,1.0,0.285,0.164,-0.199,0.294,0.076,0.166,-0.234,0.522
5500,A2_2,0.112,0.575,0.198,0.114,-0.369,-0.102,-0.139,0.285,1.0,0.465,-0.107,0.093,-0.44,-0.25,0.121,-0.002
5500,A2_3,-0.253,0.413,0.09,0.236,-0.139,-0.021,0.092,0.164,0.465,1.0,-0.352,0.203,-0.7,-0.397,0.114,-0.043
5500,B2_1,0.095,-0.197,-0.044,0.232,-0.08,0.296,0.247,-0.199,-0.107,-0.352,1.0,-0.132,-0.018,-0.224,-0.364,-0.297
5500,B2_2,-0.447,0.458,0.482,-0.143,-0.195,0.311,-0.262,0.294,0.093,0.203,-0.132,1.0,-0.337,0.487,0.076,0.649
5500,B2_3,0.073,-0.334,0.189,-0.125,0.324,-0.192,-0.053,0.076,-0.44,-0.7,-0.018,-0.337,1.0,0.313,-0.208,-0.128
5500,y1,-0.379,0.275,0.056,-0.487,-0.155,0.3,-0.558,0.166,-0.25,-0.397,-0.224,0.487,0.313,1.0,0.22,0.739
5500,y2,0.282,0.29,-0.514,-0.652,-0.303,-0.46,0.15,-0.234,0.121,0.114,-0.364,0.076,-0.208,0.22,1.0,0.328
5500,y3,-0.421,0.296,-0.008,-0.28,-0.222,0.495,-0.393,0.522,-0.002,-0.043,-0.297,0.649,-0.128,0.739,0.328,1.0
6000,.,1.0,-0.445,-0.273,-0.227,-0.221,-0.548,0.094,-0.555,0.103,-0.257,0.094,-0.447,0.073,-0.364,0.261,-0.421
6000,A1_1,-0.445,1.0,0.197,-0.075,-0.511,0.07,-0.236,0.171,0.581,0.419,-0.195,0.457,-0.335,0.278,0.3,0.304
6000,A1_2,-0.273,0.197,1.0,0.454,0.098,0.152,-0.052,0.363,0.203,0.096,-0.044,0.481,0.188,0.056,-0.493,-0.001
6000,A1_3,-0.227,-0.075,0.454,1.0,0.065,0.494,0.276,0.238,0.12,0.238,0.231,-0.141,-0.123,-0.482,-0.663,-0.294
6000,B1_1,-0.221,-0.511,0.098,0.065,1.0,-0.217,0.453,0.251,-0.371,-0.139,-0.078,-0.195,0.322,-0.165,-0.295,-0.223
6000,B1_2,-0.548,0.07,0.152,0.494,-0.217,1.0,-0.325,0.397,-0.1,-0.019,0.298,0.311,-0.192,0.291,-0.465,0.479
6000,B1_3,0.094,-0.236,-0.052,0.276,0.453,-0.325,1.0,-0.095,-0.139,0.09,0.247,-0.262,-0.053,-0.561,0.158,-0.396
6000,A2_1,-0.555,0.171,0.363,0.238,0.251,0.397,-0.095,1.0,0.289,0.171,-0.2,0.291,0.074,0.159,-0.224,0.517
6000,A2_2,0.103,0.581,0.203,0.12,-0.371,-0.1,-0.139,0.289,1.0,0.471,-0.11,0.093,-0.441,-0.234,0.12,0.003
6000,A2_3,-0.257,0.419,0.096,0.238,-0.139,-0.019,0.09,0.171,0.471,1.0,-0.352,0.205,-0.698,-0.393,0.112,-0.039
6000,B2_1,0.094,-0.195,-0.044,0.231,-0.078,0.298,0.247,-0.2,-0.11,-0.352,1.0,-0.131,-0.017,-0.244,-0.352,-0.304
6000,B2_2,-0.447,0.457,0.481,-0.141,-0.195,0.311,-0.262,0.291,0.093,0.205,-0.131,1.0,-0.338,0.48,0.107,0.657
6000,B2_3,0.073,-0.335,0.188,-0.123,0.322,-0.192,-0.053,0.074,-0.441,-0.698,-0.017,-0.338,1.0,0.31,-0.21,-0.126
6000,y1,-0.364,0.278,0.056,-0.482,-0.165,0.291,-0.561,0.159,-0.234,-0.393,-0.244,0.48,0.31,1.0,0.241,0.747
6000,y2,0.261,0.3,-0.493,-0.663,-0.295,-0.465,0.158,-0.224,0.12,0.112,-0.352,0.107,-0.21,0.241,1.0,0.345
6000,y3,-0.421,0.304,-0.001,-0.294,-0.223,0.479,-0.396,0.517,0.003,-0.039,-0.304,0.657,-0.126,0.747,0.345,1.0
6500,.,1.0,-0.448,-0.275,-0.229,-0.222,-0.55,0.093,-0.558,0.098,-0.259,0.093,-0.448,0.072,-0.356,0.235,-0.41
6500,A1_1,-0.448,1.0,0.199,-0.074,-0.51,0.072,-0.235,0.176,0.582,0.425,-0.195,0.455,-0.335,0.283,0.313,0.303
6500,A1_2,-0.275,0.199,1.0,0.455,0.1,0.152,-0.05,0.363,0.203,0.101,-0.045,0.479,0.188,0.062,-0.472,-0.009
6500,A1_3,-0.229,-0.074,0.455,1.0,0.072,0.495,0.275,0.243,0.124,0.239,0.231,-0.143,-0.121,-0.48,-0.673,-0.307
6500,B1_1,-0.222,-0.51,0.1,0.072,1.0,-0.215,0.455,0.249,-0.369,-0.141,-0.074,-0.195,0.321,-0.173,-0.283,-0.232
6500,B1_2,-0.55,0.072,0.152,0.495,-0.215,1.0,-0.324,0.396,-0.1,-0.017,0.299,0.312,-0.191,0.281,-0.461,0.467
6500,B1_3,0.093,-0.235,-0.05,0.275,0.455,-0.324,1.0,-0.094,-0.139,0.088,0.248,-0.261,-0.053,-0.564,0.171,-0.404
6500,A2_1,-0.558,0.176,0.363,0.243,0.249,0.396,-0.094,1.0,0.291,0.176,-0.201,0.289,0.071,0.161,-0.21,0.506
6500,A2_2,0.098,0.582,0.203,0.124,-0.369,-0.1,-0.139,0.291,1.0,0.476,-0.113,0.089,-0.443,-0.22,0.119,0.002
6500,A2_3,-0.259,0.425,0.101,0.239,-0.141,-0.017,0.088,0.176,0.476,1.0,-0.352,0.207,-0.697,-0.387,0.113,-0.039
6500,B2_1,0.093,-0.195,-0.045,0.231,-0.074,0.299,0.248,-0.201,-0.113,-0.352,1.0,-0.131,-0.016,-0.259,-0.333,-0.312
6500,B2_2,-0.448,0.455,0.479,-0.143,-0.195,0.312,-0.261,0.289,0.089,0.207,-0.131,1.0,-0.339,0.475,0.142,0.656
6500,B2_3,0.072,-0.335,0.188,-0.121,0.321,-0.191,-0.053,0.071,-0.443,-0.697,-0.016,-0.339,1.0,0.315,-0.218,-0.125
6500,y1,-0.356,0.283,0.062,-0.48,-0.173,0.281,-0.564,0.161,-0.22,-0.387,-0.259,0.475,0.315,1.0,0.257,0.751
6500,y2,0.235,0.313,-0.472,-0.673,-0.283,-0.461,0.171,-0.21,0.119,0.113,-0.333,0.142,-0.218,0.257,1.0,0.366
6500,y3,-0.41,0.303,-0.009,-0.307,-0.232,0.467,-0.404,0.506,0.002,-0.039,-0.312,0.656,-0.125,0.751,0.366,1.0
7000,.,1.0,-0.45,-0.277,-0.228,-0.223,-0.549,0.091,-0.561,0.094,-0.26,0.092,-0.448,0.071,-0.351,0.223,-0.412
7000,A1_1,-0.45,1.0,0.206,-0.064,-0.511,0.075,-0.228,0.177,0.584,0.432,-0.194,0.452,-0.339,0.29,0.311,0.317
7000,A1_2,-0.277,0.206,1.0,0.455,0.098,0.154,-0.05,0.364,0.205,0.104,-0.045,0.479,0.186,0.066,-0.453,0.005
7000,A1_3,-0.228,-0.064,0.455,1.0,0.078,0.495,0.274,0.247,0.128,0.24,0.231,-0.145,-0.12,-0.475,-0.681,-0.326
7000,B1_1,-0.223,-0.511,0.098,0.078,1.0,-0.213,0.456,0.25,-0.368,-0.14,-0.072,-0.195,0.321,-0.185,-0.275,-0.236
7000,B1_2,-0.549,0.075,0.154,0.495,-0.213,1.0,-0.322,0.394,-0.1,-0.017,0.301,0.312,-0.191,0.278,-0.466,0.445
7000,B1_3,0.091,-0.228,-0.05,0.274,0.456,-0.322,1.0,-0.092,-0.137,0.089,0.248,-0.26,-0.053,-0.563,0.177,-0.408
7000,A2_1,-0.561,0.177,0.364,0.247,0.25,0.394,-0.092,1.0,0.292,0.179,-0.203,0.285,0.069,0.161,-0.208,0.504
7000,A2_2,0.094,0.584,0.205,0.128,-0.368,-0.1,-0.137,0.292,1.0,0.479,-0.116,0.086,-0.446,-0.194,0.108,0.016
7000,A2_3,-0.26,0.432,0.104,0.24,-0.14,-0.017,0.089,0.179,0.479,1.0,-0.352,0.206,-0.696,-0.379,0.112,-0.028
7000,B2_1,0.092,-0.194,-0.045,0.231,-0.072,0.301,0.248,-0.203,-0.116,-0.352,1.0,-0.13,-0.016,-0.266,-0.329,-0.321
7000,B2_2,-0.448,0.452,0.479,-0.145,-0.195,0.312,-0.26,0.285,0.086,0.206,-0.13,1.0,-0.339,0.473,0.167,0.668
7000,B2_3,0.071,-0.339,0.186,-0.12,0.321,-0.191,-0.053,0.069,-0.446,-0.696,-0.016,-0.339,1.0,0.303,-0.219,-0.128
7000,y1,-0.351,0.29,0.066,-0.475,-0.185,0.278,-0.563,0.161,-0.194,-0.379,-0.266,0.473,0.303,1.0,0.268,0.759
7000,y2,0.223,0.311,-0.453,-0.681,-0.275,-0.466,0.177,-0.208,0.108,0.112,-0.329,0.167,-0.219,0.268,1.0,0.384
7000,y3,-0.412,0.317,0.005,-0.326,-0.236,0.445,-0.408,0.504,0.016,-0.028,-0.321,0.668,-0.128,0.759,0.384,1.0
7500,.,1.0,-0.453,-0.279,-0.23,-0.224,-0.548,0.087,-0.564,0.088,-0.265,0.091,-0.447,0.071,-0.345,0.206,-0.404
7500,A1_1,-0.453,1.0,0.213,-0.059,-0.512,0.078,-0.225,0.178,0.587,0.438,-0.193,0.451,-0.341,0.296,0.312,0.322
7500,A1_2,-0.279,0.213,1.0,0.457,0.094,0.157,-0.051,0.364,0.209,0.11,-0.046,0.48,0.185,0.076,-0.436,0.007
7500,A1_3,-0.23,-0.059,0.457,1.0,0.083,0.496,0.273,0.253,0.13,0.241,0.23,-0.146,-0.118,-0.474,-0.686,-0.334
7500,B1_1,-0.224,-0.512,0.094,0.083,1.0,-0.211,0.457,0.254,-0.368,-0.14,-0.069,-0.195,0.32,-0.189,-0.263,-0.244
7500,B1_2,-0.548,0.078,0.157,0.496,-0.211,1.0,-0.321,0.392,-0.1,-0.016,0.302,0.312,-0.191,0.266,-0.464,0.432
7500,B1_3,0.087,-0.225,-0.051,0.273,0.457,-0.321,1.0,-0.09,-0.138,0.088,0.249,-0.26,-0.054,-0.563,0.188,-0.413
7500,A2_1,-0.564,0.178,0.364,0.253,0.254,0.392,-0.09,1.0,0.293,0.184,-0.206,0.279,0.067,0.162,-0.201,0.497
7500,A2_2,0.088,0.587,0.209,0.13,-0.368,-0.1,-0.138,0.293,1.0,0.482,-0.118,0.085,-0.447,-0.177,0.101,0.026
7500,A2_3,-0.265,0.438,0.11,0.241,-0.14,-0.016,0.088,0.184,0.482,1.0,-0.353,0.207,-0.695,-0.371,0.104,-0.02
7500,B2_1,0.091,-0.193,-0.046,0.23,-0.069,0.302,0.249,-0.206,-0.118,-0.353,1.0,-0.129,-0.015,-0.277,-0.318,-0.334
7500,B2_2,-0.447,0.451,0.48,-0.146,-0.195,0.312,-0.26,0.279,0.085,0.207,-0.129,1.0,-0.339,0.473,0.191,0.666
7500,B2_3,0.071,-0.341,0.185,-0.118,0.32,-0.191,-0.054,0.067,-0.447,-0.695,-0.015,-0.339,1.0,0.304,-0.22,-0.129
7500,y1,-0.345,0.296,0.076,-0.474,-0.189,0.266,-0.563,0.162,-0.177,-0.371,-0.277,0.473,0.304,1.0,0.281,0.76
7500,y2,0.206,0.312,-0.436,-0.686,-0.263,-0.464,0.188,-0.201,0.101,0.104,-0.318,0.191,-0.22,0.281,1.0,0.403
7500,y3,-0.404,0.322,0.007,-0.334,-0.244,0.432,-0.413,0.497,0.026,-0.02,-0.334,0.666,-0.129,0.76,0.403,1.0
8000,.,1.0,-0.456,-0.282,-0.232,-0.225,-0.547,0.084,-0.567,0.083,-0.267,0.09,-0.447,0.071,-0.342,0.184,-0.388
8000,A1_1,-0.456,1.0,0.217,-0.055,-0.511,0.08,-0.224,0.182,0.588,0.44,-0.192,0.45,-0.34,0.309,0.315,0.328
8000,A1_2,-0.282,0.217,1.0,0.459,0.093,0.158,-0.051,0.366,0.209,0.111,-0.046,0.48,0.184,0.086,-0.417,0.009
8000,A1_3,-0.232,-0.055,0.459,1.0,0.085,0.497,0.272,0.258,0.135,0.243,0.23,-0.144,-0.117,-0.475,-0.685,-0.349
8000,B1_1,-0.225,-0.511,0.093,0.085,1.0,-0.21,0.459,0.254,-0.366,-0.138,-0.067,-0.194,0.319,-0.201,-0.249,-0.248
8000,B1_2,-0.547,0.08,0.158,0.497,-0.21,1.0,-0.32,0.391,-0.1,-0.016,0.303,0.312,-0.19,0.258,-0.459,0.406
8000,B1_3,0.084,-0.224,-0.051,0.272,0.459,-0.32,1.0,-0.089,-0.136,0.087,0.249,-0.259,-0.054,-0.57,0.203,-0.417
8000,A2_1,-0.567,0.182,0.366,0.258,0.254,0.391,-0.089,1.0,0.294,0.186,-0.207,0.277,0.065,0.164,-0.191,0.485
8000,A2_2,0.083,0.588,0.209,0.135,-0.366,-0.1,-0.136,0.294,1.0,0.485,-0.121,0.08,-0.449,-0.161,0.091,0.035
8000,A2_3,-0.267,0.44,0.111,0.243,-0.138,-0.016,0.087,0.186,0.485,1.0,-0.353,0.206,-0.695,-0.357,0.102,-0.022
8000,B2_1,0.09,-0.192,-0.046,0.23,-0.067,0.303,0.249,-0.207,-0.121,-0.353,1.0,-0.128,-0.015,-0.285,-0.303,-0.355
8000,B2_2,-0.447,0.45,0.48,-0.144,-0.194,0.312,-0.259,0.277,0.08,0.206,-0.128,1.0,-0.339,0.478,0.215,0.662
8000,B2_3,0.071,-0.34,0.184,-0.117,0.319,-0.19,-0.054,0.065,-0.449,-0.695,-0.015,-0.339,1.0,0.297,-0.223,-0.124
8000,y1,-0.342,0.309,0.086,-0.475,-0.201,0.258,-0.57,0.164,-0.161,-0.357,-0.285,0.478,0.297,1.0,0.286,0.769
8000,y2,0.184,0.315,-0.417,-0.685,-0.249,-0.459,0.203,-0.191,0.091,0.102,-0.303,0.215,-0.223,0.286,1.0,0.425
8000,y3,-0.388,0.328,0.009,-0.349,-0.248,0.406,-0.417,0.485,0.035,-0.022,-0.355,0.662,-0.124,0.769,0.425,1.0
8500,.,1.0,-0.46,-0.285,-0.233,-0.227,-0.545,0.08,-0.569,0.078,-0.27,0.09,-0.448,0.07,-0.33,0.163,-0.385
8500,A1_1,-0.46,1.0,0.219,-0.055,-0.508,0.08,-0.223,0.184,0.59,0.445,-0.193,0.447,-0.341,0.316,0.32,0.336
8500,A1_2,-0.285,0.219,1.0,0.46,0.092,0.159,-0.05,0.367,0.212,0.116,-0.047,0.481,0.183,0.087,-0.398,0.017
8500,A1_3,-0.233,-0.055,0.46,1.0,0.091,0.498,0.272,0.263,0.138,0.244,0.229,-0.146,-0.116,-0.479,-0.681,-0.362
8500,B1_1,-0.227,-0.508,0.092,0.091,1.0,-0.208,0.46,0.254,-0.367,-0.14,-0.065,-0.193,0.319,-0.211,-0.234,-0.252
8500,B1_2,-0.545,0.08,0.159,0.498,-0.208,1.0,-0.318,0.391,-0.099,-0.015,0.304,0.313,-0.19,0.25,-0.456,0.387
8500,B1_3,0.08,-0.223,-0.05,0.272,0.46,-0.318,1.0,-0.087,-0.137,0.087,0.249,-0.257,-0.054,-0.573,0.217,-0.422
8500,A2_1,-0.569,0.184,0.367,0.263,0.254,0.391,-0.087,1.0,0.296,0.19,-0.208,0.275,0.063,0.162,-0.185,0.485
8500,A2_2,0.078,0.59,0.212,0.138,-0.367,-0.099,-0.137,0.296,1.0,0.488,-0.123,0.079,-0.45,-0.14,0.086,0.044
8500,A2_3,-0.27,0.445,0.116,0.244,-0.14,-0.015,0.087,0.19,0.488,1.0,-0.354,0.206,-0.694,-0.355,0.104,-0.012
8500,B2_1,0.09,-0.193,-0.047,0.229,-0.065,0.304,0.249,-0.208,-0.123,-0.354,1.0,-0.127,-0.015,-0.288,-0.299,-0.369
8500,B2_2,-0.448,0.447,0.481,-0.146,-0.193,0.313,-0.257,0.275,0.079,0.206,-0.127,1.0,-0.339,0.475,0.235,0.664
8500,B2_3,0.07,-0.341,0.183,-0.116,0.319,-0.19,-0.054,0.063,-0.45,-0.694,-0.015,-0.339,1.0,0.294,-0.227,-0.119
8500,y1,-0.33,0.316,0.087,-0.479,-0.211,0.25,-0.573,0.162,-0.14,-0.355,-0.288,0.475,0.294,1.0,0.294,0.773
8500,y2,0.163,0.32,-0.398,-0.681,-0.234,-0.456,0.217,-0.185,0.086,0.104,-0.299,0.235,-0.227,0.294,1.0,0.437
8500,y3,-0.385,0.336,0.017,-0.362,-0.252,0.387,-0.422,0.485,0.044,-0.012,-0.369,0.664,-0.119,0.773,0.437,1.0
9000,.,1.0,-0.463,-0.293,-0.243,-0.225,-0.552,0.081,-0.579,0.066,-0.278,0.09,-0.457,0.069,-0.331,0.158,-0.386
9000,A1_1,-0.463,1.0,0.229,-0.037,-0.509,0.089,-0.222,0.196,0.597,0.449,-0.183,0.444,-0.344,0.307,0.303,0.337
9000,A1_2,-0.293,0.229,1.0,0.465,0.091,0.161,-0.049,0.371,0.218,0.12,-0.043,0.483,0.18,0.08,-0.384,0.019
9000,A1_3,-0.243,-0.037,0.465,1.0,0.093,0.498,0.271,0.271,0.148,0.25,0.231,-0.139,-0.115,-0.476,-0.68,-0.373
9000,B1_1,-0.225,-0.509,0.091,0.093,1.0,-0.202,0.463,0.255,-0.365,-0.139,-0.058,-0.186,0.321,-0.215,-0.218,-0.252
9000,B1_2,-0.552,0.089,0.161,0.498,-0.202,1.0,-0.312,0.39,-0.098,-0.014,0.309,0.316,-0.185,0.249,-0.456,0.373
9000,B1_3,0.081,-0.222,-0.049,0.271,0.463,-0.312,1.0,-0.084,-0.138,0.085,0.252,-0.25,-0.051,-0.573,0.223,-0.425
9000,A2_1,-0.579,0.196,0.371,0.271,0.255,0.39,-0.084,1.0,0.306,0.198,-0.205,0.277,0.059,0.162,-0.178,0.474
9000,A2_2,0.066,0.597,0.218,0.148,-0.365,-0.098,-0.138,0.306,1.0,0.492,-0.123,0.07,-0.451,-0.141,0.069,0.046
9000,A2_3,-0.278,0.449,0.12,0.25,-0.139,-0.014,0.085,0.198,0.492,1.0,-0.352,0.2,-0.695,-0.348,0.088,-0.007
9000,B2_1,0.09,-0.183,-0.043,0.231,-0.058,0.309,0.252,-0.205,-0.123,-0.352,1.0,-0.12,-0.011,-0.297,-0.303,-0.377
9000,B2_2,-0.457,0.444,0.483,-0.139,-0.186,0.316,-0.25,0.277,0.07,0.2,-0.12,1.0,-0.334,0.465,0.243,0.667
9000,B2_3,0.069,-0.344,0.18,-0.115,0.321,-0.185,-0.051,0.059,-0.451,-0.695,-0.011,-0.334,1.0,0.296,-0.218,-0.122
9000,y1,-0.331,0.307,0.08,-0.476,-0.215,0.249,-0.573,0.162,-0.141,-0.348,-0.297,0.465,0.296,1.0,0.304,0.78
9000,y2,0.158,0.303,-0.384,-0.68,-0.218,-0.456,0.223,-0.178,0.069,0.088,-0.303,0.243,-0.218,0.304,1.0,0.452
9000,y3,-0.386,0.337,0.019,-0.373,-0.252,0.373,-0.425,0.474,0.046,-0.007,-0.377,0.667,-0.122,0.78,0.452,1.0
9500,.,1.0,-0.466,-0.293,-0.242,-0.226,-0.551,0.077,-0.582,0.061,-0.281,0.09,-0.456,0.066,-0.33,0.146,-0.384
9500,A1_1,-0.466,1.0,0.233,-0.036,-0.51,0.091,-0.221,0.198,0.599,0.452,-0.182,0.444,-0.345,0.322,0.301,0.344
9500,A1_2,-0.293,0.233,1.0,0.464,0.09,0.161,-0.049,0.37,0.22,0.123,-0.043,0.485,0.179,0.088,-0.37,0.024
9500,A1_3,-0.242,-0.036,0.464,1.0,0.098,0.498,0.271,0.272,0.151,0.251,0.23,-0.14,-0.114,-0.479,-0.68,-0.375
9500,B1_1,-0.226,-0.51,0.09,0.098,1.0,-0.201,0.464,0.256,-0.365,-0.14,-0.056,-0.183,0.321,-0.218,-0.208,-0.259
9500,B1_2,-0.551,0.091,0.161,0.498,-0.201,1.0,-0.311,0.388,-0.098,-0.013,0.31,0.316,-0.185,0.235,-0.459,0.365
9500,B1_3,0.077,-0.221,-0.049,0.271,0.464,-0.311,1.0,-0.084,-0.138,0.084,0.253,-0.247,-0.051,-0.569,0.23,-0.428
9500,A2_1,-0.582,0.198,0.37,0.272,0.256,0.388,-0.084,1.0,0.308,0.201,-0.206,0.274,0.058,0.165,-0.18,0.474
9500,A2_2,0.061,0.599,0.22,0.151,-0.365,-0.098,-0.138,0.308,1.0,0.494,-0.125,0.068,-0.452,-0.118,0.06,0.056
9500,A2_3,-0.281,0.452,0.123,0.251,-0.14,-0.013,0.084,0.201,0.494,1.0,-0.352,0.2,-0.694,-0.334,0.089,0.003
9500,B2_1,0.09,-0.182,-0.043,0.23,-0.056,0.31,0.253,-0.206,-0.125,-0.352,1.0,-0.116,-0.01,-0.304,-0.307,-0.383
9500,B2_2,-0.456,0.444,0.485,-0.14,-0.183,0.316,-0.247,0.274,0.068,0.2,-0.116,1.0,-0.333,0.463,0.256,0.665
9500,B2_3,0.066,-0.345,0.179,-0.114,0.321,-0.185,-0.051,0.058,-0.452,-0.694,-0.01,-0.333,1.0,0.291,-0.218,-0.124
9500,y1,-0.33,0.322,0.088,-0.479,-0.218,0.235,-0.569,0.165,-0.118,-0.334,-0.304,0.463,0.291,1.0,0.313,0.778
9500,y2,0.146,0.301,-0.37,-0.68,-0.208,-0.459,0.23,-0.18,0.06,0.089,-0.307,0.256,-0.218,0.313,1.0,0.456
9500,y3,-0.384,0.344,0.024,-0.375,-0.259,0.365,-0.428,0.474,0.056,0.003,-0.383,0.665,-0.124,0.778,0.456,1.0
10000,.,1.0,-0.469,-0.294,-0.242,-0.227,-0.547,0.074,-0.585,0.058,-0.283,0.091,-0.455,0.063,-0.324,0.127,-0.374
10000,A1_1,-0.469,1.0,0.238,-0.032,-0.51,0.094,-0.219,0.2,0.599,0.456,-0.182,0.443,-0.346,0.331,0.302,0.351
10000,A1_2,-0.294,0.238,1.0,0.465,0.089,0.162,-0.049,0.37,0.222,0.127,-0.043,0.487,0.178,0.094,-0.358,0.025
10000,A1_3,-0.242,-0.032,0.465,1.0,0.101,0.499,0.271,0.276,0.151,0.252,0.23,-0.137,-0.114,-0.484,-0.672,-0.387
10000,B1_1,-0.227,-0.51,0.089,0.101,1.0,-0.2,0.465,0.258,-0.363,-0.14,-0.053,-0.178,0.321,-0.229,-0.195,-0.264
10000,B1_2,-0.547,0.094,0.162,0.499,-0.2,1.0,-0.31,0.387,-0.097,-0.012,0.312,0.317,-0.185,0.225,-0.455,0.344
10000,B1_3,0.074,-0.219,-0.049,0.271,0.465,-0.31,1.0,-0.082,-0.14,0.082,0.254,-0.244,-0.05,-0.576,0.247,-0.431
10000,A2_1,-0.585,0.2,0.37,0.276,0.258,0.387,-0.082,1.0,0.31,0.204,-0.207,0.272,0.057,0.16,-0.171,0.467
10000,A2_2,0.058,0.599,0.222,0.151,-0.363,-0.097,-0.14,0.31,1.0,0.495,-0.127,0.065,-0.451,-0.1,0.052,0.069
10000,A2_3,-0.283,0.456,0.127,0.252,-0.14,-0.012,0.082,0.204,0.495,1.0,-0.353,0.199,-0.693,-0.32,0.09,0.008
10000,B2_1,0.091,-0.182,-0.043,0.23,-0.053,0.312,0.254,-0.207,-0.127,-0.353,1.0,-0.111,-0.009,-0.31,-0.3,-0.398
10000,B2_2,-0.455,0.443,0.487,-0.137,-0.178,0.317,-0.244,0.272,0.065,0.199,-0.111,1.0,-0.331,0.466,0.262,0.655
10000,B2_3,0.063,-0.346,0.178,-0.114,0.321,-0.185,-0.05,0.057,-0.451,-0.693,-0.009,-0.331,1.0,0.282,-0.216,-0.12
10000,y1,-0.324,0.331,0.094,-0.484,-0.229,0.225,-0.576,0.16,-0.1,-0.32,-0.31,0.466,0.282,1.0,0.314,0.783
10000,y2,0.127,0.302,-0.358,-0.672,-0.195,-0.455,0.247,-0.171,0.052,0.09,-0.3,0.262,-0.216,0.314,1.0,0.466
10000,y3,-0.374,0.351,0.025,-0.387,-0.264,0.344,-0.431,0.467,0.069,0.008,-0.398,0.655,-0.12,0.783,0.466,1.0
