,,.,A1_1,A1_2,A1_3,B1_1,B1_2,B1_3,A2_1,A2_2,A2_3,B2_1,B2_2,B2_3,y1,y2,y3
0,.,1.0,-0.561,0.139,-0.239,-0.329,0.244,0.071,0.071,-0.197,-0.278,0.205,0.189,0.308,0.105,0.283,-0.269
0,A1_1,-0.561,1.0,-0.027,-0.017,0.455,-0.277,0.02,-0.162,-0.163,0.064,0.088,-0.246,-0.131,-0.061,0.009,0.148
0,A1_2,0.139,-0.027,1.0,0.014,-0.613,-0.248,0.138,-0.09,-0.098,-0.037,0.116,0.018,-0.055,0.207,-0.538,-0.154
0,A1_3,-0.239,-0.017,0.014,1.0,0.023,-0.071,0.095,0.253,0.115,-0.223,-0.193,-0.093,0.14,0.585,-0.242,0.038
0,B1_1,-0.329,0.455,-0.613,0.023,1.0,0.176,-0.243,0.041,-0.281,0.001,-0.008,-0.256,-0.039,-0.251,0.192,0.376
0,B1_2,0.244,-0.277,-0.248,-0.071,0.176,1.0,-0.26,0.216,0.33,0.198,-0.194,0.027,-0.13,0.021,0.373,0.459
0,B1_3,0.071,0.02,0.138,0.095,-0.243,-0.26,1.0,0.127,0.161,-0.601,-0.33,0.083,-0.18,-0.248,0.055,-0.215
0,A2_1,0.071,-0.162,-0.09,0.253,0.041,0.216,0.127,1.0,0.388,-0.286,-0.172,-0.422,-0.457,-0.034,0.217,0.511
0,A2_2,-0.197,-0.163,-0.098,0.115,-0.281,0.33,0.161,0.388,1.0,0.303,-0.236,0.082,-0.217,-0.095,0.057,-0.005
0,A2_3,-0.278,0.064,-0.037,-0.223,0.001,0.198,-0.601,-0.286,0.303,1.0,0.019,-0.159,0.251,0.131,-0.146,-0.198
0,B2_1,0.205,0.088,0.116,-0.193,-0.008,-0.194,-0.33,-0.172,-0.236,0.019,1.0,0.454,0.262,0.056,0.026,-0.253
0,B2_2,0.189,-0.246,0.018,-0.093,-0.256,0.027,0.083,-0.422,0.082,-0.159,0.454,1.0,0.319,0.084,0.195,-0.315
0,B2_3,0.308,-0.131,-0.055,0.14,-0.039,-0.13,-0.18,-0.457,-0.217,0.251,0.262,0.319,1.0,0.403,0.04,-0.632
0,y1,0.105,-0.061,0.207,0.585,-0.251,0.021,-0.248,-0.034,-0.095,0.131,0.056,0.084,0.403,1.0,0.101,-0.169
0,y2,0.283,0.009,-0.538,-0.242,0.192,0.373,0.055,0.217,0.057,-0.146,0.026,0.195,0.04,0.101,1.0,0.155
0,y3,-0.269,0.148,-0.154,0.038,0.376,0.459,-0.215,0.511,-0.005,-0.198,-0.253,-0.315,-0.632,-0.169,0.155,1.0
1,.,1.0,-0.561,0.139,-0.236,-0.329,0.242,0.071,0.071,-0.199,-0.279,0.207,0.19,0.311,0.106,0.279,-0.271
1,A1_1,-0.561,1.0,-0.027,-0.017,0.455,-0.279,0.019,-0.162,-0.164,0.064,0.087,-0.247,-0.132,-0.062,0.01,0.148
1,A1_2,0.139,-0.027,1.0,0.013,-0.612,-0.248,0.139,-0.09,-0.099,-0.038,0.117,0.018,-0.055,0.206,-0.538,-0.154
1,A1_3,-0.236,-0.017,0.013,1.0,0.025,-0.07,0.096,0.252,0.113,-0.224,-0.192,-0.093,0.14,0.584,-0.242,0.039
1,B1_1,-0.329,0.455,-0.612,0.025,1.0,0.176,-0.243,0.042,-0.281,0.001,-0.009,-0.256,-0.037,-0.25,0.192,0.375
1,B1_2,0.242,-0.279,-0.248,-0.07,0.176,1.0,-0.26,0.215,0.329,0.196,-0.195,0.028,-0.128,0.023,0.373,0.458
1,B1_3,0.071,0.019,0.139,0.096,-0.243,-0.26,1.0,0.127,0.16,-0.601,-0.33,0.084,-0.177,-0.247,0.055,-0.216
1,A2_1,0.071,-0.162,-0.09,0.252,0.042,0.215,0.127,1.0,0.387,-0.288,-0.172,-0.422,-0.456,-0.035,0.217,0.512
1,A2_2,-0.199,-0.164,-0.099,0.113,-0.281,0.329,0.16,0.387,1.0,0.302,-0.237,0.081,-0.217,-0.095,0.057,-0.005
1,A2_3,-0.279,0.064,-0.038,-0.224,0.001,0.196,-0.601,-0.288,0.302,1.0,0.019,-0.16,0.251,0.131,-0.144,-0.198
1,B2_1,0.207,0.087,0.117,-0.192,-0.009,-0.195,-0.33,-0.172,-0.237,0.019,1.0,0.454,0.263,0.056,0.025,-0.255
1,B2_2,0.19,-0.247,0.018,-0.093,-0.256,0.028,0.084,-0.422,0.081,-0.16,0.454,1.0,0.321,0.085,0.194,-0.316
1,B2_3,0.311,-0.132,-0.055,0.14,-0.037,-0.128,-0.177,-0.456,-0.217,0.251,0.263,0.321,1.0,0.404,0.04,-0.631
1,y1,0.106,-0.062,0.206,0.584,-0.25,0.023,-0.247,-0.035,-0.095,0.131,0.056,0.085,0.404,1.0,0.102,-0.169
1,y2,0.279,0.01,-0.538,-0.242,0.192,0.373,0.055,0.217,0.057,-0.144,0.025,0.194,0.04,0.102,1.0,0.155
1,y3,-0.271,0.148,-0.154,0.039,0.375,0.458,-0.216,0.512,-0.005,-0.198,-0.255,-0.316,-0.631,-0.169,0.155,1.0
2,.,1.0,-0.56,0.14,-0.233,-0.328,0.241,0.071,0.071,-0.201,-0.281,0.21,0.191,0.313,0.107,0.276,-0.272
2,A1_1,-0.56,1.0,-0.028,-0.018,0.454,-0.28,0.018,-0.162,-0.165,0.064,0.086,-0.248,-0.133,-0.063,0.01,0.148
2,A1_2,0.14,-0.028,1.0,0.012,-0.612,-0.249,0.139,-0.091,-0.1,-0.039,0.118,0.018,-0.054,0.205,-0.538,-0.154
2,A1_3,-0.233,-0.018,0.012,1.0,0.027,-0.069,0.098,0.252,0.112,-0.225,-0.192,-0.092,0.14,0.583,-0.241,0.039
2,B1_1,-0.328,0.454,-0.612,0.027,1.0,0.176,-0.243,0.042,-0.281,0.002,-0.01,-0.255,-0.035,-0.249,0.192,0.374
2,B1_2,0.241,-0.28,-0.249,-0.069,0.176,1.0,-0.259,0.214,0.329,0.195,-0.196,0.029,-0.126,0.024,0.373,0.458
2,B1_3,0.071,0.018,0.139,0.098,-0.243,-0.259,1.0,0.128,0.16,-0.602,-0.33,0.085,-0.175,-0.246,0.054,-0.216
2,A2_1,0.071,-0.162,-0.091,0.252,0.042,0.214,0.128,1.0,0.386,-0.289,-0.173,-0.423,-0.456,-0.036,0.217,0.512
2,A2_2,-0.201,-0.165,-0.1,0.112,-0.281,0.329,0.16,0.386,1.0,0.301,-0.238,0.081,-0.217,-0.095,0.058,-0.004
2,A2_3,-0.281,0.064,-0.039,-0.225,0.002,0.195,-0.602,-0.289,0.301,1.0,0.019,-0.16,0.249,0.132,-0.143,-0.197
2,B2_1,0.21,0.086,0.118,-0.192,-0.01,-0.196,-0.33,-0.173,-0.238,0.019,1.0,0.454,0.264,0.056,0.023,-0.257
2,B2_2,0.191,-0.248,0.018,-0.092,-0.255,0.029,0.085,-0.423,0.081,-0.16,0.454,1.0,0.322,0.086,0.193,-0.317
2,B2_3,0.313,-0.133,-0.054,0.14,-0.035,-0.126,-0.175,-0.456,-0.217,0.249,0.264,0.322,1.0,0.404,0.04,-0.631
2,y1,0.107,-0.063,0.205,0.583,-0.249,0.024,-0.246,-0.036,-0.095,0.132,0.056,0.086,0.404,1.0,0.104,-0.169
2,y2,0.276,0.01,-0.538,-0.241,0.192,0.373,0.054,0.217,0.058,-0.143,0.023,0.193,0.04,0.104,1.0,0.155
2,y3,-0.272,0.148,-0.154,0.039,0.374,0.458,-0.216,0.512,-0.004,-0.197,-0.257,-0.317,-0.631,-0.169,0.155,1.0
3,.,1.0,-0.559,0.141,-0.23,-0.327,0.24,0.071,0.071,-0.202,-0.282,0.214,0.191,0.314,0.109,0.274,-0.274
3,A1_1,-0.559,1.0,-0.028,-0.018,0.454,-0.283,0.017,-0.162,-0.166,0.063,0.085,-0.249,-0.134,-0.064,0.01,0.148
3,A1_2,0.141,-0.028,1.0,0.011,-0.612,-0.249,0.139,-0.091,-0.101,-0.04,0.119,0.019,-0.055,0.204,-0.538,-0.154
3,A1_3,-0.23,-0.018,0.011,1.0,0.029,-0.068,0.099,0.251,0.111,-0.227,-0.191,-0.091,0.14,0.582,-0.241,0.04
3,B1_1,-0.327,0.454,-0.612,0.029,1.0,0.176,-0.243,0.042,-0.281,0.002,-0.011,-0.254,-0.033,-0.248,0.192,0.373
3,B1_2,0.24,-0.283,-0.249,-0.068,0.176,1.0,-0.258,0.213,0.328,0.194,-0.196,0.03,-0.123,0.026,0.373,0.457
3,B1_3,0.071,0.017,0.139,0.099,-0.243,-0.258,1.0,0.128,0.16,-0.603,-0.33,0.085,-0.172,-0.245,0.054,-0.216
3,A2_1,0.071,-0.162,-0.091,0.251,0.042,0.213,0.128,1.0,0.385,-0.291,-0.173,-0.423,-0.456,-0.038,0.217,0.512
3,A2_2,-0.202,-0.166,-0.101,0.111,-0.281,0.328,0.16,0.385,1.0,0.3,-0.238,0.08,-0.218,-0.095,0.059,-0.003
3,A2_3,-0.282,0.063,-0.04,-0.227,0.002,0.194,-0.603,-0.291,0.3,1.0,0.019,-0.161,0.248,0.132,-0.141,-0.196
3,B2_1,0.214,0.085,0.119,-0.191,-0.011,-0.196,-0.33,-0.173,-0.238,0.019,1.0,0.455,0.266,0.055,0.021,-0.259
3,B2_2,0.191,-0.249,0.019,-0.091,-0.254,0.03,0.085,-0.423,0.08,-0.161,0.455,1.0,0.324,0.087,0.193,-0.318
3,B2_3,0.314,-0.134,-0.055,0.14,-0.033,-0.123,-0.172,-0.456,-0.218,0.248,0.266,0.324,1.0,0.405,0.041,-0.63
3,y1,0.109,-0.064,0.204,0.582,-0.248,0.026,-0.245,-0.038,-0.095,0.132,0.055,0.087,0.405,1.0,0.105,-0.169
3,y2,0.274,0.01,-0.538,-0.241,0.192,0.373,0.054,0.217,0.059,-0.141,0.021,0.193,0.041,0.105,1.0,0.155
3,y3,-0.274,0.148,-0.154,0.04,0.373,0.457,-0.216,0.512,-0.003,-0.196,-0.259,-0.318,-0.63,-0.169,0.155,1.0
4,.,1.0,-0.558,0.141,-0.227,-0.325,0.239,0.07,0.072,-0.203,-0.283,0.217,0.191,0.316,0.111,0.272,-0.275
4,A1_1,-0.558,1.0,-0.028,-0.018,0.453,-0.284,0.016,-0.161,-0.166,0.063,0.083,-0.25,-0.136,-0.065,0.01,0.149
4,A1_2,0.141,-0.028,1.0,0.01,-0.612,-0.249,0.14,-0.092,-0.102,-0.041,0.12,0.019,-0.055,0.202,-0.538,-0.154
4,A1_3,-0.227,-0.018,0.01,1.0,0.03,-0.067,0.101,0.251,0.11,-0.228,-0.191,-0.09,0.14,0.581,-0.241,0.04
4,B1_1,-0.325,0.453,-0.612,0.03,1.0,0.176,-0.243,0.042,-0.281,0.002,-0.011,-0.253,-0.031,-0.247,0.192,0.371
4,B1_2,0.239,-0.284,-0.249,-0.067,0.176,1.0,-0.257,0.212,0.328,0.193,-0.197,0.03,-0.121,0.027,0.373,0.457
4,B1_3,0.07,0.016,0.14,0.101,-0.243,-0.257,1.0,0.128,0.16,-0.603,-0.33,0.086,-0.17,-0.244,0.054,-0.216
4,A2_1,0.072,-0.161,-0.092,0.251,0.042,0.212,0.128,1.0,0.384,-0.292,-0.174,-0.423,-0.456,-0.039,0.217,0.512
4,A2_2,-0.203,-0.166,-0.102,0.11,-0.281,0.328,0.16,0.384,1.0,0.299,-0.239,0.08,-0.219,-0.096,0.06,-0.002
4,A2_3,-0.283,0.063,-0.041,-0.228,0.002,0.193,-0.603,-0.292,0.299,1.0,0.018,-0.161,0.247,0.133,-0.14,-0.195
4,B2_1,0.217,0.083,0.12,-0.191,-0.011,-0.197,-0.33,-0.174,-0.239,0.018,1.0,0.455,0.267,0.055,0.02,-0.261
4,B2_2,0.191,-0.25,0.019,-0.09,-0.253,0.03,0.086,-0.423,0.08,-0.161,0.455,1.0,0.325,0.087,0.192,-0.318
4,B2_3,0.316,-0.136,-0.055,0.14,-0.031,-0.121,-0.17,-0.456,-0.219,0.247,0.267,0.325,1.0,0.405,0.041,-0.629
4,y1,0.111,-0.065,0.202,0.581,-0.247,0.027,-0.244,-0.039,-0.096,0.133,0.055,0.087,0.405,1.0,0.106,-0.168
4,y2,0.272,0.01,-0.538,-0.241,0.192,0.373,0.054,0.217,0.06,-0.14,0.02,0.192,0.041,0.106,1.0,0.155
4,y3,-0.275,0.149,-0.154,0.04,0.371,0.457,-0.216,0.512,-0.002,-0.195,-0.261,-0.318,-0.629,-0.168,0.155,1.0
5,.,1.0,-0.558,0.141,-0.225,-0.325,0.239,0.07,0.072,-0.204,-0.284,0.22,0.191,0.316,0.112,0.27,-0.276
5,A1_1,-0.558,1.0,-0.028,-0.018,0.452,-0.286,0.015,-0.161,-0.167,0.063,0.083,-0.251,-0.137,-0.066,0.01,0.149
5,A1_2,0.141,-0.028,1.0,0.008,-0.612,-0.25,0.14,-0.093,-0.103,-0.043,0.121,0.02,-0.055,0.201,-0.538,-0.153
5,A1_3,-0.225,-0.018,0.008,1.0,0.032,-0.066,0.102,0.25,0.109,-0.23,-0.19,-0.09,0.14,0.58,-0.24,0.041
5,B1_1,-0.325,0.452,-0.612,0.032,1.0,0.177,-0.243,0.042,-0.281,0.002,-0.012,-0.252,-0.029,-0.246,0.192,0.37
5,B1_2,0.239,-0.286,-0.25,-0.066,0.177,1.0,-0.255,0.212,0.328,0.192,-0.197,0.032,-0.119,0.028,0.374,0.457
5,B1_3,0.07,0.015,0.14,0.102,-0.243,-0.255,1.0,0.128,0.16,-0.604,-0.33,0.088,-0.167,-0.243,0.054,-0.217
5,A2_1,0.072,-0.161,-0.093,0.25,0.042,0.212,0.128,1.0,0.383,-0.294,-0.175,-0.423,-0.456,-0.041,0.217,0.512
5,A2_2,-0.204,-0.167,-0.103,0.109,-0.281,0.328,0.16,0.383,1.0,0.298,-0.239,0.079,-0.22,-0.096,0.061,-0.001
5,A2_3,-0.284,0.063,-0.043,-0.23,0.002,0.192,-0.604,-0.294,0.298,1.0,0.018,-0.162,0.245,0.133,-0.138,-0.195
5,B2_1,0.22,0.083,0.121,-0.19,-0.012,-0.197,-0.33,-0.175,-0.239,0.018,1.0,0.456,0.269,0.054,0.018,-0.263
5,B2_2,0.191,-0.251,0.02,-0.09,-0.252,0.032,0.088,-0.423,0.079,-0.162,0.456,1.0,0.327,0.088,0.192,-0.318
5,B2_3,0.316,-0.137,-0.055,0.14,-0.029,-0.119,-0.167,-0.456,-0.22,0.245,0.269,0.327,1.0,0.405,0.042,-0.628
5,y1,0.112,-0.066,0.201,0.58,-0.246,0.028,-0.243,-0.041,-0.096,0.133,0.054,0.088,0.405,1.0,0.108,-0.168
5,y2,0.27,0.01,-0.538,-0.24,0.192,0.374,0.054,0.217,0.061,-0.138,0.018,0.192,0.042,0.108,1.0,0.156
5,y3,-0.276,0.149,-0.153,0.041,0.37,0.457,-0.217,0.512,-0.001,-0.195,-0.263,-0.318,-0.628,-0.168,0.156,1.0
6,.,1.0,-0.557,0.142,-0.223,-0.324,0.239,0.07,0.072,-0.205,-0.284,0.223,0.192,0.317,0.113,0.267,-0.277
6,A1_1,-0.557,1.0,-0.029,-0.018,0.451,-0.287,0.014,-0.161,-0.167,0.063,0.082,-0.251,-0.138,-0.066,0.011,0.148
6,A1_2,0.142,-0.029,1.0,0.006,-0.612,-0.25,0.14,-0.094,-0.104,-0.044,0.122,0.02,-0.055,0.199,-0.538,-0.154
6,A1_3,-0.223,-0.018,0.006,1.0,0.034,-0.065,0.103,0.249,0.108,-0.231,-0.19,-0.089,0.14,0.579,-0.24,0.042
6,B1_1,-0.324,0.451,-0.612,0.034,1.0,0.177,-0.243,0.042,-0.281,0.002,-0.013,-0.25,-0.026,-0.245,0.192,0.369
6,B1_2,0.239,-0.287,-0.25,-0.065,0.177,1.0,-0.254,0.211,0.327,0.19,-0.197,0.033,-0.117,0.03,0.374,0.456
6,B1_3,0.07,0.014,0.14,0.103,-0.243,-0.254,1.0,0.129,0.161,-0.604,-0.329,0.089,-0.165,-0.242,0.054,-0.217
6,A2_1,0.072,-0.161,-0.094,0.249,0.042,0.211,0.129,1.0,0.383,-0.295,-0.175,-0.423,-0.456,-0.042,0.218,0.513
6,A2_2,-0.205,-0.167,-0.104,0.108,-0.281,0.327,0.161,0.383,1.0,0.296,-0.24,0.079,-0.22,-0.096,0.062,-0.0
6,A2_3,-0.284,0.063,-0.044,-0.231,0.002,0.19,-0.604,-0.295,0.296,1.0,0.018,-0.162,0.244,0.134,-0.137,-0.194
6,B2_1,0.223,0.082,0.122,-0.19,-0.013,-0.197,-0.329,-0.175,-0.24,0.018,1.0,0.456,0.27,0.054,0.017,-0.265
6,B2_2,0.192,-0.251,0.02,-0.089,-0.25,0.033,0.089,-0.423,0.079,-0.162,0.456,1.0,0.329,0.089,0.191,-0.318
6,B2_3,0.317,-0.138,-0.055,0.14,-0.026,-0.117,-0.165,-0.456,-0.22,0.244,0.27,0.329,1.0,0.405,0.042,-0.627
6,y1,0.113,-0.066,0.199,0.579,-0.245,0.03,-0.242,-0.042,-0.096,0.134,0.054,0.089,0.405,1.0,0.109,-0.167
6,y2,0.267,0.011,-0.538,-0.24,0.192,0.374,0.054,0.218,0.062,-0.137,0.017,0.191,0.042,0.109,1.0,0.156
6,y3,-0.277,0.148,-0.154,0.042,0.369,0.456,-0.217,0.513,-0.0,-0.194,-0.265,-0.318,-0.627,-0.167,0.156,1.0
7,.,1.0,-0.556,0.142,-0.222,-0.323,0.238,0.069,0.073,-0.206,-0.284,0.226,0.192,0.317,0.115,0.265,-0.278
7,A1_1,-0.556,1.0,-0.029,-0.019,0.45,-0.289,0.013,-0.161,-0.168,0.062,0.081,-0.252,-0.139,-0.068,0.011,0.148
7,A1_2,0.142,-0.029,1.0,0.005,-0.613,-0.25,0.141,-0.094,-0.105,-0.045,0.122,0.02,-0.056,0.197,-0.538,-0.154
7,A1_3,-0.222,-0.019,0.005,1.0,0.036,-0.064,0.105,0.248,0.107,-0.232,-0.189,-0.088,0.14,0.578,-0.239,0.042
7,B1_1,-0.323,0.45,-0.613,0.036,1.0,0.177,-0.242,0.042,-0.28,0.002,-0.013,-0.248,-0.024,-0.244,0.192,0.368
7,B1_2,0.238,-0.289,-0.25,-0.064,0.177,1.0,-0.253,0.21,0.327,0.189,-0.197,0.034,-0.114,0.031,0.375,0.456
7,B1_3,0.069,0.013,0.141,0.105,-0.242,-0.253,1.0,0.129,0.161,-0.605,-0.329,0.09,-0.162,-0.241,0.054,-0.218
7,A2_1,0.073,-0.161,-0.094,0.248,0.042,0.21,0.129,1.0,0.382,-0.297,-0.176,-0.423,-0.456,-0.044,0.218,0.513
7,A2_2,-0.206,-0.168,-0.105,0.107,-0.28,0.327,0.161,0.382,1.0,0.295,-0.24,0.079,-0.221,-0.097,0.063,0.001
7,A2_3,-0.284,0.062,-0.045,-0.232,0.002,0.189,-0.605,-0.297,0.295,1.0,0.018,-0.163,0.243,0.134,-0.135,-0.193
7,B2_1,0.226,0.081,0.122,-0.189,-0.013,-0.197,-0.329,-0.176,-0.24,0.018,1.0,0.457,0.272,0.053,0.015,-0.267
7,B2_2,0.192,-0.252,0.02,-0.088,-0.248,0.034,0.09,-0.423,0.079,-0.163,0.457,1.0,0.331,0.089,0.191,-0.319
7,B2_3,0.317,-0.139,-0.056,0.14,-0.024,-0.114,-0.162,-0.456,-0.221,0.243,0.272,0.331,1.0,0.405,0.043,-0.626
7,y1,0.115,-0.068,0.197,0.578,-0.244,0.031,-0.241,-0.044,-0.097,0.134,0.053,0.089,0.405,1.0,0.111,-0.167
7,y2,0.265,0.011,-0.538,-0.239,0.192,0.375,0.054,0.218,0.063,-0.135,0.015,0.191,0.043,0.111,1.0,0.156
7,y3,-0.278,0.148,-0.154,0.042,0.368,0.456,-0.218,0.513,0.001,-0.193,-0.267,-0.319,-0.626,-0.167,0.156,1.0
8,.,1.0,-0.555,0.142,-0.22,-0.322,0.238,0.069,0.074,-0.207,-0.285,0.228,0.192,0.317,0.116,0.263,-0.278
8,A1_1,-0.555,1.0,-0.029,-0.019,0.45,-0.29,0.012,-0.16,-0.168,0.062,0.08,-0.252,-0.14,-0.069,0.011,0.148
8,A1_2,0.142,-0.029,1.0,0.004,-0.612,-0.251,0.141,-0.095,-0.106,-0.045,0.123,0.02,-0.056,0.196,-0.538,-0.153
8,A1_3,-0.22,-0.019,0.004,1.0,0.038,-0.063,0.106,0.248,0.106,-0.234,-0.189,-0.087,0.14,0.577,-0.239,0.043
8,B1_1,-0.322,0.45,-0.612,0.038,1.0,0.177,-0.242,0.042,-0.28,0.002,-0.014,-0.247,-0.022,-0.242,0.192,0.367
8,B1_2,0.238,-0.29,-0.251,-0.063,0.177,1.0,-0.251,0.209,0.327,0.188,-0.197,0.035,-0.112,0.032,0.376,0.456
8,B1_3,0.069,0.012,0.141,0.106,-0.242,-0.251,1.0,0.129,0.161,-0.605,-0.328,0.092,-0.16,-0.239,0.054,-0.219
8,A2_1,0.074,-0.16,-0.095,0.248,0.042,0.209,0.129,1.0,0.381,-0.298,-0.176,-0.423,-0.456,-0.045,0.218,0.513
8,A2_2,-0.207,-0.168,-0.106,0.106,-0.28,0.327,0.161,0.381,1.0,0.294,-0.241,0.078,-0.222,-0.097,0.064,0.002
8,A2_3,-0.285,0.062,-0.045,-0.234,0.002,0.188,-0.605,-0.298,0.294,1.0,0.017,-0.163,0.241,0.134,-0.133,-0.192
8,B2_1,0.228,0.08,0.123,-0.189,-0.014,-0.197,-0.328,-0.176,-0.241,0.017,1.0,0.457,0.274,0.052,0.014,-0.269
8,B2_2,0.192,-0.252,0.02,-0.087,-0.247,0.035,0.092,-0.423,0.078,-0.163,0.457,1.0,0.333,0.09,0.191,-0.319
8,B2_3,0.317,-0.14,-0.056,0.14,-0.022,-0.112,-0.16,-0.456,-0.222,0.241,0.274,0.333,1.0,0.405,0.044,-0.625
8,y1,0.116,-0.069,0.196,0.577,-0.242,0.032,-0.239,-0.045,-0.097,0.134,0.052,0.09,0.405,1.0,0.112,-0.166
8,y2,0.263,0.011,-0.538,-0.239,0.192,0.376,0.054,0.218,0.064,-0.133,0.014,0.191,0.044,0.112,1.0,0.156
8,y3,-0.278,0.148,-0.153,0.043,0.367,0.456,-0.219,0.513,0.002,-0.192,-0.269,-0.319,-0.625,-0.166,0.156,1.0
9,.,1.0,-0.554,0.142,-0.219,-0.321,0.238,0.068,0.074,-0.208,-0.286,0.231,0.191,0.317,0.116,0.262,-0.278
9,A1_1,-0.554,1.0,-0.03,-0.02,0.449,-0.292,0.011,-0.16,-0.168,0.062,0.079,-0.253,-0.141,-0.07,0.011,0.148
9,A1_2,0.142,-0.03,1.0,0.002,-0.613,-0.252,0.141,-0.096,-0.107,-0.046,0.124,0.02,-0.057,0.194,-0.538,-0.153
9,A1_3,-0.219,-0.02,0.002,1.0,0.04,-0.062,0.107,0.247,0.104,-0.236,-0.188,-0.087,0.14,0.575,-0.239,0.043
9,B1_1,-0.321,0.449,-0.613,0.04,1.0,0.178,-0.242,0.042,-0.28,0.002,-0.014,-0.245,-0.02,-0.241,0.192,0.365
9,B1_2,0.238,-0.292,-0.252,-0.062,0.178,1.0,-0.25,0.208,0.327,0.186,-0.197,0.037,-0.11,0.034,0.376,0.455
9,B1_3,0.068,0.011,0.141,0.107,-0.242,-0.25,1.0,0.129,0.161,-0.605,-0.328,0.093,-0.158,-0.238,0.054,-0.219
9,A2_1,0.074,-0.16,-0.096,0.247,0.042,0.208,0.129,1.0,0.38,-0.299,-0.177,-0.423,-0.456,-0.046,0.218,0.514
9,A2_2,-0.208,-0.168,-0.107,0.104,-0.28,0.327,0.161,0.38,1.0,0.293,-0.241,0.078,-0.222,-0.098,0.065,0.003
9,A2_3,-0.286,0.062,-0.046,-0.236,0.002,0.186,-0.605,-0.299,0.293,1.0,0.017,-0.164,0.24,0.134,-0.132,-0.191
9,B2_1,0.231,0.079,0.124,-0.188,-0.014,-0.197,-0.328,-0.177,-0.241,0.017,1.0,0.458,0.275,0.052,0.013,-0.27
9,B2_2,0.191,-0.253,0.02,-0.087,-0.245,0.037,0.093,-0.423,0.078,-0.164,0.458,1.0,0.334,0.09,0.19,-0.319
9,B2_3,0.317,-0.141,-0.057,0.14,-0.02,-0.11,-0.158,-0.456,-0.222,0.24,0.275,0.334,1.0,0.405,0.044,-0.625
9,y1,0.116,-0.07,0.194,0.575,-0.241,0.034,-0.238,-0.046,-0.098,0.134,0.052,0.09,0.405,1.0,0.114,-0.165
9,y2,0.262,0.011,-0.538,-0.239,0.192,0.376,0.054,0.218,0.065,-0.132,0.013,0.19,0.044,0.114,1.0,0.157
9,y3,-0.278,0.148,-0.153,0.043,0.365,0.455,-0.219,0.514,0.003,-0.191,-0.27,-0.319,-0.625,-0.165,0.157,1.0
10,.,1.0,-0.552,0.142,-0.218,-0.319,0.238,0.067,0.075,-0.209,-0.285,0.234,0.19,0.316,0.117,0.261,-0.278
10,A1_1,-0.552,1.0,-0.03,-0.02,0.448,-0.293,0.01,-0.16,-0.169,0.062,0.078,-0.254,-0.142,-0.071,0.012,0.149
10,A1_2,0.142,-0.03,1.0,0.001,-0.613,-0.252,0.141,-0.096,-0.108,-0.047,0.125,0.02,-0.058,0.192,-0.537,-0.153
10,A1_3,-0.218,-0.02,0.001,1.0,0.041,-0.061,0.109,0.246,0.103,-0.238,-0.187,-0.086,0.14,0.574,-0.239,0.044
10,B1_1,-0.319,0.448,-0.613,0.041,1.0,0.178,-0.242,0.042,-0.28,0.002,-0.014,-0.244,-0.017,-0.24,0.192,0.364
10,B1_2,0.238,-0.293,-0.252,-0.061,0.178,1.0,-0.249,0.207,0.326,0.185,-0.196,0.038,-0.108,0.036,0.377,0.455
10,B1_3,0.067,0.01,0.141,0.109,-0.242,-0.249,1.0,0.129,0.162,-0.606,-0.327,0.094,-0.155,-0.237,0.054,-0.219
10,A2_1,0.075,-0.16,-0.096,0.246,0.042,0.207,0.129,1.0,0.38,-0.3,-0.177,-0.423,-0.457,-0.047,0.218,0.514
10,A2_2,-0.209,-0.169,-0.108,0.103,-0.28,0.326,0.162,0.38,1.0,0.292,-0.242,0.077,-0.223,-0.098,0.066,0.004
10,A2_3,-0.285,0.062,-0.047,-0.238,0.002,0.185,-0.606,-0.3,0.292,1.0,0.017,-0.165,0.239,0.134,-0.131,-0.19
10,B2_1,0.234,0.078,0.125,-0.187,-0.014,-0.196,-0.327,-0.177,-0.242,0.017,1.0,0.459,0.277,0.052,0.011,-0.272
10,B2_2,0.19,-0.254,0.02,-0.086,-0.244,0.038,0.094,-0.423,0.077,-0.165,0.459,1.0,0.336,0.091,0.19,-0.319
10,B2_3,0.316,-0.142,-0.058,0.14,-0.017,-0.108,-0.155,-0.457,-0.223,0.239,0.277,0.336,1.0,0.405,0.045,-0.624
10,y1,0.117,-0.071,0.192,0.574,-0.24,0.036,-0.237,-0.047,-0.098,0.134,0.052,0.091,0.405,1.0,0.115,-0.164
10,y2,0.261,0.012,-0.537,-0.239,0.192,0.377,0.054,0.218,0.066,-0.131,0.011,0.19,0.045,0.115,1.0,0.157
10,y3,-0.278,0.149,-0.153,0.044,0.364,0.455,-0.219,0.514,0.004,-0.19,-0.272,-0.319,-0.624,-0.164,0.157,1.0
11,.,1.0,-0.551,0.142,-0.218,-0.318,0.239,0.066,0.076,-0.21,-0.286,0.237,0.19,0.315,0.118,0.259,-0.278
11,A1_1,-0.551,1.0,-0.03,-0.021,0.447,-0.294,0.009,-0.159,-0.169,0.062,0.077,-0.254,-0.143,-0.072,0.012,0.149
11,A1_2,0.142,-0.03,1.0,-0.0,-0.613,-0.252,0.141,-0.097,-0.109,-0.047,0.125,0.021,-0.058,0.191,-0.537,-0.153
11,A1_3,-0.218,-0.021,-0.0,1.0,0.043,-0.061,0.11,0.246,0.102,-0.239,-0.187,-0.085,0.14,0.573,-0.239,0.044
11,B1_1,-0.318,0.447,-0.613,0.043,1.0,0.178,-0.242,0.041,-0.28,0.002,-0.015,-0.242,-0.015,-0.239,0.193,0.363
11,B1_2,0.239,-0.294,-0.252,-0.061,0.178,1.0,-0.247,0.207,0.326,0.184,-0.196,0.04,-0.106,0.037,0.378,0.454
11,B1_3,0.066,0.009,0.141,0.11,-0.242,-0.247,1.0,0.129,0.162,-0.606,-0.326,0.096,-0.153,-0.237,0.054,-0.22
11,A2_1,0.076,-0.159,-0.097,0.246,0.041,0.207,0.129,1.0,0.379,-0.301,-0.178,-0.422,-0.457,-0.049,0.219,0.514
11,A2_2,-0.21,-0.169,-0.109,0.102,-0.28,0.326,0.162,0.379,1.0,0.291,-0.242,0.077,-0.223,-0.098,0.067,0.005
11,A2_3,-0.286,0.062,-0.047,-0.239,0.002,0.184,-0.606,-0.301,0.291,1.0,0.016,-0.165,0.237,0.134,-0.129,-0.189
11,B2_1,0.237,0.077,0.125,-0.187,-0.015,-0.196,-0.326,-0.178,-0.242,0.016,1.0,0.46,0.279,0.052,0.01,-0.274
11,B2_2,0.19,-0.254,0.021,-0.085,-0.242,0.04,0.096,-0.422,0.077,-0.165,0.46,1.0,0.338,0.091,0.19,-0.319
11,B2_3,0.315,-0.143,-0.058,0.14,-0.015,-0.106,-0.153,-0.457,-0.223,0.237,0.279,0.338,1.0,0.404,0.045,-0.623
11,y1,0.118,-0.072,0.191,0.573,-0.239,0.037,-0.237,-0.049,-0.098,0.134,0.052,0.091,0.404,1.0,0.116,-0.163
11,y2,0.259,0.012,-0.537,-0.239,0.193,0.378,0.054,0.219,0.067,-0.129,0.01,0.19,0.045,0.116,1.0,0.158
11,y3,-0.278,0.149,-0.153,0.044,0.363,0.454,-0.22,0.514,0.005,-0.189,-0.274,-0.319,-0.623,-0.163,0.158,1.0
12,.,1.0,-0.549,0.142,-0.217,-0.317,0.239,0.065,0.077,-0.211,-0.286,0.239,0.189,0.314,0.118,0.258,-0.278
12,A1_1,-0.549,1.0,-0.03,-0.021,0.447,-0.296,0.009,-0.159,-0.169,0.062,0.076,-0.255,-0.144,-0.073,0.012,0.149
12,A1_2,0.142,-0.03,1.0,-0.002,-0.613,-0.253,0.141,-0.098,-0.109,-0.048,0.126,0.02,-0.059,0.189,-0.537,-0.153
12,A1_3,-0.217,-0.021,-0.002,1.0,0.045,-0.06,0.111,0.245,0.101,-0.241,-0.186,-0.084,0.139,0.571,-0.238,0.045
12,B1_1,-0.317,0.447,-0.613,0.045,1.0,0.178,-0.242,0.041,-0.28,0.003,-0.015,-0.24,-0.013,-0.238,0.193,0.362
12,B1_2,0.239,-0.296,-0.253,-0.06,0.178,1.0,-0.246,0.206,0.325,0.184,-0.196,0.041,-0.104,0.039,0.378,0.454
12,B1_3,0.065,0.009,0.141,0.111,-0.242,-0.246,1.0,0.129,0.162,-0.606,-0.325,0.097,-0.151,-0.237,0.054,-0.22
12,A2_1,0.077,-0.159,-0.098,0.245,0.041,0.206,0.129,1.0,0.378,-0.302,-0.178,-0.422,-0.458,-0.049,0.219,0.515
12,A2_2,-0.211,-0.169,-0.109,0.101,-0.28,0.325,0.162,0.378,1.0,0.29,-0.242,0.077,-0.224,-0.099,0.068,0.006
12,A2_3,-0.286,0.062,-0.048,-0.241,0.003,0.184,-0.606,-0.302,0.29,1.0,0.016,-0.166,0.236,0.135,-0.128,-0.188
12,B2_1,0.239,0.076,0.126,-0.186,-0.015,-0.196,-0.325,-0.178,-0.242,0.016,1.0,0.461,0.28,0.051,0.009,-0.276
12,B2_2,0.189,-0.255,0.02,-0.084,-0.24,0.041,0.097,-0.422,0.077,-0.166,0.461,1.0,0.34,0.091,0.19,-0.319
12,B2_3,0.314,-0.144,-0.059,0.139,-0.013,-0.104,-0.151,-0.458,-0.224,0.236,0.28,0.34,1.0,0.404,0.045,-0.622
12,y1,0.118,-0.073,0.189,0.571,-0.238,0.039,-0.237,-0.049,-0.099,0.135,0.051,0.091,0.404,1.0,0.118,-0.162
12,y2,0.258,0.012,-0.537,-0.238,0.193,0.378,0.054,0.219,0.068,-0.128,0.009,0.19,0.045,0.118,1.0,0.158
12,y3,-0.278,0.149,-0.153,0.045,0.362,0.454,-0.22,0.515,0.006,-0.188,-0.276,-0.319,-0.622,-0.162,0.158,1.0
13,.,1.0,-0.548,0.142,-0.216,-0.316,0.239,0.064,0.078,-0.211,-0.287,0.241,0.188,0.313,0.118,0.256,-0.278
13,A1_1,-0.548,1.0,-0.03,-0.022,0.446,-0.297,0.008,-0.159,-0.169,0.062,0.076,-0.255,-0.145,-0.074,0.012,0.149
13,A1_2,0.142,-0.03,1.0,-0.003,-0.613,-0.253,0.141,-0.098,-0.11,-0.049,0.126,0.021,-0.06,0.187,-0.537,-0.152
13,A1_3,-0.216,-0.022,-0.003,1.0,0.046,-0.06,0.112,0.245,0.099,-0.243,-0.186,-0.084,0.139,0.57,-0.239,0.046
13,B1_1,-0.316,0.446,-0.613,0.046,1.0,0.179,-0.242,0.041,-0.279,0.003,-0.015,-0.238,-0.011,-0.237,0.193,0.361
13,B1_2,0.239,-0.297,-0.253,-0.06,0.179,1.0,-0.245,0.205,0.325,0.183,-0.195,0.043,-0.102,0.04,0.379,0.454
13,B1_3,0.064,0.008,0.141,0.112,-0.242,-0.245,1.0,0.128,0.163,-0.607,-0.324,0.098,-0.149,-0.236,0.054,-0.221
13,A2_1,0.078,-0.159,-0.098,0.245,0.041,0.205,0.128,1.0,0.378,-0.303,-0.179,-0.422,-0.458,-0.05,0.219,0.514
13,A2_2,-0.211,-0.169,-0.11,0.099,-0.279,0.325,0.163,0.378,1.0,0.289,-0.243,0.076,-0.225,-0.099,0.069,0.007
13,A2_3,-0.287,0.062,-0.049,-0.243,0.003,0.183,-0.607,-0.303,0.289,1.0,0.016,-0.166,0.235,0.135,-0.126,-0.187
13,B2_1,0.241,0.076,0.126,-0.186,-0.015,-0.195,-0.324,-0.179,-0.243,0.016,1.0,0.462,0.282,0.051,0.008,-0.277
13,B2_2,0.188,-0.255,0.021,-0.084,-0.238,0.043,0.098,-0.422,0.076,-0.166,0.462,1.0,0.341,0.091,0.189,-0.318
13,B2_3,0.313,-0.145,-0.06,0.139,-0.011,-0.102,-0.149,-0.458,-0.225,0.235,0.282,0.341,1.0,0.403,0.046,-0.621
13,y1,0.118,-0.074,0.187,0.57,-0.237,0.04,-0.236,-0.05,-0.099,0.135,0.051,0.091,0.403,1.0,0.119,-0.161
13,y2,0.256,0.012,-0.537,-0.239,0.193,0.379,0.054,0.219,0.069,-0.126,0.008,0.189,0.046,0.119,1.0,0.159
13,y3,-0.278,0.149,-0.152,0.046,0.361,0.454,-0.221,0.514,0.007,-0.187,-0.277,-0.318,-0.621,-0.161,0.159,1.0
14,.,1.0,-0.546,0.143,-0.216,-0.315,0.238,0.064,0.078,-0.212,-0.287,0.243,0.186,0.311,0.118,0.254,-0.278
14,A1_1,-0.546,1.0,-0.031,-0.022,0.445,-0.298,0.007,-0.158,-0.17,0.062,0.075,-0.256,-0.147,-0.075,0.012,0.149
14,A1_2,0.143,-0.031,1.0,-0.004,-0.614,-0.253,0.141,-0.099,-0.111,-0.05,0.126,0.021,-0.06,0.186,-0.537,-0.152
14,A1_3,-0.216,-0.022,-0.004,1.0,0.048,-0.059,0.113,0.244,0.098,-0.244,-0.185,-0.083,0.139,0.568,-0.238,0.046
14,B1_1,-0.315,0.445,-0.614,0.048,1.0,0.179,-0.242,0.041,-0.279,0.003,-0.015,-0.237,-0.009,-0.236,0.193,0.36
14,B1_2,0.238,-0.298,-0.253,-0.059,0.179,1.0,-0.244,0.204,0.325,0.182,-0.195,0.044,-0.1,0.042,0.38,0.453
14,B1_3,0.064,0.007,0.141,0.113,-0.242,-0.244,1.0,0.128,0.163,-0.607,-0.324,0.1,-0.146,-0.235,0.054,-0.222
14,A2_1,0.078,-0.158,-0.099,0.244,0.041,0.204,0.128,1.0,0.377,-0.304,-0.179,-0.423,-0.459,-0.051,0.219,0.515
14,A2_2,-0.212,-0.17,-0.111,0.098,-0.279,0.325,0.163,0.377,1.0,0.288,-0.243,0.076,-0.226,-0.099,0.07,0.008
14,A2_3,-0.287,0.062,-0.05,-0.244,0.003,0.182,-0.607,-0.304,0.288,1.0,0.015,-0.167,0.233,0.135,-0.125,-0.186
14,B2_1,0.243,0.075,0.126,-0.185,-0.015,-0.195,-0.324,-0.179,-0.243,0.015,1.0,0.463,0.284,0.05,0.007,-0.278
14,B2_2,0.186,-0.256,0.021,-0.083,-0.237,0.044,0.1,-0.423,0.076,-0.167,0.463,1.0,0.343,0.091,0.189,-0.319
14,B2_3,0.311,-0.147,-0.06,0.139,-0.009,-0.1,-0.146,-0.459,-0.226,0.233,0.284,0.343,1.0,0.402,0.046,-0.621
14,y1,0.118,-0.075,0.186,0.568,-0.236,0.042,-0.235,-0.051,-0.099,0.135,0.05,0.091,0.402,1.0,0.121,-0.16
14,y2,0.254,0.012,-0.537,-0.238,0.193,0.38,0.054,0.219,0.07,-0.125,0.007,0.189,0.046,0.121,1.0,0.159
14,y3,-0.278,0.149,-0.152,0.046,0.36,0.453,-0.222,0.515,0.008,-0.186,-0.278,-0.319,-0.621,-0.16,0.159,1.0
15,.,1.0,-0.544,0.143,-0.216,-0.314,0.238,0.063,0.079,-0.213,-0.287,0.245,0.185,0.31,0.118,0.252,-0.278
15,A1_1,-0.544,1.0,-0.031,-0.023,0.445,-0.299,0.006,-0.157,-0.17,0.062,0.074,-0.256,-0.148,-0.076,0.012,0.15
15,A1_2,0.143,-0.031,1.0,-0.006,-0.614,-0.254,0.141,-0.099,-0.111,-0.05,0.127,0.021,-0.061,0.184,-0.537,-0.152
15,A1_3,-0.216,-0.023,-0.006,1.0,0.049,-0.058,0.114,0.243,0.097,-0.246,-0.184,-0.083,0.138,0.567,-0.238,0.047
15,B1_1,-0.314,0.445,-0.614,0.049,1.0,0.179,-0.242,0.04,-0.279,0.003,-0.015,-0.235,-0.007,-0.236,0.193,0.359
15,B1_2,0.238,-0.299,-0.254,-0.058,0.179,1.0,-0.243,0.202,0.325,0.181,-0.195,0.045,-0.097,0.043,0.38,0.453
15,B1_3,0.063,0.006,0.141,0.114,-0.242,-0.243,1.0,0.128,0.163,-0.607,-0.322,0.101,-0.144,-0.235,0.054,-0.222
15,A2_1,0.079,-0.157,-0.099,0.243,0.04,0.202,0.128,1.0,0.377,-0.305,-0.18,-0.423,-0.459,-0.053,0.219,0.515
15,A2_2,-0.213,-0.17,-0.111,0.097,-0.279,0.325,0.163,0.377,1.0,0.287,-0.243,0.076,-0.227,-0.1,0.071,0.009
15,A2_3,-0.287,0.062,-0.05,-0.246,0.003,0.181,-0.607,-0.305,0.287,1.0,0.015,-0.167,0.232,0.135,-0.123,-0.185
15,B2_1,0.245,0.074,0.127,-0.184,-0.015,-0.195,-0.322,-0.18,-0.243,0.015,1.0,0.464,0.285,0.05,0.006,-0.28
15,B2_2,0.185,-0.256,0.021,-0.083,-0.235,0.045,0.101,-0.423,0.076,-0.167,0.464,1.0,0.345,0.091,0.189,-0.319
15,B2_3,0.31,-0.148,-0.061,0.138,-0.007,-0.097,-0.144,-0.459,-0.227,0.232,0.285,0.345,1.0,0.402,0.046,-0.62
15,y1,0.118,-0.076,0.184,0.567,-0.236,0.043,-0.235,-0.053,-0.1,0.135,0.05,0.091,0.402,1.0,0.122,-0.159
15,y2,0.252,0.012,-0.537,-0.238,0.193,0.38,0.054,0.219,0.071,-0.123,0.006,0.189,0.046,0.122,1.0,0.16
15,y3,-0.278,0.15,-0.152,0.047,0.359,0.453,-0.222,0.515,0.009,-0.185,-0.28,-0.319,-0.62,-0.159,0.16,1.0
16,.,1.0,-0.542,0.144,-0.216,-0.312,0.238,0.062,0.08,-0.214,-0.287,0.247,0.183,0.309,0.118,0.25,-0.278
16,A1_1,-0.542,1.0,-0.031,-0.023,0.444,-0.3,0.005,-0.157,-0.17,0.062,0.073,-0.257,-0.149,-0.077,0.012,0.15
16,A1_2,0.144,-0.031,1.0,-0.007,-0.614,-0.254,0.141,-0.1,-0.112,-0.05,0.127,0.021,-0.062,0.183,-0.537,-0.152
16,A1_3,-0.216,-0.023,-0.007,1.0,0.051,-0.058,0.115,0.242,0.096,-0.248,-0.184,-0.082,0.138,0.566,-0.238,0.047
16,B1_1,-0.312,0.444,-0.614,0.051,1.0,0.179,-0.241,0.04,-0.279,0.003,-0.016,-0.233,-0.005,-0.235,0.193,0.358
16,B1_2,0.238,-0.3,-0.254,-0.058,0.179,1.0,-0.242,0.201,0.325,0.18,-0.194,0.047,-0.095,0.045,0.381,0.452
16,B1_3,0.062,0.005,0.141,0.115,-0.241,-0.242,1.0,0.128,0.164,-0.607,-0.321,0.102,-0.142,-0.235,0.053,-0.223
16,A2_1,0.08,-0.157,-0.1,0.242,0.04,0.201,0.128,1.0,0.376,-0.306,-0.181,-0.423,-0.46,-0.053,0.22,0.515
16,A2_2,-0.214,-0.17,-0.112,0.096,-0.279,0.325,0.164,0.376,1.0,0.286,-0.243,0.075,-0.228,-0.1,0.073,0.011
16,A2_3,-0.287,0.062,-0.05,-0.248,0.003,0.18,-0.607,-0.306,0.286,1.0,0.015,-0.168,0.231,0.136,-0.122,-0.185
16,B2_1,0.247,0.073,0.127,-0.184,-0.016,-0.194,-0.321,-0.181,-0.243,0.015,1.0,0.465,0.287,0.05,0.005,-0.282
16,B2_2,0.183,-0.257,0.021,-0.082,-0.233,0.047,0.102,-0.423,0.075,-0.168,0.465,1.0,0.346,0.092,0.188,-0.319
16,B2_3,0.309,-0.149,-0.062,0.138,-0.005,-0.095,-0.142,-0.46,-0.228,0.231,0.287,0.346,1.0,0.401,0.046,-0.619
16,y1,0.118,-0.077,0.183,0.566,-0.235,0.045,-0.235,-0.053,-0.1,0.136,0.05,0.092,0.401,1.0,0.123,-0.158
16,y2,0.25,0.012,-0.537,-0.238,0.193,0.381,0.053,0.22,0.073,-0.122,0.005,0.188,0.046,0.123,1.0,0.16
16,y3,-0.278,0.15,-0.152,0.047,0.358,0.452,-0.223,0.515,0.011,-0.185,-0.282,-0.319,-0.619,-0.158,0.16,1.0
17,.,1.0,-0.539,0.144,-0.216,-0.311,0.237,0.061,0.08,-0.215,-0.287,0.248,0.181,0.307,0.117,0.248,-0.278
17,A1_1,-0.539,1.0,-0.031,-0.024,0.443,-0.302,0.005,-0.156,-0.17,0.062,0.073,-0.257,-0.15,-0.079,0.013,0.15
17,A1_2,0.144,-0.031,1.0,-0.008,-0.614,-0.254,0.141,-0.1,-0.113,-0.051,0.128,0.02,-0.063,0.181,-0.537,-0.152
17,A1_3,-0.216,-0.024,-0.008,1.0,0.052,-0.057,0.116,0.242,0.095,-0.249,-0.183,-0.082,0.138,0.564,-0.239,0.048
17,B1_1,-0.311,0.443,-0.614,0.052,1.0,0.179,-0.242,0.039,-0.279,0.003,-0.016,-0.232,-0.003,-0.234,0.193,0.357
17,B1_2,0.237,-0.302,-0.254,-0.057,0.179,1.0,-0.241,0.2,0.325,0.179,-0.194,0.048,-0.093,0.046,0.382,0.452
17,B1_3,0.061,0.005,0.141,0.116,-0.242,-0.241,1.0,0.127,0.164,-0.607,-0.32,0.104,-0.14,-0.234,0.053,-0.224
17,A2_1,0.08,-0.156,-0.1,0.242,0.039,0.2,0.127,1.0,0.376,-0.307,-0.181,-0.423,-0.46,-0.054,0.219,0.515
17,A2_2,-0.215,-0.17,-0.113,0.095,-0.279,0.325,0.164,0.376,1.0,0.286,-0.243,0.075,-0.228,-0.1,0.074,0.011
17,A2_3,-0.287,0.062,-0.051,-0.249,0.003,0.179,-0.607,-0.307,0.286,1.0,0.015,-0.168,0.23,0.136,-0.12,-0.184
17,B2_1,0.248,0.073,0.128,-0.183,-0.016,-0.194,-0.32,-0.181,-0.243,0.015,1.0,0.466,0.289,0.049,0.004,-0.283
17,B2_2,0.181,-0.257,0.02,-0.082,-0.232,0.048,0.104,-0.423,0.075,-0.168,0.466,1.0,0.348,0.092,0.188,-0.318
17,B2_3,0.307,-0.15,-0.063,0.138,-0.003,-0.093,-0.14,-0.46,-0.228,0.23,0.289,0.348,1.0,0.4,0.047,-0.618
17,y1,0.117,-0.079,0.181,0.564,-0.234,0.046,-0.234,-0.054,-0.1,0.136,0.049,0.092,0.4,1.0,0.124,-0.157
17,y2,0.248,0.013,-0.537,-0.239,0.193,0.382,0.053,0.219,0.074,-0.12,0.004,0.188,0.047,0.124,1.0,0.161
17,y3,-0.278,0.15,-0.152,0.048,0.357,0.452,-0.224,0.515,0.011,-0.184,-0.283,-0.318,-0.618,-0.157,0.161,1.0
18,.,1.0,-0.537,0.145,-0.216,-0.31,0.237,0.06,0.081,-0.216,-0.288,0.25,0.179,0.305,0.117,0.246,-0.278
18,A1_1,-0.537,1.0,-0.031,-0.025,0.443,-0.303,0.004,-0.156,-0.17,0.062,0.072,-0.257,-0.151,-0.08,0.013,0.15
18,A1_2,0.145,-0.031,1.0,-0.01,-0.615,-0.255,0.141,-0.1,-0.113,-0.051,0.128,0.02,-0.064,0.179,-0.537,-0.152
18,A1_3,-0.216,-0.025,-0.01,1.0,0.054,-0.057,0.117,0.241,0.094,-0.251,-0.183,-0.081,0.137,0.563,-0.239,0.048
18,B1_1,-0.31,0.443,-0.615,0.054,1.0,0.18,-0.242,0.039,-0.278,0.004,-0.016,-0.23,-0.001,-0.233,0.194,0.356
18,B1_2,0.237,-0.303,-0.255,-0.057,0.18,1.0,-0.24,0.199,0.324,0.178,-0.193,0.05,-0.091,0.048,0.382,0.451
18,B1_3,0.06,0.004,0.141,0.117,-0.242,-0.24,1.0,0.127,0.164,-0.608,-0.319,0.105,-0.139,-0.234,0.053,-0.224
18,A2_1,0.081,-0.156,-0.1,0.241,0.039,0.199,0.127,1.0,0.375,-0.307,-0.182,-0.423,-0.461,-0.055,0.219,0.515
18,A2_2,-0.216,-0.17,-0.113,0.094,-0.278,0.324,0.164,0.375,1.0,0.285,-0.244,0.075,-0.229,-0.1,0.074,0.012
18,A2_3,-0.288,0.062,-0.051,-0.251,0.004,0.178,-0.608,-0.307,0.285,1.0,0.015,-0.169,0.228,0.136,-0.119,-0.183
18,B2_1,0.25,0.072,0.128,-0.183,-0.016,-0.193,-0.319,-0.182,-0.244,0.015,1.0,0.467,0.291,0.048,0.003,-0.285
18,B2_2,0.179,-0.257,0.02,-0.081,-0.23,0.05,0.105,-0.423,0.075,-0.169,0.467,1.0,0.349,0.092,0.188,-0.318
18,B2_3,0.305,-0.151,-0.064,0.137,-0.001,-0.091,-0.139,-0.461,-0.229,0.228,0.291,0.349,1.0,0.4,0.047,-0.618
18,y1,0.117,-0.08,0.179,0.563,-0.233,0.048,-0.234,-0.055,-0.1,0.136,0.048,0.092,0.4,1.0,0.126,-0.156
18,y2,0.246,0.013,-0.537,-0.239,0.194,0.382,0.053,0.219,0.074,-0.119,0.003,0.188,0.047,0.126,1.0,0.161
18,y3,-0.278,0.15,-0.152,0.048,0.356,0.451,-0.224,0.515,0.012,-0.183,-0.285,-0.318,-0.618,-0.156,0.161,1.0
19,.,1.0,-0.535,0.145,-0.216,-0.309,0.237,0.059,0.082,-0.217,-0.288,0.251,0.177,0.303,0.117,0.245,-0.278
19,A1_1,-0.535,1.0,-0.031,-0.025,0.442,-0.304,0.003,-0.155,-0.17,0.062,0.071,-0.258,-0.152,-0.081,0.013,0.151
19,A1_2,0.145,-0.031,1.0,-0.011,-0.615,-0.255,0.141,-0.101,-0.114,-0.052,0.128,0.02,-0.064,0.178,-0.537,-0.151
19,A1_3,-0.216,-0.025,-0.011,1.0,0.055,-0.056,0.117,0.24,0.093,-0.253,-0.182,-0.081,0.137,0.561,-0.239,0.049
19,B1_1,-0.309,0.442,-0.615,0.055,1.0,0.18,-0.242,0.038,-0.278,0.004,-0.016,-0.228,0.001,-0.232,0.194,0.355
19,B1_2,0.237,-0.304,-0.255,-0.056,0.18,1.0,-0.239,0.198,0.324,0.178,-0.192,0.051,-0.089,0.049,0.382,0.451
19,B1_3,0.059,0.003,0.141,0.117,-0.242,-0.239,1.0,0.127,0.164,-0.608,-0.318,0.106,-0.137,-0.234,0.053,-0.225
19,A2_1,0.082,-0.155,-0.101,0.24,0.038,0.198,0.127,1.0,0.375,-0.308,-0.183,-0.423,-0.462,-0.056,0.219,0.515
19,A2_2,-0.217,-0.17,-0.114,0.093,-0.278,0.324,0.164,0.375,1.0,0.284,-0.244,0.074,-0.229,-0.1,0.075,0.013
19,A2_3,-0.288,0.062,-0.052,-0.253,0.004,0.178,-0.608,-0.308,0.284,1.0,0.015,-0.169,0.227,0.137,-0.117,-0.182
19,B2_1,0.251,0.071,0.128,-0.182,-0.016,-0.192,-0.318,-0.183,-0.244,0.015,1.0,0.468,0.292,0.048,0.002,-0.286
19,B2_2,0.177,-0.258,0.02,-0.081,-0.228,0.051,0.106,-0.423,0.074,-0.169,0.468,1.0,0.351,0.092,0.188,-0.318
19,B2_3,0.303,-0.152,-0.064,0.137,0.001,-0.089,-0.137,-0.462,-0.229,0.227,0.292,0.351,1.0,0.399,0.047,-0.617
19,y1,0.117,-0.081,0.178,0.561,-0.232,0.049,-0.234,-0.056,-0.1,0.137,0.048,0.092,0.399,1.0,0.127,-0.155
19,y2,0.245,0.013,-0.537,-0.239,0.194,0.382,0.053,0.219,0.075,-0.117,0.002,0.188,0.047,0.127,1.0,0.161
19,y3,-0.278,0.151,-0.151,0.049,0.355,0.451,-0.225,0.515,0.013,-0.182,-0.286,-0.318,-0.617,-0.155,0.161,1.0
20,.,1.0,-0.533,0.145,-0.215,-0.308,0.237,0.058,0.083,-0.217,-0.287,0.253,0.175,0.302,0.116,0.243,-0.278
20,A1_1,-0.533,1.0,-0.031,-0.026,0.442,-0.305,0.003,-0.155,-0.17,0.062,0.071,-0.258,-0.153,-0.081,0.013,0.151
20,A1_2,0.145,-0.031,1.0,-0.012,-0.615,-0.255,0.141,-0.101,-0.114,-0.052,0.128,0.02,-0.065,0.176,-0.537,-0.151
20,A1_3,-0.215,-0.026,-0.012,1.0,0.057,-0.056,0.118,0.24,0.091,-0.254,-0.182,-0.081,0.137,0.56,-0.239,0.05
20,B1_1,-0.308,0.442,-0.615,0.057,1.0,0.181,-0.242,0.038,-0.278,0.004,-0.016,-0.227,0.003,-0.231,0.194,0.354
20,B1_2,0.237,-0.305,-0.255,-0.056,0.181,1.0,-0.238,0.197,0.324,0.177,-0.191,0.052,-0.088,0.051,0.383,0.451
20,B1_3,0.058,0.003,0.141,0.118,-0.242,-0.238,1.0,0.127,0.164,-0.608,-0.317,0.107,-0.135,-0.234,0.053,-0.226
20,A2_1,0.083,-0.155,-0.101,0.24,0.038,0.197,0.127,1.0,0.374,-0.309,-0.183,-0.423,-0.462,-0.057,0.219,0.516
20,A2_2,-0.217,-0.17,-0.114,0.091,-0.278,0.324,0.164,0.374,1.0,0.283,-0.244,0.074,-0.23,-0.101,0.076,0.014
20,A2_3,-0.287,0.062,-0.052,-0.254,0.004,0.177,-0.608,-0.309,0.283,1.0,0.014,-0.169,0.226,0.137,-0.116,-0.18
20,B2_1,0.253,0.071,0.128,-0.182,-0.016,-0.191,-0.317,-0.183,-0.244,0.014,1.0,0.469,0.294,0.048,0.001,-0.287
20,B2_2,0.175,-0.258,0.02,-0.081,-0.227,0.052,0.107,-0.423,0.074,-0.169,0.469,1.0,0.353,0.092,0.188,-0.319
20,B2_3,0.302,-0.153,-0.065,0.137,0.003,-0.088,-0.135,-0.462,-0.23,0.226,0.294,0.353,1.0,0.398,0.048,-0.616
20,y1,0.116,-0.081,0.176,0.56,-0.231,0.051,-0.234,-0.057,-0.101,0.137,0.048,0.092,0.398,1.0,0.128,-0.153
20,y2,0.243,0.013,-0.537,-0.239,0.194,0.383,0.053,0.219,0.076,-0.116,0.001,0.188,0.048,0.128,1.0,0.162
20,y3,-0.278,0.151,-0.151,0.05,0.354,0.451,-0.226,0.516,0.014,-0.18,-0.287,-0.319,-0.616,-0.153,0.162,1.0
21,.,1.0,-0.531,0.146,-0.215,-0.307,0.236,0.057,0.084,-0.218,-0.288,0.254,0.173,0.3,0.116,0.241,-0.278
21,A1_1,-0.531,1.0,-0.031,-0.026,0.441,-0.306,0.002,-0.154,-0.17,0.062,0.07,-0.259,-0.154,-0.082,0.013,0.151
21,A1_2,0.146,-0.031,1.0,-0.013,-0.615,-0.255,0.141,-0.101,-0.115,-0.052,0.129,0.02,-0.066,0.175,-0.538,-0.151
21,A1_3,-0.215,-0.026,-0.013,1.0,0.058,-0.055,0.119,0.24,0.09,-0.256,-0.181,-0.08,0.136,0.558,-0.239,0.05
21,B1_1,-0.307,0.441,-0.615,0.058,1.0,0.181,-0.241,0.037,-0.278,0.004,-0.016,-0.225,0.005,-0.23,0.194,0.353
21,B1_2,0.236,-0.306,-0.255,-0.055,0.181,1.0,-0.237,0.196,0.323,0.176,-0.191,0.054,-0.086,0.052,0.383,0.45
21,B1_3,0.057,0.002,0.141,0.119,-0.241,-0.237,1.0,0.126,0.164,-0.608,-0.316,0.108,-0.133,-0.234,0.053,-0.226
21,A2_1,0.084,-0.154,-0.101,0.24,0.037,0.196,0.126,1.0,0.374,-0.31,-0.184,-0.423,-0.463,-0.058,0.218,0.516
21,A2_2,-0.218,-0.17,-0.115,0.09,-0.278,0.323,0.164,0.374,1.0,0.283,-0.244,0.074,-0.231,-0.101,0.077,0.015
21,A2_3,-0.288,0.062,-0.052,-0.256,0.004,0.176,-0.608,-0.31,0.283,1.0,0.014,-0.17,0.225,0.138,-0.115,-0.179
21,B2_1,0.254,0.07,0.129,-0.181,-0.016,-0.191,-0.316,-0.184,-0.244,0.014,1.0,0.47,0.296,0.047,0.0,-0.289
21,B2_2,0.173,-0.259,0.02,-0.08,-0.225,0.054,0.108,-0.423,0.074,-0.17,0.47,1.0,0.354,0.092,0.188,-0.319
21,B2_3,0.3,-0.154,-0.066,0.136,0.005,-0.086,-0.133,-0.463,-0.231,0.225,0.296,0.354,1.0,0.398,0.048,-0.615
21,y1,0.116,-0.082,0.175,0.558,-0.23,0.052,-0.234,-0.058,-0.101,0.138,0.047,0.092,0.398,1.0,0.129,-0.152
21,y2,0.241,0.013,-0.538,-0.239,0.194,0.383,0.053,0.218,0.077,-0.115,0.0,0.188,0.048,0.129,1.0,0.162
21,y3,-0.278,0.151,-0.151,0.05,0.353,0.45,-0.226,0.516,0.015,-0.179,-0.289,-0.319,-0.615,-0.152,0.162,1.0
22,.,1.0,-0.529,0.146,-0.214,-0.306,0.235,0.057,0.085,-0.219,-0.288,0.255,0.17,0.298,0.115,0.238,-0.278
22,A1_1,-0.529,1.0,-0.031,-0.026,0.441,-0.306,0.001,-0.154,-0.17,0.062,0.069,-0.259,-0.155,-0.083,0.013,0.152
22,A1_2,0.146,-0.031,1.0,-0.014,-0.615,-0.256,0.141,-0.101,-0.115,-0.052,0.129,0.02,-0.067,0.173,-0.538,-0.15
22,A1_3,-0.214,-0.026,-0.014,1.0,0.059,-0.055,0.12,0.239,0.089,-0.258,-0.181,-0.08,0.136,0.557,-0.239,0.051
22,B1_1,-0.306,0.441,-0.615,0.059,1.0,0.181,-0.241,0.036,-0.278,0.004,-0.015,-0.223,0.007,-0.229,0.194,0.352
22,B1_2,0.235,-0.306,-0.256,-0.055,0.181,1.0,-0.236,0.195,0.323,0.175,-0.19,0.055,-0.084,0.053,0.384,0.45
22,B1_3,0.057,0.001,0.141,0.12,-0.241,-0.236,1.0,0.126,0.165,-0.608,-0.315,0.11,-0.131,-0.234,0.053,-0.227
22,A2_1,0.085,-0.154,-0.101,0.239,0.036,0.195,0.126,1.0,0.374,-0.31,-0.185,-0.423,-0.463,-0.059,0.218,0.516
22,A2_2,-0.219,-0.17,-0.115,0.089,-0.278,0.323,0.165,0.374,1.0,0.282,-0.244,0.073,-0.232,-0.101,0.078,0.016
22,A2_3,-0.288,0.062,-0.052,-0.258,0.004,0.175,-0.608,-0.31,0.282,1.0,0.014,-0.17,0.223,0.138,-0.114,-0.178
22,B2_1,0.255,0.069,0.129,-0.181,-0.015,-0.19,-0.315,-0.185,-0.244,0.014,1.0,0.471,0.297,0.047,-0.001,-0.29
22,B2_2,0.17,-0.259,0.02,-0.08,-0.223,0.055,0.11,-0.423,0.073,-0.17,0.471,1.0,0.356,0.091,0.187,-0.319
22,B2_3,0.298,-0.155,-0.067,0.136,0.007,-0.084,-0.131,-0.463,-0.232,0.223,0.297,0.356,1.0,0.397,0.048,-0.615
22,y1,0.115,-0.083,0.173,0.557,-0.229,0.053,-0.234,-0.059,-0.101,0.138,0.047,0.091,0.397,1.0,0.13,-0.151
22,y2,0.238,0.013,-0.538,-0.239,0.194,0.384,0.053,0.218,0.078,-0.114,-0.001,0.187,0.048,0.13,1.0,0.163
22,y3,-0.278,0.152,-0.15,0.051,0.352,0.45,-0.227,0.516,0.016,-0.178,-0.29,-0.319,-0.615,-0.151,0.163,1.0
23,.,1.0,-0.528,0.147,-0.214,-0.306,0.235,0.055,0.087,-0.219,-0.289,0.256,0.168,0.296,0.115,0.236,-0.277
23,A1_1,-0.528,1.0,-0.031,-0.027,0.44,-0.307,0.0,-0.153,-0.17,0.063,0.069,-0.26,-0.156,-0.084,0.013,0.152
23,A1_2,0.147,-0.031,1.0,-0.015,-0.615,-0.256,0.141,-0.102,-0.116,-0.053,0.129,0.02,-0.068,0.172,-0.538,-0.15
23,A1_3,-0.214,-0.027,-0.015,1.0,0.06,-0.055,0.121,0.239,0.087,-0.259,-0.18,-0.08,0.135,0.555,-0.24,0.052
23,B1_1,-0.306,0.44,-0.615,0.06,1.0,0.182,-0.241,0.036,-0.277,0.005,-0.015,-0.222,0.009,-0.227,0.194,0.351
23,B1_2,0.235,-0.307,-0.256,-0.055,0.182,1.0,-0.236,0.194,0.323,0.174,-0.189,0.056,-0.082,0.055,0.385,0.45
23,B1_3,0.055,0.0,0.141,0.121,-0.241,-0.236,1.0,0.125,0.165,-0.609,-0.314,0.111,-0.129,-0.234,0.053,-0.227
23,A2_1,0.087,-0.153,-0.102,0.239,0.036,0.194,0.125,1.0,0.373,-0.311,-0.185,-0.424,-0.464,-0.06,0.218,0.516
23,A2_2,-0.219,-0.17,-0.116,0.087,-0.277,0.323,0.165,0.373,1.0,0.281,-0.244,0.073,-0.232,-0.101,0.079,0.017
23,A2_3,-0.289,0.063,-0.053,-0.259,0.005,0.174,-0.609,-0.311,0.281,1.0,0.014,-0.171,0.222,0.139,-0.112,-0.177
23,B2_1,0.256,0.069,0.129,-0.18,-0.015,-0.189,-0.314,-0.185,-0.244,0.014,1.0,0.472,0.299,0.047,-0.002,-0.291
23,B2_2,0.168,-0.26,0.02,-0.08,-0.222,0.056,0.111,-0.424,0.073,-0.171,0.472,1.0,0.357,0.091,0.187,-0.318
23,B2_3,0.296,-0.156,-0.068,0.135,0.009,-0.082,-0.129,-0.464,-0.232,0.222,0.299,0.357,1.0,0.396,0.048,-0.614
23,y1,0.115,-0.084,0.172,0.555,-0.227,0.055,-0.234,-0.06,-0.101,0.139,0.047,0.091,0.396,1.0,0.131,-0.15
23,y2,0.236,0.013,-0.538,-0.24,0.194,0.385,0.053,0.218,0.079,-0.112,-0.002,0.187,0.048,0.131,1.0,0.164
23,y3,-0.277,0.152,-0.15,0.052,0.351,0.45,-0.227,0.516,0.017,-0.177,-0.291,-0.318,-0.614,-0.15,0.164,1.0
24,.,1.0,-0.526,0.147,-0.214,-0.305,0.235,0.054,0.088,-0.22,-0.288,0.256,0.165,0.294,0.114,0.234,-0.277
24,A1_1,-0.526,1.0,-0.031,-0.027,0.44,-0.308,-0.0,-0.152,-0.17,0.063,0.068,-0.26,-0.157,-0.085,0.014,0.153
24,A1_2,0.147,-0.031,1.0,-0.016,-0.615,-0.257,0.141,-0.102,-0.116,-0.053,0.129,0.019,-0.069,0.17,-0.538,-0.15
24,A1_3,-0.214,-0.027,-0.016,1.0,0.062,-0.054,0.121,0.238,0.086,-0.261,-0.18,-0.08,0.134,0.554,-0.24,0.052
24,B1_1,-0.305,0.44,-0.615,0.062,1.0,0.182,-0.241,0.035,-0.277,0.005,-0.015,-0.22,0.011,-0.227,0.194,0.351
24,B1_2,0.235,-0.308,-0.257,-0.054,0.182,1.0,-0.235,0.193,0.323,0.174,-0.189,0.057,-0.08,0.056,0.385,0.45
24,B1_3,0.054,-0.0,0.141,0.121,-0.241,-0.235,1.0,0.125,0.165,-0.609,-0.313,0.112,-0.127,-0.234,0.052,-0.228
24,A2_1,0.088,-0.152,-0.102,0.238,0.035,0.193,0.125,1.0,0.373,-0.312,-0.186,-0.424,-0.465,-0.061,0.218,0.516
24,A2_2,-0.22,-0.17,-0.116,0.086,-0.277,0.323,0.165,0.373,1.0,0.28,-0.244,0.073,-0.233,-0.102,0.08,0.018
24,A2_3,-0.288,0.063,-0.053,-0.261,0.005,0.174,-0.609,-0.312,0.28,1.0,0.013,-0.171,0.221,0.139,-0.111,-0.177
24,B2_1,0.256,0.068,0.129,-0.18,-0.015,-0.189,-0.313,-0.186,-0.244,0.013,1.0,0.473,0.301,0.047,-0.002,-0.292
24,B2_2,0.165,-0.26,0.019,-0.08,-0.22,0.057,0.112,-0.424,0.073,-0.171,0.473,1.0,0.358,0.091,0.186,-0.318
24,B2_3,0.294,-0.157,-0.069,0.134,0.011,-0.08,-0.127,-0.465,-0.233,0.221,0.301,0.358,1.0,0.395,0.048,-0.613
24,y1,0.114,-0.085,0.17,0.554,-0.227,0.056,-0.234,-0.061,-0.102,0.139,0.047,0.091,0.395,1.0,0.133,-0.149
24,y2,0.234,0.014,-0.538,-0.24,0.194,0.385,0.052,0.218,0.08,-0.111,-0.002,0.186,0.048,0.133,1.0,0.164
24,y3,-0.277,0.153,-0.15,0.052,0.351,0.45,-0.228,0.516,0.018,-0.177,-0.292,-0.318,-0.613,-0.149,0.164,1.0
25,.,1.0,-0.523,0.148,-0.213,-0.304,0.234,0.053,0.089,-0.22,-0.289,0.257,0.163,0.292,0.113,0.231,-0.277
25,A1_1,-0.523,1.0,-0.031,-0.028,0.439,-0.309,-0.001,-0.152,-0.17,0.063,0.067,-0.261,-0.158,-0.086,0.014,0.153
25,A1_2,0.148,-0.031,1.0,-0.017,-0.615,-0.257,0.141,-0.102,-0.117,-0.053,0.129,0.019,-0.07,0.169,-0.538,-0.15
25,A1_3,-0.213,-0.028,-0.017,1.0,0.063,-0.054,0.122,0.238,0.085,-0.262,-0.179,-0.08,0.134,0.553,-0.24,0.053
25,B1_1,-0.304,0.439,-0.615,0.063,1.0,0.182,-0.241,0.035,-0.277,0.005,-0.015,-0.219,0.013,-0.226,0.194,0.35
25,B1_2,0.234,-0.309,-0.257,-0.054,0.182,1.0,-0.234,0.192,0.322,0.173,-0.188,0.059,-0.079,0.057,0.386,0.449
25,B1_3,0.053,-0.001,0.141,0.122,-0.241,-0.234,1.0,0.125,0.165,-0.609,-0.312,0.113,-0.126,-0.234,0.052,-0.229
25,A2_1,0.089,-0.152,-0.102,0.238,0.035,0.192,0.125,1.0,0.372,-0.312,-0.186,-0.424,-0.466,-0.062,0.219,0.517
25,A2_2,-0.22,-0.17,-0.117,0.085,-0.277,0.322,0.165,0.372,1.0,0.28,-0.245,0.072,-0.234,-0.102,0.081,0.019
25,A2_3,-0.289,0.063,-0.053,-0.262,0.005,0.173,-0.609,-0.312,0.28,1.0,0.013,-0.171,0.22,0.14,-0.11,-0.176
25,B2_1,0.257,0.067,0.129,-0.179,-0.015,-0.188,-0.312,-0.186,-0.245,0.013,1.0,0.475,0.302,0.046,-0.003,-0.294
25,B2_2,0.163,-0.261,0.019,-0.08,-0.219,0.059,0.113,-0.424,0.072,-0.171,0.475,1.0,0.36,0.091,0.186,-0.319
25,B2_3,0.292,-0.158,-0.07,0.134,0.013,-0.079,-0.126,-0.466,-0.234,0.22,0.302,0.36,1.0,0.395,0.048,-0.612
25,y1,0.113,-0.086,0.169,0.553,-0.226,0.057,-0.234,-0.062,-0.102,0.14,0.046,0.091,0.395,1.0,0.134,-0.148
25,y2,0.231,0.014,-0.538,-0.24,0.194,0.386,0.052,0.219,0.081,-0.11,-0.003,0.186,0.048,0.134,1.0,0.165
25,y3,-0.277,0.153,-0.15,0.053,0.35,0.449,-0.229,0.517,0.019,-0.176,-0.294,-0.319,-0.612,-0.148,0.165,1.0
26,.,1.0,-0.522,0.148,-0.213,-0.303,0.233,0.053,0.09,-0.221,-0.289,0.258,0.161,0.29,0.113,0.229,-0.277
26,A1_1,-0.522,1.0,-0.031,-0.028,0.439,-0.31,-0.002,-0.151,-0.17,0.063,0.066,-0.261,-0.159,-0.086,0.014,0.153
26,A1_2,0.148,-0.031,1.0,-0.018,-0.615,-0.258,0.141,-0.103,-0.117,-0.054,0.129,0.019,-0.071,0.167,-0.537,-0.15
26,A1_3,-0.213,-0.028,-0.018,1.0,0.064,-0.053,0.123,0.237,0.084,-0.263,-0.179,-0.08,0.133,0.551,-0.24,0.054
26,B1_1,-0.303,0.439,-0.615,0.064,1.0,0.182,-0.24,0.034,-0.277,0.005,-0.015,-0.217,0.015,-0.225,0.194,0.348
26,B1_2,0.233,-0.31,-0.258,-0.053,0.182,1.0,-0.233,0.191,0.322,0.172,-0.187,0.06,-0.077,0.058,0.387,0.449
26,B1_3,0.053,-0.002,0.141,0.123,-0.24,-0.233,1.0,0.125,0.165,-0.609,-0.311,0.114,-0.124,-0.234,0.052,-0.229
26,A2_1,0.09,-0.151,-0.103,0.237,0.034,0.191,0.125,1.0,0.372,-0.313,-0.187,-0.424,-0.467,-0.063,0.219,0.517
26,A2_2,-0.221,-0.17,-0.117,0.084,-0.277,0.322,0.165,0.372,1.0,0.279,-0.245,0.072,-0.235,-0.102,0.082,0.02
26,A2_3,-0.289,0.063,-0.054,-0.263,0.005,0.172,-0.609,-0.313,0.279,1.0,0.013,-0.172,0.219,0.14,-0.108,-0.175
26,B2_1,0.258,0.066,0.129,-0.179,-0.015,-0.187,-0.311,-0.187,-0.245,0.013,1.0,0.476,0.304,0.047,-0.004,-0.295
26,B2_2,0.161,-0.261,0.019,-0.08,-0.217,0.06,0.114,-0.424,0.072,-0.172,0.476,1.0,0.361,0.092,0.186,-0.319
26,B2_3,0.29,-0.159,-0.071,0.133,0.015,-0.077,-0.124,-0.467,-0.235,0.219,0.304,0.361,1.0,0.394,0.048,-0.612
26,y1,0.113,-0.086,0.167,0.551,-0.225,0.058,-0.234,-0.063,-0.102,0.14,0.047,0.092,0.394,1.0,0.135,-0.146
26,y2,0.229,0.014,-0.537,-0.24,0.194,0.387,0.052,0.219,0.082,-0.108,-0.004,0.186,0.048,0.135,1.0,0.166
26,y3,-0.277,0.153,-0.15,0.054,0.348,0.449,-0.229,0.517,0.02,-0.175,-0.295,-0.319,-0.612,-0.146,0.166,1.0
27,.,1.0,-0.52,0.149,-0.213,-0.303,0.233,0.052,0.091,-0.221,-0.289,0.258,0.158,0.288,0.112,0.227,-0.277
27,A1_1,-0.52,1.0,-0.031,-0.028,0.438,-0.311,-0.002,-0.15,-0.17,0.063,0.066,-0.261,-0.159,-0.087,0.013,0.153
27,A1_2,0.149,-0.031,1.0,-0.019,-0.616,-0.258,0.141,-0.103,-0.117,-0.054,0.129,0.019,-0.072,0.165,-0.537,-0.15
27,A1_3,-0.213,-0.028,-0.019,1.0,0.066,-0.053,0.123,0.237,0.082,-0.264,-0.178,-0.079,0.132,0.55,-0.24,0.054
27,B1_1,-0.303,0.438,-0.616,0.066,1.0,0.182,-0.24,0.034,-0.277,0.005,-0.015,-0.215,0.017,-0.224,0.194,0.348
27,B1_2,0.233,-0.311,-0.258,-0.053,0.182,1.0,-0.233,0.19,0.322,0.172,-0.186,0.061,-0.075,0.06,0.387,0.448
27,B1_3,0.052,-0.002,0.141,0.123,-0.24,-0.233,1.0,0.124,0.166,-0.609,-0.31,0.115,-0.122,-0.234,0.052,-0.23
27,A2_1,0.091,-0.15,-0.103,0.237,0.034,0.19,0.124,1.0,0.371,-0.314,-0.188,-0.425,-0.468,-0.064,0.219,0.517
27,A2_2,-0.221,-0.17,-0.117,0.082,-0.277,0.322,0.166,0.371,1.0,0.278,-0.245,0.072,-0.235,-0.102,0.083,0.021
27,A2_3,-0.289,0.063,-0.054,-0.264,0.005,0.172,-0.609,-0.314,0.278,1.0,0.013,-0.172,0.218,0.141,-0.107,-0.174
27,B2_1,0.258,0.066,0.129,-0.178,-0.015,-0.186,-0.31,-0.188,-0.245,0.013,1.0,0.477,0.305,0.047,-0.005,-0.296
27,B2_2,0.158,-0.261,0.019,-0.079,-0.215,0.061,0.115,-0.425,0.072,-0.172,0.477,1.0,0.362,0.092,0.185,-0.319
27,B2_3,0.288,-0.159,-0.072,0.132,0.017,-0.075,-0.122,-0.468,-0.235,0.218,0.305,0.362,1.0,0.393,0.049,-0.611
27,y1,0.112,-0.087,0.165,0.55,-0.224,0.06,-0.234,-0.064,-0.102,0.141,0.047,0.092,0.393,1.0,0.136,-0.145
27,y2,0.227,0.013,-0.537,-0.24,0.194,0.387,0.052,0.219,0.083,-0.107,-0.005,0.185,0.049,0.136,1.0,0.167
27,y3,-0.277,0.153,-0.15,0.054,0.348,0.448,-0.23,0.517,0.021,-0.174,-0.296,-0.319,-0.611,-0.145,0.167,1.0
28,.,1.0,-0.517,0.15,-0.212,-0.302,0.232,0.052,0.092,-0.222,-0.289,0.259,0.155,0.286,0.111,0.224,-0.277
28,A1_1,-0.517,1.0,-0.031,-0.028,0.438,-0.312,-0.003,-0.15,-0.17,0.063,0.065,-0.262,-0.16,-0.088,0.013,0.153
28,A1_2,0.15,-0.031,1.0,-0.02,-0.615,-0.258,0.14,-0.103,-0.118,-0.054,0.129,0.019,-0.073,0.163,-0.537,-0.149
28,A1_3,-0.212,-0.028,-0.02,1.0,0.067,-0.053,0.124,0.236,0.081,-0.265,-0.178,-0.079,0.132,0.548,-0.241,0.055
28,B1_1,-0.302,0.438,-0.615,0.067,1.0,0.182,-0.24,0.033,-0.277,0.005,-0.015,-0.214,0.018,-0.223,0.194,0.347
28,B1_2,0.232,-0.312,-0.258,-0.053,0.182,1.0,-0.232,0.189,0.322,0.171,-0.186,0.062,-0.074,0.061,0.388,0.448
28,B1_3,0.052,-0.003,0.14,0.124,-0.24,-0.232,1.0,0.124,0.166,-0.609,-0.309,0.116,-0.121,-0.234,0.052,-0.23
28,A2_1,0.092,-0.15,-0.103,0.236,0.033,0.189,0.124,1.0,0.371,-0.314,-0.188,-0.425,-0.468,-0.065,0.219,0.518
28,A2_2,-0.222,-0.17,-0.118,0.081,-0.277,0.322,0.166,0.371,1.0,0.278,-0.245,0.071,-0.236,-0.102,0.084,0.022
28,A2_3,-0.289,0.063,-0.054,-0.265,0.005,0.171,-0.609,-0.314,0.278,1.0,0.012,-0.172,0.217,0.142,-0.106,-0.173
28,B2_1,0.259,0.065,0.129,-0.178,-0.015,-0.186,-0.309,-0.188,-0.245,0.012,1.0,0.478,0.307,0.046,-0.005,-0.297
28,B2_2,0.155,-0.262,0.019,-0.079,-0.214,0.062,0.116,-0.425,0.071,-0.172,0.478,1.0,0.364,0.092,0.185,-0.319
28,B2_3,0.286,-0.16,-0.073,0.132,0.018,-0.074,-0.121,-0.468,-0.236,0.217,0.307,0.364,1.0,0.393,0.049,-0.611
28,y1,0.111,-0.088,0.163,0.548,-0.223,0.061,-0.234,-0.065,-0.102,0.142,0.046,0.092,0.393,1.0,0.137,-0.144
28,y2,0.224,0.013,-0.537,-0.241,0.194,0.388,0.052,0.219,0.084,-0.106,-0.005,0.185,0.049,0.137,1.0,0.167
28,y3,-0.277,0.153,-0.149,0.055,0.347,0.448,-0.23,0.518,0.022,-0.173,-0.297,-0.319,-0.611,-0.144,0.167,1.0
29,.,1.0,-0.515,0.15,-0.212,-0.302,0.231,0.05,0.093,-0.222,-0.289,0.259,0.153,0.284,0.111,0.222,-0.277
29,A1_1,-0.515,1.0,-0.031,-0.029,0.437,-0.313,-0.003,-0.149,-0.17,0.063,0.064,-0.262,-0.161,-0.089,0.013,0.154
29,A1_2,0.15,-0.031,1.0,-0.021,-0.616,-0.259,0.14,-0.103,-0.118,-0.054,0.129,0.018,-0.073,0.162,-0.537,-0.149
29,A1_3,-0.212,-0.029,-0.021,1.0,0.068,-0.053,0.125,0.236,0.08,-0.267,-0.177,-0.08,0.131,0.546,-0.241,0.056
29,B1_1,-0.302,0.437,-0.616,0.068,1.0,0.183,-0.24,0.032,-0.276,0.006,-0.014,-0.212,0.02,-0.222,0.194,0.346
29,B1_2,0.231,-0.313,-0.259,-0.053,0.183,1.0,-0.232,0.187,0.321,0.17,-0.185,0.064,-0.072,0.062,0.388,0.448
29,B1_3,0.05,-0.003,0.14,0.125,-0.24,-0.232,1.0,0.124,0.166,-0.61,-0.308,0.117,-0.119,-0.234,0.052,-0.231
29,A2_1,0.093,-0.149,-0.103,0.236,0.032,0.187,0.124,1.0,0.37,-0.315,-0.188,-0.425,-0.469,-0.066,0.219,0.518
29,A2_2,-0.222,-0.17,-0.118,0.08,-0.276,0.321,0.166,0.37,1.0,0.277,-0.245,0.071,-0.237,-0.102,0.085,0.023
29,A2_3,-0.289,0.063,-0.054,-0.267,0.006,0.17,-0.61,-0.315,0.277,1.0,0.012,-0.173,0.216,0.143,-0.105,-0.172
29,B2_1,0.259,0.064,0.129,-0.177,-0.014,-0.185,-0.308,-0.188,-0.245,0.012,1.0,0.479,0.308,0.046,-0.006,-0.298
29,B2_2,0.153,-0.262,0.018,-0.08,-0.212,0.064,0.117,-0.425,0.071,-0.173,0.479,1.0,0.365,0.092,0.185,-0.318
29,B2_3,0.284,-0.161,-0.073,0.131,0.02,-0.072,-0.119,-0.469,-0.237,0.216,0.308,0.365,1.0,0.392,0.049,-0.61
29,y1,0.111,-0.089,0.162,0.546,-0.222,0.062,-0.234,-0.066,-0.102,0.143,0.046,0.092,0.392,1.0,0.138,-0.143
29,y2,0.222,0.013,-0.537,-0.241,0.194,0.388,0.052,0.219,0.085,-0.105,-0.006,0.185,0.049,0.138,1.0,0.168
29,y3,-0.277,0.154,-0.149,0.056,0.346,0.448,-0.231,0.518,0.023,-0.172,-0.298,-0.318,-0.61,-0.143,0.168,1.0
30,.,1.0,-0.513,0.151,-0.211,-0.301,0.231,0.05,0.094,-0.222,-0.289,0.26,0.15,0.283,0.111,0.219,-0.277
30,A1_1,-0.513,1.0,-0.031,-0.029,0.437,-0.313,-0.004,-0.148,-0.17,0.064,0.063,-0.263,-0.162,-0.09,0.013,0.154
30,A1_2,0.151,-0.031,1.0,-0.022,-0.616,-0.259,0.14,-0.103,-0.118,-0.054,0.129,0.018,-0.074,0.161,-0.537,-0.149
30,A1_3,-0.211,-0.029,-0.022,1.0,0.069,-0.052,0.125,0.235,0.08,-0.268,-0.177,-0.08,0.13,0.545,-0.241,0.056
30,B1_1,-0.301,0.437,-0.616,0.069,1.0,0.183,-0.239,0.032,-0.276,0.006,-0.014,-0.211,0.022,-0.222,0.194,0.345
30,B1_2,0.231,-0.313,-0.259,-0.052,0.183,1.0,-0.231,0.186,0.321,0.17,-0.184,0.065,-0.07,0.064,0.389,0.447
30,B1_3,0.05,-0.004,0.14,0.125,-0.239,-0.231,1.0,0.123,0.166,-0.61,-0.307,0.118,-0.117,-0.235,0.051,-0.231
30,A2_1,0.094,-0.148,-0.103,0.235,0.032,0.186,0.123,1.0,0.37,-0.316,-0.189,-0.425,-0.47,-0.067,0.218,0.518
30,A2_2,-0.222,-0.17,-0.118,0.08,-0.276,0.321,0.166,0.37,1.0,0.277,-0.245,0.071,-0.237,-0.102,0.086,0.023
30,A2_3,-0.289,0.064,-0.054,-0.268,0.006,0.17,-0.61,-0.316,0.277,1.0,0.012,-0.173,0.215,0.143,-0.103,-0.172
30,B2_1,0.26,0.063,0.129,-0.177,-0.014,-0.184,-0.307,-0.189,-0.245,0.012,1.0,0.48,0.31,0.046,-0.007,-0.3
30,B2_2,0.15,-0.263,0.018,-0.08,-0.211,0.065,0.118,-0.425,0.071,-0.173,0.48,1.0,0.366,0.092,0.185,-0.319
30,B2_3,0.283,-0.162,-0.074,0.13,0.022,-0.07,-0.117,-0.47,-0.237,0.215,0.31,0.366,1.0,0.391,0.049,-0.609
30,y1,0.111,-0.09,0.161,0.545,-0.222,0.064,-0.235,-0.067,-0.102,0.143,0.046,0.092,0.391,1.0,0.139,-0.142
30,y2,0.219,0.013,-0.537,-0.241,0.194,0.389,0.051,0.218,0.086,-0.103,-0.007,0.185,0.049,0.139,1.0,0.169
30,y3,-0.277,0.154,-0.149,0.056,0.345,0.447,-0.231,0.518,0.023,-0.172,-0.3,-0.319,-0.609,-0.142,0.169,1.0
31,.,1.0,-0.511,0.151,-0.21,-0.3,0.23,0.049,0.095,-0.223,-0.289,0.26,0.148,0.282,0.11,0.217,-0.277
31,A1_1,-0.511,1.0,-0.03,-0.029,0.436,-0.314,-0.005,-0.148,-0.17,0.064,0.063,-0.263,-0.163,-0.09,0.013,0.154
31,A1_2,0.151,-0.03,1.0,-0.023,-0.616,-0.259,0.14,-0.103,-0.119,-0.055,0.129,0.018,-0.075,0.159,-0.537,-0.149
31,A1_3,-0.21,-0.029,-0.023,1.0,0.07,-0.052,0.126,0.235,0.078,-0.27,-0.177,-0.08,0.13,0.543,-0.242,0.057
31,B1_1,-0.3,0.436,-0.616,0.07,1.0,0.183,-0.239,0.031,-0.276,0.006,-0.014,-0.209,0.024,-0.221,0.194,0.344
31,B1_2,0.23,-0.314,-0.259,-0.052,0.183,1.0,-0.23,0.185,0.321,0.169,-0.183,0.066,-0.069,0.065,0.389,0.447
31,B1_3,0.049,-0.005,0.14,0.126,-0.239,-0.23,1.0,0.123,0.166,-0.61,-0.305,0.119,-0.116,-0.235,0.051,-0.231
31,A2_1,0.095,-0.148,-0.103,0.235,0.031,0.185,0.123,1.0,0.369,-0.316,-0.19,-0.425,-0.471,-0.068,0.218,0.518
31,A2_2,-0.223,-0.17,-0.119,0.078,-0.276,0.321,0.166,0.369,1.0,0.276,-0.246,0.07,-0.238,-0.102,0.087,0.024
31,A2_3,-0.289,0.064,-0.055,-0.27,0.006,0.169,-0.61,-0.316,0.276,1.0,0.012,-0.173,0.214,0.144,-0.102,-0.171
31,B2_1,0.26,0.063,0.129,-0.177,-0.014,-0.183,-0.305,-0.19,-0.246,0.012,1.0,0.481,0.311,0.046,-0.008,-0.301
31,B2_2,0.148,-0.263,0.018,-0.08,-0.209,0.066,0.119,-0.425,0.07,-0.173,0.481,1.0,0.367,0.092,0.185,-0.318
31,B2_3,0.282,-0.163,-0.075,0.13,0.024,-0.069,-0.116,-0.471,-0.238,0.214,0.311,0.367,1.0,0.391,0.049,-0.609
31,y1,0.11,-0.09,0.159,0.543,-0.221,0.065,-0.235,-0.068,-0.102,0.144,0.046,0.092,0.391,1.0,0.14,-0.14
31,y2,0.217,0.013,-0.537,-0.242,0.194,0.389,0.051,0.218,0.087,-0.102,-0.008,0.185,0.049,0.14,1.0,0.17
31,y3,-0.277,0.154,-0.149,0.057,0.344,0.447,-0.231,0.518,0.024,-0.171,-0.301,-0.318,-0.609,-0.14,0.17,1.0
32,.,1.0,-0.509,0.152,-0.21,-0.299,0.229,0.048,0.096,-0.224,-0.29,0.261,0.146,0.28,0.109,0.215,-0.277
32,A1_1,-0.509,1.0,-0.03,-0.029,0.435,-0.315,-0.005,-0.147,-0.169,0.064,0.062,-0.263,-0.164,-0.091,0.014,0.154
32,A1_2,0.152,-0.03,1.0,-0.024,-0.616,-0.26,0.14,-0.103,-0.119,-0.055,0.129,0.018,-0.076,0.158,-0.537,-0.148
32,A1_3,-0.21,-0.029,-0.024,1.0,0.072,-0.052,0.126,0.234,0.077,-0.271,-0.176,-0.08,0.129,0.542,-0.242,0.058
32,B1_1,-0.299,0.435,-0.616,0.072,1.0,0.183,-0.239,0.031,-0.276,0.006,-0.014,-0.208,0.026,-0.22,0.194,0.343
32,B1_2,0.229,-0.315,-0.26,-0.052,0.183,1.0,-0.23,0.184,0.32,0.169,-0.183,0.067,-0.068,0.066,0.39,0.447
32,B1_3,0.048,-0.005,0.14,0.126,-0.239,-0.23,1.0,0.123,0.166,-0.61,-0.304,0.12,-0.114,-0.235,0.051,-0.232
32,A2_1,0.096,-0.147,-0.103,0.234,0.031,0.184,0.123,1.0,0.369,-0.317,-0.19,-0.426,-0.472,-0.069,0.218,0.518
32,A2_2,-0.224,-0.169,-0.119,0.077,-0.276,0.32,0.166,0.369,1.0,0.276,-0.246,0.07,-0.239,-0.103,0.088,0.025
32,A2_3,-0.29,0.064,-0.055,-0.271,0.006,0.169,-0.61,-0.317,0.276,1.0,0.011,-0.174,0.213,0.145,-0.101,-0.17
32,B2_1,0.261,0.062,0.129,-0.176,-0.014,-0.183,-0.304,-0.19,-0.246,0.011,1.0,0.482,0.313,0.046,-0.008,-0.302
32,B2_2,0.146,-0.263,0.018,-0.08,-0.208,0.067,0.12,-0.426,0.07,-0.174,0.482,1.0,0.369,0.092,0.184,-0.318
32,B2_3,0.28,-0.164,-0.076,0.129,0.026,-0.068,-0.114,-0.472,-0.239,0.213,0.313,0.369,1.0,0.39,0.049,-0.608
32,y1,0.109,-0.091,0.158,0.542,-0.22,0.066,-0.235,-0.069,-0.103,0.145,0.046,0.092,0.39,1.0,0.141,-0.139
32,y2,0.215,0.014,-0.537,-0.242,0.194,0.39,0.051,0.218,0.088,-0.101,-0.008,0.184,0.049,0.141,1.0,0.17
32,y3,-0.277,0.154,-0.148,0.058,0.343,0.447,-0.232,0.518,0.025,-0.17,-0.302,-0.318,-0.608,-0.139,0.17,1.0
33,.,1.0,-0.507,0.153,-0.209,-0.298,0.229,0.047,0.098,-0.224,-0.29,0.261,0.143,0.278,0.109,0.212,-0.277
33,A1_1,-0.507,1.0,-0.03,-0.03,0.435,-0.316,-0.005,-0.147,-0.169,0.064,0.061,-0.264,-0.164,-0.092,0.013,0.155
33,A1_2,0.153,-0.03,1.0,-0.025,-0.616,-0.26,0.139,-0.103,-0.119,-0.054,0.129,0.017,-0.077,0.157,-0.537,-0.148
33,A1_3,-0.209,-0.03,-0.025,1.0,0.073,-0.052,0.127,0.233,0.076,-0.272,-0.176,-0.08,0.128,0.54,-0.242,0.059
33,B1_1,-0.298,0.435,-0.616,0.073,1.0,0.184,-0.239,0.03,-0.276,0.006,-0.013,-0.206,0.027,-0.219,0.194,0.342
33,B1_2,0.229,-0.316,-0.26,-0.052,0.184,1.0,-0.229,0.183,0.32,0.168,-0.182,0.068,-0.066,0.067,0.39,0.447
33,B1_3,0.047,-0.005,0.139,0.127,-0.239,-0.229,1.0,0.123,0.166,-0.61,-0.303,0.121,-0.112,-0.235,0.051,-0.232
33,A2_1,0.098,-0.147,-0.103,0.233,0.03,0.183,0.123,1.0,0.369,-0.318,-0.191,-0.426,-0.473,-0.07,0.218,0.518
33,A2_2,-0.224,-0.169,-0.119,0.076,-0.276,0.32,0.166,0.369,1.0,0.275,-0.246,0.07,-0.239,-0.103,0.088,0.026
33,A2_3,-0.29,0.064,-0.054,-0.272,0.006,0.168,-0.61,-0.318,0.275,1.0,0.011,-0.174,0.212,0.145,-0.1,-0.169
33,B2_1,0.261,0.061,0.129,-0.176,-0.013,-0.182,-0.303,-0.191,-0.246,0.011,1.0,0.483,0.314,0.046,-0.009,-0.303
33,B2_2,0.143,-0.264,0.017,-0.08,-0.206,0.068,0.121,-0.426,0.07,-0.174,0.483,1.0,0.37,0.092,0.184,-0.318
33,B2_3,0.278,-0.164,-0.077,0.128,0.027,-0.066,-0.112,-0.473,-0.239,0.212,0.314,0.37,1.0,0.389,0.05,-0.607
33,y1,0.109,-0.092,0.157,0.54,-0.219,0.067,-0.235,-0.07,-0.103,0.145,0.046,0.092,0.389,1.0,0.142,-0.138
33,y2,0.212,0.013,-0.537,-0.242,0.194,0.39,0.051,0.218,0.088,-0.1,-0.009,0.184,0.05,0.142,1.0,0.171
33,y3,-0.277,0.155,-0.148,0.059,0.342,0.447,-0.232,0.518,0.026,-0.169,-0.303,-0.318,-0.607,-0.138,0.171,1.0
34,.,1.0,-0.505,0.153,-0.208,-0.298,0.229,0.047,0.098,-0.224,-0.29,0.261,0.141,0.276,0.108,0.21,-0.277
34,A1_1,-0.505,1.0,-0.03,-0.03,0.434,-0.317,-0.006,-0.146,-0.169,0.064,0.061,-0.264,-0.165,-0.093,0.013,0.155
34,A1_2,0.153,-0.03,1.0,-0.026,-0.616,-0.26,0.139,-0.103,-0.119,-0.055,0.129,0.017,-0.078,0.155,-0.537,-0.148
34,A1_3,-0.208,-0.03,-0.026,1.0,0.074,-0.052,0.127,0.233,0.075,-0.273,-0.176,-0.08,0.127,0.539,-0.243,0.059
34,B1_1,-0.298,0.434,-0.616,0.074,1.0,0.184,-0.238,0.029,-0.276,0.006,-0.013,-0.205,0.029,-0.218,0.194,0.341
34,B1_2,0.229,-0.317,-0.26,-0.052,0.184,1.0,-0.229,0.182,0.32,0.167,-0.181,0.069,-0.065,0.069,0.391,0.447
34,B1_3,0.047,-0.006,0.139,0.127,-0.238,-0.229,1.0,0.122,0.166,-0.61,-0.302,0.122,-0.111,-0.235,0.051,-0.233
34,A2_1,0.098,-0.146,-0.103,0.233,0.029,0.182,0.122,1.0,0.368,-0.318,-0.191,-0.426,-0.474,-0.07,0.218,0.518
34,A2_2,-0.224,-0.169,-0.119,0.075,-0.276,0.32,0.166,0.368,1.0,0.275,-0.246,0.069,-0.24,-0.103,0.089,0.027
34,A2_3,-0.29,0.064,-0.055,-0.273,0.006,0.167,-0.61,-0.318,0.275,1.0,0.011,-0.174,0.211,0.146,-0.099,-0.169
34,B2_1,0.261,0.061,0.129,-0.176,-0.013,-0.181,-0.302,-0.191,-0.246,0.011,1.0,0.484,0.316,0.045,-0.01,-0.304
34,B2_2,0.141,-0.264,0.017,-0.08,-0.205,0.069,0.122,-0.426,0.069,-0.174,0.484,1.0,0.371,0.092,0.184,-0.318
34,B2_3,0.276,-0.165,-0.078,0.127,0.029,-0.065,-0.111,-0.474,-0.24,0.211,0.316,0.371,1.0,0.388,0.05,-0.607
34,y1,0.108,-0.093,0.155,0.539,-0.218,0.069,-0.235,-0.07,-0.103,0.146,0.045,0.092,0.388,1.0,0.144,-0.137
34,y2,0.21,0.013,-0.537,-0.243,0.194,0.391,0.051,0.218,0.089,-0.099,-0.01,0.184,0.05,0.144,1.0,0.172
34,y3,-0.277,0.155,-0.148,0.059,0.341,0.447,-0.233,0.518,0.027,-0.169,-0.304,-0.318,-0.607,-0.137,0.172,1.0
35,.,1.0,-0.503,0.154,-0.207,-0.297,0.228,0.046,0.1,-0.225,-0.291,0.261,0.138,0.274,0.108,0.208,-0.276
35,A1_1,-0.503,1.0,-0.029,-0.03,0.434,-0.317,-0.006,-0.145,-0.168,0.064,0.06,-0.265,-0.166,-0.094,0.013,0.155
35,A1_2,0.154,-0.029,1.0,-0.027,-0.616,-0.261,0.139,-0.104,-0.119,-0.055,0.128,0.016,-0.079,0.154,-0.537,-0.148
35,A1_3,-0.207,-0.03,-0.027,1.0,0.075,-0.052,0.128,0.233,0.074,-0.274,-0.175,-0.08,0.127,0.537,-0.243,0.06
35,B1_1,-0.297,0.434,-0.616,0.075,1.0,0.184,-0.238,0.029,-0.276,0.006,-0.013,-0.204,0.031,-0.218,0.194,0.341
35,B1_2,0.228,-0.317,-0.261,-0.052,0.184,1.0,-0.228,0.181,0.32,0.167,-0.18,0.07,-0.063,0.07,0.392,0.446
35,B1_3,0.046,-0.006,0.139,0.128,-0.238,-0.228,1.0,0.122,0.166,-0.61,-0.301,0.123,-0.11,-0.235,0.051,-0.233
35,A2_1,0.1,-0.145,-0.104,0.233,0.029,0.181,0.122,1.0,0.368,-0.319,-0.192,-0.426,-0.474,-0.072,0.218,0.518
35,A2_2,-0.225,-0.168,-0.119,0.074,-0.276,0.32,0.166,0.368,1.0,0.274,-0.246,0.069,-0.241,-0.103,0.09,0.028
35,A2_3,-0.291,0.064,-0.055,-0.274,0.006,0.167,-0.61,-0.319,0.274,1.0,0.01,-0.174,0.21,0.147,-0.098,-0.168
35,B2_1,0.261,0.06,0.128,-0.175,-0.013,-0.18,-0.301,-0.192,-0.246,0.01,1.0,0.485,0.317,0.045,-0.01,-0.305
35,B2_2,0.138,-0.265,0.016,-0.08,-0.204,0.07,0.123,-0.426,0.069,-0.174,0.485,1.0,0.372,0.092,0.184,-0.318
35,B2_3,0.274,-0.166,-0.079,0.127,0.031,-0.063,-0.11,-0.474,-0.241,0.21,0.317,0.372,1.0,0.388,0.05,-0.606
35,y1,0.108,-0.094,0.154,0.537,-0.218,0.07,-0.235,-0.072,-0.103,0.147,0.045,0.092,0.388,1.0,0.145,-0.136
35,y2,0.208,0.013,-0.537,-0.243,0.194,0.392,0.051,0.218,0.09,-0.098,-0.01,0.184,0.05,0.145,1.0,0.172
35,y3,-0.276,0.155,-0.148,0.06,0.341,0.446,-0.233,0.518,0.028,-0.168,-0.305,-0.318,-0.606,-0.136,0.172,1.0
36,.,1.0,-0.501,0.155,-0.207,-0.297,0.227,0.045,0.101,-0.225,-0.291,0.262,0.136,0.272,0.108,0.205,-0.276
36,A1_1,-0.501,1.0,-0.029,-0.03,0.433,-0.318,-0.007,-0.145,-0.168,0.065,0.059,-0.265,-0.167,-0.094,0.013,0.155
36,A1_2,0.155,-0.029,1.0,-0.027,-0.616,-0.261,0.139,-0.104,-0.12,-0.055,0.128,0.016,-0.08,0.153,-0.537,-0.148
36,A1_3,-0.207,-0.03,-0.027,1.0,0.076,-0.051,0.128,0.232,0.073,-0.275,-0.175,-0.08,0.126,0.535,-0.243,0.061
36,B1_1,-0.297,0.433,-0.616,0.076,1.0,0.184,-0.238,0.028,-0.276,0.006,-0.013,-0.202,0.032,-0.217,0.194,0.34
36,B1_2,0.227,-0.318,-0.261,-0.051,0.184,1.0,-0.227,0.18,0.319,0.166,-0.179,0.072,-0.062,0.071,0.392,0.446
36,B1_3,0.045,-0.007,0.139,0.128,-0.238,-0.227,1.0,0.122,0.166,-0.61,-0.3,0.124,-0.108,-0.236,0.051,-0.234
36,A2_1,0.101,-0.145,-0.104,0.232,0.028,0.18,0.122,1.0,0.368,-0.319,-0.192,-0.426,-0.475,-0.072,0.218,0.518
36,A2_2,-0.225,-0.168,-0.12,0.073,-0.276,0.319,0.166,0.368,1.0,0.274,-0.246,0.068,-0.241,-0.103,0.09,0.028
36,A2_3,-0.291,0.065,-0.055,-0.275,0.006,0.166,-0.61,-0.319,0.274,1.0,0.01,-0.175,0.209,0.148,-0.097,-0.167
36,B2_1,0.262,0.059,0.128,-0.175,-0.013,-0.179,-0.3,-0.192,-0.246,0.01,1.0,0.486,0.318,0.045,-0.011,-0.306
36,B2_2,0.136,-0.265,0.016,-0.08,-0.202,0.072,0.124,-0.426,0.068,-0.175,0.486,1.0,0.373,0.092,0.184,-0.318
36,B2_3,0.272,-0.167,-0.08,0.126,0.032,-0.062,-0.108,-0.475,-0.241,0.209,0.318,0.373,1.0,0.387,0.05,-0.605
36,y1,0.108,-0.094,0.153,0.535,-0.217,0.071,-0.236,-0.072,-0.103,0.148,0.045,0.092,0.387,1.0,0.146,-0.134
36,y2,0.205,0.013,-0.537,-0.243,0.194,0.392,0.051,0.218,0.09,-0.097,-0.011,0.184,0.05,0.146,1.0,0.173
36,y3,-0.276,0.155,-0.148,0.061,0.34,0.446,-0.234,0.518,0.028,-0.167,-0.306,-0.318,-0.605,-0.134,0.173,1.0
37,.,1.0,-0.499,0.155,-0.206,-0.296,0.227,0.043,0.102,-0.226,-0.291,0.262,0.133,0.271,0.107,0.203,-0.276
37,A1_1,-0.499,1.0,-0.029,-0.03,0.433,-0.319,-0.007,-0.144,-0.168,0.065,0.058,-0.265,-0.168,-0.095,0.013,0.156
37,A1_2,0.155,-0.029,1.0,-0.028,-0.617,-0.262,0.139,-0.104,-0.12,-0.055,0.128,0.016,-0.081,0.151,-0.537,-0.148
37,A1_3,-0.206,-0.03,-0.028,1.0,0.077,-0.051,0.129,0.232,0.072,-0.276,-0.174,-0.08,0.125,0.534,-0.244,0.061
37,B1_1,-0.296,0.433,-0.617,0.077,1.0,0.185,-0.238,0.028,-0.275,0.006,-0.012,-0.201,0.034,-0.216,0.194,0.339
37,B1_2,0.227,-0.319,-0.262,-0.051,0.185,1.0,-0.227,0.178,0.319,0.165,-0.178,0.073,-0.06,0.072,0.392,0.446
37,B1_3,0.043,-0.007,0.139,0.129,-0.238,-0.227,1.0,0.122,0.166,-0.61,-0.3,0.125,-0.107,-0.236,0.05,-0.234
37,A2_1,0.102,-0.144,-0.104,0.232,0.028,0.178,0.122,1.0,0.367,-0.32,-0.193,-0.427,-0.476,-0.073,0.217,0.519
37,A2_2,-0.226,-0.168,-0.12,0.072,-0.275,0.319,0.166,0.367,1.0,0.273,-0.246,0.068,-0.242,-0.103,0.091,0.029
37,A2_3,-0.291,0.065,-0.055,-0.276,0.006,0.165,-0.61,-0.32,0.273,1.0,0.01,-0.175,0.208,0.148,-0.096,-0.167
37,B2_1,0.262,0.058,0.128,-0.174,-0.012,-0.178,-0.3,-0.193,-0.246,0.01,1.0,0.487,0.32,0.045,-0.011,-0.307
37,B2_2,0.133,-0.265,0.016,-0.08,-0.201,0.073,0.125,-0.427,0.068,-0.175,0.487,1.0,0.374,0.092,0.184,-0.318
37,B2_3,0.271,-0.168,-0.081,0.125,0.034,-0.06,-0.107,-0.476,-0.242,0.208,0.32,0.374,1.0,0.387,0.05,-0.605
37,y1,0.107,-0.095,0.151,0.534,-0.216,0.072,-0.236,-0.073,-0.103,0.148,0.045,0.092,0.387,1.0,0.147,-0.133
37,y2,0.203,0.013,-0.537,-0.244,0.194,0.392,0.05,0.217,0.091,-0.096,-0.011,0.184,0.05,0.147,1.0,0.174
37,y3,-0.276,0.156,-0.148,0.061,0.339,0.446,-0.234,0.519,0.029,-0.167,-0.307,-0.318,-0.605,-0.133,0.174,1.0
38,.,1.0,-0.497,0.156,-0.205,-0.295,0.226,0.042,0.103,-0.226,-0.291,0.263,0.13,0.269,0.107,0.201,-0.276
38,A1_1,-0.497,1.0,-0.029,-0.03,0.432,-0.319,-0.008,-0.143,-0.168,0.065,0.058,-0.266,-0.169,-0.096,0.013,0.156
38,A1_2,0.156,-0.029,1.0,-0.029,-0.617,-0.263,0.139,-0.104,-0.12,-0.055,0.128,0.016,-0.082,0.15,-0.537,-0.148
38,A1_3,-0.205,-0.03,-0.029,1.0,0.078,-0.051,0.129,0.232,0.071,-0.278,-0.174,-0.08,0.124,0.532,-0.244,0.062
38,B1_1,-0.295,0.432,-0.617,0.078,1.0,0.185,-0.237,0.027,-0.275,0.006,-0.012,-0.2,0.036,-0.215,0.195,0.338
38,B1_2,0.226,-0.319,-0.263,-0.051,0.185,1.0,-0.226,0.178,0.318,0.165,-0.177,0.074,-0.059,0.073,0.393,0.445
38,B1_3,0.042,-0.008,0.139,0.129,-0.237,-0.226,1.0,0.121,0.166,-0.611,-0.299,0.126,-0.106,-0.236,0.05,-0.234
38,A2_1,0.103,-0.143,-0.104,0.232,0.027,0.178,0.121,1.0,0.367,-0.32,-0.193,-0.427,-0.477,-0.074,0.217,0.519
38,A2_2,-0.226,-0.168,-0.12,0.071,-0.275,0.318,0.166,0.367,1.0,0.273,-0.247,0.068,-0.243,-0.103,0.092,0.03
38,A2_3,-0.291,0.065,-0.055,-0.278,0.006,0.165,-0.611,-0.32,0.273,1.0,0.01,-0.175,0.207,0.149,-0.095,-0.166
38,B2_1,0.263,0.058,0.128,-0.174,-0.012,-0.177,-0.299,-0.193,-0.247,0.01,1.0,0.488,0.321,0.045,-0.012,-0.307
38,B2_2,0.13,-0.266,0.016,-0.08,-0.2,0.074,0.126,-0.427,0.068,-0.175,0.488,1.0,0.375,0.092,0.184,-0.318
38,B2_3,0.269,-0.169,-0.082,0.124,0.036,-0.059,-0.106,-0.477,-0.243,0.207,0.321,0.375,1.0,0.386,0.051,-0.604
38,y1,0.107,-0.096,0.15,0.532,-0.215,0.073,-0.236,-0.074,-0.103,0.149,0.045,0.092,0.386,1.0,0.148,-0.132
38,y2,0.201,0.013,-0.537,-0.244,0.195,0.393,0.05,0.217,0.092,-0.095,-0.012,0.184,0.051,0.148,1.0,0.174
38,y3,-0.276,0.156,-0.148,0.062,0.338,0.445,-0.234,0.519,0.03,-0.166,-0.307,-0.318,-0.604,-0.132,0.174,1.0
39,.,1.0,-0.495,0.157,-0.204,-0.294,0.225,0.041,0.105,-0.227,-0.291,0.263,0.128,0.267,0.106,0.199,-0.275
39,A1_1,-0.495,1.0,-0.028,-0.03,0.432,-0.32,-0.008,-0.143,-0.168,0.065,0.057,-0.266,-0.169,-0.096,0.013,0.156
39,A1_2,0.157,-0.028,1.0,-0.03,-0.617,-0.263,0.139,-0.104,-0.12,-0.055,0.127,0.015,-0.082,0.149,-0.537,-0.147
39,A1_3,-0.204,-0.03,-0.03,1.0,0.079,-0.051,0.13,0.232,0.07,-0.279,-0.174,-0.081,0.123,0.531,-0.244,0.063
39,B1_1,-0.294,0.432,-0.617,0.079,1.0,0.185,-0.237,0.027,-0.275,0.006,-0.012,-0.198,0.037,-0.215,0.195,0.338
39,B1_2,0.225,-0.32,-0.263,-0.051,0.185,1.0,-0.226,0.176,0.318,0.164,-0.177,0.075,-0.057,0.075,0.393,0.445
39,B1_3,0.041,-0.008,0.139,0.13,-0.237,-0.226,1.0,0.121,0.166,-0.611,-0.298,0.127,-0.104,-0.236,0.05,-0.235
39,A2_1,0.105,-0.143,-0.104,0.232,0.027,0.176,0.121,1.0,0.367,-0.32,-0.194,-0.427,-0.477,-0.074,0.217,0.519
39,A2_2,-0.227,-0.168,-0.12,0.07,-0.275,0.318,0.166,0.367,1.0,0.272,-0.247,0.067,-0.244,-0.102,0.092,0.031
39,A2_3,-0.291,0.065,-0.055,-0.279,0.006,0.164,-0.611,-0.32,0.272,1.0,0.009,-0.175,0.206,0.149,-0.094,-0.165
39,B2_1,0.263,0.057,0.127,-0.174,-0.012,-0.177,-0.298,-0.194,-0.247,0.009,1.0,0.489,0.323,0.045,-0.012,-0.308
39,B2_2,0.128,-0.266,0.015,-0.081,-0.198,0.075,0.127,-0.427,0.067,-0.175,0.489,1.0,0.376,0.092,0.184,-0.318
39,B2_3,0.267,-0.169,-0.082,0.123,0.037,-0.057,-0.104,-0.477,-0.244,0.206,0.323,0.376,1.0,0.385,0.051,-0.603
39,y1,0.106,-0.096,0.149,0.531,-0.215,0.075,-0.236,-0.074,-0.102,0.149,0.045,0.092,0.385,1.0,0.15,-0.131
39,y2,0.199,0.013,-0.537,-0.244,0.195,0.393,0.05,0.217,0.092,-0.094,-0.012,0.184,0.051,0.15,1.0,0.174
39,y3,-0.275,0.156,-0.147,0.063,0.338,0.445,-0.235,0.519,0.031,-0.165,-0.308,-0.318,-0.603,-0.131,0.174,1.0
40,.,1.0,-0.493,0.157,-0.204,-0.294,0.224,0.041,0.106,-0.227,-0.291,0.263,0.125,0.266,0.106,0.196,-0.275
40,A1_1,-0.493,1.0,-0.028,-0.03,0.431,-0.321,-0.009,-0.142,-0.168,0.065,0.056,-0.267,-0.17,-0.097,0.012,0.156
40,A1_2,0.157,-0.028,1.0,-0.03,-0.617,-0.264,0.139,-0.104,-0.12,-0.055,0.127,0.015,-0.083,0.148,-0.537,-0.147
40,A1_3,-0.204,-0.03,-0.03,1.0,0.08,-0.051,0.13,0.232,0.069,-0.28,-0.173,-0.081,0.122,0.529,-0.244,0.063
40,B1_1,-0.294,0.431,-0.617,0.08,1.0,0.185,-0.237,0.026,-0.275,0.006,-0.011,-0.197,0.038,-0.214,0.195,0.337
40,B1_2,0.224,-0.321,-0.264,-0.051,0.185,1.0,-0.225,0.175,0.318,0.164,-0.176,0.076,-0.056,0.076,0.394,0.444
40,B1_3,0.041,-0.009,0.139,0.13,-0.237,-0.225,1.0,0.121,0.166,-0.611,-0.297,0.127,-0.103,-0.236,0.05,-0.235
40,A2_1,0.106,-0.142,-0.104,0.232,0.026,0.175,0.121,1.0,0.367,-0.321,-0.194,-0.427,-0.478,-0.075,0.216,0.519
40,A2_2,-0.227,-0.168,-0.12,0.069,-0.275,0.318,0.166,0.367,1.0,0.272,-0.247,0.067,-0.244,-0.102,0.093,0.031
40,A2_3,-0.291,0.065,-0.055,-0.28,0.006,0.164,-0.611,-0.321,0.272,1.0,0.009,-0.176,0.205,0.15,-0.093,-0.165
40,B2_1,0.263,0.056,0.127,-0.173,-0.011,-0.176,-0.297,-0.194,-0.247,0.009,1.0,0.49,0.324,0.045,-0.012,-0.309
40,B2_2,0.125,-0.267,0.015,-0.081,-0.197,0.076,0.127,-0.427,0.067,-0.176,0.49,1.0,0.377,0.092,0.184,-0.318
40,B2_3,0.266,-0.17,-0.083,0.122,0.038,-0.056,-0.103,-0.478,-0.244,0.205,0.324,0.377,1.0,0.384,0.051,-0.603
40,y1,0.106,-0.097,0.148,0.529,-0.214,0.076,-0.236,-0.075,-0.102,0.15,0.045,0.092,0.384,1.0,0.151,-0.13
40,y2,0.196,0.012,-0.537,-0.244,0.195,0.394,0.05,0.216,0.093,-0.093,-0.012,0.184,0.051,0.151,1.0,0.175
40,y3,-0.275,0.156,-0.147,0.063,0.337,0.444,-0.235,0.519,0.031,-0.165,-0.309,-0.318,-0.603,-0.13,0.175,1.0
41,.,1.0,-0.491,0.158,-0.203,-0.293,0.223,0.04,0.106,-0.228,-0.291,0.263,0.122,0.264,0.105,0.194,-0.276
41,A1_1,-0.491,1.0,-0.028,-0.03,0.431,-0.322,-0.009,-0.142,-0.167,0.065,0.056,-0.267,-0.171,-0.098,0.012,0.156
41,A1_2,0.158,-0.028,1.0,-0.031,-0.617,-0.264,0.138,-0.104,-0.121,-0.055,0.127,0.015,-0.084,0.147,-0.538,-0.147
41,A1_3,-0.203,-0.03,-0.031,1.0,0.08,-0.051,0.131,0.232,0.069,-0.281,-0.173,-0.081,0.121,0.528,-0.245,0.064
41,B1_1,-0.293,0.431,-0.617,0.08,1.0,0.186,-0.237,0.026,-0.275,0.006,-0.011,-0.196,0.04,-0.213,0.195,0.336
41,B1_2,0.223,-0.322,-0.264,-0.051,0.186,1.0,-0.225,0.174,0.318,0.163,-0.175,0.077,-0.055,0.077,0.394,0.444
41,B1_3,0.04,-0.009,0.138,0.131,-0.237,-0.225,1.0,0.121,0.166,-0.611,-0.296,0.128,-0.102,-0.237,0.05,-0.235
41,A2_1,0.106,-0.142,-0.104,0.232,0.026,0.174,0.121,1.0,0.366,-0.322,-0.195,-0.427,-0.479,-0.076,0.216,0.519
41,A2_2,-0.228,-0.167,-0.121,0.069,-0.275,0.318,0.166,0.366,1.0,0.272,-0.247,0.067,-0.245,-0.102,0.094,0.032
41,A2_3,-0.291,0.065,-0.055,-0.281,0.006,0.163,-0.611,-0.322,0.272,1.0,0.008,-0.176,0.204,0.151,-0.092,-0.164
41,B2_1,0.263,0.056,0.127,-0.173,-0.011,-0.175,-0.296,-0.195,-0.247,0.008,1.0,0.491,0.325,0.045,-0.013,-0.31
41,B2_2,0.122,-0.267,0.015,-0.081,-0.196,0.077,0.128,-0.427,0.067,-0.176,0.491,1.0,0.378,0.092,0.184,-0.318
41,B2_3,0.264,-0.171,-0.084,0.121,0.04,-0.055,-0.102,-0.479,-0.245,0.204,0.325,0.378,1.0,0.384,0.051,-0.602
41,y1,0.105,-0.098,0.147,0.528,-0.213,0.077,-0.237,-0.076,-0.102,0.151,0.045,0.092,0.384,1.0,0.152,-0.128
41,y2,0.194,0.012,-0.538,-0.245,0.195,0.394,0.05,0.216,0.094,-0.092,-0.013,0.184,0.051,0.152,1.0,0.175
41,y3,-0.276,0.156,-0.147,0.064,0.336,0.444,-0.235,0.519,0.032,-0.164,-0.31,-0.318,-0.602,-0.128,0.175,1.0
42,.,1.0,-0.489,0.158,-0.202,-0.292,0.223,0.039,0.107,-0.228,-0.291,0.263,0.12,0.263,0.105,0.192,-0.275
42,A1_1,-0.489,1.0,-0.028,-0.03,0.43,-0.323,-0.009,-0.141,-0.167,0.066,0.055,-0.267,-0.172,-0.098,0.012,0.156
42,A1_2,0.158,-0.028,1.0,-0.032,-0.617,-0.265,0.138,-0.105,-0.121,-0.055,0.126,0.014,-0.085,0.145,-0.538,-0.147
42,A1_3,-0.202,-0.03,-0.032,1.0,0.081,-0.051,0.131,0.232,0.068,-0.283,-0.172,-0.082,0.121,0.526,-0.245,0.065
42,B1_1,-0.292,0.43,-0.617,0.081,1.0,0.186,-0.236,0.025,-0.275,0.006,-0.011,-0.195,0.041,-0.213,0.195,0.336
42,B1_2,0.223,-0.323,-0.265,-0.051,0.186,1.0,-0.224,0.173,0.317,0.162,-0.174,0.079,-0.053,0.078,0.395,0.444
42,B1_3,0.039,-0.009,0.138,0.131,-0.236,-0.224,1.0,0.121,0.166,-0.611,-0.295,0.129,-0.101,-0.237,0.05,-0.236
42,A2_1,0.107,-0.141,-0.105,0.232,0.025,0.173,0.121,1.0,0.366,-0.322,-0.195,-0.427,-0.479,-0.076,0.216,0.52
42,A2_2,-0.228,-0.167,-0.121,0.068,-0.275,0.317,0.166,0.366,1.0,0.271,-0.248,0.066,-0.246,-0.102,0.094,0.033
42,A2_3,-0.291,0.066,-0.055,-0.283,0.006,0.162,-0.611,-0.322,0.271,1.0,0.008,-0.176,0.203,0.151,-0.091,-0.164
42,B2_1,0.263,0.055,0.126,-0.172,-0.011,-0.174,-0.295,-0.195,-0.248,0.008,1.0,0.492,0.326,0.045,-0.013,-0.311
42,B2_2,0.12,-0.267,0.014,-0.082,-0.195,0.079,0.129,-0.427,0.066,-0.176,0.492,1.0,0.379,0.092,0.184,-0.318
42,B2_3,0.263,-0.172,-0.085,0.121,0.041,-0.053,-0.101,-0.479,-0.246,0.203,0.326,0.379,1.0,0.383,0.051,-0.601
42,y1,0.105,-0.098,0.145,0.526,-0.213,0.078,-0.237,-0.076,-0.102,0.151,0.045,0.092,0.383,1.0,0.153,-0.127
42,y2,0.192,0.012,-0.538,-0.245,0.195,0.395,0.05,0.216,0.094,-0.091,-0.013,0.184,0.051,0.153,1.0,0.176
42,y3,-0.275,0.156,-0.147,0.065,0.336,0.444,-0.236,0.52,0.033,-0.164,-0.311,-0.318,-0.601,-0.127,0.176,1.0
43,.,1.0,-0.487,0.159,-0.201,-0.292,0.223,0.038,0.108,-0.228,-0.291,0.263,0.118,0.261,0.104,0.19,-0.275
43,A1_1,-0.487,1.0,-0.027,-0.03,0.43,-0.324,-0.01,-0.141,-0.167,0.066,0.054,-0.268,-0.172,-0.099,0.012,0.156
43,A1_2,0.159,-0.027,1.0,-0.033,-0.618,-0.265,0.138,-0.105,-0.121,-0.055,0.126,0.014,-0.086,0.144,-0.538,-0.147
43,A1_3,-0.201,-0.03,-0.033,1.0,0.082,-0.051,0.132,0.232,0.067,-0.284,-0.172,-0.082,0.12,0.525,-0.245,0.066
43,B1_1,-0.292,0.43,-0.618,0.082,1.0,0.186,-0.236,0.025,-0.275,0.007,-0.01,-0.194,0.043,-0.212,0.195,0.335
43,B1_2,0.223,-0.324,-0.265,-0.051,0.186,1.0,-0.224,0.172,0.317,0.162,-0.173,0.079,-0.052,0.079,0.395,0.444
43,B1_3,0.038,-0.01,0.138,0.132,-0.236,-0.224,1.0,0.12,0.166,-0.611,-0.294,0.129,-0.1,-0.237,0.05,-0.236
43,A2_1,0.108,-0.141,-0.105,0.232,0.025,0.172,0.12,1.0,0.366,-0.323,-0.196,-0.428,-0.48,-0.077,0.216,0.52
43,A2_2,-0.228,-0.167,-0.121,0.067,-0.275,0.317,0.166,0.366,1.0,0.271,-0.248,0.066,-0.246,-0.102,0.095,0.033
43,A2_3,-0.291,0.066,-0.055,-0.284,0.007,0.162,-0.611,-0.323,0.271,1.0,0.008,-0.177,0.202,0.152,-0.09,-0.163
43,B2_1,0.263,0.054,0.126,-0.172,-0.01,-0.173,-0.294,-0.196,-0.248,0.008,1.0,0.493,0.328,0.045,-0.013,-0.311
43,B2_2,0.118,-0.268,0.014,-0.082,-0.194,0.079,0.129,-0.428,0.066,-0.177,0.493,1.0,0.38,0.092,0.184,-0.317
43,B2_3,0.261,-0.172,-0.086,0.12,0.043,-0.052,-0.1,-0.48,-0.246,0.202,0.328,0.38,1.0,0.382,0.052,-0.601
43,y1,0.104,-0.099,0.144,0.525,-0.212,0.079,-0.237,-0.077,-0.102,0.152,0.045,0.092,0.382,1.0,0.154,-0.126
43,y2,0.19,0.012,-0.538,-0.245,0.195,0.395,0.05,0.216,0.095,-0.09,-0.013,0.184,0.052,0.154,1.0,0.176
43,y3,-0.275,0.156,-0.147,0.066,0.335,0.444,-0.236,0.52,0.033,-0.163,-0.311,-0.317,-0.601,-0.126,0.176,1.0
44,.,1.0,-0.485,0.159,-0.2,-0.291,0.222,0.038,0.109,-0.228,-0.291,0.262,0.115,0.26,0.103,0.187,-0.275
44,A1_1,-0.485,1.0,-0.027,-0.03,0.429,-0.324,-0.01,-0.14,-0.167,0.066,0.053,-0.268,-0.173,-0.099,0.012,0.156
44,A1_2,0.159,-0.027,1.0,-0.033,-0.618,-0.266,0.138,-0.105,-0.121,-0.055,0.126,0.014,-0.087,0.143,-0.538,-0.147
44,A1_3,-0.2,-0.03,-0.033,1.0,0.083,-0.051,0.132,0.231,0.066,-0.285,-0.172,-0.082,0.119,0.523,-0.245,0.067
44,B1_1,-0.291,0.429,-0.618,0.083,1.0,0.186,-0.236,0.024,-0.275,0.007,-0.01,-0.193,0.044,-0.211,0.196,0.335
44,B1_2,0.222,-0.324,-0.266,-0.051,0.186,1.0,-0.223,0.171,0.317,0.161,-0.173,0.08,-0.051,0.08,0.396,0.443
44,B1_3,0.038,-0.01,0.138,0.132,-0.236,-0.223,1.0,0.121,0.166,-0.611,-0.293,0.13,-0.098,-0.237,0.05,-0.236
44,A2_1,0.109,-0.14,-0.105,0.231,0.024,0.171,0.121,1.0,0.366,-0.323,-0.197,-0.428,-0.481,-0.078,0.216,0.52
44,A2_2,-0.228,-0.167,-0.121,0.066,-0.275,0.317,0.166,0.366,1.0,0.27,-0.248,0.066,-0.247,-0.102,0.095,0.034
44,A2_3,-0.291,0.066,-0.055,-0.285,0.007,0.161,-0.611,-0.323,0.27,1.0,0.008,-0.177,0.202,0.152,-0.089,-0.163
44,B2_1,0.262,0.053,0.126,-0.172,-0.01,-0.173,-0.293,-0.197,-0.248,0.008,1.0,0.493,0.329,0.045,-0.014,-0.312
44,B2_2,0.115,-0.268,0.014,-0.082,-0.193,0.08,0.13,-0.428,0.066,-0.177,0.493,1.0,0.381,0.092,0.184,-0.317
44,B2_3,0.26,-0.173,-0.087,0.119,0.044,-0.051,-0.098,-0.481,-0.247,0.202,0.329,0.381,1.0,0.382,0.052,-0.6
44,y1,0.103,-0.099,0.143,0.523,-0.211,0.08,-0.237,-0.078,-0.102,0.152,0.045,0.092,0.382,1.0,0.155,-0.125
44,y2,0.187,0.012,-0.538,-0.245,0.196,0.396,0.05,0.216,0.095,-0.089,-0.014,0.184,0.052,0.155,1.0,0.177
44,y3,-0.275,0.156,-0.147,0.067,0.335,0.443,-0.236,0.52,0.034,-0.163,-0.312,-0.317,-0.6,-0.125,0.177,1.0
45,.,1.0,-0.483,0.16,-0.199,-0.29,0.222,0.037,0.11,-0.228,-0.291,0.263,0.113,0.258,0.103,0.185,-0.275
45,A1_1,-0.483,1.0,-0.027,-0.03,0.429,-0.325,-0.01,-0.139,-0.167,0.066,0.053,-0.268,-0.174,-0.1,0.011,0.157
45,A1_2,0.16,-0.027,1.0,-0.034,-0.618,-0.266,0.138,-0.105,-0.121,-0.055,0.125,0.013,-0.087,0.142,-0.538,-0.147
45,A1_3,-0.199,-0.03,-0.034,1.0,0.084,-0.051,0.132,0.231,0.065,-0.286,-0.171,-0.083,0.118,0.522,-0.245,0.067
45,B1_1,-0.29,0.429,-0.618,0.084,1.0,0.186,-0.236,0.024,-0.275,0.007,-0.01,-0.192,0.045,-0.21,0.196,0.334
45,B1_2,0.222,-0.325,-0.266,-0.051,0.186,1.0,-0.223,0.17,0.316,0.161,-0.172,0.081,-0.05,0.081,0.396,0.443
45,B1_3,0.037,-0.01,0.138,0.132,-0.236,-0.223,1.0,0.12,0.166,-0.611,-0.292,0.131,-0.097,-0.238,0.05,-0.237
45,A2_1,0.11,-0.139,-0.105,0.231,0.024,0.17,0.12,1.0,0.365,-0.324,-0.197,-0.428,-0.482,-0.079,0.216,0.52
45,A2_2,-0.228,-0.167,-0.121,0.065,-0.275,0.316,0.166,0.365,1.0,0.27,-0.248,0.065,-0.247,-0.102,0.096,0.035
45,A2_3,-0.291,0.066,-0.055,-0.286,0.007,0.161,-0.611,-0.324,0.27,1.0,0.007,-0.177,0.201,0.153,-0.089,-0.162
45,B2_1,0.263,0.053,0.125,-0.171,-0.01,-0.172,-0.292,-0.197,-0.248,0.007,1.0,0.494,0.33,0.045,-0.014,-0.313
45,B2_2,0.113,-0.268,0.013,-0.083,-0.192,0.081,0.131,-0.428,0.065,-0.177,0.494,1.0,0.382,0.093,0.184,-0.317
45,B2_3,0.258,-0.174,-0.087,0.118,0.045,-0.05,-0.097,-0.482,-0.247,0.201,0.33,0.382,1.0,0.381,0.052,-0.6
45,y1,0.103,-0.1,0.142,0.522,-0.21,0.081,-0.238,-0.079,-0.102,0.153,0.045,0.093,0.381,1.0,0.156,-0.124
45,y2,0.185,0.011,-0.538,-0.245,0.196,0.396,0.05,0.216,0.096,-0.089,-0.014,0.184,0.052,0.156,1.0,0.178
45,y3,-0.275,0.157,-0.147,0.067,0.334,0.443,-0.237,0.52,0.035,-0.162,-0.313,-0.317,-0.6,-0.124,0.178,1.0
46,.,1.0,-0.481,0.16,-0.198,-0.29,0.221,0.036,0.111,-0.228,-0.291,0.262,0.11,0.257,0.102,0.183,-0.275
46,A1_1,-0.481,1.0,-0.026,-0.03,0.428,-0.325,-0.011,-0.139,-0.166,0.067,0.052,-0.269,-0.174,-0.1,0.011,0.157
46,A1_2,0.16,-0.026,1.0,-0.034,-0.618,-0.266,0.138,-0.105,-0.121,-0.055,0.125,0.013,-0.088,0.141,-0.538,-0.147
46,A1_3,-0.198,-0.03,-0.034,1.0,0.084,-0.051,0.133,0.231,0.065,-0.287,-0.171,-0.083,0.117,0.52,-0.246,0.068
46,B1_1,-0.29,0.428,-0.618,0.084,1.0,0.187,-0.235,0.023,-0.275,0.007,-0.009,-0.191,0.046,-0.21,0.196,0.334
46,B1_2,0.221,-0.325,-0.266,-0.051,0.187,1.0,-0.223,0.169,0.316,0.161,-0.171,0.082,-0.049,0.082,0.396,0.443
46,B1_3,0.036,-0.011,0.138,0.133,-0.235,-0.223,1.0,0.12,0.166,-0.611,-0.292,0.132,-0.096,-0.238,0.05,-0.237
46,A2_1,0.111,-0.139,-0.105,0.231,0.023,0.169,0.12,1.0,0.365,-0.324,-0.197,-0.428,-0.483,-0.08,0.216,0.52
46,A2_2,-0.228,-0.166,-0.121,0.065,-0.275,0.316,0.166,0.365,1.0,0.27,-0.249,0.065,-0.248,-0.102,0.097,0.035
46,A2_3,-0.291,0.067,-0.055,-0.287,0.007,0.161,-0.611,-0.324,0.27,1.0,0.007,-0.178,0.2,0.153,-0.088,-0.161
46,B2_1,0.262,0.052,0.125,-0.171,-0.009,-0.171,-0.292,-0.197,-0.249,0.007,1.0,0.495,0.331,0.045,-0.014,-0.313
46,B2_2,0.11,-0.269,0.013,-0.083,-0.191,0.082,0.132,-0.428,0.065,-0.178,0.495,1.0,0.382,0.093,0.184,-0.317
46,B2_3,0.257,-0.174,-0.088,0.117,0.046,-0.049,-0.096,-0.483,-0.248,0.2,0.331,0.382,1.0,0.381,0.053,-0.599
46,y1,0.102,-0.1,0.141,0.52,-0.21,0.082,-0.238,-0.08,-0.102,0.153,0.045,0.093,0.381,1.0,0.157,-0.123
46,y2,0.183,0.011,-0.538,-0.246,0.196,0.396,0.05,0.216,0.097,-0.088,-0.014,0.184,0.053,0.157,1.0,0.178
46,y3,-0.275,0.157,-0.147,0.068,0.334,0.443,-0.237,0.52,0.035,-0.161,-0.313,-0.317,-0.599,-0.123,0.178,1.0
47,.,1.0,-0.479,0.161,-0.197,-0.289,0.22,0.036,0.112,-0.228,-0.291,0.262,0.108,0.255,0.101,0.181,-0.275
47,A1_1,-0.479,1.0,-0.026,-0.03,0.428,-0.326,-0.011,-0.138,-0.166,0.067,0.051,-0.269,-0.175,-0.101,0.011,0.157
47,A1_2,0.161,-0.026,1.0,-0.035,-0.618,-0.267,0.138,-0.105,-0.122,-0.055,0.124,0.013,-0.089,0.139,-0.538,-0.146
47,A1_3,-0.197,-0.03,-0.035,1.0,0.086,-0.051,0.133,0.231,0.064,-0.288,-0.171,-0.083,0.117,0.519,-0.246,0.069
47,B1_1,-0.289,0.428,-0.618,0.086,1.0,0.187,-0.235,0.023,-0.275,0.007,-0.009,-0.189,0.048,-0.209,0.196,0.333
47,B1_2,0.22,-0.326,-0.267,-0.051,0.187,1.0,-0.222,0.168,0.315,0.16,-0.17,0.083,-0.048,0.082,0.397,0.443
47,B1_3,0.036,-0.011,0.138,0.133,-0.235,-0.222,1.0,0.12,0.166,-0.611,-0.291,0.133,-0.095,-0.238,0.049,-0.237
47,A2_1,0.112,-0.138,-0.105,0.231,0.023,0.168,0.12,1.0,0.365,-0.325,-0.198,-0.428,-0.483,-0.08,0.215,0.52
47,A2_2,-0.228,-0.166,-0.122,0.064,-0.275,0.315,0.166,0.365,1.0,0.269,-0.249,0.065,-0.248,-0.102,0.097,0.036
47,A2_3,-0.291,0.067,-0.055,-0.288,0.007,0.16,-0.611,-0.325,0.269,1.0,0.007,-0.178,0.199,0.154,-0.087,-0.161
47,B2_1,0.262,0.051,0.124,-0.171,-0.009,-0.17,-0.291,-0.198,-0.249,0.007,1.0,0.496,0.332,0.045,-0.015,-0.314
47,B2_2,0.108,-0.269,0.013,-0.083,-0.189,0.083,0.133,-0.428,0.065,-0.178,0.496,1.0,0.383,0.092,0.183,-0.317
47,B2_3,0.255,-0.175,-0.089,0.117,0.048,-0.048,-0.095,-0.483,-0.248,0.199,0.332,0.383,1.0,0.38,0.053,-0.598
47,y1,0.101,-0.101,0.139,0.519,-0.209,0.082,-0.238,-0.08,-0.102,0.154,0.045,0.092,0.38,1.0,0.158,-0.122
47,y2,0.181,0.011,-0.538,-0.246,0.196,0.397,0.049,0.215,0.097,-0.087,-0.015,0.183,0.053,0.158,1.0,0.179
47,y3,-0.275,0.157,-0.146,0.069,0.333,0.443,-0.237,0.52,0.036,-0.161,-0.314,-0.317,-0.598,-0.122,0.179,1.0
48,.,1.0,-0.477,0.161,-0.196,-0.289,0.219,0.035,0.113,-0.229,-0.292,0.262,0.106,0.254,0.101,0.178,-0.275
48,A1_1,-0.477,1.0,-0.026,-0.03,0.427,-0.327,-0.011,-0.138,-0.166,0.067,0.051,-0.269,-0.175,-0.101,0.011,0.157
48,A1_2,0.161,-0.026,1.0,-0.036,-0.618,-0.267,0.137,-0.105,-0.122,-0.055,0.124,0.012,-0.09,0.138,-0.538,-0.146
48,A1_3,-0.196,-0.03,-0.036,1.0,0.086,-0.052,0.134,0.231,0.063,-0.289,-0.171,-0.083,0.116,0.518,-0.246,0.069
48,B1_1,-0.289,0.427,-0.618,0.086,1.0,0.187,-0.235,0.022,-0.275,0.007,-0.008,-0.188,0.049,-0.209,0.196,0.333
48,B1_2,0.219,-0.327,-0.267,-0.052,0.187,1.0,-0.222,0.167,0.315,0.159,-0.17,0.083,-0.047,0.083,0.397,0.443
48,B1_3,0.035,-0.011,0.137,0.134,-0.235,-0.222,1.0,0.12,0.167,-0.612,-0.29,0.133,-0.094,-0.239,0.049,-0.238
48,A2_1,0.113,-0.138,-0.105,0.231,0.022,0.167,0.12,1.0,0.364,-0.326,-0.198,-0.428,-0.484,-0.081,0.215,0.52
48,A2_2,-0.229,-0.166,-0.122,0.063,-0.275,0.315,0.167,0.364,1.0,0.269,-0.249,0.065,-0.249,-0.102,0.098,0.036
48,A2_3,-0.292,0.067,-0.055,-0.289,0.007,0.159,-0.612,-0.326,0.269,1.0,0.006,-0.178,0.198,0.155,-0.086,-0.16
48,B2_1,0.262,0.051,0.124,-0.171,-0.008,-0.17,-0.29,-0.198,-0.249,0.006,1.0,0.497,0.333,0.045,-0.015,-0.314
48,B2_2,0.106,-0.269,0.012,-0.083,-0.188,0.083,0.133,-0.428,0.065,-0.178,0.497,1.0,0.384,0.093,0.183,-0.317
48,B2_3,0.254,-0.175,-0.09,0.116,0.049,-0.047,-0.094,-0.484,-0.249,0.198,0.333,0.384,1.0,0.379,0.053,-0.598
48,y1,0.101,-0.101,0.138,0.518,-0.209,0.083,-0.239,-0.081,-0.102,0.155,0.045,0.093,0.379,1.0,0.159,-0.121
48,y2,0.178,0.011,-0.538,-0.246,0.196,0.397,0.049,0.215,0.098,-0.086,-0.015,0.183,0.053,0.159,1.0,0.179
48,y3,-0.275,0.157,-0.146,0.069,0.333,0.443,-0.238,0.52,0.036,-0.16,-0.314,-0.317,-0.598,-0.121,0.179,1.0
49,.,1.0,-0.475,0.162,-0.195,-0.288,0.218,0.034,0.114,-0.229,-0.292,0.262,0.103,0.253,0.1,0.176,-0.276
49,A1_1,-0.475,1.0,-0.025,-0.03,0.427,-0.327,-0.012,-0.137,-0.165,0.067,0.05,-0.27,-0.176,-0.102,0.011,0.157
49,A1_2,0.162,-0.025,1.0,-0.036,-0.619,-0.268,0.137,-0.105,-0.122,-0.055,0.124,0.012,-0.091,0.137,-0.538,-0.146
49,A1_3,-0.195,-0.03,-0.036,1.0,0.087,-0.052,0.134,0.231,0.062,-0.29,-0.171,-0.084,0.115,0.516,-0.247,0.07
49,B1_1,-0.288,0.427,-0.619,0.087,1.0,0.187,-0.235,0.022,-0.275,0.007,-0.008,-0.187,0.05,-0.208,0.196,0.332
49,B1_2,0.218,-0.327,-0.268,-0.052,0.187,1.0,-0.221,0.167,0.315,0.159,-0.169,0.084,-0.046,0.084,0.398,0.442
49,B1_3,0.034,-0.012,0.137,0.134,-0.235,-0.221,1.0,0.12,0.166,-0.612,-0.289,0.134,-0.093,-0.239,0.049,-0.238
49,A2_1,0.114,-0.137,-0.105,0.231,0.022,0.167,0.12,1.0,0.364,-0.326,-0.199,-0.428,-0.484,-0.081,0.215,0.52
49,A2_2,-0.229,-0.165,-0.122,0.062,-0.275,0.315,0.166,0.364,1.0,0.269,-0.249,0.064,-0.25,-0.102,0.098,0.037
49,A2_3,-0.292,0.067,-0.055,-0.29,0.007,0.159,-0.612,-0.326,0.269,1.0,0.006,-0.178,0.198,0.155,-0.085,-0.16
49,B2_1,0.262,0.05,0.124,-0.171,-0.008,-0.169,-0.289,-0.199,-0.249,0.006,1.0,0.497,0.334,0.045,-0.015,-0.315
49,B2_2,0.103,-0.27,0.012,-0.084,-0.187,0.084,0.134,-0.428,0.064,-0.178,0.497,1.0,0.385,0.093,0.183,-0.317
49,B2_3,0.253,-0.176,-0.091,0.115,0.05,-0.046,-0.093,-0.484,-0.25,0.198,0.334,0.385,1.0,0.379,0.053,-0.597
49,y1,0.1,-0.102,0.137,0.516,-0.208,0.084,-0.239,-0.081,-0.102,0.155,0.045,0.093,0.379,1.0,0.16,-0.12
49,y2,0.176,0.011,-0.538,-0.247,0.196,0.398,0.049,0.215,0.098,-0.085,-0.015,0.183,0.053,0.16,1.0,0.179
49,y3,-0.276,0.157,-0.146,0.07,0.332,0.442,-0.238,0.52,0.037,-0.16,-0.315,-0.317,-0.597,-0.12,0.179,1.0
50,.,1.0,-0.474,0.162,-0.194,-0.287,0.218,0.033,0.116,-0.229,-0.292,0.262,0.1,0.251,0.1,0.174,-0.275
50,A1_1,-0.474,1.0,-0.025,-0.029,0.427,-0.327,-0.012,-0.136,-0.165,0.067,0.05,-0.27,-0.177,-0.102,0.011,0.158
50,A1_2,0.162,-0.025,1.0,-0.037,-0.619,-0.268,0.137,-0.105,-0.122,-0.055,0.123,0.012,-0.091,0.136,-0.538,-0.146
50,A1_3,-0.194,-0.029,-0.037,1.0,0.087,-0.052,0.135,0.231,0.061,-0.291,-0.171,-0.084,0.114,0.515,-0.247,0.07
50,B1_1,-0.287,0.427,-0.619,0.087,1.0,0.187,-0.234,0.021,-0.274,0.007,-0.008,-0.186,0.051,-0.208,0.196,0.332
50,B1_2,0.218,-0.327,-0.268,-0.052,0.187,1.0,-0.221,0.166,0.314,0.159,-0.168,0.085,-0.045,0.085,0.398,0.442
50,B1_3,0.033,-0.012,0.137,0.135,-0.234,-0.221,1.0,0.12,0.166,-0.612,-0.288,0.135,-0.092,-0.239,0.049,-0.239
50,A2_1,0.116,-0.136,-0.105,0.231,0.021,0.166,0.12,1.0,0.364,-0.327,-0.199,-0.428,-0.485,-0.082,0.215,0.52
50,A2_2,-0.229,-0.165,-0.122,0.061,-0.274,0.314,0.166,0.364,1.0,0.268,-0.249,0.064,-0.25,-0.102,0.099,0.037
50,A2_3,-0.292,0.067,-0.055,-0.291,0.007,0.159,-0.612,-0.327,0.268,1.0,0.006,-0.178,0.197,0.156,-0.085,-0.159
50,B2_1,0.262,0.05,0.123,-0.171,-0.008,-0.168,-0.288,-0.199,-0.249,0.006,1.0,0.498,0.335,0.044,-0.016,-0.316
50,B2_2,0.1,-0.27,0.012,-0.084,-0.186,0.085,0.135,-0.428,0.064,-0.178,0.498,1.0,0.385,0.093,0.183,-0.317
50,B2_3,0.251,-0.177,-0.091,0.114,0.051,-0.045,-0.092,-0.485,-0.25,0.197,0.335,0.385,1.0,0.379,0.054,-0.597
50,y1,0.1,-0.102,0.136,0.515,-0.208,0.085,-0.239,-0.082,-0.102,0.156,0.044,0.093,0.379,1.0,0.162,-0.119
50,y2,0.174,0.011,-0.538,-0.247,0.196,0.398,0.049,0.215,0.099,-0.085,-0.016,0.183,0.054,0.162,1.0,0.18
50,y3,-0.275,0.158,-0.146,0.07,0.332,0.442,-0.239,0.52,0.037,-0.159,-0.316,-0.317,-0.597,-0.119,0.18,1.0
51,.,1.0,-0.472,0.163,-0.193,-0.287,0.218,0.032,0.117,-0.229,-0.292,0.262,0.098,0.25,0.099,0.172,-0.275
51,A1_1,-0.472,1.0,-0.025,-0.029,0.426,-0.328,-0.013,-0.136,-0.165,0.068,0.049,-0.27,-0.177,-0.102,0.01,0.158
51,A1_2,0.163,-0.025,1.0,-0.037,-0.619,-0.268,0.137,-0.106,-0.122,-0.055,0.123,0.011,-0.092,0.135,-0.538,-0.146
51,A1_3,-0.193,-0.029,-0.037,1.0,0.088,-0.052,0.135,0.231,0.061,-0.292,-0.17,-0.085,0.113,0.513,-0.247,0.071
51,B1_1,-0.287,0.426,-0.619,0.088,1.0,0.188,-0.234,0.021,-0.274,0.007,-0.008,-0.185,0.052,-0.207,0.197,0.331
51,B1_2,0.218,-0.328,-0.268,-0.052,0.188,1.0,-0.221,0.165,0.314,0.158,-0.168,0.085,-0.044,0.086,0.399,0.442
51,B1_3,0.032,-0.013,0.137,0.135,-0.234,-0.221,1.0,0.12,0.166,-0.612,-0.288,0.136,-0.091,-0.239,0.049,-0.239
51,A2_1,0.117,-0.136,-0.106,0.231,0.021,0.165,0.12,1.0,0.363,-0.327,-0.2,-0.428,-0.486,-0.083,0.215,0.52
51,A2_2,-0.229,-0.165,-0.122,0.061,-0.274,0.314,0.166,0.363,1.0,0.268,-0.249,0.064,-0.251,-0.101,0.099,0.038
51,A2_3,-0.292,0.068,-0.055,-0.292,0.007,0.158,-0.612,-0.327,0.268,1.0,0.005,-0.179,0.196,0.157,-0.084,-0.159
51,B2_1,0.262,0.049,0.123,-0.17,-0.008,-0.168,-0.288,-0.2,-0.249,0.005,1.0,0.499,0.336,0.044,-0.016,-0.316
51,B2_2,0.098,-0.27,0.011,-0.085,-0.185,0.085,0.136,-0.428,0.064,-0.179,0.499,1.0,0.386,0.093,0.183,-0.317
51,B2_3,0.25,-0.177,-0.092,0.113,0.052,-0.044,-0.091,-0.486,-0.251,0.196,0.336,0.386,1.0,0.378,0.054,-0.596
51,y1,0.099,-0.102,0.135,0.513,-0.207,0.086,-0.239,-0.083,-0.101,0.157,0.044,0.093,0.378,1.0,0.163,-0.118
51,y2,0.172,0.01,-0.538,-0.247,0.197,0.399,0.049,0.215,0.099,-0.084,-0.016,0.183,0.054,0.163,1.0,0.181
51,y3,-0.275,0.158,-0.146,0.071,0.331,0.442,-0.239,0.52,0.038,-0.159,-0.316,-0.317,-0.596,-0.118,0.181,1.0
52,.,1.0,-0.47,0.163,-0.192,-0.286,0.217,0.031,0.117,-0.229,-0.292,0.262,0.096,0.249,0.099,0.17,-0.275
52,A1_1,-0.47,1.0,-0.025,-0.029,0.426,-0.329,-0.013,-0.135,-0.165,0.067,0.048,-0.27,-0.178,-0.103,0.01,0.158
52,A1_2,0.163,-0.025,1.0,-0.038,-0.619,-0.269,0.136,-0.106,-0.122,-0.055,0.123,0.011,-0.093,0.133,-0.538,-0.146
52,A1_3,-0.192,-0.029,-0.038,1.0,0.089,-0.052,0.135,0.231,0.06,-0.293,-0.17,-0.085,0.112,0.512,-0.247,0.072
52,B1_1,-0.286,0.426,-0.619,0.089,1.0,0.188,-0.234,0.02,-0.274,0.007,-0.007,-0.184,0.053,-0.206,0.197,0.331
52,B1_2,0.217,-0.329,-0.269,-0.052,0.188,1.0,-0.221,0.164,0.314,0.158,-0.167,0.086,-0.043,0.087,0.399,0.442
52,B1_3,0.031,-0.013,0.136,0.135,-0.234,-0.221,1.0,0.119,0.166,-0.612,-0.287,0.136,-0.09,-0.24,0.049,-0.239
52,A2_1,0.117,-0.135,-0.106,0.231,0.02,0.164,0.119,1.0,0.363,-0.327,-0.2,-0.429,-0.486,-0.083,0.215,0.52
52,A2_2,-0.229,-0.165,-0.122,0.06,-0.274,0.314,0.166,0.363,1.0,0.268,-0.25,0.064,-0.251,-0.101,0.1,0.038
52,A2_3,-0.292,0.067,-0.055,-0.293,0.007,0.158,-0.612,-0.327,0.268,1.0,0.005,-0.179,0.196,0.157,-0.083,-0.158
52,B2_1,0.262,0.048,0.123,-0.17,-0.007,-0.167,-0.287,-0.2,-0.25,0.005,1.0,0.5,0.337,0.044,-0.016,-0.317
52,B2_2,0.096,-0.27,0.011,-0.085,-0.184,0.086,0.136,-0.429,0.064,-0.179,0.5,1.0,0.387,0.093,0.183,-0.316
52,B2_3,0.249,-0.178,-0.093,0.112,0.053,-0.043,-0.09,-0.486,-0.251,0.196,0.337,0.387,1.0,0.377,0.054,-0.595
52,y1,0.099,-0.103,0.133,0.512,-0.206,0.087,-0.24,-0.083,-0.101,0.157,0.044,0.093,0.377,1.0,0.164,-0.117
52,y2,0.17,0.01,-0.538,-0.247,0.197,0.399,0.049,0.215,0.1,-0.083,-0.016,0.183,0.054,0.164,1.0,0.181
52,y3,-0.275,0.158,-0.146,0.072,0.331,0.442,-0.239,0.52,0.038,-0.158,-0.317,-0.316,-0.595,-0.117,0.181,1.0
53,.,1.0,-0.469,0.163,-0.191,-0.286,0.216,0.031,0.118,-0.229,-0.292,0.262,0.094,0.248,0.098,0.168,-0.276
53,A1_1,-0.469,1.0,-0.024,-0.029,0.425,-0.329,-0.013,-0.135,-0.165,0.067,0.048,-0.271,-0.179,-0.103,0.01,0.158
53,A1_2,0.163,-0.024,1.0,-0.039,-0.619,-0.269,0.136,-0.106,-0.122,-0.055,0.122,0.011,-0.094,0.133,-0.538,-0.146
53,A1_3,-0.191,-0.029,-0.039,1.0,0.089,-0.053,0.136,0.231,0.059,-0.294,-0.17,-0.085,0.112,0.51,-0.247,0.072
53,B1_1,-0.286,0.425,-0.619,0.089,1.0,0.188,-0.234,0.02,-0.274,0.007,-0.007,-0.183,0.054,-0.206,0.197,0.331
53,B1_2,0.216,-0.329,-0.269,-0.053,0.188,1.0,-0.22,0.163,0.314,0.158,-0.166,0.087,-0.042,0.088,0.4,0.441
53,B1_3,0.031,-0.013,0.136,0.136,-0.234,-0.22,1.0,0.119,0.166,-0.612,-0.286,0.137,-0.089,-0.24,0.049,-0.24
53,A2_1,0.118,-0.135,-0.106,0.231,0.02,0.163,0.119,1.0,0.363,-0.328,-0.2,-0.429,-0.487,-0.083,0.215,0.52
53,A2_2,-0.229,-0.165,-0.122,0.059,-0.274,0.314,0.166,0.363,1.0,0.267,-0.25,0.064,-0.252,-0.101,0.101,0.039
53,A2_3,-0.292,0.067,-0.055,-0.294,0.007,0.158,-0.612,-0.328,0.267,1.0,0.005,-0.179,0.195,0.158,-0.083,-0.157
53,B2_1,0.262,0.048,0.122,-0.17,-0.007,-0.166,-0.286,-0.2,-0.25,0.005,1.0,0.5,0.338,0.044,-0.016,-0.317
53,B2_2,0.094,-0.271,0.011,-0.085,-0.183,0.087,0.137,-0.429,0.064,-0.179,0.5,1.0,0.387,0.092,0.183,-0.316
53,B2_3,0.248,-0.179,-0.094,0.112,0.054,-0.042,-0.089,-0.487,-0.252,0.195,0.338,0.387,1.0,0.377,0.054,-0.595
53,y1,0.098,-0.103,0.133,0.51,-0.206,0.088,-0.24,-0.083,-0.101,0.158,0.044,0.092,0.377,1.0,0.165,-0.115
53,y2,0.168,0.01,-0.538,-0.247,0.197,0.4,0.049,0.215,0.101,-0.083,-0.016,0.183,0.054,0.165,1.0,0.181
53,y3,-0.276,0.158,-0.146,0.072,0.331,0.441,-0.24,0.52,0.039,-0.157,-0.317,-0.316,-0.595,-0.115,0.181,1.0
54,.,1.0,-0.467,0.164,-0.19,-0.285,0.216,0.03,0.119,-0.229,-0.292,0.262,0.092,0.247,0.098,0.166,-0.276
54,A1_1,-0.467,1.0,-0.024,-0.029,0.425,-0.33,-0.014,-0.134,-0.164,0.068,0.047,-0.271,-0.179,-0.104,0.01,0.158
54,A1_2,0.164,-0.024,1.0,-0.039,-0.619,-0.27,0.136,-0.106,-0.122,-0.055,0.122,0.011,-0.094,0.132,-0.538,-0.146
54,A1_3,-0.19,-0.029,-0.039,1.0,0.09,-0.053,0.136,0.231,0.059,-0.295,-0.17,-0.085,0.111,0.509,-0.247,0.073
54,B1_1,-0.285,0.425,-0.619,0.09,1.0,0.188,-0.234,0.02,-0.274,0.007,-0.007,-0.183,0.055,-0.205,0.197,0.33
54,B1_2,0.216,-0.33,-0.27,-0.053,0.188,1.0,-0.22,0.163,0.313,0.157,-0.166,0.087,-0.042,0.089,0.4,0.441
54,B1_3,0.03,-0.014,0.136,0.136,-0.234,-0.22,1.0,0.119,0.166,-0.613,-0.286,0.137,-0.088,-0.241,0.049,-0.24
54,A2_1,0.119,-0.134,-0.106,0.231,0.02,0.163,0.119,1.0,0.363,-0.328,-0.201,-0.429,-0.488,-0.084,0.214,0.521
54,A2_2,-0.229,-0.164,-0.122,0.059,-0.274,0.313,0.166,0.363,1.0,0.267,-0.25,0.063,-0.253,-0.101,0.101,0.039
54,A2_3,-0.292,0.068,-0.055,-0.295,0.007,0.157,-0.613,-0.328,0.267,1.0,0.005,-0.179,0.194,0.159,-0.082,-0.157
54,B2_1,0.262,0.047,0.122,-0.17,-0.007,-0.166,-0.286,-0.201,-0.25,0.005,1.0,0.501,0.339,0.044,-0.016,-0.318
54,B2_2,0.092,-0.271,0.011,-0.085,-0.183,0.087,0.137,-0.429,0.063,-0.179,0.501,1.0,0.388,0.092,0.183,-0.316
54,B2_3,0.247,-0.179,-0.094,0.111,0.055,-0.042,-0.088,-0.488,-0.253,0.194,0.339,0.388,1.0,0.376,0.054,-0.594
54,y1,0.098,-0.104,0.132,0.509,-0.205,0.089,-0.241,-0.084,-0.101,0.159,0.044,0.092,0.376,1.0,0.167,-0.114
54,y2,0.166,0.01,-0.538,-0.247,0.197,0.4,0.049,0.214,0.101,-0.082,-0.016,0.183,0.054,0.167,1.0,0.182
54,y3,-0.276,0.158,-0.146,0.073,0.33,0.441,-0.24,0.521,0.039,-0.157,-0.318,-0.316,-0.594,-0.114,0.182,1.0
55,.,1.0,-0.466,0.163,-0.19,-0.284,0.216,0.029,0.119,-0.229,-0.292,0.262,0.091,0.246,0.097,0.164,-0.276
55,A1_1,-0.466,1.0,-0.024,-0.029,0.424,-0.33,-0.014,-0.134,-0.164,0.068,0.046,-0.271,-0.18,-0.104,0.01,0.159
55,A1_2,0.163,-0.024,1.0,-0.04,-0.619,-0.27,0.136,-0.106,-0.122,-0.055,0.122,0.01,-0.095,0.131,-0.539,-0.146
55,A1_3,-0.19,-0.029,-0.04,1.0,0.09,-0.053,0.136,0.231,0.058,-0.296,-0.17,-0.085,0.11,0.507,-0.247,0.073
55,B1_1,-0.284,0.424,-0.619,0.09,1.0,0.188,-0.233,0.019,-0.274,0.007,-0.006,-0.182,0.056,-0.205,0.197,0.33
55,B1_2,0.216,-0.33,-0.27,-0.053,0.188,1.0,-0.22,0.162,0.313,0.157,-0.165,0.088,-0.041,0.089,0.401,0.441
55,B1_3,0.029,-0.014,0.136,0.136,-0.233,-0.22,1.0,0.119,0.166,-0.613,-0.285,0.138,-0.087,-0.241,0.049,-0.24
55,A2_1,0.119,-0.134,-0.106,0.231,0.019,0.162,0.119,1.0,0.362,-0.329,-0.201,-0.429,-0.488,-0.084,0.214,0.521
55,A2_2,-0.229,-0.164,-0.122,0.058,-0.274,0.313,0.166,0.362,1.0,0.266,-0.25,0.063,-0.253,-0.101,0.101,0.039
55,A2_3,-0.292,0.068,-0.055,-0.296,0.007,0.157,-0.613,-0.329,0.266,1.0,0.004,-0.179,0.194,0.159,-0.081,-0.156
55,B2_1,0.262,0.046,0.122,-0.17,-0.006,-0.165,-0.285,-0.201,-0.25,0.004,1.0,0.502,0.339,0.044,-0.016,-0.318
55,B2_2,0.091,-0.271,0.01,-0.085,-0.182,0.088,0.138,-0.429,0.063,-0.179,0.502,1.0,0.389,0.092,0.183,-0.316
55,B2_3,0.246,-0.18,-0.095,0.11,0.056,-0.041,-0.087,-0.488,-0.253,0.194,0.339,0.389,1.0,0.375,0.055,-0.593
55,y1,0.097,-0.104,0.131,0.507,-0.205,0.089,-0.241,-0.084,-0.101,0.159,0.044,0.092,0.375,1.0,0.168,-0.113
55,y2,0.164,0.01,-0.539,-0.247,0.197,0.401,0.049,0.214,0.101,-0.081,-0.016,0.183,0.055,0.168,1.0,0.182
55,y3,-0.276,0.159,-0.146,0.073,0.33,0.441,-0.24,0.521,0.039,-0.156,-0.318,-0.316,-0.593,-0.113,0.182,1.0
56,.,1.0,-0.464,0.164,-0.188,-0.284,0.215,0.029,0.12,-0.229,-0.292,0.262,0.089,0.245,0.096,0.162,-0.276
56,A1_1,-0.464,1.0,-0.023,-0.028,0.424,-0.331,-0.014,-0.133,-0.164,0.068,0.046,-0.272,-0.18,-0.104,0.009,0.159
56,A1_2,0.164,-0.023,1.0,-0.04,-0.62,-0.271,0.136,-0.106,-0.123,-0.055,0.121,0.01,-0.095,0.13,-0.539,-0.146
56,A1_3,-0.188,-0.028,-0.04,1.0,0.091,-0.053,0.137,0.231,0.057,-0.296,-0.17,-0.085,0.11,0.506,-0.248,0.074
56,B1_1,-0.284,0.424,-0.62,0.091,1.0,0.188,-0.233,0.019,-0.274,0.007,-0.006,-0.181,0.057,-0.204,0.197,0.33
56,B1_2,0.215,-0.331,-0.271,-0.053,0.188,1.0,-0.219,0.161,0.313,0.156,-0.164,0.089,-0.04,0.09,0.401,0.441
56,B1_3,0.029,-0.014,0.136,0.137,-0.233,-0.219,1.0,0.119,0.167,-0.613,-0.284,0.138,-0.086,-0.241,0.048,-0.241
56,A2_1,0.12,-0.133,-0.106,0.231,0.019,0.161,0.119,1.0,0.362,-0.329,-0.202,-0.429,-0.489,-0.084,0.214,0.521
56,A2_2,-0.229,-0.164,-0.123,0.057,-0.274,0.313,0.167,0.362,1.0,0.266,-0.25,0.063,-0.254,-0.101,0.102,0.04
56,A2_3,-0.292,0.068,-0.055,-0.296,0.007,0.156,-0.613,-0.329,0.266,1.0,0.004,-0.18,0.193,0.16,-0.081,-0.156
56,B2_1,0.262,0.046,0.121,-0.17,-0.006,-0.164,-0.284,-0.202,-0.25,0.004,1.0,0.502,0.34,0.044,-0.017,-0.319
56,B2_2,0.089,-0.272,0.01,-0.085,-0.181,0.089,0.138,-0.429,0.063,-0.18,0.502,1.0,0.389,0.092,0.183,-0.316
56,B2_3,0.245,-0.18,-0.095,0.11,0.057,-0.04,-0.086,-0.489,-0.254,0.193,0.34,0.389,1.0,0.375,0.055,-0.593
56,y1,0.096,-0.104,0.13,0.506,-0.204,0.09,-0.241,-0.084,-0.101,0.16,0.044,0.092,0.375,1.0,0.169,-0.112
56,y2,0.162,0.009,-0.539,-0.248,0.197,0.401,0.048,0.214,0.102,-0.081,-0.017,0.183,0.055,0.169,1.0,0.183
56,y3,-0.276,0.159,-0.146,0.074,0.33,0.441,-0.241,0.521,0.04,-0.156,-0.319,-0.316,-0.593,-0.112,0.183,1.0
57,.,1.0,-0.463,0.164,-0.188,-0.283,0.215,0.028,0.121,-0.229,-0.292,0.262,0.087,0.244,0.096,0.161,-0.276
57,A1_1,-0.463,1.0,-0.023,-0.028,0.423,-0.331,-0.014,-0.133,-0.164,0.068,0.045,-0.272,-0.181,-0.105,0.009,0.159
57,A1_2,0.164,-0.023,1.0,-0.041,-0.62,-0.271,0.136,-0.106,-0.123,-0.055,0.121,0.01,-0.096,0.129,-0.539,-0.146
57,A1_3,-0.188,-0.028,-0.041,1.0,0.091,-0.053,0.137,0.231,0.057,-0.297,-0.17,-0.086,0.109,0.505,-0.247,0.074
57,B1_1,-0.283,0.423,-0.62,0.091,1.0,0.188,-0.233,0.018,-0.274,0.007,-0.006,-0.18,0.058,-0.204,0.198,0.329
57,B1_2,0.215,-0.331,-0.271,-0.053,0.188,1.0,-0.219,0.16,0.312,0.156,-0.164,0.089,-0.039,0.091,0.401,0.441
57,B1_3,0.028,-0.014,0.136,0.137,-0.233,-0.219,1.0,0.119,0.167,-0.613,-0.284,0.139,-0.086,-0.242,0.048,-0.241
57,A2_1,0.121,-0.133,-0.106,0.231,0.018,0.16,0.119,1.0,0.362,-0.33,-0.202,-0.429,-0.489,-0.085,0.214,0.521
57,A2_2,-0.229,-0.164,-0.123,0.057,-0.274,0.312,0.167,0.362,1.0,0.266,-0.25,0.063,-0.254,-0.101,0.102,0.04
57,A2_3,-0.292,0.068,-0.055,-0.297,0.007,0.156,-0.613,-0.33,0.266,1.0,0.004,-0.18,0.193,0.161,-0.08,-0.155
57,B2_1,0.262,0.045,0.121,-0.17,-0.006,-0.164,-0.284,-0.202,-0.25,0.004,1.0,0.503,0.341,0.044,-0.017,-0.319
57,B2_2,0.087,-0.272,0.01,-0.086,-0.18,0.089,0.139,-0.429,0.063,-0.18,0.503,1.0,0.39,0.092,0.184,-0.316
57,B2_3,0.244,-0.181,-0.096,0.109,0.058,-0.039,-0.086,-0.489,-0.254,0.193,0.341,0.39,1.0,0.374,0.056,-0.592
57,y1,0.096,-0.105,0.129,0.505,-0.204,0.091,-0.242,-0.085,-0.101,0.161,0.044,0.092,0.374,1.0,0.17,-0.111
57,y2,0.161,0.009,-0.539,-0.247,0.198,0.401,0.048,0.214,0.102,-0.08,-0.017,0.184,0.056,0.17,1.0,0.183
57,y3,-0.276,0.159,-0.146,0.074,0.329,0.441,-0.241,0.521,0.04,-0.155,-0.319,-0.316,-0.592,-0.111,0.183,1.0
58,.,1.0,-0.461,0.165,-0.187,-0.283,0.214,0.028,0.121,-0.229,-0.292,0.261,0.085,0.243,0.095,0.159,-0.277
58,A1_1,-0.461,1.0,-0.023,-0.028,0.423,-0.332,-0.015,-0.132,-0.163,0.068,0.045,-0.272,-0.181,-0.105,0.009,0.159
58,A1_2,0.165,-0.023,1.0,-0.041,-0.62,-0.272,0.136,-0.106,-0.123,-0.055,0.12,0.009,-0.097,0.127,-0.539,-0.146
58,A1_3,-0.187,-0.028,-0.041,1.0,0.092,-0.053,0.137,0.231,0.057,-0.298,-0.169,-0.086,0.108,0.504,-0.248,0.075
58,B1_1,-0.283,0.423,-0.62,0.092,1.0,0.189,-0.233,0.018,-0.274,0.007,-0.005,-0.179,0.059,-0.203,0.198,0.329
58,B1_2,0.214,-0.332,-0.272,-0.053,0.189,1.0,-0.219,0.16,0.312,0.155,-0.163,0.09,-0.038,0.091,0.402,0.44
58,B1_3,0.028,-0.015,0.136,0.137,-0.233,-0.219,1.0,0.118,0.167,-0.613,-0.283,0.14,-0.085,-0.242,0.048,-0.241
