,,.,A1_1,A1_2,A1_3,B1_1,B1_2,B1_3,A2_1,A2_2,A2_3,B2_1,B2_2,B2_3,y1,y2,y3
0,.,1.0,0.222,0.505,-0.159,0.013,0.08,0.408,0.021,0.37,0.353,0.123,-0.412,-0.211,0.299,-0.05,-0.08
0,A1_1,0.222,1.0,0.071,-0.143,-0.49,0.202,0.306,0.329,-0.12,-0.236,0.159,0.077,0.321,-0.19,-0.045,0.307
0,A1_2,0.505,0.071,1.0,-0.275,-0.188,-0.317,0.145,-0.463,0.215,0.016,0.262,-0.179,-0.098,0.149,-0.014,0.299
0,A1_3,-0.159,-0.143,-0.275,1.0,-0.246,0.0,0.366,0.192,-0.172,-0.089,0.167,-0.069,-0.178,-0.415,0.459,-0.593
0,B1_1,0.013,-0.49,-0.188,-0.246,1.0,-0.265,-0.426,-0.091,-0.007,0.672,-0.666,-0.062,-0.065,0.616,-0.2,-0.237
0,B1_2,0.08,0.202,-0.317,0.0,-0.265,1.0,0.064,0.634,0.061,-0.045,0.516,0.024,0.037,-0.203,-0.231,0.109
0,B1_3,0.408,0.306,0.145,0.366,-0.426,0.064,1.0,0.228,0.148,-0.235,-0.012,-0.522,-0.2,-0.175,0.07,-0.143
0,A2_1,0.021,0.329,-0.463,0.192,-0.091,0.634,0.228,1.0,-0.015,0.046,0.222,-0.254,-0.24,-0.127,-0.016,-0.151
0,A2_2,0.37,-0.12,0.215,-0.172,-0.007,0.061,0.148,-0.015,1.0,0.202,0.036,-0.122,-0.218,0.176,0.382,0.298
0,A2_3,0.353,-0.236,0.016,-0.089,0.672,-0.045,-0.235,0.046,0.202,1.0,-0.363,-0.343,-0.426,0.254,0.0,-0.098
0,B2_1,0.123,0.159,0.262,0.167,-0.666,0.516,-0.012,0.222,0.036,-0.363,1.0,0.237,-0.076,-0.403,-0.005,0.135
0,B2_2,-0.412,0.077,-0.179,-0.069,-0.062,0.024,-0.522,-0.254,-0.122,-0.343,0.237,1.0,0.649,-0.036,-0.078,0.194
0,B2_3,-0.211,0.321,-0.098,-0.178,-0.065,0.037,-0.2,-0.24,-0.218,-0.426,-0.076,0.649,1.0,0.319,0.059,0.195
0,y1,0.299,-0.19,0.149,-0.415,0.616,-0.203,-0.175,-0.127,0.176,0.254,-0.403,-0.036,0.319,1.0,0.018,0.114
0,y2,-0.05,-0.045,-0.014,0.459,-0.2,-0.231,0.07,-0.016,0.382,0.0,-0.005,-0.078,0.059,0.018,1.0,-0.115
0,y3,-0.08,0.307,0.299,-0.593,-0.237,0.109,-0.143,-0.151,0.298,-0.098,0.135,0.194,0.195,0.114,-0.115,1.0
500,.,1.0,0.126,0.381,-0.066,-0.125,0.123,0.005,-0.016,-0.019,0.241,0.335,-0.151,-0.098,0.06,0.042,-0.043
500,A1_1,0.126,1.0,0.181,-0.231,-0.473,0.268,0.489,0.38,-0.073,-0.163,0.131,-0.149,0.045,-0.179,0.068,-0.035
500,A1_2,0.381,0.181,1.0,-0.226,-0.166,-0.341,0.195,-0.289,0.32,0.193,0.097,-0.349,-0.289,0.027,-0.124,0.077
500,A1_3,-0.066,-0.231,-0.226,1.0,-0.145,-0.006,0.494,0.293,-0.017,0.055,0.131,-0.191,-0.346,-0.1,0.075,-0.355
500,B1_1,-0.125,-0.473,-0.166,-0.145,1.0,-0.262,-0.428,-0.122,0.076,0.669,-0.652,-0.022,-0.05,0.164,-0.069,-0.205
500,B1_2,0.123,0.268,-0.341,-0.006,-0.262,1.0,-0.004,0.519,0.019,-0.046,0.531,0.142,0.07,-0.188,0.074,0.021
500,B1_3,0.005,0.489,0.195,0.494,-0.428,-0.004,1.0,0.229,0.237,-0.003,-0.05,-0.397,-0.219,-0.04,0.204,-0.088
500,A2_1,-0.016,0.38,-0.289,0.293,-0.122,0.519,0.229,1.0,0.108,0.197,0.098,-0.392,-0.438,-0.24,0.127,-0.311
500,A2_2,-0.019,-0.073,0.32,-0.017,0.076,0.019,0.237,0.108,1.0,0.341,-0.056,-0.243,-0.354,0.155,0.376,0.294
500,A2_3,0.241,-0.163,0.193,0.055,0.669,-0.046,-0.003,0.197,0.341,1.0,-0.359,-0.482,-0.58,0.014,0.021,-0.259
500,B2_1,0.335,0.131,0.097,0.131,-0.652,0.531,-0.05,0.098,-0.056,-0.359,1.0,0.388,-0.02,-0.295,-0.135,0.015
500,B2_2,-0.151,-0.149,-0.349,-0.191,-0.022,0.142,-0.397,-0.392,-0.243,-0.482,0.388,1.0,0.665,0.064,-0.135,0.141
500,B2_3,-0.098,0.045,-0.289,-0.346,-0.05,0.07,-0.219,-0.438,-0.354,-0.58,-0.02,0.665,1.0,0.529,0.238,0.515
500,y1,0.06,-0.179,0.027,-0.1,0.164,-0.188,-0.04,-0.24,0.155,0.014,-0.295,0.064,0.529,1.0,0.711,0.739
500,y2,0.042,0.068,-0.124,0.075,-0.069,0.074,0.204,0.127,0.376,0.021,-0.135,-0.135,0.238,0.711,1.0,0.628
500,y3,-0.043,-0.035,0.077,-0.355,-0.205,0.021,-0.088,-0.311,0.294,-0.259,0.015,0.141,0.515,0.739,0.628,1.0
1000,.,1.0,-0.071,0.259,-0.16,-0.089,0.074,-0.153,-0.143,-0.145,0.144,0.25,-0.119,-0.013,0.166,-0.079,0.003
1000,A1_1,-0.071,1.0,0.282,-0.107,-0.349,0.253,0.489,0.516,0.023,0.057,0.07,-0.292,-0.155,-0.233,-0.146,-0.129
1000,A1_2,0.259,0.282,1.0,-0.149,-0.112,-0.381,0.202,-0.177,0.375,0.308,-0.006,-0.426,-0.355,0.122,-0.204,-0.106
1000,A1_3,-0.16,-0.107,-0.149,1.0,-0.101,-0.022,0.511,0.368,0.072,0.157,0.083,-0.261,-0.418,0.11,0.102,-0.213
1000,B1_1,-0.089,-0.349,-0.112,-0.101,1.0,-0.227,-0.405,-0.078,0.114,0.638,-0.629,0.003,-0.023,-0.11,-0.189,-0.315
1000,B1_2,0.074,0.253,-0.381,-0.022,-0.227,1.0,-0.012,0.446,-0.022,-0.059,0.524,0.169,0.092,-0.154,0.142,0.146
1000,B1_3,-0.153,0.489,0.202,0.511,-0.405,-0.012,1.0,0.236,0.242,0.051,-0.039,-0.364,-0.214,0.195,0.299,0.068
1000,A2_1,-0.143,0.516,-0.177,0.368,-0.078,0.446,0.236,1.0,0.159,0.299,0.023,-0.431,-0.492,-0.214,-0.085,-0.275
1000,A2_2,-0.145,0.023,0.375,0.072,0.114,-0.022,0.242,0.159,1.0,0.424,-0.122,-0.288,-0.382,0.321,0.28,0.175
1000,A2_3,0.144,0.057,0.308,0.157,0.638,-0.059,0.051,0.299,0.424,1.0,-0.374,-0.532,-0.616,-0.023,-0.144,-0.375
1000,B2_1,0.25,0.07,-0.006,0.083,-0.629,0.524,-0.039,0.023,-0.122,-0.374,1.0,0.416,-0.001,-0.134,-0.048,0.077
1000,B2_2,-0.119,-0.292,-0.426,-0.261,0.003,0.169,-0.364,-0.431,-0.288,-0.532,0.416,1.0,0.676,-0.171,0.015,0.158
1000,B2_3,-0.013,-0.155,-0.355,-0.418,-0.023,0.092,-0.214,-0.492,-0.382,-0.616,-0.001,0.676,1.0,0.283,0.394,0.563
1000,y1,0.166,-0.233,0.122,0.11,-0.11,-0.154,0.195,-0.214,0.321,-0.023,-0.134,-0.171,0.283,1.0,0.877,0.823
1000,y2,-0.079,-0.146,-0.204,0.102,-0.189,0.142,0.299,-0.085,0.28,-0.144,-0.048,0.015,0.394,0.877,1.0,0.902
1000,y3,0.003,-0.129,-0.106,-0.213,-0.315,0.146,0.068,-0.275,0.175,-0.375,0.077,0.158,0.563,0.823,0.902,1.0
1500,.,1.0,-0.012,0.247,-0.122,-0.164,0.042,-0.049,-0.149,-0.144,0.099,0.228,-0.192,-0.059,0.016,0.018,0.025
1500,A1_1,-0.012,1.0,0.347,-0.025,-0.32,0.256,0.456,0.586,0.109,0.133,0.089,-0.31,-0.215,-0.409,-0.358,-0.299
1500,A1_2,0.247,0.347,1.0,-0.095,-0.074,-0.393,0.17,-0.086,0.39,0.359,-0.059,-0.461,-0.367,-0.051,-0.153,-0.155
1500,A1_3,-0.122,-0.025,-0.095,1.0,-0.077,-0.004,0.538,0.385,0.132,0.209,0.078,-0.298,-0.469,0.058,0.069,-0.143
1500,B1_1,-0.164,-0.32,-0.074,-0.077,1.0,-0.202,-0.398,-0.046,0.134,0.639,-0.619,0.009,-0.016,-0.039,-0.173,-0.267
1500,B1_2,0.042,0.256,-0.393,-0.004,-0.202,1.0,-0.017,0.437,-0.021,-0.047,0.53,0.188,0.093,-0.162,-0.027,0.11
1500,B1_3,-0.049,0.456,0.17,0.538,-0.398,-0.017,1.0,0.242,0.248,0.043,-0.035,-0.349,-0.209,0.089,0.186,0.076
1500,A2_1,-0.149,0.586,-0.086,0.385,-0.046,0.437,0.242,1.0,0.234,0.346,0.005,-0.42,-0.509,-0.308,-0.286,-0.4
1500,A2_2,-0.144,0.109,0.39,0.132,0.134,-0.021,0.248,0.234,1.0,0.474,-0.146,-0.301,-0.384,0.157,0.216,0.084
1500,A2_3,0.099,0.133,0.359,0.209,0.639,-0.047,0.043,0.346,0.474,1.0,-0.382,-0.532,-0.609,-0.128,-0.181,-0.312
1500,B2_1,0.228,0.089,-0.059,0.078,-0.619,0.53,-0.035,0.005,-0.146,-0.382,1.0,0.424,0.006,-0.152,-0.043,0.052
1500,B2_2,-0.192,-0.31,-0.461,-0.298,0.009,0.188,-0.349,-0.42,-0.301,-0.532,0.424,1.0,0.68,0.021,0.042,0.118
1500,B2_3,-0.059,-0.215,-0.367,-0.469,-0.016,0.093,-0.209,-0.509,-0.384,-0.609,0.006,0.68,1.0,0.412,0.398,0.516
1500,y1,0.016,-0.409,-0.051,0.058,-0.039,-0.162,0.089,-0.308,0.157,-0.128,-0.152,0.021,0.412,1.0,0.952,0.858
1500,y2,0.018,-0.358,-0.153,0.069,-0.173,-0.027,0.186,-0.286,0.216,-0.181,-0.043,0.042,0.398,0.952,1.0,0.926
1500,y3,0.025,-0.299,-0.155,-0.143,-0.267,0.11,0.076,-0.4,0.084,-0.312,0.052,0.118,0.516,0.858,0.926,1.0
2000,.,1.0,-0.124,0.163,-0.185,-0.123,0.043,-0.176,-0.239,-0.177,0.069,0.222,-0.145,-0.026,0.12,-0.102,0.106
2000,A1_1,-0.124,1.0,0.415,-0.026,-0.319,0.22,0.353,0.64,0.194,0.168,0.049,-0.301,-0.219,-0.193,-0.202,-0.14
2000,A1_2,0.163,0.415,1.0,-0.065,-0.1,-0.417,0.101,0.022,0.447,0.399,-0.115,-0.487,-0.386,0.121,-0.041,-0.022
2000,A1_3,-0.185,-0.026,-0.065,1.0,-0.067,-0.044,0.534,0.393,0.215,0.258,0.039,-0.321,-0.497,0.113,0.107,-0.123
2000,B1_1,-0.123,-0.319,-0.1,-0.067,1.0,-0.157,-0.362,-0.071,0.083,0.588,-0.577,0.052,0.017,-0.302,-0.363,-0.354
2000,B1_2,0.043,0.22,-0.417,-0.044,-0.157,1.0,-0.049,0.379,-0.069,-0.058,0.506,0.232,0.133,-0.093,-0.015,0.112
2000,B1_3,-0.176,0.353,0.101,0.534,-0.362,-0.049,1.0,0.194,0.212,0.035,-0.041,-0.283,-0.167,0.222,0.332,0.181
2000,A2_1,-0.239,0.64,0.022,0.393,-0.071,0.379,0.194,1.0,0.34,0.374,-0.031,-0.392,-0.514,-0.28,-0.259,-0.342
2000,A2_2,-0.177,0.194,0.447,0.215,0.083,-0.069,0.212,0.34,1.0,0.531,-0.162,-0.342,-0.448,0.093,0.142,0.041
2000,A2_3,0.069,0.168,0.399,0.258,0.588,-0.058,0.035,0.374,0.531,1.0,-0.399,-0.553,-0.624,-0.192,-0.26,-0.279
2000,B2_1,0.222,0.049,-0.115,0.039,-0.577,0.506,-0.041,-0.031,-0.162,-0.399,1.0,0.459,0.036,0.034,0.044,0.121
2000,B2_2,-0.145,-0.301,-0.487,-0.321,0.052,0.232,-0.283,-0.392,-0.342,-0.553,0.459,1.0,0.69,-0.097,0.012,0.077
2000,B2_3,-0.026,-0.219,-0.386,-0.497,0.017,0.133,-0.167,-0.514,-0.448,-0.624,0.036,0.69,1.0,0.321,0.361,0.474
2000,y1,0.12,-0.193,0.121,0.113,-0.302,-0.093,0.222,-0.28,0.093,-0.192,0.034,-0.097,0.321,1.0,0.909,0.908
2000,y2,-0.102,-0.202,-0.041,0.107,-0.363,-0.015,0.332,-0.259,0.142,-0.26,0.044,0.012,0.361,0.909,1.0,0.927
2000,y3,0.106,-0.14,-0.022,-0.123,-0.354,0.112,0.181,-0.342,0.041,-0.279,0.121,0.077,0.474,0.908,0.927,1.0
2500,.,1.0,-0.244,0.07,-0.168,-0.139,0.037,-0.263,-0.301,-0.203,-0.003,0.253,-0.102,-0.027,-0.081,-0.225,-0.097
2500,A1_1,-0.244,1.0,0.485,0.037,-0.341,0.183,0.336,0.67,0.262,0.212,0.034,-0.271,-0.2,-0.128,-0.129,-0.143
2500,A1_2,0.07,0.485,1.0,0.035,-0.132,-0.428,0.12,0.119,0.513,0.46,-0.123,-0.478,-0.403,-0.001,-0.124,-0.076
2500,A1_3,-0.168,0.037,0.035,1.0,-0.077,-0.07,0.502,0.45,0.338,0.31,0.049,-0.318,-0.544,-0.034,0.083,0.027
2500,B1_1,-0.139,-0.341,-0.132,-0.077,1.0,-0.129,-0.331,-0.106,0.058,0.541,-0.555,0.082,0.052,-0.293,-0.397,-0.313
2500,B1_2,0.037,0.183,-0.428,-0.07,-0.129,1.0,-0.039,0.294,-0.103,-0.072,0.512,0.279,0.16,-0.006,-0.004,0.121
2500,B1_3,-0.263,0.336,0.12,0.502,-0.331,-0.039,1.0,0.178,0.192,0.034,-0.025,-0.251,-0.147,0.265,0.426,0.316
2500,A2_1,-0.301,0.67,0.119,0.45,-0.106,0.294,0.178,1.0,0.409,0.387,-0.053,-0.36,-0.508,-0.269,-0.219,-0.258
2500,A2_2,-0.203,0.262,0.513,0.338,0.058,-0.103,0.192,0.409,1.0,0.614,-0.168,-0.361,-0.49,-0.004,0.01,0.051
2500,A2_3,-0.003,0.212,0.46,0.31,0.541,-0.072,0.034,0.387,0.614,1.0,-0.385,-0.538,-0.613,-0.23,-0.305,-0.216
2500,B2_1,0.253,0.034,-0.123,0.049,-0.555,0.512,-0.025,-0.053,-0.168,-0.385,1.0,0.475,0.055,-0.04,0.023,0.04
2500,B2_2,-0.102,-0.271,-0.478,-0.318,0.082,0.279,-0.251,-0.36,-0.361,-0.538,0.475,1.0,0.702,-0.113,-0.042,-0.011
2500,B2_3,-0.027,-0.2,-0.403,-0.544,0.052,0.16,-0.147,-0.508,-0.49,-0.613,0.055,0.702,1.0,0.35,0.297,0.36
2500,y1,-0.081,-0.128,-0.001,-0.034,-0.293,-0.006,0.265,-0.269,-0.004,-0.23,-0.04,-0.113,0.35,1.0,0.927,0.938
2500,y2,-0.225,-0.129,-0.124,0.083,-0.397,-0.004,0.426,-0.219,0.01,-0.305,0.023,-0.042,0.297,0.927,1.0,0.947
2500,y3,-0.097,-0.143,-0.076,0.027,-0.313,0.121,0.316,-0.258,0.051,-0.216,0.04,-0.011,0.36,0.938,0.947,1.0
3000,.,1.0,-0.283,0.066,-0.234,-0.177,0.015,-0.297,-0.365,-0.21,-0.059,0.262,-0.051,0.014,-0.097,-0.096,-0.16
3000,A1_1,-0.283,1.0,0.519,0.114,-0.31,0.143,0.288,0.706,0.349,0.288,0.005,-0.259,-0.209,-0.203,-0.136,-0.161
3000,A1_2,0.066,0.519,1.0,0.083,-0.14,-0.43,0.116,0.182,0.545,0.512,-0.143,-0.516,-0.433,-0.106,-0.061,-0.162
3000,A1_3,-0.234,0.114,0.083,1.0,-0.094,-0.103,0.506,0.496,0.404,0.333,0.043,-0.319,-0.554,0.084,0.157,0.02
3000,B1_1,-0.177,-0.31,-0.14,-0.094,1.0,-0.111,-0.312,-0.118,0.014,0.513,-0.538,0.099,0.066,-0.224,-0.393,-0.342
3000,B1_2,0.015,0.143,-0.43,-0.103,-0.111,1.0,-0.034,0.235,-0.133,-0.104,0.514,0.302,0.179,0.105,0.05,0.127
3000,B1_3,-0.297,0.288,0.116,0.506,-0.312,-0.034,1.0,0.186,0.205,0.031,-0.017,-0.225,-0.132,0.275,0.396,0.373
3000,A2_1,-0.365,0.706,0.182,0.496,-0.118,0.235,0.186,1.0,0.483,0.439,-0.072,-0.362,-0.526,-0.252,-0.215,-0.266
3000,A2_2,-0.21,0.349,0.545,0.404,0.014,-0.133,0.205,0.483,1.0,0.646,-0.181,-0.397,-0.518,0.028,0.066,-0.035
3000,A2_3,-0.059,0.288,0.512,0.333,0.513,-0.104,0.031,0.439,0.646,1.0,-0.404,-0.533,-0.605,-0.166,-0.221,-0.313
3000,B2_1,0.262,0.005,-0.143,0.043,-0.538,0.514,-0.017,-0.072,-0.181,-0.404,1.0,0.488,0.07,0.011,0.054,0.044
3000,B2_2,-0.051,-0.259,-0.516,-0.319,0.099,0.302,-0.225,-0.362,-0.397,-0.533,0.488,1.0,0.706,-0.103,-0.131,-0.007
3000,B2_3,0.014,-0.209,-0.433,-0.554,0.066,0.179,-0.132,-0.526,-0.518,-0.605,0.07,0.706,1.0,0.296,0.22,0.378
3000,y1,-0.097,-0.203,-0.106,0.084,-0.224,0.105,0.275,-0.252,0.028,-0.166,0.011,-0.103,0.296,1.0,0.96,0.946
3000,y2,-0.096,-0.136,-0.061,0.157,-0.393,0.05,0.396,-0.215,0.066,-0.221,0.054,-0.131,0.22,0.96,1.0,0.955
3000,y3,-0.16,-0.161,-0.162,0.02,-0.342,0.127,0.373,-0.266,-0.035,-0.313,0.044,-0.007,0.378,0.946,0.955,1.0
3500,.,1.0,-0.302,0.075,-0.277,-0.189,-0.007,-0.323,-0.412,-0.226,-0.089,0.28,-0.007,0.05,-0.114,-0.195,-0.165
3500,A1_1,-0.302,1.0,0.529,0.18,-0.315,0.091,0.274,0.736,0.413,0.328,-0.01,-0.251,-0.22,-0.186,-0.076,-0.119
3500,A1_2,0.075,0.529,1.0,0.101,-0.162,-0.462,0.107,0.205,0.541,0.526,-0.176,-0.54,-0.446,-0.186,-0.046,-0.094
3500,A1_3,-0.277,0.18,0.101,1.0,-0.116,-0.15,0.509,0.519,0.456,0.353,0.011,-0.351,-0.563,0.107,0.229,0.125
3500,B1_1,-0.189,-0.315,-0.162,-0.116,1.0,-0.078,-0.291,-0.12,-0.023,0.462,-0.517,0.117,0.089,-0.289,-0.305,-0.301
3500,B1_2,-0.007,0.091,-0.462,-0.15,-0.078,1.0,-0.02,0.141,-0.15,-0.091,0.52,0.347,0.224,0.185,0.023,0.077
3500,B1_3,-0.323,0.274,0.107,0.509,-0.291,-0.02,1.0,0.156,0.199,0.032,-0.001,-0.19,-0.102,0.348,0.408,0.372
3500,A2_1,-0.412,0.736,0.205,0.519,-0.12,0.141,0.156,1.0,0.532,0.446,-0.12,-0.347,-0.511,-0.263,-0.167,-0.237
3500,A2_2,-0.226,0.413,0.541,0.456,-0.023,-0.15,0.199,0.532,1.0,0.677,-0.182,-0.416,-0.545,-0.044,0.068,-0.002
3500,A2_3,-0.089,0.328,0.526,0.353,0.462,-0.091,0.032,0.446,0.677,1.0,-0.375,-0.52,-0.592,-0.215,-0.094,-0.149
3500,B2_1,0.28,-0.01,-0.176,0.011,-0.517,0.52,-0.001,-0.12,-0.182,-0.375,1.0,0.501,0.093,0.052,-0.044,-0.029
3500,B2_2,-0.007,-0.251,-0.54,-0.351,0.117,0.347,-0.19,-0.347,-0.416,-0.52,0.501,1.0,0.72,-0.097,-0.212,-0.159
3500,B2_3,0.05,-0.22,-0.446,-0.563,0.089,0.224,-0.102,-0.511,-0.545,-0.592,0.093,0.72,1.0,0.299,0.142,0.224
3500,y1,-0.114,-0.186,-0.186,0.107,-0.289,0.185,0.348,-0.263,-0.044,-0.215,0.052,-0.097,0.299,1.0,0.941,0.963
3500,y2,-0.195,-0.076,-0.046,0.229,-0.305,0.023,0.408,-0.167,0.068,-0.094,-0.044,-0.212,0.142,0.941,1.0,0.98
3500,y3,-0.165,-0.119,-0.094,0.125,-0.301,0.077,0.372,-0.237,-0.002,-0.149,-0.029,-0.159,0.224,0.963,0.98,1.0
4000,.,1.0,-0.326,0.035,-0.295,-0.218,-0.028,-0.341,-0.433,-0.267,-0.139,0.268,0.001,0.051,-0.179,-0.211,-0.176
4000,A1_1,-0.326,1.0,0.579,0.267,-0.283,0.046,0.219,0.772,0.484,0.422,-0.039,-0.27,-0.264,-0.156,-0.204,-0.174
4000,A1_2,0.035,0.579,1.0,0.161,-0.166,-0.449,0.093,0.248,0.596,0.593,-0.194,-0.565,-0.477,-0.149,-0.166,-0.126
4000,A1_3,-0.295,0.267,0.161,1.0,-0.124,-0.173,0.48,0.57,0.499,0.405,0.003,-0.353,-0.559,0.074,0.114,0.149
4000,B1_1,-0.218,-0.283,-0.166,-0.124,1.0,-0.062,-0.257,-0.154,-0.044,0.399,-0.495,0.13,0.105,-0.246,-0.248,-0.22
4000,B1_2,-0.028,0.046,-0.449,-0.173,-0.062,1.0,-0.003,0.129,-0.164,-0.134,0.531,0.364,0.248,0.182,0.111,0.068
4000,B1_3,-0.341,0.219,0.093,0.48,-0.257,-0.003,1.0,0.13,0.178,0.035,0.019,-0.154,-0.065,0.344,0.4,0.373
4000,A2_1,-0.433,0.772,0.248,0.57,-0.154,0.129,0.13,1.0,0.573,0.468,-0.094,-0.303,-0.475,-0.215,-0.234,-0.219
4000,A2_2,-0.267,0.484,0.596,0.499,-0.044,-0.164,0.178,0.573,1.0,0.737,-0.189,-0.431,-0.558,-0.064,0.007,-0.008
4000,A2_3,-0.139,0.422,0.593,0.405,0.399,-0.134,0.035,0.468,0.737,1.0,-0.373,-0.521,-0.606,-0.202,-0.178,-0.133
4000,B2_1,0.268,-0.039,-0.194,0.003,-0.495,0.531,0.019,-0.094,-0.189,-0.373,1.0,0.515,0.116,0.011,-0.001,-0.029
4000,B2_2,0.001,-0.27,-0.565,-0.353,0.13,0.364,-0.154,-0.303,-0.431,-0.521,0.515,1.0,0.724,-0.12,-0.082,-0.101
4000,B2_3,0.051,-0.264,-0.477,-0.559,0.105,0.248,-0.065,-0.475,-0.558,-0.606,0.116,0.724,1.0,0.31,0.245,0.255
4000,y1,-0.179,-0.156,-0.149,0.074,-0.246,0.182,0.344,-0.215,-0.064,-0.202,0.011,-0.12,0.31,1.0,0.952,0.957
4000,y2,-0.211,-0.204,-0.166,0.114,-0.248,0.111,0.4,-0.234,0.007,-0.178,-0.001,-0.082,0.245,0.952,1.0,0.988
4000,y3,-0.176,-0.174,-0.126,0.149,-0.22,0.068,0.373,-0.219,-0.008,-0.133,-0.029,-0.101,0.255,0.957,0.988,1.0
4500,.,1.0,-0.345,0.008,-0.296,-0.2,-0.038,-0.348,-0.443,-0.315,-0.166,0.263,0.017,0.058,-0.31,-0.254,-0.316
4500,A1_1,-0.345,1.0,0.626,0.405,-0.275,0.007,0.172,0.819,0.531,0.505,-0.08,-0.302,-0.299,-0.131,-0.157,-0.126
4500,A1_2,0.008,0.626,1.0,0.249,-0.178,-0.437,0.053,0.344,0.613,0.627,-0.23,-0.578,-0.489,-0.162,-0.155,-0.103
4500,A1_3,-0.296,0.405,0.249,1.0,-0.152,-0.188,0.417,0.64,0.586,0.494,-0.047,-0.395,-0.598,-0.029,0.049,0.013
4500,B1_1,-0.2,-0.275,-0.178,-0.152,1.0,-0.043,-0.224,-0.127,-0.052,0.362,-0.454,0.153,0.119,-0.13,-0.27,-0.23
4500,B1_2,-0.038,0.007,-0.437,-0.188,-0.043,1.0,0.02,0.096,-0.172,-0.144,0.538,0.385,0.276,0.143,0.092,0.124
4500,B1_3,-0.348,0.172,0.053,0.417,-0.224,0.02,1.0,0.096,0.11,0.038,0.049,-0.11,-0.035,0.266,0.353,0.385
4500,A2_1,-0.443,0.819,0.344,0.64,-0.127,0.096,0.096,1.0,0.648,0.574,-0.137,-0.294,-0.467,-0.222,-0.208,-0.208
4500,A2_2,-0.315,0.531,0.613,0.586,-0.052,-0.172,0.11,0.648,1.0,0.735,-0.235,-0.446,-0.562,-0.07,-0.024,0.008
4500,A2_3,-0.166,0.505,0.627,0.494,0.362,-0.144,0.038,0.574,0.735,1.0,-0.392,-0.516,-0.59,-0.185,-0.227,-0.179
4500,B2_1,0.263,-0.08,-0.23,-0.047,-0.454,0.538,0.049,-0.137,-0.235,-0.392,1.0,0.542,0.157,-0.089,-0.073,-0.07
4500,B2_2,0.017,-0.302,-0.578,-0.395,0.153,0.385,-0.11,-0.294,-0.446,-0.516,0.542,1.0,0.73,-0.06,-0.116,-0.097
4500,B2_3,0.058,-0.299,-0.489,-0.598,0.119,0.276,-0.035,-0.467,-0.562,-0.59,0.157,0.73,1.0,0.364,0.282,0.283
4500,y1,-0.31,-0.131,-0.162,-0.029,-0.13,0.143,0.266,-0.222,-0.07,-0.185,-0.089,-0.06,0.364,1.0,0.965,0.967
4500,y2,-0.254,-0.157,-0.155,0.049,-0.27,0.092,0.353,-0.208,-0.024,-0.227,-0.073,-0.116,0.282,0.965,1.0,0.988
4500,y3,-0.316,-0.126,-0.103,0.013,-0.23,0.124,0.385,-0.208,0.008,-0.179,-0.07,-0.097,0.283,0.967,0.988,1.0
5000,.,1.0,-0.366,0.015,-0.346,-0.194,-0.047,-0.334,-0.453,-0.356,-0.175,0.27,0.029,0.059,-0.326,-0.226,-0.328
5000,A1_1,-0.366,1.0,0.667,0.465,-0.244,-0.018,0.173,0.835,0.611,0.558,-0.113,-0.328,-0.339,-0.174,-0.233,-0.17
5000,A1_2,0.015,0.667,1.0,0.307,-0.207,-0.424,0.091,0.4,0.662,0.669,-0.227,-0.587,-0.503,-0.164,-0.104,-0.127
5000,A1_3,-0.346,0.465,0.307,1.0,-0.121,-0.167,0.425,0.67,0.602,0.537,-0.078,-0.389,-0.586,-0.079,0.085,0.01
5000,B1_1,-0.194,-0.244,-0.207,-0.121,1.0,-0.034,-0.209,-0.073,-0.079,0.332,-0.43,0.167,0.132,-0.118,-0.214,-0.216
5000,B1_2,-0.047,-0.018,-0.424,-0.167,-0.034,1.0,0.026,0.083,-0.165,-0.151,0.539,0.388,0.276,0.153,0.082,0.095
5000,B1_3,-0.334,0.173,0.091,0.425,-0.209,0.026,1.0,0.063,0.118,0.054,0.069,-0.086,-0.025,0.224,0.39,0.321
5000,A2_1,-0.453,0.835,0.4,0.67,-0.073,0.083,0.063,1.0,0.698,0.626,-0.159,-0.293,-0.468,-0.264,-0.282,-0.251
5000,A2_2,-0.356,0.611,0.662,0.602,-0.079,-0.165,0.118,0.698,1.0,0.76,-0.241,-0.454,-0.563,-0.097,0.01,-0.015
5000,A2_3,-0.175,0.558,0.669,0.537,0.332,-0.151,0.054,0.626,0.76,1.0,-0.387,-0.519,-0.595,-0.214,-0.153,-0.202
5000,B2_1,0.27,-0.113,-0.227,-0.078,-0.43,0.539,0.069,-0.159,-0.241,-0.387,1.0,0.554,0.171,-0.123,-0.095,-0.135
5000,B2_2,0.029,-0.328,-0.587,-0.389,0.167,0.388,-0.086,-0.293,-0.454,-0.519,0.554,1.0,0.735,-0.058,-0.164,-0.129
5000,B2_3,0.059,-0.339,-0.503,-0.586,0.132,0.276,-0.025,-0.468,-0.563,-0.595,0.171,0.735,1.0,0.386,0.228,0.291
5000,y1,-0.326,-0.174,-0.164,-0.079,-0.118,0.153,0.224,-0.264,-0.097,-0.214,-0.123,-0.058,0.386,1.0,0.941,0.976
5000,y2,-0.226,-0.233,-0.104,0.085,-0.214,0.082,0.39,-0.282,0.01,-0.153,-0.095,-0.164,0.228,0.941,1.0,0.973
5000,y3,-0.328,-0.17,-0.127,0.01,-0.216,0.095,0.321,-0.251,-0.015,-0.202,-0.135,-0.129,0.291,0.976,0.973,1.0
5500,.,1.0,-0.406,-0.043,-0.359,-0.217,-0.027,-0.347,-0.454,-0.374,-0.223,0.278,0.015,0.049,-0.285,-0.257,-0.221
5500,A1_1,-0.406,1.0,0.728,0.518,-0.192,-0.056,0.184,0.855,0.682,0.61,-0.149,-0.357,-0.366,-0.236,-0.253,-0.193
5500,A1_2,-0.043,0.728,1.0,0.365,-0.184,-0.432,0.101,0.487,0.717,0.701,-0.233,-0.569,-0.495,-0.23,-0.16,-0.088
5500,A1_3,-0.359,0.518,0.365,1.0,-0.09,-0.136,0.394,0.734,0.656,0.597,-0.06,-0.369,-0.572,-0.14,-0.024,0.024
5500,B1_1,-0.217,-0.192,-0.184,-0.09,1.0,-0.023,-0.201,-0.07,-0.065,0.319,-0.415,0.179,0.15,-0.2,-0.223,-0.233
5500,B1_2,-0.027,-0.056,-0.432,-0.136,-0.023,1.0,0.031,0.03,-0.177,-0.155,0.547,0.401,0.274,0.166,-0.011,0.017
5500,B1_3,-0.347,0.184,0.101,0.394,-0.201,0.031,1.0,0.117,0.134,0.08,0.079,-0.072,-0.018,0.244,0.342,0.286
5500,A2_1,-0.454,0.855,0.487,0.734,-0.07,0.03,0.117,1.0,0.76,0.67,-0.164,-0.3,-0.476,-0.314,-0.32,-0.263
5500,A2_2,-0.374,0.682,0.717,0.656,-0.065,-0.177,0.134,0.76,1.0,0.808,-0.253,-0.462,-0.56,-0.158,-0.092,-0.02
5500,A2_3,-0.223,0.61,0.701,0.597,0.319,-0.155,0.08,0.67,0.808,1.0,-0.382,-0.518,-0.59,-0.292,-0.229,-0.163
5500,B2_1,0.278,-0.149,-0.233,-0.06,-0.415,0.547,0.079,-0.164,-0.253,-0.382,1.0,0.558,0.179,-0.1,-0.162,-0.175
5500,B2_2,0.015,-0.357,-0.569,-0.369,0.179,0.401,-0.072,-0.3,-0.462,-0.518,0.558,1.0,0.746,-0.068,-0.15,-0.192
5500,B2_3,0.049,-0.366,-0.495,-0.572,0.15,0.274,-0.018,-0.476,-0.56,-0.59,0.179,0.746,1.0,0.343,0.241,0.245
5500,y1,-0.285,-0.236,-0.23,-0.14,-0.2,0.166,0.244,-0.314,-0.158,-0.292,-0.1,-0.068,0.343,1.0,0.962,0.953
5500,y2,-0.257,-0.253,-0.16,-0.024,-0.223,-0.011,0.342,-0.32,-0.092,-0.229,-0.162,-0.15,0.241,0.962,1.0,0.977
5500,y3,-0.221,-0.193,-0.088,0.024,-0.233,0.017,0.286,-0.263,-0.02,-0.163,-0.175,-0.192,0.245,0.953,0.977,1.0
6000,.,1.0,-0.401,-0.078,-0.386,-0.214,-0.02,-0.383,-0.48,-0.373,-0.247,0.295,0.02,0.06,-0.185,-0.26,-0.195
6000,A1_1,-0.401,1.0,0.758,0.564,-0.148,-0.086,0.154,0.87,0.73,0.664,-0.188,-0.383,-0.401,-0.289,-0.264,-0.22
6000,A1_2,-0.078,0.758,1.0,0.388,-0.212,-0.445,0.097,0.522,0.733,0.689,-0.228,-0.554,-0.493,-0.22,-0.192,-0.133
6000,A1_3,-0.386,0.564,0.388,1.0,-0.099,-0.119,0.367,0.756,0.707,0.608,-0.028,-0.315,-0.538,-0.153,-0.057,-0.015
6000,B1_1,-0.214,-0.148,-0.212,-0.099,1.0,-0.006,-0.169,-0.058,-0.064,0.287,-0.396,0.202,0.177,-0.234,-0.226,-0.263
6000,B1_2,-0.02,-0.086,-0.445,-0.119,-0.006,1.0,0.035,0.037,-0.169,-0.164,0.556,0.419,0.281,0.158,-0.036,0.051
6000,B1_3,-0.383,0.154,0.097,0.367,-0.169,0.035,1.0,0.111,0.126,0.065,0.092,-0.033,0.009,0.147,0.268,0.276
6000,A2_1,-0.48,0.87,0.522,0.756,-0.058,0.037,0.111,1.0,0.802,0.706,-0.174,-0.298,-0.462,-0.301,-0.279,-0.24
6000,A2_2,-0.373,0.73,0.733,0.707,-0.064,-0.169,0.126,0.802,1.0,0.858,-0.246,-0.486,-0.59,-0.162,-0.127,-0.072
6000,A2_3,-0.247,0.664,0.689,0.608,0.287,-0.164,0.065,0.706,0.858,1.0,-0.373,-0.507,-0.598,-0.296,-0.252,-0.216
6000,B2_1,0.295,-0.188,-0.228,-0.028,-0.396,0.556,0.092,-0.174,-0.246,-0.373,1.0,0.561,0.182,-0.09,-0.239,-0.157
6000,B2_2,0.02,-0.383,-0.554,-0.315,0.202,0.419,-0.033,-0.298,-0.486,-0.507,0.561,1.0,0.75,-0.089,-0.21,-0.193
6000,B2_3,0.06,-0.401,-0.493,-0.538,0.177,0.281,0.009,-0.462,-0.59,-0.598,0.182,0.75,1.0,0.318,0.215,0.248
6000,y1,-0.185,-0.289,-0.22,-0.153,-0.234,0.158,0.147,-0.301,-0.162,-0.296,-0.09,-0.089,0.318,1.0,0.954,0.97
6000,y2,-0.26,-0.264,-0.192,-0.057,-0.226,-0.036,0.268,-0.279,-0.127,-0.252,-0.239,-0.21,0.215,0.954,1.0,0.975
6000,y3,-0.195,-0.22,-0.133,-0.015,-0.263,0.051,0.276,-0.24,-0.072,-0.216,-0.157,-0.193,0.248,0.97,0.975,1.0
6500,.,1.0,-0.4,-0.092,-0.394,-0.219,-0.052,-0.385,-0.511,-0.352,-0.24,0.26,0.026,0.058,-0.154,-0.153,-0.198
6500,A1_1,-0.4,1.0,0.799,0.619,-0.125,-0.09,0.159,0.888,0.775,0.729,-0.208,-0.411,-0.415,-0.329,-0.311,-0.232
6500,A1_2,-0.092,0.799,1.0,0.446,-0.21,-0.424,0.075,0.569,0.761,0.727,-0.22,-0.554,-0.505,-0.277,-0.252,-0.169
6500,A1_3,-0.394,0.619,0.446,1.0,-0.087,-0.107,0.346,0.768,0.733,0.661,-0.029,-0.307,-0.521,-0.178,-0.098,-0.108
6500,B1_1,-0.219,-0.125,-0.21,-0.087,1.0,0.024,-0.144,-0.07,-0.065,0.222,-0.363,0.221,0.202,-0.213,-0.238,-0.29
6500,B1_2,-0.052,-0.09,-0.424,-0.107,0.024,1.0,0.061,0.038,-0.13,-0.15,0.562,0.438,0.289,0.079,0.006,0.009
6500,B1_3,-0.385,0.159,0.075,0.346,-0.144,0.061,1.0,0.127,0.107,0.033,0.13,-0.009,0.038,0.18,0.247,0.186
6500,A2_1,-0.511,0.888,0.569,0.768,-0.07,0.038,0.127,1.0,0.815,0.727,-0.178,-0.315,-0.463,-0.349,-0.326,-0.268
6500,A2_2,-0.352,0.775,0.761,0.733,-0.065,-0.13,0.107,0.815,1.0,0.878,-0.217,-0.486,-0.579,-0.218,-0.174,-0.126
6500,A2_3,-0.24,0.729,0.727,0.661,0.222,-0.15,0.033,0.727,0.878,1.0,-0.327,-0.509,-0.608,-0.311,-0.258,-0.247
6500,B2_1,0.26,-0.208,-0.22,-0.029,-0.363,0.562,0.13,-0.178,-0.217,-0.327,1.0,0.581,0.214,-0.132,-0.168,-0.169
6500,B2_2,0.026,-0.411,-0.554,-0.307,0.221,0.438,-0.009,-0.315,-0.486,-0.509,0.581,1.0,0.76,-0.114,-0.197,-0.201
6500,B2_3,0.058,-0.415,-0.505,-0.521,0.202,0.289,0.038,-0.463,-0.579,-0.608,0.214,0.76,1.0,0.275,0.19,0.21
6500,y1,-0.154,-0.329,-0.277,-0.178,-0.213,0.079,0.18,-0.349,-0.218,-0.311,-0.132,-0.114,0.275,1.0,0.977,0.98
6500,y2,-0.153,-0.311,-0.252,-0.098,-0.238,0.006,0.247,-0.326,-0.174,-0.258,-0.168,-0.197,0.19,0.977,1.0,0.982
6500,y3,-0.198,-0.232,-0.169,-0.108,-0.29,0.009,0.186,-0.268,-0.126,-0.247,-0.169,-0.201,0.21,0.98,0.982,1.0
7000,.,1.0,-0.408,-0.131,-0.42,-0.222,-0.088,-0.384,-0.549,-0.397,-0.287,0.235,0.017,0.061,-0.104,-0.167,-0.117
7000,A1_1,-0.408,1.0,0.851,0.65,-0.117,-0.088,0.147,0.893,0.836,0.797,-0.195,-0.413,-0.418,-0.344,-0.317,-0.24
7000,A1_2,-0.131,0.851,1.0,0.471,-0.197,-0.397,0.054,0.619,0.797,0.754,-0.243,-0.57,-0.505,-0.294,-0.273,-0.187
7000,A1_3,-0.42,0.65,0.471,1.0,-0.065,-0.063,0.308,0.784,0.773,0.696,-0.031,-0.278,-0.472,-0.233,-0.143,-0.112
7000,B1_1,-0.222,-0.117,-0.197,-0.065,1.0,0.048,-0.127,-0.052,-0.08,0.196,-0.338,0.239,0.23,-0.227,-0.246,-0.306
7000,B1_2,-0.088,-0.088,-0.397,-0.063,0.048,1.0,0.08,0.062,-0.128,-0.115,0.571,0.453,0.303,0.045,0.01,0.016
7000,B1_3,-0.384,0.147,0.054,0.308,-0.127,0.08,1.0,0.111,0.113,0.056,0.146,0.014,0.079,0.151,0.257,0.201
7000,A2_1,-0.549,0.893,0.619,0.784,-0.052,0.062,0.111,1.0,0.847,0.763,-0.169,-0.308,-0.443,-0.368,-0.33,-0.292
7000,A2_2,-0.397,0.836,0.797,0.773,-0.08,-0.128,0.113,0.847,1.0,0.885,-0.201,-0.466,-0.558,-0.257,-0.21,-0.159
7000,A2_3,-0.287,0.797,0.754,0.696,0.196,-0.115,0.056,0.763,0.885,1.0,-0.297,-0.485,-0.573,-0.319,-0.296,-0.256
7000,B2_1,0.235,-0.195,-0.243,-0.031,-0.338,0.571,0.146,-0.169,-0.201,-0.297,1.0,0.59,0.246,-0.202,-0.186,-0.163
7000,B2_2,0.017,-0.413,-0.57,-0.278,0.239,0.453,0.014,-0.308,-0.466,-0.485,0.59,1.0,0.778,-0.167,-0.179,-0.221
7000,B2_3,0.061,-0.418,-0.505,-0.472,0.23,0.303,0.079,-0.443,-0.558,-0.573,0.246,0.778,1.0,0.195,0.161,0.147
7000,y1,-0.104,-0.344,-0.294,-0.233,-0.227,0.045,0.151,-0.368,-0.257,-0.319,-0.202,-0.167,0.195,1.0,0.986,0.978
7000,y2,-0.167,-0.317,-0.273,-0.143,-0.246,0.01,0.257,-0.33,-0.21,-0.296,-0.186,-0.179,0.161,0.986,1.0,0.986
7000,y3,-0.117,-0.24,-0.187,-0.112,-0.306,0.016,0.201,-0.292,-0.159,-0.256,-0.163,-0.221,0.147,0.978,0.986,1.0
7500,.,1.0,-0.438,-0.158,-0.419,-0.248,-0.082,-0.37,-0.554,-0.395,-0.323,0.231,0.02,0.067,-0.059,-0.143,-0.078
7500,A1_1,-0.438,1.0,0.866,0.683,-0.106,-0.078,0.171,0.904,0.858,0.824,-0.178,-0.404,-0.41,-0.345,-0.323,-0.293
7500,A1_2,-0.158,0.866,1.0,0.542,-0.192,-0.375,0.068,0.667,0.828,0.779,-0.218,-0.541,-0.486,-0.327,-0.314,-0.248
7500,A1_3,-0.419,0.683,0.542,1.0,-0.04,-0.07,0.288,0.801,0.808,0.748,-0.046,-0.295,-0.474,-0.234,-0.197,-0.143
7500,B1_1,-0.248,-0.106,-0.192,-0.04,1.0,0.074,-0.108,-0.036,-0.083,0.168,-0.313,0.252,0.242,-0.205,-0.239,-0.288
7500,B1_2,-0.082,-0.078,-0.375,-0.07,0.074,1.0,0.104,0.033,-0.124,-0.107,0.579,0.469,0.324,0.046,0.011,-0.02
7500,B1_3,-0.37,0.171,0.068,0.288,-0.108,0.104,1.0,0.152,0.111,0.099,0.171,0.041,0.101,0.115,0.178,0.125
7500,A2_1,-0.554,0.904,0.667,0.801,-0.036,0.033,0.152,1.0,0.871,0.792,-0.165,-0.3,-0.425,-0.402,-0.356,-0.341
7500,A2_2,-0.395,0.858,0.828,0.808,-0.083,-0.124,0.111,0.871,1.0,0.893,-0.184,-0.442,-0.531,-0.278,-0.261,-0.203
7500,A2_3,-0.323,0.824,0.779,0.748,0.168,-0.107,0.099,0.792,0.893,1.0,-0.259,-0.478,-0.573,-0.322,-0.356,-0.302
7500,B2_1,0.231,-0.178,-0.218,-0.046,-0.313,0.579,0.171,-0.165,-0.184,-0.259,1.0,0.603,0.268,-0.218,-0.205,-0.204
7500,B2_2,0.02,-0.404,-0.541,-0.295,0.252,0.469,0.041,-0.3,-0.442,-0.478,0.603,1.0,0.784,-0.181,-0.156,-0.215
7500,B2_3,0.067,-0.41,-0.486,-0.474,0.242,0.324,0.101,-0.425,-0.531,-0.573,0.268,0.784,1.0,0.162,0.174,0.132
7500,y1,-0.059,-0.345,-0.327,-0.234,-0.205,0.046,0.115,-0.402,-0.278,-0.322,-0.218,-0.181,0.162,1.0,0.981,0.983
7500,y2,-0.143,-0.323,-0.314,-0.197,-0.239,0.011,0.178,-0.356,-0.261,-0.356,-0.205,-0.156,0.174,0.981,1.0,0.986
7500,y3,-0.078,-0.293,-0.248,-0.143,-0.288,-0.02,0.125,-0.341,-0.203,-0.302,-0.204,-0.215,0.132,0.983,0.986,1.0
8000,.,1.0,-0.437,-0.155,-0.437,-0.282,-0.089,-0.367,-0.534,-0.386,-0.327,0.203,-0.012,0.038,-0.05,-0.095,-0.115
8000,A1_1,-0.437,1.0,0.885,0.708,-0.079,-0.109,0.163,0.916,0.866,0.833,-0.202,-0.416,-0.417,-0.314,-0.321,-0.267
8000,A1_2,-0.155,0.885,1.0,0.579,-0.186,-0.378,0.069,0.698,0.825,0.775,-0.229,-0.542,-0.479,-0.305,-0.312,-0.234
8000,A1_3,-0.437,0.708,0.579,1.0,-0.009,-0.089,0.247,0.812,0.851,0.797,-0.071,-0.313,-0.499,-0.255,-0.241,-0.143
8000,B1_1,-0.282,-0.079,-0.186,-0.009,1.0,0.095,-0.092,-0.032,-0.074,0.171,-0.284,0.263,0.25,-0.207,-0.272,-0.298
8000,B1_2,-0.089,-0.109,-0.378,-0.089,0.095,1.0,0.119,0.054,-0.135,-0.128,0.584,0.483,0.341,0.079,0.046,-0.01
8000,B1_3,-0.367,0.163,0.069,0.247,-0.092,0.119,1.0,0.139,0.122,0.087,0.194,0.057,0.113,0.109,0.138,0.129
8000,A2_1,-0.534,0.916,0.698,0.812,-0.032,0.054,0.139,1.0,0.883,0.813,-0.131,-0.286,-0.415,-0.366,-0.346,-0.3
8000,A2_2,-0.386,0.866,0.825,0.851,-0.074,-0.135,0.122,0.883,1.0,0.904,-0.194,-0.448,-0.536,-0.259,-0.257,-0.172
8000,A2_3,-0.327,0.833,0.775,0.797,0.171,-0.128,0.087,0.813,0.904,1.0,-0.264,-0.473,-0.583,-0.319,-0.374,-0.297
8000,B2_1,0.203,-0.202,-0.229,-0.071,-0.284,0.584,0.194,-0.131,-0.194,-0.264,1.0,0.619,0.295,-0.208,-0.188,-0.173
8000,B2_2,-0.012,-0.416,-0.542,-0.313,0.263,0.483,0.057,-0.286,-0.448,-0.473,0.619,1.0,0.789,-0.18,-0.144,-0.187
8000,B2_3,0.038,-0.417,-0.479,-0.499,0.25,0.341,0.113,-0.415,-0.536,-0.583,0.295,0.789,1.0,0.18,0.186,0.146
8000,y1,-0.05,-0.314,-0.305,-0.255,-0.207,0.079,0.109,-0.366,-0.259,-0.319,-0.208,-0.18,0.18,1.0,0.982,0.973
8000,y2,-0.095,-0.321,-0.312,-0.241,-0.272,0.046,0.138,-0.346,-0.257,-0.374,-0.188,-0.144,0.186,0.982,1.0,0.982
8000,y3,-0.115,-0.267,-0.234,-0.143,-0.298,-0.01,0.129,-0.3,-0.172,-0.297,-0.173,-0.187,0.146,0.973,0.982,1.0
8500,.,1.0,-0.458,-0.177,-0.433,-0.305,-0.11,-0.377,-0.547,-0.398,-0.365,0.184,-0.013,0.037,-0.042,-0.123,-0.041
8500,A1_1,-0.458,1.0,0.89,0.727,-0.062,-0.124,0.16,0.925,0.877,0.837,-0.214,-0.429,-0.418,-0.27,-0.232,-0.282
8500,A1_2,-0.177,0.89,1.0,0.613,-0.165,-0.387,0.028,0.742,0.844,0.772,-0.262,-0.559,-0.489,-0.287,-0.273,-0.287
8500,A1_3,-0.433,0.727,0.613,1.0,-0.018,-0.088,0.226,0.821,0.869,0.82,-0.059,-0.316,-0.478,-0.224,-0.207,-0.183
8500,B1_1,-0.305,-0.062,-0.165,-0.018,1.0,0.122,-0.072,-0.014,-0.065,0.175,-0.249,0.286,0.269,-0.301,-0.325,-0.371
8500,B1_2,-0.11,-0.124,-0.387,-0.088,0.122,1.0,0.137,0.007,-0.143,-0.155,0.592,0.497,0.36,0.063,0.047,0.022
8500,B1_3,-0.377,0.16,0.028,0.226,-0.072,0.137,1.0,0.154,0.099,0.05,0.211,0.075,0.13,0.114,0.197,0.094
8500,A2_1,-0.547,0.925,0.742,0.821,-0.014,0.007,0.154,1.0,0.902,0.834,-0.146,-0.296,-0.418,-0.351,-0.301,-0.342
8500,A2_2,-0.398,0.877,0.844,0.869,-0.065,-0.143,0.099,0.902,1.0,0.911,-0.204,-0.454,-0.542,-0.241,-0.227,-0.231
8500,A2_3,-0.365,0.837,0.772,0.82,0.175,-0.155,0.05,0.834,0.911,1.0,-0.3,-0.492,-0.59,-0.302,-0.317,-0.33
8500,B2_1,0.184,-0.214,-0.262,-0.059,-0.249,0.592,0.211,-0.146,-0.204,-0.3,1.0,0.627,0.313,-0.183,-0.191,-0.133
8500,B2_2,-0.013,-0.429,-0.559,-0.316,0.286,0.497,0.075,-0.296,-0.454,-0.492,0.627,1.0,0.794,-0.201,-0.211,-0.161
8500,B2_3,0.037,-0.418,-0.489,-0.478,0.269,0.36,0.13,-0.418,-0.542,-0.59,0.313,0.794,1.0,0.144,0.123,0.146
8500,y1,-0.042,-0.27,-0.287,-0.224,-0.301,0.063,0.114,-0.351,-0.241,-0.302,-0.183,-0.201,0.144,1.0,0.985,0.986
8500,y2,-0.123,-0.232,-0.273,-0.207,-0.325,0.047,0.197,-0.301,-0.227,-0.317,-0.191,-0.211,0.123,0.985,1.0,0.976
8500,y3,-0.041,-0.282,-0.287,-0.183,-0.371,0.022,0.094,-0.342,-0.231,-0.33,-0.133,-0.161,0.146,0.986,0.976,1.0
9000,.,1.0,-0.473,-0.198,-0.44,-0.312,-0.105,-0.378,-0.544,-0.413,-0.396,0.17,-0.019,0.032,-0.014,-0.101,-0.033
9000,A1_1,-0.473,1.0,0.898,0.739,-0.063,-0.169,0.16,0.93,0.879,0.844,-0.249,-0.444,-0.424,-0.251,-0.228,-0.261
9000,A1_2,-0.198,0.898,1.0,0.635,-0.162,-0.375,0.011,0.772,0.85,0.774,-0.264,-0.547,-0.475,-0.252,-0.247,-0.275
9000,A1_3,-0.44,0.739,0.635,1.0,-0.012,-0.119,0.204,0.833,0.869,0.821,-0.083,-0.322,-0.469,-0.2,-0.201,-0.196
9000,B1_1,-0.312,-0.063,-0.162,-0.012,1.0,0.134,-0.061,-0.016,-0.038,0.164,-0.237,0.292,0.276,-0.348,-0.329,-0.399
9000,B1_2,-0.105,-0.169,-0.375,-0.119,0.134,1.0,0.148,-0.032,-0.13,-0.17,0.596,0.506,0.371,0.04,0.073,0.025
9000,B1_3,-0.378,0.16,0.011,0.204,-0.061,0.148,1.0,0.162,0.073,0.038,0.22,0.086,0.14,0.113,0.165,0.067
9000,A2_1,-0.544,0.93,0.772,0.833,-0.016,-0.032,0.162,1.0,0.909,0.852,-0.164,-0.323,-0.433,-0.329,-0.308,-0.334
9000,A2_2,-0.413,0.879,0.85,0.869,-0.038,-0.13,0.073,0.909,1.0,0.923,-0.218,-0.468,-0.551,-0.207,-0.225,-0.244
9000,A2_3,-0.396,0.844,0.774,0.821,0.164,-0.17,0.038,0.852,0.923,1.0,-0.32,-0.504,-0.603,-0.283,-0.33,-0.355
9000,B2_1,0.17,-0.249,-0.264,-0.083,-0.237,0.596,0.22,-0.164,-0.218,-0.32,1.0,0.633,0.322,-0.178,-0.131,-0.144
9000,B2_2,-0.019,-0.444,-0.547,-0.322,0.292,0.506,0.086,-0.323,-0.468,-0.504,0.633,1.0,0.796,-0.222,-0.141,-0.175
9000,B2_3,0.032,-0.424,-0.475,-0.469,0.276,0.371,0.14,-0.433,-0.551,-0.603,0.322,0.796,1.0,0.097,0.193,0.147
9000,y1,-0.014,-0.251,-0.252,-0.2,-0.348,0.04,0.113,-0.329,-0.207,-0.283,-0.178,-0.222,0.097,1.0,0.984,0.978
9000,y2,-0.101,-0.228,-0.247,-0.201,-0.329,0.073,0.165,-0.308,-0.225,-0.33,-0.131,-0.141,0.193,0.984,1.0,0.982
9000,y3,-0.033,-0.261,-0.275,-0.196,-0.399,0.025,0.067,-0.334,-0.244,-0.355,-0.144,-0.175,0.147,0.978,0.982,1.0
9500,.,1.0,-0.465,-0.197,-0.43,-0.325,-0.116,-0.353,-0.528,-0.389,-0.398,0.161,-0.03,0.019,0.034,-0.029,-0.042
9500,A1_1,-0.465,1.0,0.909,0.752,-0.043,-0.177,0.117,0.932,0.887,0.863,-0.267,-0.452,-0.432,-0.288,-0.29,-0.266
9500,A1_2,-0.197,0.909,1.0,0.636,-0.156,-0.374,-0.019,0.795,0.87,0.799,-0.303,-0.57,-0.493,-0.271,-0.31,-0.27
9500,A1_3,-0.43,0.752,0.636,1.0,-0.002,-0.137,0.179,0.838,0.866,0.857,-0.114,-0.351,-0.495,-0.233,-0.232,-0.161
9500,B1_1,-0.325,-0.043,-0.156,-0.002,1.0,0.151,-0.045,-0.002,-0.04,0.154,-0.219,0.304,0.288,-0.384,-0.365,-0.378
9500,B1_2,-0.116,-0.177,-0.374,-0.137,0.151,1.0,0.165,-0.077,-0.155,-0.197,0.603,0.515,0.382,0.049,0.075,-0.033
9500,B1_3,-0.353,0.117,-0.019,0.179,-0.045,0.165,1.0,0.135,0.063,0.027,0.232,0.1,0.153,0.106,0.11,0.101
9500,A2_1,-0.528,0.932,0.795,0.838,-0.002,-0.077,0.135,1.0,0.916,0.889,-0.213,-0.365,-0.466,-0.365,-0.358,-0.337
9500,A2_2,-0.389,0.887,0.87,0.866,-0.04,-0.155,0.063,0.916,1.0,0.935,-0.239,-0.5,-0.563,-0.248,-0.279,-0.236
9500,A2_3,-0.398,0.863,0.799,0.857,0.154,-0.197,0.027,0.889,0.935,1.0,-0.325,-0.5,-0.591,-0.349,-0.383,-0.346
9500,B2_1,0.161,-0.267,-0.303,-0.114,-0.219,0.603,0.232,-0.213,-0.239,-0.325,1.0,0.636,0.329,-0.126,-0.12,-0.179
9500,B2_2,-0.03,-0.452,-0.57,-0.351,0.304,0.515,0.1,-0.365,-0.5,-0.5,0.636,1.0,0.798,-0.172,-0.134,-0.175
9500,B2_3,0.019,-0.432,-0.493,-0.495,0.288,0.382,0.153,-0.466,-0.563,-0.591,0.329,0.798,1.0,0.154,0.172,0.149
9500,y1,0.034,-0.288,-0.271,-0.233,-0.384,0.049,0.106,-0.365,-0.248,-0.349,-0.126,-0.172,0.154,1.0,0.988,0.975
9500,y2,-0.029,-0.29,-0.31,-0.232,-0.365,0.075,0.11,-0.358,-0.279,-0.383,-0.12,-0.134,0.172,0.988,1.0,0.985
9500,y3,-0.042,-0.266,-0.27,-0.161,-0.378,-0.033,0.101,-0.337,-0.236,-0.346,-0.179,-0.175,0.149,0.975,0.985,1.0
10000,.,1.0,-0.461,-0.23,-0.452,-0.31,-0.116,-0.352,-0.533,-0.386,-0.428,0.143,-0.029,0.022,0.057,-0.056,0.014
10000,A1_1,-0.461,1.0,0.908,0.768,-0.014,-0.177,0.077,0.931,0.888,0.885,-0.29,-0.455,-0.43,-0.346,-0.26,-0.312
10000,A1_2,-0.23,0.908,1.0,0.64,-0.151,-0.387,-0.037,0.812,0.873,0.793,-0.329,-0.569,-0.484,-0.321,-0.281,-0.293
10000,A1_3,-0.452,0.768,0.64,1.0,0.017,-0.127,0.148,0.848,0.858,0.871,-0.123,-0.34,-0.481,-0.265,-0.227,-0.212
10000,B1_1,-0.31,-0.014,-0.151,0.017,1.0,0.167,-0.031,0.005,-0.036,0.167,-0.201,0.313,0.298,-0.386,-0.34,-0.396
10000,B1_2,-0.116,-0.177,-0.387,-0.127,0.167,1.0,0.184,-0.093,-0.16,-0.186,0.612,0.528,0.395,-0.001,0.05,-0.037
10000,B1_3,-0.352,0.077,-0.037,0.148,-0.031,0.184,1.0,0.113,0.035,-0.003,0.245,0.113,0.167,0.08,0.126,0.103
10000,A2_1,-0.533,0.931,0.812,0.848,0.005,-0.093,0.113,1.0,0.921,0.903,-0.243,-0.394,-0.481,-0.407,-0.34,-0.373
10000,A2_2,-0.386,0.888,0.873,0.858,-0.036,-0.16,0.035,0.921,1.0,0.934,-0.246,-0.513,-0.578,-0.312,-0.289,-0.28
10000,A2_3,-0.428,0.885,0.793,0.871,0.167,-0.186,-0.003,0.903,0.934,1.0,-0.322,-0.491,-0.586,-0.392,-0.364,-0.378
10000,B2_1,0.143,-0.29,-0.329,-0.123,-0.201,0.612,0.245,-0.243,-0.246,-0.322,1.0,0.642,0.34,-0.137,-0.137,-0.165
10000,B2_2,-0.029,-0.455,-0.569,-0.34,0.313,0.528,0.113,-0.394,-0.513,-0.491,0.642,1.0,0.802,-0.165,-0.109,-0.174
10000,B2_3,0.022,-0.43,-0.484,-0.481,0.298,0.395,0.167,-0.481,-0.578,-0.586,0.34,0.802,1.0,0.141,0.225,0.137
10000,y1,0.057,-0.346,-0.321,-0.265,-0.386,-0.001,0.08,-0.407,-0.312,-0.392,-0.137,-0.165,0.141,1.0,0.982,0.988
10000,y2,-0.056,-0.26,-0.281,-0.227,-0.34,0.05,0.126,-0.34,-0.289,-0.364,-0.137,-0.109,0.225,0.982,1.0,0.978
10000,y3,0.014,-0.312,-0.293,-0.212,-0.396,-0.037,0.103,-0.373,-0.28,-0.378,-0.165,-0.174,0.137,0.988,0.978,1.0
