,,.,A1_1,A1_2,A1_3,B1_1,B1_2,B1_3,A2_1,A2_2,A2_3,B2_1,B2_2,B2_3,y1,y2,y3
1,.,1.0,-0.376,-0.237,-0.076,0.028,0.166,-0.341,0.405,-0.223,0.462,-0.318,0.532,-0.155,-0.294,-0.461,0.217
1,A1_1,-0.376,1.0,0.33,-0.075,0.124,-0.412,0.356,-0.018,0.293,-0.031,0.307,-0.295,0.251,-0.273,0.191,-0.458
1,A1_2,-0.237,0.33,1.0,-0.002,0.479,0.542,-0.027,0.245,0.277,0.292,0.226,-0.013,-0.22,-0.109,0.221,-0.094
1,A1_3,-0.076,-0.075,-0.002,1.0,0.187,0.029,0.095,-0.107,0.433,0.102,0.104,-0.032,0.128,0.165,-0.392,0.119
1,B1_1,0.028,0.124,0.479,0.187,1.0,0.238,0.41,0.51,0.224,0.242,0.189,0.292,-0.163,-0.315,0.227,0.441
1,B1_2,0.166,-0.412,0.542,0.029,0.238,1.0,-0.211,0.281,-0.121,0.238,-0.007,0.211,-0.322,0.001,-0.028,0.293
1,B1_3,-0.341,0.356,-0.027,0.095,0.41,-0.211,1.0,0.436,0.243,-0.348,0.222,-0.089,0.125,-0.331,0.228,0.37
1,A2_1,0.405,-0.018,0.245,-0.107,0.51,0.281,0.436,1.0,0.114,0.317,-0.183,0.325,-0.07,-0.406,0.021,0.233
1,A2_2,-0.223,0.293,0.277,0.433,0.224,-0.121,0.243,0.114,1.0,0.135,0.018,0.171,0.004,0.347,-0.124,-0.179
1,A2_3,0.462,-0.031,0.292,0.102,0.242,0.238,-0.348,0.317,0.135,1.0,-0.659,0.029,-0.048,-0.132,-0.216,0.005
1,B2_1,-0.318,0.307,0.226,0.104,0.189,-0.007,0.222,-0.183,0.018,-0.659,1.0,0.034,-0.171,-0.099,0.222,-0.01
1,B2_2,0.532,-0.295,-0.013,-0.032,0.292,0.211,-0.089,0.325,0.171,0.029,0.034,1.0,0.149,0.195,-0.128,0.208
1,B2_3,-0.155,0.251,-0.22,0.128,-0.163,-0.322,0.125,-0.07,0.004,-0.048,-0.171,0.149,1.0,0.255,0.288,-0.341
1,y1,-0.294,-0.273,-0.109,0.165,-0.315,0.001,-0.331,-0.406,0.347,-0.132,-0.099,0.195,0.255,1.0,0.096,-0.346
1,y2,-0.461,0.191,0.221,-0.392,0.227,-0.028,0.228,0.021,-0.124,-0.216,0.222,-0.128,0.288,0.096,1.0,-0.093
1,y3,0.217,-0.458,-0.094,0.119,0.441,0.293,0.37,0.233,-0.179,0.005,-0.01,0.208,-0.341,-0.346,-0.093,1.0
2,.,1.0,-0.374,-0.238,-0.076,0.024,0.164,-0.341,0.403,-0.223,0.46,-0.317,0.531,-0.154,-0.295,-0.462,0.216
2,A1_1,-0.374,1.0,0.329,-0.076,0.122,-0.414,0.355,-0.018,0.293,-0.031,0.305,-0.297,0.248,-0.273,0.191,-0.458
2,A1_2,-0.238,0.329,1.0,-0.004,0.479,0.541,-0.027,0.245,0.276,0.291,0.226,-0.014,-0.222,-0.108,0.222,-0.092
2,A1_3,-0.076,-0.076,-0.004,1.0,0.189,0.03,0.097,-0.108,0.433,0.101,0.105,-0.031,0.129,0.165,-0.392,0.119
2,B1_1,0.024,0.122,0.479,0.189,1.0,0.24,0.409,0.509,0.224,0.244,0.189,0.293,-0.162,-0.312,0.228,0.441
2,B1_2,0.164,-0.414,0.541,0.03,0.24,1.0,-0.211,0.279,-0.122,0.238,-0.007,0.211,-0.322,0.004,-0.027,0.295
2,B1_3,-0.341,0.355,-0.027,0.097,0.409,-0.211,1.0,0.436,0.243,-0.347,0.221,-0.091,0.125,-0.331,0.229,0.37
2,A2_1,0.403,-0.018,0.245,-0.108,0.509,0.279,0.436,1.0,0.114,0.317,-0.183,0.325,-0.071,-0.406,0.021,0.233
2,A2_2,-0.223,0.293,0.276,0.433,0.224,-0.122,0.243,0.114,1.0,0.135,0.018,0.171,0.003,0.347,-0.124,-0.179
2,A2_3,0.46,-0.031,0.291,0.101,0.244,0.238,-0.347,0.317,0.135,1.0,-0.659,0.03,-0.047,-0.132,-0.215,0.005
2,B2_1,-0.317,0.305,0.226,0.105,0.189,-0.007,0.221,-0.183,0.018,-0.659,1.0,0.034,-0.172,-0.098,0.222,-0.01
2,B2_2,0.531,-0.297,-0.014,-0.031,0.293,0.211,-0.091,0.325,0.171,0.03,0.034,1.0,0.149,0.197,-0.127,0.208
2,B2_3,-0.154,0.248,-0.222,0.129,-0.162,-0.322,0.125,-0.071,0.003,-0.047,-0.172,0.149,1.0,0.258,0.289,-0.34
2,y1,-0.295,-0.273,-0.108,0.165,-0.312,0.004,-0.331,-0.406,0.347,-0.132,-0.098,0.197,0.258,1.0,0.097,-0.347
2,y2,-0.462,0.191,0.222,-0.392,0.228,-0.027,0.229,0.021,-0.124,-0.215,0.222,-0.127,0.289,0.097,1.0,-0.093
2,y3,0.216,-0.458,-0.092,0.119,0.441,0.295,0.37,0.233,-0.179,0.005,-0.01,0.208,-0.34,-0.347,-0.093,1.0
3,.,1.0,-0.372,-0.239,-0.076,0.02,0.162,-0.341,0.402,-0.223,0.458,-0.316,0.531,-0.153,-0.296,-0.464,0.215
3,A1_1,-0.372,1.0,0.328,-0.076,0.119,-0.417,0.354,-0.017,0.293,-0.031,0.304,-0.299,0.246,-0.273,0.191,-0.458
3,A1_2,-0.239,0.328,1.0,-0.006,0.478,0.541,-0.026,0.244,0.275,0.291,0.226,-0.014,-0.223,-0.107,0.222,-0.091
3,A1_3,-0.076,-0.076,-0.006,1.0,0.191,0.031,0.099,-0.108,0.432,0.1,0.107,-0.03,0.129,0.165,-0.392,0.12
3,B1_1,0.02,0.119,0.478,0.191,1.0,0.242,0.408,0.508,0.224,0.245,0.189,0.293,-0.161,-0.309,0.229,0.441
3,B1_2,0.162,-0.417,0.541,0.031,0.242,1.0,-0.211,0.278,-0.122,0.239,-0.006,0.212,-0.321,0.007,-0.025,0.296
3,B1_3,-0.341,0.354,-0.026,0.099,0.408,-0.211,1.0,0.437,0.245,-0.346,0.22,-0.092,0.124,-0.33,0.23,0.37
3,A2_1,0.402,-0.017,0.244,-0.108,0.508,0.278,0.437,1.0,0.114,0.317,-0.184,0.324,-0.072,-0.405,0.021,0.234
3,A2_2,-0.223,0.293,0.275,0.432,0.224,-0.122,0.245,0.114,1.0,0.135,0.018,0.171,0.003,0.347,-0.124,-0.179
3,A2_3,0.458,-0.031,0.291,0.1,0.245,0.239,-0.346,0.317,0.135,1.0,-0.658,0.031,-0.046,-0.132,-0.215,0.006
3,B2_1,-0.316,0.304,0.226,0.107,0.189,-0.006,0.22,-0.184,0.018,-0.658,1.0,0.033,-0.173,-0.096,0.223,-0.01
3,B2_2,0.531,-0.299,-0.014,-0.03,0.293,0.212,-0.092,0.324,0.171,0.031,0.033,1.0,0.149,0.199,-0.125,0.209
3,B2_3,-0.153,0.246,-0.223,0.129,-0.161,-0.321,0.124,-0.072,0.003,-0.046,-0.173,0.149,1.0,0.26,0.29,-0.339
3,y1,-0.296,-0.273,-0.107,0.165,-0.309,0.007,-0.33,-0.405,0.347,-0.132,-0.096,0.199,0.26,1.0,0.098,-0.347
3,y2,-0.464,0.191,0.222,-0.392,0.229,-0.025,0.23,0.021,-0.124,-0.215,0.223,-0.125,0.29,0.098,1.0,-0.092
3,y3,0.215,-0.458,-0.091,0.12,0.441,0.296,0.37,0.234,-0.179,0.006,-0.01,0.209,-0.339,-0.347,-0.092,1.0
4,.,1.0,-0.369,-0.241,-0.077,0.014,0.16,-0.341,0.401,-0.224,0.455,-0.316,0.529,-0.152,-0.297,-0.466,0.214
4,A1_1,-0.369,1.0,0.328,-0.077,0.117,-0.419,0.354,-0.017,0.293,-0.031,0.302,-0.301,0.244,-0.273,0.19,-0.458
4,A1_2,-0.241,0.328,1.0,-0.008,0.478,0.54,-0.025,0.244,0.274,0.291,0.226,-0.015,-0.225,-0.106,0.223,-0.09
4,A1_3,-0.077,-0.077,-0.008,1.0,0.193,0.031,0.101,-0.109,0.431,0.1,0.108,-0.029,0.13,0.165,-0.392,0.121
4,B1_1,0.014,0.117,0.478,0.193,1.0,0.243,0.408,0.506,0.225,0.247,0.19,0.294,-0.159,-0.306,0.23,0.441
4,B1_2,0.16,-0.419,0.54,0.031,0.243,1.0,-0.212,0.276,-0.123,0.239,-0.006,0.212,-0.321,0.009,-0.024,0.297
4,B1_3,-0.341,0.354,-0.025,0.101,0.408,-0.212,1.0,0.437,0.246,-0.345,0.218,-0.093,0.123,-0.329,0.231,0.371
4,A2_1,0.401,-0.017,0.244,-0.109,0.506,0.276,0.437,1.0,0.114,0.317,-0.185,0.323,-0.074,-0.405,0.021,0.235
4,A2_2,-0.224,0.293,0.274,0.431,0.225,-0.123,0.246,0.114,1.0,0.135,0.019,0.171,0.003,0.347,-0.125,-0.179
4,A2_3,0.455,-0.031,0.291,0.1,0.247,0.239,-0.345,0.317,0.135,1.0,-0.658,0.032,-0.046,-0.132,-0.215,0.006
4,B2_1,-0.316,0.302,0.226,0.108,0.19,-0.006,0.218,-0.185,0.019,-0.658,1.0,0.032,-0.173,-0.095,0.224,-0.009
4,B2_2,0.529,-0.301,-0.015,-0.029,0.294,0.212,-0.093,0.323,0.171,0.032,0.032,1.0,0.149,0.202,-0.124,0.21
4,B2_3,-0.152,0.244,-0.225,0.13,-0.159,-0.321,0.123,-0.074,0.003,-0.046,-0.173,0.149,1.0,0.262,0.292,-0.339
4,y1,-0.297,-0.273,-0.106,0.165,-0.306,0.009,-0.329,-0.405,0.347,-0.132,-0.095,0.202,0.262,1.0,0.098,-0.348
4,y2,-0.466,0.19,0.223,-0.392,0.23,-0.024,0.231,0.021,-0.125,-0.215,0.224,-0.124,0.292,0.098,1.0,-0.092
4,y3,0.214,-0.458,-0.09,0.121,0.441,0.297,0.371,0.235,-0.179,0.006,-0.009,0.21,-0.339,-0.348,-0.092,1.0
5,.,1.0,-0.367,-0.242,-0.078,0.008,0.157,-0.341,0.399,-0.226,0.452,-0.315,0.528,-0.151,-0.299,-0.469,0.212
5,A1_1,-0.367,1.0,0.327,-0.078,0.115,-0.421,0.353,-0.016,0.294,-0.031,0.301,-0.302,0.242,-0.274,0.19,-0.457
5,A1_2,-0.242,0.327,1.0,-0.01,0.477,0.539,-0.025,0.244,0.274,0.29,0.227,-0.015,-0.226,-0.106,0.223,-0.089
5,A1_3,-0.078,-0.078,-0.01,1.0,0.195,0.032,0.103,-0.11,0.43,0.099,0.11,-0.028,0.13,0.164,-0.393,0.121
5,B1_1,0.008,0.115,0.477,0.195,1.0,0.245,0.407,0.504,0.226,0.248,0.19,0.295,-0.157,-0.303,0.231,0.441
5,B1_2,0.157,-0.421,0.539,0.032,0.245,1.0,-0.212,0.275,-0.123,0.239,-0.006,0.213,-0.32,0.012,-0.022,0.298
5,B1_3,-0.341,0.353,-0.025,0.103,0.407,-0.212,1.0,0.437,0.247,-0.344,0.217,-0.094,0.123,-0.328,0.232,0.371
5,A2_1,0.399,-0.016,0.244,-0.11,0.504,0.275,0.437,1.0,0.114,0.317,-0.186,0.322,-0.075,-0.405,0.021,0.235
5,A2_2,-0.226,0.294,0.274,0.43,0.226,-0.123,0.247,0.114,1.0,0.135,0.02,0.172,0.003,0.347,-0.125,-0.179
5,A2_3,0.452,-0.031,0.29,0.099,0.248,0.239,-0.344,0.317,0.135,1.0,-0.657,0.033,-0.045,-0.133,-0.215,0.006
5,B2_1,-0.315,0.301,0.227,0.11,0.19,-0.006,0.217,-0.186,0.02,-0.657,1.0,0.032,-0.174,-0.093,0.225,-0.009
5,B2_2,0.528,-0.302,-0.015,-0.028,0.295,0.213,-0.094,0.322,0.172,0.033,0.032,1.0,0.149,0.204,-0.122,0.21
5,B2_3,-0.151,0.242,-0.226,0.13,-0.157,-0.32,0.123,-0.075,0.003,-0.045,-0.174,0.149,1.0,0.265,0.293,-0.338
5,y1,-0.299,-0.274,-0.106,0.164,-0.303,0.012,-0.328,-0.405,0.347,-0.133,-0.093,0.204,0.265,1.0,0.099,-0.349
5,y2,-0.469,0.19,0.223,-0.393,0.231,-0.022,0.232,0.021,-0.125,-0.215,0.225,-0.122,0.293,0.099,1.0,-0.092
5,y3,0.212,-0.457,-0.089,0.121,0.441,0.298,0.371,0.235,-0.179,0.006,-0.009,0.21,-0.338,-0.349,-0.092,1.0
6,.,1.0,-0.365,-0.244,-0.079,0.001,0.155,-0.341,0.398,-0.227,0.449,-0.315,0.526,-0.15,-0.3,-0.471,0.211
6,A1_1,-0.365,1.0,0.327,-0.078,0.113,-0.422,0.353,-0.016,0.294,-0.031,0.3,-0.304,0.24,-0.274,0.189,-0.457
6,A1_2,-0.244,0.327,1.0,-0.011,0.477,0.539,-0.024,0.244,0.274,0.29,0.227,-0.015,-0.227,-0.105,0.224,-0.088
6,A1_3,-0.079,-0.078,-0.011,1.0,0.197,0.032,0.105,-0.111,0.429,0.099,0.111,-0.027,0.131,0.164,-0.393,0.121
6,B1_1,0.001,0.113,0.477,0.197,1.0,0.246,0.407,0.502,0.227,0.249,0.191,0.296,-0.156,-0.3,0.232,0.44
6,B1_2,0.155,-0.422,0.539,0.032,0.246,1.0,-0.212,0.273,-0.122,0.239,-0.006,0.214,-0.32,0.015,-0.02,0.3
6,B1_3,-0.341,0.353,-0.024,0.105,0.407,-0.212,1.0,0.437,0.249,-0.343,0.217,-0.095,0.123,-0.326,0.233,0.371
6,A2_1,0.398,-0.016,0.244,-0.111,0.502,0.273,0.437,1.0,0.114,0.317,-0.187,0.32,-0.076,-0.405,0.021,0.236
6,A2_2,-0.227,0.294,0.274,0.429,0.227,-0.122,0.249,0.114,1.0,0.135,0.021,0.173,0.004,0.346,-0.126,-0.179
6,A2_3,0.449,-0.031,0.29,0.099,0.249,0.239,-0.343,0.317,0.135,1.0,-0.656,0.034,-0.045,-0.134,-0.216,0.006
6,B2_1,-0.315,0.3,0.227,0.111,0.191,-0.006,0.217,-0.187,0.021,-0.656,1.0,0.032,-0.175,-0.091,0.226,-0.009
6,B2_2,0.526,-0.304,-0.015,-0.027,0.296,0.214,-0.095,0.32,0.173,0.034,0.032,1.0,0.149,0.206,-0.12,0.211
6,B2_3,-0.15,0.24,-0.227,0.131,-0.156,-0.32,0.123,-0.076,0.004,-0.045,-0.175,0.149,1.0,0.268,0.295,-0.337
6,y1,-0.3,-0.274,-0.105,0.164,-0.3,0.015,-0.326,-0.405,0.346,-0.134,-0.091,0.206,0.268,1.0,0.099,-0.35
6,y2,-0.471,0.189,0.224,-0.393,0.232,-0.02,0.233,0.021,-0.126,-0.216,0.226,-0.12,0.295,0.099,1.0,-0.092
6,y3,0.211,-0.457,-0.088,0.121,0.44,0.3,0.371,0.236,-0.179,0.006,-0.009,0.211,-0.337,-0.35,-0.092,1.0
7,.,1.0,-0.362,-0.246,-0.08,-0.006,0.152,-0.341,0.396,-0.229,0.445,-0.315,0.523,-0.149,-0.302,-0.474,0.21
7,A1_1,-0.362,1.0,0.327,-0.079,0.111,-0.424,0.352,-0.015,0.294,-0.03,0.299,-0.305,0.239,-0.274,0.189,-0.457
7,A1_2,-0.246,0.327,1.0,-0.013,0.477,0.538,-0.023,0.244,0.273,0.29,0.228,-0.015,-0.227,-0.105,0.224,-0.087
7,A1_3,-0.08,-0.079,-0.013,1.0,0.199,0.033,0.107,-0.111,0.429,0.098,0.113,-0.026,0.132,0.163,-0.394,0.122
7,B1_1,-0.006,0.111,0.477,0.199,1.0,0.248,0.406,0.5,0.228,0.25,0.192,0.297,-0.154,-0.297,0.233,0.44
7,B1_2,0.152,-0.424,0.538,0.033,0.248,1.0,-0.212,0.271,-0.122,0.24,-0.005,0.214,-0.32,0.018,-0.018,0.301
7,B1_3,-0.341,0.352,-0.023,0.107,0.406,-0.212,1.0,0.437,0.251,-0.342,0.216,-0.096,0.123,-0.325,0.235,0.372
7,A2_1,0.396,-0.015,0.244,-0.111,0.5,0.271,0.437,1.0,0.114,0.317,-0.188,0.319,-0.078,-0.405,0.021,0.236
7,A2_2,-0.229,0.294,0.273,0.429,0.228,-0.122,0.251,0.114,1.0,0.135,0.022,0.173,0.004,0.345,-0.126,-0.179
7,A2_3,0.445,-0.03,0.29,0.098,0.25,0.24,-0.342,0.317,0.135,1.0,-0.655,0.035,-0.045,-0.135,-0.216,0.006
7,B2_1,-0.315,0.299,0.228,0.113,0.192,-0.005,0.216,-0.188,0.022,-0.655,1.0,0.032,-0.175,-0.089,0.228,-0.009
7,B2_2,0.523,-0.305,-0.015,-0.026,0.297,0.214,-0.096,0.319,0.173,0.035,0.032,1.0,0.149,0.209,-0.118,0.212
7,B2_3,-0.149,0.239,-0.227,0.132,-0.154,-0.32,0.123,-0.078,0.004,-0.045,-0.175,0.149,1.0,0.27,0.297,-0.337
7,y1,-0.302,-0.274,-0.105,0.163,-0.297,0.018,-0.325,-0.405,0.345,-0.135,-0.089,0.209,0.27,1.0,0.099,-0.35
7,y2,-0.474,0.189,0.224,-0.394,0.233,-0.018,0.235,0.021,-0.126,-0.216,0.228,-0.118,0.297,0.099,1.0,-0.092
7,y3,0.21,-0.457,-0.087,0.122,0.44,0.301,0.372,0.236,-0.179,0.006,-0.009,0.212,-0.337,-0.35,-0.092,1.0
8,.,1.0,-0.359,-0.248,-0.081,-0.015,0.148,-0.342,0.395,-0.231,0.441,-0.315,0.52,-0.149,-0.303,-0.477,0.209
8,A1_1,-0.359,1.0,0.327,-0.079,0.109,-0.425,0.352,-0.014,0.295,-0.03,0.298,-0.306,0.237,-0.275,0.188,-0.457
8,A1_2,-0.248,0.327,1.0,-0.014,0.477,0.538,-0.022,0.244,0.273,0.29,0.228,-0.015,-0.228,-0.105,0.224,-0.087
8,A1_3,-0.081,-0.079,-0.014,1.0,0.201,0.034,0.109,-0.112,0.428,0.097,0.114,-0.025,0.132,0.162,-0.395,0.122
8,B1_1,-0.015,0.109,0.477,0.201,1.0,0.249,0.406,0.497,0.229,0.251,0.193,0.298,-0.152,-0.294,0.235,0.439
8,B1_2,0.148,-0.425,0.538,0.034,0.249,1.0,-0.212,0.269,-0.122,0.24,-0.005,0.214,-0.32,0.021,-0.016,0.302
8,B1_3,-0.342,0.352,-0.022,0.109,0.406,-0.212,1.0,0.437,0.252,-0.341,0.216,-0.097,0.123,-0.324,0.237,0.372
8,A2_1,0.395,-0.014,0.244,-0.112,0.497,0.269,0.437,1.0,0.114,0.317,-0.189,0.318,-0.079,-0.405,0.021,0.237
8,A2_2,-0.231,0.295,0.273,0.428,0.229,-0.122,0.252,0.114,1.0,0.135,0.023,0.174,0.005,0.344,-0.128,-0.18
8,A2_3,0.441,-0.03,0.29,0.097,0.251,0.24,-0.341,0.317,0.135,1.0,-0.655,0.036,-0.045,-0.136,-0.217,0.005
8,B2_1,-0.315,0.298,0.228,0.114,0.193,-0.005,0.216,-0.189,0.023,-0.655,1.0,0.032,-0.175,-0.087,0.229,-0.009
8,B2_2,0.52,-0.306,-0.015,-0.025,0.298,0.214,-0.097,0.318,0.174,0.036,0.032,1.0,0.149,0.212,-0.116,0.212
8,B2_3,-0.149,0.237,-0.228,0.132,-0.152,-0.32,0.123,-0.079,0.005,-0.045,-0.175,0.149,1.0,0.273,0.299,-0.336
8,y1,-0.303,-0.275,-0.105,0.162,-0.294,0.021,-0.324,-0.405,0.344,-0.136,-0.087,0.212,0.273,1.0,0.099,-0.351
8,y2,-0.477,0.188,0.224,-0.395,0.235,-0.016,0.237,0.021,-0.128,-0.217,0.229,-0.116,0.299,0.099,1.0,-0.092
8,y3,0.209,-0.457,-0.087,0.122,0.439,0.302,0.372,0.237,-0.18,0.005,-0.009,0.212,-0.336,-0.351,-0.092,1.0
9,.,1.0,-0.357,-0.249,-0.082,-0.024,0.145,-0.343,0.393,-0.233,0.437,-0.316,0.516,-0.149,-0.305,-0.48,0.207
9,A1_1,-0.357,1.0,0.327,-0.08,0.108,-0.427,0.352,-0.013,0.295,-0.029,0.297,-0.307,0.236,-0.276,0.187,-0.456
9,A1_2,-0.249,0.327,1.0,-0.016,0.476,0.537,-0.021,0.244,0.272,0.289,0.229,-0.015,-0.229,-0.105,0.224,-0.086
9,A1_3,-0.082,-0.08,-0.016,1.0,0.202,0.034,0.111,-0.113,0.427,0.097,0.115,-0.024,0.133,0.161,-0.396,0.122
9,B1_1,-0.024,0.108,0.476,0.202,1.0,0.251,0.406,0.494,0.23,0.251,0.195,0.299,-0.149,-0.291,0.236,0.438
9,B1_2,0.145,-0.427,0.537,0.034,0.251,1.0,-0.212,0.267,-0.121,0.24,-0.004,0.215,-0.319,0.024,-0.013,0.303
9,B1_3,-0.343,0.352,-0.021,0.111,0.406,-0.212,1.0,0.437,0.254,-0.34,0.215,-0.097,0.123,-0.322,0.239,0.372
9,A2_1,0.393,-0.013,0.244,-0.113,0.494,0.267,0.437,1.0,0.114,0.318,-0.19,0.316,-0.081,-0.405,0.021,0.238
9,A2_2,-0.233,0.295,0.272,0.427,0.23,-0.121,0.254,0.114,1.0,0.135,0.025,0.175,0.005,0.343,-0.129,-0.18
9,A2_3,0.437,-0.029,0.289,0.097,0.251,0.24,-0.34,0.318,0.135,1.0,-0.654,0.036,-0.044,-0.137,-0.217,0.005
9,B2_1,-0.316,0.297,0.229,0.115,0.195,-0.004,0.215,-0.19,0.025,-0.654,1.0,0.032,-0.174,-0.085,0.231,-0.009
9,B2_2,0.516,-0.307,-0.015,-0.024,0.299,0.215,-0.097,0.316,0.175,0.036,0.032,1.0,0.15,0.215,-0.113,0.213
9,B2_3,-0.149,0.236,-0.229,0.133,-0.149,-0.319,0.123,-0.081,0.005,-0.044,-0.174,0.15,1.0,0.276,0.301,-0.335
9,y1,-0.305,-0.276,-0.105,0.161,-0.291,0.024,-0.322,-0.405,0.343,-0.137,-0.085,0.215,0.276,1.0,0.099,-0.352
9,y2,-0.48,0.187,0.224,-0.396,0.236,-0.013,0.239,0.021,-0.129,-0.217,0.231,-0.113,0.301,0.099,1.0,-0.092
9,y3,0.207,-0.456,-0.086,0.122,0.438,0.303,0.372,0.238,-0.18,0.005,-0.009,0.213,-0.335,-0.352,-0.092,1.0
10,.,1.0,-0.354,-0.252,-0.084,-0.034,0.141,-0.344,0.392,-0.235,0.433,-0.317,0.512,-0.149,-0.306,-0.483,0.206
10,A1_1,-0.354,1.0,0.327,-0.08,0.107,-0.428,0.352,-0.012,0.296,-0.029,0.296,-0.308,0.234,-0.277,0.186,-0.456
10,A1_2,-0.252,0.327,1.0,-0.017,0.476,0.537,-0.019,0.244,0.272,0.289,0.229,-0.015,-0.229,-0.105,0.224,-0.086
10,A1_3,-0.084,-0.08,-0.017,1.0,0.204,0.035,0.113,-0.113,0.426,0.097,0.117,-0.022,0.133,0.16,-0.398,0.122
10,B1_1,-0.034,0.107,0.476,0.204,1.0,0.253,0.407,0.492,0.232,0.251,0.197,0.3,-0.146,-0.289,0.237,0.436
10,B1_2,0.141,-0.428,0.537,0.035,0.253,1.0,-0.212,0.265,-0.121,0.239,-0.004,0.215,-0.318,0.027,-0.011,0.304
10,B1_3,-0.344,0.352,-0.019,0.113,0.407,-0.212,1.0,0.436,0.256,-0.339,0.215,-0.098,0.124,-0.32,0.241,0.373
10,A2_1,0.392,-0.012,0.244,-0.113,0.492,0.265,0.436,1.0,0.115,0.318,-0.191,0.315,-0.082,-0.405,0.021,0.238
10,A2_2,-0.235,0.296,0.272,0.426,0.232,-0.121,0.256,0.115,1.0,0.135,0.026,0.176,0.006,0.341,-0.13,-0.181
10,A2_3,0.433,-0.029,0.289,0.097,0.251,0.239,-0.339,0.318,0.135,1.0,-0.653,0.036,-0.044,-0.139,-0.218,0.004
10,B2_1,-0.317,0.296,0.229,0.117,0.197,-0.004,0.215,-0.191,0.026,-0.653,1.0,0.032,-0.174,-0.083,0.233,-0.008
10,B2_2,0.512,-0.308,-0.015,-0.022,0.3,0.215,-0.098,0.315,0.176,0.036,0.032,1.0,0.15,0.218,-0.111,0.213
10,B2_3,-0.149,0.234,-0.229,0.133,-0.146,-0.318,0.124,-0.082,0.006,-0.044,-0.174,0.15,1.0,0.279,0.304,-0.334
10,y1,-0.306,-0.277,-0.105,0.16,-0.289,0.027,-0.32,-0.405,0.341,-0.139,-0.083,0.218,0.279,1.0,0.099,-0.353
10,y2,-0.483,0.186,0.224,-0.398,0.237,-0.011,0.241,0.021,-0.13,-0.218,0.233,-0.111,0.304,0.099,1.0,-0.092
10,y3,0.206,-0.456,-0.086,0.122,0.436,0.304,0.373,0.238,-0.181,0.004,-0.008,0.213,-0.334,-0.353,-0.092,1.0
11,.,1.0,-0.351,-0.254,-0.085,-0.045,0.136,-0.345,0.39,-0.238,0.428,-0.319,0.506,-0.149,-0.307,-0.487,0.204
11,A1_1,-0.351,1.0,0.327,-0.08,0.106,-0.429,0.351,-0.011,0.296,-0.028,0.295,-0.308,0.233,-0.278,0.185,-0.456
11,A1_2,-0.254,0.327,1.0,-0.019,0.476,0.537,-0.018,0.244,0.272,0.29,0.23,-0.014,-0.23,-0.106,0.224,-0.086
11,A1_3,-0.085,-0.08,-0.019,1.0,0.206,0.035,0.115,-0.114,0.426,0.096,0.118,-0.021,0.134,0.158,-0.399,0.121
11,B1_1,-0.045,0.106,0.476,0.206,1.0,0.255,0.407,0.489,0.233,0.251,0.199,0.302,-0.144,-0.286,0.239,0.435
11,B1_2,0.136,-0.429,0.537,0.035,0.255,1.0,-0.211,0.263,-0.12,0.239,-0.003,0.216,-0.318,0.03,-0.008,0.305
11,B1_3,-0.345,0.351,-0.018,0.115,0.407,-0.211,1.0,0.436,0.257,-0.338,0.216,-0.098,0.124,-0.318,0.243,0.373
11,A2_1,0.39,-0.011,0.244,-0.114,0.489,0.263,0.436,1.0,0.115,0.319,-0.193,0.313,-0.084,-0.405,0.021,0.239
11,A2_2,-0.238,0.296,0.272,0.426,0.233,-0.12,0.257,0.115,1.0,0.136,0.027,0.177,0.007,0.339,-0.132,-0.182
11,A2_3,0.428,-0.028,0.29,0.096,0.251,0.239,-0.338,0.319,0.136,1.0,-0.652,0.036,-0.045,-0.14,-0.219,0.004
11,B2_1,-0.319,0.295,0.23,0.118,0.199,-0.003,0.216,-0.193,0.027,-0.652,1.0,0.033,-0.173,-0.081,0.235,-0.009
11,B2_2,0.506,-0.308,-0.014,-0.021,0.302,0.216,-0.098,0.313,0.177,0.036,0.033,1.0,0.15,0.221,-0.108,0.214
11,B2_3,-0.149,0.233,-0.23,0.134,-0.144,-0.318,0.124,-0.084,0.007,-0.045,-0.173,0.15,1.0,0.282,0.306,-0.334
11,y1,-0.307,-0.278,-0.106,0.158,-0.286,0.03,-0.318,-0.405,0.339,-0.14,-0.081,0.221,0.282,1.0,0.099,-0.354
11,y2,-0.487,0.185,0.224,-0.399,0.239,-0.008,0.243,0.021,-0.132,-0.219,0.235,-0.108,0.306,0.099,1.0,-0.092
11,y3,0.204,-0.456,-0.086,0.121,0.435,0.305,0.373,0.239,-0.182,0.004,-0.009,0.214,-0.334,-0.354,-0.092,1.0
12,.,1.0,-0.349,-0.256,-0.087,-0.057,0.131,-0.347,0.388,-0.24,0.424,-0.321,0.5,-0.15,-0.308,-0.49,0.203
12,A1_1,-0.349,1.0,0.327,-0.08,0.105,-0.43,0.351,-0.01,0.297,-0.027,0.294,-0.309,0.231,-0.28,0.184,-0.456
12,A1_2,-0.256,0.327,1.0,-0.02,0.476,0.537,-0.017,0.244,0.272,0.29,0.231,-0.014,-0.23,-0.107,0.224,-0.085
12,A1_3,-0.087,-0.08,-0.02,1.0,0.207,0.036,0.117,-0.114,0.425,0.096,0.119,-0.02,0.134,0.157,-0.401,0.121
12,B1_1,-0.057,0.105,0.476,0.207,1.0,0.256,0.408,0.485,0.235,0.251,0.201,0.303,-0.14,-0.283,0.241,0.433
12,B1_2,0.131,-0.43,0.537,0.036,0.256,1.0,-0.21,0.26,-0.12,0.238,-0.002,0.216,-0.317,0.033,-0.005,0.305
12,B1_3,-0.347,0.351,-0.017,0.117,0.408,-0.21,1.0,0.435,0.259,-0.338,0.216,-0.098,0.125,-0.317,0.246,0.372
12,A2_1,0.388,-0.01,0.244,-0.114,0.485,0.26,0.435,1.0,0.116,0.319,-0.194,0.311,-0.086,-0.405,0.021,0.24
12,A2_2,-0.24,0.297,0.272,0.425,0.235,-0.12,0.259,0.116,1.0,0.136,0.029,0.178,0.007,0.337,-0.134,-0.183
12,A2_3,0.424,-0.027,0.29,0.096,0.251,0.238,-0.338,0.319,0.136,1.0,-0.652,0.036,-0.045,-0.142,-0.22,0.003
12,B2_1,-0.321,0.294,0.231,0.119,0.201,-0.002,0.216,-0.194,0.029,-0.652,1.0,0.033,-0.172,-0.078,0.237,-0.009
12,B2_2,0.5,-0.309,-0.014,-0.02,0.303,0.216,-0.098,0.311,0.178,0.036,0.033,1.0,0.151,0.224,-0.105,0.214
12,B2_3,-0.15,0.231,-0.23,0.134,-0.14,-0.317,0.125,-0.086,0.007,-0.045,-0.172,0.151,1.0,0.285,0.309,-0.333
12,y1,-0.308,-0.28,-0.107,0.157,-0.283,0.033,-0.317,-0.405,0.337,-0.142,-0.078,0.224,0.285,1.0,0.099,-0.355
12,y2,-0.49,0.184,0.224,-0.401,0.241,-0.005,0.246,0.021,-0.134,-0.22,0.237,-0.105,0.309,0.099,1.0,-0.092
12,y3,0.203,-0.456,-0.085,0.121,0.433,0.305,0.372,0.24,-0.183,0.003,-0.009,0.214,-0.333,-0.355,-0.092,1.0
13,.,1.0,-0.346,-0.259,-0.088,-0.07,0.126,-0.349,0.386,-0.242,0.419,-0.323,0.494,-0.151,-0.309,-0.493,0.201
13,A1_1,-0.346,1.0,0.328,-0.08,0.104,-0.43,0.351,-0.008,0.298,-0.026,0.293,-0.309,0.23,-0.281,0.182,-0.456
13,A1_2,-0.259,0.328,1.0,-0.022,0.476,0.536,-0.015,0.244,0.272,0.29,0.231,-0.014,-0.23,-0.108,0.223,-0.085
13,A1_3,-0.088,-0.08,-0.022,1.0,0.209,0.036,0.119,-0.114,0.425,0.096,0.12,-0.019,0.135,0.155,-0.403,0.121
13,B1_1,-0.07,0.104,0.476,0.209,1.0,0.258,0.409,0.482,0.236,0.25,0.204,0.304,-0.137,-0.28,0.243,0.431
13,B1_2,0.126,-0.43,0.536,0.036,0.258,1.0,-0.209,0.258,-0.119,0.237,-0.0,0.217,-0.316,0.037,-0.002,0.306
13,B1_3,-0.349,0.351,-0.015,0.119,0.409,-0.209,1.0,0.433,0.261,-0.337,0.217,-0.098,0.126,-0.315,0.248,0.372
13,A2_1,0.386,-0.008,0.244,-0.114,0.482,0.258,0.433,1.0,0.116,0.32,-0.196,0.309,-0.088,-0.405,0.02,0.24
13,A2_2,-0.242,0.298,0.272,0.425,0.236,-0.119,0.261,0.116,1.0,0.137,0.03,0.18,0.008,0.335,-0.136,-0.184
13,A2_3,0.419,-0.026,0.29,0.096,0.25,0.237,-0.337,0.32,0.137,1.0,-0.651,0.036,-0.045,-0.143,-0.221,0.003
13,B2_1,-0.323,0.293,0.231,0.12,0.204,-0.0,0.217,-0.196,0.03,-0.651,1.0,0.034,-0.17,-0.076,0.24,-0.009
13,B2_2,0.494,-0.309,-0.014,-0.019,0.304,0.217,-0.098,0.309,0.18,0.036,0.034,1.0,0.152,0.227,-0.101,0.215
13,B2_3,-0.151,0.23,-0.23,0.135,-0.137,-0.316,0.126,-0.088,0.008,-0.045,-0.17,0.152,1.0,0.288,0.312,-0.332
13,y1,-0.309,-0.281,-0.108,0.155,-0.28,0.037,-0.315,-0.405,0.335,-0.143,-0.076,0.227,0.288,1.0,0.098,-0.356
13,y2,-0.493,0.182,0.223,-0.403,0.243,-0.002,0.248,0.02,-0.136,-0.221,0.24,-0.101,0.312,0.098,1.0,-0.092
13,y3,0.201,-0.456,-0.085,0.121,0.431,0.306,0.372,0.24,-0.184,0.003,-0.009,0.215,-0.332,-0.356,-0.092,1.0
14,.,1.0,-0.343,-0.261,-0.09,-0.083,0.12,-0.352,0.384,-0.245,0.415,-0.326,0.486,-0.153,-0.31,-0.496,0.2
14,A1_1,-0.343,1.0,0.328,-0.08,0.104,-0.431,0.351,-0.007,0.299,-0.024,0.292,-0.31,0.229,-0.283,0.181,-0.456
14,A1_2,-0.261,0.328,1.0,-0.023,0.476,0.536,-0.014,0.244,0.272,0.29,0.232,-0.013,-0.23,-0.109,0.222,-0.085
14,A1_3,-0.09,-0.08,-0.023,1.0,0.21,0.037,0.12,-0.115,0.424,0.096,0.121,-0.018,0.135,0.153,-0.405,0.12
14,B1_1,-0.083,0.104,0.476,0.21,1.0,0.261,0.41,0.478,0.238,0.25,0.207,0.306,-0.133,-0.278,0.245,0.428
14,B1_2,0.12,-0.431,0.536,0.037,0.261,1.0,-0.208,0.255,-0.118,0.236,0.001,0.217,-0.314,0.04,0.002,0.307
14,B1_3,-0.352,0.351,-0.014,0.12,0.41,-0.208,1.0,0.432,0.262,-0.337,0.218,-0.098,0.128,-0.313,0.251,0.372
14,A2_1,0.384,-0.007,0.244,-0.115,0.478,0.255,0.432,1.0,0.117,0.321,-0.198,0.307,-0.09,-0.405,0.02,0.241
14,A2_2,-0.245,0.299,0.272,0.424,0.238,-0.118,0.262,0.117,1.0,0.138,0.032,0.181,0.009,0.332,-0.139,-0.185
14,A2_3,0.415,-0.024,0.29,0.096,0.25,0.236,-0.337,0.321,0.138,1.0,-0.651,0.036,-0.046,-0.145,-0.222,0.002
14,B2_1,-0.326,0.292,0.232,0.121,0.207,0.001,0.218,-0.198,0.032,-0.651,1.0,0.035,-0.168,-0.074,0.242,-0.009
14,B2_2,0.486,-0.31,-0.013,-0.018,0.306,0.217,-0.098,0.307,0.181,0.036,0.035,1.0,0.152,0.231,-0.098,0.215
14,B2_3,-0.153,0.229,-0.23,0.135,-0.133,-0.314,0.128,-0.09,0.009,-0.046,-0.168,0.152,1.0,0.291,0.315,-0.332
14,y1,-0.31,-0.283,-0.109,0.153,-0.278,0.04,-0.313,-0.405,0.332,-0.145,-0.074,0.231,0.291,1.0,0.098,-0.357
14,y2,-0.496,0.181,0.222,-0.405,0.245,0.002,0.251,0.02,-0.139,-0.222,0.242,-0.098,0.315,0.098,1.0,-0.092
14,y3,0.2,-0.456,-0.085,0.12,0.428,0.307,0.372,0.241,-0.185,0.002,-0.009,0.215,-0.332,-0.357,-0.092,1.0
15,.,1.0,-0.34,-0.263,-0.091,-0.097,0.113,-0.355,0.382,-0.246,0.411,-0.33,0.478,-0.155,-0.31,-0.499,0.199
15,A1_1,-0.34,1.0,0.328,-0.08,0.103,-0.431,0.351,-0.005,0.299,-0.023,0.291,-0.31,0.228,-0.285,0.179,-0.456
15,A1_2,-0.263,0.328,1.0,-0.024,0.476,0.536,-0.012,0.245,0.272,0.291,0.233,-0.012,-0.23,-0.111,0.221,-0.085
15,A1_3,-0.091,-0.08,-0.024,1.0,0.212,0.037,0.122,-0.115,0.423,0.096,0.123,-0.017,0.135,0.151,-0.407,0.12
15,B1_1,-0.097,0.103,0.476,0.212,1.0,0.263,0.411,0.474,0.239,0.248,0.21,0.307,-0.129,-0.275,0.247,0.426
15,B1_2,0.113,-0.431,0.536,0.037,0.263,1.0,-0.207,0.252,-0.117,0.235,0.003,0.218,-0.313,0.044,0.005,0.307
15,B1_3,-0.355,0.351,-0.012,0.122,0.411,-0.207,1.0,0.43,0.264,-0.337,0.22,-0.097,0.13,-0.311,0.254,0.371
15,A2_1,0.382,-0.005,0.245,-0.115,0.474,0.252,0.43,1.0,0.118,0.322,-0.199,0.305,-0.092,-0.405,0.019,0.241
15,A2_2,-0.246,0.299,0.272,0.423,0.239,-0.117,0.264,0.118,1.0,0.138,0.033,0.182,0.01,0.329,-0.141,-0.186
15,A2_3,0.411,-0.023,0.291,0.096,0.248,0.235,-0.337,0.322,0.138,1.0,-0.65,0.035,-0.047,-0.147,-0.223,0.001
15,B2_1,-0.33,0.291,0.233,0.123,0.21,0.003,0.22,-0.199,0.033,-0.65,1.0,0.037,-0.166,-0.071,0.245,-0.01
15,B2_2,0.478,-0.31,-0.012,-0.017,0.307,0.218,-0.097,0.305,0.182,0.035,0.037,1.0,0.153,0.235,-0.094,0.215
15,B2_3,-0.155,0.228,-0.23,0.135,-0.129,-0.313,0.13,-0.092,0.01,-0.047,-0.166,0.153,1.0,0.295,0.318,-0.331
15,y1,-0.31,-0.285,-0.111,0.151,-0.275,0.044,-0.311,-0.405,0.329,-0.147,-0.071,0.235,0.295,1.0,0.097,-0.358
15,y2,-0.499,0.179,0.221,-0.407,0.247,0.005,0.254,0.019,-0.141,-0.223,0.245,-0.094,0.318,0.097,1.0,-0.092
15,y3,0.199,-0.456,-0.085,0.12,0.426,0.307,0.371,0.241,-0.186,0.001,-0.01,0.215,-0.331,-0.358,-0.092,1.0
16,.,1.0,-0.337,-0.266,-0.092,-0.111,0.106,-0.359,0.379,-0.248,0.407,-0.335,0.469,-0.157,-0.31,-0.502,0.198
16,A1_1,-0.337,1.0,0.329,-0.08,0.103,-0.432,0.35,-0.004,0.3,-0.021,0.29,-0.31,0.226,-0.287,0.176,-0.457
16,A1_2,-0.266,0.329,1.0,-0.026,0.477,0.536,-0.01,0.245,0.272,0.291,0.233,-0.011,-0.23,-0.112,0.22,-0.086
16,A1_3,-0.092,-0.08,-0.026,1.0,0.213,0.038,0.124,-0.115,0.423,0.096,0.124,-0.016,0.136,0.149,-0.409,0.119
16,B1_1,-0.111,0.103,0.477,0.213,1.0,0.265,0.413,0.47,0.241,0.247,0.214,0.309,-0.124,-0.272,0.249,0.423
16,B1_2,0.106,-0.432,0.536,0.038,0.265,1.0,-0.205,0.25,-0.116,0.234,0.005,0.218,-0.311,0.047,0.009,0.308
16,B1_3,-0.359,0.35,-0.01,0.124,0.413,-0.205,1.0,0.429,0.266,-0.337,0.221,-0.097,0.132,-0.308,0.257,0.37
16,A2_1,0.379,-0.004,0.245,-0.115,0.47,0.25,0.429,1.0,0.118,0.323,-0.201,0.303,-0.095,-0.405,0.019,0.242
16,A2_2,-0.248,0.3,0.272,0.423,0.241,-0.116,0.266,0.118,1.0,0.139,0.035,0.183,0.01,0.326,-0.144,-0.187
16,A2_3,0.407,-0.021,0.291,0.096,0.247,0.234,-0.337,0.323,0.139,1.0,-0.65,0.034,-0.048,-0.149,-0.224,0.001
16,B2_1,-0.335,0.29,0.233,0.124,0.214,0.005,0.221,-0.201,0.035,-0.65,1.0,0.038,-0.163,-0.069,0.248,-0.011
16,B2_2,0.469,-0.31,-0.011,-0.016,0.309,0.218,-0.097,0.303,0.183,0.034,0.038,1.0,0.154,0.239,-0.09,0.215
16,B2_3,-0.157,0.226,-0.23,0.136,-0.124,-0.311,0.132,-0.095,0.01,-0.048,-0.163,0.154,1.0,0.298,0.322,-0.331
16,y1,-0.31,-0.287,-0.112,0.149,-0.272,0.047,-0.308,-0.405,0.326,-0.149,-0.069,0.239,0.298,1.0,0.096,-0.359
16,y2,-0.502,0.176,0.22,-0.409,0.249,0.009,0.257,0.019,-0.144,-0.224,0.248,-0.09,0.322,0.096,1.0,-0.092
16,y3,0.198,-0.457,-0.086,0.119,0.423,0.308,0.37,0.242,-0.187,0.001,-0.011,0.215,-0.331,-0.359,-0.092,1.0
17,.,1.0,-0.334,-0.268,-0.093,-0.127,0.098,-0.363,0.377,-0.25,0.403,-0.34,0.458,-0.161,-0.309,-0.504,0.196
17,A1_1,-0.334,1.0,0.329,-0.079,0.102,-0.432,0.35,-0.002,0.301,-0.02,0.289,-0.31,0.225,-0.29,0.174,-0.457
17,A1_2,-0.268,0.329,1.0,-0.027,0.477,0.536,-0.008,0.245,0.272,0.292,0.234,-0.01,-0.23,-0.114,0.218,-0.086
17,A1_3,-0.093,-0.079,-0.027,1.0,0.215,0.038,0.126,-0.115,0.423,0.097,0.124,-0.014,0.136,0.146,-0.412,0.119
17,B1_1,-0.127,0.102,0.477,0.215,1.0,0.268,0.415,0.466,0.242,0.245,0.218,0.311,-0.119,-0.269,0.252,0.42
17,B1_2,0.098,-0.432,0.536,0.038,0.268,1.0,-0.203,0.246,-0.116,0.232,0.007,0.219,-0.309,0.051,0.013,0.308
17,B1_3,-0.363,0.35,-0.008,0.126,0.415,-0.203,1.0,0.427,0.267,-0.337,0.223,-0.096,0.134,-0.306,0.26,0.369
17,A2_1,0.377,-0.002,0.245,-0.115,0.466,0.246,0.427,1.0,0.119,0.324,-0.203,0.3,-0.097,-0.406,0.018,0.242
17,A2_2,-0.25,0.301,0.272,0.423,0.242,-0.116,0.267,0.119,1.0,0.141,0.036,0.185,0.011,0.323,-0.148,-0.189
17,A2_3,0.403,-0.02,0.292,0.097,0.245,0.232,-0.337,0.324,0.141,1.0,-0.649,0.033,-0.049,-0.15,-0.225,0.0
17,B2_1,-0.34,0.289,0.234,0.124,0.218,0.007,0.223,-0.203,0.036,-0.649,1.0,0.04,-0.159,-0.066,0.251,-0.011
17,B2_2,0.458,-0.31,-0.01,-0.014,0.311,0.219,-0.096,0.3,0.185,0.033,0.04,1.0,0.156,0.243,-0.085,0.216
17,B2_3,-0.161,0.225,-0.23,0.136,-0.119,-0.309,0.134,-0.097,0.011,-0.049,-0.159,0.156,1.0,0.301,0.325,-0.33
17,y1,-0.309,-0.29,-0.114,0.146,-0.269,0.051,-0.306,-0.406,0.323,-0.15,-0.066,0.243,0.301,1.0,0.096,-0.36
17,y2,-0.504,0.174,0.218,-0.412,0.252,0.013,0.26,0.018,-0.148,-0.225,0.251,-0.085,0.325,0.096,1.0,-0.093
17,y3,0.196,-0.457,-0.086,0.119,0.42,0.308,0.369,0.242,-0.189,0.0,-0.011,0.216,-0.33,-0.36,-0.093,1.0
18,.,1.0,-0.331,-0.271,-0.094,-0.143,0.09,-0.368,0.374,-0.252,0.399,-0.346,0.447,-0.164,-0.309,-0.507,0.195
18,A1_1,-0.331,1.0,0.33,-0.079,0.102,-0.432,0.35,-0.0,0.302,-0.018,0.288,-0.31,0.224,-0.292,0.171,-0.457
18,A1_2,-0.271,0.33,1.0,-0.028,0.477,0.536,-0.007,0.246,0.272,0.293,0.235,-0.009,-0.23,-0.117,0.216,-0.086
18,A1_3,-0.094,-0.079,-0.028,1.0,0.216,0.039,0.127,-0.115,0.422,0.097,0.125,-0.013,0.136,0.144,-0.415,0.118
18,B1_1,-0.143,0.102,0.477,0.216,1.0,0.271,0.417,0.461,0.243,0.243,0.222,0.313,-0.113,-0.266,0.255,0.416
18,B1_2,0.09,-0.432,0.536,0.039,0.271,1.0,-0.2,0.243,-0.115,0.23,0.01,0.22,-0.306,0.055,0.018,0.309
18,B1_3,-0.368,0.35,-0.007,0.127,0.417,-0.2,1.0,0.424,0.269,-0.337,0.226,-0.095,0.137,-0.304,0.264,0.368
18,A2_1,0.374,-0.0,0.246,-0.115,0.461,0.243,0.424,1.0,0.12,0.325,-0.206,0.298,-0.1,-0.406,0.017,0.243
18,A2_2,-0.252,0.302,0.272,0.422,0.243,-0.115,0.269,0.12,1.0,0.142,0.037,0.186,0.012,0.32,-0.151,-0.19
18,A2_3,0.399,-0.018,0.293,0.097,0.243,0.23,-0.337,0.325,0.142,1.0,-0.649,0.032,-0.051,-0.152,-0.227,-0.001
18,B2_1,-0.346,0.288,0.235,0.125,0.222,0.01,0.226,-0.206,0.037,-0.649,1.0,0.042,-0.155,-0.063,0.254,-0.012
18,B2_2,0.447,-0.31,-0.009,-0.013,0.313,0.22,-0.095,0.298,0.186,0.032,0.042,1.0,0.157,0.248,-0.08,0.216
18,B2_3,-0.164,0.224,-0.23,0.136,-0.113,-0.306,0.137,-0.1,0.012,-0.051,-0.155,0.157,1.0,0.304,0.329,-0.33
18,y1,-0.309,-0.292,-0.117,0.144,-0.266,0.055,-0.304,-0.406,0.32,-0.152,-0.063,0.248,0.304,1.0,0.095,-0.36
18,y2,-0.507,0.171,0.216,-0.415,0.255,0.018,0.264,0.017,-0.151,-0.227,0.254,-0.08,0.329,0.095,1.0,-0.093
18,y3,0.195,-0.457,-0.086,0.118,0.416,0.309,0.368,0.243,-0.19,-0.001,-0.012,0.216,-0.33,-0.36,-0.093,1.0
19,.,1.0,-0.328,-0.273,-0.095,-0.16,0.081,-0.373,0.371,-0.253,0.396,-0.353,0.435,-0.168,-0.307,-0.509,0.194
19,A1_1,-0.328,1.0,0.33,-0.078,0.102,-0.432,0.349,0.002,0.304,-0.016,0.286,-0.31,0.222,-0.295,0.168,-0.458
19,A1_2,-0.273,0.33,1.0,-0.029,0.477,0.537,-0.005,0.246,0.272,0.293,0.235,-0.008,-0.23,-0.119,0.214,-0.087
19,A1_3,-0.095,-0.078,-0.029,1.0,0.217,0.039,0.129,-0.115,0.422,0.098,0.126,-0.012,0.136,0.141,-0.418,0.117
19,B1_1,-0.16,0.102,0.477,0.217,1.0,0.274,0.419,0.456,0.245,0.24,0.227,0.315,-0.107,-0.263,0.258,0.412
19,B1_2,0.081,-0.432,0.537,0.039,0.274,1.0,-0.197,0.239,-0.114,0.227,0.013,0.221,-0.303,0.059,0.023,0.309
19,B1_3,-0.373,0.349,-0.005,0.129,0.419,-0.197,1.0,0.421,0.27,-0.338,0.229,-0.093,0.14,-0.301,0.267,0.366
19,A2_1,0.371,0.002,0.246,-0.115,0.456,0.239,0.421,1.0,0.122,0.326,-0.208,0.295,-0.102,-0.406,0.016,0.243
19,A2_2,-0.253,0.304,0.272,0.422,0.245,-0.114,0.27,0.122,1.0,0.144,0.039,0.188,0.013,0.316,-0.155,-0.192
19,A2_3,0.396,-0.016,0.293,0.098,0.24,0.227,-0.338,0.326,0.144,1.0,-0.649,0.03,-0.052,-0.154,-0.228,-0.001
19,B2_1,-0.353,0.286,0.235,0.126,0.227,0.013,0.229,-0.208,0.039,-0.649,1.0,0.045,-0.151,-0.061,0.257,-0.013
19,B2_2,0.435,-0.31,-0.008,-0.012,0.315,0.221,-0.093,0.295,0.188,0.03,0.045,1.0,0.159,0.252,-0.075,0.216
19,B2_3,-0.168,0.222,-0.23,0.136,-0.107,-0.303,0.14,-0.102,0.013,-0.052,-0.151,0.159,1.0,0.308,0.333,-0.329
19,y1,-0.307,-0.295,-0.119,0.141,-0.263,0.059,-0.301,-0.406,0.316,-0.154,-0.061,0.252,0.308,1.0,0.093,-0.361
19,y2,-0.509,0.168,0.214,-0.418,0.258,0.023,0.267,0.016,-0.155,-0.228,0.257,-0.075,0.333,0.093,1.0,-0.093
19,y3,0.194,-0.458,-0.087,0.117,0.412,0.309,0.366,0.243,-0.192,-0.001,-0.013,0.216,-0.329,-0.361,-0.093,1.0
20,.,1.0,-0.324,-0.275,-0.095,-0.177,0.071,-0.379,0.368,-0.253,0.392,-0.36,0.422,-0.173,-0.306,-0.512,0.193
20,A1_1,-0.324,1.0,0.331,-0.078,0.102,-0.432,0.349,0.004,0.305,-0.014,0.285,-0.31,0.221,-0.298,0.165,-0.458
20,A1_2,-0.275,0.331,1.0,-0.031,0.477,0.537,-0.003,0.247,0.273,0.294,0.236,-0.006,-0.229,-0.122,0.212,-0.088
20,A1_3,-0.095,-0.078,-0.031,1.0,0.219,0.04,0.13,-0.114,0.422,0.099,0.127,-0.01,0.136,0.138,-0.422,0.116
20,B1_1,-0.177,0.102,0.477,0.219,1.0,0.277,0.422,0.451,0.246,0.237,0.233,0.318,-0.1,-0.26,0.261,0.408
20,B1_2,0.071,-0.432,0.537,0.04,0.277,1.0,-0.194,0.236,-0.112,0.225,0.017,0.222,-0.3,0.063,0.028,0.309
20,B1_3,-0.379,0.349,-0.003,0.13,0.422,-0.194,1.0,0.418,0.272,-0.338,0.232,-0.091,0.144,-0.298,0.271,0.364
20,A2_1,0.368,0.004,0.247,-0.114,0.451,0.236,0.418,1.0,0.123,0.328,-0.211,0.292,-0.105,-0.407,0.015,0.243
20,A2_2,-0.253,0.305,0.273,0.422,0.246,-0.112,0.272,0.123,1.0,0.145,0.04,0.189,0.013,0.312,-0.159,-0.194
20,A2_3,0.392,-0.014,0.294,0.099,0.237,0.225,-0.338,0.328,0.145,1.0,-0.649,0.028,-0.055,-0.156,-0.23,-0.002
20,B2_1,-0.36,0.285,0.236,0.127,0.233,0.017,0.232,-0.211,0.04,-0.649,1.0,0.048,-0.145,-0.058,0.26,-0.015
20,B2_2,0.422,-0.31,-0.006,-0.01,0.318,0.222,-0.091,0.292,0.189,0.028,0.048,1.0,0.161,0.257,-0.069,0.216
20,B2_3,-0.173,0.221,-0.229,0.136,-0.1,-0.3,0.144,-0.105,0.013,-0.055,-0.145,0.161,1.0,0.311,0.337,-0.329
20,y1,-0.306,-0.298,-0.122,0.138,-0.26,0.063,-0.298,-0.407,0.312,-0.156,-0.058,0.257,0.311,1.0,0.092,-0.362
20,y2,-0.512,0.165,0.212,-0.422,0.261,0.028,0.271,0.015,-0.159,-0.23,0.26,-0.069,0.337,0.092,1.0,-0.093
20,y3,0.193,-0.458,-0.088,0.116,0.408,0.309,0.364,0.243,-0.194,-0.002,-0.015,0.216,-0.329,-0.362,-0.093,1.0
21,.,1.0,-0.321,-0.277,-0.095,-0.195,0.06,-0.386,0.366,-0.254,0.39,-0.368,0.408,-0.178,-0.303,-0.513,0.192
21,A1_1,-0.321,1.0,0.331,-0.077,0.101,-0.432,0.348,0.006,0.306,-0.011,0.283,-0.31,0.219,-0.302,0.162,-0.459
21,A1_2,-0.277,0.331,1.0,-0.032,0.477,0.537,-0.0,0.248,0.273,0.295,0.236,-0.005,-0.229,-0.125,0.209,-0.089
21,A1_3,-0.095,-0.077,-0.032,1.0,0.22,0.04,0.132,-0.114,0.421,0.1,0.127,-0.009,0.136,0.134,-0.426,0.115
21,B1_1,-0.195,0.101,0.477,0.22,1.0,0.281,0.425,0.445,0.247,0.233,0.239,0.321,-0.093,-0.256,0.264,0.404
21,B1_2,0.06,-0.432,0.537,0.04,0.281,1.0,-0.19,0.232,-0.111,0.221,0.021,0.223,-0.296,0.068,0.033,0.309
21,B1_3,-0.386,0.348,-0.0,0.132,0.425,-0.19,1.0,0.415,0.273,-0.339,0.236,-0.088,0.148,-0.296,0.275,0.362
21,A2_1,0.366,0.006,0.248,-0.114,0.445,0.232,0.415,1.0,0.124,0.329,-0.213,0.288,-0.108,-0.407,0.014,0.244
21,A2_2,-0.254,0.306,0.273,0.421,0.247,-0.111,0.273,0.124,1.0,0.147,0.041,0.191,0.014,0.307,-0.164,-0.195
21,A2_3,0.39,-0.011,0.295,0.1,0.233,0.221,-0.339,0.329,0.147,1.0,-0.649,0.025,-0.057,-0.157,-0.231,-0.002
21,B2_1,-0.368,0.283,0.236,0.127,0.239,0.021,0.236,-0.213,0.041,-0.649,1.0,0.052,-0.14,-0.055,0.264,-0.016
21,B2_2,0.408,-0.31,-0.005,-0.009,0.321,0.223,-0.088,0.288,0.191,0.025,0.052,1.0,0.163,0.263,-0.062,0.216
21,B2_3,-0.178,0.219,-0.229,0.136,-0.093,-0.296,0.148,-0.108,0.014,-0.057,-0.14,0.163,1.0,0.314,0.341,-0.328
21,y1,-0.303,-0.302,-0.125,0.134,-0.256,0.068,-0.296,-0.407,0.307,-0.157,-0.055,0.263,0.314,1.0,0.091,-0.362
21,y2,-0.513,0.162,0.209,-0.426,0.264,0.033,0.275,0.014,-0.164,-0.231,0.264,-0.062,0.341,0.091,1.0,-0.093
21,y3,0.192,-0.459,-0.089,0.115,0.404,0.309,0.362,0.244,-0.195,-0.002,-0.016,0.216,-0.328,-0.362,-0.093,1.0
22,.,1.0,-0.317,-0.279,-0.096,-0.214,0.049,-0.393,0.363,-0.254,0.387,-0.377,0.392,-0.184,-0.3,-0.515,0.191
22,A1_1,-0.317,1.0,0.332,-0.077,0.101,-0.432,0.348,0.009,0.307,-0.009,0.282,-0.309,0.218,-0.306,0.158,-0.459
22,A1_2,-0.279,0.332,1.0,-0.033,0.477,0.537,0.002,0.248,0.273,0.297,0.237,-0.003,-0.229,-0.128,0.206,-0.09
22,A1_3,-0.096,-0.077,-0.033,1.0,0.221,0.041,0.133,-0.113,0.421,0.101,0.127,-0.007,0.136,0.131,-0.43,0.114
22,B1_1,-0.214,0.101,0.477,0.221,1.0,0.285,0.429,0.439,0.249,0.229,0.245,0.324,-0.084,-0.253,0.268,0.399
22,B1_2,0.049,-0.432,0.537,0.041,0.285,1.0,-0.185,0.227,-0.11,0.218,0.026,0.224,-0.291,0.072,0.039,0.308
22,B1_3,-0.393,0.348,0.002,0.133,0.429,-0.185,1.0,0.411,0.274,-0.34,0.241,-0.085,0.153,-0.293,0.279,0.359
22,A2_1,0.363,0.009,0.248,-0.113,0.439,0.227,0.411,1.0,0.126,0.331,-0.216,0.284,-0.112,-0.408,0.012,0.244
22,A2_2,-0.254,0.307,0.273,0.421,0.249,-0.11,0.274,0.126,1.0,0.149,0.042,0.193,0.014,0.302,-0.169,-0.197
22,A2_3,0.387,-0.009,0.297,0.101,0.229,0.218,-0.34,0.331,0.149,1.0,-0.649,0.022,-0.059,-0.159,-0.233,-0.003
22,B2_1,-0.377,0.282,0.237,0.127,0.245,0.026,0.241,-0.216,0.042,-0.649,1.0,0.056,-0.133,-0.052,0.268,-0.018
22,B2_2,0.392,-0.309,-0.003,-0.007,0.324,0.224,-0.085,0.284,0.193,0.022,0.056,1.0,0.166,0.269,-0.055,0.215
22,B2_3,-0.184,0.218,-0.229,0.136,-0.084,-0.291,0.153,-0.112,0.014,-0.059,-0.133,0.166,1.0,0.318,0.346,-0.328
22,y1,-0.3,-0.306,-0.128,0.131,-0.253,0.072,-0.293,-0.408,0.302,-0.159,-0.052,0.269,0.318,1.0,0.089,-0.363
22,y2,-0.515,0.158,0.206,-0.43,0.268,0.039,0.279,0.012,-0.169,-0.233,0.268,-0.055,0.346,0.089,1.0,-0.093
22,y3,0.191,-0.459,-0.09,0.114,0.399,0.308,0.359,0.244,-0.197,-0.003,-0.018,0.215,-0.328,-0.363,-0.093,1.0
23,.,1.0,-0.313,-0.28,-0.095,-0.234,0.036,-0.401,0.36,-0.253,0.384,-0.386,0.376,-0.19,-0.297,-0.516,0.191
23,A1_1,-0.313,1.0,0.333,-0.076,0.101,-0.431,0.347,0.011,0.309,-0.006,0.28,-0.308,0.216,-0.31,0.154,-0.46
23,A1_2,-0.28,0.333,1.0,-0.034,0.477,0.537,0.004,0.249,0.274,0.298,0.237,-0.001,-0.228,-0.132,0.202,-0.091
23,A1_3,-0.095,-0.076,-0.034,1.0,0.222,0.041,0.135,-0.112,0.421,0.102,0.128,-0.006,0.135,0.127,-0.435,0.113
23,B1_1,-0.234,0.101,0.477,0.222,1.0,0.289,0.433,0.432,0.249,0.224,0.253,0.328,-0.075,-0.249,0.272,0.394
23,B1_2,0.036,-0.431,0.537,0.041,0.289,1.0,-0.18,0.222,-0.109,0.214,0.031,0.226,-0.286,0.077,0.045,0.308
23,B1_3,-0.401,0.347,0.004,0.135,0.433,-0.18,1.0,0.406,0.275,-0.341,0.246,-0.082,0.158,-0.29,0.284,0.356
23,A2_1,0.36,0.011,0.249,-0.112,0.432,0.222,0.406,1.0,0.128,0.333,-0.22,0.28,-0.116,-0.408,0.011,0.244
23,A2_2,-0.253,0.309,0.274,0.421,0.249,-0.109,0.275,0.128,1.0,0.152,0.043,0.194,0.015,0.297,-0.174,-0.199
23,A2_3,0.384,-0.006,0.298,0.102,0.224,0.214,-0.341,0.333,0.152,1.0,-0.649,0.019,-0.062,-0.161,-0.234,-0.003
23,B2_1,-0.386,0.28,0.237,0.128,0.253,0.031,0.246,-0.22,0.043,-0.649,1.0,0.061,-0.126,-0.05,0.272,-0.019
23,B2_2,0.376,-0.308,-0.001,-0.006,0.328,0.226,-0.082,0.28,0.194,0.019,0.061,1.0,0.169,0.275,-0.048,0.215
23,B2_3,-0.19,0.216,-0.228,0.135,-0.075,-0.286,0.158,-0.116,0.015,-0.062,-0.126,0.169,1.0,0.321,0.351,-0.327
23,y1,-0.297,-0.31,-0.132,0.127,-0.249,0.077,-0.29,-0.408,0.297,-0.161,-0.05,0.275,0.321,1.0,0.087,-0.364
23,y2,-0.516,0.154,0.202,-0.435,0.272,0.045,0.284,0.011,-0.174,-0.234,0.272,-0.048,0.351,0.087,1.0,-0.094
23,y3,0.191,-0.46,-0.091,0.113,0.394,0.308,0.356,0.244,-0.199,-0.003,-0.019,0.215,-0.327,-0.364,-0.094,1.0
24,.,1.0,-0.309,-0.281,-0.094,-0.254,0.023,-0.41,0.357,-0.252,0.382,-0.397,0.358,-0.197,-0.293,-0.516,0.191
24,A1_1,-0.309,1.0,0.334,-0.075,0.101,-0.431,0.346,0.014,0.31,-0.003,0.277,-0.308,0.214,-0.314,0.149,-0.461
24,A1_2,-0.281,0.334,1.0,-0.036,0.477,0.537,0.006,0.25,0.274,0.3,0.237,0.001,-0.227,-0.136,0.198,-0.092
24,A1_3,-0.094,-0.075,-0.036,1.0,0.222,0.042,0.136,-0.111,0.421,0.104,0.128,-0.004,0.135,0.123,-0.44,0.112
24,B1_1,-0.254,0.101,0.477,0.222,1.0,0.294,0.438,0.424,0.25,0.218,0.261,0.332,-0.065,-0.245,0.276,0.388
24,B1_2,0.023,-0.431,0.537,0.042,0.294,1.0,-0.174,0.217,-0.108,0.209,0.037,0.228,-0.281,0.082,0.052,0.307
24,B1_3,-0.41,0.346,0.006,0.136,0.438,-0.174,1.0,0.401,0.275,-0.343,0.252,-0.077,0.164,-0.287,0.288,0.353
24,A2_1,0.357,0.014,0.25,-0.111,0.424,0.217,0.401,1.0,0.13,0.335,-0.223,0.276,-0.119,-0.409,0.009,0.245
24,A2_2,-0.252,0.31,0.274,0.421,0.25,-0.108,0.275,0.13,1.0,0.154,0.044,0.196,0.015,0.292,-0.18,-0.201
24,A2_3,0.382,-0.003,0.3,0.104,0.218,0.209,-0.343,0.335,0.154,1.0,-0.649,0.015,-0.066,-0.163,-0.236,-0.004
24,B2_1,-0.397,0.277,0.237,0.128,0.261,0.037,0.252,-0.223,0.044,-0.649,1.0,0.066,-0.117,-0.047,0.276,-0.021
24,B2_2,0.358,-0.308,0.001,-0.004,0.332,0.228,-0.077,0.276,0.196,0.015,0.066,1.0,0.173,0.281,-0.04,0.214
24,B2_3,-0.197,0.214,-0.227,0.135,-0.065,-0.281,0.164,-0.119,0.015,-0.066,-0.117,0.173,1.0,0.325,0.356,-0.327
24,y1,-0.293,-0.314,-0.136,0.123,-0.245,0.082,-0.287,-0.409,0.292,-0.163,-0.047,0.281,0.325,1.0,0.085,-0.364
24,y2,-0.516,0.149,0.198,-0.44,0.276,0.052,0.288,0.009,-0.18,-0.236,0.276,-0.04,0.356,0.085,1.0,-0.094
24,y3,0.191,-0.461,-0.092,0.112,0.388,0.307,0.353,0.245,-0.201,-0.004,-0.021,0.214,-0.327,-0.364,-0.094,1.0
25,.,1.0,-0.305,-0.282,-0.093,-0.274,0.009,-0.42,0.354,-0.251,0.38,-0.408,0.339,-0.205,-0.288,-0.517,0.191
25,A1_1,-0.305,1.0,0.335,-0.074,0.101,-0.43,0.344,0.017,0.312,0.0,0.275,-0.307,0.213,-0.319,0.145,-0.462
25,A1_2,-0.282,0.335,1.0,-0.037,0.476,0.537,0.008,0.251,0.275,0.302,0.237,0.004,-0.227,-0.141,0.194,-0.094
25,A1_3,-0.093,-0.074,-0.037,1.0,0.223,0.042,0.137,-0.11,0.421,0.106,0.127,-0.003,0.134,0.118,-0.446,0.11
25,B1_1,-0.274,0.101,0.476,0.223,1.0,0.3,0.443,0.416,0.251,0.212,0.27,0.337,-0.055,-0.241,0.281,0.382
25,B1_2,0.009,-0.43,0.537,0.042,0.3,1.0,-0.167,0.212,-0.106,0.204,0.044,0.23,-0.274,0.087,0.059,0.306
25,B1_3,-0.42,0.344,0.008,0.137,0.443,-0.167,1.0,0.396,0.276,-0.345,0.258,-0.072,0.171,-0.284,0.293,0.349
25,A2_1,0.354,0.017,0.251,-0.11,0.416,0.212,0.396,1.0,0.132,0.338,-0.227,0.271,-0.124,-0.41,0.007,0.245
25,A2_2,-0.251,0.312,0.275,0.421,0.251,-0.106,0.276,0.132,1.0,0.157,0.045,0.198,0.016,0.286,-0.186,-0.203
25,A2_3,0.38,0.0,0.302,0.106,0.212,0.204,-0.345,0.338,0.157,1.0,-0.649,0.01,-0.069,-0.164,-0.238,-0.004
25,B2_1,-0.408,0.275,0.237,0.127,0.27,0.044,0.258,-0.227,0.045,-0.649,1.0,0.072,-0.108,-0.044,0.281,-0.024
25,B2_2,0.339,-0.307,0.004,-0.003,0.337,0.23,-0.072,0.271,0.198,0.01,0.072,1.0,0.177,0.288,-0.031,0.214
25,B2_3,-0.205,0.213,-0.227,0.134,-0.055,-0.274,0.171,-0.124,0.016,-0.069,-0.108,0.177,1.0,0.328,0.361,-0.327
25,y1,-0.288,-0.319,-0.141,0.118,-0.241,0.087,-0.284,-0.41,0.286,-0.164,-0.044,0.288,0.328,1.0,0.082,-0.364
25,y2,-0.517,0.145,0.194,-0.446,0.281,0.059,0.293,0.007,-0.186,-0.238,0.281,-0.031,0.361,0.082,1.0,-0.094
25,y3,0.191,-0.462,-0.094,0.11,0.382,0.306,0.349,0.245,-0.203,-0.004,-0.024,0.214,-0.327,-0.364,-0.094,1.0
26,.,1.0,-0.301,-0.283,-0.091,-0.296,-0.005,-0.43,0.351,-0.249,0.379,-0.42,0.319,-0.213,-0.282,-0.516,0.191
26,A1_1,-0.301,1.0,0.336,-0.073,0.1,-0.429,0.343,0.02,0.314,0.004,0.272,-0.306,0.21,-0.324,0.139,-0.463
26,A1_2,-0.283,0.336,1.0,-0.038,0.475,0.537,0.01,0.252,0.275,0.304,0.236,0.006,-0.226,-0.146,0.189,-0.095
26,A1_3,-0.091,-0.073,-0.038,1.0,0.223,0.042,0.138,-0.109,0.421,0.108,0.127,-0.001,0.133,0.114,-0.452,0.109
26,B1_1,-0.296,0.1,0.475,0.223,1.0,0.306,0.449,0.407,0.251,0.205,0.279,0.342,-0.043,-0.237,0.286,0.375
26,B1_2,-0.005,-0.429,0.537,0.042,0.306,1.0,-0.159,0.206,-0.105,0.198,0.051,0.233,-0.267,0.092,0.067,0.305
26,B1_3,-0.43,0.343,0.01,0.138,0.449,-0.159,1.0,0.389,0.276,-0.347,0.266,-0.066,0.178,-0.28,0.298,0.345
26,A2_1,0.351,0.02,0.252,-0.109,0.407,0.206,0.389,1.0,0.135,0.34,-0.231,0.265,-0.128,-0.411,0.005,0.245
26,A2_2,-0.249,0.314,0.275,0.421,0.251,-0.105,0.276,0.135,1.0,0.16,0.045,0.2,0.016,0.28,-0.193,-0.206
26,A2_3,0.379,0.004,0.304,0.108,0.205,0.198,-0.347,0.34,0.16,1.0,-0.649,0.005,-0.074,-0.166,-0.239,-0.005
26,B2_1,-0.42,0.272,0.236,0.127,0.279,0.051,0.266,-0.231,0.045,-0.649,1.0,0.08,-0.098,-0.041,0.285,-0.026
26,B2_2,0.319,-0.306,0.006,-0.001,0.342,0.233,-0.066,0.265,0.2,0.005,0.08,1.0,0.182,0.295,-0.021,0.213
26,B2_3,-0.213,0.21,-0.226,0.133,-0.043,-0.267,0.178,-0.128,0.016,-0.074,-0.098,0.182,1.0,0.331,0.366,-0.326
26,y1,-0.282,-0.324,-0.146,0.114,-0.237,0.092,-0.28,-0.411,0.28,-0.166,-0.041,0.295,0.331,1.0,0.079,-0.365
26,y2,-0.516,0.139,0.189,-0.452,0.286,0.067,0.298,0.005,-0.193,-0.239,0.285,-0.021,0.366,0.079,1.0,-0.095
26,y3,0.191,-0.463,-0.095,0.109,0.375,0.305,0.345,0.245,-0.206,-0.005,-0.026,0.213,-0.326,-0.365,-0.095,1.0
27,.,1.0,-0.297,-0.282,-0.088,-0.317,-0.021,-0.441,0.349,-0.247,0.378,-0.433,0.297,-0.222,-0.276,-0.515,0.192
27,A1_1,-0.297,1.0,0.337,-0.071,0.099,-0.428,0.341,0.023,0.315,0.007,0.269,-0.305,0.208,-0.329,0.134,-0.464
27,A1_2,-0.282,0.337,1.0,-0.039,0.474,0.537,0.012,0.254,0.276,0.307,0.235,0.009,-0.225,-0.152,0.184,-0.097
27,A1_3,-0.088,-0.071,-0.039,1.0,0.223,0.042,0.138,-0.107,0.421,0.111,0.126,0.001,0.132,0.108,-0.459,0.107
27,B1_1,-0.317,0.099,0.474,0.223,1.0,0.313,0.455,0.397,0.251,0.198,0.29,0.348,-0.03,-0.234,0.29,0.368
27,B1_2,-0.021,-0.428,0.537,0.042,0.313,1.0,-0.15,0.199,-0.104,0.192,0.06,0.237,-0.258,0.098,0.075,0.304
27,B1_3,-0.441,0.341,0.012,0.138,0.455,-0.15,1.0,0.382,0.276,-0.349,0.274,-0.059,0.186,-0.277,0.303,0.341
27,A2_1,0.349,0.023,0.254,-0.107,0.397,0.199,0.382,1.0,0.137,0.343,-0.235,0.259,-0.133,-0.411,0.003,0.245
27,A2_2,-0.247,0.315,0.276,0.421,0.251,-0.104,0.276,0.137,1.0,0.164,0.045,0.201,0.016,0.273,-0.2,-0.208
27,A2_3,0.378,0.007,0.307,0.111,0.198,0.192,-0.349,0.343,0.164,1.0,-0.65,-0.001,-0.078,-0.167,-0.241,-0.005
27,B2_1,-0.433,0.269,0.235,0.126,0.29,0.06,0.274,-0.235,0.045,-0.65,1.0,0.088,-0.086,-0.038,0.29,-0.029
27,B2_2,0.297,-0.305,0.009,0.001,0.348,0.237,-0.059,0.259,0.201,-0.001,0.088,1.0,0.188,0.302,-0.011,0.212
27,B2_3,-0.222,0.208,-0.225,0.132,-0.03,-0.258,0.186,-0.133,0.016,-0.078,-0.086,0.188,1.0,0.334,0.372,-0.326
27,y1,-0.276,-0.329,-0.152,0.108,-0.234,0.098,-0.277,-0.411,0.273,-0.167,-0.038,0.302,0.334,1.0,0.075,-0.365
27,y2,-0.515,0.134,0.184,-0.459,0.29,0.075,0.303,0.003,-0.2,-0.241,0.29,-0.011,0.372,0.075,1.0,-0.095
27,y3,0.192,-0.464,-0.097,0.107,0.368,0.304,0.341,0.245,-0.208,-0.005,-0.029,0.212,-0.326,-0.365,-0.095,1.0
28,.,1.0,-0.292,-0.282,-0.085,-0.339,-0.038,-0.453,0.347,-0.243,0.377,-0.446,0.274,-0.232,-0.268,-0.514,0.193
28,A1_1,-0.292,1.0,0.338,-0.07,0.098,-0.427,0.338,0.026,0.317,0.011,0.266,-0.304,0.206,-0.335,0.128,-0.465
28,A1_2,-0.282,0.338,1.0,-0.041,0.472,0.537,0.014,0.255,0.276,0.309,0.234,0.012,-0.224,-0.158,0.178,-0.099
28,A1_3,-0.085,-0.07,-0.041,1.0,0.222,0.042,0.139,-0.105,0.421,0.114,0.124,0.002,0.13,0.103,-0.467,0.105
28,B1_1,-0.339,0.098,0.472,0.222,1.0,0.321,0.463,0.387,0.25,0.189,0.301,0.355,-0.016,-0.23,0.295,0.36
28,B1_2,-0.038,-0.427,0.537,0.042,0.321,1.0,-0.14,0.192,-0.102,0.185,0.069,0.241,-0.249,0.103,0.084,0.302
28,B1_3,-0.453,0.338,0.014,0.139,0.463,-0.14,1.0,0.375,0.275,-0.352,0.283,-0.05,0.196,-0.274,0.308,0.336
28,A2_1,0.347,0.026,0.255,-0.105,0.387,0.192,0.375,1.0,0.14,0.346,-0.24,0.252,-0.138,-0.412,0.0,0.245
28,A2_2,-0.243,0.317,0.276,0.421,0.25,-0.102,0.275,0.14,1.0,0.167,0.045,0.203,0.016,0.266,-0.208,-0.211
28,A2_3,0.377,0.011,0.309,0.114,0.189,0.185,-0.352,0.346,0.167,1.0,-0.65,-0.007,-0.083,-0.168,-0.243,-0.005
28,B2_1,-0.446,0.266,0.234,0.124,0.301,0.069,0.283,-0.24,0.045,-0.65,1.0,0.098,-0.073,-0.036,0.294,-0.031
28,B2_2,0.274,-0.304,0.012,0.002,0.355,0.241,-0.05,0.252,0.203,-0.007,0.098,1.0,0.194,0.31,0.001,0.211
28,B2_3,-0.232,0.206,-0.224,0.13,-0.016,-0.249,0.196,-0.138,0.016,-0.083,-0.073,0.194,1.0,0.337,0.378,-0.326
28,y1,-0.268,-0.335,-0.158,0.103,-0.23,0.103,-0.274,-0.412,0.266,-0.168,-0.036,0.31,0.337,1.0,0.072,-0.366
28,y2,-0.514,0.128,0.178,-0.467,0.295,0.084,0.308,0.0,-0.208,-0.243,0.294,0.001,0.378,0.072,1.0,-0.095
28,y3,0.193,-0.465,-0.099,0.105,0.36,0.302,0.336,0.245,-0.211,-0.005,-0.031,0.211,-0.326,-0.366,-0.095,1.0
29,.,1.0,-0.287,-0.28,-0.081,-0.361,-0.055,-0.465,0.345,-0.239,0.377,-0.46,0.249,-0.242,-0.259,-0.511,0.194
29,A1_1,-0.287,1.0,0.339,-0.069,0.097,-0.426,0.335,0.03,0.319,0.016,0.262,-0.303,0.203,-0.342,0.121,-0.466
29,A1_2,-0.28,0.339,1.0,-0.042,0.47,0.536,0.015,0.257,0.277,0.313,0.233,0.014,-0.224,-0.165,0.171,-0.101
29,A1_3,-0.081,-0.069,-0.042,1.0,0.221,0.042,0.138,-0.103,0.421,0.117,0.122,0.003,0.128,0.097,-0.475,0.103
29,B1_1,-0.361,0.097,0.47,0.221,1.0,0.329,0.471,0.376,0.249,0.18,0.314,0.364,-0.0,-0.226,0.3,0.352
29,B1_2,-0.055,-0.426,0.536,0.042,0.329,1.0,-0.129,0.184,-0.101,0.177,0.08,0.246,-0.238,0.108,0.092,0.3
29,B1_3,-0.465,0.335,0.015,0.138,0.471,-0.129,1.0,0.366,0.274,-0.355,0.293,-0.04,0.205,-0.271,0.313,0.33
29,A2_1,0.345,0.03,0.257,-0.103,0.376,0.184,0.366,1.0,0.143,0.35,-0.245,0.244,-0.143,-0.413,-0.003,0.245
29,A2_2,-0.239,0.319,0.277,0.421,0.249,-0.101,0.274,0.143,1.0,0.172,0.045,0.204,0.016,0.258,-0.217,-0.213
29,A2_3,0.377,0.016,0.313,0.117,0.18,0.177,-0.355,0.35,0.172,1.0,-0.65,-0.015,-0.088,-0.169,-0.244,-0.005
29,B2_1,-0.46,0.262,0.233,0.122,0.314,0.08,0.293,-0.245,0.045,-0.65,1.0,0.109,-0.06,-0.034,0.299,-0.035
29,B2_2,0.249,-0.303,0.014,0.003,0.364,0.246,-0.04,0.244,0.204,-0.015,0.109,1.0,0.202,0.317,0.013,0.209
29,B2_3,-0.242,0.203,-0.224,0.128,-0.0,-0.238,0.205,-0.143,0.016,-0.088,-0.06,0.202,1.0,0.339,0.383,-0.325
29,y1,-0.259,-0.342,-0.165,0.097,-0.226,0.108,-0.271,-0.413,0.258,-0.169,-0.034,0.317,0.339,1.0,0.067,-0.366
29,y2,-0.511,0.121,0.171,-0.475,0.3,0.092,0.313,-0.003,-0.217,-0.244,0.299,0.013,0.383,0.067,1.0,-0.096
29,y3,0.194,-0.466,-0.101,0.103,0.352,0.3,0.33,0.245,-0.213,-0.005,-0.035,0.209,-0.325,-0.366,-0.096,1.0
30,.,1.0,-0.281,-0.278,-0.076,-0.383,-0.074,-0.478,0.343,-0.234,0.377,-0.475,0.222,-0.253,-0.249,-0.508,0.196
30,A1_1,-0.281,1.0,0.34,-0.067,0.095,-0.425,0.331,0.034,0.321,0.021,0.257,-0.301,0.199,-0.348,0.114,-0.467
30,A1_2,-0.278,0.34,1.0,-0.044,0.467,0.535,0.017,0.259,0.278,0.316,0.231,0.017,-0.223,-0.173,0.164,-0.104
30,A1_3,-0.076,-0.067,-0.044,1.0,0.219,0.041,0.138,-0.101,0.421,0.121,0.12,0.005,0.126,0.09,-0.484,0.101
30,B1_1,-0.383,0.095,0.467,0.219,1.0,0.338,0.479,0.364,0.247,0.17,0.327,0.373,0.016,-0.223,0.304,0.343
30,B1_2,-0.074,-0.425,0.535,0.041,0.338,1.0,-0.116,0.176,-0.1,0.169,0.091,0.251,-0.226,0.114,0.101,0.297
30,B1_3,-0.478,0.331,0.017,0.138,0.479,-0.116,1.0,0.357,0.272,-0.358,0.304,-0.028,0.216,-0.269,0.319,0.324
30,A2_1,0.343,0.034,0.259,-0.101,0.364,0.176,0.357,1.0,0.147,0.353,-0.251,0.235,-0.149,-0.414,-0.005,0.245
30,A2_2,-0.234,0.321,0.278,0.421,0.247,-0.1,0.272,0.147,1.0,0.176,0.044,0.205,0.015,0.25,-0.227,-0.216
30,A2_3,0.377,0.021,0.316,0.121,0.17,0.169,-0.358,0.353,0.176,1.0,-0.651,-0.023,-0.094,-0.17,-0.246,-0.005
30,B2_1,-0.475,0.257,0.231,0.12,0.327,0.091,0.304,-0.251,0.044,-0.651,1.0,0.121,-0.045,-0.032,0.303,-0.038
30,B2_2,0.222,-0.301,0.017,0.005,0.373,0.251,-0.028,0.235,0.205,-0.023,0.121,1.0,0.211,0.325,0.025,0.207
30,B2_3,-0.253,0.199,-0.223,0.126,0.016,-0.226,0.216,-0.149,0.015,-0.094,-0.045,0.211,1.0,0.341,0.389,-0.325
30,y1,-0.249,-0.348,-0.173,0.09,-0.223,0.114,-0.269,-0.414,0.25,-0.17,-0.032,0.325,0.341,1.0,0.062,-0.366
30,y2,-0.508,0.114,0.164,-0.484,0.304,0.101,0.319,-0.005,-0.227,-0.246,0.303,0.025,0.389,0.062,1.0,-0.096
30,y3,0.196,-0.467,-0.104,0.101,0.343,0.297,0.324,0.245,-0.216,-0.005,-0.038,0.207,-0.325,-0.366,-0.096,1.0
31,.,1.0,-0.275,-0.275,-0.07,-0.406,-0.093,-0.492,0.342,-0.228,0.377,-0.49,0.194,-0.264,-0.238,-0.504,0.199
31,A1_1,-0.275,1.0,0.342,-0.065,0.093,-0.423,0.327,0.039,0.324,0.026,0.252,-0.3,0.196,-0.356,0.107,-0.468
31,A1_2,-0.275,0.342,1.0,-0.045,0.463,0.533,0.017,0.261,0.279,0.32,0.228,0.02,-0.223,-0.181,0.156,-0.106
31,A1_3,-0.07,-0.065,-0.045,1.0,0.216,0.04,0.137,-0.098,0.421,0.125,0.117,0.005,0.123,0.083,-0.494,0.099
31,B1_1,-0.406,0.093,0.463,0.216,1.0,0.348,0.489,0.351,0.245,0.16,0.341,0.384,0.033,-0.221,0.308,0.333
31,B1_2,-0.093,-0.423,0.533,0.04,0.348,1.0,-0.102,0.167,-0.1,0.16,0.104,0.258,-0.213,0.119,0.111,0.294
31,B1_3,-0.492,0.327,0.017,0.137,0.489,-0.102,1.0,0.346,0.27,-0.362,0.316,-0.014,0.228,-0.266,0.324,0.317
31,A2_1,0.342,0.039,0.261,-0.098,0.351,0.167,0.346,1.0,0.151,0.357,-0.256,0.226,-0.155,-0.414,-0.008,0.245
31,A2_2,-0.228,0.324,0.279,0.421,0.245,-0.1,0.27,0.151,1.0,0.182,0.042,0.206,0.014,0.242,-0.237,-0.219
31,A2_3,0.377,0.026,0.32,0.125,0.16,0.16,-0.362,0.357,0.182,1.0,-0.651,-0.033,-0.1,-0.17,-0.247,-0.005
31,B2_1,-0.49,0.252,0.228,0.117,0.341,0.104,0.316,-0.256,0.042,-0.651,1.0,0.136,-0.029,-0.031,0.308,-0.042
31,B2_2,0.194,-0.3,0.02,0.005,0.384,0.258,-0.014,0.226,0.206,-0.033,0.136,1.0,0.221,0.333,0.039,0.204
31,B2_3,-0.264,0.196,-0.223,0.123,0.033,-0.213,0.228,-0.155,0.014,-0.1,-0.029,0.221,1.0,0.343,0.394,-0.325
31,y1,-0.238,-0.356,-0.181,0.083,-0.221,0.119,-0.266,-0.414,0.242,-0.17,-0.031,0.333,0.343,1.0,0.056,-0.366
31,y2,-0.504,0.107,0.156,-0.494,0.308,0.111,0.324,-0.008,-0.237,-0.247,0.308,0.039,0.394,0.056,1.0,-0.097
31,y3,0.199,-0.468,-0.106,0.099,0.333,0.294,0.317,0.245,-0.219,-0.005,-0.042,0.204,-0.325,-0.366,-0.097,1.0
32,.,1.0,-0.269,-0.271,-0.063,-0.428,-0.113,-0.506,0.341,-0.222,0.377,-0.505,0.165,-0.275,-0.225,-0.499,0.202
32,A1_1,-0.269,1.0,0.343,-0.063,0.091,-0.422,0.322,0.043,0.326,0.031,0.246,-0.299,0.191,-0.363,0.099,-0.469
32,A1_2,-0.271,0.343,1.0,-0.047,0.458,0.531,0.018,0.264,0.28,0.325,0.224,0.022,-0.224,-0.19,0.147,-0.109
32,A1_3,-0.063,-0.063,-0.047,1.0,0.213,0.039,0.135,-0.094,0.421,0.13,0.113,0.006,0.12,0.075,-0.505,0.097
32,B1_1,-0.428,0.091,0.458,0.213,1.0,0.359,0.499,0.337,0.241,0.149,0.356,0.396,0.052,-0.22,0.312,0.323
32,B1_2,-0.113,-0.422,0.531,0.039,0.359,1.0,-0.086,0.158,-0.099,0.15,0.118,0.266,-0.198,0.123,0.121,0.29
32,B1_3,-0.506,0.322,0.018,0.135,0.499,-0.086,1.0,0.335,0.267,-0.366,0.329,0.001,0.241,-0.265,0.328,0.31
32,A2_1,0.341,0.043,0.264,-0.094,0.337,0.158,0.335,1.0,0.155,0.361,-0.263,0.215,-0.162,-0.415,-0.011,0.245
32,A2_2,-0.222,0.326,0.28,0.421,0.241,-0.099,0.267,0.155,1.0,0.187,0.04,0.206,0.012,0.232,-0.249,-0.222
32,A2_3,0.377,0.031,0.325,0.13,0.149,0.15,-0.366,0.361,0.187,1.0,-0.652,-0.043,-0.107,-0.169,-0.248,-0.005
32,B2_1,-0.505,0.246,0.224,0.113,0.356,0.118,0.329,-0.263,0.04,-0.652,1.0,0.151,-0.012,-0.031,0.311,-0.046
32,B2_2,0.165,-0.299,0.022,0.006,0.396,0.266,0.001,0.215,0.206,-0.043,0.151,1.0,0.231,0.34,0.053,0.201
32,B2_3,-0.275,0.191,-0.224,0.12,0.052,-0.198,0.241,-0.162,0.012,-0.107,-0.012,0.231,1.0,0.343,0.4,-0.325
32,y1,-0.225,-0.363,-0.19,0.075,-0.22,0.123,-0.265,-0.415,0.232,-0.169,-0.031,0.34,0.343,1.0,0.049,-0.366
32,y2,-0.499,0.099,0.147,-0.505,0.312,0.121,0.328,-0.011,-0.249,-0.248,0.311,0.053,0.4,0.049,1.0,-0.097
32,y3,0.202,-0.469,-0.109,0.097,0.323,0.29,0.31,0.245,-0.222,-0.005,-0.046,0.201,-0.325,-0.366,-0.097,1.0
33,.,1.0,-0.263,-0.267,-0.056,-0.449,-0.134,-0.52,0.341,-0.215,0.378,-0.52,0.134,-0.287,-0.211,-0.492,0.205
33,A1_1,-0.263,1.0,0.345,-0.06,0.088,-0.421,0.317,0.048,0.329,0.037,0.239,-0.297,0.187,-0.371,0.09,-0.471
33,A1_2,-0.267,0.345,1.0,-0.048,0.452,0.528,0.017,0.266,0.281,0.33,0.22,0.024,-0.224,-0.199,0.138,-0.112
33,A1_3,-0.056,-0.06,-0.048,1.0,0.209,0.036,0.132,-0.091,0.422,0.136,0.109,0.006,0.115,0.068,-0.518,0.095
33,B1_1,-0.449,0.088,0.452,0.209,1.0,0.371,0.51,0.322,0.237,0.137,0.372,0.409,0.071,-0.219,0.315,0.313
33,B1_2,-0.134,-0.421,0.528,0.036,0.371,1.0,-0.069,0.147,-0.099,0.139,0.134,0.276,-0.182,0.127,0.13,0.287
33,B1_3,-0.52,0.317,0.017,0.132,0.51,-0.069,1.0,0.323,0.263,-0.369,0.342,0.018,0.254,-0.264,0.332,0.302
33,A2_1,0.341,0.048,0.266,-0.091,0.322,0.147,0.323,1.0,0.16,0.366,-0.269,0.203,-0.169,-0.415,-0.014,0.245
33,A2_2,-0.215,0.329,0.281,0.422,0.237,-0.099,0.263,0.16,1.0,0.194,0.037,0.205,0.01,0.223,-0.261,-0.225
33,A2_3,0.378,0.037,0.33,0.136,0.137,0.139,-0.369,0.366,0.194,1.0,-0.652,-0.054,-0.113,-0.169,-0.249,-0.005
33,B2_1,-0.52,0.239,0.22,0.109,0.372,0.134,0.342,-0.269,0.037,-0.652,1.0,0.169,0.007,-0.032,0.314,-0.05
33,B2_2,0.134,-0.297,0.024,0.006,0.409,0.276,0.018,0.203,0.205,-0.054,0.169,1.0,0.244,0.347,0.067,0.198
33,B2_3,-0.287,0.187,-0.224,0.115,0.071,-0.182,0.254,-0.169,0.01,-0.113,0.007,0.244,1.0,0.343,0.404,-0.325
33,y1,-0.211,-0.371,-0.199,0.068,-0.219,0.127,-0.264,-0.415,0.223,-0.169,-0.032,0.347,0.343,1.0,0.041,-0.366
33,y2,-0.492,0.09,0.138,-0.518,0.315,0.13,0.332,-0.014,-0.261,-0.249,0.314,0.067,0.404,0.041,1.0,-0.098
33,y3,0.205,-0.471,-0.112,0.095,0.313,0.287,0.302,0.245,-0.225,-0.005,-0.05,0.198,-0.325,-0.366,-0.098,1.0
34,.,1.0,-0.256,-0.261,-0.048,-0.47,-0.155,-0.534,0.341,-0.206,0.378,-0.535,0.102,-0.299,-0.195,-0.484,0.209
34,A1_1,-0.256,1.0,0.347,-0.057,0.084,-0.419,0.31,0.054,0.332,0.044,0.232,-0.296,0.182,-0.379,0.081,-0.472
34,A1_2,-0.261,0.347,1.0,-0.049,0.445,0.524,0.016,0.27,0.282,0.336,0.215,0.025,-0.225,-0.21,0.127,-0.115
34,A1_3,-0.048,-0.057,-0.049,1.0,0.204,0.034,0.129,-0.086,0.423,0.142,0.103,0.005,0.111,0.059,-0.531,0.092
34,B1_1,-0.47,0.084,0.445,0.204,1.0,0.384,0.521,0.308,0.232,0.126,0.388,0.423,0.091,-0.22,0.316,0.302
34,B1_2,-0.155,-0.419,0.524,0.034,0.384,1.0,-0.05,0.136,-0.099,0.128,0.15,0.286,-0.164,0.13,0.14,0.282
34,B1_3,-0.534,0.31,0.016,0.129,0.521,-0.05,1.0,0.311,0.257,-0.373,0.356,0.037,0.268,-0.264,0.335,0.294
34,A2_1,0.341,0.054,0.27,-0.086,0.308,0.136,0.311,1.0,0.165,0.37,-0.276,0.191,-0.176,-0.415,-0.017,0.245
34,A2_2,-0.206,0.332,0.282,0.423,0.232,-0.099,0.257,0.165,1.0,0.201,0.033,0.203,0.007,0.212,-0.275,-0.228
34,A2_3,0.378,0.044,0.336,0.142,0.126,0.128,-0.373,0.37,0.201,1.0,-0.652,-0.065,-0.12,-0.167,-0.25,-0.004
34,B2_1,-0.535,0.232,0.215,0.103,0.388,0.15,0.356,-0.276,0.033,-0.652,1.0,0.188,0.026,-0.034,0.316,-0.055
34,B2_2,0.102,-0.296,0.025,0.005,0.423,0.286,0.037,0.191,0.203,-0.065,0.188,1.0,0.257,0.353,0.081,0.193
34,B2_3,-0.299,0.182,-0.225,0.111,0.091,-0.164,0.268,-0.176,0.007,-0.12,0.026,0.257,1.0,0.341,0.409,-0.325
34,y1,-0.195,-0.379,-0.21,0.059,-0.22,0.13,-0.264,-0.415,0.212,-0.167,-0.034,0.353,0.341,1.0,0.032,-0.366
34,y2,-0.484,0.081,0.127,-0.531,0.316,0.14,0.335,-0.017,-0.275,-0.25,0.316,0.081,0.409,0.032,1.0,-0.098
34,y3,0.209,-0.472,-0.115,0.092,0.302,0.282,0.294,0.245,-0.228,-0.004,-0.055,0.193,-0.325,-0.366,-0.098,1.0
35,.,1.0,-0.249,-0.254,-0.038,-0.49,-0.177,-0.548,0.341,-0.197,0.378,-0.55,0.07,-0.312,-0.177,-0.474,0.214
35,A1_1,-0.249,1.0,0.35,-0.054,0.08,-0.418,0.303,0.06,0.336,0.051,0.224,-0.295,0.176,-0.388,0.072,-0.473
35,A1_2,-0.254,0.35,1.0,-0.049,0.437,0.518,0.014,0.274,0.284,0.343,0.208,0.026,-0.227,-0.22,0.116,-0.118
35,A1_3,-0.038,-0.054,-0.049,1.0,0.197,0.03,0.124,-0.081,0.423,0.149,0.096,0.003,0.105,0.05,-0.545,0.09
35,B1_1,-0.49,0.08,0.437,0.197,1.0,0.398,0.532,0.292,0.225,0.114,0.404,0.439,0.112,-0.222,0.317,0.29
35,B1_2,-0.177,-0.418,0.518,0.03,0.398,1.0,-0.03,0.124,-0.101,0.116,0.168,0.298,-0.146,0.133,0.149,0.277
35,B1_3,-0.548,0.303,0.014,0.124,0.532,-0.03,1.0,0.298,0.251,-0.377,0.371,0.057,0.283,-0.266,0.337,0.285
35,A2_1,0.341,0.06,0.274,-0.081,0.292,0.124,0.298,1.0,0.171,0.375,-0.283,0.177,-0.184,-0.414,-0.02,0.244
35,A2_2,-0.197,0.336,0.284,0.423,0.225,-0.101,0.251,0.171,1.0,0.208,0.028,0.2,0.003,0.202,-0.289,-0.231
35,A2_3,0.378,0.051,0.343,0.149,0.114,0.116,-0.377,0.375,0.208,1.0,-0.652,-0.077,-0.127,-0.165,-0.25,-0.004
35,B2_1,-0.55,0.224,0.208,0.096,0.404,0.168,0.371,-0.283,0.028,-0.652,1.0,0.207,0.046,-0.037,0.318,-0.06
35,B2_2,0.07,-0.295,0.026,0.003,0.439,0.298,0.057,0.177,0.2,-0.077,0.207,1.0,0.272,0.357,0.094,0.189
35,B2_3,-0.312,0.176,-0.227,0.105,0.112,-0.146,0.283,-0.184,0.003,-0.127,0.046,0.272,1.0,0.339,0.412,-0.326
35,y1,-0.177,-0.388,-0.22,0.05,-0.222,0.133,-0.266,-0.414,0.202,-0.165,-0.037,0.357,0.339,1.0,0.022,-0.365
35,y2,-0.474,0.072,0.116,-0.545,0.317,0.149,0.337,-0.02,-0.289,-0.25,0.318,0.094,0.412,0.022,1.0,-0.099
35,y3,0.214,-0.473,-0.118,0.09,0.29,0.277,0.285,0.244,-0.231,-0.004,-0.06,0.189,-0.326,-0.365,-0.099,1.0
36,.,1.0,-0.242,-0.246,-0.027,-0.51,-0.199,-0.561,0.342,-0.187,0.378,-0.564,0.037,-0.324,-0.157,-0.463,0.218
36,A1_1,-0.242,1.0,0.352,-0.05,0.075,-0.417,0.295,0.066,0.34,0.058,0.216,-0.295,0.17,-0.396,0.062,-0.474
36,A1_2,-0.246,0.352,1.0,-0.05,0.427,0.512,0.011,0.278,0.286,0.35,0.2,0.025,-0.23,-0.232,0.103,-0.121
36,A1_3,-0.027,-0.05,-0.05,1.0,0.19,0.026,0.119,-0.075,0.425,0.157,0.088,0.0,0.098,0.041,-0.561,0.087
36,B1_1,-0.51,0.075,0.427,0.19,1.0,0.412,0.544,0.276,0.218,0.102,0.421,0.455,0.133,-0.226,0.316,0.279
36,B1_2,-0.199,-0.417,0.512,0.026,0.412,1.0,-0.009,0.111,-0.102,0.104,0.186,0.311,-0.126,0.134,0.157,0.271
36,B1_3,-0.561,0.295,0.011,0.119,0.544,-0.009,1.0,0.284,0.244,-0.381,0.386,0.08,0.298,-0.269,0.338,0.276
36,A2_1,0.342,0.066,0.278,-0.075,0.276,0.111,0.284,1.0,0.177,0.38,-0.29,0.162,-0.191,-0.413,-0.022,0.244
36,A2_2,-0.187,0.34,0.286,0.425,0.218,-0.102,0.244,0.177,1.0,0.216,0.022,0.196,-0.001,0.191,-0.304,-0.234
36,A2_3,0.378,0.058,0.35,0.157,0.102,0.104,-0.381,0.38,0.216,1.0,-0.652,-0.09,-0.135,-0.163,-0.249,-0.003
36,B2_1,-0.564,0.216,0.2,0.088,0.421,0.186,0.386,-0.29,0.022,-0.652,1.0,0.229,0.067,-0.043,0.318,-0.064
36,B2_2,0.037,-0.295,0.025,0.0,0.455,0.311,0.08,0.162,0.196,-0.09,0.229,1.0,0.287,0.36,0.108,0.184
36,B2_3,-0.324,0.17,-0.23,0.098,0.133,-0.126,0.298,-0.191,-0.001,-0.135,0.067,0.287,1.0,0.335,0.415,-0.326
36,y1,-0.157,-0.396,-0.232,0.041,-0.226,0.134,-0.269,-0.413,0.191,-0.163,-0.043,0.36,0.335,1.0,0.012,-0.364
36,y2,-0.463,0.062,0.103,-0.561,0.316,0.157,0.338,-0.022,-0.304,-0.249,0.318,0.108,0.415,0.012,1.0,-0.098
36,y3,0.218,-0.474,-0.121,0.087,0.279,0.271,0.276,0.244,-0.234,-0.003,-0.064,0.184,-0.326,-0.364,-0.098,1.0
37,.,1.0,-0.234,-0.237,-0.016,-0.528,-0.22,-0.575,0.342,-0.177,0.377,-0.578,0.004,-0.336,-0.136,-0.45,0.223
37,A1_1,-0.234,1.0,0.356,-0.045,0.069,-0.416,0.287,0.073,0.344,0.066,0.206,-0.294,0.163,-0.405,0.053,-0.475
37,A1_2,-0.237,0.356,1.0,-0.05,0.416,0.503,0.007,0.283,0.289,0.358,0.191,0.023,-0.233,-0.243,0.09,-0.124
37,A1_3,-0.016,-0.045,-0.05,1.0,0.181,0.02,0.112,-0.069,0.427,0.166,0.08,-0.004,0.09,0.032,-0.577,0.084
37,B1_1,-0.528,0.069,0.416,0.181,1.0,0.427,0.556,0.26,0.21,0.091,0.438,0.473,0.155,-0.231,0.313,0.268
37,B1_2,-0.22,-0.416,0.503,0.02,0.427,1.0,0.013,0.099,-0.105,0.091,0.205,0.325,-0.105,0.133,0.164,0.266
37,B1_3,-0.575,0.287,0.007,0.112,0.556,0.013,1.0,0.27,0.236,-0.385,0.401,0.103,0.314,-0.273,0.338,0.267
37,A2_1,0.342,0.073,0.283,-0.069,0.26,0.099,0.27,1.0,0.184,0.385,-0.297,0.146,-0.199,-0.411,-0.024,0.243
37,A2_2,-0.177,0.344,0.289,0.427,0.21,-0.105,0.236,0.184,1.0,0.225,0.016,0.191,-0.006,0.18,-0.319,-0.237
37,A2_3,0.377,0.066,0.358,0.166,0.091,0.091,-0.385,0.385,0.225,1.0,-0.652,-0.103,-0.142,-0.159,-0.247,-0.003
37,B2_1,-0.578,0.206,0.191,0.08,0.438,0.205,0.401,-0.297,0.016,-0.652,1.0,0.252,0.088,-0.049,0.316,-0.069
37,B2_2,0.004,-0.294,0.023,-0.004,0.473,0.325,0.103,0.146,0.191,-0.103,0.252,1.0,0.304,0.361,0.12,0.178
37,B2_3,-0.336,0.163,-0.233,0.09,0.155,-0.105,0.314,-0.199,-0.006,-0.142,0.088,0.304,1.0,0.329,0.416,-0.326
37,y1,-0.136,-0.405,-0.243,0.032,-0.231,0.133,-0.273,-0.411,0.18,-0.159,-0.049,0.361,0.329,1.0,-0.0,-0.362
37,y2,-0.45,0.053,0.09,-0.577,0.313,0.164,0.338,-0.024,-0.319,-0.247,0.316,0.12,0.416,-0.0,1.0,-0.097
37,y3,0.223,-0.475,-0.124,0.084,0.268,0.266,0.267,0.243,-0.237,-0.003,-0.069,0.178,-0.326,-0.362,-0.097,1.0
38,.,1.0,-0.226,-0.227,-0.005,-0.545,-0.241,-0.588,0.343,-0.165,0.376,-0.592,-0.029,-0.348,-0.112,-0.434,0.227
38,A1_1,-0.226,1.0,0.359,-0.04,0.063,-0.416,0.277,0.08,0.349,0.074,0.195,-0.295,0.155,-0.413,0.042,-0.476
38,A1_2,-0.227,0.359,1.0,-0.049,0.405,0.494,0.002,0.289,0.292,0.367,0.181,0.021,-0.237,-0.255,0.076,-0.127
38,A1_3,-0.005,-0.04,-0.049,1.0,0.172,0.014,0.105,-0.061,0.429,0.175,0.07,-0.009,0.082,0.022,-0.595,0.081
38,B1_1,-0.545,0.063,0.405,0.172,1.0,0.441,0.568,0.245,0.2,0.08,0.455,0.49,0.176,-0.24,0.308,0.257
38,B1_2,-0.241,-0.416,0.494,0.014,0.441,1.0,0.035,0.086,-0.108,0.079,0.225,0.341,-0.083,0.13,0.169,0.26
38,B1_3,-0.588,0.277,0.002,0.105,0.568,0.035,1.0,0.256,0.226,-0.388,0.417,0.128,0.33,-0.28,0.335,0.259
38,A2_1,0.343,0.08,0.289,-0.061,0.245,0.086,0.256,1.0,0.192,0.391,-0.304,0.13,-0.207,-0.408,-0.025,0.242
38,A2_2,-0.165,0.349,0.292,0.429,0.2,-0.108,0.226,0.192,1.0,0.235,0.008,0.183,-0.013,0.169,-0.336,-0.239
38,A2_3,0.376,0.074,0.367,0.175,0.08,0.079,-0.388,0.391,0.235,1.0,-0.651,-0.117,-0.149,-0.154,-0.245,-0.004
38,B2_1,-0.592,0.195,0.181,0.07,0.455,0.225,0.417,-0.304,0.008,-0.651,1.0,0.275,0.109,-0.059,0.313,-0.073
38,B2_2,-0.029,-0.295,0.021,-0.009,0.49,0.341,0.128,0.13,0.183,-0.117,0.275,1.0,0.322,0.359,0.13,0.172
38,B2_3,-0.348,0.155,-0.237,0.082,0.176,-0.083,0.33,-0.207,-0.013,-0.149,0.109,0.322,1.0,0.321,0.416,-0.325
38,y1,-0.112,-0.413,-0.255,0.022,-0.24,0.13,-0.28,-0.408,0.169,-0.154,-0.059,0.359,0.321,1.0,-0.013,-0.36
38,y2,-0.434,0.042,0.076,-0.595,0.308,0.169,0.335,-0.025,-0.336,-0.245,0.313,0.13,0.416,-0.013,1.0,-0.096
38,y3,0.227,-0.476,-0.127,0.081,0.257,0.26,0.259,0.242,-0.239,-0.004,-0.073,0.172,-0.325,-0.36,-0.096,1.0
39,.,1.0,-0.218,-0.217,0.007,-0.562,-0.262,-0.6,0.343,-0.153,0.375,-0.605,-0.062,-0.359,-0.088,-0.417,0.231
39,A1_1,-0.218,1.0,0.363,-0.034,0.056,-0.416,0.267,0.088,0.354,0.083,0.185,-0.295,0.147,-0.42,0.033,-0.476
39,A1_2,-0.217,0.363,1.0,-0.047,0.392,0.483,-0.003,0.296,0.296,0.376,0.171,0.017,-0.241,-0.266,0.062,-0.129
39,A1_3,0.007,-0.034,-0.047,1.0,0.161,0.006,0.097,-0.053,0.432,0.185,0.059,-0.015,0.072,0.013,-0.612,0.079
39,B1_1,-0.562,0.056,0.392,0.161,1.0,0.457,0.58,0.23,0.189,0.069,0.472,0.509,0.198,-0.248,0.301,0.246
39,B1_2,-0.262,-0.416,0.483,0.006,0.457,1.0,0.058,0.072,-0.113,0.066,0.245,0.357,-0.06,0.127,0.173,0.255
39,B1_3,-0.6,0.267,-0.003,0.097,0.58,0.058,1.0,0.242,0.216,-0.391,0.433,0.154,0.346,-0.287,0.331,0.25
39,A2_1,0.343,0.088,0.296,-0.053,0.23,0.072,0.242,1.0,0.201,0.396,-0.311,0.113,-0.214,-0.405,-0.025,0.24
39,A2_2,-0.153,0.354,0.296,0.432,0.189,-0.113,0.216,0.201,1.0,0.245,-0.001,0.175,-0.02,0.157,-0.353,-0.242
39,A2_3,0.375,0.083,0.376,0.185,0.069,0.066,-0.391,0.396,0.245,1.0,-0.65,-0.13,-0.155,-0.149,-0.242,-0.005
39,B2_1,-0.605,0.185,0.171,0.059,0.472,0.245,0.433,-0.311,-0.001,-0.65,1.0,0.3,0.131,-0.068,0.307,-0.077
39,B2_2,-0.062,-0.295,0.017,-0.015,0.509,0.357,0.154,0.113,0.175,-0.13,0.3,1.0,0.34,0.355,0.139,0.166
39,B2_3,-0.359,0.147,-0.241,0.072,0.198,-0.06,0.346,-0.214,-0.02,-0.155,0.131,0.34,1.0,0.312,0.414,-0.324
39,y1,-0.088,-0.42,-0.266,0.013,-0.248,0.127,-0.287,-0.405,0.157,-0.149,-0.068,0.355,0.312,1.0,-0.025,-0.357
39,y2,-0.417,0.033,0.062,-0.612,0.301,0.173,0.331,-0.025,-0.353,-0.242,0.307,0.139,0.414,-0.025,1.0,-0.094
39,y3,0.231,-0.476,-0.129,0.079,0.246,0.255,0.25,0.24,-0.242,-0.005,-0.077,0.166,-0.324,-0.357,-0.094,1.0
40,.,1.0,-0.21,-0.207,0.02,-0.577,-0.282,-0.612,0.342,-0.141,0.373,-0.616,-0.093,-0.371,-0.063,-0.396,0.235
40,A1_1,-0.21,1.0,0.368,-0.027,0.05,-0.416,0.256,0.096,0.359,0.091,0.173,-0.296,0.139,-0.427,0.023,-0.477
40,A1_2,-0.207,0.368,1.0,-0.044,0.379,0.471,-0.009,0.302,0.301,0.386,0.159,0.011,-0.246,-0.277,0.048,-0.132
40,A1_3,0.02,-0.027,-0.044,1.0,0.15,-0.002,0.088,-0.045,0.435,0.195,0.048,-0.023,0.062,0.004,-0.63,0.075
40,B1_1,-0.577,0.05,0.379,0.15,1.0,0.472,0.592,0.215,0.178,0.058,0.488,0.527,0.219,-0.258,0.292,0.236
40,B1_2,-0.282,-0.416,0.471,-0.002,0.472,1.0,0.082,0.059,-0.118,0.054,0.265,0.374,-0.038,0.121,0.175,0.249
40,B1_3,-0.612,0.256,-0.009,0.088,0.592,0.082,1.0,0.228,0.204,-0.395,0.448,0.179,0.361,-0.295,0.325,0.242
40,A2_1,0.342,0.096,0.302,-0.045,0.215,0.059,0.228,1.0,0.21,0.401,-0.318,0.097,-0.222,-0.401,-0.024,0.239
40,A2_2,-0.141,0.359,0.301,0.435,0.178,-0.118,0.204,0.21,1.0,0.256,-0.012,0.164,-0.028,0.146,-0.37,-0.245
40,A2_3,0.373,0.091,0.386,0.195,0.058,0.054,-0.395,0.401,0.256,1.0,-0.649,-0.143,-0.162,-0.144,-0.238,-0.006
40,B2_1,-0.616,0.173,0.159,0.048,0.488,0.265,0.448,-0.318,-0.012,-0.649,1.0,0.324,0.153,-0.079,0.299,-0.08
40,B2_2,-0.093,-0.296,0.011,-0.023,0.527,0.374,0.179,0.097,0.164,-0.143,0.324,1.0,0.358,0.349,0.144,0.16
40,B2_3,-0.371,0.139,-0.246,0.062,0.219,-0.038,0.361,-0.222,-0.028,-0.162,0.153,0.358,1.0,0.302,0.41,-0.323
40,y1,-0.063,-0.427,-0.277,0.004,-0.258,0.121,-0.295,-0.401,0.146,-0.144,-0.079,0.349,0.302,1.0,-0.037,-0.354
40,y2,-0.396,0.023,0.048,-0.63,0.292,0.175,0.325,-0.024,-0.37,-0.238,0.299,0.144,0.41,-0.037,1.0,-0.091
40,y3,0.235,-0.477,-0.132,0.075,0.236,0.249,0.242,0.239,-0.245,-0.006,-0.08,0.16,-0.323,-0.354,-0.091,1.0
41,.,1.0,-0.203,-0.196,0.032,-0.591,-0.301,-0.623,0.343,-0.129,0.371,-0.627,-0.123,-0.381,-0.036,-0.374,0.237
41,A1_1,-0.203,1.0,0.373,-0.019,0.043,-0.416,0.246,0.104,0.365,0.1,0.162,-0.297,0.13,-0.434,0.014,-0.478
41,A1_2,-0.196,0.373,1.0,-0.04,0.365,0.458,-0.016,0.309,0.306,0.396,0.147,0.005,-0.251,-0.288,0.033,-0.135
41,A1_3,0.032,-0.019,-0.04,1.0,0.139,-0.011,0.078,-0.035,0.439,0.206,0.035,-0.031,0.051,-0.004,-0.648,0.072
41,B1_1,-0.591,0.043,0.365,0.139,1.0,0.487,0.603,0.199,0.166,0.048,0.504,0.545,0.24,-0.271,0.28,0.228
41,B1_2,-0.301,-0.416,0.458,-0.011,0.487,1.0,0.105,0.045,-0.123,0.041,0.286,0.391,-0.015,0.114,0.174,0.244
41,B1_3,-0.623,0.246,-0.016,0.078,0.603,0.105,1.0,0.213,0.192,-0.397,0.463,0.205,0.377,-0.305,0.316,0.236
41,A2_1,0.343,0.104,0.309,-0.035,0.199,0.045,0.213,1.0,0.219,0.407,-0.325,0.079,-0.23,-0.396,-0.024,0.236
41,A2_2,-0.129,0.365,0.306,0.439,0.166,-0.123,0.192,0.219,1.0,0.266,-0.022,0.153,-0.036,0.136,-0.386,-0.248
41,A2_3,0.371,0.1,0.396,0.206,0.048,0.041,-0.397,0.407,0.266,1.0,-0.648,-0.155,-0.169,-0.137,-0.233,-0.008
41,B2_1,-0.627,0.162,0.147,0.035,0.504,0.286,0.463,-0.325,-0.022,-0.648,1.0,0.348,0.174,-0.092,0.289,-0.081
41,B2_2,-0.123,-0.297,0.005,-0.031,0.545,0.391,0.205,0.079,0.153,-0.155,0.348,1.0,0.376,0.34,0.147,0.156
41,B2_3,-0.381,0.13,-0.251,0.051,0.24,-0.015,0.377,-0.23,-0.036,-0.169,0.174,0.376,1.0,0.289,0.404,-0.32
41,y1,-0.036,-0.434,-0.288,-0.004,-0.271,0.114,-0.305,-0.396,0.136,-0.137,-0.092,0.34,0.289,1.0,-0.05,-0.349
41,y2,-0.374,0.014,0.033,-0.648,0.28,0.174,0.316,-0.024,-0.386,-0.233,0.289,0.147,0.404,-0.05,1.0,-0.086
41,y3,0.237,-0.478,-0.135,0.072,0.228,0.244,0.236,0.236,-0.248,-0.008,-0.081,0.156,-0.32,-0.349,-0.086,1.0
42,.,1.0,-0.197,-0.185,0.046,-0.603,-0.319,-0.633,0.342,-0.119,0.368,-0.637,-0.153,-0.392,-0.009,-0.349,0.239
42,A1_1,-0.197,1.0,0.379,-0.01,0.036,-0.415,0.235,0.112,0.372,0.109,0.151,-0.297,0.122,-0.439,0.005,-0.48
42,A1_2,-0.185,0.379,1.0,-0.035,0.35,0.443,-0.024,0.317,0.312,0.407,0.134,-0.002,-0.257,-0.297,0.019,-0.138
42,A1_3,0.046,-0.01,-0.035,1.0,0.124,-0.022,0.066,-0.024,0.444,0.219,0.02,-0.042,0.038,-0.012,-0.666,0.068
42,B1_1,-0.603,0.036,0.35,0.124,1.0,0.502,0.614,0.186,0.154,0.039,0.519,0.563,0.26,-0.283,0.266,0.222
42,B1_2,-0.319,-0.415,0.443,-0.022,0.502,1.0,0.128,0.033,-0.129,0.03,0.306,0.409,0.009,0.106,0.172,0.241
42,B1_3,-0.633,0.235,-0.024,0.066,0.614,0.128,1.0,0.201,0.18,-0.4,0.478,0.231,0.393,-0.316,0.305,0.23
42,A2_1,0.342,0.112,0.317,-0.024,0.186,0.033,0.201,1.0,0.228,0.411,-0.331,0.063,-0.236,-0.391,-0.021,0.232
42,A2_2,-0.119,0.372,0.312,0.444,0.154,-0.129,0.18,0.228,1.0,0.277,-0.032,0.142,-0.044,0.126,-0.401,-0.252
42,A2_3,0.368,0.109,0.407,0.219,0.039,0.03,-0.4,0.411,0.277,1.0,-0.646,-0.167,-0.175,-0.131,-0.226,-0.011
42,B2_1,-0.637,0.151,0.134,0.02,0.519,0.306,0.478,-0.331,-0.032,-0.646,1.0,0.372,0.196,-0.106,0.276,-0.082
42,B2_2,-0.153,-0.297,-0.002,-0.042,0.563,0.409,0.231,0.063,0.142,-0.167,0.372,1.0,0.395,0.329,0.148,0.151
42,B2_3,-0.392,0.122,-0.257,0.038,0.26,0.009,0.393,-0.236,-0.044,-0.175,0.196,0.395,1.0,0.276,0.397,-0.317
42,y1,-0.009,-0.439,-0.297,-0.012,-0.283,0.106,-0.316,-0.391,0.126,-0.131,-0.106,0.329,0.276,1.0,-0.06,-0.344
42,y2,-0.349,0.005,0.019,-0.666,0.266,0.172,0.305,-0.021,-0.401,-0.226,0.276,0.148,0.397,-0.06,1.0,-0.081
42,y3,0.239,-0.48,-0.138,0.068,0.222,0.241,0.23,0.232,-0.252,-0.011,-0.082,0.151,-0.317,-0.344,-0.081,1.0
43,.,1.0,-0.19,-0.171,0.058,-0.615,-0.336,-0.642,0.341,-0.109,0.364,-0.647,-0.179,-0.402,0.016,-0.322,0.24
43,A1_1,-0.19,1.0,0.385,-0.001,0.029,-0.415,0.225,0.121,0.378,0.118,0.14,-0.299,0.113,-0.444,-0.003,-0.481
43,A1_2,-0.171,0.385,1.0,-0.029,0.332,0.426,-0.034,0.327,0.319,0.419,0.117,-0.013,-0.265,-0.305,0.004,-0.141
43,A1_3,0.058,-0.001,-0.029,1.0,0.112,-0.033,0.055,-0.014,0.449,0.23,0.007,-0.052,0.027,-0.02,-0.683,0.064
43,B1_1,-0.615,0.029,0.332,0.112,1.0,0.517,0.624,0.174,0.143,0.031,0.534,0.579,0.28,-0.295,0.249,0.215
43,B1_2,-0.336,-0.415,0.426,-0.033,0.517,1.0,0.15,0.02,-0.135,0.019,0.325,0.426,0.032,0.097,0.166,0.237
43,B1_3,-0.642,0.225,-0.034,0.055,0.624,0.15,1.0,0.189,0.169,-0.401,0.492,0.255,0.407,-0.326,0.292,0.225
43,A2_1,0.341,0.121,0.327,-0.014,0.174,0.02,0.189,1.0,0.237,0.416,-0.336,0.047,-0.243,-0.386,-0.017,0.229
43,A2_2,-0.109,0.378,0.319,0.449,0.143,-0.135,0.169,0.237,1.0,0.287,-0.042,0.13,-0.052,0.116,-0.416,-0.255
43,A2_3,0.364,0.118,0.419,0.23,0.031,0.019,-0.401,0.416,0.287,1.0,-0.644,-0.178,-0.181,-0.126,-0.219,-0.014
43,B2_1,-0.647,0.14,0.117,0.007,0.534,0.325,0.492,-0.336,-0.042,-0.644,1.0,0.394,0.217,-0.119,0.261,-0.082
43,B2_2,-0.179,-0.299,-0.013,-0.052,0.579,0.426,0.255,0.047,0.13,-0.178,0.394,1.0,0.412,0.317,0.145,0.147
43,B2_3,-0.402,0.113,-0.265,0.027,0.28,0.032,0.407,-0.243,-0.052,-0.181,0.217,0.412,1.0,0.264,0.387,-0.313
43,y1,0.016,-0.444,-0.305,-0.02,-0.295,0.097,-0.326,-0.386,0.116,-0.126,-0.119,0.317,0.264,1.0,-0.068,-0.339
43,y2,-0.322,-0.003,0.004,-0.683,0.249,0.166,0.292,-0.017,-0.416,-0.219,0.261,0.145,0.387,-0.068,1.0,-0.075
43,y3,0.24,-0.481,-0.141,0.064,0.215,0.237,0.225,0.229,-0.255,-0.014,-0.082,0.147,-0.313,-0.339,-0.075,1.0
44,.,1.0,-0.185,-0.156,0.069,-0.626,-0.352,-0.65,0.339,-0.099,0.36,-0.655,-0.204,-0.411,0.039,-0.292,0.241
44,A1_1,-0.185,1.0,0.392,0.009,0.023,-0.416,0.215,0.129,0.385,0.126,0.129,-0.3,0.104,-0.449,-0.01,-0.483
44,A1_2,-0.156,0.392,1.0,-0.021,0.314,0.408,-0.045,0.336,0.326,0.431,0.101,-0.024,-0.274,-0.313,-0.011,-0.145
44,A1_3,0.069,0.009,-0.021,1.0,0.1,-0.043,0.045,-0.003,0.455,0.242,-0.006,-0.062,0.015,-0.027,-0.697,0.059
44,B1_1,-0.626,0.023,0.314,0.1,1.0,0.53,0.634,0.162,0.132,0.023,0.547,0.595,0.299,-0.306,0.23,0.209
44,B1_2,-0.352,-0.416,0.408,-0.043,0.53,1.0,0.171,0.009,-0.141,0.008,0.344,0.443,0.054,0.089,0.158,0.234
44,B1_3,-0.65,0.215,-0.045,0.045,0.634,0.171,1.0,0.178,0.157,-0.403,0.505,0.279,0.421,-0.335,0.276,0.22
44,A2_1,0.339,0.129,0.336,-0.003,0.162,0.009,0.178,1.0,0.247,0.421,-0.341,0.032,-0.249,-0.382,-0.013,0.224
44,A2_2,-0.099,0.385,0.326,0.455,0.132,-0.141,0.157,0.247,1.0,0.298,-0.052,0.117,-0.061,0.106,-0.429,-0.259
44,A2_3,0.36,0.126,0.431,0.242,0.023,0.008,-0.403,0.421,0.298,1.0,-0.641,-0.188,-0.186,-0.121,-0.211,-0.018
44,B2_1,-0.655,0.129,0.101,-0.006,0.547,0.344,0.505,-0.341,-0.052,-0.641,1.0,0.416,0.236,-0.13,0.243,-0.082
44,B2_2,-0.204,-0.3,-0.024,-0.062,0.595,0.443,0.279,0.032,0.117,-0.188,0.416,1.0,0.429,0.305,0.139,0.144
44,B2_3,-0.411,0.104,-0.274,0.015,0.299,0.054,0.421,-0.249,-0.061,-0.186,0.236,0.429,1.0,0.251,0.375,-0.309
44,y1,0.039,-0.449,-0.313,-0.027,-0.306,0.089,-0.335,-0.382,0.106,-0.121,-0.13,0.305,0.251,1.0,-0.074,-0.333
44,y2,-0.292,-0.01,-0.011,-0.697,0.23,0.158,0.276,-0.013,-0.429,-0.211,0.243,0.139,0.375,-0.074,1.0,-0.068
44,y3,0.241,-0.483,-0.145,0.059,0.209,0.234,0.22,0.224,-0.259,-0.018,-0.082,0.144,-0.309,-0.333,-0.068,1.0
45,.,1.0,-0.18,-0.148,0.079,-0.636,-0.367,-0.658,0.336,-0.09,0.356,-0.662,-0.226,-0.419,0.062,-0.262,0.239
45,A1_1,-0.18,1.0,0.399,0.019,0.017,-0.415,0.205,0.138,0.392,0.135,0.119,-0.301,0.096,-0.453,-0.017,-0.485
45,A1_2,-0.148,0.399,1.0,-0.013,0.3,0.392,-0.052,0.344,0.334,0.441,0.089,-0.032,-0.279,-0.319,-0.022,-0.148
45,A1_3,0.079,0.019,-0.013,1.0,0.088,-0.054,0.034,0.007,0.461,0.253,-0.018,-0.073,0.003,-0.034,-0.71,0.053
45,B1_1,-0.636,0.017,0.3,0.088,1.0,0.544,0.644,0.151,0.12,0.016,0.561,0.61,0.317,-0.317,0.21,0.207
45,B1_2,-0.367,-0.415,0.392,-0.054,0.544,1.0,0.192,-0.002,-0.148,-0.002,0.361,0.459,0.075,0.08,0.149,0.233
45,B1_3,-0.658,0.205,-0.052,0.034,0.644,0.192,1.0,0.167,0.144,-0.404,0.518,0.301,0.435,-0.344,0.259,0.219
45,A2_1,0.336,0.138,0.344,0.007,0.151,-0.002,0.167,1.0,0.257,0.426,-0.345,0.018,-0.255,-0.377,-0.009,0.218
45,A2_2,-0.09,0.392,0.334,0.461,0.12,-0.148,0.144,0.257,1.0,0.309,-0.062,0.104,-0.069,0.096,-0.441,-0.263
45,A2_3,0.356,0.135,0.441,0.253,0.016,-0.002,-0.404,0.426,0.309,1.0,-0.639,-0.197,-0.191,-0.117,-0.203,-0.024
45,B2_1,-0.662,0.119,0.089,-0.018,0.561,0.361,0.518,-0.345,-0.062,-0.639,1.0,0.436,0.255,-0.143,0.224,-0.078
45,B2_2,-0.226,-0.301,-0.032,-0.073,0.61,0.459,0.301,0.018,0.104,-0.197,0.436,1.0,0.445,0.292,0.131,0.144
45,B2_3,-0.419,0.096,-0.279,0.003,0.317,0.075,0.435,-0.255,-0.069,-0.191,0.255,0.445,1.0,0.239,0.362,-0.303
45,y1,0.062,-0.453,-0.319,-0.034,-0.317,0.08,-0.344,-0.377,0.096,-0.117,-0.143,0.292,0.239,1.0,-0.078,-0.326
45,y2,-0.262,-0.017,-0.022,-0.71,0.21,0.149,0.259,-0.009,-0.441,-0.203,0.224,0.131,0.362,-0.078,1.0,-0.06
45,y3,0.239,-0.485,-0.148,0.053,0.207,0.233,0.219,0.218,-0.263,-0.024,-0.078,0.144,-0.303,-0.326,-0.06,1.0
46,.,1.0,-0.176,-0.139,0.092,-0.644,-0.38,-0.665,0.333,-0.082,0.351,-0.669,-0.246,-0.427,0.081,-0.233,0.238
46,A1_1,-0.176,1.0,0.405,0.031,0.011,-0.415,0.196,0.146,0.399,0.143,0.109,-0.303,0.088,-0.457,-0.024,-0.488
46,A1_2,-0.139,0.405,1.0,-0.004,0.287,0.377,-0.06,0.352,0.342,0.451,0.076,-0.041,-0.284,-0.325,-0.034,-0.152
46,A1_3,0.092,0.031,-0.004,1.0,0.072,-0.068,0.02,0.02,0.468,0.267,-0.035,-0.088,-0.012,-0.041,-0.722,0.047
46,B1_1,-0.644,0.011,0.287,0.072,1.0,0.556,0.653,0.143,0.109,0.01,0.573,0.623,0.333,-0.326,0.19,0.204
46,B1_2,-0.38,-0.415,0.377,-0.068,0.556,1.0,0.212,-0.012,-0.154,-0.011,0.378,0.474,0.096,0.073,0.14,0.232
46,B1_3,-0.665,0.196,-0.06,0.02,0.653,0.212,1.0,0.157,0.133,-0.404,0.53,0.322,0.449,-0.351,0.242,0.216
46,A2_1,0.333,0.146,0.352,0.02,0.143,-0.012,0.157,1.0,0.266,0.43,-0.348,0.005,-0.26,-0.374,-0.005,0.212
46,A2_2,-0.082,0.399,0.342,0.468,0.109,-0.154,0.133,0.266,1.0,0.319,-0.071,0.092,-0.077,0.086,-0.451,-0.268
46,A2_3,0.351,0.143,0.451,0.267,0.01,-0.011,-0.404,0.43,0.319,1.0,-0.636,-0.205,-0.196,-0.115,-0.196,-0.029
46,B2_1,-0.669,0.109,0.076,-0.035,0.573,0.378,0.53,-0.348,-0.071,-0.636,1.0,0.455,0.274,-0.152,0.205,-0.075
46,B2_2,-0.246,-0.303,-0.041,-0.088,0.623,0.474,0.322,0.005,0.092,-0.205,0.455,1.0,0.46,0.281,0.122,0.143
46,B2_3,-0.427,0.088,-0.284,-0.012,0.333,0.096,0.449,-0.26,-0.077,-0.196,0.274,0.46,1.0,0.228,0.348,-0.297
46,y1,0.081,-0.457,-0.325,-0.041,-0.326,0.073,-0.351,-0.374,0.086,-0.115,-0.152,0.281,0.228,1.0,-0.078,-0.319
46,y2,-0.233,-0.024,-0.034,-0.722,0.19,0.14,0.242,-0.005,-0.451,-0.196,0.205,0.122,0.348,-0.078,1.0,-0.052
46,y3,0.238,-0.488,-0.152,0.047,0.204,0.232,0.216,0.212,-0.268,-0.029,-0.075,0.143,-0.297,-0.319,-0.052,1.0
47,.,1.0,-0.172,-0.131,0.106,-0.651,-0.392,-0.671,0.329,-0.075,0.345,-0.674,-0.265,-0.434,0.098,-0.204,0.236
47,A1_1,-0.172,1.0,0.412,0.043,0.006,-0.415,0.187,0.155,0.406,0.152,0.1,-0.304,0.08,-0.461,-0.03,-0.49
47,A1_2,-0.131,0.412,1.0,0.007,0.274,0.361,-0.067,0.361,0.35,0.46,0.064,-0.05,-0.289,-0.33,-0.044,-0.156
47,A1_3,0.106,0.043,0.007,1.0,0.056,-0.082,0.005,0.033,0.475,0.281,-0.052,-0.102,-0.026,-0.047,-0.731,0.041
47,B1_1,-0.651,0.006,0.274,0.056,1.0,0.567,0.661,0.135,0.099,0.006,0.584,0.636,0.348,-0.334,0.169,0.202
47,B1_2,-0.392,-0.415,0.361,-0.082,0.567,1.0,0.231,-0.022,-0.16,-0.019,0.394,0.488,0.115,0.066,0.129,0.232
47,B1_3,-0.671,0.187,-0.067,0.005,0.661,0.231,1.0,0.148,0.122,-0.404,0.541,0.342,0.461,-0.357,0.224,0.215
47,A2_1,0.329,0.155,0.361,0.033,0.135,-0.022,0.148,1.0,0.276,0.435,-0.351,-0.007,-0.264,-0.371,-0.001,0.206
47,A2_2,-0.075,0.406,0.35,0.475,0.099,-0.16,0.122,0.276,1.0,0.329,-0.08,0.08,-0.085,0.076,-0.46,-0.273
47,A2_3,0.345,0.152,0.46,0.281,0.006,-0.019,-0.404,0.435,0.329,1.0,-0.632,-0.212,-0.199,-0.114,-0.188,-0.035
47,B2_1,-0.674,0.1,0.064,-0.052,0.584,0.394,0.541,-0.351,-0.08,-0.632,1.0,0.472,0.29,-0.16,0.186,-0.071
47,B2_2,-0.265,-0.304,-0.05,-0.102,0.636,0.488,0.342,-0.007,0.08,-0.212,0.472,1.0,0.475,0.27,0.112,0.143
47,B2_3,-0.434,0.08,-0.289,-0.026,0.348,0.115,0.461,-0.264,-0.085,-0.199,0.29,0.475,1.0,0.218,0.334,-0.291
47,y1,0.098,-0.461,-0.33,-0.047,-0.334,0.066,-0.357,-0.371,0.076,-0.114,-0.16,0.27,0.218,1.0,-0.076,-0.312
47,y2,-0.204,-0.03,-0.044,-0.731,0.169,0.129,0.224,-0.001,-0.46,-0.188,0.186,0.112,0.334,-0.076,1.0,-0.044
47,y3,0.236,-0.49,-0.156,0.041,0.202,0.232,0.215,0.206,-0.273,-0.035,-0.071,0.143,-0.291,-0.312,-0.044,1.0
48,.,1.0,-0.165,-0.123,0.111,-0.658,-0.403,-0.676,0.325,-0.068,0.34,-0.679,-0.281,-0.44,0.113,-0.171,0.23
48,A1_1,-0.165,1.0,0.42,0.055,-0.002,-0.418,0.176,0.165,0.413,0.162,0.087,-0.308,0.07,-0.465,-0.037,-0.494
48,A1_2,-0.123,0.42,1.0,0.018,0.262,0.346,-0.074,0.369,0.359,0.47,0.053,-0.059,-0.295,-0.335,-0.054,-0.161
48,A1_3,0.111,0.055,0.018,1.0,0.046,-0.091,-0.003,0.044,0.483,0.291,-0.063,-0.112,-0.036,-0.054,-0.738,0.033
48,B1_1,-0.658,-0.002,0.262,0.046,1.0,0.578,0.668,0.127,0.09,0.002,0.594,0.647,0.363,-0.339,0.146,0.205
48,B1_2,-0.403,-0.418,0.346,-0.091,0.578,1.0,0.247,-0.03,-0.166,-0.026,0.409,0.502,0.133,0.061,0.115,0.235
48,B1_3,-0.676,0.176,-0.074,-0.003,0.668,0.247,1.0,0.141,0.112,-0.404,0.551,0.359,0.472,-0.362,0.203,0.217
48,A2_1,0.325,0.165,0.369,0.044,0.127,-0.03,0.141,1.0,0.286,0.439,-0.353,-0.017,-0.268,-0.37,0.003,0.197
48,A2_2,-0.068,0.413,0.359,0.483,0.09,-0.166,0.112,0.286,1.0,0.339,-0.089,0.068,-0.092,0.065,-0.468,-0.279
48,A2_3,0.34,0.162,0.47,0.291,0.002,-0.026,-0.404,0.439,0.339,1.0,-0.629,-0.218,-0.203,-0.114,-0.179,-0.044
48,B2_1,-0.679,0.087,0.053,-0.063,0.594,0.409,0.551,-0.353,-0.089,-0.629,1.0,0.488,0.306,-0.167,0.163,-0.063
48,B2_2,-0.281,-0.308,-0.059,-0.112,0.647,0.502,0.359,-0.017,0.068,-0.218,0.488,1.0,0.487,0.261,0.098,0.147
48,B2_3,-0.44,0.07,-0.295,-0.036,0.363,0.133,0.472,-0.268,-0.092,-0.203,0.306,0.487,1.0,0.21,0.317,-0.281
48,y1,0.113,-0.465,-0.335,-0.054,-0.339,0.061,-0.362,-0.37,0.065,-0.114,-0.167,0.261,0.21,1.0,-0.072,-0.305
48,y2,-0.171,-0.037,-0.054,-0.738,0.146,0.115,0.203,0.003,-0.468,-0.179,0.163,0.098,0.317,-0.072,1.0,-0.034
48,y3,0.23,-0.494,-0.161,0.033,0.205,0.235,0.217,0.197,-0.279,-0.044,-0.063,0.147,-0.281,-0.305,-0.034,1.0
49,.,1.0,-0.162,-0.117,0.115,-0.664,-0.413,-0.681,0.32,-0.056,0.333,-0.683,-0.295,-0.445,0.131,-0.147,0.225
49,A1_1,-0.162,1.0,0.427,0.066,-0.007,-0.418,0.168,0.174,0.421,0.17,0.079,-0.309,0.063,-0.469,-0.044,-0.497
49,A1_2,-0.117,0.427,1.0,0.029,0.25,0.332,-0.08,0.377,0.369,0.479,0.042,-0.068,-0.299,-0.34,-0.063,-0.166
49,A1_3,0.115,0.066,0.029,1.0,0.038,-0.099,-0.011,0.054,0.49,0.3,-0.072,-0.12,-0.045,-0.061,-0.742,0.024
49,B1_1,-0.664,-0.007,0.25,0.038,1.0,0.588,0.675,0.121,0.075,-0.002,0.604,0.658,0.376,-0.349,0.129,0.207
49,B1_2,-0.413,-0.418,0.332,-0.099,0.588,1.0,0.262,-0.038,-0.176,-0.032,0.422,0.514,0.149,0.053,0.106,0.239
49,B1_3,-0.681,0.168,-0.08,-0.011,0.675,0.262,1.0,0.134,0.097,-0.403,0.561,0.375,0.482,-0.37,0.188,0.22
49,A2_1,0.32,0.174,0.377,0.054,0.121,-0.038,0.134,1.0,0.297,0.443,-0.355,-0.027,-0.272,-0.367,0.004,0.188
49,A2_2,-0.056,0.421,0.369,0.49,0.075,-0.176,0.097,0.297,1.0,0.351,-0.103,0.052,-0.104,0.055,-0.477,-0.285
49,A2_3,0.333,0.17,0.479,0.3,-0.002,-0.032,-0.403,0.443,0.351,1.0,-0.625,-0.223,-0.205,-0.113,-0.175,-0.052
49,B2_1,-0.683,0.079,0.042,-0.072,0.604,0.422,0.561,-0.355,-0.103,-0.625,1.0,0.503,0.32,-0.177,0.148,-0.056
49,B2_2,-0.295,-0.309,-0.068,-0.12,0.658,0.514,0.375,-0.027,0.052,-0.223,0.503,1.0,0.499,0.248,0.089,0.151
49,B2_3,-0.445,0.063,-0.299,-0.045,0.376,0.149,0.482,-0.272,-0.104,-0.205,0.32,0.499,1.0,0.199,0.305,-0.272
49,y1,0.131,-0.469,-0.34,-0.061,-0.349,0.053,-0.37,-0.367,0.055,-0.113,-0.177,0.248,0.199,1.0,-0.068,-0.297
49,y2,-0.147,-0.044,-0.063,-0.742,0.129,0.106,0.188,0.004,-0.477,-0.175,0.148,0.089,0.305,-0.068,1.0,-0.024
49,y3,0.225,-0.497,-0.166,0.024,0.207,0.239,0.22,0.188,-0.285,-0.052,-0.056,0.151,-0.272,-0.297,-0.024,1.0
50,.,1.0,-0.16,-0.112,0.119,-0.669,-0.421,-0.684,0.315,-0.052,0.327,-0.686,-0.307,-0.45,0.145,-0.121,0.219
50,A1_1,-0.16,1.0,0.434,0.078,-0.011,-0.418,0.161,0.183,0.429,0.179,0.072,-0.31,0.057,-0.474,-0.051,-0.501
50,A1_2,-0.112,0.434,1.0,0.04,0.239,0.318,-0.086,0.386,0.378,0.487,0.032,-0.076,-0.304,-0.345,-0.072,-0.172
50,A1_3,0.119,0.078,0.04,1.0,0.029,-0.108,-0.018,0.065,0.498,0.31,-0.081,-0.13,-0.054,-0.068,-0.745,0.014
50,B1_1,-0.669,-0.011,0.239,0.029,1.0,0.596,0.681,0.115,0.067,-0.006,0.612,0.667,0.388,-0.355,0.111,0.211
50,B1_2,-0.421,-0.418,0.318,-0.108,0.596,1.0,0.276,-0.045,-0.181,-0.038,0.433,0.524,0.164,0.048,0.095,0.243
50,B1_3,-0.684,0.161,-0.086,-0.018,0.681,0.276,1.0,0.128,0.088,-0.402,0.569,0.389,0.491,-0.375,0.172,0.223
50,A2_1,0.315,0.183,0.386,0.065,0.115,-0.045,0.128,1.0,0.307,0.448,-0.356,-0.036,-0.275,-0.366,0.005,0.179
50,A2_2,-0.052,0.429,0.378,0.498,0.067,-0.181,0.088,0.307,1.0,0.36,-0.11,0.042,-0.111,0.044,-0.483,-0.292
50,A2_3,0.327,0.179,0.487,0.31,-0.006,-0.038,-0.402,0.448,0.36,1.0,-0.622,-0.228,-0.208,-0.115,-0.17,-0.061
50,B2_1,-0.686,0.072,0.032,-0.081,0.612,0.433,0.569,-0.356,-0.11,-0.622,1.0,0.515,0.332,-0.183,0.13,-0.048
50,B2_2,-0.307,-0.31,-0.076,-0.13,0.667,0.524,0.389,-0.036,0.042,-0.228,0.515,1.0,0.509,0.239,0.078,0.156
50,B2_3,-0.45,0.057,-0.304,-0.054,0.388,0.164,0.491,-0.275,-0.111,-0.208,0.332,0.509,1.0,0.191,0.292,-0.262
50,y1,0.145,-0.474,-0.345,-0.068,-0.355,0.048,-0.375,-0.366,0.044,-0.115,-0.183,0.239,0.191,1.0,-0.061,-0.289
50,y2,-0.121,-0.051,-0.072,-0.745,0.111,0.095,0.172,0.005,-0.483,-0.17,0.13,0.078,0.292,-0.061,1.0,-0.014
50,y3,0.219,-0.501,-0.172,0.014,0.211,0.243,0.223,0.179,-0.292,-0.061,-0.048,0.156,-0.262,-0.289,-0.014,1.0
51,.,1.0,-0.158,-0.107,0.122,-0.674,-0.428,-0.688,0.31,-0.041,0.321,-0.688,-0.318,-0.453,0.153,-0.099,0.219
51,A1_1,-0.158,1.0,0.442,0.09,-0.015,-0.417,0.154,0.192,0.437,0.187,0.065,-0.312,0.051,-0.479,-0.058,-0.505
51,A1_2,-0.107,0.442,1.0,0.052,0.229,0.306,-0.091,0.394,0.387,0.496,0.023,-0.083,-0.308,-0.35,-0.081,-0.178
51,A1_3,0.122,0.09,0.052,1.0,0.022,-0.115,-0.025,0.075,0.506,0.32,-0.09,-0.138,-0.063,-0.077,-0.748,0.006
51,B1_1,-0.674,-0.015,0.229,0.022,1.0,0.604,0.687,0.11,0.053,-0.008,0.62,0.675,0.398,-0.355,0.096,0.209
51,B1_2,-0.428,-0.417,0.306,-0.115,0.604,1.0,0.289,-0.051,-0.191,-0.043,0.444,0.534,0.177,0.047,0.087,0.244
51,B1_3,-0.688,0.154,-0.091,-0.025,0.687,0.289,1.0,0.123,0.074,-0.4,0.576,0.402,0.499,-0.375,0.158,0.222
51,A2_1,0.31,0.192,0.394,0.075,0.11,-0.051,0.123,1.0,0.319,0.452,-0.357,-0.044,-0.277,-0.369,0.004,0.171
51,A2_2,-0.041,0.437,0.387,0.506,0.053,-0.191,0.074,0.319,1.0,0.372,-0.123,0.027,-0.122,0.032,-0.489,-0.298
51,A2_3,0.321,0.187,0.496,0.32,-0.008,-0.043,-0.4,0.452,0.372,1.0,-0.618,-0.231,-0.21,-0.12,-0.168,-0.068
51,B2_1,-0.688,0.065,0.023,-0.09,0.62,0.444,0.576,-0.357,-0.123,-0.618,1.0,0.527,0.343,-0.184,0.116,-0.044
51,B2_2,-0.318,-0.312,-0.083,-0.138,0.675,0.534,0.402,-0.044,0.027,-0.231,0.527,1.0,0.519,0.235,0.07,0.157
51,B2_3,-0.453,0.051,-0.308,-0.063,0.398,0.177,0.499,-0.277,-0.122,-0.21,0.343,0.519,1.0,0.188,0.281,-0.257
51,y1,0.153,-0.479,-0.35,-0.077,-0.355,0.047,-0.375,-0.369,0.032,-0.12,-0.184,0.235,0.188,1.0,-0.052,-0.281
51,y2,-0.099,-0.058,-0.081,-0.748,0.096,0.087,0.158,0.004,-0.489,-0.168,0.116,0.07,0.281,-0.052,1.0,-0.005
51,y3,0.219,-0.505,-0.178,0.006,0.209,0.244,0.222,0.171,-0.298,-0.068,-0.044,0.157,-0.257,-0.281,-0.005,1.0
52,.,1.0,-0.156,-0.103,0.132,-0.678,-0.433,-0.69,0.304,-0.038,0.313,-0.69,-0.327,-0.457,0.159,-0.08,0.217
52,A1_1,-0.156,1.0,0.449,0.103,-0.018,-0.417,0.148,0.201,0.444,0.195,0.058,-0.313,0.045,-0.486,-0.065,-0.508
52,A1_2,-0.103,0.449,1.0,0.066,0.221,0.294,-0.095,0.402,0.397,0.504,0.015,-0.09,-0.311,-0.356,-0.09,-0.184
52,A1_3,0.132,0.103,0.066,1.0,0.008,-0.129,-0.038,0.089,0.515,0.333,-0.105,-0.152,-0.077,-0.087,-0.751,-0.005
52,B1_1,-0.678,-0.018,0.221,0.008,1.0,0.611,0.692,0.106,0.046,-0.009,0.628,0.683,0.408,-0.354,0.083,0.21
52,B1_2,-0.433,-0.417,0.294,-0.129,0.611,1.0,0.3,-0.056,-0.195,-0.046,0.453,0.542,0.189,0.048,0.08,0.246
52,B1_3,-0.69,0.148,-0.095,-0.038,0.692,0.3,1.0,0.119,0.067,-0.398,0.583,0.414,0.507,-0.373,0.146,0.223
52,A2_1,0.304,0.201,0.402,0.089,0.106,-0.056,0.119,1.0,0.328,0.456,-0.357,-0.05,-0.28,-0.372,0.002,0.162
52,A2_2,-0.038,0.444,0.397,0.515,0.046,-0.195,0.067,0.328,1.0,0.381,-0.129,0.018,-0.127,0.018,-0.494,-0.305
52,A2_3,0.313,0.195,0.504,0.333,-0.009,-0.046,-0.398,0.456,0.381,1.0,-0.614,-0.234,-0.211,-0.127,-0.166,-0.075
52,B2_1,-0.69,0.058,0.015,-0.105,0.628,0.453,0.583,-0.357,-0.129,-0.614,1.0,0.537,0.354,-0.183,0.104,-0.039
52,B2_2,-0.327,-0.313,-0.09,-0.152,0.683,0.542,0.414,-0.05,0.018,-0.234,0.537,1.0,0.527,0.233,0.063,0.16
52,B2_3,-0.457,0.045,-0.311,-0.077,0.408,0.189,0.507,-0.28,-0.127,-0.211,0.354,0.527,1.0,0.186,0.271,-0.25
52,y1,0.159,-0.486,-0.356,-0.087,-0.354,0.048,-0.373,-0.372,0.018,-0.127,-0.183,0.233,0.186,1.0,-0.041,-0.272
52,y2,-0.08,-0.065,-0.09,-0.751,0.083,0.08,0.146,0.002,-0.494,-0.166,0.104,0.063,0.271,-0.041,1.0,0.004
52,y3,0.217,-0.508,-0.184,-0.005,0.21,0.246,0.223,0.162,-0.305,-0.075,-0.039,0.16,-0.25,-0.272,0.004,1.0
53,.,1.0,-0.155,-0.1,0.141,-0.681,-0.438,-0.693,0.297,-0.036,0.306,-0.692,-0.335,-0.46,0.164,-0.056,0.209
53,A1_1,-0.155,1.0,0.457,0.117,-0.021,-0.417,0.142,0.211,0.451,0.203,0.052,-0.314,0.039,-0.493,-0.072,-0.513
53,A1_2,-0.1,0.457,1.0,0.08,0.212,0.282,-0.099,0.411,0.406,0.512,0.007,-0.097,-0.315,-0.363,-0.098,-0.19
53,A1_3,0.141,0.117,0.08,1.0,-0.006,-0.141,-0.051,0.102,0.523,0.345,-0.12,-0.166,-0.09,-0.097,-0.752,-0.016
53,B1_1,-0.681,-0.021,0.212,-0.006,1.0,0.617,0.697,0.103,0.041,-0.01,0.634,0.69,0.418,-0.353,0.066,0.216
53,B1_2,-0.438,-0.417,0.282,-0.141,0.617,1.0,0.309,-0.061,-0.198,-0.049,0.462,0.55,0.2,0.049,0.07,0.253
53,B1_3,-0.693,0.142,-0.099,-0.051,0.697,0.309,1.0,0.116,0.06,-0.396,0.59,0.425,0.514,-0.372,0.13,0.228
53,A2_1,0.297,0.211,0.411,0.102,0.103,-0.061,0.116,1.0,0.337,0.46,-0.357,-0.056,-0.281,-0.376,0.002,0.15
53,A2_2,-0.036,0.451,0.406,0.523,0.041,-0.198,0.06,0.337,1.0,0.389,-0.134,0.01,-0.132,0.005,-0.498,-0.313
53,A2_3,0.306,0.203,0.512,0.345,-0.01,-0.049,-0.396,0.46,0.389,1.0,-0.609,-0.236,-0.212,-0.134,-0.164,-0.086
53,B2_1,-0.692,0.052,0.007,-0.12,0.634,0.462,0.59,-0.357,-0.134,-0.609,1.0,0.546,0.364,-0.182,0.089,-0.029
53,B2_2,-0.335,-0.314,-0.097,-0.166,0.69,0.55,0.425,-0.056,0.01,-0.236,0.546,1.0,0.535,0.231,0.053,0.167
53,B2_3,-0.46,0.039,-0.315,-0.09,0.418,0.2,0.514,-0.281,-0.132,-0.212,0.364,0.535,1.0,0.185,0.258,-0.238
53,y1,0.164,-0.493,-0.363,-0.097,-0.353,0.049,-0.372,-0.376,0.005,-0.134,-0.182,0.231,0.185,1.0,-0.029,-0.262
53,y2,-0.056,-0.072,-0.098,-0.752,0.066,0.07,0.13,0.002,-0.498,-0.164,0.089,0.053,0.258,-0.029,1.0,0.015
53,y3,0.209,-0.513,-0.19,-0.016,0.216,0.253,0.228,0.15,-0.313,-0.086,-0.029,0.167,-0.238,-0.262,0.015,1.0
54,.,1.0,-0.153,-0.088,0.14,-0.684,-0.443,-0.695,0.291,-0.035,0.298,-0.693,-0.341,-0.462,0.177,-0.043,0.202
54,A1_1,-0.153,1.0,0.466,0.128,-0.023,-0.416,0.137,0.22,0.458,0.212,0.046,-0.315,0.034,-0.498,-0.081,-0.518
54,A1_2,-0.088,0.466,1.0,0.094,0.197,0.264,-0.11,0.422,0.417,0.523,-0.008,-0.11,-0.324,-0.367,-0.108,-0.198
54,A1_3,0.14,0.128,0.094,1.0,-0.009,-0.147,-0.054,0.112,0.531,0.353,-0.125,-0.171,-0.095,-0.106,-0.753,-0.028
54,B1_1,-0.684,-0.023,0.197,-0.009,1.0,0.623,0.701,0.102,0.036,-0.01,0.64,0.695,0.426,-0.359,0.058,0.221
54,B1_2,-0.443,-0.416,0.264,-0.147,0.623,1.0,0.319,-0.065,-0.201,-0.052,0.47,0.557,0.21,0.045,0.067,0.26
54,B1_3,-0.695,0.137,-0.11,-0.054,0.701,0.319,1.0,0.113,0.055,-0.393,0.595,0.434,0.52,-0.377,0.122,0.234
54,A2_1,0.291,0.22,0.422,0.112,0.102,-0.065,0.113,1.0,0.346,0.465,-0.356,-0.062,-0.283,-0.377,-0.003,0.139
54,A2_2,-0.035,0.458,0.417,0.531,0.036,-0.201,0.055,0.346,1.0,0.397,-0.138,0.003,-0.136,-0.008,-0.504,-0.322
54,A2_3,0.298,0.212,0.523,0.353,-0.01,-0.052,-0.393,0.465,0.397,1.0,-0.605,-0.238,-0.213,-0.138,-0.166,-0.097
54,B2_1,-0.693,0.046,-0.008,-0.125,0.64,0.47,0.595,-0.356,-0.138,-0.605,1.0,0.554,0.372,-0.188,0.082,-0.019
54,B2_2,-0.341,-0.315,-0.11,-0.171,0.695,0.557,0.434,-0.062,0.003,-0.238,0.554,1.0,0.542,0.224,0.05,0.175
54,B2_3,-0.462,0.034,-0.324,-0.095,0.426,0.21,0.52,-0.283,-0.136,-0.213,0.372,0.542,1.0,0.178,0.253,-0.227
54,y1,0.177,-0.498,-0.367,-0.106,-0.359,0.045,-0.377,-0.377,-0.008,-0.138,-0.188,0.224,0.178,1.0,-0.019,-0.253
54,y2,-0.043,-0.081,-0.108,-0.753,0.058,0.067,0.122,-0.003,-0.504,-0.166,0.082,0.05,0.253,-0.019,1.0,0.026
54,y3,0.202,-0.518,-0.198,-0.028,0.221,0.26,0.234,0.139,-0.322,-0.097,-0.019,0.175,-0.227,-0.253,0.026,1.0
55,.,1.0,-0.147,-0.087,0.138,-0.687,-0.447,-0.696,0.283,-0.033,0.291,-0.693,-0.347,-0.464,0.179,-0.031,0.202
55,A1_1,-0.147,1.0,0.474,0.142,-0.031,-0.419,0.127,0.231,0.466,0.222,0.036,-0.319,0.025,-0.505,-0.091,-0.522
55,A1_2,-0.087,0.474,1.0,0.107,0.19,0.255,-0.113,0.43,0.426,0.531,-0.015,-0.115,-0.326,-0.375,-0.117,-0.205
55,A1_3,0.138,0.142,0.107,1.0,-0.013,-0.151,-0.058,0.122,0.538,0.361,-0.129,-0.176,-0.101,-0.119,-0.755,-0.039
55,B1_1,-0.687,-0.031,0.19,-0.013,1.0,0.628,0.705,0.1,0.031,-0.009,0.645,0.701,0.433,-0.355,0.052,0.221
55,B1_2,-0.447,-0.419,0.255,-0.151,0.628,1.0,0.327,-0.068,-0.205,-0.053,0.477,0.563,0.218,0.049,0.065,0.261
55,B1_3,-0.696,0.127,-0.113,-0.058,0.705,0.327,1.0,0.111,0.049,-0.39,0.6,0.442,0.526,-0.373,0.116,0.233
55,A2_1,0.283,0.231,0.43,0.122,0.1,-0.068,0.111,1.0,0.356,0.469,-0.355,-0.066,-0.284,-0.383,-0.009,0.129
55,A2_2,-0.033,0.466,0.426,0.538,0.031,-0.205,0.049,0.356,1.0,0.405,-0.142,-0.004,-0.14,-0.023,-0.509,-0.329
55,A2_3,0.291,0.222,0.531,0.361,-0.009,-0.053,-0.39,0.469,0.405,1.0,-0.6,-0.239,-0.213,-0.148,-0.169,-0.104
55,B2_1,-0.693,0.036,-0.015,-0.129,0.645,0.477,0.6,-0.355,-0.142,-0.6,1.0,0.562,0.38,-0.184,0.077,-0.016
55,B2_2,-0.347,-0.319,-0.115,-0.176,0.701,0.563,0.442,-0.066,-0.004,-0.239,0.562,1.0,0.548,0.225,0.048,0.177
55,B2_3,-0.464,0.025,-0.326,-0.101,0.433,0.218,0.526,-0.284,-0.14,-0.213,0.38,0.548,1.0,0.179,0.248,-0.222
55,y1,0.179,-0.505,-0.375,-0.119,-0.355,0.049,-0.373,-0.383,-0.023,-0.148,-0.184,0.225,0.179,1.0,-0.006,-0.241
55,y2,-0.031,-0.091,-0.117,-0.755,0.052,0.065,0.116,-0.009,-0.509,-0.169,0.077,0.048,0.248,-0.006,1.0,0.037
55,y3,0.202,-0.522,-0.205,-0.039,0.221,0.261,0.233,0.129,-0.329,-0.104,-0.016,0.177,-0.222,-0.241,0.037,1.0
56,.,1.0,-0.142,-0.085,0.136,-0.689,-0.45,-0.697,0.276,-0.032,0.283,-0.693,-0.352,-0.466,0.181,-0.011,0.197
56,A1_1,-0.142,1.0,0.482,0.155,-0.037,-0.422,0.119,0.243,0.474,0.233,0.027,-0.324,0.017,-0.513,-0.099,-0.526
56,A1_2,-0.085,0.482,1.0,0.121,0.184,0.245,-0.116,0.438,0.436,0.538,-0.021,-0.121,-0.328,-0.382,-0.125,-0.212
56,A1_3,0.136,0.155,0.121,1.0,-0.015,-0.155,-0.06,0.133,0.546,0.369,-0.133,-0.181,-0.106,-0.132,-0.756,-0.051
56,B1_1,-0.689,-0.037,0.184,-0.015,1.0,0.633,0.708,0.099,0.027,-0.009,0.65,0.705,0.44,-0.351,0.038,0.225
56,B1_2,-0.45,-0.422,0.245,-0.155,0.633,1.0,0.334,-0.071,-0.207,-0.055,0.483,0.569,0.227,0.053,0.057,0.266
56,B1_3,-0.697,0.119,-0.116,-0.06,0.708,0.334,1.0,0.109,0.044,-0.386,0.605,0.449,0.53,-0.369,0.103,0.237
56,A2_1,0.276,0.243,0.438,0.133,0.099,-0.071,0.109,1.0,0.365,0.474,-0.354,-0.07,-0.285,-0.389,-0.013,0.118
56,A2_2,-0.032,0.474,0.436,0.546,0.027,-0.207,0.044,0.365,1.0,0.413,-0.146,-0.01,-0.144,-0.039,-0.513,-0.337
56,A2_3,0.283,0.233,0.538,0.369,-0.009,-0.055,-0.386,0.474,0.413,1.0,-0.596,-0.239,-0.213,-0.158,-0.169,-0.114
56,B2_1,-0.693,0.027,-0.021,-0.133,0.65,0.483,0.605,-0.354,-0.146,-0.596,1.0,0.568,0.387,-0.179,0.064,-0.008
56,B2_2,-0.352,-0.324,-0.121,-0.181,0.705,0.569,0.449,-0.07,-0.01,-0.239,0.568,1.0,0.554,0.227,0.04,0.183
56,B2_3,-0.466,0.017,-0.328,-0.106,0.44,0.227,0.53,-0.285,-0.144,-0.213,0.387,0.554,1.0,0.18,0.238,-0.212
56,y1,0.181,-0.513,-0.382,-0.132,-0.351,0.053,-0.369,-0.389,-0.039,-0.158,-0.179,0.227,0.18,1.0,0.008,-0.23
56,y2,-0.011,-0.099,-0.125,-0.756,0.038,0.057,0.103,-0.013,-0.513,-0.169,0.064,0.04,0.238,0.008,1.0,0.047
56,y3,0.197,-0.526,-0.212,-0.051,0.225,0.266,0.237,0.118,-0.337,-0.114,-0.008,0.183,-0.212,-0.23,0.047,1.0
57,.,1.0,-0.142,-0.076,0.134,-0.69,-0.453,-0.698,0.269,-0.031,0.275,-0.693,-0.355,-0.467,0.183,-0.003,0.201
57,A1_1,-0.142,1.0,0.491,0.167,-0.039,-0.421,0.115,0.252,0.48,0.241,0.023,-0.324,0.013,-0.522,-0.109,-0.53
57,A1_2,-0.076,0.491,1.0,0.136,0.171,0.23,-0.124,0.449,0.447,0.548,-0.034,-0.132,-0.335,-0.39,-0.135,-0.219
57,A1_3,0.134,0.167,0.136,1.0,-0.018,-0.159,-0.063,0.143,0.554,0.377,-0.137,-0.185,-0.11,-0.146,-0.758,-0.062
57,B1_1,-0.69,-0.039,0.171,-0.018,1.0,0.637,0.711,0.098,0.023,-0.008,0.654,0.71,0.446,-0.348,0.035,0.221
57,B1_2,-0.453,-0.421,0.23,-0.159,0.637,1.0,0.341,-0.074,-0.21,-0.057,0.489,0.574,0.234,0.057,0.058,0.266
57,B1_3,-0.698,0.115,-0.124,-0.063,0.711,0.341,1.0,0.108,0.04,-0.383,0.609,0.456,0.535,-0.365,0.1,0.234
57,A2_1,0.269,0.252,0.449,0.143,0.098,-0.074,0.108,1.0,0.375,0.479,-0.353,-0.074,-0.285,-0.396,-0.021,0.109
57,A2_2,-0.031,0.48,0.447,0.554,0.023,-0.21,0.04,0.375,1.0,0.42,-0.15,-0.016,-0.147,-0.056,-0.519,-0.344
57,A2_3,0.275,0.241,0.548,0.377,-0.008,-0.057,-0.383,0.479,0.42,1.0,-0.591,-0.239,-0.213,-0.169,-0.175,-0.12
57,B2_1,-0.693,0.023,-0.034,-0.137,0.654,0.489,0.609,-0.353,-0.15,-0.591,1.0,0.574,0.393,-0.175,0.062,-0.007
57,B2_2,-0.355,-0.324,-0.132,-0.185,0.71,0.574,0.456,-0.074,-0.016,-0.239,0.574,1.0,0.558,0.229,0.041,0.183
57,B2_3,-0.467,0.013,-0.335,-0.11,0.446,0.234,0.535,-0.285,-0.147,-0.213,0.393,0.558,1.0,0.182,0.236,-0.209
57,y1,0.183,-0.522,-0.39,-0.146,-0.348,0.057,-0.365,-0.396,-0.056,-0.169,-0.175,0.229,0.182,1.0,0.023,-0.217
57,y2,-0.003,-0.109,-0.135,-0.758,0.035,0.058,0.1,-0.021,-0.519,-0.175,0.062,0.041,0.236,0.023,1.0,0.059
57,y3,0.201,-0.53,-0.219,-0.062,0.221,0.266,0.234,0.109,-0.344,-0.12,-0.007,0.183,-0.209,-0.217,0.059,1.0
58,.,1.0,-0.142,-0.075,0.131,-0.692,-0.456,-0.698,0.261,-0.023,0.267,-0.693,-0.359,-0.468,0.184,0.005,0.204
58,A1_1,-0.142,1.0,0.498,0.178,-0.04,-0.42,0.112,0.262,0.488,0.249,0.019,-0.325,0.009,-0.532,-0.119,-0.533
58,A1_2,-0.075,0.498,1.0,0.149,0.166,0.221,-0.126,0.457,0.456,0.555,-0.038,-0.136,-0.337,-0.398,-0.145,-0.226
58,A1_3,0.131,0.178,0.149,1.0,-0.02,-0.163,-0.065,0.154,0.562,0.384,-0.141,-0.189,-0.114,-0.161,-0.76,-0.072
58,B1_1,-0.692,-0.04,0.166,-0.02,1.0,0.642,0.714,0.098,0.013,-0.006,0.658,0.714,0.452,-0.343,0.032,0.218
58,B1_2,-0.456,-0.42,0.221,-0.163,0.642,1.0,0.347,-0.076,-0.217,-0.058,0.494,0.579,0.241,0.062,0.059,0.265
58,B1_3,-0.698,0.112,-0.126,-0.065,0.714,0.347,1.0,0.107,0.029,-0.379,0.612,0.462,0.539,-0.36,0.097,0.231
58,A2_1,0.261,0.262,0.457,0.154,0.098,-0.076,0.107,1.0,0.386,0.483,-0.351,-0.077,-0.286,-0.404,-0.03,0.1
58,A2_2,-0.023,0.488,0.456,0.562,0.013,-0.217,0.029,0.386,1.0,0.431,-0.16,-0.027,-0.156,-0.074,-0.525,-0.352
58,A2_3,0.267,0.249,0.555,0.384,-0.006,-0.058,-0.379,0.483,0.431,1.0,-0.587,-0.239,-0.213,-0.18,-0.181,-0.126
58,B2_1,-0.693,0.019,-0.038,-0.141,0.658,0.494,0.612,-0.351,-0.16,-0.587,1.0,0.579,0.399,-0.17,0.06,-0.007
58,B2_2,-0.359,-0.325,-0.136,-0.189,0.714,0.579,0.462,-0.077,-0.027,-0.239,0.579,1.0,0.563,0.232,0.042,0.183
58,B2_3,-0.468,0.009,-0.337,-0.114,0.452,0.241,0.539,-0.286,-0.156,-0.213,0.399,0.563,1.0,0.185,0.234,-0.207
58,y1,0.184,-0.532,-0.398,-0.161,-0.343,0.062,-0.36,-0.404,-0.074,-0.18,-0.17,0.232,0.185,1.0,0.038,-0.203
58,y2,0.005,-0.119,-0.145,-0.76,0.032,0.059,0.097,-0.03,-0.525,-0.181,0.06,0.042,0.234,0.038,1.0,0.07
58,y3,0.204,-0.533,-0.226,-0.072,0.218,0.265,0.231,0.1,-0.352,-0.126,-0.007,0.183,-0.207,-0.203,0.07,1.0
59,.,1.0,-0.137,-0.074,0.128,-0.693,-0.459,-0.699,0.254,-0.023,0.259,-0.692,-0.362,-0.469,0.185,0.021,0.199
59,A1_1,-0.137,1.0,0.506,0.191,-0.045,-0.423,0.104,0.273,0.496,0.259,0.011,-0.329,0.002,-0.541,-0.128,-0.538
59,A1_2,-0.074,0.506,1.0,0.163,0.161,0.213,-0.128,0.466,0.465,0.562,-0.043,-0.14,-0.338,-0.408,-0.153,-0.233
59,A1_3,0.128,0.191,0.163,1.0,-0.021,-0.166,-0.067,0.164,0.569,0.392,-0.143,-0.192,-0.118,-0.177,-0.761,-0.085
59,B1_1,-0.693,-0.045,0.161,-0.021,1.0,0.645,0.716,0.098,0.01,-0.005,0.662,0.717,0.457,-0.338,0.022,0.223
59,B1_2,-0.459,-0.423,0.213,-0.166,0.645,1.0,0.353,-0.078,-0.219,-0.058,0.499,0.583,0.248,0.068,0.054,0.271
59,B1_3,-0.699,0.104,-0.128,-0.067,0.716,0.353,1.0,0.106,0.025,-0.375,0.615,0.467,0.543,-0.355,0.087,0.236
59,A2_1,0.254,0.273,0.466,0.164,0.098,-0.078,0.106,1.0,0.395,0.488,-0.349,-0.08,-0.286,-0.412,-0.036,0.087
59,A2_2,-0.023,0.496,0.465,0.569,0.01,-0.219,0.025,0.395,1.0,0.439,-0.163,-0.032,-0.159,-0.092,-0.53,-0.361
59,A2_3,0.259,0.259,0.562,0.392,-0.005,-0.058,-0.375,0.488,0.439,1.0,-0.582,-0.239,-0.212,-0.193,-0.183,-0.136
59,B2_1,-0.692,0.011,-0.043,-0.143,0.662,0.499,0.615,-0.349,-0.163,-0.582,1.0,0.584,0.404,-0.165,0.051,0.002
59,B2_2,-0.362,-0.329,-0.14,-0.192,0.717,0.583,0.467,-0.08,-0.032,-0.239,0.584,1.0,0.567,0.236,0.037,0.19
59,B2_3,-0.469,0.002,-0.338,-0.118,0.457,0.248,0.543,-0.286,-0.159,-0.212,0.404,0.567,1.0,0.188,0.226,-0.197
