,,.,A1_1,A1_2,A1_3,B1_1,B1_2,B1_3,A2_1,A2_2,A2_3,B2_1,B2_2,B2_3,y1,y2,y3
0,.,1.0,0.058,0.77,0.033,0.1,-0.482,0.056,-0.366,0.455,0.255,0.021,-0.223,0.065,0.411,-0.104,0.362
0,A1_1,0.058,1.0,0.296,-0.447,0.088,0.569,0.343,0.159,0.171,-0.077,0.181,-0.387,0.322,0.025,-0.307,0.217
0,A1_2,0.77,0.296,1.0,0.089,-0.292,-0.378,-0.113,-0.082,0.551,0.031,0.192,-0.454,-0.165,-0.124,-0.21,0.358
0,A1_3,0.033,-0.447,0.089,1.0,-0.381,-0.215,-0.265,0.024,0.113,-0.163,0.106,0.258,-0.677,-0.079,0.211,-0.502
0,B1_1,0.1,0.088,-0.292,-0.381,1.0,-0.061,-0.17,0.305,0.097,-0.017,0.075,0.055,0.356,0.591,0.466,0.176
0,B1_2,-0.482,0.569,-0.378,-0.215,-0.061,1.0,0.492,0.184,-0.397,-0.281,0.014,-0.079,0.06,0.031,-0.203,0.04
0,B1_3,0.056,0.343,-0.113,-0.265,-0.17,0.492,1.0,-0.63,-0.319,0.02,-0.28,-0.141,0.391,0.104,-0.523,-0.063
0,A2_1,-0.366,0.159,-0.082,0.024,0.305,0.184,-0.63,1.0,0.222,-0.552,0.138,-0.077,-0.33,-0.255,0.513,0.212
0,A2_2,0.455,0.171,0.551,0.113,0.097,-0.397,-0.319,0.222,1.0,-0.146,-0.257,-0.096,-0.228,0.077,-0.163,0.195
0,A2_3,0.255,-0.077,0.031,-0.163,-0.017,-0.281,0.02,-0.552,-0.146,1.0,0.098,0.293,0.387,0.342,-0.035,-0.164
0,B2_1,0.021,0.181,0.192,0.106,0.075,0.014,-0.28,0.138,-0.257,0.098,1.0,-0.279,-0.279,0.044,0.265,-0.18
0,B2_2,-0.223,-0.387,-0.454,0.258,0.055,-0.079,-0.141,-0.077,-0.096,0.293,-0.279,1.0,0.011,0.105,-0.078,-0.602
0,B2_3,0.065,0.322,-0.165,-0.677,0.356,0.06,0.391,-0.33,-0.228,0.387,-0.279,0.011,1.0,0.231,-0.13,0.214
0,y1,0.411,0.025,-0.124,-0.079,0.591,0.031,0.104,-0.255,0.077,0.342,0.044,0.105,0.231,1.0,0.085,0.165
0,y2,-0.104,-0.307,-0.21,0.211,0.466,-0.203,-0.523,0.513,-0.163,-0.035,0.265,-0.078,-0.13,0.085,1.0,0.061
0,y3,0.362,0.217,0.358,-0.502,0.176,0.04,-0.063,0.212,0.195,-0.164,-0.18,-0.602,0.214,0.165,0.061,1.0
500,.,1.0,0.281,0.489,0.24,-0.34,-0.583,-0.24,-0.011,0.312,0.685,-0.266,-0.181,-0.03,-0.168,-0.315,0.035
500,A1_1,0.281,1.0,0.776,0.401,-0.192,-0.047,-0.161,0.67,0.713,0.529,-0.117,-0.624,-0.319,-0.254,-0.482,-0.265
500,A1_2,0.489,0.776,1.0,0.492,-0.428,-0.512,-0.361,0.536,0.815,0.674,-0.15,-0.73,-0.442,-0.395,-0.618,-0.263
500,A1_3,0.24,0.401,0.492,1.0,-0.523,-0.526,-0.549,0.611,0.643,0.548,-0.261,-0.457,-0.825,-0.458,-0.214,-0.483
500,B1_1,-0.34,-0.192,-0.428,-0.523,1.0,0.222,0.076,-0.122,-0.26,-0.375,0.338,0.249,0.511,0.677,0.583,0.423
500,B1_2,-0.583,-0.047,-0.512,-0.526,0.222,1.0,0.652,-0.252,-0.556,-0.619,0.348,0.255,0.403,0.194,0.226,0.141
500,B1_3,-0.24,-0.161,-0.361,-0.549,0.076,0.652,1.0,-0.702,-0.546,-0.461,0.086,0.239,0.571,0.262,-0.043,0.198
500,A2_1,-0.011,0.67,0.536,0.611,-0.122,-0.252,-0.702,1.0,0.689,0.383,-0.204,-0.564,-0.641,-0.249,-0.126,-0.27
500,A2_2,0.312,0.713,0.815,0.643,-0.26,-0.556,-0.546,0.689,1.0,0.631,-0.369,-0.504,-0.56,-0.267,-0.573,-0.384
500,A2_3,0.685,0.529,0.674,0.548,-0.375,-0.619,-0.461,0.383,0.631,1.0,-0.239,-0.416,-0.399,-0.316,-0.369,-0.181
500,B2_1,-0.266,-0.117,-0.15,-0.261,0.338,0.348,0.086,-0.204,-0.369,-0.239,1.0,0.091,0.157,-0.125,0.38,-0.016
500,B2_2,-0.181,-0.624,-0.73,-0.457,0.249,0.255,0.239,-0.564,-0.504,-0.416,0.091,1.0,0.491,-0.031,0.055,-0.21
500,B2_3,-0.03,-0.319,-0.442,-0.825,0.511,0.403,0.571,-0.641,-0.56,-0.399,0.157,0.491,1.0,0.373,0.087,0.278
500,y1,-0.168,-0.254,-0.395,-0.458,0.677,0.194,0.262,-0.249,-0.267,-0.316,-0.125,-0.031,0.373,1.0,0.606,0.859
500,y2,-0.315,-0.482,-0.618,-0.214,0.583,0.226,-0.043,-0.126,-0.573,-0.369,0.38,0.055,0.087,0.606,1.0,0.636
500,y3,0.035,-0.265,-0.263,-0.483,0.423,0.141,0.198,-0.27,-0.384,-0.181,-0.016,-0.21,0.278,0.859,0.636,1.0
1000,.,1.0,0.28,0.442,0.272,-0.34,-0.589,-0.242,0.036,0.321,0.66,-0.271,-0.21,-0.011,-0.265,-0.371,-0.163
1000,A1_1,0.28,1.0,0.827,0.539,-0.245,-0.155,-0.245,0.767,0.772,0.651,-0.179,-0.707,-0.411,-0.392,-0.472,-0.48
1000,A1_2,0.442,0.827,1.0,0.64,-0.416,-0.561,-0.429,0.694,0.869,0.767,-0.214,-0.806,-0.521,-0.505,-0.639,-0.528
1000,A1_3,0.272,0.539,0.64,1.0,-0.525,-0.59,-0.599,0.702,0.76,0.688,-0.287,-0.629,-0.82,-0.45,-0.479,-0.632
1000,B1_1,-0.34,-0.245,-0.416,-0.525,1.0,0.248,0.106,-0.179,-0.296,-0.372,0.366,0.34,0.532,0.65,0.601,0.498
1000,B1_2,-0.589,-0.155,-0.561,-0.59,0.248,1.0,0.672,-0.343,-0.601,-0.669,0.383,0.379,0.457,0.248,0.484,0.326
1000,B1_3,-0.242,-0.245,-0.429,-0.599,0.106,0.672,1.0,-0.723,-0.603,-0.545,0.145,0.369,0.606,0.272,0.263,0.369
1000,A2_1,0.036,0.767,0.694,0.702,-0.179,-0.343,-0.723,1.0,0.803,0.589,-0.215,-0.709,-0.699,-0.331,-0.36,-0.484
1000,A2_2,0.321,0.772,0.869,0.76,-0.296,-0.601,-0.603,0.803,1.0,0.765,-0.378,-0.653,-0.638,-0.375,-0.613,-0.57
1000,A2_3,0.66,0.651,0.767,0.688,-0.372,-0.669,-0.545,0.589,0.765,1.0,-0.287,-0.612,-0.518,-0.398,-0.487,-0.447
1000,B2_1,-0.271,-0.179,-0.214,-0.287,0.366,0.383,0.145,-0.215,-0.378,-0.287,1.0,0.201,0.229,-0.029,0.438,0.087
1000,B2_2,-0.21,-0.707,-0.806,-0.629,0.34,0.379,0.369,-0.709,-0.653,-0.612,0.201,1.0,0.607,0.145,0.201,0.157
1000,B2_3,-0.011,-0.411,-0.521,-0.82,0.532,0.457,0.606,-0.699,-0.638,-0.518,0.229,0.607,1.0,0.303,0.289,0.394
1000,y1,-0.265,-0.392,-0.505,-0.45,0.65,0.248,0.272,-0.331,-0.375,-0.398,-0.029,0.145,0.303,1.0,0.82,0.906
1000,y2,-0.371,-0.472,-0.639,-0.479,0.601,0.484,0.263,-0.36,-0.613,-0.487,0.438,0.201,0.289,0.82,1.0,0.846
1000,y3,-0.163,-0.48,-0.528,-0.632,0.498,0.326,0.369,-0.484,-0.57,-0.447,0.087,0.157,0.394,0.906,0.846,1.0
1500,.,1.0,0.222,0.359,0.225,-0.306,-0.547,-0.232,-0.002,0.281,0.58,-0.222,-0.123,0.052,-0.27,-0.372,-0.267
1500,A1_1,0.222,1.0,0.841,0.607,-0.237,-0.243,-0.298,0.801,0.803,0.704,-0.194,-0.708,-0.442,-0.305,-0.407,-0.436
1500,A1_2,0.359,0.841,1.0,0.703,-0.393,-0.595,-0.456,0.74,0.895,0.81,-0.237,-0.808,-0.53,-0.387,-0.51,-0.459
1500,A1_3,0.225,0.607,0.703,1.0,-0.518,-0.639,-0.635,0.749,0.828,0.745,-0.301,-0.685,-0.806,-0.313,-0.427,-0.502
1500,B1_1,-0.306,-0.237,-0.393,-0.518,1.0,0.287,0.123,-0.202,-0.335,-0.351,0.404,0.385,0.554,0.494,0.438,0.554
1500,B1_2,-0.547,-0.243,-0.595,-0.639,0.287,1.0,0.695,-0.416,-0.647,-0.706,0.424,0.458,0.507,0.149,0.337,0.178
1500,B1_3,-0.232,-0.298,-0.456,-0.635,0.123,0.695,1.0,-0.732,-0.627,-0.58,0.188,0.403,0.624,0.098,0.141,0.171
1500,A2_1,-0.002,0.801,0.74,0.749,-0.202,-0.416,-0.732,1.0,0.848,0.654,-0.252,-0.728,-0.718,-0.157,-0.215,-0.297
1500,A2_2,0.281,0.803,0.895,0.828,-0.335,-0.647,-0.627,0.848,1.0,0.825,-0.4,-0.704,-0.686,-0.265,-0.485,-0.442
1500,A2_3,0.58,0.704,0.81,0.745,-0.351,-0.706,-0.58,0.654,0.825,1.0,-0.282,-0.662,-0.54,-0.254,-0.393,-0.373
1500,B2_1,-0.222,-0.194,-0.237,-0.301,0.404,0.424,0.188,-0.252,-0.4,-0.282,1.0,0.253,0.269,-0.017,0.111,0.011
1500,B2_2,-0.123,-0.708,-0.808,-0.685,0.385,0.458,0.403,-0.728,-0.704,-0.662,0.253,1.0,0.627,-0.03,-0.005,0.045
1500,B2_3,0.052,-0.442,-0.53,-0.806,0.554,0.507,0.624,-0.718,-0.686,-0.54,0.269,0.627,1.0,0.067,0.177,0.278
1500,y1,-0.27,-0.305,-0.387,-0.313,0.494,0.149,0.098,-0.157,-0.265,-0.254,-0.017,-0.03,0.067,1.0,0.898,0.937
1500,y2,-0.372,-0.407,-0.51,-0.427,0.438,0.337,0.141,-0.215,-0.485,-0.393,0.111,-0.005,0.177,0.898,1.0,0.935
1500,y3,-0.267,-0.436,-0.459,-0.502,0.554,0.178,0.171,-0.297,-0.442,-0.373,0.011,0.045,0.278,0.937,0.935,1.0
2000,.,1.0,0.229,0.328,0.241,-0.332,-0.536,-0.269,0.029,0.283,0.548,-0.226,-0.102,0.058,-0.303,-0.34,-0.319
2000,A1_1,0.229,1.0,0.867,0.655,-0.296,-0.335,-0.361,0.824,0.82,0.734,-0.234,-0.744,-0.463,-0.193,-0.283,-0.382
2000,A1_2,0.328,0.867,1.0,0.732,-0.405,-0.625,-0.491,0.774,0.909,0.822,-0.27,-0.823,-0.529,-0.246,-0.244,-0.334
2000,A1_3,0.241,0.655,0.732,1.0,-0.551,-0.683,-0.674,0.799,0.853,0.766,-0.322,-0.723,-0.801,-0.328,-0.364,-0.401
2000,B1_1,-0.332,-0.296,-0.405,-0.551,1.0,0.345,0.173,-0.273,-0.394,-0.4,0.431,0.425,0.586,0.488,0.513,0.528
2000,B1_2,-0.536,-0.335,-0.625,-0.683,0.345,1.0,0.724,-0.485,-0.702,-0.735,0.451,0.499,0.547,0.093,0.072,0.068
2000,B1_3,-0.269,-0.361,-0.491,-0.674,0.173,0.724,1.0,-0.749,-0.662,-0.618,0.213,0.429,0.638,0.129,0.052,0.08
2000,A2_1,0.029,0.824,0.774,0.799,-0.273,-0.485,-0.749,1.0,0.878,0.701,-0.277,-0.742,-0.741,-0.124,-0.152,-0.233
2000,A2_2,0.283,0.82,0.909,0.853,-0.394,-0.702,-0.662,0.878,1.0,0.841,-0.415,-0.738,-0.701,-0.233,-0.306,-0.341
2000,A2_3,0.548,0.734,0.822,0.766,-0.4,-0.735,-0.618,0.701,0.841,1.0,-0.287,-0.699,-0.566,-0.169,-0.191,-0.244
2000,B2_1,-0.226,-0.234,-0.27,-0.322,0.431,0.451,0.213,-0.277,-0.415,-0.287,1.0,0.282,0.284,-0.181,-0.023,-0.006
2000,B2_2,-0.102,-0.744,-0.823,-0.723,0.425,0.499,0.429,-0.742,-0.738,-0.699,0.282,1.0,0.635,-0.136,-0.127,-0.041
2000,B2_3,0.058,-0.463,-0.529,-0.801,0.586,0.547,0.638,-0.741,-0.701,-0.566,0.284,0.635,1.0,0.166,0.207,0.185
2000,y1,-0.303,-0.193,-0.246,-0.328,0.488,0.093,0.129,-0.124,-0.233,-0.169,-0.181,-0.136,0.166,1.0,0.936,0.952
2000,y2,-0.34,-0.283,-0.244,-0.364,0.513,0.072,0.052,-0.152,-0.306,-0.191,-0.023,-0.127,0.207,0.936,1.0,0.969
2000,y3,-0.319,-0.382,-0.334,-0.401,0.528,0.068,0.08,-0.233,-0.341,-0.244,-0.006,-0.041,0.185,0.952,0.969,1.0
2500,.,1.0,0.219,0.284,0.21,-0.315,-0.526,-0.235,0.019,0.269,0.479,-0.231,-0.089,0.094,-0.425,-0.446,-0.392
2500,A1_1,0.219,1.0,0.885,0.679,-0.318,-0.339,-0.371,0.843,0.836,0.777,-0.263,-0.753,-0.477,-0.248,-0.14,-0.321
2500,A1_2,0.284,0.885,1.0,0.767,-0.393,-0.605,-0.51,0.822,0.922,0.846,-0.256,-0.828,-0.55,-0.284,-0.224,-0.371
2500,A1_3,0.21,0.679,0.767,1.0,-0.555,-0.677,-0.68,0.831,0.867,0.808,-0.328,-0.737,-0.8,-0.317,-0.387,-0.513
2500,B1_1,-0.315,-0.318,-0.393,-0.555,1.0,0.351,0.187,-0.313,-0.409,-0.405,0.44,0.435,0.591,0.479,0.5,0.58
2500,B1_2,-0.526,-0.339,-0.605,-0.677,0.351,1.0,0.731,-0.494,-0.704,-0.714,0.454,0.503,0.55,0.079,0.177,0.205
2500,B1_3,-0.235,-0.371,-0.51,-0.68,0.187,0.731,1.0,-0.74,-0.672,-0.647,0.235,0.434,0.647,0.007,0.181,0.168
2500,A2_1,0.019,0.843,0.822,0.831,-0.313,-0.494,-0.74,1.0,0.899,0.772,-0.291,-0.763,-0.755,-0.084,-0.119,-0.246
2500,A2_2,0.269,0.836,0.922,0.867,-0.409,-0.704,-0.672,0.899,1.0,0.878,-0.431,-0.754,-0.707,-0.226,-0.26,-0.372
2500,A2_3,0.479,0.777,0.846,0.808,-0.405,-0.714,-0.647,0.772,0.878,1.0,-0.277,-0.727,-0.603,-0.257,-0.26,-0.382
2500,B2_1,-0.231,-0.263,-0.256,-0.328,0.44,0.454,0.235,-0.291,-0.431,-0.277,1.0,0.287,0.29,-0.116,-0.077,0.011
2500,B2_2,-0.089,-0.753,-0.828,-0.737,0.435,0.503,0.434,-0.763,-0.754,-0.727,0.287,1.0,0.639,-0.106,-0.134,0.029
2500,B2_3,0.094,-0.477,-0.55,-0.8,0.591,0.55,0.647,-0.755,-0.707,-0.603,0.29,0.639,1.0,0.041,0.156,0.231
2500,y1,-0.425,-0.248,-0.284,-0.317,0.479,0.079,0.007,-0.084,-0.226,-0.257,-0.116,-0.106,0.041,1.0,0.943,0.968
2500,y2,-0.446,-0.14,-0.224,-0.387,0.5,0.177,0.181,-0.119,-0.26,-0.26,-0.077,-0.134,0.156,0.943,1.0,0.952
2500,y3,-0.392,-0.321,-0.371,-0.513,0.58,0.205,0.168,-0.246,-0.372,-0.382,0.011,0.029,0.231,0.968,0.952,1.0
3000,.,1.0,0.169,0.22,0.145,-0.322,-0.483,-0.166,-0.061,0.201,0.409,-0.232,-0.052,0.147,-0.295,-0.369,-0.406
3000,A1_1,0.169,1.0,0.895,0.694,-0.331,-0.359,-0.398,0.849,0.841,0.787,-0.266,-0.758,-0.495,-0.369,-0.214,-0.329
3000,A1_2,0.22,0.895,1.0,0.785,-0.384,-0.602,-0.533,0.835,0.924,0.855,-0.259,-0.83,-0.553,-0.362,-0.256,-0.356
3000,A1_3,0.145,0.694,0.785,1.0,-0.548,-0.685,-0.698,0.838,0.88,0.819,-0.34,-0.751,-0.81,-0.341,-0.348,-0.423
3000,B1_1,-0.322,-0.331,-0.384,-0.548,1.0,0.358,0.191,-0.325,-0.42,-0.41,0.445,0.44,0.594,0.47,0.487,0.58
3000,B1_2,-0.483,-0.359,-0.602,-0.685,0.358,1.0,0.733,-0.493,-0.713,-0.719,0.459,0.508,0.555,0.111,0.116,0.173
3000,B1_3,-0.166,-0.398,-0.533,-0.698,0.191,0.733,1.0,-0.742,-0.684,-0.661,0.237,0.438,0.65,0.141,0.127,0.148
3000,A2_1,-0.061,0.849,0.835,0.838,-0.325,-0.493,-0.742,1.0,0.9,0.78,-0.287,-0.766,-0.77,-0.253,-0.157,-0.23
3000,A2_2,0.201,0.841,0.924,0.88,-0.42,-0.713,-0.684,0.9,1.0,0.886,-0.438,-0.76,-0.719,-0.345,-0.31,-0.384
3000,A2_3,0.409,0.787,0.855,0.819,-0.41,-0.719,-0.661,0.78,0.886,1.0,-0.27,-0.734,-0.623,-0.353,-0.336,-0.394
3000,B2_1,-0.232,-0.266,-0.259,-0.34,0.445,0.459,0.237,-0.287,-0.438,-0.27,1.0,0.29,0.293,-0.097,-0.031,0.098
3000,B2_2,-0.052,-0.758,-0.83,-0.751,0.44,0.508,0.438,-0.766,-0.76,-0.734,0.29,1.0,0.64,-0.062,-0.119,-0.017
3000,B2_3,0.147,-0.495,-0.553,-0.81,0.594,0.555,0.65,-0.77,-0.719,-0.623,0.293,0.64,1.0,0.226,0.19,0.216
3000,y1,-0.295,-0.369,-0.362,-0.341,0.47,0.111,0.141,-0.253,-0.345,-0.353,-0.097,-0.062,0.226,1.0,0.91,0.934
3000,y2,-0.369,-0.214,-0.256,-0.348,0.487,0.116,0.127,-0.157,-0.31,-0.336,-0.031,-0.119,0.19,0.91,1.0,0.973
3000,y3,-0.406,-0.329,-0.356,-0.423,0.58,0.173,0.148,-0.23,-0.384,-0.394,0.098,-0.017,0.216,0.934,0.973,1.0
3500,.,1.0,0.131,0.171,0.136,-0.311,-0.478,-0.167,-0.075,0.184,0.354,-0.251,-0.043,0.15,-0.297,-0.29,-0.406
3500,A1_1,0.131,1.0,0.904,0.728,-0.335,-0.385,-0.413,0.86,0.851,0.813,-0.257,-0.765,-0.52,-0.359,-0.283,-0.245
3500,A1_2,0.171,0.904,1.0,0.818,-0.39,-0.601,-0.543,0.857,0.924,0.864,-0.248,-0.829,-0.572,-0.379,-0.311,-0.264
3500,A1_3,0.136,0.728,0.818,1.0,-0.559,-0.687,-0.7,0.867,0.89,0.857,-0.343,-0.768,-0.812,-0.391,-0.319,-0.375
3500,B1_1,-0.311,-0.335,-0.39,-0.559,1.0,0.362,0.198,-0.335,-0.422,-0.387,0.452,0.451,0.6,0.423,0.397,0.571
3500,B1_2,-0.478,-0.385,-0.601,-0.687,0.362,1.0,0.738,-0.509,-0.712,-0.716,0.465,0.522,0.566,0.138,0.04,0.104
3500,B1_3,-0.167,-0.413,-0.543,-0.7,0.198,0.738,1.0,-0.739,-0.694,-0.694,0.244,0.444,0.654,0.142,0.122,0.102
3500,A2_1,-0.075,0.86,0.857,0.867,-0.335,-0.509,-0.739,1.0,0.912,0.827,-0.273,-0.774,-0.775,-0.264,-0.222,-0.168
3500,A2_2,0.184,0.851,0.924,0.89,-0.422,-0.712,-0.694,0.912,1.0,0.907,-0.44,-0.762,-0.722,-0.374,-0.321,-0.286
3500,A2_3,0.354,0.813,0.864,0.857,-0.387,-0.716,-0.694,0.827,0.907,1.0,-0.245,-0.73,-0.644,-0.386,-0.339,-0.35
3500,B2_1,-0.251,-0.257,-0.248,-0.343,0.452,0.465,0.244,-0.273,-0.44,-0.245,1.0,0.298,0.3,-0.07,-0.119,0.008
3500,B2_2,-0.043,-0.765,-0.829,-0.768,0.451,0.522,0.444,-0.774,-0.762,-0.73,0.298,1.0,0.643,-0.07,-0.115,-0.075
3500,B2_3,0.15,-0.52,-0.572,-0.812,0.6,0.566,0.654,-0.775,-0.722,-0.644,0.3,0.643,1.0,0.209,0.157,0.191
3500,y1,-0.297,-0.359,-0.379,-0.391,0.423,0.138,0.142,-0.264,-0.374,-0.386,-0.07,-0.07,0.209,1.0,0.968,0.942
3500,y2,-0.29,-0.283,-0.311,-0.319,0.397,0.04,0.122,-0.222,-0.321,-0.339,-0.119,-0.115,0.157,0.968,1.0,0.95
3500,y3,-0.406,-0.245,-0.264,-0.375,0.571,0.104,0.102,-0.168,-0.286,-0.35,0.008,-0.075,0.191,0.942,0.95,1.0
4000,.,1.0,0.103,0.138,0.115,-0.324,-0.45,-0.15,-0.091,0.143,0.326,-0.215,-0.009,0.164,-0.336,-0.415,-0.499
4000,A1_1,0.103,1.0,0.917,0.771,-0.374,-0.415,-0.475,0.886,0.866,0.838,-0.295,-0.771,-0.559,-0.376,-0.328,-0.301
4000,A1_2,0.138,0.917,1.0,0.856,-0.419,-0.597,-0.587,0.886,0.933,0.883,-0.282,-0.83,-0.604,-0.399,-0.335,-0.355
4000,A1_3,0.115,0.771,0.856,1.0,-0.595,-0.68,-0.72,0.883,0.901,0.875,-0.368,-0.787,-0.819,-0.345,-0.301,-0.416
4000,B1_1,-0.324,-0.374,-0.419,-0.595,1.0,0.385,0.236,-0.363,-0.448,-0.416,0.475,0.486,0.627,0.374,0.389,0.514
4000,B1_2,-0.45,-0.415,-0.597,-0.68,0.385,1.0,0.735,-0.504,-0.706,-0.721,0.481,0.534,0.572,0.07,0.061,0.21
4000,B1_3,-0.15,-0.475,-0.587,-0.72,0.236,0.735,1.0,-0.747,-0.72,-0.726,0.272,0.474,0.667,0.111,0.149,0.212
4000,A2_1,-0.091,0.886,0.886,0.883,-0.363,-0.504,-0.747,1.0,0.924,0.841,-0.305,-0.771,-0.769,-0.274,-0.246,-0.243
4000,A2_2,0.143,0.866,0.933,0.901,-0.448,-0.706,-0.72,0.924,1.0,0.916,-0.46,-0.76,-0.736,-0.361,-0.337,-0.364
4000,A2_3,0.326,0.838,0.883,0.875,-0.416,-0.721,-0.726,0.841,0.916,1.0,-0.283,-0.737,-0.653,-0.368,-0.387,-0.442
4000,B2_1,-0.215,-0.295,-0.282,-0.368,0.475,0.481,0.272,-0.305,-0.46,-0.283,1.0,0.334,0.331,-0.069,-0.093,-0.036
4000,B2_2,-0.009,-0.771,-0.83,-0.787,0.486,0.534,0.474,-0.771,-0.76,-0.737,0.334,1.0,0.654,-0.075,-0.107,-0.035
4000,B2_3,0.164,-0.559,-0.604,-0.819,0.627,0.572,0.667,-0.769,-0.736,-0.653,0.331,0.654,1.0,0.131,0.142,0.226
4000,y1,-0.336,-0.376,-0.399,-0.345,0.374,0.07,0.111,-0.274,-0.361,-0.368,-0.069,-0.075,0.131,1.0,0.965,0.943
4000,y2,-0.415,-0.328,-0.335,-0.301,0.389,0.061,0.149,-0.246,-0.337,-0.387,-0.093,-0.107,0.142,0.965,1.0,0.963
4000,y3,-0.499,-0.301,-0.355,-0.416,0.514,0.21,0.212,-0.243,-0.364,-0.442,-0.036,-0.035,0.226,0.943,0.963,1.0
4500,.,1.0,0.108,0.112,0.123,-0.361,-0.456,-0.177,-0.064,0.139,0.297,-0.216,-0.03,0.139,-0.352,-0.384,-0.458
4500,A1_1,0.108,1.0,0.921,0.8,-0.412,-0.451,-0.509,0.901,0.872,0.858,-0.302,-0.793,-0.59,-0.345,-0.25,-0.316
4500,A1_2,0.112,0.921,1.0,0.875,-0.421,-0.593,-0.6,0.9,0.937,0.894,-0.288,-0.834,-0.614,-0.377,-0.256,-0.353
4500,A1_3,0.123,0.8,0.875,1.0,-0.605,-0.683,-0.729,0.895,0.908,0.88,-0.385,-0.807,-0.808,-0.347,-0.237,-0.368
4500,B1_1,-0.361,-0.412,-0.421,-0.605,1.0,0.42,0.26,-0.383,-0.476,-0.427,0.502,0.507,0.638,0.383,0.386,0.451
4500,B1_2,-0.456,-0.451,-0.593,-0.683,0.42,1.0,0.743,-0.515,-0.721,-0.734,0.505,0.558,0.583,0.109,0.007,0.144
4500,B1_3,-0.177,-0.509,-0.6,-0.729,0.26,0.743,1.0,-0.749,-0.736,-0.745,0.286,0.489,0.672,0.207,0.066,0.144
4500,A2_1,-0.064,0.901,0.9,0.895,-0.383,-0.515,-0.749,1.0,0.926,0.859,-0.323,-0.778,-0.759,-0.299,-0.164,-0.231
4500,A2_2,0.139,0.872,0.937,0.908,-0.476,-0.721,-0.736,0.926,1.0,0.928,-0.463,-0.774,-0.749,-0.367,-0.246,-0.323
4500,A2_3,0.297,0.858,0.894,0.88,-0.427,-0.734,-0.745,0.859,0.928,1.0,-0.293,-0.76,-0.667,-0.359,-0.27,-0.371
4500,B2_1,-0.216,-0.302,-0.288,-0.385,0.502,0.505,0.286,-0.323,-0.463,-0.293,1.0,0.36,0.342,-0.093,-0.113,-0.132
4500,B2_2,-0.03,-0.793,-0.834,-0.807,0.507,0.558,0.489,-0.778,-0.774,-0.76,0.36,1.0,0.662,-0.082,-0.172,-0.041
4500,B2_3,0.139,-0.59,-0.614,-0.808,0.638,0.583,0.672,-0.759,-0.749,-0.667,0.342,0.662,1.0,0.194,0.095,0.174
4500,y1,-0.352,-0.345,-0.377,-0.347,0.383,0.109,0.207,-0.299,-0.367,-0.359,-0.093,-0.082,0.194,1.0,0.978,0.968
4500,y2,-0.384,-0.25,-0.256,-0.237,0.386,0.007,0.066,-0.164,-0.246,-0.27,-0.113,-0.172,0.095,0.978,1.0,0.97
4500,y3,-0.458,-0.316,-0.353,-0.368,0.451,0.144,0.144,-0.231,-0.323,-0.371,-0.132,-0.041,0.174,0.968,0.97,1.0
5000,.,1.0,0.112,0.109,0.13,-0.394,-0.479,-0.213,-0.056,0.136,0.296,-0.248,-0.064,0.1,-0.329,-0.352,-0.355
5000,A1_1,0.112,1.0,0.922,0.808,-0.407,-0.449,-0.514,0.902,0.873,0.866,-0.299,-0.787,-0.588,-0.316,-0.27,-0.33
5000,A1_2,0.109,0.922,1.0,0.879,-0.415,-0.579,-0.591,0.899,0.937,0.9,-0.285,-0.828,-0.606,-0.325,-0.272,-0.335
5000,A1_3,0.13,0.808,0.879,1.0,-0.601,-0.67,-0.722,0.903,0.912,0.882,-0.383,-0.816,-0.799,-0.307,-0.242,-0.342
5000,B1_1,-0.394,-0.407,-0.415,-0.601,1.0,0.437,0.285,-0.385,-0.475,-0.416,0.513,0.518,0.647,0.391,0.348,0.464
5000,B1_2,-0.479,-0.449,-0.579,-0.67,0.437,1.0,0.753,-0.508,-0.711,-0.722,0.511,0.578,0.592,0.041,0.001,0.034
5000,B1_3,-0.213,-0.514,-0.591,-0.722,0.285,0.753,1.0,-0.739,-0.739,-0.745,0.301,0.501,0.685,0.127,0.09,0.095
5000,A2_1,-0.056,0.902,0.899,0.903,-0.385,-0.508,-0.739,1.0,0.931,0.866,-0.312,-0.773,-0.762,-0.256,-0.188,-0.254
5000,A2_2,0.136,0.873,0.937,0.912,-0.475,-0.711,-0.739,0.931,1.0,0.93,-0.447,-0.777,-0.756,-0.314,-0.235,-0.313
5000,A2_3,0.296,0.866,0.9,0.882,-0.416,-0.722,-0.745,0.866,0.93,1.0,-0.271,-0.765,-0.661,-0.303,-0.274,-0.333
5000,B2_1,-0.248,-0.299,-0.285,-0.383,0.513,0.511,0.301,-0.312,-0.447,-0.271,1.0,0.373,0.35,-0.054,-0.215,-0.071
5000,B2_2,-0.064,-0.787,-0.828,-0.816,0.518,0.578,0.501,-0.773,-0.777,-0.765,0.373,1.0,0.671,-0.128,-0.159,-0.066
5000,B2_3,0.1,-0.588,-0.606,-0.799,0.647,0.592,0.685,-0.762,-0.756,-0.661,0.35,0.671,1.0,0.142,0.101,0.168
5000,y1,-0.329,-0.316,-0.325,-0.307,0.391,0.041,0.127,-0.256,-0.314,-0.303,-0.054,-0.128,0.142,1.0,0.98,0.986
5000,y2,-0.352,-0.27,-0.272,-0.242,0.348,0.001,0.09,-0.188,-0.235,-0.274,-0.215,-0.159,0.101,0.98,1.0,0.976
5000,y3,-0.355,-0.33,-0.335,-0.342,0.464,0.034,0.095,-0.254,-0.313,-0.333,-0.071,-0.066,0.168,0.986,0.976,1.0
5500,.,1.0,0.1,0.1,0.109,-0.408,-0.489,-0.204,-0.062,0.137,0.28,-0.291,-0.073,0.097,-0.349,-0.311,-0.265
5500,A1_1,0.1,1.0,0.922,0.829,-0.407,-0.457,-0.519,0.908,0.876,0.877,-0.295,-0.789,-0.598,-0.342,-0.321,-0.326
5500,A1_2,0.1,0.922,1.0,0.901,-0.413,-0.582,-0.593,0.904,0.937,0.911,-0.283,-0.829,-0.608,-0.352,-0.354,-0.375
5500,A1_3,0.109,0.829,0.901,1.0,-0.586,-0.653,-0.711,0.917,0.926,0.885,-0.37,-0.817,-0.79,-0.342,-0.313,-0.406
5500,B1_1,-0.408,-0.407,-0.413,-0.586,1.0,0.442,0.29,-0.386,-0.485,-0.401,0.515,0.521,0.651,0.392,0.293,0.437
5500,B1_2,-0.489,-0.457,-0.582,-0.653,0.442,1.0,0.753,-0.507,-0.716,-0.715,0.512,0.579,0.594,0.074,0.054,0.072
5500,B1_3,-0.204,-0.519,-0.593,-0.711,0.29,0.753,1.0,-0.73,-0.746,-0.744,0.301,0.502,0.686,0.156,0.137,0.185
5500,A2_1,-0.062,0.908,0.904,0.917,-0.386,-0.507,-0.73,1.0,0.934,0.876,-0.311,-0.776,-0.757,-0.274,-0.256,-0.31
5500,A2_2,0.137,0.876,0.937,0.926,-0.485,-0.716,-0.746,0.934,1.0,0.936,-0.446,-0.779,-0.764,-0.337,-0.326,-0.357
5500,A2_3,0.28,0.877,0.911,0.885,-0.401,-0.715,-0.744,0.876,0.936,1.0,-0.269,-0.76,-0.652,-0.358,-0.38,-0.367
5500,B2_1,-0.291,-0.295,-0.283,-0.37,0.515,0.512,0.301,-0.311,-0.446,-0.269,1.0,0.375,0.352,-0.055,-0.189,-0.117
5500,B2_2,-0.073,-0.789,-0.829,-0.817,0.521,0.579,0.502,-0.776,-0.779,-0.76,0.375,1.0,0.672,-0.097,-0.11,-0.043
5500,B2_3,0.097,-0.598,-0.608,-0.79,0.651,0.594,0.686,-0.757,-0.764,-0.652,0.352,0.672,1.0,0.139,0.106,0.227
5500,y1,-0.349,-0.342,-0.352,-0.342,0.392,0.074,0.156,-0.274,-0.337,-0.358,-0.055,-0.097,0.139,1.0,0.98,0.98
5500,y2,-0.311,-0.321,-0.354,-0.313,0.293,0.054,0.137,-0.256,-0.326,-0.38,-0.189,-0.11,0.106,0.98,1.0,0.971
5500,y3,-0.265,-0.326,-0.375,-0.406,0.437,0.072,0.185,-0.31,-0.357,-0.367,-0.117,-0.043,0.227,0.98,0.971,1.0
6000,.,1.0,0.083,0.086,0.092,-0.383,-0.454,-0.17,-0.078,0.116,0.249,-0.289,-0.039,0.133,-0.417,-0.36,-0.33
6000,A1_1,0.083,1.0,0.923,0.844,-0.409,-0.468,-0.529,0.918,0.887,0.893,-0.307,-0.779,-0.605,-0.333,-0.366,-0.304
6000,A1_2,0.086,0.923,1.0,0.912,-0.417,-0.581,-0.597,0.914,0.945,0.924,-0.288,-0.825,-0.613,-0.382,-0.412,-0.36
6000,A1_3,0.092,0.844,0.912,1.0,-0.582,-0.649,-0.717,0.922,0.931,0.893,-0.377,-0.816,-0.784,-0.372,-0.386,-0.379
6000,B1_1,-0.383,-0.409,-0.417,-0.582,1.0,0.455,0.298,-0.386,-0.495,-0.389,0.534,0.53,0.658,0.373,0.322,0.371
6000,B1_2,-0.454,-0.468,-0.581,-0.649,0.455,1.0,0.753,-0.502,-0.705,-0.699,0.523,0.596,0.605,0.158,0.123,0.106
6000,B1_3,-0.17,-0.529,-0.597,-0.717,0.298,0.753,1.0,-0.717,-0.743,-0.734,0.307,0.506,0.69,0.273,0.258,0.208
6000,A2_1,-0.078,0.918,0.914,0.922,-0.386,-0.502,-0.717,1.0,0.937,0.885,-0.318,-0.776,-0.742,-0.297,-0.327,-0.284
6000,A2_2,0.116,0.887,0.945,0.931,-0.495,-0.705,-0.743,0.937,1.0,0.942,-0.433,-0.779,-0.765,-0.394,-0.413,-0.374
6000,A2_3,0.249,0.893,0.924,0.893,-0.389,-0.699,-0.734,0.885,0.942,1.0,-0.283,-0.761,-0.639,-0.402,-0.441,-0.368
6000,B2_1,-0.289,-0.307,-0.288,-0.377,0.534,0.523,0.307,-0.318,-0.433,-0.283,1.0,0.385,0.365,-0.082,-0.148,-0.104
6000,B2_2,-0.039,-0.779,-0.825,-0.816,0.53,0.596,0.506,-0.776,-0.779,-0.761,0.385,1.0,0.677,-0.076,-0.056,-0.097
6000,B2_3,0.133,-0.605,-0.613,-0.784,0.658,0.605,0.69,-0.742,-0.765,-0.639,0.365,0.677,1.0,0.176,0.178,0.195
6000,y1,-0.417,-0.333,-0.382,-0.372,0.373,0.158,0.273,-0.297,-0.394,-0.402,-0.082,-0.076,0.176,1.0,0.99,0.984
6000,y2,-0.36,-0.366,-0.412,-0.386,0.322,0.123,0.258,-0.327,-0.413,-0.441,-0.148,-0.056,0.178,0.99,1.0,0.984
6000,y3,-0.33,-0.304,-0.36,-0.379,0.371,0.106,0.208,-0.284,-0.374,-0.368,-0.104,-0.097,0.195,0.984,0.984,1.0
6500,.,1.0,0.053,0.063,0.06,-0.37,-0.408,-0.146,-0.086,0.076,0.214,-0.245,0.001,0.168,-0.386,-0.406,-0.408
6500,A1_1,0.053,1.0,0.933,0.858,-0.429,-0.485,-0.577,0.932,0.903,0.914,-0.322,-0.772,-0.622,-0.391,-0.363,-0.327
6500,A1_2,0.063,0.933,1.0,0.912,-0.44,-0.584,-0.613,0.915,0.948,0.936,-0.298,-0.816,-0.615,-0.433,-0.415,-0.395
6500,A1_3,0.06,0.858,0.912,1.0,-0.603,-0.667,-0.748,0.929,0.936,0.904,-0.393,-0.818,-0.794,-0.405,-0.37,-0.398
6500,B1_1,-0.37,-0.429,-0.44,-0.603,1.0,0.472,0.328,-0.428,-0.514,-0.423,0.552,0.545,0.665,0.357,0.319,0.417
6500,B1_2,-0.408,-0.485,-0.584,-0.667,0.472,1.0,0.762,-0.524,-0.71,-0.703,0.533,0.612,0.609,0.153,0.148,0.173
6500,B1_3,-0.146,-0.577,-0.613,-0.748,0.328,0.762,1.0,-0.741,-0.759,-0.743,0.325,0.521,0.696,0.278,0.293,0.308
6500,A2_1,-0.086,0.932,0.915,0.929,-0.428,-0.524,-0.741,1.0,0.944,0.901,-0.338,-0.773,-0.756,-0.352,-0.324,-0.325
6500,A2_2,0.076,0.903,0.948,0.936,-0.514,-0.71,-0.759,0.944,1.0,0.949,-0.444,-0.777,-0.765,-0.434,-0.408,-0.41
6500,A2_3,0.214,0.914,0.936,0.904,-0.423,-0.703,-0.743,0.901,0.949,1.0,-0.317,-0.767,-0.644,-0.444,-0.421,-0.403
6500,B2_1,-0.245,-0.322,-0.298,-0.393,0.552,0.533,0.325,-0.338,-0.444,-0.317,1.0,0.402,0.378,-0.08,-0.114,-0.099
6500,B2_2,0.001,-0.772,-0.816,-0.818,0.545,0.612,0.521,-0.773,-0.777,-0.767,0.402,1.0,0.688,-0.057,-0.082,-0.052
6500,B2_3,0.168,-0.622,-0.615,-0.794,0.665,0.609,0.696,-0.756,-0.765,-0.644,0.378,0.688,1.0,0.19,0.145,0.23
6500,y1,-0.386,-0.391,-0.433,-0.405,0.357,0.153,0.278,-0.352,-0.434,-0.444,-0.08,-0.057,0.19,1.0,0.993,0.984
6500,y2,-0.406,-0.363,-0.415,-0.37,0.319,0.148,0.293,-0.324,-0.408,-0.421,-0.114,-0.082,0.145,0.993,1.0,0.984
6500,y3,-0.408,-0.327,-0.395,-0.398,0.417,0.173,0.308,-0.325,-0.41,-0.403,-0.099,-0.052,0.23,0.984,0.984,1.0
7000,.,1.0,0.064,0.089,0.062,-0.383,-0.412,-0.156,-0.08,0.073,0.204,-0.246,-0.028,0.148,-0.426,-0.362,-0.436
7000,A1_1,0.064,1.0,0.934,0.875,-0.444,-0.499,-0.587,0.934,0.914,0.927,-0.339,-0.792,-0.63,-0.37,-0.359,-0.339
7000,A1_2,0.089,0.934,1.0,0.929,-0.454,-0.599,-0.636,0.914,0.955,0.945,-0.314,-0.825,-0.625,-0.428,-0.421,-0.424
7000,A1_3,0.062,0.875,0.929,1.0,-0.597,-0.658,-0.747,0.932,0.949,0.915,-0.395,-0.829,-0.786,-0.409,-0.374,-0.422
7000,B1_1,-0.383,-0.444,-0.454,-0.597,1.0,0.485,0.337,-0.423,-0.513,-0.426,0.568,0.566,0.671,0.392,0.311,0.423
7000,B1_2,-0.412,-0.499,-0.599,-0.658,0.485,1.0,0.765,-0.527,-0.707,-0.689,0.544,0.636,0.621,0.151,0.049,0.177
7000,B1_3,-0.156,-0.587,-0.636,-0.747,0.337,0.765,1.0,-0.749,-0.768,-0.747,0.332,0.535,0.701,0.287,0.218,0.328
7000,A2_1,-0.08,0.934,0.914,0.932,-0.423,-0.527,-0.749,1.0,0.951,0.912,-0.339,-0.769,-0.754,-0.346,-0.327,-0.348
7000,A2_2,0.073,0.914,0.955,0.949,-0.513,-0.707,-0.768,0.951,1.0,0.956,-0.448,-0.801,-0.771,-0.407,-0.368,-0.408
7000,A2_3,0.204,0.927,0.945,0.915,-0.426,-0.689,-0.747,0.912,0.956,1.0,-0.327,-0.781,-0.651,-0.436,-0.402,-0.42
7000,B2_1,-0.246,-0.339,-0.314,-0.395,0.568,0.544,0.332,-0.339,-0.448,-0.327,1.0,0.42,0.391,-0.078,-0.139,-0.078
7000,B2_2,-0.028,-0.792,-0.825,-0.829,0.566,0.636,0.535,-0.769,-0.801,-0.781,0.42,1.0,0.7,-0.023,-0.057,-0.006
7000,B2_3,0.148,-0.63,-0.625,-0.786,0.671,0.621,0.701,-0.754,-0.771,-0.651,0.391,0.7,1.0,0.206,0.122,0.234
7000,y1,-0.426,-0.37,-0.428,-0.409,0.392,0.151,0.287,-0.346,-0.407,-0.436,-0.078,-0.023,0.206,1.0,0.989,0.99
7000,y2,-0.362,-0.359,-0.421,-0.374,0.311,0.049,0.218,-0.327,-0.368,-0.402,-0.139,-0.057,0.122,0.989,1.0,0.974
7000,y3,-0.436,-0.339,-0.424,-0.422,0.423,0.177,0.328,-0.348,-0.408,-0.42,-0.078,-0.006,0.234,0.99,0.974,1.0
7500,.,1.0,0.116,0.14,0.13,-0.432,-0.448,-0.205,-0.015,0.14,0.261,-0.285,-0.061,0.087,-0.486,-0.471,-0.473
7500,A1_1,0.116,1.0,0.932,0.883,-0.447,-0.532,-0.591,0.93,0.912,0.925,-0.36,-0.798,-0.626,-0.371,-0.36,-0.325
7500,A1_2,0.14,0.932,1.0,0.935,-0.452,-0.615,-0.638,0.913,0.954,0.943,-0.323,-0.827,-0.62,-0.427,-0.427,-0.427
7500,A1_3,0.13,0.883,0.935,1.0,-0.604,-0.678,-0.749,0.94,0.951,0.927,-0.396,-0.831,-0.783,-0.436,-0.403,-0.421
7500,B1_1,-0.432,-0.447,-0.452,-0.604,1.0,0.515,0.354,-0.443,-0.521,-0.445,0.576,0.572,0.678,0.421,0.335,0.389
7500,B1_2,-0.448,-0.532,-0.615,-0.678,0.515,1.0,0.78,-0.556,-0.714,-0.714,0.554,0.661,0.642,0.154,0.1,0.125
7500,B1_3,-0.205,-0.591,-0.638,-0.749,0.354,0.78,1.0,-0.756,-0.768,-0.76,0.343,0.541,0.707,0.289,0.243,0.279
7500,A2_1,-0.015,0.93,0.913,0.94,-0.443,-0.556,-0.756,1.0,0.951,0.917,-0.34,-0.773,-0.763,-0.369,-0.343,-0.351
7500,A2_2,0.14,0.912,0.954,0.951,-0.521,-0.714,-0.768,0.951,1.0,0.957,-0.458,-0.801,-0.768,-0.419,-0.389,-0.401
7500,A2_3,0.261,0.925,0.943,0.927,-0.445,-0.714,-0.76,0.917,0.957,1.0,-0.342,-0.788,-0.662,-0.436,-0.421,-0.415
7500,B2_1,-0.285,-0.36,-0.323,-0.396,0.576,0.554,0.343,-0.34,-0.458,-0.342,1.0,0.428,0.4,-0.027,-0.1,-0.099
7500,B2_2,-0.061,-0.798,-0.827,-0.831,0.572,0.661,0.541,-0.773,-0.801,-0.788,0.428,1.0,0.703,-0.009,-0.035,-0.002
7500,B2_3,0.087,-0.626,-0.62,-0.783,0.678,0.642,0.707,-0.763,-0.768,-0.662,0.4,0.703,1.0,0.212,0.127,0.18
7500,y1,-0.486,-0.371,-0.427,-0.436,0.421,0.154,0.289,-0.369,-0.419,-0.436,-0.027,-0.009,0.212,1.0,0.992,0.984
7500,y2,-0.471,-0.36,-0.427,-0.403,0.335,0.1,0.243,-0.343,-0.389,-0.421,-0.1,-0.035,0.127,0.992,1.0,0.985
7500,y3,-0.473,-0.325,-0.427,-0.421,0.389,0.125,0.279,-0.351,-0.401,-0.415,-0.099,-0.002,0.18,0.984,0.985,1.0
8000,.,1.0,0.108,0.168,0.114,-0.438,-0.443,-0.193,-0.012,0.153,0.26,-0.281,-0.075,0.087,-0.473,-0.502,-0.511
8000,A1_1,0.108,1.0,0.928,0.889,-0.458,-0.546,-0.614,0.941,0.918,0.929,-0.371,-0.8,-0.652,-0.37,-0.317,-0.343
8000,A1_2,0.168,0.928,1.0,0.948,-0.468,-0.624,-0.649,0.919,0.954,0.952,-0.338,-0.834,-0.623,-0.43,-0.401,-0.442
8000,A1_3,0.114,0.889,0.948,1.0,-0.59,-0.673,-0.746,0.947,0.957,0.925,-0.401,-0.831,-0.781,-0.419,-0.372,-0.426
8000,B1_1,-0.438,-0.458,-0.468,-0.59,1.0,0.521,0.362,-0.455,-0.535,-0.437,0.584,0.578,0.683,0.403,0.347,0.388
8000,B1_2,-0.443,-0.546,-0.624,-0.673,0.521,1.0,0.783,-0.561,-0.719,-0.711,0.558,0.667,0.646,0.11,0.089,0.144
8000,B1_3,-0.193,-0.614,-0.649,-0.746,0.362,0.783,1.0,-0.754,-0.773,-0.754,0.348,0.548,0.71,0.255,0.209,0.288
8000,A2_1,-0.012,0.941,0.919,0.947,-0.455,-0.561,-0.754,1.0,0.953,0.919,-0.346,-0.778,-0.766,-0.372,-0.312,-0.368
8000,A2_2,0.153,0.918,0.954,0.957,-0.535,-0.719,-0.773,0.953,1.0,0.96,-0.462,-0.803,-0.773,-0.417,-0.366,-0.417
8000,A2_3,0.26,0.929,0.952,0.925,-0.437,-0.711,-0.754,0.919,0.96,1.0,-0.342,-0.785,-0.655,-0.422,-0.396,-0.439
8000,B2_1,-0.281,-0.371,-0.338,-0.401,0.584,0.558,0.348,-0.346,-0.462,-0.342,1.0,0.435,0.406,-0.012,-0.109,-0.092
8000,B2_2,-0.075,-0.8,-0.834,-0.831,0.578,0.667,0.548,-0.778,-0.803,-0.785,0.435,1.0,0.706,-0.018,-0.047,0.012
8000,B2_3,0.087,-0.652,-0.623,-0.781,0.683,0.646,0.71,-0.766,-0.773,-0.655,0.406,0.706,1.0,0.179,0.113,0.176
8000,y1,-0.473,-0.37,-0.43,-0.419,0.403,0.11,0.255,-0.372,-0.417,-0.422,-0.012,-0.018,0.179,1.0,0.99,0.983
8000,y2,-0.502,-0.317,-0.401,-0.372,0.347,0.089,0.209,-0.312,-0.366,-0.396,-0.109,-0.047,0.113,0.99,1.0,0.992
8000,y3,-0.511,-0.343,-0.442,-0.426,0.388,0.144,0.288,-0.368,-0.417,-0.439,-0.092,0.012,0.176,0.983,0.992,1.0
8500,.,1.0,0.112,0.168,0.111,-0.431,-0.458,-0.2,-0.001,0.156,0.256,-0.3,-0.085,0.073,-0.44,-0.523,-0.489
8500,A1_1,0.112,1.0,0.931,0.899,-0.477,-0.557,-0.609,0.937,0.921,0.933,-0.379,-0.799,-0.659,-0.36,-0.306,-0.33
8500,A1_2,0.168,0.931,1.0,0.95,-0.473,-0.626,-0.648,0.924,0.959,0.955,-0.349,-0.826,-0.63,-0.417,-0.391,-0.441
8500,A1_3,0.111,0.899,0.95,1.0,-0.59,-0.673,-0.74,0.955,0.959,0.927,-0.406,-0.832,-0.783,-0.404,-0.346,-0.412
8500,B1_1,-0.431,-0.477,-0.473,-0.59,1.0,0.534,0.38,-0.471,-0.538,-0.438,0.602,0.595,0.695,0.379,0.305,0.34
8500,B1_2,-0.458,-0.557,-0.626,-0.673,0.534,1.0,0.794,-0.575,-0.718,-0.713,0.566,0.679,0.662,0.078,0.08,0.11
8500,B1_3,-0.2,-0.609,-0.648,-0.74,0.38,0.794,1.0,-0.76,-0.76,-0.751,0.367,0.563,0.717,0.227,0.173,0.22
8500,A2_1,-0.001,0.937,0.924,0.955,-0.471,-0.575,-0.76,1.0,0.953,0.924,-0.351,-0.774,-0.767,-0.377,-0.303,-0.36
8500,A2_2,0.156,0.921,0.959,0.959,-0.538,-0.718,-0.76,0.953,1.0,0.96,-0.47,-0.802,-0.772,-0.401,-0.349,-0.402
8500,A2_3,0.256,0.933,0.955,0.927,-0.438,-0.713,-0.751,0.924,0.96,1.0,-0.342,-0.791,-0.661,-0.392,-0.374,-0.419
8500,B2_1,-0.3,-0.379,-0.349,-0.406,0.602,0.566,0.367,-0.351,-0.47,-0.342,1.0,0.451,0.43,-0.021,-0.097,-0.093
8500,B2_2,-0.085,-0.799,-0.826,-0.832,0.595,0.679,0.563,-0.774,-0.802,-0.791,0.451,1.0,0.712,-0.04,-0.071,-0.005
8500,B2_3,0.073,-0.659,-0.63,-0.783,0.695,0.662,0.717,-0.767,-0.772,-0.661,0.43,0.712,1.0,0.171,0.063,0.131
8500,y1,-0.44,-0.36,-0.417,-0.404,0.379,0.078,0.227,-0.377,-0.401,-0.392,-0.021,-0.04,0.171,1.0,0.982,0.975
8500,y2,-0.523,-0.306,-0.391,-0.346,0.305,0.08,0.173,-0.303,-0.349,-0.374,-0.097,-0.071,0.063,0.982,1.0,0.99
8500,y3,-0.489,-0.33,-0.441,-0.412,0.34,0.11,0.22,-0.36,-0.402,-0.419,-0.093,-0.005,0.131,0.975,0.99,1.0
9000,.,1.0,0.071,0.136,0.078,-0.401,-0.448,-0.161,-0.034,0.124,0.216,-0.304,-0.087,0.083,-0.433,-0.496,-0.456
9000,A1_1,0.071,1.0,0.935,0.903,-0.479,-0.558,-0.611,0.939,0.923,0.933,-0.378,-0.798,-0.662,-0.329,-0.347,-0.345
9000,A1_2,0.136,0.935,1.0,0.956,-0.479,-0.628,-0.647,0.929,0.963,0.96,-0.366,-0.825,-0.639,-0.398,-0.423,-0.455
9000,A1_3,0.078,0.903,0.956,1.0,-0.598,-0.671,-0.737,0.958,0.963,0.929,-0.417,-0.838,-0.786,-0.365,-0.374,-0.422
9000,B1_1,-0.401,-0.479,-0.479,-0.598,1.0,0.544,0.394,-0.483,-0.55,-0.436,0.615,0.622,0.71,0.324,0.297,0.309
9000,B1_2,-0.448,-0.558,-0.628,-0.671,0.544,1.0,0.798,-0.579,-0.713,-0.716,0.574,0.7,0.677,0.06,0.079,0.106
9000,B1_3,-0.161,-0.611,-0.647,-0.737,0.394,0.798,1.0,-0.765,-0.75,-0.751,0.376,0.58,0.726,0.189,0.194,0.228
9000,A2_1,-0.034,0.939,0.929,0.958,-0.483,-0.579,-0.765,1.0,0.951,0.924,-0.363,-0.775,-0.762,-0.342,-0.354,-0.384
9000,A2_2,0.124,0.923,0.963,0.963,-0.55,-0.713,-0.75,0.951,1.0,0.961,-0.467,-0.804,-0.782,-0.379,-0.389,-0.425
9000,A2_3,0.216,0.933,0.96,0.929,-0.436,-0.716,-0.751,0.924,0.961,1.0,-0.356,-0.796,-0.664,-0.357,-0.398,-0.418
9000,B2_1,-0.304,-0.378,-0.366,-0.417,0.615,0.574,0.376,-0.363,-0.467,-0.356,1.0,0.479,0.454,-0.052,-0.09,-0.073
9000,B2_2,-0.087,-0.798,-0.825,-0.838,0.622,0.7,0.58,-0.775,-0.804,-0.796,0.479,1.0,0.718,-0.06,-0.024,0.005
9000,B2_3,0.083,-0.662,-0.639,-0.786,0.71,0.677,0.726,-0.762,-0.782,-0.664,0.454,0.718,1.0,0.119,0.082,0.125
9000,y1,-0.433,-0.329,-0.398,-0.365,0.324,0.06,0.189,-0.342,-0.379,-0.357,-0.052,-0.06,0.119,1.0,0.984,0.978
9000,y2,-0.496,-0.347,-0.423,-0.374,0.297,0.079,0.194,-0.354,-0.389,-0.398,-0.09,-0.024,0.082,0.984,1.0,0.991
9000,y3,-0.456,-0.345,-0.455,-0.422,0.309,0.106,0.228,-0.384,-0.425,-0.418,-0.073,0.005,0.125,0.978,0.991,1.0
9500,.,1.0,0.054,0.124,0.064,-0.382,-0.382,-0.127,-0.044,0.093,0.198,-0.272,-0.056,0.112,-0.426,-0.484,-0.437
9500,A1_1,0.054,1.0,0.936,0.91,-0.495,-0.589,-0.62,0.939,0.926,0.934,-0.414,-0.799,-0.664,-0.336,-0.356,-0.356
9500,A1_2,0.124,0.936,1.0,0.962,-0.498,-0.649,-0.655,0.93,0.965,0.959,-0.38,-0.826,-0.641,-0.428,-0.455,-0.462
9500,A1_3,0.064,0.91,0.962,1.0,-0.603,-0.69,-0.729,0.957,0.966,0.934,-0.45,-0.832,-0.77,-0.387,-0.393,-0.432
9500,B1_1,-0.382,-0.495,-0.498,-0.603,1.0,0.564,0.412,-0.511,-0.554,-0.452,0.633,0.638,0.717,0.29,0.249,0.31
9500,B1_2,-0.382,-0.589,-0.649,-0.69,0.564,1.0,0.811,-0.617,-0.73,-0.738,0.588,0.726,0.697,0.065,0.076,0.08
9500,B1_3,-0.127,-0.62,-0.655,-0.729,0.412,0.811,1.0,-0.775,-0.751,-0.763,0.4,0.585,0.726,0.206,0.206,0.23
9500,A2_1,-0.044,0.939,0.93,0.957,-0.511,-0.617,-0.775,1.0,0.954,0.929,-0.396,-0.777,-0.773,-0.364,-0.374,-0.403
9500,A2_2,0.093,0.926,0.965,0.966,-0.554,-0.73,-0.751,0.954,1.0,0.961,-0.48,-0.804,-0.78,-0.407,-0.415,-0.43
9500,A2_3,0.198,0.934,0.959,0.934,-0.452,-0.738,-0.763,0.929,0.961,1.0,-0.392,-0.794,-0.662,-0.379,-0.425,-0.413
9500,B2_1,-0.272,-0.414,-0.38,-0.45,0.633,0.588,0.4,-0.396,-0.48,-0.392,1.0,0.495,0.471,-0.074,-0.124,-0.075
9500,B2_2,-0.056,-0.799,-0.826,-0.832,0.638,0.726,0.585,-0.777,-0.804,-0.794,0.495,1.0,0.72,-0.045,-0.009,0.002
9500,B2_3,0.112,-0.664,-0.641,-0.77,0.717,0.697,0.726,-0.773,-0.78,-0.662,0.471,0.72,1.0,0.141,0.098,0.153
9500,y1,-0.426,-0.336,-0.428,-0.387,0.29,0.065,0.206,-0.364,-0.407,-0.379,-0.074,-0.045,0.141,1.0,0.981,0.988
9500,y2,-0.484,-0.356,-0.455,-0.393,0.249,0.076,0.206,-0.374,-0.415,-0.425,-0.124,-0.009,0.098,0.981,1.0,0.989
9500,y3,-0.437,-0.356,-0.462,-0.432,0.31,0.08,0.23,-0.403,-0.43,-0.413,-0.075,0.002,0.153,0.988,0.989,1.0
10000,.,1.0,0.028,0.111,0.046,-0.38,-0.354,-0.091,-0.053,0.08,0.164,-0.26,-0.05,0.118,-0.436,-0.467,-0.43
10000,A1_1,0.028,1.0,0.938,0.921,-0.505,-0.609,-0.634,0.945,0.931,0.942,-0.423,-0.809,-0.674,-0.331,-0.33,-0.321
10000,A1_2,0.111,0.938,1.0,0.968,-0.51,-0.671,-0.677,0.938,0.969,0.963,-0.392,-0.834,-0.654,-0.418,-0.418,-0.429
10000,A1_3,0.046,0.921,0.968,1.0,-0.605,-0.697,-0.733,0.964,0.97,0.937,-0.464,-0.838,-0.771,-0.363,-0.372,-0.407
10000,B1_1,-0.38,-0.505,-0.51,-0.605,1.0,0.567,0.416,-0.533,-0.561,-0.452,0.635,0.647,0.722,0.243,0.257,0.306
10000,B1_2,-0.354,-0.609,-0.671,-0.697,0.567,1.0,0.814,-0.634,-0.733,-0.737,0.591,0.741,0.709,0.001,0.068,0.072
10000,B1_3,-0.091,-0.634,-0.677,-0.733,0.416,0.814,1.0,-0.779,-0.757,-0.763,0.404,0.592,0.732,0.13,0.215,0.228
10000,A2_1,-0.053,0.945,0.938,0.964,-0.533,-0.634,-0.779,1.0,0.957,0.934,-0.408,-0.789,-0.778,-0.341,-0.362,-0.383
10000,A2_2,0.08,0.931,0.969,0.97,-0.561,-0.733,-0.757,0.957,1.0,0.964,-0.488,-0.807,-0.777,-0.391,-0.399,-0.42
10000,A2_3,0.164,0.942,0.963,0.937,-0.452,-0.737,-0.763,0.934,0.964,1.0,-0.402,-0.796,-0.665,-0.371,-0.394,-0.386
10000,B2_1,-0.26,-0.423,-0.392,-0.464,0.635,0.591,0.404,-0.408,-0.488,-0.402,1.0,0.508,0.483,-0.093,-0.139,-0.072
10000,B2_2,-0.05,-0.809,-0.834,-0.838,0.647,0.741,0.592,-0.789,-0.807,-0.796,0.508,1.0,0.728,-0.05,-0.035,-0.022
10000,B2_3,0.118,-0.674,-0.654,-0.771,0.722,0.709,0.732,-0.778,-0.777,-0.665,0.483,0.728,1.0,0.061,0.11,0.155
10000,y1,-0.436,-0.331,-0.418,-0.363,0.243,0.001,0.13,-0.341,-0.391,-0.371,-0.093,-0.05,0.061,1.0,0.986,0.983
10000,y2,-0.467,-0.33,-0.418,-0.372,0.257,0.068,0.215,-0.362,-0.399,-0.394,-0.139,-0.035,0.11,0.986,1.0,0.989
10000,y3,-0.43,-0.321,-0.429,-0.407,0.306,0.072,0.228,-0.383,-0.42,-0.386,-0.072,-0.022,0.155,0.983,0.989,1.0
