,,.,A1_1,A1_2,A1_3,B1_1,B1_2,B1_3,A2_1,A2_2,A2_3,B2_1,B2_2,B2_3,y1,y2,y3
1,.,1.0,0.086,0.091,-0.096,0.061,-0.154,0.088,-0.021,-0.169,-0.322,0.211,-0.041,0.065,-0.044,-0.109,-0.062
1,A1_1,0.086,1.0,-0.104,0.164,0.29,0.252,0.123,0.143,-0.021,0.053,0.308,-0.074,-0.329,0.074,0.055,0.149
1,A1_2,0.091,-0.104,1.0,-0.041,0.01,0.042,-0.099,0.019,-0.063,0.209,0.02,-0.127,0.177,-0.119,-0.133,0.194
1,A1_3,-0.096,0.164,-0.041,1.0,0.14,0.291,0.3,-0.091,0.275,-0.096,-0.227,0.096,-0.203,0.176,0.038,0.22
1,B1_1,0.061,0.29,0.01,0.14,1.0,0.082,0.012,0.075,-0.014,-0.114,0.181,0.07,-0.15,-0.044,0.098,0.039
1,B1_2,-0.154,0.252,0.042,0.291,0.082,1.0,0.029,0.026,0.125,0.027,-0.147,-0.074,0.082,-0.009,0.075,-0.072
1,B1_3,0.088,0.123,-0.099,0.3,0.012,0.029,1.0,0.09,0.038,-0.171,0.03,0.0,0.03,0.039,-0.15,0.061
1,A2_1,-0.021,0.143,0.019,-0.091,0.075,0.026,0.09,1.0,-0.071,-0.039,-0.019,-0.101,0.17,0.188,0.13,0.128
1,A2_2,-0.169,-0.021,-0.063,0.275,-0.014,0.125,0.038,-0.071,1.0,-0.015,-0.048,0.255,0.129,-0.019,-0.013,-0.017
1,A2_3,-0.322,0.053,0.209,-0.096,-0.114,0.027,-0.171,-0.039,-0.015,1.0,0.002,-0.212,0.016,0.005,0.048,-0.078
1,B2_1,0.211,0.308,0.02,-0.227,0.181,-0.147,0.03,-0.019,-0.048,0.002,1.0,0.037,-0.064,0.082,-0.029,-0.033
1,B2_2,-0.041,-0.074,-0.127,0.096,0.07,-0.074,0.0,-0.101,0.255,-0.212,0.037,1.0,-0.131,-0.008,-0.028,-0.117
1,B2_3,0.065,-0.329,0.177,-0.203,-0.15,0.082,0.03,0.17,0.129,0.016,-0.064,-0.131,1.0,-0.201,-0.013,0.006
1,y1,-0.044,0.074,-0.119,0.176,-0.044,-0.009,0.039,0.188,-0.019,0.005,0.082,-0.008,-0.201,1.0,0.154,-0.115
1,y2,-0.109,0.055,-0.133,0.038,0.098,0.075,-0.15,0.13,-0.013,0.048,-0.029,-0.028,-0.013,0.154,1.0,0.099
1,y3,-0.062,0.149,0.194,0.22,0.039,-0.072,0.061,0.128,-0.017,-0.078,-0.033,-0.117,0.006,-0.115,0.099,1.0
2,.,1.0,0.086,0.09,-0.096,0.06,-0.155,0.086,-0.021,-0.169,-0.323,0.211,-0.041,0.065,-0.044,-0.108,-0.062
2,A1_1,0.086,1.0,-0.104,0.164,0.29,0.252,0.123,0.143,-0.021,0.053,0.309,-0.073,-0.328,0.074,0.055,0.149
2,A1_2,0.09,-0.104,1.0,-0.041,0.01,0.042,-0.099,0.019,-0.062,0.209,0.02,-0.127,0.177,-0.119,-0.132,0.194
2,A1_3,-0.096,0.164,-0.041,1.0,0.14,0.291,0.299,-0.091,0.275,-0.096,-0.228,0.096,-0.204,0.176,0.038,0.22
2,B1_1,0.06,0.29,0.01,0.14,1.0,0.083,0.013,0.075,-0.013,-0.114,0.181,0.07,-0.149,-0.044,0.097,0.039
2,B1_2,-0.155,0.252,0.042,0.291,0.083,1.0,0.03,0.026,0.126,0.027,-0.146,-0.074,0.082,-0.009,0.075,-0.072
2,B1_3,0.086,0.123,-0.099,0.299,0.013,0.03,1.0,0.09,0.038,-0.171,0.03,0.0,0.031,0.039,-0.15,0.061
2,A2_1,-0.021,0.143,0.019,-0.091,0.075,0.026,0.09,1.0,-0.07,-0.039,-0.018,-0.1,0.17,0.187,0.13,0.127
2,A2_2,-0.169,-0.021,-0.062,0.275,-0.013,0.126,0.038,-0.07,1.0,-0.015,-0.048,0.255,0.129,-0.019,-0.013,-0.018
2,A2_3,-0.323,0.053,0.209,-0.096,-0.114,0.027,-0.171,-0.039,-0.015,1.0,0.002,-0.212,0.016,0.005,0.049,-0.078
2,B2_1,0.211,0.309,0.02,-0.228,0.181,-0.146,0.03,-0.018,-0.048,0.002,1.0,0.037,-0.063,0.082,-0.029,-0.033
2,B2_2,-0.041,-0.073,-0.127,0.096,0.07,-0.074,0.0,-0.1,0.255,-0.212,0.037,1.0,-0.131,-0.008,-0.028,-0.117
2,B2_3,0.065,-0.328,0.177,-0.204,-0.149,0.082,0.031,0.17,0.129,0.016,-0.063,-0.131,1.0,-0.201,-0.013,0.006
2,y1,-0.044,0.074,-0.119,0.176,-0.044,-0.009,0.039,0.187,-0.019,0.005,0.082,-0.008,-0.201,1.0,0.154,-0.114
2,y2,-0.108,0.055,-0.132,0.038,0.097,0.075,-0.15,0.13,-0.013,0.049,-0.029,-0.028,-0.013,0.154,1.0,0.099
2,y3,-0.062,0.149,0.194,0.22,0.039,-0.072,0.061,0.127,-0.018,-0.078,-0.033,-0.117,0.006,-0.114,0.099,1.0
3,.,1.0,0.085,0.09,-0.096,0.059,-0.157,0.084,-0.021,-0.169,-0.323,0.211,-0.041,0.064,-0.043,-0.107,-0.062
3,A1_1,0.085,1.0,-0.104,0.164,0.291,0.253,0.124,0.143,-0.021,0.053,0.309,-0.072,-0.327,0.073,0.055,0.149
3,A1_2,0.09,-0.104,1.0,-0.041,0.011,0.042,-0.099,0.02,-0.062,0.209,0.02,-0.127,0.177,-0.119,-0.132,0.195
3,A1_3,-0.096,0.164,-0.041,1.0,0.14,0.29,0.299,-0.091,0.275,-0.096,-0.228,0.096,-0.204,0.176,0.039,0.221
3,B1_1,0.059,0.291,0.011,0.14,1.0,0.084,0.014,0.075,-0.013,-0.113,0.182,0.07,-0.149,-0.045,0.097,0.039
3,B1_2,-0.157,0.253,0.042,0.29,0.084,1.0,0.031,0.027,0.126,0.027,-0.145,-0.074,0.083,-0.01,0.074,-0.072
3,B1_3,0.084,0.124,-0.099,0.299,0.014,0.031,1.0,0.091,0.039,-0.171,0.031,0.001,0.032,0.039,-0.15,0.061
3,A2_1,-0.021,0.143,0.02,-0.091,0.075,0.027,0.091,1.0,-0.07,-0.038,-0.018,-0.1,0.17,0.186,0.129,0.126
3,A2_2,-0.169,-0.021,-0.062,0.275,-0.013,0.126,0.039,-0.07,1.0,-0.015,-0.047,0.256,0.13,-0.019,-0.013,-0.018
3,A2_3,-0.323,0.053,0.209,-0.096,-0.113,0.027,-0.171,-0.038,-0.015,1.0,0.002,-0.211,0.016,0.005,0.049,-0.078
3,B2_1,0.211,0.309,0.02,-0.228,0.182,-0.145,0.031,-0.018,-0.047,0.002,1.0,0.037,-0.062,0.081,-0.03,-0.034
3,B2_2,-0.041,-0.072,-0.127,0.096,0.07,-0.074,0.001,-0.1,0.256,-0.211,0.037,1.0,-0.131,-0.009,-0.029,-0.118
3,B2_3,0.064,-0.327,0.177,-0.204,-0.149,0.083,0.032,0.17,0.13,0.016,-0.062,-0.131,1.0,-0.202,-0.014,0.006
3,y1,-0.043,0.073,-0.119,0.176,-0.045,-0.01,0.039,0.186,-0.019,0.005,0.081,-0.009,-0.202,1.0,0.154,-0.113
3,y2,-0.107,0.055,-0.132,0.039,0.097,0.074,-0.15,0.129,-0.013,0.049,-0.03,-0.029,-0.014,0.154,1.0,0.099
3,y3,-0.062,0.149,0.195,0.221,0.039,-0.072,0.061,0.126,-0.018,-0.078,-0.034,-0.118,0.006,-0.113,0.099,1.0
4,.,1.0,0.084,0.089,-0.096,0.058,-0.158,0.082,-0.022,-0.17,-0.323,0.211,-0.041,0.063,-0.043,-0.106,-0.063
4,A1_1,0.084,1.0,-0.104,0.164,0.292,0.253,0.125,0.143,-0.021,0.053,0.309,-0.071,-0.326,0.073,0.054,0.148
4,A1_2,0.089,-0.104,1.0,-0.041,0.01,0.042,-0.099,0.02,-0.062,0.209,0.019,-0.127,0.177,-0.119,-0.132,0.195
4,A1_3,-0.096,0.164,-0.041,1.0,0.139,0.289,0.298,-0.091,0.275,-0.096,-0.229,0.095,-0.205,0.176,0.039,0.221
4,B1_1,0.058,0.292,0.01,0.139,1.0,0.085,0.015,0.076,-0.012,-0.113,0.183,0.07,-0.148,-0.045,0.096,0.038
4,B1_2,-0.158,0.253,0.042,0.289,0.085,1.0,0.032,0.027,0.126,0.027,-0.143,-0.073,0.084,-0.01,0.074,-0.073
4,B1_3,0.082,0.125,-0.099,0.298,0.015,0.032,1.0,0.091,0.039,-0.17,0.032,0.001,0.033,0.038,-0.15,0.061
4,A2_1,-0.022,0.143,0.02,-0.091,0.076,0.027,0.091,1.0,-0.07,-0.038,-0.018,-0.099,0.171,0.185,0.129,0.126
4,A2_2,-0.17,-0.021,-0.062,0.275,-0.012,0.126,0.039,-0.07,1.0,-0.014,-0.047,0.257,0.13,-0.02,-0.014,-0.018
4,A2_3,-0.323,0.053,0.209,-0.096,-0.113,0.027,-0.17,-0.038,-0.014,1.0,0.002,-0.211,0.016,0.005,0.049,-0.078
4,B2_1,0.211,0.309,0.019,-0.229,0.183,-0.143,0.032,-0.018,-0.047,0.002,1.0,0.037,-0.061,0.08,-0.03,-0.034
4,B2_2,-0.041,-0.071,-0.127,0.095,0.07,-0.073,0.001,-0.099,0.257,-0.211,0.037,1.0,-0.131,-0.009,-0.029,-0.118
4,B2_3,0.063,-0.326,0.177,-0.205,-0.148,0.084,0.033,0.171,0.13,0.016,-0.061,-0.131,1.0,-0.202,-0.014,0.005
4,y1,-0.043,0.073,-0.119,0.176,-0.045,-0.01,0.038,0.185,-0.02,0.005,0.08,-0.009,-0.202,1.0,0.155,-0.113
4,y2,-0.106,0.054,-0.132,0.039,0.096,0.074,-0.15,0.129,-0.014,0.049,-0.03,-0.029,-0.014,0.155,1.0,0.099
4,y3,-0.063,0.148,0.195,0.221,0.038,-0.073,0.061,0.126,-0.018,-0.078,-0.034,-0.118,0.005,-0.113,0.099,1.0
5,.,1.0,0.083,0.088,-0.095,0.056,-0.161,0.08,-0.023,-0.171,-0.323,0.21,-0.042,0.061,-0.042,-0.105,-0.063
5,A1_1,0.083,1.0,-0.104,0.164,0.292,0.254,0.125,0.143,-0.021,0.053,0.309,-0.07,-0.325,0.072,0.054,0.148
5,A1_2,0.088,-0.104,1.0,-0.041,0.01,0.041,-0.099,0.021,-0.062,0.209,0.019,-0.126,0.177,-0.118,-0.131,0.195
5,A1_3,-0.095,0.164,-0.041,1.0,0.139,0.289,0.298,-0.09,0.275,-0.096,-0.229,0.095,-0.205,0.176,0.04,0.221
5,B1_1,0.056,0.292,0.01,0.139,1.0,0.086,0.016,0.076,-0.011,-0.113,0.184,0.07,-0.146,-0.046,0.095,0.037
5,B1_2,-0.161,0.254,0.041,0.289,0.086,1.0,0.034,0.027,0.127,0.027,-0.141,-0.072,0.086,-0.011,0.073,-0.073
5,B1_3,0.08,0.125,-0.099,0.298,0.016,0.034,1.0,0.092,0.04,-0.17,0.034,0.002,0.034,0.037,-0.151,0.06
5,A2_1,-0.023,0.143,0.021,-0.09,0.076,0.027,0.092,1.0,-0.069,-0.037,-0.018,-0.098,0.171,0.184,0.129,0.125
5,A2_2,-0.171,-0.021,-0.062,0.275,-0.011,0.127,0.04,-0.069,1.0,-0.014,-0.047,0.258,0.131,-0.02,-0.014,-0.019
5,A2_3,-0.323,0.053,0.209,-0.096,-0.113,0.027,-0.17,-0.037,-0.014,1.0,0.002,-0.211,0.016,0.005,0.049,-0.078
5,B2_1,0.21,0.309,0.019,-0.229,0.184,-0.141,0.034,-0.018,-0.047,0.002,1.0,0.038,-0.06,0.079,-0.031,-0.035
5,B2_2,-0.042,-0.07,-0.126,0.095,0.07,-0.072,0.002,-0.098,0.258,-0.211,0.038,1.0,-0.13,-0.01,-0.03,-0.119
5,B2_3,0.061,-0.325,0.177,-0.205,-0.146,0.086,0.034,0.171,0.131,0.016,-0.06,-0.13,1.0,-0.203,-0.015,0.005
5,y1,-0.042,0.072,-0.118,0.176,-0.046,-0.011,0.037,0.184,-0.02,0.005,0.079,-0.01,-0.203,1.0,0.155,-0.112
5,y2,-0.105,0.054,-0.131,0.04,0.095,0.073,-0.151,0.129,-0.014,0.049,-0.031,-0.03,-0.015,0.155,1.0,0.1
5,y3,-0.063,0.148,0.195,0.221,0.037,-0.073,0.06,0.125,-0.019,-0.078,-0.035,-0.119,0.005,-0.112,0.1,1.0
6,.,1.0,0.081,0.088,-0.095,0.053,-0.164,0.076,-0.025,-0.172,-0.323,0.208,-0.043,0.059,-0.041,-0.104,-0.063
6,A1_1,0.081,1.0,-0.104,0.164,0.293,0.254,0.126,0.144,-0.021,0.053,0.31,-0.069,-0.324,0.071,0.054,0.147
6,A1_2,0.088,-0.104,1.0,-0.041,0.01,0.041,-0.099,0.021,-0.061,0.21,0.018,-0.126,0.176,-0.118,-0.131,0.195
6,A1_3,-0.095,0.164,-0.041,1.0,0.138,0.288,0.297,-0.09,0.276,-0.096,-0.23,0.095,-0.206,0.177,0.04,0.221
6,B1_1,0.053,0.293,0.01,0.138,1.0,0.088,0.018,0.077,-0.011,-0.113,0.186,0.071,-0.145,-0.048,0.094,0.036
6,B1_2,-0.164,0.254,0.041,0.288,0.088,1.0,0.036,0.028,0.127,0.027,-0.138,-0.07,0.088,-0.013,0.072,-0.074
6,B1_3,0.076,0.126,-0.099,0.297,0.018,0.036,1.0,0.092,0.04,-0.17,0.035,0.003,0.035,0.036,-0.151,0.06
6,A2_1,-0.025,0.144,0.021,-0.09,0.077,0.028,0.092,1.0,-0.069,-0.037,-0.017,-0.097,0.172,0.183,0.128,0.124
6,A2_2,-0.172,-0.021,-0.061,0.276,-0.011,0.127,0.04,-0.069,1.0,-0.014,-0.046,0.258,0.132,-0.021,-0.015,-0.02
6,A2_3,-0.323,0.053,0.21,-0.096,-0.113,0.027,-0.17,-0.037,-0.014,1.0,0.002,-0.21,0.016,0.005,0.049,-0.078
6,B2_1,0.208,0.31,0.018,-0.23,0.186,-0.138,0.035,-0.017,-0.046,0.002,1.0,0.039,-0.058,0.078,-0.032,-0.036
6,B2_2,-0.043,-0.069,-0.126,0.095,0.071,-0.07,0.003,-0.097,0.258,-0.21,0.039,1.0,-0.129,-0.011,-0.03,-0.119
6,B2_3,0.059,-0.324,0.176,-0.206,-0.145,0.088,0.035,0.172,0.132,0.016,-0.058,-0.129,1.0,-0.203,-0.015,0.004
6,y1,-0.041,0.071,-0.118,0.177,-0.048,-0.013,0.036,0.183,-0.021,0.005,0.078,-0.011,-0.203,1.0,0.156,-0.11
6,y2,-0.104,0.054,-0.131,0.04,0.094,0.072,-0.151,0.128,-0.015,0.049,-0.032,-0.03,-0.015,0.156,1.0,0.1
6,y3,-0.063,0.147,0.195,0.221,0.036,-0.074,0.06,0.124,-0.02,-0.078,-0.036,-0.119,0.004,-0.11,0.1,1.0
7,.,1.0,0.079,0.087,-0.094,0.049,-0.168,0.072,-0.026,-0.174,-0.322,0.205,-0.044,0.057,-0.039,-0.103,-0.063
7,A1_1,0.079,1.0,-0.104,0.164,0.293,0.254,0.127,0.144,-0.021,0.054,0.31,-0.068,-0.323,0.07,0.053,0.146
7,A1_2,0.087,-0.104,1.0,-0.04,0.01,0.04,-0.099,0.022,-0.061,0.21,0.017,-0.126,0.176,-0.118,-0.131,0.195
7,A1_3,-0.094,0.164,-0.04,1.0,0.138,0.287,0.296,-0.09,0.276,-0.096,-0.23,0.094,-0.206,0.177,0.041,0.222
7,B1_1,0.049,0.293,0.01,0.138,1.0,0.09,0.02,0.077,-0.01,-0.113,0.187,0.072,-0.143,-0.049,0.093,0.035
7,B1_2,-0.168,0.254,0.04,0.287,0.09,1.0,0.038,0.028,0.128,0.027,-0.136,-0.068,0.09,-0.014,0.07,-0.075
7,B1_3,0.072,0.127,-0.099,0.296,0.02,0.038,1.0,0.092,0.041,-0.17,0.037,0.005,0.037,0.035,-0.152,0.059
7,A2_1,-0.026,0.144,0.022,-0.09,0.077,0.028,0.092,1.0,-0.068,-0.036,-0.017,-0.096,0.172,0.182,0.127,0.123
7,A2_2,-0.174,-0.021,-0.061,0.276,-0.01,0.128,0.041,-0.068,1.0,-0.013,-0.045,0.259,0.132,-0.022,-0.015,-0.02
7,A2_3,-0.322,0.054,0.21,-0.096,-0.113,0.027,-0.17,-0.036,-0.013,1.0,0.001,-0.21,0.016,0.005,0.049,-0.078
7,B2_1,0.205,0.31,0.017,-0.23,0.187,-0.136,0.037,-0.017,-0.045,0.001,1.0,0.04,-0.056,0.076,-0.033,-0.037
7,B2_2,-0.044,-0.068,-0.126,0.094,0.072,-0.068,0.005,-0.096,0.259,-0.21,0.04,1.0,-0.128,-0.012,-0.031,-0.12
7,B2_3,0.057,-0.323,0.176,-0.206,-0.143,0.09,0.037,0.172,0.132,0.016,-0.056,-0.128,1.0,-0.204,-0.016,0.003
7,y1,-0.039,0.07,-0.118,0.177,-0.049,-0.014,0.035,0.182,-0.022,0.005,0.076,-0.012,-0.204,1.0,0.157,-0.109
7,y2,-0.103,0.053,-0.131,0.041,0.093,0.07,-0.152,0.127,-0.015,0.049,-0.033,-0.031,-0.016,0.157,1.0,0.101
7,y3,-0.063,0.146,0.195,0.222,0.035,-0.075,0.059,0.123,-0.02,-0.078,-0.037,-0.12,0.003,-0.109,0.101,1.0
8,.,1.0,0.076,0.087,-0.094,0.044,-0.172,0.067,-0.028,-0.176,-0.322,0.202,-0.047,0.054,-0.036,-0.101,-0.062
8,A1_1,0.076,1.0,-0.103,0.164,0.294,0.254,0.127,0.144,-0.021,0.054,0.31,-0.067,-0.322,0.069,0.052,0.145
8,A1_2,0.087,-0.103,1.0,-0.04,0.009,0.04,-0.099,0.022,-0.06,0.211,0.016,-0.126,0.175,-0.117,-0.13,0.195
8,A1_3,-0.094,0.164,-0.04,1.0,0.137,0.286,0.296,-0.089,0.276,-0.095,-0.231,0.094,-0.206,0.177,0.041,0.222
8,B1_1,0.044,0.294,0.009,0.137,1.0,0.093,0.022,0.078,-0.009,-0.113,0.189,0.074,-0.141,-0.051,0.091,0.034
8,B1_2,-0.172,0.254,0.04,0.286,0.093,1.0,0.041,0.029,0.128,0.027,-0.133,-0.066,0.092,-0.017,0.068,-0.077
8,B1_3,0.067,0.127,-0.099,0.296,0.022,0.041,1.0,0.093,0.042,-0.17,0.04,0.007,0.039,0.033,-0.153,0.057
8,A2_1,-0.028,0.144,0.022,-0.089,0.078,0.029,0.093,1.0,-0.068,-0.036,-0.017,-0.096,0.173,0.181,0.127,0.122
8,A2_2,-0.176,-0.021,-0.06,0.276,-0.009,0.128,0.042,-0.068,1.0,-0.013,-0.045,0.26,0.133,-0.023,-0.016,-0.021
8,A2_3,-0.322,0.054,0.211,-0.095,-0.113,0.027,-0.17,-0.036,-0.013,1.0,0.001,-0.21,0.016,0.005,0.049,-0.078
8,B2_1,0.202,0.31,0.016,-0.231,0.189,-0.133,0.04,-0.017,-0.045,0.001,1.0,0.042,-0.054,0.074,-0.034,-0.038
8,B2_2,-0.047,-0.067,-0.126,0.094,0.074,-0.066,0.007,-0.096,0.26,-0.21,0.042,1.0,-0.127,-0.014,-0.033,-0.121
8,B2_3,0.054,-0.322,0.175,-0.206,-0.141,0.092,0.039,0.173,0.133,0.016,-0.054,-0.127,1.0,-0.206,-0.018,0.002
8,y1,-0.036,0.069,-0.117,0.177,-0.051,-0.017,0.033,0.181,-0.023,0.005,0.074,-0.014,-0.206,1.0,0.158,-0.106
8,y2,-0.101,0.052,-0.13,0.041,0.091,0.068,-0.153,0.127,-0.016,0.049,-0.034,-0.033,-0.018,0.158,1.0,0.103
8,y3,-0.062,0.145,0.195,0.222,0.034,-0.077,0.057,0.122,-0.021,-0.078,-0.038,-0.121,0.002,-0.106,0.103,1.0
9,.,1.0,0.073,0.086,-0.093,0.038,-0.178,0.061,-0.029,-0.179,-0.321,0.197,-0.05,0.05,-0.033,-0.098,-0.061
9,A1_1,0.073,1.0,-0.103,0.164,0.294,0.255,0.128,0.144,-0.02,0.054,0.31,-0.066,-0.321,0.068,0.051,0.144
9,A1_2,0.086,-0.103,1.0,-0.039,0.009,0.039,-0.099,0.023,-0.059,0.211,0.016,-0.127,0.175,-0.117,-0.13,0.195
9,A1_3,-0.093,0.164,-0.039,1.0,0.136,0.284,0.295,-0.089,0.276,-0.095,-0.231,0.093,-0.207,0.177,0.042,0.222
9,B1_1,0.038,0.294,0.009,0.136,1.0,0.096,0.025,0.078,-0.008,-0.112,0.191,0.076,-0.138,-0.053,0.089,0.032
9,B1_2,-0.178,0.255,0.039,0.284,0.096,1.0,0.044,0.029,0.129,0.027,-0.129,-0.063,0.095,-0.019,0.066,-0.079
9,B1_3,0.061,0.128,-0.099,0.295,0.025,0.044,1.0,0.093,0.043,-0.17,0.042,0.009,0.041,0.031,-0.155,0.056
9,A2_1,-0.029,0.144,0.023,-0.089,0.078,0.029,0.093,1.0,-0.067,-0.035,-0.017,-0.095,0.173,0.18,0.126,0.121
9,A2_2,-0.179,-0.02,-0.059,0.276,-0.008,0.129,0.043,-0.067,1.0,-0.012,-0.044,0.261,0.134,-0.024,-0.017,-0.022
9,A2_3,-0.321,0.054,0.211,-0.095,-0.112,0.027,-0.17,-0.035,-0.012,1.0,0.001,-0.209,0.016,0.005,0.049,-0.078
9,B2_1,0.197,0.31,0.016,-0.231,0.191,-0.129,0.042,-0.017,-0.044,0.001,1.0,0.044,-0.052,0.072,-0.036,-0.04
9,B2_2,-0.05,-0.066,-0.127,0.093,0.076,-0.063,0.009,-0.095,0.261,-0.209,0.044,1.0,-0.124,-0.016,-0.034,-0.122
9,B2_3,0.05,-0.321,0.175,-0.207,-0.138,0.095,0.041,0.173,0.134,0.016,-0.052,-0.124,1.0,-0.207,-0.019,0.0
9,y1,-0.033,0.068,-0.117,0.177,-0.053,-0.019,0.031,0.18,-0.024,0.005,0.072,-0.016,-0.207,1.0,0.16,-0.104
9,y2,-0.098,0.051,-0.13,0.042,0.089,0.066,-0.155,0.126,-0.017,0.049,-0.036,-0.034,-0.019,0.16,1.0,0.104
9,y3,-0.061,0.144,0.195,0.222,0.032,-0.079,0.056,0.121,-0.022,-0.078,-0.04,-0.122,0.0,-0.104,0.104,1.0
10,.,1.0,0.07,0.086,-0.093,0.031,-0.184,0.054,-0.031,-0.181,-0.32,0.192,-0.054,0.045,-0.03,-0.094,-0.059
10,A1_1,0.07,1.0,-0.103,0.164,0.294,0.255,0.129,0.144,-0.02,0.055,0.31,-0.065,-0.319,0.067,0.05,0.143
10,A1_2,0.086,-0.103,1.0,-0.039,0.008,0.039,-0.1,0.023,-0.059,0.212,0.015,-0.127,0.174,-0.116,-0.129,0.194
10,A1_3,-0.093,0.164,-0.039,1.0,0.136,0.283,0.294,-0.089,0.276,-0.094,-0.232,0.093,-0.207,0.177,0.042,0.222
10,B1_1,0.031,0.294,0.008,0.136,1.0,0.099,0.028,0.078,-0.006,-0.112,0.194,0.078,-0.135,-0.056,0.087,0.03
10,B1_2,-0.184,0.255,0.039,0.283,0.099,1.0,0.047,0.029,0.13,0.026,-0.125,-0.059,0.098,-0.022,0.063,-0.081
10,B1_3,0.054,0.129,-0.1,0.294,0.028,0.047,1.0,0.093,0.044,-0.17,0.045,0.012,0.044,0.029,-0.156,0.054
10,A2_1,-0.031,0.144,0.023,-0.089,0.078,0.029,0.093,1.0,-0.066,-0.034,-0.016,-0.094,0.173,0.178,0.125,0.12
10,A2_2,-0.181,-0.02,-0.059,0.276,-0.006,0.13,0.044,-0.066,1.0,-0.011,-0.043,0.262,0.135,-0.025,-0.019,-0.024
10,A2_3,-0.32,0.055,0.212,-0.094,-0.112,0.026,-0.17,-0.034,-0.011,1.0,0.0,-0.209,0.016,0.004,0.049,-0.078
10,B2_1,0.192,0.31,0.015,-0.232,0.194,-0.125,0.045,-0.016,-0.043,0.0,1.0,0.047,-0.049,0.069,-0.038,-0.042
10,B2_2,-0.054,-0.065,-0.127,0.093,0.078,-0.059,0.012,-0.094,0.262,-0.209,0.047,1.0,-0.122,-0.018,-0.036,-0.124
10,B2_3,0.045,-0.319,0.174,-0.207,-0.135,0.098,0.044,0.173,0.135,0.016,-0.049,-0.122,1.0,-0.209,-0.021,-0.002
10,y1,-0.03,0.067,-0.116,0.177,-0.056,-0.022,0.029,0.178,-0.025,0.004,0.069,-0.018,-0.209,1.0,0.162,-0.101
10,y2,-0.094,0.05,-0.129,0.042,0.087,0.063,-0.156,0.125,-0.019,0.049,-0.038,-0.036,-0.021,0.162,1.0,0.106
10,y3,-0.059,0.143,0.194,0.222,0.03,-0.081,0.054,0.12,-0.024,-0.078,-0.042,-0.124,-0.002,-0.101,0.106,1.0
11,.,1.0,0.067,0.085,-0.092,0.023,-0.192,0.046,-0.032,-0.184,-0.318,0.185,-0.059,0.039,-0.025,-0.09,-0.057
11,A1_1,0.067,1.0,-0.102,0.164,0.295,0.255,0.129,0.144,-0.02,0.055,0.31,-0.064,-0.318,0.066,0.05,0.142
11,A1_2,0.085,-0.102,1.0,-0.038,0.008,0.038,-0.1,0.024,-0.058,0.213,0.014,-0.127,0.173,-0.116,-0.129,0.194
11,A1_3,-0.092,0.164,-0.038,1.0,0.135,0.282,0.293,-0.088,0.277,-0.093,-0.232,0.092,-0.208,0.177,0.043,0.222
11,B1_1,0.023,0.295,0.008,0.135,1.0,0.103,0.032,0.078,-0.005,-0.112,0.197,0.081,-0.131,-0.059,0.084,0.027
11,B1_2,-0.192,0.255,0.038,0.282,0.103,1.0,0.051,0.03,0.13,0.026,-0.12,-0.055,0.101,-0.026,0.06,-0.084
11,B1_3,0.046,0.129,-0.1,0.293,0.032,0.051,1.0,0.094,0.045,-0.169,0.048,0.015,0.047,0.026,-0.158,0.051
11,A2_1,-0.032,0.144,0.024,-0.088,0.078,0.03,0.094,1.0,-0.066,-0.033,-0.016,-0.094,0.173,0.177,0.124,0.119
11,A2_2,-0.184,-0.02,-0.058,0.277,-0.005,0.13,0.045,-0.066,1.0,-0.011,-0.042,0.263,0.137,-0.027,-0.02,-0.025
11,A2_3,-0.318,0.055,0.213,-0.093,-0.112,0.026,-0.169,-0.033,-0.011,1.0,-0.0,-0.208,0.016,0.004,0.049,-0.078
11,B2_1,0.185,0.31,0.014,-0.232,0.197,-0.12,0.048,-0.016,-0.042,-0.0,1.0,0.05,-0.046,0.066,-0.04,-0.044
11,B2_2,-0.059,-0.064,-0.127,0.092,0.081,-0.055,0.015,-0.094,0.263,-0.208,0.05,1.0,-0.119,-0.021,-0.039,-0.126
11,B2_3,0.039,-0.318,0.173,-0.208,-0.131,0.101,0.047,0.173,0.137,0.016,-0.046,-0.119,1.0,-0.211,-0.023,-0.004
11,y1,-0.025,0.066,-0.116,0.177,-0.059,-0.026,0.026,0.177,-0.027,0.004,0.066,-0.021,-0.211,1.0,0.164,-0.097
11,y2,-0.09,0.05,-0.129,0.043,0.084,0.06,-0.158,0.124,-0.02,0.049,-0.04,-0.039,-0.023,0.164,1.0,0.109
11,y3,-0.057,0.142,0.194,0.222,0.027,-0.084,0.051,0.119,-0.025,-0.078,-0.044,-0.126,-0.004,-0.097,0.109,1.0
12,.,1.0,0.064,0.085,-0.091,0.013,-0.2,0.037,-0.034,-0.187,-0.316,0.177,-0.066,0.032,-0.02,-0.085,-0.053
12,A1_1,0.064,1.0,-0.101,0.164,0.295,0.255,0.13,0.144,-0.02,0.056,0.31,-0.063,-0.317,0.065,0.048,0.14
12,A1_2,0.085,-0.101,1.0,-0.037,0.007,0.037,-0.101,0.025,-0.057,0.213,0.012,-0.127,0.172,-0.115,-0.128,0.194
12,A1_3,-0.091,0.164,-0.037,1.0,0.134,0.28,0.292,-0.088,0.277,-0.093,-0.233,0.091,-0.208,0.177,0.043,0.222
12,B1_1,0.013,0.295,0.007,0.134,1.0,0.108,0.036,0.078,-0.003,-0.112,0.2,0.085,-0.126,-0.062,0.08,0.024
12,B1_2,-0.2,0.255,0.037,0.28,0.108,1.0,0.055,0.03,0.131,0.026,-0.115,-0.051,0.106,-0.029,0.056,-0.087
12,B1_3,0.037,0.13,-0.101,0.292,0.036,0.055,1.0,0.094,0.046,-0.169,0.052,0.019,0.051,0.022,-0.16,0.048
12,A2_1,-0.034,0.144,0.025,-0.088,0.078,0.03,0.094,1.0,-0.065,-0.033,-0.016,-0.093,0.173,0.176,0.123,0.118
12,A2_2,-0.187,-0.02,-0.057,0.277,-0.003,0.131,0.046,-0.065,1.0,-0.01,-0.04,0.264,0.138,-0.029,-0.022,-0.027
12,A2_3,-0.316,0.056,0.213,-0.093,-0.112,0.026,-0.169,-0.033,-0.01,1.0,-0.0,-0.208,0.017,0.004,0.049,-0.078
12,B2_1,0.177,0.31,0.012,-0.233,0.2,-0.115,0.052,-0.016,-0.04,-0.0,1.0,0.053,-0.042,0.062,-0.043,-0.046
12,B2_2,-0.066,-0.063,-0.127,0.091,0.085,-0.051,0.019,-0.093,0.264,-0.208,0.053,1.0,-0.115,-0.024,-0.042,-0.128
12,B2_3,0.032,-0.317,0.172,-0.208,-0.126,0.106,0.051,0.173,0.138,0.017,-0.042,-0.115,1.0,-0.213,-0.026,-0.006
12,y1,-0.02,0.065,-0.115,0.177,-0.062,-0.029,0.022,0.176,-0.029,0.004,0.062,-0.024,-0.213,1.0,0.167,-0.093
12,y2,-0.085,0.048,-0.128,0.043,0.08,0.056,-0.16,0.123,-0.022,0.049,-0.043,-0.042,-0.026,0.167,1.0,0.112
12,y3,-0.053,0.14,0.194,0.222,0.024,-0.087,0.048,0.118,-0.027,-0.078,-0.046,-0.128,-0.006,-0.093,0.112,1.0
13,.,1.0,0.06,0.085,-0.09,0.003,-0.209,0.027,-0.035,-0.189,-0.314,0.168,-0.074,0.024,-0.014,-0.079,-0.049
13,A1_1,0.06,1.0,-0.101,0.164,0.295,0.254,0.13,0.145,-0.02,0.056,0.31,-0.062,-0.315,0.063,0.047,0.139
13,A1_2,0.085,-0.101,1.0,-0.037,0.006,0.036,-0.101,0.026,-0.056,0.214,0.011,-0.128,0.17,-0.114,-0.127,0.194
13,A1_3,-0.09,0.164,-0.037,1.0,0.133,0.278,0.29,-0.087,0.278,-0.092,-0.233,0.09,-0.208,0.176,0.043,0.222
13,B1_1,0.003,0.295,0.006,0.133,1.0,0.113,0.041,0.078,-0.002,-0.111,0.204,0.089,-0.121,-0.066,0.076,0.02
13,B1_2,-0.209,0.254,0.036,0.278,0.113,1.0,0.06,0.03,0.132,0.026,-0.11,-0.045,0.11,-0.034,0.052,-0.09
13,B1_3,0.027,0.13,-0.101,0.29,0.041,0.06,1.0,0.094,0.047,-0.169,0.056,0.023,0.055,0.018,-0.163,0.045
13,A2_1,-0.035,0.145,0.026,-0.087,0.078,0.03,0.094,1.0,-0.065,-0.032,-0.016,-0.092,0.173,0.174,0.122,0.117
13,A2_2,-0.189,-0.02,-0.056,0.278,-0.002,0.132,0.047,-0.065,1.0,-0.009,-0.039,0.266,0.14,-0.03,-0.024,-0.028
13,A2_3,-0.314,0.056,0.214,-0.092,-0.111,0.026,-0.169,-0.032,-0.009,1.0,-0.001,-0.207,0.017,0.004,0.048,-0.078
13,B2_1,0.168,0.31,0.011,-0.233,0.204,-0.11,0.056,-0.016,-0.039,-0.001,1.0,0.057,-0.038,0.058,-0.046,-0.049
13,B2_2,-0.074,-0.062,-0.128,0.09,0.089,-0.045,0.023,-0.092,0.266,-0.207,0.057,1.0,-0.11,-0.028,-0.045,-0.131
13,B2_3,0.024,-0.315,0.17,-0.208,-0.121,0.11,0.055,0.173,0.14,0.017,-0.038,-0.11,1.0,-0.216,-0.029,-0.01
13,y1,-0.014,0.063,-0.114,0.176,-0.066,-0.034,0.018,0.174,-0.03,0.004,0.058,-0.028,-0.216,1.0,0.171,-0.088
13,y2,-0.079,0.047,-0.127,0.043,0.076,0.052,-0.163,0.122,-0.024,0.048,-0.046,-0.045,-0.029,0.171,1.0,0.115
13,y3,-0.049,0.139,0.194,0.222,0.02,-0.09,0.045,0.117,-0.028,-0.078,-0.049,-0.131,-0.01,-0.088,0.115,1.0
14,.,1.0,0.056,0.084,-0.089,-0.01,-0.219,0.015,-0.036,-0.192,-0.312,0.157,-0.083,0.014,-0.007,-0.072,-0.043
14,A1_1,0.056,1.0,-0.1,0.165,0.295,0.254,0.13,0.145,-0.019,0.057,0.309,-0.061,-0.313,0.062,0.046,0.138
14,A1_2,0.084,-0.1,1.0,-0.036,0.005,0.035,-0.102,0.027,-0.055,0.215,0.01,-0.128,0.169,-0.113,-0.126,0.194
14,A1_3,-0.089,0.165,-0.036,1.0,0.132,0.277,0.289,-0.086,0.278,-0.091,-0.234,0.089,-0.208,0.176,0.044,0.222
14,B1_1,-0.01,0.295,0.005,0.132,1.0,0.119,0.047,0.078,0.0,-0.111,0.208,0.094,-0.115,-0.071,0.071,0.016
14,B1_2,-0.219,0.254,0.035,0.277,0.119,1.0,0.065,0.03,0.133,0.025,-0.103,-0.039,0.116,-0.039,0.046,-0.094
14,B1_3,0.015,0.13,-0.102,0.289,0.047,0.065,1.0,0.094,0.049,-0.168,0.06,0.028,0.06,0.013,-0.166,0.041
14,A2_1,-0.036,0.145,0.027,-0.086,0.078,0.03,0.094,1.0,-0.064,-0.031,-0.016,-0.092,0.173,0.173,0.121,0.115
14,A2_2,-0.192,-0.019,-0.055,0.278,0.0,0.133,0.049,-0.064,1.0,-0.008,-0.037,0.267,0.141,-0.032,-0.026,-0.03
14,A2_3,-0.312,0.057,0.215,-0.091,-0.111,0.025,-0.168,-0.031,-0.008,1.0,-0.001,-0.206,0.017,0.004,0.048,-0.078
14,B2_1,0.157,0.309,0.01,-0.234,0.208,-0.103,0.06,-0.016,-0.037,-0.001,1.0,0.062,-0.033,0.053,-0.05,-0.053
14,B2_2,-0.083,-0.061,-0.128,0.089,0.094,-0.039,0.028,-0.092,0.267,-0.206,0.062,1.0,-0.105,-0.032,-0.049,-0.134
14,B2_3,0.014,-0.313,0.169,-0.208,-0.115,0.116,0.06,0.173,0.141,0.017,-0.033,-0.105,1.0,-0.22,-0.033,-0.013
14,y1,-0.007,0.062,-0.113,0.176,-0.071,-0.039,0.013,0.173,-0.032,0.004,0.053,-0.032,-0.22,1.0,0.175,-0.083
14,y2,-0.072,0.046,-0.126,0.044,0.071,0.046,-0.166,0.121,-0.026,0.048,-0.05,-0.049,-0.033,0.175,1.0,0.119
14,y3,-0.043,0.138,0.194,0.222,0.016,-0.094,0.041,0.115,-0.03,-0.078,-0.053,-0.134,-0.013,-0.083,0.119,1.0
15,.,1.0,0.053,0.084,-0.089,-0.023,-0.23,0.003,-0.037,-0.195,-0.309,0.145,-0.093,0.004,0.002,-0.063,-0.037
15,A1_1,0.053,1.0,-0.099,0.165,0.294,0.254,0.131,0.145,-0.019,0.058,0.309,-0.06,-0.312,0.06,0.045,0.136
15,A1_2,0.084,-0.099,1.0,-0.035,0.004,0.034,-0.102,0.028,-0.054,0.216,0.008,-0.129,0.167,-0.112,-0.125,0.194
15,A1_3,-0.089,0.165,-0.035,1.0,0.13,0.274,0.287,-0.086,0.279,-0.09,-0.234,0.088,-0.209,0.176,0.044,0.222
15,B1_1,-0.023,0.294,0.004,0.13,1.0,0.125,0.053,0.078,0.002,-0.111,0.213,0.1,-0.108,-0.076,0.065,0.011
15,B1_2,-0.23,0.254,0.034,0.274,0.125,1.0,0.072,0.03,0.134,0.025,-0.095,-0.031,0.122,-0.045,0.04,-0.099
15,B1_3,0.003,0.131,-0.102,0.287,0.053,0.072,1.0,0.094,0.05,-0.168,0.066,0.034,0.065,0.008,-0.17,0.037
15,A2_1,-0.037,0.145,0.028,-0.086,0.078,0.03,0.094,1.0,-0.063,-0.029,-0.016,-0.091,0.173,0.171,0.12,0.114
15,A2_2,-0.195,-0.019,-0.054,0.279,0.002,0.134,0.05,-0.063,1.0,-0.007,-0.035,0.268,0.143,-0.034,-0.028,-0.033
15,A2_3,-0.309,0.058,0.216,-0.09,-0.111,0.025,-0.168,-0.029,-0.007,1.0,-0.001,-0.206,0.017,0.004,0.048,-0.078
15,B2_1,0.145,0.309,0.008,-0.234,0.213,-0.095,0.066,-0.016,-0.035,-0.001,1.0,0.067,-0.027,0.048,-0.055,-0.057
15,B2_2,-0.093,-0.06,-0.129,0.088,0.1,-0.031,0.034,-0.091,0.268,-0.206,0.067,1.0,-0.098,-0.038,-0.054,-0.138
15,B2_3,0.004,-0.312,0.167,-0.209,-0.108,0.122,0.065,0.173,0.143,0.017,-0.027,-0.098,1.0,-0.223,-0.038,-0.017
15,y1,0.002,0.06,-0.112,0.176,-0.076,-0.045,0.008,0.171,-0.034,0.004,0.048,-0.038,-0.223,1.0,0.18,-0.076
15,y2,-0.063,0.045,-0.125,0.044,0.065,0.04,-0.17,0.12,-0.028,0.048,-0.055,-0.054,-0.038,0.18,1.0,0.124
15,y3,-0.037,0.136,0.194,0.222,0.011,-0.099,0.037,0.114,-0.033,-0.078,-0.057,-0.138,-0.017,-0.076,0.124,1.0
16,.,1.0,0.049,0.084,-0.088,-0.038,-0.241,-0.011,-0.037,-0.197,-0.305,0.131,-0.105,-0.008,0.011,-0.054,-0.029
16,A1_1,0.049,1.0,-0.098,0.165,0.294,0.253,0.131,0.146,-0.019,0.058,0.308,-0.059,-0.31,0.059,0.043,0.134
16,A1_2,0.084,-0.098,1.0,-0.034,0.003,0.032,-0.103,0.029,-0.053,0.218,0.007,-0.129,0.165,-0.111,-0.124,0.193
16,A1_3,-0.088,0.165,-0.034,1.0,0.129,0.272,0.285,-0.085,0.279,-0.089,-0.234,0.087,-0.209,0.176,0.045,0.222
16,B1_1,-0.038,0.294,0.003,0.129,1.0,0.133,0.06,0.078,0.004,-0.11,0.218,0.107,-0.1,-0.082,0.059,0.005
16,B1_2,-0.241,0.253,0.032,0.272,0.133,1.0,0.079,0.03,0.135,0.025,-0.087,-0.023,0.129,-0.052,0.034,-0.105
16,B1_3,-0.011,0.131,-0.103,0.285,0.06,0.079,1.0,0.093,0.052,-0.168,0.072,0.041,0.072,0.002,-0.175,0.031
16,A2_1,-0.037,0.146,0.029,-0.085,0.078,0.03,0.093,1.0,-0.063,-0.028,-0.016,-0.091,0.173,0.17,0.119,0.113
16,A2_2,-0.197,-0.019,-0.053,0.279,0.004,0.135,0.052,-0.063,1.0,-0.006,-0.033,0.269,0.145,-0.037,-0.03,-0.035
16,A2_3,-0.305,0.058,0.218,-0.089,-0.11,0.025,-0.168,-0.028,-0.006,1.0,-0.002,-0.205,0.017,0.003,0.047,-0.078
16,B2_1,0.131,0.308,0.007,-0.234,0.218,-0.087,0.072,-0.016,-0.033,-0.002,1.0,0.074,-0.02,0.041,-0.06,-0.062
16,B2_2,-0.105,-0.059,-0.129,0.087,0.107,-0.023,0.041,-0.091,0.269,-0.205,0.074,1.0,-0.09,-0.044,-0.059,-0.143
16,B2_3,-0.008,-0.31,0.165,-0.209,-0.1,0.129,0.072,0.173,0.145,0.017,-0.02,-0.09,1.0,-0.228,-0.043,-0.023
16,y1,0.011,0.059,-0.111,0.176,-0.082,-0.052,0.002,0.17,-0.037,0.003,0.041,-0.044,-0.228,1.0,0.186,-0.069
16,y2,-0.054,0.043,-0.124,0.045,0.059,0.034,-0.175,0.119,-0.03,0.047,-0.06,-0.059,-0.043,0.186,1.0,0.13
16,y3,-0.029,0.134,0.193,0.222,0.005,-0.105,0.031,0.113,-0.035,-0.078,-0.062,-0.143,-0.023,-0.069,0.13,1.0
17,.,1.0,0.045,0.083,-0.087,-0.054,-0.254,-0.026,-0.038,-0.199,-0.302,0.115,-0.118,-0.022,0.02,-0.043,-0.02
17,A1_1,0.045,1.0,-0.097,0.166,0.293,0.252,0.131,0.146,-0.018,0.059,0.307,-0.058,-0.307,0.057,0.042,0.132
17,A1_2,0.083,-0.097,1.0,-0.032,0.001,0.031,-0.104,0.03,-0.051,0.219,0.005,-0.13,0.163,-0.11,-0.123,0.193
17,A1_3,-0.087,0.166,-0.032,1.0,0.128,0.27,0.283,-0.084,0.28,-0.087,-0.235,0.086,-0.209,0.175,0.045,0.222
17,B1_1,-0.054,0.293,0.001,0.128,1.0,0.141,0.068,0.077,0.007,-0.11,0.225,0.115,-0.091,-0.089,0.051,-0.001
17,B1_2,-0.254,0.252,0.031,0.27,0.141,1.0,0.087,0.03,0.136,0.024,-0.077,-0.013,0.138,-0.059,0.026,-0.111
17,B1_3,-0.026,0.131,-0.104,0.283,0.068,0.087,1.0,0.093,0.054,-0.167,0.079,0.049,0.079,-0.005,-0.18,0.025
17,A2_1,-0.038,0.146,0.03,-0.084,0.077,0.03,0.093,1.0,-0.062,-0.027,-0.016,-0.09,0.172,0.168,0.118,0.112
17,A2_2,-0.199,-0.018,-0.051,0.28,0.007,0.136,0.054,-0.062,1.0,-0.005,-0.03,0.271,0.147,-0.039,-0.033,-0.037
17,A2_3,-0.302,0.059,0.219,-0.087,-0.11,0.024,-0.167,-0.027,-0.005,1.0,-0.002,-0.204,0.016,0.003,0.047,-0.078
17,B2_1,0.115,0.307,0.005,-0.235,0.225,-0.077,0.079,-0.016,-0.03,-0.002,1.0,0.081,-0.012,0.034,-0.066,-0.068
17,B2_2,-0.118,-0.058,-0.13,0.086,0.115,-0.013,0.049,-0.09,0.271,-0.204,0.081,1.0,-0.081,-0.05,-0.066,-0.148
17,B2_3,-0.022,-0.307,0.163,-0.209,-0.091,0.138,0.079,0.172,0.147,0.016,-0.012,-0.081,1.0,-0.233,-0.049,-0.028
17,y1,0.02,0.057,-0.11,0.175,-0.089,-0.059,-0.005,0.168,-0.039,0.003,0.034,-0.05,-0.233,1.0,0.193,-0.061
17,y2,-0.043,0.042,-0.123,0.045,0.051,0.026,-0.18,0.118,-0.033,0.047,-0.066,-0.066,-0.049,0.193,1.0,0.137
17,y3,-0.02,0.132,0.193,0.222,-0.001,-0.111,0.025,0.112,-0.037,-0.078,-0.068,-0.148,-0.028,-0.061,0.137,1.0
18,.,1.0,0.042,0.083,-0.086,-0.072,-0.267,-0.042,-0.038,-0.201,-0.298,0.098,-0.132,-0.036,0.031,-0.031,-0.01
18,A1_1,0.042,1.0,-0.096,0.166,0.292,0.251,0.131,0.146,-0.018,0.06,0.306,-0.057,-0.305,0.056,0.041,0.131
18,A1_2,0.083,-0.096,1.0,-0.031,-0.0,0.029,-0.104,0.032,-0.05,0.22,0.003,-0.131,0.161,-0.109,-0.122,0.193
18,A1_3,-0.086,0.166,-0.031,1.0,0.126,0.267,0.281,-0.083,0.281,-0.086,-0.235,0.084,-0.209,0.175,0.045,0.221
18,B1_1,-0.072,0.292,-0.0,0.126,1.0,0.151,0.078,0.076,0.009,-0.109,0.232,0.124,-0.08,-0.096,0.043,-0.009
18,B1_2,-0.267,0.251,0.029,0.267,0.151,1.0,0.096,0.029,0.137,0.023,-0.066,-0.002,0.147,-0.067,0.017,-0.118
18,B1_3,-0.042,0.131,-0.104,0.281,0.078,0.096,1.0,0.092,0.055,-0.167,0.087,0.058,0.088,-0.013,-0.185,0.018
18,A2_1,-0.038,0.146,0.032,-0.083,0.076,0.029,0.092,1.0,-0.061,-0.026,-0.017,-0.09,0.171,0.167,0.117,0.111
18,A2_2,-0.201,-0.018,-0.05,0.281,0.009,0.137,0.055,-0.061,1.0,-0.004,-0.028,0.272,0.149,-0.041,-0.035,-0.04
18,A2_3,-0.298,0.06,0.22,-0.086,-0.109,0.023,-0.167,-0.026,-0.004,1.0,-0.003,-0.202,0.016,0.003,0.046,-0.078
18,B2_1,0.098,0.306,0.003,-0.235,0.232,-0.066,0.087,-0.017,-0.028,-0.003,1.0,0.09,-0.003,0.026,-0.073,-0.074
18,B2_2,-0.132,-0.057,-0.131,0.084,0.124,-0.002,0.058,-0.09,0.272,-0.202,0.09,1.0,-0.071,-0.058,-0.073,-0.154
18,B2_3,-0.036,-0.305,0.161,-0.209,-0.08,0.147,0.088,0.171,0.149,0.016,-0.003,-0.071,1.0,-0.239,-0.056,-0.035
18,y1,0.031,0.056,-0.109,0.175,-0.096,-0.067,-0.013,0.167,-0.041,0.003,0.026,-0.058,-0.239,1.0,0.2,-0.051
18,y2,-0.031,0.041,-0.122,0.045,0.043,0.017,-0.185,0.117,-0.035,0.046,-0.073,-0.073,-0.056,0.2,1.0,0.144
18,y3,-0.01,0.131,0.193,0.221,-0.009,-0.118,0.018,0.111,-0.04,-0.078,-0.074,-0.154,-0.035,-0.051,0.144,1.0
19,.,1.0,0.039,0.083,-0.085,-0.09,-0.28,-0.058,-0.037,-0.201,-0.294,0.08,-0.147,-0.052,0.042,-0.019,0.001
19,A1_1,0.039,1.0,-0.094,0.167,0.291,0.249,0.131,0.147,-0.018,0.062,0.305,-0.056,-0.303,0.054,0.039,0.129
19,A1_2,0.083,-0.094,1.0,-0.03,-0.002,0.027,-0.105,0.033,-0.048,0.222,0.0,-0.131,0.158,-0.107,-0.12,0.192
19,A1_3,-0.085,0.167,-0.03,1.0,0.124,0.264,0.278,-0.082,0.281,-0.084,-0.235,0.083,-0.209,0.174,0.046,0.221
19,B1_1,-0.09,0.291,-0.002,0.124,1.0,0.161,0.088,0.076,0.011,-0.109,0.241,0.135,-0.067,-0.105,0.033,-0.017
19,B1_2,-0.28,0.249,0.027,0.264,0.161,1.0,0.106,0.029,0.137,0.023,-0.054,0.009,0.157,-0.076,0.008,-0.126
19,B1_3,-0.058,0.131,-0.105,0.278,0.088,0.106,1.0,0.092,0.057,-0.166,0.097,0.069,0.098,-0.021,-0.192,0.01
19,A2_1,-0.037,0.147,0.033,-0.082,0.076,0.029,0.092,1.0,-0.06,-0.024,-0.017,-0.089,0.17,0.165,0.116,0.109
19,A2_2,-0.201,-0.018,-0.048,0.281,0.011,0.137,0.057,-0.06,1.0,-0.003,-0.025,0.272,0.151,-0.043,-0.038,-0.042
19,A2_3,-0.294,0.062,0.222,-0.084,-0.109,0.023,-0.166,-0.024,-0.003,1.0,-0.003,-0.201,0.016,0.003,0.046,-0.078
19,B2_1,0.08,0.305,0.0,-0.235,0.241,-0.054,0.097,-0.017,-0.025,-0.003,1.0,0.1,0.007,0.016,-0.081,-0.081
19,B2_2,-0.147,-0.056,-0.131,0.083,0.135,0.009,0.069,-0.089,0.272,-0.201,0.1,1.0,-0.059,-0.067,-0.081,-0.161
19,B2_3,-0.052,-0.303,0.158,-0.209,-0.067,0.157,0.098,0.17,0.151,0.016,0.007,-0.059,1.0,-0.246,-0.064,-0.043
19,y1,0.042,0.054,-0.107,0.174,-0.105,-0.076,-0.021,0.165,-0.043,0.003,0.016,-0.067,-0.246,1.0,0.209,-0.041
19,y2,-0.019,0.039,-0.12,0.046,0.033,0.008,-0.192,0.116,-0.038,0.046,-0.081,-0.081,-0.064,0.209,1.0,0.153
19,y3,0.001,0.129,0.192,0.221,-0.017,-0.126,0.01,0.109,-0.042,-0.078,-0.081,-0.161,-0.043,-0.041,0.153,1.0
20,.,1.0,0.037,0.083,-0.084,-0.109,-0.293,-0.075,-0.037,-0.201,-0.29,0.062,-0.162,-0.068,0.053,-0.007,0.012
20,A1_1,0.037,1.0,-0.093,0.168,0.289,0.247,0.13,0.148,-0.017,0.063,0.303,-0.055,-0.3,0.053,0.038,0.127
20,A1_2,0.083,-0.093,1.0,-0.028,-0.004,0.025,-0.106,0.035,-0.046,0.224,-0.002,-0.132,0.155,-0.106,-0.119,0.191
20,A1_3,-0.084,0.168,-0.028,1.0,0.122,0.261,0.275,-0.081,0.282,-0.083,-0.235,0.081,-0.209,0.174,0.046,0.22
20,B1_1,-0.109,0.289,-0.004,0.122,1.0,0.173,0.099,0.074,0.013,-0.109,0.25,0.146,-0.054,-0.114,0.022,-0.027
20,B1_2,-0.293,0.247,0.025,0.261,0.173,1.0,0.116,0.028,0.137,0.022,-0.041,0.023,0.168,-0.086,-0.003,-0.135
20,B1_3,-0.075,0.13,-0.106,0.275,0.099,0.116,1.0,0.091,0.058,-0.166,0.107,0.08,0.108,-0.031,-0.199,0.001
20,A2_1,-0.037,0.148,0.035,-0.081,0.074,0.028,0.091,1.0,-0.059,-0.022,-0.018,-0.089,0.168,0.164,0.115,0.108
20,A2_2,-0.201,-0.017,-0.046,0.282,0.013,0.137,0.058,-0.059,1.0,-0.001,-0.023,0.273,0.152,-0.045,-0.04,-0.045
20,A2_3,-0.29,0.063,0.224,-0.083,-0.109,0.022,-0.166,-0.022,-0.001,1.0,-0.004,-0.2,0.016,0.003,0.046,-0.078
20,B2_1,0.062,0.303,-0.002,-0.235,0.25,-0.041,0.107,-0.018,-0.023,-0.004,1.0,0.111,0.019,0.006,-0.09,-0.09
20,B2_2,-0.162,-0.055,-0.132,0.081,0.146,0.023,0.08,-0.089,0.273,-0.2,0.111,1.0,-0.045,-0.076,-0.091,-0.169
20,B2_3,-0.068,-0.3,0.155,-0.209,-0.054,0.168,0.108,0.168,0.152,0.016,0.019,-0.045,1.0,-0.253,-0.073,-0.052
20,y1,0.053,0.053,-0.106,0.174,-0.114,-0.086,-0.031,0.164,-0.045,0.003,0.006,-0.076,-0.253,1.0,0.218,-0.029
20,y2,-0.007,0.038,-0.119,0.046,0.022,-0.003,-0.199,0.115,-0.04,0.046,-0.09,-0.091,-0.073,0.218,1.0,0.163
20,y3,0.012,0.127,0.191,0.22,-0.027,-0.135,0.001,0.108,-0.045,-0.078,-0.09,-0.169,-0.052,-0.029,0.163,1.0
21,.,1.0,0.036,0.083,-0.082,-0.127,-0.306,-0.091,-0.035,-0.2,-0.285,0.043,-0.178,-0.084,0.064,0.006,0.023
21,A1_1,0.036,1.0,-0.091,0.168,0.286,0.245,0.129,0.148,-0.017,0.064,0.301,-0.055,-0.298,0.052,0.037,0.125
21,A1_2,0.083,-0.091,1.0,-0.026,-0.006,0.024,-0.107,0.036,-0.044,0.225,-0.004,-0.133,0.152,-0.104,-0.117,0.191
21,A1_3,-0.082,0.168,-0.026,1.0,0.119,0.257,0.272,-0.079,0.284,-0.081,-0.235,0.078,-0.21,0.173,0.046,0.219
21,B1_1,-0.127,0.286,-0.006,0.119,1.0,0.185,0.112,0.073,0.015,-0.108,0.261,0.159,-0.039,-0.123,0.011,-0.037
21,B1_2,-0.306,0.245,0.024,0.257,0.185,1.0,0.127,0.027,0.137,0.021,-0.026,0.037,0.18,-0.096,-0.014,-0.144
21,B1_3,-0.091,0.129,-0.107,0.272,0.112,0.127,1.0,0.09,0.058,-0.165,0.118,0.092,0.12,-0.041,-0.206,-0.009
21,A2_1,-0.035,0.148,0.036,-0.079,0.073,0.027,0.09,1.0,-0.058,-0.021,-0.018,-0.089,0.167,0.163,0.114,0.107
21,A2_2,-0.2,-0.017,-0.044,0.284,0.015,0.137,0.058,-0.058,1.0,0.0,-0.021,0.273,0.153,-0.047,-0.042,-0.047
21,A2_3,-0.285,0.064,0.225,-0.081,-0.108,0.021,-0.165,-0.021,0.0,1.0,-0.005,-0.199,0.015,0.003,0.045,-0.077
21,B2_1,0.043,0.301,-0.004,-0.235,0.261,-0.026,0.118,-0.018,-0.021,-0.005,1.0,0.123,0.032,-0.005,-0.099,-0.099
21,B2_2,-0.178,-0.055,-0.133,0.078,0.159,0.037,0.092,-0.089,0.273,-0.199,0.123,1.0,-0.031,-0.087,-0.101,-0.178
21,B2_3,-0.084,-0.298,0.152,-0.21,-0.039,0.18,0.12,0.167,0.153,0.015,0.032,-0.031,1.0,-0.261,-0.083,-0.061
21,y1,0.064,0.052,-0.104,0.173,-0.123,-0.096,-0.041,0.163,-0.047,0.003,-0.005,-0.087,-0.261,1.0,0.228,-0.017
21,y2,0.006,0.037,-0.117,0.046,0.011,-0.014,-0.206,0.114,-0.042,0.045,-0.099,-0.101,-0.083,0.228,1.0,0.173
21,y3,0.023,0.125,0.191,0.219,-0.037,-0.144,-0.009,0.107,-0.047,-0.077,-0.099,-0.178,-0.061,-0.017,0.173,1.0
22,.,1.0,0.035,0.083,-0.081,-0.145,-0.317,-0.106,-0.034,-0.197,-0.282,0.024,-0.193,-0.1,0.073,0.017,0.035
22,A1_1,0.035,1.0,-0.089,0.169,0.284,0.243,0.128,0.149,-0.017,0.066,0.298,-0.055,-0.296,0.051,0.036,0.123
22,A1_2,0.083,-0.089,1.0,-0.024,-0.008,0.022,-0.108,0.038,-0.042,0.228,-0.007,-0.134,0.149,-0.103,-0.116,0.19
22,A1_3,-0.081,0.169,-0.024,1.0,0.116,0.254,0.269,-0.078,0.285,-0.079,-0.235,0.076,-0.21,0.173,0.047,0.219
22,B1_1,-0.145,0.284,-0.008,0.116,1.0,0.197,0.124,0.071,0.016,-0.108,0.272,0.172,-0.023,-0.134,-0.001,-0.048
22,B1_2,-0.317,0.243,0.022,0.254,0.197,1.0,0.139,0.026,0.136,0.019,-0.011,0.051,0.192,-0.106,-0.025,-0.153
22,B1_3,-0.106,0.128,-0.108,0.269,0.124,0.139,1.0,0.088,0.058,-0.165,0.13,0.105,0.132,-0.051,-0.214,-0.019
22,A2_1,-0.034,0.149,0.038,-0.078,0.071,0.026,0.088,1.0,-0.057,-0.019,-0.019,-0.089,0.165,0.161,0.113,0.106
22,A2_2,-0.197,-0.017,-0.042,0.285,0.016,0.136,0.058,-0.057,1.0,0.002,-0.019,0.272,0.153,-0.048,-0.044,-0.049
22,A2_3,-0.282,0.066,0.228,-0.079,-0.108,0.019,-0.165,-0.019,0.002,1.0,-0.006,-0.198,0.014,0.004,0.045,-0.077
22,B2_1,0.024,0.298,-0.007,-0.235,0.272,-0.011,0.13,-0.019,-0.019,-0.006,1.0,0.136,0.046,-0.017,-0.11,-0.109
22,B2_2,-0.193,-0.055,-0.134,0.076,0.172,0.051,0.105,-0.089,0.272,-0.198,0.136,1.0,-0.015,-0.097,-0.111,-0.187
22,B2_3,-0.1,-0.296,0.149,-0.21,-0.023,0.192,0.132,0.165,0.153,0.014,0.046,-0.015,1.0,-0.269,-0.093,-0.071
22,y1,0.073,0.051,-0.103,0.173,-0.134,-0.106,-0.051,0.161,-0.048,0.004,-0.017,-0.097,-0.269,1.0,0.238,-0.004
22,y2,0.017,0.036,-0.116,0.047,-0.001,-0.025,-0.214,0.113,-0.044,0.045,-0.11,-0.111,-0.093,0.238,1.0,0.184
22,y3,0.035,0.123,0.19,0.219,-0.048,-0.153,-0.019,0.106,-0.049,-0.077,-0.109,-0.187,-0.071,-0.004,0.184,1.0
23,.,1.0,0.034,0.083,-0.081,-0.162,-0.328,-0.121,-0.033,-0.194,-0.278,0.005,-0.208,-0.115,0.083,0.028,0.045
23,A1_1,0.034,1.0,-0.087,0.17,0.281,0.24,0.126,0.15,-0.016,0.067,0.295,-0.055,-0.293,0.05,0.035,0.122
23,A1_2,0.083,-0.087,1.0,-0.022,-0.009,0.02,-0.108,0.04,-0.039,0.23,-0.009,-0.134,0.146,-0.102,-0.114,0.189
23,A1_3,-0.081,0.17,-0.022,1.0,0.114,0.25,0.265,-0.076,0.287,-0.076,-0.235,0.074,-0.21,0.172,0.047,0.218
23,B1_1,-0.162,0.281,-0.009,0.114,1.0,0.21,0.138,0.07,0.016,-0.109,0.284,0.186,-0.007,-0.144,-0.013,-0.059
23,B1_2,-0.328,0.24,0.02,0.25,0.21,1.0,0.15,0.025,0.134,0.018,0.004,0.066,0.205,-0.116,-0.036,-0.163
23,B1_3,-0.121,0.126,-0.108,0.265,0.138,0.15,1.0,0.087,0.057,-0.165,0.143,0.119,0.145,-0.061,-0.222,-0.029
23,A2_1,-0.033,0.15,0.04,-0.076,0.07,0.025,0.087,1.0,-0.056,-0.016,-0.02,-0.089,0.162,0.16,0.113,0.105
23,A2_2,-0.194,-0.016,-0.039,0.287,0.016,0.134,0.057,-0.056,1.0,0.004,-0.019,0.27,0.153,-0.048,-0.045,-0.05
23,A2_3,-0.278,0.067,0.23,-0.076,-0.109,0.018,-0.165,-0.016,0.004,1.0,-0.007,-0.197,0.013,0.004,0.045,-0.076
23,B2_1,0.005,0.295,-0.009,-0.235,0.284,0.004,0.143,-0.02,-0.019,-0.007,1.0,0.15,0.06,-0.03,-0.12,-0.119
23,B2_2,-0.208,-0.055,-0.134,0.074,0.186,0.066,0.119,-0.089,0.27,-0.197,0.15,1.0,0.001,-0.108,-0.122,-0.196
23,B2_3,-0.115,-0.293,0.146,-0.21,-0.007,0.205,0.145,0.162,0.153,0.013,0.06,0.001,1.0,-0.277,-0.103,-0.082
23,y1,0.083,0.05,-0.102,0.172,-0.144,-0.116,-0.061,0.16,-0.048,0.004,-0.03,-0.108,-0.277,1.0,0.249,0.01
23,y2,0.028,0.035,-0.114,0.047,-0.013,-0.036,-0.222,0.113,-0.045,0.045,-0.12,-0.122,-0.103,0.249,1.0,0.196
23,y3,0.045,0.122,0.189,0.218,-0.059,-0.163,-0.029,0.105,-0.05,-0.076,-0.119,-0.196,-0.082,0.01,0.196,1.0
24,.,1.0,0.034,0.082,-0.08,-0.178,-0.338,-0.134,-0.031,-0.189,-0.275,-0.012,-0.221,-0.129,0.09,0.037,0.054
24,A1_1,0.034,1.0,-0.085,0.172,0.277,0.237,0.124,0.151,-0.015,0.069,0.292,-0.055,-0.291,0.049,0.034,0.12
24,A1_2,0.082,-0.085,1.0,-0.02,-0.011,0.019,-0.109,0.042,-0.035,0.232,-0.011,-0.135,0.143,-0.101,-0.113,0.187
24,A1_3,-0.08,0.172,-0.02,1.0,0.111,0.247,0.262,-0.075,0.289,-0.074,-0.235,0.071,-0.209,0.171,0.047,0.217
24,B1_1,-0.178,0.277,-0.011,0.111,1.0,0.222,0.151,0.068,0.015,-0.109,0.295,0.199,0.01,-0.154,-0.025,-0.07
24,B1_2,-0.338,0.237,0.019,0.247,0.222,1.0,0.162,0.024,0.131,0.016,0.019,0.08,0.217,-0.126,-0.047,-0.172
24,B1_3,-0.134,0.124,-0.109,0.262,0.151,0.162,1.0,0.085,0.056,-0.165,0.155,0.132,0.157,-0.072,-0.229,-0.039
24,A2_1,-0.031,0.151,0.042,-0.075,0.068,0.024,0.085,1.0,-0.054,-0.014,-0.021,-0.09,0.16,0.159,0.112,0.105
24,A2_2,-0.189,-0.015,-0.035,0.289,0.015,0.131,0.056,-0.054,1.0,0.006,-0.019,0.267,0.151,-0.048,-0.045,-0.051
24,A2_3,-0.275,0.069,0.232,-0.074,-0.109,0.016,-0.165,-0.014,0.006,1.0,-0.008,-0.196,0.012,0.004,0.045,-0.075
24,B2_1,-0.012,0.292,-0.011,-0.235,0.295,0.019,0.155,-0.021,-0.019,-0.008,1.0,0.164,0.075,-0.042,-0.131,-0.129
24,B2_2,-0.221,-0.055,-0.135,0.071,0.199,0.08,0.132,-0.09,0.267,-0.196,0.164,1.0,0.018,-0.118,-0.132,-0.205
24,B2_3,-0.129,-0.291,0.143,-0.209,0.01,0.217,0.157,0.16,0.151,0.012,0.075,0.018,1.0,-0.285,-0.114,-0.092
24,y1,0.09,0.049,-0.101,0.171,-0.154,-0.126,-0.072,0.159,-0.048,0.004,-0.042,-0.118,-0.285,1.0,0.26,0.024
24,y2,0.037,0.034,-0.113,0.047,-0.025,-0.047,-0.229,0.112,-0.045,0.045,-0.131,-0.132,-0.114,0.26,1.0,0.208
24,y3,0.054,0.12,0.187,0.217,-0.07,-0.172,-0.039,0.105,-0.051,-0.075,-0.129,-0.205,-0.092,0.024,0.208,1.0
25,.,1.0,0.034,0.081,-0.081,-0.192,-0.346,-0.145,-0.03,-0.184,-0.272,-0.027,-0.233,-0.142,0.096,0.044,0.062
25,A1_1,0.034,1.0,-0.082,0.173,0.274,0.234,0.122,0.152,-0.014,0.071,0.288,-0.055,-0.29,0.048,0.033,0.119
25,A1_2,0.081,-0.082,1.0,-0.018,-0.012,0.017,-0.109,0.045,-0.032,0.235,-0.013,-0.135,0.139,-0.1,-0.112,0.186
25,A1_3,-0.081,0.173,-0.018,1.0,0.109,0.244,0.259,-0.073,0.291,-0.071,-0.235,0.069,-0.209,0.17,0.047,0.216
25,B1_1,-0.192,0.274,-0.012,0.109,1.0,0.234,0.163,0.066,0.013,-0.109,0.307,0.213,0.026,-0.163,-0.037,-0.081
25,B1_2,-0.346,0.234,0.017,0.244,0.234,1.0,0.173,0.023,0.128,0.015,0.034,0.094,0.229,-0.135,-0.057,-0.181
25,B1_3,-0.145,0.122,-0.109,0.259,0.163,0.173,1.0,0.084,0.054,-0.165,0.167,0.145,0.17,-0.081,-0.237,-0.049
25,A2_1,-0.03,0.152,0.045,-0.073,0.066,0.023,0.084,1.0,-0.052,-0.011,-0.022,-0.09,0.158,0.158,0.111,0.104
25,A2_2,-0.184,-0.014,-0.032,0.291,0.013,0.128,0.054,-0.052,1.0,0.008,-0.019,0.264,0.149,-0.047,-0.045,-0.051
25,A2_3,-0.272,0.071,0.235,-0.071,-0.109,0.015,-0.165,-0.011,0.008,1.0,-0.009,-0.196,0.011,0.005,0.045,-0.074
25,B2_1,-0.027,0.288,-0.013,-0.235,0.307,0.034,0.167,-0.022,-0.019,-0.009,1.0,0.177,0.09,-0.054,-0.142,-0.14
25,B2_2,-0.233,-0.055,-0.135,0.069,0.213,0.094,0.145,-0.09,0.264,-0.196,0.177,1.0,0.034,-0.129,-0.142,-0.214
25,B2_3,-0.142,-0.29,0.139,-0.209,0.026,0.229,0.17,0.158,0.149,0.011,0.09,0.034,1.0,-0.293,-0.124,-0.103
25,y1,0.096,0.048,-0.1,0.17,-0.163,-0.135,-0.081,0.158,-0.047,0.005,-0.054,-0.129,-0.293,1.0,0.27,0.038
25,y2,0.044,0.033,-0.112,0.047,-0.037,-0.057,-0.237,0.111,-0.045,0.045,-0.142,-0.142,-0.124,0.27,1.0,0.22
25,y3,0.062,0.119,0.186,0.216,-0.081,-0.181,-0.049,0.104,-0.051,-0.074,-0.14,-0.214,-0.103,0.038,0.22,1.0
26,.,1.0,0.035,0.08,-0.08,-0.204,-0.353,-0.155,-0.029,-0.178,-0.27,-0.04,-0.243,-0.153,0.1,0.05,0.068
26,A1_1,0.035,1.0,-0.079,0.175,0.27,0.231,0.12,0.154,-0.013,0.074,0.284,-0.056,-0.288,0.047,0.033,0.117
26,A1_2,0.08,-0.079,1.0,-0.015,-0.013,0.016,-0.109,0.047,-0.028,0.237,-0.015,-0.135,0.137,-0.1,-0.112,0.183
26,A1_3,-0.08,0.175,-0.015,1.0,0.106,0.241,0.255,-0.071,0.293,-0.068,-0.235,0.067,-0.209,0.169,0.048,0.215
26,B1_1,-0.204,0.27,-0.013,0.106,1.0,0.245,0.175,0.065,0.011,-0.109,0.318,0.225,0.042,-0.172,-0.048,-0.091
26,B1_2,-0.353,0.231,0.016,0.241,0.245,1.0,0.183,0.022,0.124,0.013,0.048,0.107,0.241,-0.144,-0.067,-0.19
26,B1_3,-0.155,0.12,-0.109,0.255,0.175,0.183,1.0,0.082,0.051,-0.165,0.179,0.157,0.181,-0.09,-0.243,-0.059
26,A2_1,-0.029,0.154,0.047,-0.071,0.065,0.022,0.082,1.0,-0.05,-0.009,-0.024,-0.09,0.155,0.157,0.11,0.103
26,A2_2,-0.178,-0.013,-0.028,0.293,0.011,0.124,0.051,-0.05,1.0,0.011,-0.021,0.26,0.147,-0.046,-0.044,-0.05
26,A2_3,-0.27,0.074,0.237,-0.068,-0.109,0.013,-0.165,-0.009,0.011,1.0,-0.011,-0.195,0.01,0.005,0.044,-0.074
26,B2_1,-0.04,0.284,-0.015,-0.235,0.318,0.048,0.179,-0.024,-0.021,-0.011,1.0,0.19,0.104,-0.065,-0.151,-0.15
26,B2_2,-0.243,-0.056,-0.135,0.067,0.225,0.107,0.157,-0.09,0.26,-0.195,0.19,1.0,0.049,-0.138,-0.151,-0.222
26,B2_3,-0.153,-0.288,0.137,-0.209,0.042,0.241,0.181,0.155,0.147,0.01,0.104,0.049,1.0,-0.3,-0.133,-0.113
26,y1,0.1,0.047,-0.1,0.169,-0.172,-0.144,-0.09,0.157,-0.046,0.005,-0.065,-0.138,-0.3,1.0,0.281,0.052
26,y2,0.05,0.033,-0.112,0.048,-0.048,-0.067,-0.243,0.11,-0.044,0.044,-0.151,-0.151,-0.133,0.281,1.0,0.232
26,y3,0.068,0.117,0.183,0.215,-0.091,-0.19,-0.059,0.103,-0.05,-0.074,-0.15,-0.222,-0.113,0.052,0.232,1.0
27,.,1.0,0.035,0.079,-0.082,-0.214,-0.359,-0.163,-0.028,-0.172,-0.269,-0.052,-0.251,-0.162,0.103,0.054,0.073
27,A1_1,0.035,1.0,-0.076,0.176,0.267,0.228,0.118,0.155,-0.011,0.076,0.281,-0.057,-0.286,0.046,0.032,0.116
27,A1_2,0.079,-0.076,1.0,-0.012,-0.015,0.015,-0.109,0.05,-0.024,0.24,-0.017,-0.135,0.134,-0.1,-0.111,0.181
27,A1_3,-0.082,0.176,-0.012,1.0,0.104,0.239,0.253,-0.068,0.296,-0.065,-0.235,0.065,-0.208,0.168,0.047,0.213
27,B1_1,-0.214,0.267,-0.015,0.104,1.0,0.255,0.186,0.063,0.008,-0.11,0.328,0.237,0.056,-0.18,-0.057,-0.1
27,B1_2,-0.359,0.228,0.015,0.239,0.255,1.0,0.192,0.021,0.12,0.012,0.061,0.119,0.251,-0.152,-0.076,-0.197
27,B1_3,-0.163,0.118,-0.109,0.253,0.186,0.192,1.0,0.081,0.047,-0.165,0.19,0.168,0.192,-0.099,-0.249,-0.067
27,A2_1,-0.028,0.155,0.05,-0.068,0.063,0.021,0.081,1.0,-0.047,-0.006,-0.024,-0.09,0.153,0.155,0.109,0.102
27,A2_2,-0.172,-0.011,-0.024,0.296,0.008,0.12,0.047,-0.047,1.0,0.014,-0.023,0.255,0.143,-0.045,-0.043,-0.05
27,A2_3,-0.269,0.076,0.24,-0.065,-0.11,0.012,-0.165,-0.006,0.014,1.0,-0.012,-0.195,0.009,0.005,0.044,-0.073
27,B2_1,-0.052,0.281,-0.017,-0.235,0.328,0.061,0.19,-0.024,-0.023,-0.012,1.0,0.202,0.118,-0.076,-0.161,-0.159
27,B2_2,-0.251,-0.057,-0.135,0.065,0.237,0.119,0.168,-0.09,0.255,-0.195,0.202,1.0,0.064,-0.147,-0.16,-0.23
27,B2_3,-0.162,-0.286,0.134,-0.208,0.056,0.251,0.192,0.153,0.143,0.009,0.118,0.064,1.0,-0.307,-0.142,-0.122
27,y1,0.103,0.046,-0.1,0.168,-0.18,-0.152,-0.099,0.155,-0.045,0.005,-0.076,-0.147,-0.307,1.0,0.292,0.066
27,y2,0.054,0.032,-0.111,0.047,-0.057,-0.076,-0.249,0.109,-0.043,0.044,-0.161,-0.16,-0.142,0.292,1.0,0.243
27,y3,0.073,0.116,0.181,0.213,-0.1,-0.197,-0.067,0.102,-0.05,-0.073,-0.159,-0.23,-0.122,0.066,0.243,1.0
28,.,1.0,0.037,0.076,-0.083,-0.223,-0.364,-0.17,-0.028,-0.166,-0.268,-0.061,-0.258,-0.17,0.104,0.056,0.075
28,A1_1,0.037,1.0,-0.072,0.179,0.263,0.225,0.116,0.157,-0.009,0.079,0.276,-0.058,-0.286,0.046,0.032,0.115
28,A1_2,0.076,-0.072,1.0,-0.009,-0.014,0.016,-0.108,0.053,-0.019,0.243,-0.018,-0.134,0.133,-0.101,-0.112,0.178
28,A1_3,-0.083,0.179,-0.009,1.0,0.103,0.237,0.251,-0.066,0.299,-0.062,-0.234,0.064,-0.207,0.166,0.046,0.211
28,B1_1,-0.223,0.263,-0.014,0.103,1.0,0.264,0.196,0.062,0.005,-0.11,0.337,0.247,0.069,-0.187,-0.066,-0.109
28,B1_2,-0.364,0.225,0.016,0.237,0.264,1.0,0.201,0.021,0.115,0.011,0.073,0.13,0.261,-0.159,-0.084,-0.204
28,B1_3,-0.17,0.116,-0.108,0.251,0.196,0.201,1.0,0.08,0.044,-0.165,0.2,0.178,0.202,-0.106,-0.255,-0.075
28,A2_1,-0.028,0.157,0.053,-0.066,0.062,0.021,0.08,1.0,-0.044,-0.002,-0.025,-0.09,0.152,0.153,0.107,0.1
28,A2_2,-0.166,-0.009,-0.019,0.299,0.005,0.115,0.044,-0.044,1.0,0.018,-0.025,0.25,0.139,-0.044,-0.042,-0.049
28,A2_3,-0.268,0.079,0.243,-0.062,-0.11,0.011,-0.165,-0.002,0.018,1.0,-0.013,-0.194,0.008,0.004,0.043,-0.073
28,B2_1,-0.061,0.276,-0.018,-0.234,0.337,0.073,0.2,-0.025,-0.025,-0.013,1.0,0.214,0.13,-0.086,-0.169,-0.167
28,B2_2,-0.258,-0.058,-0.134,0.064,0.247,0.13,0.178,-0.09,0.25,-0.194,0.214,1.0,0.077,-0.155,-0.168,-0.237
28,B2_3,-0.17,-0.286,0.133,-0.207,0.069,0.261,0.202,0.152,0.139,0.008,0.13,0.077,1.0,-0.313,-0.15,-0.13
28,y1,0.104,0.046,-0.101,0.166,-0.187,-0.159,-0.106,0.153,-0.044,0.004,-0.086,-0.155,-0.313,1.0,0.303,0.08
28,y2,0.056,0.032,-0.112,0.046,-0.066,-0.084,-0.255,0.107,-0.042,0.043,-0.169,-0.168,-0.15,0.303,1.0,0.255
28,y3,0.075,0.115,0.178,0.211,-0.109,-0.204,-0.075,0.1,-0.049,-0.073,-0.167,-0.237,-0.13,0.08,0.255,1.0
29,.,1.0,0.038,0.073,-0.086,-0.23,-0.368,-0.176,-0.028,-0.16,-0.268,-0.069,-0.264,-0.176,0.104,0.057,0.076
29,A1_1,0.038,1.0,-0.069,0.181,0.258,0.221,0.113,0.159,-0.007,0.082,0.272,-0.06,-0.286,0.045,0.031,0.114
29,A1_2,0.073,-0.069,1.0,-0.006,-0.014,0.017,-0.107,0.056,-0.014,0.246,-0.018,-0.132,0.132,-0.102,-0.114,0.174
29,A1_3,-0.086,0.181,-0.006,1.0,0.102,0.236,0.25,-0.063,0.302,-0.058,-0.232,0.064,-0.206,0.163,0.044,0.208
29,B1_1,-0.23,0.258,-0.014,0.102,1.0,0.273,0.205,0.061,0.001,-0.109,0.346,0.257,0.081,-0.194,-0.074,-0.116
29,B1_2,-0.368,0.221,0.017,0.236,0.273,1.0,0.209,0.021,0.111,0.01,0.084,0.14,0.269,-0.166,-0.091,-0.21
29,B1_3,-0.176,0.113,-0.107,0.25,0.205,0.209,1.0,0.079,0.04,-0.164,0.209,0.188,0.212,-0.113,-0.26,-0.082
29,A2_1,-0.028,0.159,0.056,-0.063,0.061,0.021,0.079,1.0,-0.041,0.001,-0.026,-0.089,0.15,0.151,0.105,0.099
29,A2_2,-0.16,-0.007,-0.014,0.302,0.001,0.111,0.04,-0.041,1.0,0.022,-0.028,0.245,0.135,-0.042,-0.041,-0.048
29,A2_3,-0.268,0.082,0.246,-0.058,-0.109,0.01,-0.164,0.001,0.022,1.0,-0.014,-0.193,0.007,0.004,0.042,-0.073
29,B2_1,-0.069,0.272,-0.018,-0.232,0.346,0.084,0.209,-0.026,-0.028,-0.014,1.0,0.224,0.141,-0.095,-0.177,-0.175
29,B2_2,-0.264,-0.06,-0.132,0.064,0.257,0.14,0.188,-0.089,0.245,-0.193,0.224,1.0,0.089,-0.162,-0.174,-0.243
29,B2_3,-0.176,-0.286,0.132,-0.206,0.081,0.269,0.212,0.15,0.135,0.007,0.141,0.089,1.0,-0.318,-0.157,-0.138
29,y1,0.104,0.045,-0.102,0.163,-0.194,-0.166,-0.113,0.151,-0.042,0.004,-0.095,-0.162,-0.318,1.0,0.313,0.094
29,y2,0.057,0.031,-0.114,0.044,-0.074,-0.091,-0.26,0.105,-0.041,0.042,-0.177,-0.174,-0.157,0.313,1.0,0.267
29,y3,0.076,0.114,0.174,0.208,-0.116,-0.21,-0.082,0.099,-0.048,-0.073,-0.175,-0.243,-0.138,0.094,0.267,1.0
30,.,1.0,0.038,0.07,-0.089,-0.235,-0.37,-0.18,-0.029,-0.154,-0.267,-0.075,-0.268,-0.18,0.102,0.056,0.076
30,A1_1,0.038,1.0,-0.065,0.183,0.256,0.219,0.112,0.162,-0.004,0.086,0.269,-0.06,-0.284,0.043,0.029,0.111
30,A1_2,0.07,-0.065,1.0,-0.003,-0.013,0.018,-0.105,0.059,-0.009,0.25,-0.018,-0.13,0.132,-0.105,-0.115,0.169
30,A1_3,-0.089,0.183,-0.003,1.0,0.102,0.236,0.249,-0.06,0.306,-0.054,-0.231,0.064,-0.204,0.161,0.043,0.206
30,B1_1,-0.235,0.256,-0.013,0.102,1.0,0.28,0.214,0.061,-0.002,-0.11,0.354,0.266,0.092,-0.2,-0.081,-0.123
30,B1_2,-0.37,0.219,0.018,0.236,0.28,1.0,0.216,0.021,0.107,0.009,0.093,0.15,0.277,-0.172,-0.098,-0.216
30,B1_3,-0.18,0.112,-0.105,0.249,0.214,0.216,1.0,0.079,0.036,-0.165,0.217,0.197,0.22,-0.12,-0.264,-0.089
30,A2_1,-0.029,0.162,0.059,-0.06,0.061,0.021,0.079,1.0,-0.037,0.005,-0.026,-0.089,0.149,0.148,0.103,0.097
30,A2_2,-0.154,-0.004,-0.009,0.306,-0.002,0.107,0.036,-0.037,1.0,0.026,-0.031,0.239,0.131,-0.041,-0.039,-0.046
30,A2_3,-0.267,0.086,0.25,-0.054,-0.11,0.009,-0.165,0.005,0.026,1.0,-0.016,-0.193,0.005,0.004,0.041,-0.072
30,B2_1,-0.075,0.269,-0.018,-0.231,0.354,0.093,0.217,-0.026,-0.031,-0.016,1.0,0.233,0.151,-0.104,-0.184,-0.182
30,B2_2,-0.268,-0.06,-0.13,0.064,0.266,0.15,0.197,-0.089,0.239,-0.193,0.233,1.0,0.1,-0.168,-0.181,-0.248
30,B2_3,-0.18,-0.284,0.132,-0.204,0.092,0.277,0.22,0.149,0.131,0.005,0.151,0.1,1.0,-0.323,-0.164,-0.145
30,y1,0.102,0.043,-0.105,0.161,-0.2,-0.172,-0.12,0.148,-0.041,0.004,-0.104,-0.168,-0.323,1.0,0.324,0.107
30,y2,0.056,0.029,-0.115,0.043,-0.081,-0.098,-0.264,0.103,-0.039,0.041,-0.184,-0.181,-0.164,0.324,1.0,0.278
30,y3,0.076,0.111,0.169,0.206,-0.123,-0.216,-0.089,0.097,-0.046,-0.072,-0.182,-0.248,-0.145,0.107,0.278,1.0
31,.,1.0,0.036,0.065,-0.092,-0.24,-0.372,-0.182,-0.028,-0.149,-0.269,-0.08,-0.27,-0.183,0.099,0.053,0.075
31,A1_1,0.036,1.0,-0.061,0.186,0.254,0.218,0.111,0.164,-0.0,0.089,0.266,-0.06,-0.282,0.041,0.027,0.108
31,A1_2,0.065,-0.061,1.0,0.001,-0.011,0.02,-0.103,0.063,-0.003,0.253,-0.017,-0.128,0.132,-0.107,-0.118,0.164
31,A1_3,-0.092,0.186,0.001,1.0,0.102,0.236,0.248,-0.057,0.31,-0.05,-0.229,0.064,-0.202,0.157,0.04,0.202
31,B1_1,-0.24,0.254,-0.011,0.102,1.0,0.287,0.221,0.059,-0.006,-0.11,0.36,0.274,0.102,-0.205,-0.088,-0.129
31,B1_2,-0.372,0.218,0.02,0.236,0.287,1.0,0.223,0.02,0.103,0.009,0.102,0.158,0.285,-0.177,-0.104,-0.221
31,B1_3,-0.182,0.111,-0.103,0.248,0.221,0.223,1.0,0.078,0.033,-0.164,0.225,0.204,0.227,-0.125,-0.267,-0.095
31,A2_1,-0.028,0.164,0.063,-0.057,0.059,0.02,0.078,1.0,-0.033,0.009,-0.027,-0.089,0.147,0.147,0.102,0.095
31,A2_2,-0.149,-0.0,-0.003,0.31,-0.006,0.103,0.033,-0.033,1.0,0.031,-0.034,0.234,0.127,-0.04,-0.038,-0.046
31,A2_3,-0.269,0.089,0.253,-0.05,-0.11,0.009,-0.164,0.009,0.031,1.0,-0.016,-0.192,0.005,0.003,0.039,-0.073
31,B2_1,-0.08,0.266,-0.017,-0.229,0.36,0.102,0.225,-0.027,-0.034,-0.016,1.0,0.241,0.161,-0.111,-0.19,-0.189
31,B2_2,-0.27,-0.06,-0.128,0.064,0.274,0.158,0.204,-0.089,0.234,-0.192,0.241,1.0,0.11,-0.174,-0.186,-0.253
31,B2_3,-0.183,-0.282,0.132,-0.202,0.102,0.285,0.227,0.147,0.127,0.005,0.161,0.11,1.0,-0.327,-0.17,-0.151
31,y1,0.099,0.041,-0.107,0.157,-0.205,-0.177,-0.125,0.147,-0.04,0.003,-0.111,-0.174,-0.327,1.0,0.334,0.121
31,y2,0.053,0.027,-0.118,0.04,-0.088,-0.104,-0.267,0.102,-0.038,0.039,-0.19,-0.186,-0.17,0.334,1.0,0.289
31,y3,0.075,0.108,0.164,0.202,-0.129,-0.221,-0.095,0.095,-0.046,-0.073,-0.189,-0.253,-0.151,0.121,0.289,1.0
32,.,1.0,0.035,0.064,-0.096,-0.243,-0.373,-0.184,-0.029,-0.145,-0.27,-0.083,-0.272,-0.185,0.095,0.05,0.072
32,A1_1,0.035,1.0,-0.056,0.189,0.252,0.217,0.11,0.167,0.004,0.093,0.264,-0.06,-0.28,0.038,0.025,0.105
32,A1_2,0.064,-0.056,1.0,0.005,-0.011,0.02,-0.102,0.067,0.002,0.257,-0.017,-0.127,0.131,-0.109,-0.119,0.16
32,A1_3,-0.096,0.189,0.005,1.0,0.103,0.236,0.248,-0.053,0.313,-0.046,-0.227,0.065,-0.2,0.154,0.037,0.199
32,B1_1,-0.243,0.252,-0.011,0.103,1.0,0.294,0.228,0.06,-0.008,-0.109,0.367,0.281,0.111,-0.209,-0.094,-0.135
32,B1_2,-0.373,0.217,0.02,0.236,0.294,1.0,0.229,0.021,0.099,0.009,0.11,0.165,0.291,-0.181,-0.109,-0.225
32,B1_3,-0.184,0.11,-0.102,0.248,0.228,0.229,1.0,0.078,0.03,-0.163,0.231,0.211,0.234,-0.13,-0.27,-0.1
32,A2_1,-0.029,0.167,0.067,-0.053,0.06,0.021,0.078,1.0,-0.029,0.013,-0.027,-0.088,0.147,0.143,0.099,0.093
32,A2_2,-0.145,0.004,0.002,0.313,-0.008,0.099,0.03,-0.029,1.0,0.035,-0.037,0.23,0.124,-0.039,-0.038,-0.045
32,A2_3,-0.27,0.093,0.257,-0.046,-0.109,0.009,-0.163,0.013,0.035,1.0,-0.016,-0.19,0.005,0.001,0.037,-0.074
32,B2_1,-0.083,0.264,-0.017,-0.227,0.367,0.11,0.231,-0.027,-0.037,-0.016,1.0,0.249,0.169,-0.118,-0.195,-0.195
32,B2_2,-0.272,-0.06,-0.127,0.065,0.281,0.165,0.211,-0.088,0.23,-0.19,0.249,1.0,0.119,-0.179,-0.191,-0.257
32,B2_3,-0.185,-0.28,0.131,-0.2,0.111,0.291,0.234,0.147,0.124,0.005,0.169,0.119,1.0,-0.33,-0.175,-0.157
32,y1,0.095,0.038,-0.109,0.154,-0.209,-0.181,-0.13,0.143,-0.039,0.001,-0.118,-0.179,-0.33,1.0,0.345,0.135
32,y2,0.05,0.025,-0.119,0.037,-0.094,-0.109,-0.27,0.099,-0.038,0.037,-0.195,-0.191,-0.175,0.345,1.0,0.301
32,y3,0.072,0.105,0.16,0.199,-0.135,-0.225,-0.1,0.093,-0.045,-0.074,-0.195,-0.257,-0.157,0.135,0.301,1.0
33,.,1.0,0.034,0.059,-0.1,-0.245,-0.373,-0.185,-0.031,-0.138,-0.272,-0.085,-0.273,-0.187,0.091,0.046,0.068
33,A1_1,0.034,1.0,-0.052,0.192,0.251,0.217,0.11,0.17,0.008,0.097,0.262,-0.059,-0.278,0.035,0.022,0.102
33,A1_2,0.059,-0.052,1.0,0.009,-0.009,0.022,-0.099,0.071,0.008,0.261,-0.016,-0.124,0.132,-0.112,-0.123,0.154
33,A1_3,-0.1,0.192,0.009,1.0,0.104,0.237,0.249,-0.05,0.318,-0.042,-0.225,0.066,-0.197,0.15,0.034,0.194
33,B1_1,-0.245,0.251,-0.009,0.104,1.0,0.299,0.234,0.06,-0.013,-0.108,0.372,0.288,0.118,-0.213,-0.099,-0.14
33,B1_2,-0.373,0.217,0.022,0.237,0.299,1.0,0.234,0.023,0.094,0.009,0.117,0.172,0.297,-0.186,-0.114,-0.229
33,B1_3,-0.185,0.11,-0.099,0.249,0.234,0.234,1.0,0.079,0.025,-0.162,0.237,0.217,0.24,-0.135,-0.273,-0.105
33,A2_1,-0.031,0.17,0.071,-0.05,0.06,0.023,0.079,1.0,-0.024,0.017,-0.026,-0.086,0.147,0.14,0.096,0.09
33,A2_2,-0.138,0.008,0.008,0.318,-0.013,0.094,0.025,-0.024,1.0,0.04,-0.041,0.223,0.118,-0.037,-0.037,-0.044
33,A2_3,-0.272,0.097,0.261,-0.042,-0.108,0.009,-0.162,0.017,0.04,1.0,-0.016,-0.189,0.006,-0.001,0.034,-0.076
33,B2_1,-0.085,0.262,-0.016,-0.225,0.372,0.117,0.237,-0.026,-0.041,-0.016,1.0,0.256,0.176,-0.125,-0.2,-0.2
33,B2_2,-0.273,-0.059,-0.124,0.066,0.288,0.172,0.217,-0.086,0.223,-0.189,0.256,1.0,0.127,-0.183,-0.195,-0.261
33,B2_3,-0.187,-0.278,0.132,-0.197,0.118,0.297,0.24,0.147,0.118,0.006,0.176,0.127,1.0,-0.333,-0.179,-0.162
33,y1,0.091,0.035,-0.112,0.15,-0.213,-0.186,-0.135,0.14,-0.037,-0.001,-0.125,-0.183,-0.333,1.0,0.356,0.149
33,y2,0.046,0.022,-0.123,0.034,-0.099,-0.114,-0.273,0.096,-0.037,0.034,-0.2,-0.195,-0.179,0.356,1.0,0.312
33,y3,0.068,0.102,0.154,0.194,-0.14,-0.229,-0.105,0.09,-0.044,-0.076,-0.2,-0.261,-0.162,0.149,0.312,1.0
34,.,1.0,0.035,0.055,-0.103,-0.247,-0.373,-0.186,-0.032,-0.134,-0.273,-0.087,-0.273,-0.187,0.085,0.042,0.064
34,A1_1,0.035,1.0,-0.047,0.195,0.248,0.214,0.108,0.173,0.013,0.101,0.259,-0.061,-0.278,0.033,0.02,0.099
34,A1_2,0.055,-0.047,1.0,0.014,-0.007,0.025,-0.096,0.075,0.014,0.264,-0.015,-0.121,0.133,-0.116,-0.126,0.148
34,A1_3,-0.103,0.195,0.014,1.0,0.105,0.238,0.25,-0.046,0.322,-0.038,-0.222,0.067,-0.194,0.145,0.031,0.19
34,B1_1,-0.247,0.248,-0.007,0.105,1.0,0.304,0.239,0.061,-0.016,-0.107,0.377,0.294,0.126,-0.217,-0.103,-0.144
34,B1_2,-0.373,0.214,0.025,0.238,0.304,1.0,0.239,0.024,0.091,0.01,0.124,0.179,0.302,-0.19,-0.118,-0.233
34,B1_3,-0.186,0.108,-0.096,0.25,0.239,0.239,1.0,0.08,0.023,-0.16,0.243,0.223,0.245,-0.139,-0.275,-0.109
34,A2_1,-0.032,0.173,0.075,-0.046,0.061,0.024,0.08,1.0,-0.019,0.021,-0.025,-0.085,0.147,0.136,0.092,0.087
34,A2_2,-0.134,0.013,0.014,0.322,-0.016,0.091,0.023,-0.019,1.0,0.045,-0.043,0.22,0.116,-0.038,-0.037,-0.044
34,A2_3,-0.273,0.101,0.264,-0.038,-0.107,0.01,-0.16,0.021,0.045,1.0,-0.015,-0.187,0.006,-0.003,0.031,-0.077
34,B2_1,-0.087,0.259,-0.015,-0.222,0.377,0.124,0.243,-0.025,-0.043,-0.015,1.0,0.262,0.183,-0.131,-0.205,-0.205
34,B2_2,-0.273,-0.061,-0.121,0.067,0.294,0.179,0.223,-0.085,0.22,-0.187,0.262,1.0,0.134,-0.187,-0.198,-0.264
34,B2_3,-0.187,-0.278,0.133,-0.194,0.126,0.302,0.245,0.147,0.116,0.006,0.183,0.134,1.0,-0.336,-0.183,-0.167
34,y1,0.085,0.033,-0.116,0.145,-0.217,-0.19,-0.139,0.136,-0.038,-0.003,-0.131,-0.187,-0.336,1.0,0.367,0.163
34,y2,0.042,0.02,-0.126,0.031,-0.103,-0.118,-0.275,0.092,-0.037,0.031,-0.205,-0.198,-0.183,0.367,1.0,0.324
34,y3,0.064,0.099,0.148,0.19,-0.144,-0.233,-0.109,0.087,-0.044,-0.077,-0.205,-0.264,-0.167,0.163,0.324,1.0
35,.,1.0,0.033,0.051,-0.107,-0.247,-0.373,-0.185,-0.034,-0.131,-0.273,-0.088,-0.273,-0.187,0.079,0.037,0.06
35,A1_1,0.033,1.0,-0.042,0.199,0.248,0.214,0.108,0.177,0.017,0.105,0.257,-0.059,-0.276,0.029,0.016,0.095
35,A1_2,0.051,-0.042,1.0,0.019,-0.004,0.027,-0.093,0.079,0.021,0.269,-0.013,-0.118,0.135,-0.12,-0.13,0.142
35,A1_3,-0.107,0.199,0.019,1.0,0.107,0.239,0.251,-0.042,0.326,-0.033,-0.219,0.069,-0.191,0.141,0.027,0.185
35,B1_1,-0.247,0.248,-0.004,0.107,1.0,0.309,0.244,0.062,-0.017,-0.108,0.382,0.299,0.132,-0.219,-0.107,-0.148
35,B1_2,-0.373,0.214,0.027,0.239,0.309,1.0,0.243,0.026,0.089,0.009,0.13,0.184,0.307,-0.193,-0.122,-0.236
35,B1_3,-0.185,0.108,-0.093,0.251,0.244,0.243,1.0,0.081,0.021,-0.16,0.247,0.228,0.25,-0.142,-0.277,-0.113
35,A2_1,-0.034,0.177,0.079,-0.042,0.062,0.026,0.081,1.0,-0.014,0.026,-0.024,-0.083,0.148,0.132,0.088,0.083
35,A2_2,-0.131,0.017,0.021,0.326,-0.017,0.089,0.021,-0.014,1.0,0.05,-0.045,0.217,0.113,-0.039,-0.038,-0.045
35,A2_3,-0.273,0.105,0.269,-0.033,-0.108,0.009,-0.16,0.026,0.05,1.0,-0.017,-0.187,0.005,-0.004,0.029,-0.078
35,B2_1,-0.088,0.257,-0.013,-0.219,0.382,0.13,0.247,-0.024,-0.045,-0.017,1.0,0.267,0.189,-0.136,-0.209,-0.209
35,B2_2,-0.273,-0.059,-0.118,0.069,0.299,0.184,0.228,-0.083,0.217,-0.187,0.267,1.0,0.14,-0.19,-0.202,-0.267
35,B2_3,-0.187,-0.276,0.135,-0.191,0.132,0.307,0.25,0.148,0.113,0.005,0.189,0.14,1.0,-0.338,-0.187,-0.171
35,y1,0.079,0.029,-0.12,0.141,-0.219,-0.193,-0.142,0.132,-0.039,-0.004,-0.136,-0.19,-0.338,1.0,0.377,0.177
35,y2,0.037,0.016,-0.13,0.027,-0.107,-0.122,-0.277,0.088,-0.038,0.029,-0.209,-0.202,-0.187,0.377,1.0,0.335
35,y3,0.06,0.095,0.142,0.185,-0.148,-0.236,-0.113,0.083,-0.045,-0.078,-0.209,-0.267,-0.171,0.177,0.335,1.0
36,.,1.0,0.031,0.047,-0.11,-0.248,-0.372,-0.185,-0.036,-0.128,-0.272,-0.088,-0.272,-0.186,0.073,0.032,0.055
36,A1_1,0.031,1.0,-0.037,0.202,0.247,0.214,0.109,0.18,0.022,0.109,0.256,-0.058,-0.273,0.025,0.013,0.091
36,A1_2,0.047,-0.037,1.0,0.023,-0.002,0.03,-0.091,0.084,0.027,0.273,-0.011,-0.115,0.136,-0.123,-0.133,0.136
36,A1_3,-0.11,0.202,0.023,1.0,0.108,0.241,0.252,-0.037,0.33,-0.028,-0.217,0.07,-0.188,0.136,0.023,0.18
36,B1_1,-0.248,0.247,-0.002,0.108,1.0,0.313,0.248,0.064,-0.019,-0.108,0.386,0.303,0.138,-0.222,-0.111,-0.152
36,B1_2,-0.372,0.214,0.03,0.241,0.313,1.0,0.247,0.028,0.087,0.008,0.135,0.189,0.311,-0.196,-0.126,-0.239
36,B1_3,-0.185,0.109,-0.091,0.252,0.248,0.247,1.0,0.083,0.019,-0.16,0.252,0.232,0.255,-0.145,-0.278,-0.117
36,A2_1,-0.036,0.18,0.084,-0.037,0.064,0.028,0.083,1.0,-0.009,0.03,-0.023,-0.081,0.149,0.127,0.084,0.079
36,A2_2,-0.128,0.022,0.027,0.33,-0.019,0.087,0.019,-0.009,1.0,0.055,-0.046,0.214,0.111,-0.04,-0.039,-0.046
36,A2_3,-0.272,0.109,0.273,-0.028,-0.108,0.008,-0.16,0.03,0.055,1.0,-0.018,-0.188,0.004,-0.005,0.027,-0.079
36,B2_1,-0.088,0.256,-0.011,-0.217,0.386,0.135,0.252,-0.023,-0.046,-0.018,1.0,0.272,0.194,-0.141,-0.212,-0.213
36,B2_2,-0.272,-0.058,-0.115,0.07,0.303,0.189,0.232,-0.081,0.214,-0.188,0.272,1.0,0.146,-0.193,-0.204,-0.27
36,B2_3,-0.186,-0.273,0.136,-0.188,0.138,0.311,0.255,0.149,0.111,0.004,0.194,0.146,1.0,-0.34,-0.19,-0.175
36,y1,0.073,0.025,-0.123,0.136,-0.222,-0.196,-0.145,0.127,-0.04,-0.005,-0.141,-0.193,-0.34,1.0,0.388,0.191
36,y2,0.032,0.013,-0.133,0.023,-0.111,-0.126,-0.278,0.084,-0.039,0.027,-0.212,-0.204,-0.19,0.388,1.0,0.346
36,y3,0.055,0.091,0.136,0.18,-0.152,-0.239,-0.117,0.079,-0.046,-0.079,-0.213,-0.27,-0.175,0.191,0.346,1.0
37,.,1.0,0.03,0.044,-0.113,-0.248,-0.371,-0.184,-0.037,-0.123,-0.274,-0.087,-0.271,-0.186,0.068,0.027,0.05
37,A1_1,0.03,1.0,-0.031,0.206,0.247,0.215,0.11,0.184,0.027,0.113,0.256,-0.057,-0.27,0.021,0.009,0.086
37,A1_2,0.044,-0.031,1.0,0.028,0.0,0.032,-0.088,0.088,0.033,0.276,-0.01,-0.112,0.137,-0.127,-0.137,0.129
37,A1_3,-0.113,0.206,0.028,1.0,0.11,0.242,0.253,-0.033,0.334,-0.024,-0.214,0.072,-0.185,0.131,0.019,0.175
37,B1_1,-0.248,0.247,0.0,0.11,1.0,0.317,0.252,0.065,-0.023,-0.107,0.389,0.308,0.143,-0.224,-0.114,-0.155
37,B1_2,-0.371,0.215,0.032,0.242,0.317,1.0,0.251,0.03,0.083,0.009,0.139,0.194,0.315,-0.199,-0.129,-0.242
37,B1_3,-0.184,0.11,-0.088,0.253,0.252,0.251,1.0,0.084,0.016,-0.158,0.255,0.237,0.259,-0.148,-0.279,-0.12
37,A2_1,-0.037,0.184,0.088,-0.033,0.065,0.03,0.084,1.0,-0.003,0.034,-0.022,-0.079,0.15,0.123,0.08,0.076
37,A2_2,-0.123,0.027,0.033,0.334,-0.023,0.083,0.016,-0.003,1.0,0.06,-0.05,0.208,0.107,-0.039,-0.039,-0.045
37,A2_3,-0.274,0.113,0.276,-0.024,-0.107,0.009,-0.158,0.034,0.06,1.0,-0.017,-0.186,0.005,-0.008,0.023,-0.081
37,B2_1,-0.087,0.256,-0.01,-0.214,0.389,0.139,0.255,-0.022,-0.05,-0.017,1.0,0.276,0.199,-0.146,-0.215,-0.217
37,B2_2,-0.271,-0.057,-0.112,0.072,0.308,0.194,0.237,-0.079,0.208,-0.186,0.276,1.0,0.151,-0.196,-0.207,-0.272
37,B2_3,-0.186,-0.27,0.137,-0.185,0.143,0.315,0.259,0.15,0.107,0.005,0.199,0.151,1.0,-0.341,-0.193,-0.179
37,y1,0.068,0.021,-0.127,0.131,-0.224,-0.199,-0.148,0.123,-0.039,-0.008,-0.146,-0.196,-0.341,1.0,0.398,0.204
37,y2,0.027,0.009,-0.137,0.019,-0.114,-0.129,-0.279,0.08,-0.039,0.023,-0.215,-0.207,-0.193,0.398,1.0,0.357
37,y3,0.05,0.086,0.129,0.175,-0.155,-0.242,-0.12,0.076,-0.045,-0.081,-0.217,-0.272,-0.179,0.204,0.357,1.0
38,.,1.0,0.028,0.041,-0.113,-0.248,-0.37,-0.183,-0.038,-0.121,-0.275,-0.087,-0.27,-0.185,0.062,0.022,0.045
38,A1_1,0.028,1.0,-0.026,0.209,0.247,0.215,0.11,0.188,0.032,0.117,0.255,-0.056,-0.268,0.017,0.005,0.082
38,A1_2,0.041,-0.026,1.0,0.034,0.002,0.034,-0.085,0.093,0.039,0.28,-0.008,-0.11,0.139,-0.13,-0.14,0.123
38,A1_3,-0.113,0.209,0.034,1.0,0.109,0.241,0.252,-0.028,0.338,-0.019,-0.214,0.071,-0.184,0.128,0.016,0.172
38,B1_1,-0.248,0.247,0.002,0.109,1.0,0.32,0.255,0.066,-0.023,-0.105,0.393,0.311,0.147,-0.226,-0.117,-0.158
38,B1_2,-0.37,0.215,0.034,0.241,0.32,1.0,0.254,0.032,0.082,0.01,0.144,0.198,0.318,-0.202,-0.132,-0.244
38,B1_3,-0.183,0.11,-0.085,0.252,0.255,0.254,1.0,0.085,0.015,-0.156,0.259,0.24,0.262,-0.151,-0.28,-0.123
38,A2_1,-0.038,0.188,0.093,-0.028,0.066,0.032,0.085,1.0,0.002,0.039,-0.021,-0.077,0.15,0.119,0.076,0.072
38,A2_2,-0.121,0.032,0.039,0.338,-0.023,0.082,0.015,0.002,1.0,0.065,-0.05,0.207,0.106,-0.041,-0.041,-0.047
38,A2_3,-0.275,0.117,0.28,-0.019,-0.105,0.01,-0.156,0.039,0.065,1.0,-0.016,-0.184,0.007,-0.012,0.019,-0.084
38,B2_1,-0.087,0.255,-0.008,-0.214,0.393,0.144,0.259,-0.021,-0.05,-0.016,1.0,0.28,0.203,-0.15,-0.218,-0.22
38,B2_2,-0.27,-0.056,-0.11,0.071,0.311,0.198,0.24,-0.077,0.207,-0.184,0.28,1.0,0.156,-0.199,-0.209,-0.274
38,B2_3,-0.185,-0.268,0.139,-0.184,0.147,0.318,0.262,0.15,0.106,0.007,0.203,0.156,1.0,-0.342,-0.195,-0.182
38,y1,0.062,0.017,-0.13,0.128,-0.226,-0.202,-0.151,0.119,-0.041,-0.012,-0.15,-0.199,-0.342,1.0,0.409,0.218
38,y2,0.022,0.005,-0.14,0.016,-0.117,-0.132,-0.28,0.076,-0.041,0.019,-0.218,-0.209,-0.195,0.409,1.0,0.368
38,y3,0.045,0.082,0.123,0.172,-0.158,-0.244,-0.123,0.072,-0.047,-0.084,-0.22,-0.274,-0.182,0.218,0.368,1.0
39,.,1.0,0.027,0.038,-0.115,-0.247,-0.369,-0.182,-0.035,-0.12,-0.277,-0.086,-0.269,-0.183,0.056,0.017,0.04
39,A1_1,0.027,1.0,-0.021,0.213,0.247,0.215,0.111,0.191,0.037,0.121,0.254,-0.055,-0.266,0.014,0.002,0.078
39,A1_2,0.038,-0.021,1.0,0.039,0.004,0.036,-0.083,0.098,0.044,0.284,-0.007,-0.107,0.14,-0.134,-0.143,0.117
39,A1_3,-0.115,0.213,0.039,1.0,0.11,0.242,0.253,-0.024,0.341,-0.014,-0.211,0.073,-0.181,0.123,0.012,0.167
39,B1_1,-0.247,0.247,0.004,0.11,1.0,0.323,0.259,0.064,-0.023,-0.104,0.396,0.315,0.152,-0.228,-0.119,-0.16
39,B1_2,-0.369,0.215,0.036,0.242,0.323,1.0,0.257,0.031,0.082,0.011,0.148,0.201,0.322,-0.204,-0.135,-0.247
39,B1_3,-0.182,0.111,-0.083,0.253,0.259,0.257,1.0,0.084,0.015,-0.155,0.262,0.244,0.265,-0.153,-0.281,-0.126
39,A2_1,-0.035,0.191,0.098,-0.024,0.064,0.031,0.084,1.0,0.007,0.043,-0.022,-0.078,0.149,0.117,0.074,0.07
39,A2_2,-0.12,0.037,0.044,0.341,-0.023,0.082,0.015,0.007,1.0,0.069,-0.05,0.205,0.105,-0.043,-0.043,-0.049
39,A2_3,-0.277,0.121,0.284,-0.014,-0.104,0.011,-0.155,0.043,0.069,1.0,-0.015,-0.182,0.008,-0.015,0.016,-0.087
39,B2_1,-0.086,0.254,-0.007,-0.211,0.396,0.148,0.262,-0.022,-0.05,-0.015,1.0,0.284,0.207,-0.154,-0.221,-0.223
39,B2_2,-0.269,-0.055,-0.107,0.073,0.315,0.201,0.244,-0.078,0.205,-0.182,0.284,1.0,0.16,-0.201,-0.211,-0.275
39,B2_3,-0.183,-0.266,0.14,-0.181,0.152,0.322,0.265,0.149,0.105,0.008,0.207,0.16,1.0,-0.343,-0.198,-0.185
39,y1,0.056,0.014,-0.134,0.123,-0.228,-0.204,-0.153,0.117,-0.043,-0.015,-0.154,-0.201,-0.343,1.0,0.419,0.231
39,y2,0.017,0.002,-0.143,0.012,-0.119,-0.135,-0.281,0.074,-0.043,0.016,-0.221,-0.211,-0.198,0.419,1.0,0.378
39,y3,0.04,0.078,0.117,0.167,-0.16,-0.247,-0.126,0.07,-0.049,-0.087,-0.223,-0.275,-0.185,0.231,0.378,1.0
40,.,1.0,0.026,0.039,-0.116,-0.246,-0.368,-0.18,-0.036,-0.118,-0.277,-0.085,-0.268,-0.182,0.05,0.012,0.036
40,A1_1,0.026,1.0,-0.016,0.217,0.247,0.216,0.112,0.195,0.042,0.125,0.254,-0.053,-0.263,0.01,-0.002,0.074
40,A1_2,0.039,-0.016,1.0,0.044,0.003,0.035,-0.083,0.103,0.05,0.287,-0.008,-0.108,0.138,-0.135,-0.144,0.113
40,A1_3,-0.116,0.217,0.044,1.0,0.112,0.243,0.254,-0.019,0.345,-0.01,-0.208,0.074,-0.178,0.119,0.009,0.162
40,B1_1,-0.246,0.247,0.003,0.112,1.0,0.326,0.261,0.066,-0.023,-0.102,0.398,0.318,0.155,-0.229,-0.122,-0.163
40,B1_2,-0.368,0.216,0.035,0.243,0.326,1.0,0.26,0.032,0.081,0.012,0.151,0.205,0.325,-0.206,-0.138,-0.249
40,B1_3,-0.18,0.112,-0.083,0.254,0.261,0.26,1.0,0.086,0.015,-0.153,0.265,0.247,0.268,-0.155,-0.281,-0.129
40,A2_1,-0.036,0.195,0.103,-0.019,0.066,0.032,0.086,1.0,0.012,0.047,-0.021,-0.076,0.15,0.113,0.07,0.067
40,A2_2,-0.118,0.042,0.05,0.345,-0.023,0.081,0.015,0.012,1.0,0.074,-0.05,0.204,0.105,-0.045,-0.045,-0.051
40,A2_3,-0.277,0.125,0.287,-0.01,-0.102,0.012,-0.153,0.047,0.074,1.0,-0.013,-0.18,0.009,-0.018,0.012,-0.089
40,B2_1,-0.085,0.254,-0.008,-0.208,0.398,0.151,0.265,-0.021,-0.05,-0.013,1.0,0.287,0.211,-0.157,-0.223,-0.226
40,B2_2,-0.268,-0.053,-0.108,0.074,0.318,0.205,0.247,-0.076,0.204,-0.18,0.287,1.0,0.164,-0.203,-0.213,-0.277
40,B2_3,-0.182,-0.263,0.138,-0.178,0.155,0.325,0.268,0.15,0.105,0.009,0.211,0.164,1.0,-0.344,-0.199,-0.187
40,y1,0.05,0.01,-0.135,0.119,-0.229,-0.206,-0.155,0.113,-0.045,-0.018,-0.157,-0.203,-0.344,1.0,0.428,0.243
40,y2,0.012,-0.002,-0.144,0.009,-0.122,-0.138,-0.281,0.07,-0.045,0.012,-0.223,-0.213,-0.199,0.428,1.0,0.388
40,y3,0.036,0.074,0.113,0.162,-0.163,-0.249,-0.129,0.067,-0.051,-0.089,-0.226,-0.277,-0.187,0.243,0.388,1.0
41,.,1.0,0.025,0.037,-0.118,-0.246,-0.367,-0.179,-0.037,-0.113,-0.278,-0.084,-0.266,-0.181,0.045,0.008,0.031
41,A1_1,0.025,1.0,-0.011,0.22,0.247,0.216,0.112,0.198,0.047,0.129,0.254,-0.052,-0.261,0.006,-0.005,0.07
41,A1_2,0.037,-0.011,1.0,0.049,0.005,0.037,-0.081,0.107,0.055,0.291,-0.006,-0.106,0.139,-0.138,-0.147,0.108
41,A1_3,-0.118,0.22,0.049,1.0,0.113,0.245,0.256,-0.015,0.349,-0.006,-0.206,0.076,-0.176,0.115,0.005,0.157
41,B1_1,-0.246,0.247,0.005,0.113,1.0,0.329,0.264,0.067,-0.027,-0.101,0.401,0.321,0.159,-0.23,-0.124,-0.165
41,B1_2,-0.367,0.216,0.037,0.245,0.329,1.0,0.262,0.034,0.077,0.013,0.155,0.208,0.327,-0.208,-0.14,-0.25
41,B1_3,-0.179,0.112,-0.081,0.256,0.264,0.262,1.0,0.087,0.012,-0.151,0.268,0.249,0.271,-0.157,-0.282,-0.131
41,A2_1,-0.037,0.198,0.107,-0.015,0.067,0.034,0.087,1.0,0.017,0.051,-0.019,-0.075,0.151,0.109,0.067,0.064
41,A2_2,-0.113,0.047,0.055,0.349,-0.027,0.077,0.012,0.017,1.0,0.078,-0.053,0.199,0.101,-0.045,-0.046,-0.051
41,A2_3,-0.278,0.129,0.291,-0.006,-0.101,0.013,-0.151,0.051,0.078,1.0,-0.012,-0.178,0.01,-0.021,0.008,-0.092
41,B2_1,-0.084,0.254,-0.006,-0.206,0.401,0.155,0.268,-0.019,-0.053,-0.012,1.0,0.29,0.214,-0.16,-0.225,-0.228
41,B2_2,-0.266,-0.052,-0.106,0.076,0.321,0.208,0.249,-0.075,0.199,-0.178,0.29,1.0,0.167,-0.204,-0.214,-0.278
41,B2_3,-0.181,-0.261,0.139,-0.176,0.159,0.327,0.271,0.151,0.101,0.01,0.214,0.167,1.0,-0.345,-0.201,-0.189
41,y1,0.045,0.006,-0.138,0.115,-0.23,-0.208,-0.157,0.109,-0.045,-0.021,-0.16,-0.204,-0.345,1.0,0.437,0.255
41,y2,0.008,-0.005,-0.147,0.005,-0.124,-0.14,-0.282,0.067,-0.046,0.008,-0.225,-0.214,-0.201,0.437,1.0,0.397
41,y3,0.031,0.07,0.108,0.157,-0.165,-0.25,-0.131,0.064,-0.051,-0.092,-0.228,-0.278,-0.189,0.255,0.397,1.0
42,.,1.0,0.025,0.036,-0.119,-0.245,-0.365,-0.178,-0.034,-0.111,-0.278,-0.083,-0.265,-0.179,0.04,0.005,0.027
42,A1_1,0.025,1.0,-0.007,0.223,0.247,0.217,0.113,0.202,0.051,0.132,0.254,-0.051,-0.259,0.003,-0.008,0.066
42,A1_2,0.036,-0.007,1.0,0.053,0.006,0.039,-0.079,0.112,0.06,0.294,-0.005,-0.104,0.14,-0.14,-0.149,0.103
42,A1_3,-0.119,0.223,0.053,1.0,0.115,0.246,0.257,-0.01,0.352,-0.002,-0.203,0.077,-0.173,0.11,0.002,0.153
42,B1_1,-0.245,0.247,0.006,0.115,1.0,0.331,0.267,0.065,-0.026,-0.1,0.403,0.323,0.162,-0.231,-0.125,-0.166
42,B1_2,-0.365,0.217,0.039,0.246,0.331,1.0,0.264,0.033,0.077,0.014,0.157,0.211,0.33,-0.209,-0.142,-0.252
42,B1_3,-0.178,0.113,-0.079,0.257,0.267,0.264,1.0,0.085,0.012,-0.149,0.27,0.252,0.273,-0.159,-0.282,-0.132
42,A2_1,-0.034,0.202,0.112,-0.01,0.065,0.033,0.085,1.0,0.022,0.056,-0.021,-0.076,0.149,0.107,0.065,0.062
42,A2_2,-0.111,0.051,0.06,0.352,-0.026,0.077,0.012,0.022,1.0,0.082,-0.053,0.199,0.101,-0.047,-0.048,-0.053
42,A2_3,-0.278,0.132,0.294,-0.002,-0.1,0.014,-0.149,0.056,0.082,1.0,-0.011,-0.177,0.011,-0.024,0.005,-0.095
42,B2_1,-0.083,0.254,-0.005,-0.203,0.403,0.157,0.27,-0.021,-0.053,-0.011,1.0,0.292,0.217,-0.163,-0.227,-0.23
42,B2_2,-0.265,-0.051,-0.104,0.077,0.323,0.211,0.252,-0.076,0.199,-0.177,0.292,1.0,0.171,-0.206,-0.216,-0.279
42,B2_3,-0.179,-0.259,0.14,-0.173,0.162,0.33,0.273,0.149,0.101,0.011,0.217,0.171,1.0,-0.345,-0.203,-0.192
42,y1,0.04,0.003,-0.14,0.11,-0.231,-0.209,-0.159,0.107,-0.047,-0.024,-0.163,-0.206,-0.345,1.0,0.445,0.266
42,y2,0.005,-0.008,-0.149,0.002,-0.125,-0.142,-0.282,0.065,-0.048,0.005,-0.227,-0.216,-0.203,0.445,1.0,0.406
42,y3,0.027,0.066,0.103,0.153,-0.166,-0.252,-0.132,0.062,-0.053,-0.095,-0.23,-0.279,-0.192,0.266,0.406,1.0
43,.,1.0,0.024,0.035,-0.116,-0.244,-0.364,-0.177,-0.034,-0.11,-0.279,-0.082,-0.264,-0.178,0.036,0.001,0.024
43,A1_1,0.024,1.0,-0.003,0.227,0.247,0.217,0.114,0.205,0.055,0.135,0.253,-0.05,-0.257,0.0,-0.01,0.063
43,A1_2,0.035,-0.003,1.0,0.058,0.007,0.04,-0.077,0.115,0.064,0.297,-0.004,-0.102,0.141,-0.143,-0.151,0.098
43,A1_3,-0.116,0.227,0.058,1.0,0.113,0.244,0.255,-0.006,0.356,0.002,-0.204,0.075,-0.174,0.108,-0.0,0.15
43,B1_1,-0.244,0.247,0.007,0.113,1.0,0.333,0.269,0.066,-0.026,-0.098,0.405,0.325,0.165,-0.232,-0.127,-0.168
43,B1_2,-0.364,0.217,0.04,0.244,0.333,1.0,0.266,0.034,0.077,0.015,0.16,0.213,0.332,-0.21,-0.143,-0.253
43,B1_3,-0.177,0.114,-0.077,0.255,0.269,0.266,1.0,0.087,0.012,-0.148,0.272,0.254,0.275,-0.16,-0.282,-0.134
43,A2_1,-0.034,0.205,0.115,-0.006,0.066,0.034,0.087,1.0,0.026,0.059,-0.02,-0.074,0.15,0.104,0.062,0.059
43,A2_2,-0.11,0.055,0.064,0.356,-0.026,0.077,0.012,0.026,1.0,0.086,-0.052,0.198,0.101,-0.049,-0.049,-0.055
43,A2_3,-0.279,0.135,0.297,0.002,-0.098,0.015,-0.148,0.059,0.086,1.0,-0.011,-0.175,0.012,-0.027,0.001,-0.097
43,B2_1,-0.082,0.253,-0.004,-0.204,0.405,0.16,0.272,-0.02,-0.052,-0.011,1.0,0.295,0.22,-0.165,-0.228,-0.232
43,B2_2,-0.264,-0.05,-0.102,0.075,0.325,0.213,0.254,-0.074,0.198,-0.175,0.295,1.0,0.173,-0.207,-0.217,-0.279
43,B2_3,-0.178,-0.257,0.141,-0.174,0.165,0.332,0.275,0.15,0.101,0.012,0.22,0.173,1.0,-0.345,-0.204,-0.193
43,y1,0.036,0.0,-0.143,0.108,-0.232,-0.21,-0.16,0.104,-0.049,-0.027,-0.165,-0.207,-0.345,1.0,0.453,0.276
43,y2,0.001,-0.01,-0.151,-0.0,-0.127,-0.143,-0.282,0.062,-0.049,0.001,-0.228,-0.217,-0.204,0.453,1.0,0.414
43,y3,0.024,0.063,0.098,0.15,-0.168,-0.253,-0.134,0.059,-0.055,-0.097,-0.232,-0.279,-0.193,0.276,0.414,1.0
44,.,1.0,0.024,0.034,-0.113,-0.243,-0.363,-0.175,-0.034,-0.109,-0.279,-0.081,-0.263,-0.177,0.032,-0.002,0.02
44,A1_1,0.024,1.0,0.001,0.23,0.247,0.217,0.115,0.208,0.059,0.138,0.253,-0.049,-0.255,-0.003,-0.013,0.06
44,A1_2,0.034,0.001,1.0,0.063,0.009,0.041,-0.075,0.119,0.068,0.299,-0.003,-0.101,0.142,-0.145,-0.153,0.094
44,A1_3,-0.113,0.23,0.063,1.0,0.111,0.242,0.253,-0.002,0.359,0.006,-0.204,0.073,-0.174,0.106,-0.002,0.147
44,B1_1,-0.243,0.247,0.009,0.111,1.0,0.335,0.271,0.067,-0.026,-0.097,0.407,0.328,0.167,-0.233,-0.128,-0.169
44,B1_2,-0.363,0.217,0.041,0.242,0.335,1.0,0.268,0.036,0.077,0.016,0.162,0.215,0.334,-0.211,-0.145,-0.254
44,B1_3,-0.175,0.115,-0.075,0.253,0.271,0.268,1.0,0.088,0.013,-0.146,0.274,0.256,0.277,-0.161,-0.282,-0.135
44,A2_1,-0.034,0.208,0.119,-0.002,0.067,0.036,0.088,1.0,0.03,0.062,-0.018,-0.073,0.15,0.101,0.059,0.057
44,A2_2,-0.109,0.059,0.068,0.359,-0.026,0.077,0.013,0.03,1.0,0.089,-0.052,0.197,0.101,-0.05,-0.051,-0.056
44,A2_3,-0.279,0.138,0.299,0.006,-0.097,0.016,-0.146,0.062,0.089,1.0,-0.01,-0.174,0.013,-0.029,-0.002,-0.099
44,B2_1,-0.081,0.253,-0.003,-0.204,0.407,0.162,0.274,-0.018,-0.052,-0.01,1.0,0.297,0.222,-0.167,-0.229,-0.234
44,B2_2,-0.263,-0.049,-0.101,0.073,0.328,0.215,0.256,-0.073,0.197,-0.174,0.297,1.0,0.176,-0.208,-0.218,-0.28
44,B2_3,-0.177,-0.255,0.142,-0.174,0.167,0.334,0.277,0.15,0.101,0.013,0.222,0.176,1.0,-0.345,-0.205,-0.195
44,y1,0.032,-0.003,-0.145,0.106,-0.233,-0.211,-0.161,0.101,-0.05,-0.029,-0.167,-0.208,-0.345,1.0,0.46,0.286
44,y2,-0.002,-0.013,-0.153,-0.002,-0.128,-0.145,-0.282,0.059,-0.051,-0.002,-0.229,-0.218,-0.205,0.46,1.0,0.422
44,y3,0.02,0.06,0.094,0.147,-0.169,-0.254,-0.135,0.057,-0.056,-0.099,-0.234,-0.28,-0.195,0.286,0.422,1.0
45,.,1.0,0.024,0.036,-0.114,-0.242,-0.362,-0.174,-0.034,-0.108,-0.279,-0.08,-0.261,-0.176,0.029,-0.005,0.017
45,A1_1,0.024,1.0,0.005,0.233,0.247,0.218,0.115,0.211,0.062,0.141,0.253,-0.048,-0.254,-0.005,-0.015,0.057
45,A1_2,0.036,0.005,1.0,0.067,0.007,0.04,-0.076,0.123,0.073,0.302,-0.005,-0.102,0.14,-0.145,-0.154,0.092
45,A1_3,-0.114,0.233,0.067,1.0,0.112,0.243,0.254,0.002,0.361,0.009,-0.202,0.075,-0.172,0.103,-0.004,0.144
45,B1_1,-0.242,0.247,0.007,0.112,1.0,0.337,0.272,0.068,-0.026,-0.096,0.408,0.329,0.17,-0.233,-0.129,-0.17
45,B1_2,-0.362,0.218,0.04,0.243,0.337,1.0,0.27,0.037,0.077,0.017,0.165,0.218,0.336,-0.213,-0.146,-0.255
45,B1_3,-0.174,0.115,-0.076,0.254,0.272,0.27,1.0,0.089,0.013,-0.145,0.276,0.258,0.279,-0.162,-0.282,-0.137
45,A2_1,-0.034,0.211,0.123,0.002,0.068,0.037,0.089,1.0,0.034,0.065,-0.017,-0.072,0.151,0.098,0.056,0.055
45,A2_2,-0.108,0.062,0.073,0.361,-0.026,0.077,0.013,0.034,1.0,0.092,-0.052,0.196,0.1,-0.052,-0.052,-0.057
45,A2_3,-0.279,0.141,0.302,0.009,-0.096,0.017,-0.145,0.065,0.092,1.0,-0.009,-0.173,0.014,-0.032,-0.004,-0.101
45,B2_1,-0.08,0.253,-0.005,-0.202,0.408,0.165,0.276,-0.017,-0.052,-0.009,1.0,0.299,0.224,-0.169,-0.23,-0.235
45,B2_2,-0.261,-0.048,-0.102,0.075,0.329,0.218,0.258,-0.072,0.196,-0.173,0.299,1.0,0.179,-0.209,-0.219,-0.281
45,B2_3,-0.176,-0.254,0.14,-0.172,0.17,0.336,0.279,0.151,0.1,0.014,0.224,0.179,1.0,-0.345,-0.206,-0.196
45,y1,0.029,-0.005,-0.145,0.103,-0.233,-0.213,-0.162,0.098,-0.052,-0.032,-0.169,-0.209,-0.345,1.0,0.466,0.295
45,y2,-0.005,-0.015,-0.154,-0.004,-0.129,-0.146,-0.282,0.056,-0.052,-0.004,-0.23,-0.219,-0.206,0.466,1.0,0.428
45,y3,0.017,0.057,0.092,0.144,-0.17,-0.255,-0.137,0.055,-0.057,-0.101,-0.235,-0.281,-0.196,0.295,0.428,1.0
46,.,1.0,0.024,0.035,-0.114,-0.242,-0.361,-0.173,-0.03,-0.107,-0.279,-0.08,-0.26,-0.175,0.025,-0.007,0.014
46,A1_1,0.024,1.0,0.009,0.236,0.247,0.218,0.116,0.214,0.065,0.143,0.253,-0.047,-0.252,-0.007,-0.017,0.054
46,A1_2,0.035,0.009,1.0,0.071,0.008,0.041,-0.075,0.127,0.076,0.304,-0.004,-0.101,0.14,-0.147,-0.155,0.088
46,A1_3,-0.114,0.236,0.071,1.0,0.113,0.243,0.255,0.006,0.364,0.012,-0.201,0.076,-0.17,0.1,-0.007,0.141
46,B1_1,-0.242,0.247,0.008,0.113,1.0,0.338,0.274,0.066,-0.026,-0.095,0.41,0.331,0.172,-0.234,-0.131,-0.171
46,B1_2,-0.361,0.218,0.041,0.243,0.338,1.0,0.272,0.035,0.077,0.017,0.167,0.22,0.337,-0.213,-0.148,-0.256
46,B1_3,-0.173,0.116,-0.075,0.255,0.274,0.272,1.0,0.087,0.013,-0.144,0.278,0.26,0.281,-0.163,-0.282,-0.138
46,A2_1,-0.03,0.214,0.127,0.006,0.066,0.035,0.087,1.0,0.037,0.069,-0.019,-0.074,0.149,0.097,0.055,0.054
46,A2_2,-0.107,0.065,0.076,0.364,-0.026,0.077,0.013,0.037,1.0,0.095,-0.052,0.196,0.1,-0.053,-0.054,-0.059
46,A2_3,-0.279,0.143,0.304,0.012,-0.095,0.017,-0.144,0.069,0.095,1.0,-0.008,-0.172,0.015,-0.034,-0.007,-0.103
46,B2_1,-0.08,0.253,-0.004,-0.201,0.41,0.167,0.278,-0.019,-0.052,-0.008,1.0,0.301,0.226,-0.171,-0.231,-0.236
46,B2_2,-0.26,-0.047,-0.101,0.076,0.331,0.22,0.26,-0.074,0.196,-0.172,0.301,1.0,0.181,-0.21,-0.219,-0.281
46,B2_3,-0.175,-0.252,0.14,-0.17,0.172,0.337,0.281,0.149,0.1,0.015,0.226,0.181,1.0,-0.345,-0.207,-0.197
46,y1,0.025,-0.007,-0.147,0.1,-0.234,-0.213,-0.163,0.097,-0.053,-0.034,-0.171,-0.21,-0.345,1.0,0.472,0.303
46,y2,-0.007,-0.017,-0.155,-0.007,-0.131,-0.148,-0.282,0.055,-0.054,-0.007,-0.231,-0.219,-0.207,0.472,1.0,0.435
46,y3,0.014,0.054,0.088,0.141,-0.171,-0.256,-0.138,0.054,-0.059,-0.103,-0.236,-0.281,-0.197,0.303,0.435,1.0
47,.,1.0,0.024,0.035,-0.114,-0.241,-0.36,-0.172,-0.03,-0.106,-0.276,-0.079,-0.259,-0.174,0.022,-0.009,0.012
47,A1_1,0.024,1.0,0.012,0.238,0.247,0.218,0.116,0.216,0.068,0.146,0.253,-0.047,-0.251,-0.009,-0.019,0.052
47,A1_2,0.035,0.012,1.0,0.074,0.009,0.041,-0.074,0.13,0.079,0.307,-0.003,-0.099,0.141,-0.148,-0.156,0.085
47,A1_3,-0.114,0.238,0.074,1.0,0.114,0.244,0.255,0.009,0.366,0.015,-0.199,0.077,-0.168,0.097,-0.009,0.138
47,B1_1,-0.241,0.247,0.009,0.114,1.0,0.34,0.276,0.066,-0.025,-0.097,0.411,0.333,0.174,-0.234,-0.131,-0.172
47,B1_2,-0.36,0.218,0.041,0.244,0.34,1.0,0.273,0.036,0.077,0.016,0.168,0.221,0.339,-0.214,-0.149,-0.256
47,B1_3,-0.172,0.116,-0.074,0.255,0.276,0.273,1.0,0.088,0.014,-0.145,0.279,0.262,0.282,-0.164,-0.282,-0.139
47,A2_1,-0.03,0.216,0.13,0.009,0.066,0.036,0.088,1.0,0.041,0.072,-0.018,-0.073,0.149,0.095,0.053,0.052
47,A2_2,-0.106,0.068,0.079,0.366,-0.025,0.077,0.014,0.041,1.0,0.098,-0.051,0.196,0.1,-0.054,-0.055,-0.06
47,A2_3,-0.276,0.146,0.307,0.015,-0.097,0.016,-0.145,0.072,0.098,1.0,-0.01,-0.173,0.013,-0.035,-0.008,-0.104
47,B2_1,-0.079,0.253,-0.003,-0.199,0.411,0.168,0.279,-0.018,-0.051,-0.01,1.0,0.303,0.228,-0.172,-0.232,-0.237
47,B2_2,-0.259,-0.047,-0.099,0.077,0.333,0.221,0.262,-0.073,0.196,-0.173,0.303,1.0,0.183,-0.211,-0.22,-0.282
47,B2_3,-0.174,-0.251,0.141,-0.168,0.174,0.339,0.282,0.149,0.1,0.013,0.228,0.183,1.0,-0.345,-0.208,-0.198
47,y1,0.022,-0.009,-0.148,0.097,-0.234,-0.214,-0.164,0.095,-0.054,-0.035,-0.172,-0.211,-0.345,1.0,0.478,0.31
47,y2,-0.009,-0.019,-0.156,-0.009,-0.131,-0.149,-0.282,0.053,-0.055,-0.008,-0.232,-0.22,-0.208,0.478,1.0,0.441
47,y3,0.012,0.052,0.085,0.138,-0.172,-0.256,-0.139,0.052,-0.06,-0.104,-0.237,-0.282,-0.198,0.31,0.441,1.0
48,.,1.0,0.024,0.034,-0.111,-0.24,-0.359,-0.171,-0.03,-0.105,-0.276,-0.078,-0.259,-0.173,0.02,-0.011,0.01
48,A1_1,0.024,1.0,0.015,0.241,0.247,0.218,0.117,0.218,0.071,0.148,0.253,-0.046,-0.25,-0.011,-0.02,0.05
48,A1_2,0.034,0.015,1.0,0.078,0.01,0.042,-0.073,0.132,0.082,0.309,-0.003,-0.098,0.141,-0.149,-0.157,0.082
48,A1_3,-0.111,0.241,0.078,1.0,0.112,0.242,0.253,0.012,0.369,0.019,-0.2,0.074,-0.169,0.096,-0.01,0.136
48,B1_1,-0.24,0.247,0.01,0.112,1.0,0.341,0.277,0.067,-0.025,-0.096,0.412,0.334,0.175,-0.234,-0.132,-0.173
48,B1_2,-0.359,0.218,0.042,0.242,0.341,1.0,0.274,0.037,0.077,0.016,0.17,0.223,0.34,-0.215,-0.15,-0.257
48,B1_3,-0.171,0.117,-0.073,0.253,0.277,0.274,1.0,0.089,0.014,-0.144,0.28,0.263,0.284,-0.164,-0.282,-0.139
48,A2_1,-0.03,0.218,0.132,0.012,0.067,0.037,0.089,1.0,0.043,0.074,-0.018,-0.072,0.15,0.093,0.051,0.05
48,A2_2,-0.105,0.071,0.082,0.369,-0.025,0.077,0.014,0.043,1.0,0.1,-0.051,0.195,0.1,-0.055,-0.056,-0.061
48,A2_3,-0.276,0.148,0.309,0.019,-0.096,0.016,-0.144,0.074,0.1,1.0,-0.009,-0.172,0.014,-0.037,-0.01,-0.106
48,B2_1,-0.078,0.253,-0.003,-0.2,0.412,0.17,0.28,-0.018,-0.051,-0.009,1.0,0.304,0.229,-0.174,-0.233,-0.238
48,B2_2,-0.259,-0.046,-0.098,0.074,0.334,0.223,0.263,-0.072,0.195,-0.172,0.304,1.0,0.185,-0.211,-0.221,-0.282
48,B2_3,-0.173,-0.25,0.141,-0.169,0.175,0.34,0.284,0.15,0.1,0.014,0.229,0.185,1.0,-0.345,-0.208,-0.199
48,y1,0.02,-0.011,-0.149,0.096,-0.234,-0.215,-0.164,0.093,-0.055,-0.037,-0.174,-0.211,-0.345,1.0,0.483,0.317
48,y2,-0.011,-0.02,-0.157,-0.01,-0.132,-0.15,-0.282,0.051,-0.056,-0.01,-0.233,-0.221,-0.208,0.483,1.0,0.446
48,y3,0.01,0.05,0.082,0.136,-0.173,-0.257,-0.139,0.05,-0.061,-0.106,-0.238,-0.282,-0.199,0.317,0.446,1.0
49,.,1.0,0.024,0.037,-0.111,-0.239,-0.358,-0.17,-0.03,-0.104,-0.276,-0.077,-0.258,-0.172,0.017,-0.013,0.008
49,A1_1,0.024,1.0,0.018,0.243,0.247,0.218,0.117,0.22,0.073,0.15,0.253,-0.046,-0.249,-0.012,-0.022,0.048
49,A1_2,0.037,0.018,1.0,0.081,0.008,0.04,-0.074,0.135,0.086,0.312,-0.004,-0.1,0.139,-0.149,-0.157,0.081
49,A1_3,-0.111,0.243,0.081,1.0,0.112,0.242,0.254,0.015,0.371,0.021,-0.199,0.075,-0.168,0.094,-0.012,0.134
49,B1_1,-0.239,0.247,0.008,0.112,1.0,0.343,0.278,0.068,-0.025,-0.095,0.413,0.336,0.177,-0.235,-0.133,-0.173
49,B1_2,-0.358,0.218,0.04,0.242,0.343,1.0,0.275,0.037,0.077,0.017,0.172,0.225,0.341,-0.215,-0.15,-0.257
49,B1_3,-0.17,0.117,-0.074,0.254,0.278,0.275,1.0,0.09,0.014,-0.143,0.282,0.264,0.285,-0.165,-0.282,-0.14
49,A2_1,-0.03,0.22,0.135,0.015,0.068,0.037,0.09,1.0,0.046,0.076,-0.017,-0.071,0.151,0.091,0.05,0.049
49,A2_2,-0.104,0.073,0.086,0.371,-0.025,0.077,0.014,0.046,1.0,0.102,-0.051,0.195,0.1,-0.056,-0.057,-0.062
49,A2_3,-0.276,0.15,0.312,0.021,-0.095,0.017,-0.143,0.076,0.102,1.0,-0.008,-0.171,0.015,-0.039,-0.013,-0.107
49,B2_1,-0.077,0.253,-0.004,-0.199,0.413,0.172,0.282,-0.017,-0.051,-0.008,1.0,0.306,0.231,-0.175,-0.233,-0.239
49,B2_2,-0.258,-0.046,-0.1,0.075,0.336,0.225,0.264,-0.071,0.195,-0.171,0.306,1.0,0.186,-0.212,-0.221,-0.282
49,B2_3,-0.172,-0.249,0.139,-0.168,0.177,0.341,0.285,0.151,0.1,0.015,0.231,0.186,1.0,-0.345,-0.209,-0.2
49,y1,0.017,-0.012,-0.149,0.094,-0.235,-0.215,-0.165,0.091,-0.056,-0.039,-0.175,-0.212,-0.345,1.0,0.488,0.323
49,y2,-0.013,-0.022,-0.157,-0.012,-0.133,-0.15,-0.282,0.05,-0.057,-0.013,-0.233,-0.221,-0.209,0.488,1.0,0.451
49,y3,0.008,0.048,0.081,0.134,-0.173,-0.257,-0.14,0.049,-0.062,-0.107,-0.239,-0.282,-0.2,0.323,0.451,1.0
50,.,1.0,0.024,0.036,-0.11,-0.239,-0.357,-0.169,-0.03,-0.099,-0.276,-0.076,-0.257,-0.171,0.015,-0.015,0.006
50,A1_1,0.024,1.0,0.021,0.245,0.247,0.218,0.117,0.222,0.076,0.152,0.252,-0.045,-0.248,-0.014,-0.023,0.047
50,A1_2,0.036,0.021,1.0,0.084,0.008,0.041,-0.073,0.138,0.089,0.313,-0.004,-0.099,0.139,-0.15,-0.158,0.079
50,A1_3,-0.11,0.245,0.084,1.0,0.113,0.242,0.254,0.017,0.373,0.023,-0.197,0.076,-0.167,0.092,-0.013,0.132
50,B1_1,-0.239,0.247,0.008,0.113,1.0,0.344,0.279,0.068,-0.028,-0.095,0.414,0.337,0.179,-0.235,-0.133,-0.174
50,B1_2,-0.357,0.218,0.041,0.242,0.344,1.0,0.277,0.038,0.074,0.017,0.173,0.226,0.343,-0.216,-0.151,-0.258
50,B1_3,-0.169,0.117,-0.073,0.254,0.279,0.277,1.0,0.09,0.011,-0.142,0.283,0.266,0.286,-0.165,-0.282,-0.141
50,A2_1,-0.03,0.222,0.138,0.017,0.068,0.038,0.09,1.0,0.049,0.078,-0.016,-0.07,0.151,0.089,0.048,0.047
50,A2_2,-0.099,0.076,0.089,0.373,-0.028,0.074,0.011,0.049,1.0,0.105,-0.053,0.191,0.097,-0.056,-0.057,-0.061
50,A2_3,-0.276,0.152,0.313,0.023,-0.095,0.017,-0.142,0.078,0.105,1.0,-0.008,-0.171,0.015,-0.04,-0.014,-0.108
50,B2_1,-0.076,0.252,-0.004,-0.197,0.414,0.173,0.283,-0.016,-0.053,-0.008,1.0,0.307,0.232,-0.176,-0.234,-0.24
50,B2_2,-0.257,-0.045,-0.099,0.076,0.337,0.226,0.266,-0.07,0.191,-0.171,0.307,1.0,0.188,-0.212,-0.222,-0.283
50,B2_3,-0.171,-0.248,0.139,-0.167,0.179,0.343,0.286,0.151,0.097,0.015,0.232,0.188,1.0,-0.345,-0.209,-0.201
50,y1,0.015,-0.014,-0.15,0.092,-0.235,-0.216,-0.165,0.089,-0.056,-0.04,-0.176,-0.212,-0.345,1.0,0.492,0.329
50,y2,-0.015,-0.023,-0.158,-0.013,-0.133,-0.151,-0.282,0.048,-0.057,-0.014,-0.234,-0.222,-0.209,0.492,1.0,0.455
50,y3,0.006,0.047,0.079,0.132,-0.174,-0.258,-0.141,0.047,-0.061,-0.108,-0.24,-0.283,-0.201,0.329,0.455,1.0
51,.,1.0,0.028,0.036,-0.11,-0.238,-0.356,-0.169,-0.03,-0.099,-0.275,-0.076,-0.256,-0.171,0.013,-0.016,0.004
51,A1_1,0.028,1.0,0.024,0.247,0.243,0.215,0.115,0.224,0.079,0.155,0.249,-0.048,-0.249,-0.014,-0.023,0.046
51,A1_2,0.036,0.024,1.0,0.086,0.009,0.041,-0.072,0.14,0.092,0.315,-0.003,-0.098,0.14,-0.151,-0.159,0.077
51,A1_3,-0.11,0.247,0.086,1.0,0.114,0.243,0.255,0.02,0.375,0.025,-0.196,0.076,-0.165,0.09,-0.015,0.13
51,B1_1,-0.238,0.243,0.009,0.114,1.0,0.345,0.281,0.069,-0.028,-0.094,0.415,0.338,0.18,-0.235,-0.134,-0.174
51,B1_2,-0.356,0.215,0.041,0.243,0.345,1.0,0.278,0.039,0.074,0.017,0.174,0.227,0.344,-0.216,-0.152,-0.258
51,B1_3,-0.169,0.115,-0.072,0.255,0.281,0.278,1.0,0.091,0.012,-0.141,0.284,0.267,0.287,-0.166,-0.281,-0.141
51,A2_1,-0.03,0.224,0.14,0.02,0.069,0.039,0.091,1.0,0.051,0.08,-0.015,-0.069,0.152,0.088,0.047,0.046
51,A2_2,-0.099,0.079,0.092,0.375,-0.028,0.074,0.012,0.051,1.0,0.107,-0.053,0.19,0.097,-0.056,-0.058,-0.062
51,A2_3,-0.275,0.155,0.315,0.025,-0.094,0.017,-0.141,0.08,0.107,1.0,-0.007,-0.17,0.016,-0.042,-0.016,-0.11
51,B2_1,-0.076,0.249,-0.003,-0.196,0.415,0.174,0.284,-0.015,-0.053,-0.007,1.0,0.308,0.234,-0.177,-0.234,-0.24
51,B2_2,-0.256,-0.048,-0.098,0.076,0.338,0.227,0.267,-0.069,0.19,-0.17,0.308,1.0,0.189,-0.213,-0.222,-0.283
51,B2_3,-0.171,-0.249,0.14,-0.165,0.18,0.344,0.287,0.152,0.097,0.016,0.234,0.189,1.0,-0.345,-0.21,-0.201
51,y1,0.013,-0.014,-0.151,0.09,-0.235,-0.216,-0.166,0.088,-0.056,-0.042,-0.177,-0.213,-0.345,1.0,0.496,0.335
51,y2,-0.016,-0.023,-0.159,-0.015,-0.134,-0.152,-0.281,0.047,-0.058,-0.016,-0.234,-0.222,-0.21,0.496,1.0,0.46
51,y3,0.004,0.046,0.077,0.13,-0.174,-0.258,-0.141,0.046,-0.062,-0.11,-0.24,-0.283,-0.201,0.335,0.46,1.0
52,.,1.0,0.031,0.036,-0.11,-0.238,-0.356,-0.168,-0.029,-0.098,-0.275,-0.075,-0.256,-0.17,0.012,-0.017,0.003
52,A1_1,0.031,1.0,0.028,0.25,0.24,0.212,0.112,0.227,0.082,0.158,0.246,-0.05,-0.251,-0.014,-0.023,0.046
52,A1_2,0.036,0.028,1.0,0.088,0.01,0.042,-0.071,0.142,0.094,0.316,-0.003,-0.098,0.14,-0.152,-0.16,0.075
52,A1_3,-0.11,0.25,0.088,1.0,0.114,0.243,0.255,0.022,0.377,0.027,-0.195,0.077,-0.164,0.088,-0.016,0.128
52,B1_1,-0.238,0.24,0.01,0.114,1.0,0.346,0.282,0.069,-0.028,-0.094,0.416,0.339,0.181,-0.235,-0.135,-0.175
52,B1_2,-0.356,0.212,0.042,0.243,0.346,1.0,0.279,0.039,0.074,0.018,0.176,0.228,0.345,-0.217,-0.152,-0.258
52,B1_3,-0.168,0.112,-0.071,0.255,0.282,0.279,1.0,0.091,0.012,-0.14,0.285,0.268,0.288,-0.166,-0.281,-0.141
52,A2_1,-0.029,0.227,0.142,0.022,0.069,0.039,0.091,1.0,0.053,0.082,-0.015,-0.068,0.152,0.086,0.046,0.045
52,A2_2,-0.098,0.082,0.094,0.377,-0.028,0.074,0.012,0.053,1.0,0.109,-0.053,0.19,0.097,-0.057,-0.058,-0.062
52,A2_3,-0.275,0.158,0.316,0.027,-0.094,0.018,-0.14,0.082,0.109,1.0,-0.007,-0.169,0.016,-0.043,-0.017,-0.111
52,B2_1,-0.075,0.246,-0.003,-0.195,0.416,0.176,0.285,-0.015,-0.053,-0.007,1.0,0.309,0.235,-0.177,-0.235,-0.241
52,B2_2,-0.256,-0.05,-0.098,0.077,0.339,0.228,0.268,-0.068,0.19,-0.169,0.309,1.0,0.191,-0.213,-0.222,-0.283
52,B2_3,-0.17,-0.251,0.14,-0.164,0.181,0.345,0.288,0.152,0.097,0.016,0.235,0.191,1.0,-0.345,-0.21,-0.202
52,y1,0.012,-0.014,-0.152,0.088,-0.235,-0.217,-0.166,0.086,-0.057,-0.043,-0.177,-0.213,-0.345,1.0,0.499,0.339
52,y2,-0.017,-0.023,-0.16,-0.016,-0.135,-0.152,-0.281,0.046,-0.058,-0.017,-0.235,-0.222,-0.21,0.499,1.0,0.463
52,y3,0.003,0.046,0.075,0.128,-0.175,-0.258,-0.141,0.045,-0.062,-0.111,-0.241,-0.283,-0.202,0.339,0.463,1.0
53,.,1.0,0.034,0.036,-0.11,-0.237,-0.355,-0.167,-0.029,-0.097,-0.275,-0.075,-0.255,-0.169,0.01,-0.019,0.001
53,A1_1,0.034,1.0,0.031,0.252,0.238,0.21,0.11,0.229,0.085,0.16,0.243,-0.053,-0.252,-0.014,-0.023,0.046
53,A1_2,0.036,0.031,1.0,0.09,0.01,0.042,-0.071,0.143,0.095,0.317,-0.002,-0.097,0.14,-0.153,-0.16,0.073
53,A1_3,-0.11,0.252,0.09,1.0,0.115,0.243,0.256,0.024,0.378,0.029,-0.194,0.077,-0.163,0.087,-0.017,0.126
53,B1_1,-0.237,0.238,0.01,0.115,1.0,0.347,0.283,0.07,-0.028,-0.093,0.417,0.34,0.183,-0.235,-0.135,-0.175
53,B1_2,-0.355,0.21,0.042,0.243,0.347,1.0,0.28,0.04,0.074,0.018,0.177,0.23,0.346,-0.217,-0.153,-0.258
53,B1_3,-0.167,0.11,-0.071,0.256,0.283,0.28,1.0,0.092,0.012,-0.14,0.286,0.269,0.289,-0.166,-0.281,-0.142
53,A2_1,-0.029,0.229,0.143,0.024,0.07,0.04,0.092,1.0,0.055,0.083,-0.014,-0.068,0.152,0.085,0.045,0.044
53,A2_2,-0.097,0.085,0.095,0.378,-0.028,0.074,0.012,0.055,1.0,0.11,-0.053,0.19,0.097,-0.058,-0.059,-0.063
53,A2_3,-0.275,0.16,0.317,0.029,-0.093,0.018,-0.14,0.083,0.11,1.0,-0.006,-0.169,0.017,-0.044,-0.019,-0.112
53,B2_1,-0.075,0.243,-0.002,-0.194,0.417,0.177,0.286,-0.014,-0.053,-0.006,1.0,0.31,0.236,-0.178,-0.235,-0.241
53,B2_2,-0.255,-0.053,-0.097,0.077,0.34,0.23,0.269,-0.068,0.19,-0.169,0.31,1.0,0.192,-0.214,-0.223,-0.283
53,B2_3,-0.169,-0.252,0.14,-0.163,0.183,0.346,0.289,0.152,0.097,0.017,0.236,0.192,1.0,-0.345,-0.211,-0.202
53,y1,0.01,-0.014,-0.153,0.087,-0.235,-0.217,-0.166,0.085,-0.058,-0.044,-0.178,-0.214,-0.345,1.0,0.503,0.344
53,y2,-0.019,-0.023,-0.16,-0.017,-0.135,-0.153,-0.281,0.045,-0.059,-0.019,-0.235,-0.223,-0.211,0.503,1.0,0.467
53,y3,0.001,0.046,0.073,0.126,-0.175,-0.258,-0.142,0.044,-0.063,-0.112,-0.241,-0.283,-0.202,0.344,0.467,1.0
54,.,1.0,0.034,0.035,-0.106,-0.237,-0.354,-0.167,-0.029,-0.097,-0.275,-0.074,-0.254,-0.169,0.009,-0.02,-0.0
54,A1_1,0.034,1.0,0.033,0.254,0.238,0.21,0.11,0.23,0.087,0.161,0.243,-0.052,-0.252,-0.015,-0.024,0.045
54,A1_2,0.035,0.033,1.0,0.093,0.011,0.043,-0.07,0.145,0.097,0.319,-0.002,-0.097,0.141,-0.153,-0.161,0.071
54,A1_3,-0.106,0.254,0.093,1.0,0.112,0.241,0.253,0.026,0.38,0.032,-0.195,0.075,-0.165,0.086,-0.018,0.125
54,B1_1,-0.237,0.238,0.011,0.112,1.0,0.348,0.283,0.07,-0.027,-0.093,0.418,0.341,0.184,-0.235,-0.135,-0.175
54,B1_2,-0.354,0.21,0.043,0.241,0.348,1.0,0.28,0.041,0.074,0.018,0.178,0.231,0.347,-0.217,-0.153,-0.259
54,B1_3,-0.167,0.11,-0.07,0.253,0.283,0.28,1.0,0.093,0.012,-0.139,0.287,0.27,0.29,-0.166,-0.281,-0.142
54,A2_1,-0.029,0.23,0.145,0.026,0.07,0.041,0.093,1.0,0.057,0.085,-0.014,-0.067,0.153,0.084,0.044,0.043
54,A2_2,-0.097,0.087,0.097,0.38,-0.027,0.074,0.012,0.057,1.0,0.112,-0.052,0.19,0.097,-0.058,-0.06,-0.064
54,A2_3,-0.275,0.161,0.319,0.032,-0.093,0.018,-0.139,0.085,0.112,1.0,-0.006,-0.168,0.017,-0.045,-0.02,-0.113
54,B2_1,-0.074,0.243,-0.002,-0.195,0.418,0.178,0.287,-0.014,-0.052,-0.006,1.0,0.311,0.237,-0.179,-0.236,-0.241
54,B2_2,-0.254,-0.052,-0.097,0.075,0.341,0.231,0.27,-0.067,0.19,-0.168,0.311,1.0,0.193,-0.214,-0.223,-0.283
54,B2_3,-0.169,-0.252,0.141,-0.165,0.184,0.347,0.29,0.153,0.097,0.017,0.237,0.193,1.0,-0.344,-0.211,-0.202
54,y1,0.009,-0.015,-0.153,0.086,-0.235,-0.217,-0.166,0.084,-0.058,-0.045,-0.179,-0.214,-0.344,1.0,0.506,0.348
54,y2,-0.02,-0.024,-0.161,-0.018,-0.135,-0.153,-0.281,0.044,-0.06,-0.02,-0.236,-0.223,-0.211,0.506,1.0,0.47
54,y3,-0.0,0.045,0.071,0.125,-0.175,-0.259,-0.142,0.043,-0.064,-0.113,-0.241,-0.283,-0.202,0.348,0.47,1.0
55,.,1.0,0.034,0.038,-0.106,-0.236,-0.354,-0.166,-0.029,-0.096,-0.275,-0.074,-0.254,-0.168,0.007,-0.021,-0.002
55,A1_1,0.034,1.0,0.035,0.256,0.238,0.21,0.111,0.231,0.088,0.163,0.243,-0.052,-0.251,-0.016,-0.025,0.044
55,A1_2,0.038,0.035,1.0,0.096,0.008,0.041,-0.071,0.147,0.1,0.32,-0.004,-0.099,0.138,-0.153,-0.16,0.071
55,A1_3,-0.106,0.256,0.096,1.0,0.113,0.241,0.254,0.028,0.381,0.033,-0.195,0.075,-0.164,0.085,-0.019,0.124
55,B1_1,-0.236,0.238,0.008,0.113,1.0,0.348,0.284,0.07,-0.027,-0.092,0.419,0.342,0.185,-0.235,-0.136,-0.176
55,B1_2,-0.354,0.21,0.041,0.241,0.348,1.0,0.281,0.041,0.074,0.018,0.179,0.232,0.347,-0.218,-0.154,-0.259
55,B1_3,-0.166,0.111,-0.071,0.254,0.284,0.281,1.0,0.093,0.013,-0.138,0.287,0.271,0.291,-0.167,-0.281,-0.142
55,A2_1,-0.029,0.231,0.147,0.028,0.07,0.041,0.093,1.0,0.059,0.086,-0.013,-0.067,0.153,0.083,0.043,0.042
55,A2_2,-0.096,0.088,0.1,0.381,-0.027,0.074,0.013,0.059,1.0,0.113,-0.052,0.189,0.097,-0.059,-0.06,-0.064
55,A2_3,-0.275,0.163,0.32,0.033,-0.092,0.018,-0.138,0.086,0.113,1.0,-0.006,-0.168,0.017,-0.046,-0.021,-0.114
55,B2_1,-0.074,0.243,-0.004,-0.195,0.419,0.179,0.287,-0.013,-0.052,-0.006,1.0,0.312,0.238,-0.18,-0.236,-0.242
55,B2_2,-0.254,-0.052,-0.099,0.075,0.342,0.232,0.271,-0.067,0.189,-0.168,0.312,1.0,0.194,-0.214,-0.223,-0.283
55,B2_3,-0.168,-0.251,0.138,-0.164,0.185,0.347,0.291,0.153,0.097,0.017,0.238,0.194,1.0,-0.344,-0.211,-0.203
55,y1,0.007,-0.016,-0.153,0.085,-0.235,-0.218,-0.167,0.083,-0.059,-0.046,-0.18,-0.214,-0.344,1.0,0.509,0.352
55,y2,-0.021,-0.025,-0.16,-0.019,-0.136,-0.154,-0.281,0.043,-0.06,-0.021,-0.236,-0.223,-0.211,0.509,1.0,0.473
55,y3,-0.002,0.044,0.071,0.124,-0.176,-0.259,-0.142,0.042,-0.064,-0.114,-0.242,-0.283,-0.203,0.352,0.473,1.0
56,.,1.0,0.037,0.038,-0.106,-0.235,-0.353,-0.165,-0.028,-0.096,-0.274,-0.073,-0.253,-0.168,0.006,-0.022,-0.003
56,A1_1,0.037,1.0,0.038,0.257,0.235,0.208,0.108,0.233,0.09,0.165,0.241,-0.054,-0.252,-0.016,-0.025,0.043
56,A1_2,0.038,0.038,1.0,0.097,0.009,0.041,-0.071,0.149,0.101,0.321,-0.003,-0.098,0.139,-0.153,-0.161,0.07
56,A1_3,-0.106,0.257,0.097,1.0,0.113,0.241,0.254,0.03,0.382,0.035,-0.194,0.075,-0.163,0.084,-0.019,0.123
56,B1_1,-0.235,0.235,0.009,0.113,1.0,0.349,0.285,0.071,-0.027,-0.092,0.419,0.343,0.186,-0.235,-0.136,-0.176
56,B1_2,-0.353,0.208,0.041,0.241,0.349,1.0,0.282,0.041,0.074,0.019,0.18,0.233,0.348,-0.218,-0.154,-0.259
56,B1_3,-0.165,0.108,-0.071,0.254,0.285,0.282,1.0,0.093,0.013,-0.138,0.288,0.272,0.292,-0.167,-0.28,-0.143
56,A2_1,-0.028,0.233,0.149,0.03,0.071,0.041,0.093,1.0,0.06,0.088,-0.013,-0.066,0.153,0.082,0.042,0.042
56,A2_2,-0.096,0.09,0.101,0.382,-0.027,0.074,0.013,0.06,1.0,0.114,-0.052,0.189,0.097,-0.059,-0.061,-0.065
56,A2_3,-0.274,0.165,0.321,0.035,-0.092,0.019,-0.138,0.088,0.114,1.0,-0.005,-0.167,0.018,-0.047,-0.022,-0.115
56,B2_1,-0.073,0.241,-0.003,-0.194,0.419,0.18,0.288,-0.013,-0.052,-0.005,1.0,0.313,0.239,-0.18,-0.236,-0.242
56,B2_2,-0.253,-0.054,-0.098,0.075,0.343,0.233,0.272,-0.066,0.189,-0.167,0.313,1.0,0.195,-0.215,-0.224,-0.283
56,B2_3,-0.168,-0.252,0.139,-0.163,0.186,0.348,0.292,0.153,0.097,0.018,0.239,0.195,1.0,-0.344,-0.211,-0.203
56,y1,0.006,-0.016,-0.153,0.084,-0.235,-0.218,-0.167,0.082,-0.059,-0.047,-0.18,-0.215,-0.344,1.0,0.511,0.356
56,y2,-0.022,-0.025,-0.161,-0.019,-0.136,-0.154,-0.28,0.042,-0.061,-0.022,-0.236,-0.224,-0.211,0.511,1.0,0.476
56,y3,-0.003,0.043,0.07,0.123,-0.176,-0.259,-0.143,0.042,-0.065,-0.115,-0.242,-0.283,-0.203,0.356,0.476,1.0
57,.,1.0,0.04,0.038,-0.106,-0.235,-0.353,-0.165,-0.028,-0.095,-0.274,-0.073,-0.253,-0.167,0.005,-0.022,-0.004
57,A1_1,0.04,1.0,0.041,0.259,0.233,0.205,0.106,0.235,0.093,0.167,0.238,-0.056,-0.253,-0.016,-0.025,0.043
57,A1_2,0.038,0.041,1.0,0.099,0.009,0.041,-0.07,0.15,0.103,0.322,-0.003,-0.098,0.139,-0.153,-0.161,0.068
57,A1_3,-0.106,0.259,0.099,1.0,0.113,0.242,0.254,0.031,0.383,0.036,-0.193,0.076,-0.162,0.083,-0.02,0.121
57,B1_1,-0.235,0.233,0.009,0.113,1.0,0.35,0.286,0.071,-0.027,-0.092,0.42,0.344,0.187,-0.235,-0.136,-0.176
57,B1_2,-0.353,0.205,0.041,0.242,0.35,1.0,0.283,0.042,0.074,0.019,0.181,0.234,0.349,-0.218,-0.155,-0.259
57,B1_3,-0.165,0.106,-0.07,0.254,0.286,0.283,1.0,0.094,0.013,-0.137,0.289,0.272,0.292,-0.167,-0.28,-0.143
57,A2_1,-0.028,0.235,0.15,0.031,0.071,0.042,0.094,1.0,0.062,0.089,-0.012,-0.066,0.153,0.082,0.041,0.041
57,A2_2,-0.095,0.093,0.103,0.383,-0.027,0.074,0.013,0.062,1.0,0.115,-0.052,0.189,0.097,-0.06,-0.061,-0.065
57,A2_3,-0.274,0.167,0.322,0.036,-0.092,0.019,-0.137,0.089,0.115,1.0,-0.005,-0.167,0.018,-0.048,-0.023,-0.115
57,B2_1,-0.073,0.238,-0.003,-0.193,0.42,0.181,0.289,-0.012,-0.052,-0.005,1.0,0.314,0.24,-0.181,-0.236,-0.242
57,B2_2,-0.253,-0.056,-0.098,0.076,0.344,0.234,0.272,-0.066,0.189,-0.167,0.314,1.0,0.196,-0.215,-0.224,-0.283
57,B2_3,-0.167,-0.253,0.139,-0.162,0.187,0.349,0.292,0.153,0.097,0.018,0.24,0.196,1.0,-0.344,-0.212,-0.203
57,y1,0.005,-0.016,-0.153,0.083,-0.235,-0.218,-0.167,0.082,-0.06,-0.048,-0.181,-0.215,-0.344,1.0,0.514,0.359
57,y2,-0.022,-0.025,-0.161,-0.02,-0.136,-0.155,-0.28,0.041,-0.061,-0.023,-0.236,-0.224,-0.212,0.514,1.0,0.479
57,y3,-0.004,0.043,0.068,0.121,-0.176,-0.259,-0.143,0.041,-0.065,-0.115,-0.242,-0.283,-0.203,0.359,0.479,1.0
58,.,1.0,0.04,0.038,-0.105,-0.235,-0.352,-0.164,-0.028,-0.095,-0.271,-0.072,-0.252,-0.167,0.004,-0.023,-0.004
58,A1_1,0.04,1.0,0.042,0.26,0.233,0.205,0.107,0.236,0.094,0.169,0.238,-0.056,-0.253,-0.016,-0.025,0.042
58,A1_2,0.038,0.042,1.0,0.1,0.009,0.042,-0.07,0.151,0.104,0.324,-0.003,-0.097,0.139,-0.154,-0.161,0.067
58,A1_3,-0.105,0.26,0.1,1.0,0.114,0.242,0.255,0.033,0.384,0.038,-0.192,0.076,-0.162,0.082,-0.021,0.12
58,B1_1,-0.235,0.233,0.009,0.114,1.0,0.351,0.286,0.071,-0.027,-0.093,0.421,0.345,0.188,-0.235,-0.137,-0.176
58,B1_2,-0.352,0.205,0.042,0.242,0.351,1.0,0.283,0.042,0.074,0.017,0.182,0.234,0.35,-0.218,-0.155,-0.259
58,B1_3,-0.164,0.107,-0.07,0.255,0.286,0.283,1.0,0.094,0.013,-0.139,0.29,0.273,0.293,-0.167,-0.28,-0.143
58,A2_1,-0.028,0.236,0.151,0.033,0.071,0.042,0.094,1.0,0.063,0.09,-0.012,-0.065,0.154,0.081,0.041,0.041
58,A2_2,-0.095,0.094,0.104,0.384,-0.027,0.074,0.013,0.063,1.0,0.117,-0.052,0.189,0.097,-0.06,-0.061,-0.065
58,A2_3,-0.271,0.169,0.324,0.038,-0.093,0.017,-0.139,0.09,0.117,1.0,-0.006,-0.169,0.016,-0.049,-0.024,-0.115
58,B2_1,-0.072,0.238,-0.003,-0.192,0.421,0.182,0.29,-0.012,-0.052,-0.006,1.0,0.315,0.241,-0.181,-0.237,-0.242
58,B2_2,-0.252,-0.056,-0.097,0.076,0.345,0.234,0.273,-0.065,0.189,-0.169,0.315,1.0,0.197,-0.215,-0.224,-0.283
58,B2_3,-0.167,-0.253,0.139,-0.162,0.188,0.35,0.293,0.154,0.097,0.016,0.241,0.197,1.0,-0.344,-0.212,-0.204
58,y1,0.004,-0.016,-0.154,0.082,-0.235,-0.218,-0.167,0.081,-0.06,-0.049,-0.181,-0.215,-0.344,1.0,0.516,0.362
58,y2,-0.023,-0.025,-0.161,-0.021,-0.137,-0.155,-0.28,0.041,-0.061,-0.024,-0.237,-0.224,-0.212,0.516,1.0,0.481
58,y3,-0.004,0.042,0.067,0.12,-0.176,-0.259,-0.143,0.041,-0.065,-0.115,-0.242,-0.283,-0.204,0.362,0.481,1.0
59,.,1.0,0.04,0.04,-0.105,-0.234,-0.352,-0.164,-0.028,-0.094,-0.271,-0.072,-0.252,-0.166,0.003,-0.024,-0.005
59,A1_1,0.04,1.0,0.044,0.261,0.233,0.206,0.107,0.237,0.095,0.17,0.238,-0.055,-0.252,-0.017,-0.026,0.041
59,A1_2,0.04,0.044,1.0,0.102,0.007,0.04,-0.071,0.153,0.106,0.326,-0.004,-0.099,0.137,-0.153,-0.161,0.067
59,A1_3,-0.105,0.261,0.102,1.0,0.114,0.242,0.255,0.034,0.385,0.039,-0.192,0.076,-0.161,0.081,-0.021,0.119
59,B1_1,-0.234,0.233,0.007,0.114,1.0,0.351,0.287,0.072,-0.027,-0.093,0.421,0.345,0.188,-0.235,-0.137,-0.176
59,B1_2,-0.352,0.206,0.04,0.242,0.351,1.0,0.284,0.042,0.073,0.017,0.182,0.235,0.35,-0.218,-0.155,-0.259
59,B1_3,-0.164,0.107,-0.071,0.255,0.287,0.284,1.0,0.095,0.013,-0.138,0.29,0.274,0.294,-0.167,-0.28,-0.143
59,A2_1,-0.028,0.237,0.153,0.034,0.072,0.042,0.095,1.0,0.064,0.091,-0.012,-0.065,0.154,0.08,0.04,0.04
59,A2_2,-0.094,0.095,0.106,0.385,-0.027,0.073,0.013,0.064,1.0,0.118,-0.051,0.189,0.097,-0.06,-0.062,-0.066
