,,.,A1_1,A1_2,A1_3,B1_1,B1_2,B1_3,A2_1,A2_2,A2_3,B2_1,B2_2,B2_3,y1,y2,y3
0,.,1.0,0.621,-0.633,0.427,0.417,-0.117,-0.643,-0.107,-0.599,0.404,-0.717,0.016,0.051,0.229,-0.052,0.392
0,A1_1,0.621,1.0,-0.38,0.009,0.221,-0.042,-0.309,-0.287,-0.668,0.297,-0.632,0.027,-0.363,-0.011,0.473,0.114
0,A1_2,-0.633,-0.38,1.0,-0.182,-0.367,0.207,0.198,-0.121,0.406,0.082,0.291,0.199,-0.224,-0.426,0.041,-0.351
0,A1_3,0.427,0.009,-0.182,1.0,0.013,-0.501,-0.626,-0.204,0.186,0.192,-0.252,-0.14,0.026,0.004,-0.617,0.47
0,B1_1,0.417,0.221,-0.367,0.013,1.0,-0.3,-0.09,0.069,-0.009,0.462,-0.442,0.166,0.171,0.137,0.039,0.009
0,B1_2,-0.117,-0.042,0.207,-0.501,-0.3,1.0,0.315,0.03,-0.197,-0.039,-0.027,-0.186,-0.401,0.065,0.626,-0.452
0,B1_3,-0.643,-0.309,0.198,-0.626,-0.09,0.315,1.0,-0.125,0.482,-0.645,0.73,0.196,-0.366,0.138,0.558,-0.453
0,A2_1,-0.107,-0.287,-0.121,-0.204,0.069,0.03,-0.125,1.0,0.056,0.4,0.098,0.3,0.767,-0.577,-0.346,0.535
0,A2_2,-0.599,-0.668,0.406,0.186,-0.009,-0.197,0.482,0.056,1.0,-0.22,0.67,0.299,-0.058,-0.262,-0.222,0.035
0,A2_3,0.404,0.297,0.082,0.192,0.462,-0.039,-0.645,0.4,-0.22,1.0,-0.711,0.164,0.266,-0.541,-0.161,0.304
0,B2_1,-0.717,-0.632,0.291,-0.252,-0.442,-0.027,0.73,0.098,0.67,-0.711,1.0,0.344,0.036,-0.095,-0.054,0.013
0,B2_2,0.016,0.027,0.199,-0.14,0.166,-0.186,0.196,0.3,0.299,0.164,0.344,1.0,0.179,-0.568,0.006,0.497
0,B2_3,0.051,-0.363,-0.224,0.026,0.171,-0.401,-0.366,0.767,-0.058,0.266,0.036,0.179,1.0,-0.218,-0.729,0.519
0,y1,0.229,-0.011,-0.426,0.004,0.137,0.065,0.138,-0.577,-0.262,-0.541,-0.095,-0.568,-0.218,1.0,0.131,-0.53
0,y2,-0.052,0.473,0.041,-0.617,0.039,0.626,0.558,-0.346,-0.222,-0.161,-0.054,0.006,-0.729,0.131,1.0,-0.52
0,y3,0.392,0.114,-0.351,0.47,0.009,-0.452,-0.453,0.535,0.035,0.304,0.013,0.497,0.519,-0.53,-0.52,1.0
500,.,1.0,0.43,-0.14,0.075,0.068,-0.092,-0.475,0.02,-0.317,0.251,-0.689,-0.28,-0.165,-0.148,-0.109,-0.068
500,A1_1,0.43,1.0,-0.127,0.231,0.18,-0.34,-0.506,0.156,-0.22,0.55,-0.642,0.115,-0.174,-0.03,0.242,0.339
500,A1_2,-0.14,-0.127,1.0,0.381,-0.232,-0.057,-0.251,0.459,0.636,0.649,-0.094,0.306,0.059,-0.575,-0.585,-0.188
500,A1_3,0.075,0.231,0.381,1.0,-0.238,-0.658,-0.685,0.302,0.644,0.553,-0.473,-0.122,-0.207,0.036,-0.426,0.542
500,B1_1,0.068,0.18,-0.232,-0.238,1.0,-0.153,0.385,-0.192,0.028,0.049,0.06,0.256,0.043,-0.015,0.149,-0.287
500,B1_2,-0.092,-0.34,-0.057,-0.658,-0.153,1.0,0.567,-0.164,-0.29,-0.348,0.334,-0.023,-0.259,0.038,0.401,-0.597
500,B1_3,-0.475,-0.506,-0.251,-0.685,0.385,0.567,1.0,-0.277,-0.039,-0.623,0.865,0.388,0.131,0.108,0.294,-0.506
500,A2_1,0.02,0.156,0.459,0.302,-0.192,-0.164,-0.277,1.0,0.546,0.645,-0.138,0.173,0.605,-0.741,-0.696,0.015
500,A2_2,-0.317,-0.22,0.636,0.644,0.028,-0.29,-0.039,0.546,1.0,0.473,0.126,0.287,0.148,-0.328,-0.643,0.025
500,A2_3,0.251,0.55,0.649,0.553,0.049,-0.348,-0.623,0.645,0.473,1.0,-0.647,0.113,0.021,-0.555,-0.446,0.064
500,B2_1,-0.689,-0.642,-0.094,-0.473,0.06,0.334,0.865,-0.138,0.126,-0.647,1.0,0.465,0.348,0.073,0.064,-0.236
500,B2_2,-0.28,0.115,0.306,-0.122,0.256,-0.023,0.388,0.173,0.287,0.113,0.465,1.0,0.27,-0.138,0.007,0.077
500,B2_3,-0.165,-0.174,0.059,-0.207,0.043,-0.259,0.131,0.605,0.148,0.021,0.348,0.27,1.0,-0.602,-0.577,-0.023
500,y1,-0.148,-0.03,-0.575,0.036,-0.015,0.038,0.108,-0.741,-0.328,-0.555,0.073,-0.138,-0.602,1.0,0.754,0.507
500,y2,-0.109,0.242,-0.585,-0.426,0.149,0.401,0.294,-0.696,-0.643,-0.446,0.064,0.007,-0.577,0.754,1.0,0.147
500,y3,-0.068,0.339,-0.188,0.542,-0.287,-0.597,-0.506,0.015,0.025,0.064,-0.236,0.077,-0.023,0.507,0.147,1.0
1000,.,1.0,0.419,-0.074,0.105,0.044,-0.156,-0.522,0.063,-0.265,0.271,-0.715,-0.34,-0.172,-0.279,-0.229,-0.052
1000,A1_1,0.419,1.0,-0.022,0.328,0.183,-0.417,-0.544,0.261,-0.072,0.621,-0.656,0.104,-0.133,-0.061,0.139,0.381
1000,A1_2,-0.074,-0.022,1.0,0.498,-0.243,-0.123,-0.307,0.508,0.692,0.697,-0.161,0.269,-0.014,-0.553,-0.678,-0.201
1000,A1_3,0.105,0.328,0.498,1.0,-0.242,-0.616,-0.689,0.36,0.702,0.634,-0.524,-0.145,-0.343,-0.031,-0.215,0.257
1000,B1_1,0.044,0.183,-0.243,-0.242,1.0,-0.125,0.407,-0.204,-0.008,0.034,0.092,0.272,0.084,-0.005,0.108,-0.211
1000,B1_2,-0.156,-0.417,-0.123,-0.616,-0.125,1.0,0.589,-0.209,-0.329,-0.393,0.361,-0.007,-0.189,0.156,0.188,-0.389
1000,B1_3,-0.522,-0.544,-0.307,-0.689,0.407,0.589,1.0,-0.312,-0.114,-0.621,0.871,0.407,0.227,0.177,0.235,-0.343
1000,A2_1,0.063,0.261,0.508,0.36,-0.204,-0.209,-0.312,1.0,0.594,0.677,-0.181,0.136,0.53,-0.655,-0.69,-0.209
1000,A2_2,-0.265,-0.072,0.692,0.702,-0.008,-0.329,-0.114,0.594,1.0,0.553,0.042,0.244,0.085,-0.316,-0.521,-0.173
1000,A2_3,0.271,0.621,0.697,0.634,0.034,-0.393,-0.621,0.677,0.553,1.0,-0.642,0.108,-0.041,-0.501,-0.509,-0.025
1000,B2_1,-0.715,-0.656,-0.161,-0.524,0.092,0.361,0.871,-0.181,0.042,-0.642,1.0,0.482,0.421,0.122,0.124,-0.162
1000,B2_2,-0.34,0.104,0.269,-0.145,0.272,-0.007,0.407,0.136,0.244,0.108,0.482,1.0,0.314,-0.039,0.036,0.276
1000,B2_3,-0.172,-0.133,-0.014,-0.343,0.084,-0.189,0.227,0.53,0.085,-0.041,0.421,0.314,1.0,-0.547,-0.474,-0.19
1000,y1,-0.279,-0.061,-0.553,-0.031,-0.005,0.156,0.177,-0.655,-0.316,-0.501,0.122,-0.039,-0.547,1.0,0.93,0.621
1000,y2,-0.229,0.139,-0.678,-0.215,0.108,0.188,0.235,-0.69,-0.521,-0.509,0.124,0.036,-0.474,0.93,1.0,0.6
1000,y3,-0.052,0.381,-0.201,0.257,-0.211,-0.389,-0.343,-0.209,-0.173,-0.025,-0.162,0.276,-0.19,0.621,0.6,1.0
1500,.,1.0,0.379,-0.036,0.14,-0.037,-0.255,-0.579,0.08,-0.224,0.27,-0.725,-0.405,-0.251,-0.327,-0.276,-0.096
1500,A1_1,0.379,1.0,0.076,0.377,0.148,-0.448,-0.552,0.343,0.034,0.69,-0.667,0.096,-0.206,-0.108,0.039,0.279
1500,A1_2,-0.036,0.076,1.0,0.552,-0.244,-0.154,-0.31,0.527,0.716,0.709,-0.183,0.259,-0.089,-0.499,-0.673,-0.235
1500,A1_3,0.14,0.377,0.552,1.0,-0.26,-0.624,-0.669,0.395,0.742,0.664,-0.53,-0.136,-0.456,-0.016,-0.149,0.146
1500,B1_1,-0.037,0.148,-0.244,-0.26,1.0,-0.09,0.448,-0.22,-0.032,0.014,0.148,0.295,0.144,-0.069,0.044,-0.203
1500,B1_2,-0.255,-0.448,-0.154,-0.624,-0.09,1.0,0.62,-0.233,-0.336,-0.43,0.404,0.015,-0.075,0.158,0.084,-0.259
1500,B1_3,-0.579,-0.552,-0.31,-0.669,0.448,0.62,1.0,-0.316,-0.132,-0.6,0.875,0.432,0.36,0.143,0.183,-0.239
1500,A2_1,0.08,0.343,0.527,0.395,-0.22,-0.233,-0.316,1.0,0.616,0.694,-0.222,0.118,0.389,-0.606,-0.664,-0.306
1500,A2_2,-0.224,0.034,0.716,0.742,-0.032,-0.336,-0.132,0.616,1.0,0.593,-0.013,0.22,-0.014,-0.281,-0.455,-0.234
1500,A2_3,0.27,0.69,0.709,0.664,0.014,-0.43,-0.6,0.694,0.593,1.0,-0.642,0.112,-0.163,-0.459,-0.526,-0.098
1500,B2_1,-0.725,-0.667,-0.183,-0.53,0.148,0.404,0.875,-0.222,-0.013,-0.642,1.0,0.495,0.536,0.119,0.156,-0.099
1500,B2_2,-0.405,0.096,0.259,-0.136,0.295,0.015,0.432,0.118,0.22,0.112,0.495,1.0,0.363,0.001,0.047,0.305
1500,B2_3,-0.251,-0.206,-0.089,-0.456,0.144,-0.075,0.36,0.389,-0.014,-0.163,0.536,0.363,1.0,-0.477,-0.353,-0.254
1500,y1,-0.327,-0.108,-0.499,-0.016,-0.069,0.158,0.143,-0.606,-0.281,-0.459,0.119,0.001,-0.477,1.0,0.933,0.735
1500,y2,-0.276,0.039,-0.673,-0.149,0.044,0.084,0.183,-0.664,-0.455,-0.526,0.156,0.047,-0.353,0.933,1.0,0.742
1500,y3,-0.096,0.279,-0.235,0.146,-0.203,-0.259,-0.239,-0.306,-0.234,-0.098,-0.099,0.305,-0.254,0.735,0.742,1.0
2000,.,1.0,0.374,-0.026,0.11,-0.034,-0.277,-0.548,0.111,-0.174,0.25,-0.681,-0.433,-0.238,-0.427,-0.38,-0.206
2000,A1_1,0.374,1.0,0.191,0.465,0.091,-0.5,-0.599,0.429,0.179,0.755,-0.703,0.051,-0.261,-0.173,-0.058,0.169
2000,A1_2,-0.026,0.191,1.0,0.637,-0.249,-0.186,-0.345,0.579,0.762,0.741,-0.229,0.214,-0.144,-0.461,-0.634,-0.322
2000,A1_3,0.11,0.465,0.637,1.0,-0.276,-0.651,-0.657,0.483,0.806,0.709,-0.538,-0.112,-0.478,-0.061,-0.197,0.04
2000,B1_1,-0.034,0.091,-0.249,-0.276,1.0,-0.013,0.492,-0.241,-0.065,-0.024,0.229,0.341,0.231,-0.135,0.018,-0.157
2000,B1_2,-0.277,-0.5,-0.186,-0.651,-0.013,1.0,0.657,-0.282,-0.371,-0.444,0.455,0.056,0.017,0.141,0.116,-0.219
2000,B1_3,-0.548,-0.599,-0.345,-0.657,0.492,0.657,1.0,-0.356,-0.197,-0.605,0.89,0.457,0.449,0.145,0.213,-0.151
2000,A2_1,0.111,0.429,0.579,0.483,-0.241,-0.282,-0.356,1.0,0.664,0.721,-0.286,0.08,0.277,-0.559,-0.619,-0.391
2000,A2_2,-0.174,0.179,0.762,0.806,-0.065,-0.371,-0.197,0.664,1.0,0.647,-0.099,0.186,-0.077,-0.273,-0.428,-0.288
2000,A2_3,0.25,0.755,0.741,0.709,-0.024,-0.444,-0.605,0.721,0.647,1.0,-0.65,0.084,-0.233,-0.446,-0.502,-0.188
2000,B2_1,-0.681,-0.703,-0.229,-0.538,0.229,0.455,0.89,-0.286,-0.099,-0.65,1.0,0.517,0.595,0.149,0.187,-0.048
2000,B2_2,-0.433,0.051,0.214,-0.112,0.341,0.056,0.457,0.08,0.186,0.084,0.517,1.0,0.405,0.066,0.115,0.29
2000,B2_3,-0.238,-0.261,-0.144,-0.478,0.231,0.017,0.449,0.277,-0.077,-0.233,0.595,0.405,1.0,-0.407,-0.296,-0.266
2000,y1,-0.427,-0.173,-0.461,-0.061,-0.135,0.141,0.145,-0.559,-0.273,-0.446,0.149,0.066,-0.407,1.0,0.95,0.821
2000,y2,-0.38,-0.058,-0.634,-0.197,0.018,0.116,0.213,-0.619,-0.428,-0.502,0.187,0.115,-0.296,0.95,1.0,0.83
2000,y3,-0.206,0.169,-0.322,0.04,-0.157,-0.219,-0.151,-0.391,-0.288,-0.188,-0.048,0.29,-0.266,0.821,0.83,1.0
2500,.,1.0,0.353,-0.028,0.088,-0.064,-0.262,-0.514,0.13,-0.159,0.236,-0.632,-0.455,-0.224,-0.463,-0.399,-0.31
2500,A1_1,0.353,1.0,0.242,0.511,0.05,-0.512,-0.617,0.466,0.239,0.78,-0.714,0.011,-0.299,-0.188,-0.059,0.112
2500,A1_2,-0.028,0.242,1.0,0.693,-0.228,-0.207,-0.352,0.617,0.787,0.757,-0.244,0.185,-0.167,-0.462,-0.599,-0.375
2500,A1_3,0.088,0.511,0.693,1.0,-0.299,-0.654,-0.653,0.555,0.839,0.748,-0.541,-0.107,-0.487,-0.111,-0.179,-0.048
2500,B1_1,-0.064,0.05,-0.228,-0.299,1.0,0.069,0.547,-0.223,-0.065,-0.053,0.308,0.406,0.315,-0.18,-0.059,-0.118
2500,B1_2,-0.262,-0.512,-0.207,-0.654,0.069,1.0,0.679,-0.314,-0.384,-0.448,0.471,0.095,0.088,0.132,0.056,-0.161
2500,B1_3,-0.514,-0.617,-0.352,-0.653,0.547,0.679,1.0,-0.381,-0.222,-0.614,0.895,0.491,0.508,0.129,0.137,-0.079
2500,A2_1,0.13,0.466,0.617,0.555,-0.223,-0.314,-0.381,1.0,0.693,0.74,-0.319,0.048,0.212,-0.561,-0.6,-0.462
2500,A2_2,-0.159,0.239,0.787,0.839,-0.065,-0.384,-0.222,0.693,1.0,0.665,-0.132,0.157,-0.111,-0.3,-0.406,-0.335
2500,A2_3,0.236,0.78,0.757,0.748,-0.053,-0.448,-0.614,0.74,0.665,1.0,-0.66,0.049,-0.277,-0.436,-0.457,-0.226
2500,B2_1,-0.632,-0.714,-0.244,-0.541,0.308,0.471,0.895,-0.319,-0.132,-0.66,1.0,0.548,0.64,0.129,0.125,-0.013
2500,B2_2,-0.455,0.011,0.185,-0.107,0.406,0.095,0.491,0.048,0.157,0.049,0.548,1.0,0.459,0.065,0.095,0.281
2500,B2_3,-0.224,-0.299,-0.167,-0.487,0.315,0.088,0.508,0.212,-0.111,-0.277,0.64,0.459,1.0,-0.379,-0.307,-0.263
2500,y1,-0.463,-0.188,-0.462,-0.111,-0.18,0.132,0.129,-0.561,-0.3,-0.436,0.129,0.065,-0.379,1.0,0.962,0.865
2500,y2,-0.399,-0.059,-0.599,-0.179,-0.059,0.056,0.137,-0.6,-0.406,-0.457,0.125,0.095,-0.307,0.962,1.0,0.898
2500,y3,-0.31,0.112,-0.375,-0.048,-0.118,-0.161,-0.079,-0.462,-0.335,-0.226,-0.013,0.281,-0.263,0.865,0.898,1.0
3000,.,1.0,0.346,-0.022,0.113,-0.058,-0.275,-0.513,0.14,-0.123,0.239,-0.631,-0.462,-0.246,-0.475,-0.464,-0.298
3000,A1_1,0.346,1.0,0.273,0.542,0.045,-0.523,-0.627,0.498,0.281,0.802,-0.722,-0.001,-0.308,-0.173,-0.081,0.113
3000,A1_2,-0.022,0.273,1.0,0.729,-0.243,-0.221,-0.366,0.636,0.806,0.757,-0.254,0.173,-0.181,-0.401,-0.552,-0.402
3000,A1_3,0.113,0.542,0.729,1.0,-0.284,-0.646,-0.646,0.583,0.856,0.772,-0.538,-0.086,-0.483,-0.081,-0.205,-0.049
3000,B1_1,-0.058,0.045,-0.243,-0.284,1.0,0.073,0.548,-0.22,-0.075,-0.06,0.309,0.407,0.315,-0.165,-0.046,-0.094
3000,B1_2,-0.275,-0.523,-0.221,-0.646,0.073,1.0,0.681,-0.321,-0.389,-0.45,0.474,0.097,0.1,0.089,0.111,-0.188
3000,B1_3,-0.513,-0.627,-0.366,-0.646,0.548,0.681,1.0,-0.391,-0.239,-0.621,0.895,0.492,0.519,0.113,0.179,-0.063
3000,A2_1,0.14,0.498,0.636,0.583,-0.22,-0.321,-0.391,1.0,0.708,0.748,-0.332,0.045,0.186,-0.529,-0.568,-0.419
3000,A2_2,-0.123,0.281,0.806,0.856,-0.075,-0.389,-0.239,0.708,1.0,0.678,-0.149,0.154,-0.124,-0.249,-0.38,-0.305
3000,A2_3,0.239,0.802,0.757,0.772,-0.06,-0.45,-0.621,0.748,0.678,1.0,-0.67,0.036,-0.304,-0.374,-0.417,-0.22
3000,B2_1,-0.631,-0.722,-0.254,-0.538,0.309,0.474,0.895,-0.332,-0.149,-0.67,1.0,0.55,0.65,0.12,0.154,-0.004
3000,B2_2,-0.462,-0.001,0.173,-0.086,0.407,0.097,0.492,0.045,0.154,0.036,0.55,1.0,0.462,0.118,0.154,0.292
3000,B2_3,-0.246,-0.308,-0.181,-0.483,0.315,0.1,0.519,0.186,-0.124,-0.304,0.65,0.462,1.0,-0.375,-0.281,-0.228
3000,y1,-0.475,-0.173,-0.401,-0.081,-0.165,0.089,0.113,-0.529,-0.249,-0.374,0.12,0.118,-0.375,1.0,0.963,0.881
3000,y2,-0.464,-0.081,-0.552,-0.205,-0.046,0.111,0.179,-0.568,-0.38,-0.417,0.154,0.154,-0.281,0.963,1.0,0.902
3000,y3,-0.298,0.113,-0.402,-0.049,-0.094,-0.188,-0.063,-0.419,-0.305,-0.22,-0.004,0.292,-0.228,0.881,0.902,1.0
3500,.,1.0,0.325,-0.007,0.109,-0.065,-0.301,-0.488,0.171,-0.091,0.221,-0.575,-0.44,-0.187,-0.466,-0.458,-0.362
3500,A1_1,0.325,1.0,0.323,0.581,0.001,-0.541,-0.651,0.531,0.333,0.829,-0.735,-0.019,-0.336,-0.159,-0.1,0.065
3500,A1_2,-0.007,0.323,1.0,0.756,-0.258,-0.263,-0.391,0.664,0.818,0.764,-0.275,0.133,-0.217,-0.457,-0.472,-0.458
3500,A1_3,0.109,0.581,0.756,1.0,-0.311,-0.67,-0.657,0.616,0.869,0.786,-0.547,-0.107,-0.505,-0.128,-0.132,-0.118
3500,B1_1,-0.065,0.001,-0.258,-0.311,1.0,0.136,0.571,-0.245,-0.108,-0.09,0.353,0.444,0.376,-0.165,-0.14,-0.108
3500,B1_2,-0.301,-0.541,-0.263,-0.67,0.136,1.0,0.706,-0.352,-0.427,-0.473,0.501,0.126,0.153,0.065,0.036,-0.136
3500,B1_3,-0.488,-0.651,-0.391,-0.657,0.571,0.706,1.0,-0.42,-0.272,-0.637,0.903,0.507,0.558,0.092,0.094,-0.018
3500,A2_1,0.171,0.531,0.664,0.616,-0.245,-0.352,-0.42,1.0,0.73,0.763,-0.365,0.009,0.115,-0.549,-0.524,-0.449
3500,A2_2,-0.091,0.333,0.818,0.869,-0.108,-0.427,-0.272,0.73,1.0,0.688,-0.175,0.123,-0.155,-0.31,-0.318,-0.35
3500,A2_3,0.221,0.829,0.764,0.786,-0.09,-0.473,-0.637,0.763,0.688,1.0,-0.677,0.005,-0.334,-0.393,-0.375,-0.278
3500,B2_1,-0.575,-0.735,-0.275,-0.547,0.353,0.501,0.903,-0.365,-0.175,-0.677,1.0,0.571,0.671,0.097,0.107,0.043
3500,B2_2,-0.44,-0.019,0.133,-0.107,0.444,0.126,0.507,0.009,0.123,0.005,0.571,1.0,0.497,0.097,0.165,0.273
3500,B2_3,-0.187,-0.336,-0.217,-0.505,0.376,0.153,0.558,0.115,-0.155,-0.334,0.671,0.497,1.0,-0.35,-0.301,-0.182
3500,y1,-0.466,-0.159,-0.457,-0.128,-0.165,0.065,0.092,-0.549,-0.31,-0.393,0.097,0.097,-0.35,1.0,0.993,0.914
3500,y2,-0.458,-0.1,-0.472,-0.132,-0.14,0.036,0.094,-0.524,-0.318,-0.375,0.107,0.165,-0.301,0.993,1.0,0.95
3500,y3,-0.362,0.065,-0.458,-0.118,-0.108,-0.136,-0.018,-0.449,-0.35,-0.278,0.043,0.273,-0.182,0.914,0.95,1.0
4000,.,1.0,0.332,0.014,0.119,-0.074,-0.315,-0.495,0.188,-0.063,0.234,-0.579,-0.441,-0.202,-0.498,-0.49,-0.37
4000,A1_1,0.332,1.0,0.351,0.609,-0.024,-0.556,-0.674,0.54,0.356,0.839,-0.753,-0.046,-0.364,-0.165,-0.057,0.078
4000,A1_2,0.014,0.351,1.0,0.771,-0.273,-0.272,-0.402,0.682,0.823,0.771,-0.287,0.111,-0.235,-0.453,-0.437,-0.434
4000,A1_3,0.119,0.609,0.771,1.0,-0.311,-0.667,-0.654,0.638,0.879,0.8,-0.548,-0.113,-0.509,-0.13,-0.102,-0.106
4000,B1_1,-0.074,-0.024,-0.273,-0.311,1.0,0.141,0.574,-0.254,-0.125,-0.108,0.359,0.451,0.386,-0.153,-0.128,-0.092
4000,B1_2,-0.315,-0.556,-0.272,-0.667,0.141,1.0,0.709,-0.362,-0.437,-0.485,0.506,0.133,0.165,0.062,0.026,-0.138
4000,B1_3,-0.495,-0.674,-0.402,-0.654,0.574,0.709,1.0,-0.432,-0.287,-0.649,0.904,0.513,0.566,0.108,0.083,-0.025
4000,A2_1,0.188,0.54,0.682,0.638,-0.254,-0.362,-0.432,1.0,0.743,0.772,-0.377,-0.005,0.089,-0.539,-0.507,-0.439
4000,A2_2,-0.063,0.356,0.823,0.879,-0.125,-0.437,-0.287,0.743,1.0,0.693,-0.187,0.103,-0.173,-0.294,-0.286,-0.331
4000,A2_3,0.234,0.839,0.771,0.8,-0.108,-0.485,-0.649,0.772,0.693,1.0,-0.684,-0.01,-0.346,-0.389,-0.326,-0.243
4000,B2_1,-0.579,-0.753,-0.287,-0.548,0.359,0.506,0.904,-0.377,-0.187,-0.684,1.0,0.574,0.676,0.116,0.093,0.027
4000,B2_2,-0.441,-0.046,0.111,-0.113,0.451,0.133,0.513,-0.005,0.103,-0.01,0.574,1.0,0.501,0.113,0.183,0.292
4000,B2_3,-0.202,-0.364,-0.235,-0.509,0.386,0.165,0.566,0.089,-0.173,-0.346,0.676,0.501,1.0,-0.323,-0.313,-0.19
4000,y1,-0.498,-0.165,-0.453,-0.13,-0.153,0.062,0.108,-0.539,-0.294,-0.389,0.116,0.113,-0.323,1.0,0.988,0.91
4000,y2,-0.49,-0.057,-0.437,-0.102,-0.128,0.026,0.083,-0.507,-0.286,-0.326,0.093,0.183,-0.313,0.988,1.0,0.949
4000,y3,-0.37,0.078,-0.434,-0.106,-0.092,-0.138,-0.025,-0.439,-0.331,-0.243,0.027,0.292,-0.19,0.91,0.949,1.0
4500,.,1.0,0.327,0.002,0.107,-0.027,-0.336,-0.465,0.202,-0.043,0.234,-0.552,-0.419,-0.161,-0.483,-0.5,-0.42
4500,A1_1,0.327,1.0,0.381,0.629,-0.033,-0.546,-0.675,0.555,0.39,0.853,-0.756,-0.047,-0.37,-0.148,-0.068,0.121
4500,A1_2,0.002,0.381,1.0,0.794,-0.28,-0.27,-0.406,0.69,0.833,0.776,-0.293,0.107,-0.245,-0.467,-0.437,-0.391
4500,A1_3,0.107,0.629,0.794,1.0,-0.304,-0.65,-0.645,0.661,0.886,0.82,-0.543,-0.098,-0.497,-0.169,-0.133,-0.08
4500,B1_1,-0.027,-0.033,-0.28,-0.304,1.0,0.146,0.576,-0.256,-0.112,-0.114,0.364,0.455,0.392,-0.173,-0.119,-0.108
4500,B1_2,-0.336,-0.546,-0.27,-0.65,0.146,1.0,0.712,-0.357,-0.421,-0.482,0.51,0.141,0.174,0.049,0.018,-0.126
4500,B1_3,-0.465,-0.675,-0.406,-0.645,0.576,0.712,1.0,-0.431,-0.281,-0.651,0.904,0.517,0.571,0.063,0.071,-0.051
4500,A2_1,0.202,0.555,0.69,0.661,-0.256,-0.357,-0.431,1.0,0.757,0.771,-0.378,-0.008,0.081,-0.557,-0.539,-0.416
4500,A2_2,-0.043,0.39,0.833,0.886,-0.112,-0.421,-0.281,0.757,1.0,0.709,-0.19,0.118,-0.168,-0.356,-0.324,-0.308
4500,A2_3,0.234,0.853,0.776,0.82,-0.114,-0.482,-0.651,0.771,0.709,1.0,-0.688,-0.015,-0.359,-0.379,-0.327,-0.185
4500,B2_1,-0.552,-0.756,-0.293,-0.543,0.364,0.51,0.904,-0.378,-0.19,-0.688,1.0,0.576,0.679,0.07,0.084,-0.014
4500,B2_2,-0.419,-0.047,0.107,-0.098,0.455,0.141,0.517,-0.008,0.118,-0.015,0.576,1.0,0.504,0.078,0.176,0.268
4500,B2_3,-0.161,-0.37,-0.245,-0.497,0.392,0.174,0.571,0.081,-0.168,-0.359,0.679,0.504,1.0,-0.342,-0.321,-0.244
4500,y1,-0.483,-0.148,-0.467,-0.169,-0.173,0.049,0.063,-0.557,-0.356,-0.379,0.07,0.078,-0.342,1.0,0.988,0.925
4500,y2,-0.5,-0.068,-0.437,-0.133,-0.119,0.018,0.071,-0.539,-0.324,-0.327,0.084,0.176,-0.321,0.988,1.0,0.961
4500,y3,-0.42,0.121,-0.391,-0.08,-0.108,-0.126,-0.051,-0.416,-0.308,-0.185,-0.014,0.268,-0.244,0.925,0.961,1.0
5000,.,1.0,0.318,-0.025,0.099,0.019,-0.36,-0.436,0.205,-0.02,0.215,-0.524,-0.398,-0.116,-0.495,-0.484,-0.395
5000,A1_1,0.318,1.0,0.442,0.666,-0.038,-0.516,-0.66,0.585,0.443,0.878,-0.747,-0.021,-0.377,-0.178,-0.107,0.062
5000,A1_2,-0.025,0.442,1.0,0.82,-0.283,-0.253,-0.402,0.706,0.846,0.787,-0.301,0.104,-0.263,-0.481,-0.446,-0.409
5000,A1_3,0.099,0.666,0.82,1.0,-0.288,-0.62,-0.627,0.685,0.897,0.842,-0.538,-0.069,-0.49,-0.228,-0.183,-0.133
5000,B1_1,0.019,-0.038,-0.283,-0.288,1.0,0.16,0.582,-0.259,-0.11,-0.123,0.373,0.46,0.398,-0.166,-0.172,-0.173
5000,B1_2,-0.36,-0.516,-0.253,-0.62,0.16,1.0,0.721,-0.337,-0.402,-0.454,0.52,0.159,0.186,0.043,-0.001,-0.117
5000,B1_3,-0.436,-0.66,-0.402,-0.627,0.582,0.721,1.0,-0.427,-0.281,-0.636,0.905,0.525,0.574,0.053,0.034,-0.088
5000,A2_1,0.205,0.585,0.706,0.685,-0.259,-0.337,-0.427,1.0,0.771,0.781,-0.381,-0.006,0.06,-0.597,-0.535,-0.454
5000,A2_2,-0.02,0.443,0.846,0.897,-0.11,-0.402,-0.281,0.771,1.0,0.729,-0.199,0.132,-0.177,-0.416,-0.371,-0.37
5000,A2_3,0.215,0.878,0.787,0.842,-0.123,-0.454,-0.636,0.781,0.729,1.0,-0.681,-0.015,-0.372,-0.393,-0.341,-0.221
5000,B2_1,-0.524,-0.747,-0.301,-0.538,0.373,0.52,0.905,-0.381,-0.199,-0.681,1.0,0.581,0.682,0.066,0.065,-0.042
5000,B2_2,-0.398,-0.021,0.104,-0.069,0.46,0.159,0.525,-0.006,0.132,-0.015,0.581,1.0,0.507,0.07,0.154,0.2
5000,B2_3,-0.116,-0.377,-0.263,-0.49,0.398,0.186,0.574,0.06,-0.177,-0.372,0.682,0.507,1.0,-0.329,-0.295,-0.268
5000,y1,-0.495,-0.178,-0.481,-0.228,-0.166,0.043,0.053,-0.597,-0.416,-0.393,0.066,0.07,-0.329,1.0,0.991,0.942
5000,y2,-0.484,-0.107,-0.446,-0.183,-0.172,-0.001,0.034,-0.535,-0.371,-0.341,0.065,0.154,-0.295,0.991,1.0,0.972
5000,y3,-0.395,0.062,-0.409,-0.133,-0.173,-0.117,-0.088,-0.454,-0.37,-0.221,-0.042,0.2,-0.268,0.942,0.972,1.0
5500,.,1.0,0.285,-0.132,-0.023,0.04,-0.282,-0.366,0.11,-0.132,0.111,-0.46,-0.415,-0.076,-0.478,-0.49,-0.447
5500,A1_1,0.285,1.0,0.528,0.714,-0.08,-0.52,-0.662,0.644,0.524,0.901,-0.733,-0.037,-0.404,-0.105,-0.152,-0.044
5500,A1_2,-0.132,0.528,1.0,0.844,-0.299,-0.263,-0.407,0.744,0.861,0.815,-0.327,0.047,-0.406,-0.338,-0.371,-0.331
5500,A1_3,-0.023,0.714,0.844,1.0,-0.309,-0.619,-0.624,0.73,0.913,0.857,-0.542,-0.108,-0.57,-0.093,-0.114,-0.084
5500,B1_1,0.04,-0.08,-0.299,-0.309,1.0,0.191,0.589,-0.27,-0.126,-0.14,0.403,0.508,0.501,-0.19,-0.213,-0.208
5500,B1_2,-0.282,-0.52,-0.263,-0.619,0.191,1.0,0.749,-0.34,-0.413,-0.452,0.559,0.219,0.284,-0.042,-0.078,-0.118
5500,B1_3,-0.366,-0.662,-0.407,-0.624,0.589,0.749,1.0,-0.428,-0.303,-0.619,0.913,0.566,0.651,-0.019,-0.036,-0.087
5500,A2_1,0.11,0.644,0.744,0.73,-0.27,-0.34,-0.428,1.0,0.797,0.805,-0.389,-0.048,-0.097,-0.454,-0.476,-0.46
5500,A2_2,-0.132,0.524,0.861,0.913,-0.126,-0.413,-0.303,0.797,1.0,0.761,-0.233,0.074,-0.305,-0.263,-0.288,-0.293
5500,A2_3,0.111,0.901,0.815,0.857,-0.14,-0.452,-0.619,0.805,0.761,1.0,-0.663,-0.044,-0.447,-0.259,-0.301,-0.233
5500,B2_1,-0.46,-0.733,-0.327,-0.542,0.403,0.559,0.913,-0.389,-0.233,-0.663,1.0,0.61,0.726,-0.011,-0.004,-0.038
5500,B2_2,-0.415,-0.037,0.047,-0.108,0.508,0.219,0.566,-0.048,0.074,-0.044,0.61,1.0,0.555,0.14,0.087,0.172
5500,B2_3,-0.076,-0.404,-0.406,-0.57,0.501,0.284,0.651,-0.097,-0.305,-0.447,0.726,0.555,1.0,-0.299,-0.28,-0.27
5500,y1,-0.478,-0.105,-0.338,-0.093,-0.19,-0.042,-0.019,-0.454,-0.263,-0.259,-0.011,0.14,-0.299,1.0,0.994,0.983
5500,y2,-0.49,-0.152,-0.371,-0.114,-0.213,-0.078,-0.036,-0.476,-0.288,-0.301,-0.004,0.087,-0.28,0.994,1.0,0.98
5500,y3,-0.447,-0.044,-0.331,-0.084,-0.208,-0.118,-0.087,-0.46,-0.293,-0.233,-0.038,0.172,-0.27,0.983,0.98,1.0
6000,.,1.0,0.256,-0.176,-0.075,0.01,-0.247,-0.364,0.054,-0.196,0.067,-0.462,-0.451,-0.106,-0.521,-0.523,-0.435
6000,A1_1,0.256,1.0,0.566,0.744,-0.125,-0.54,-0.689,0.662,0.549,0.908,-0.752,-0.073,-0.455,-0.093,-0.139,-0.089
6000,A1_2,-0.176,0.566,1.0,0.851,-0.317,-0.267,-0.411,0.768,0.872,0.831,-0.348,0.032,-0.433,-0.295,-0.319,-0.362
6000,A1_3,-0.075,0.744,0.851,1.0,-0.331,-0.619,-0.627,0.751,0.918,0.866,-0.559,-0.12,-0.595,-0.025,-0.075,-0.093
6000,B1_1,0.01,-0.125,-0.317,-0.331,1.0,0.212,0.602,-0.286,-0.155,-0.169,0.423,0.52,0.516,-0.177,-0.183,-0.156
6000,B1_2,-0.247,-0.54,-0.267,-0.619,0.212,1.0,0.756,-0.351,-0.421,-0.446,0.581,0.238,0.331,-0.115,-0.063,-0.118
6000,B1_3,-0.364,-0.689,-0.411,-0.627,0.602,0.756,1.0,-0.441,-0.318,-0.616,0.919,0.576,0.674,-0.029,0.016,-0.026
6000,A2_1,0.054,0.662,0.768,0.751,-0.286,-0.351,-0.441,1.0,0.81,0.825,-0.406,-0.062,-0.144,-0.414,-0.42,-0.457
6000,A2_2,-0.196,0.549,0.872,0.918,-0.155,-0.421,-0.318,0.81,1.0,0.775,-0.259,0.055,-0.341,-0.186,-0.217,-0.269
6000,A2_3,0.067,0.908,0.831,0.866,-0.169,-0.446,-0.616,0.825,0.775,1.0,-0.663,-0.058,-0.472,-0.239,-0.279,-0.281
6000,B2_1,-0.462,-0.752,-0.348,-0.559,0.423,0.581,0.919,-0.406,-0.259,-0.663,1.0,0.617,0.747,0.018,0.061,0.027
6000,B2_2,-0.451,-0.073,0.032,-0.12,0.52,0.238,0.576,-0.062,0.055,-0.058,0.617,1.0,0.57,0.147,0.18,0.193
6000,B2_3,-0.106,-0.455,-0.433,-0.595,0.516,0.331,0.674,-0.144,-0.341,-0.472,0.747,0.57,1.0,-0.26,-0.214,-0.202
6000,y1,-0.521,-0.093,-0.295,-0.025,-0.177,-0.115,-0.029,-0.414,-0.186,-0.239,0.018,0.147,-0.26,1.0,0.995,0.988
6000,y2,-0.523,-0.139,-0.319,-0.075,-0.183,-0.063,0.016,-0.42,-0.217,-0.279,0.061,0.18,-0.214,0.995,1.0,0.989
6000,y3,-0.435,-0.089,-0.362,-0.093,-0.156,-0.118,-0.026,-0.457,-0.269,-0.281,0.027,0.193,-0.202,0.988,0.989,1.0
6500,.,1.0,0.245,-0.19,-0.085,0.022,-0.258,-0.364,0.045,-0.201,0.061,-0.462,-0.445,-0.09,-0.402,-0.451,-0.48
6500,A1_1,0.245,1.0,0.604,0.77,-0.165,-0.549,-0.711,0.684,0.581,0.921,-0.766,-0.094,-0.484,0.006,-0.182,-0.076
6500,A1_2,-0.19,0.604,1.0,0.858,-0.327,-0.274,-0.418,0.775,0.88,0.838,-0.356,0.025,-0.438,-0.3,-0.376,-0.333
6500,A1_3,-0.085,0.77,0.858,1.0,-0.336,-0.623,-0.628,0.76,0.922,0.871,-0.563,-0.119,-0.595,0.02,-0.106,-0.053
6500,B1_1,0.022,-0.165,-0.327,-0.336,1.0,0.22,0.607,-0.295,-0.172,-0.18,0.427,0.523,0.525,-0.193,-0.203,-0.117
6500,B1_2,-0.258,-0.549,-0.274,-0.623,0.22,1.0,0.759,-0.354,-0.428,-0.449,0.589,0.246,0.341,-0.194,-0.096,-0.132
6500,B1_3,-0.364,-0.711,-0.418,-0.628,0.607,0.759,1.0,-0.448,-0.329,-0.621,0.921,0.579,0.678,-0.109,-0.005,-0.002
6500,A2_1,0.045,0.684,0.775,0.76,-0.295,-0.354,-0.448,1.0,0.82,0.825,-0.414,-0.071,-0.16,-0.315,-0.461,-0.402
6500,A2_2,-0.201,0.581,0.88,0.922,-0.172,-0.428,-0.329,0.82,1.0,0.782,-0.271,0.05,-0.346,-0.156,-0.261,-0.209
6500,A2_3,0.061,0.921,0.838,0.871,-0.18,-0.449,-0.621,0.825,0.782,1.0,-0.668,-0.067,-0.485,-0.17,-0.335,-0.245
6500,B2_1,-0.462,-0.766,-0.356,-0.563,0.427,0.589,0.921,-0.414,-0.271,-0.668,1.0,0.621,0.75,-0.078,0.051,0.052
6500,B2_2,-0.445,-0.094,0.025,-0.119,0.523,0.246,0.579,-0.071,0.05,-0.067,0.621,1.0,0.572,0.108,0.103,0.226
6500,B2_3,-0.09,-0.484,-0.438,-0.595,0.525,0.341,0.678,-0.16,-0.346,-0.485,0.75,0.572,1.0,-0.275,-0.23,-0.176
6500,y1,-0.402,0.006,-0.3,0.02,-0.193,-0.194,-0.109,-0.315,-0.156,-0.17,-0.078,0.108,-0.275,1.0,0.977,0.985
6500,y2,-0.451,-0.182,-0.376,-0.106,-0.203,-0.096,-0.005,-0.461,-0.261,-0.335,0.051,0.103,-0.23,0.977,1.0,0.982
6500,y3,-0.48,-0.076,-0.333,-0.053,-0.117,-0.132,-0.002,-0.402,-0.209,-0.245,0.052,0.226,-0.176,0.985,0.982,1.0
7000,.,1.0,0.213,-0.187,-0.082,0.01,-0.264,-0.357,0.044,-0.186,0.048,-0.442,-0.436,-0.072,-0.407,-0.397,-0.436
7000,A1_1,0.213,1.0,0.653,0.795,-0.231,-0.547,-0.711,0.726,0.629,0.93,-0.734,-0.108,-0.495,-0.149,-0.239,-0.157
7000,A1_2,-0.187,0.653,1.0,0.881,-0.34,-0.267,-0.405,0.793,0.899,0.859,-0.319,0.021,-0.424,-0.408,-0.453,-0.412
7000,A1_3,-0.082,0.795,0.881,1.0,-0.366,-0.592,-0.595,0.797,0.939,0.881,-0.502,-0.101,-0.559,-0.169,-0.225,-0.191
7000,B1_1,0.01,-0.231,-0.34,-0.366,1.0,0.265,0.651,-0.317,-0.208,-0.221,0.492,0.555,0.577,-0.166,-0.163,-0.125
7000,B1_2,-0.264,-0.547,-0.267,-0.592,0.265,1.0,0.764,-0.36,-0.416,-0.431,0.583,0.263,0.351,-0.11,-0.075,-0.079
7000,B1_3,-0.357,-0.711,-0.405,-0.595,0.651,0.764,1.0,-0.456,-0.331,-0.597,0.917,0.585,0.681,-0.033,0.003,0.007
7000,A2_1,0.044,0.726,0.793,0.797,-0.317,-0.36,-0.456,1.0,0.839,0.85,-0.382,-0.093,-0.179,-0.455,-0.533,-0.467
7000,A2_2,-0.186,0.629,0.899,0.939,-0.208,-0.416,-0.331,0.839,1.0,0.809,-0.236,0.041,-0.337,-0.321,-0.37,-0.335
7000,A2_3,0.048,0.93,0.859,0.881,-0.221,-0.431,-0.597,0.85,0.809,1.0,-0.609,-0.067,-0.467,-0.335,-0.413,-0.34
7000,B2_1,-0.442,-0.734,-0.319,-0.502,0.492,0.583,0.917,-0.382,-0.236,-0.609,1.0,0.642,0.772,-0.028,0.001,0.013
7000,B2_2,-0.436,-0.108,0.021,-0.101,0.555,0.263,0.585,-0.093,0.041,-0.067,0.642,1.0,0.575,0.135,0.086,0.199
7000,B2_3,-0.072,-0.495,-0.424,-0.559,0.577,0.351,0.681,-0.179,-0.337,-0.467,0.772,0.575,1.0,-0.219,-0.233,-0.172
7000,y1,-0.407,-0.149,-0.408,-0.169,-0.166,-0.11,-0.033,-0.455,-0.321,-0.335,-0.028,0.135,-0.219,1.0,0.992,0.997
7000,y2,-0.397,-0.239,-0.453,-0.225,-0.163,-0.075,0.003,-0.533,-0.37,-0.413,0.001,0.086,-0.233,0.992,1.0,0.986
7000,y3,-0.436,-0.157,-0.412,-0.191,-0.125,-0.079,0.007,-0.467,-0.335,-0.34,0.013,0.199,-0.172,0.997,0.986,1.0
7500,.,1.0,0.183,-0.2,-0.123,-0.047,-0.235,-0.369,0.023,-0.222,0.019,-0.439,-0.454,-0.073,-0.458,-0.433,-0.468
7500,A1_1,0.183,1.0,0.662,0.791,-0.24,-0.55,-0.713,0.731,0.641,0.932,-0.736,-0.122,-0.52,-0.141,-0.242,-0.155
7500,A1_2,-0.2,0.662,1.0,0.889,-0.335,-0.267,-0.399,0.803,0.904,0.863,-0.316,0.015,-0.438,-0.372,-0.44,-0.38
7500,A1_3,-0.123,0.791,0.889,1.0,-0.349,-0.582,-0.568,0.816,0.951,0.88,-0.469,-0.085,-0.539,-0.162,-0.246,-0.175
7500,B1_1,-0.047,-0.24,-0.335,-0.349,1.0,0.28,0.66,-0.326,-0.207,-0.226,0.516,0.575,0.576,-0.132,-0.119,-0.118
7500,B1_2,-0.235,-0.55,-0.267,-0.582,0.28,1.0,0.767,-0.366,-0.415,-0.43,0.584,0.273,0.369,-0.143,-0.081,-0.121
7500,B1_3,-0.369,-0.713,-0.399,-0.568,0.66,0.767,1.0,-0.46,-0.331,-0.594,0.92,0.598,0.694,-0.036,0.031,-0.004
7500,A2_1,0.023,0.731,0.803,0.816,-0.326,-0.366,-0.46,1.0,0.85,0.854,-0.386,-0.102,-0.204,-0.457,-0.52,-0.456
7500,A2_2,-0.222,0.641,0.904,0.951,-0.207,-0.415,-0.331,0.85,1.0,0.815,-0.235,0.036,-0.345,-0.298,-0.364,-0.302
7500,A2_3,0.019,0.932,0.863,0.88,-0.226,-0.43,-0.594,0.854,0.815,1.0,-0.604,-0.074,-0.487,-0.31,-0.403,-0.323
7500,B2_1,-0.439,-0.736,-0.316,-0.469,0.516,0.584,0.92,-0.386,-0.235,-0.604,1.0,0.649,0.782,-0.03,0.031,0.005
7500,B2_2,-0.454,-0.122,0.015,-0.085,0.575,0.273,0.598,-0.102,0.036,-0.074,0.649,1.0,0.586,0.154,0.151,0.19
7500,B2_3,-0.073,-0.52,-0.438,-0.539,0.576,0.369,0.694,-0.204,-0.345,-0.487,0.782,0.586,1.0,-0.212,-0.165,-0.175
7500,y1,-0.458,-0.141,-0.372,-0.162,-0.132,-0.143,-0.036,-0.457,-0.298,-0.31,-0.03,0.154,-0.212,1.0,0.993,0.999
7500,y2,-0.433,-0.242,-0.44,-0.246,-0.119,-0.081,0.031,-0.52,-0.364,-0.403,0.031,0.151,-0.165,0.993,1.0,0.993
7500,y3,-0.468,-0.155,-0.38,-0.175,-0.118,-0.121,-0.004,-0.456,-0.302,-0.323,0.005,0.19,-0.175,0.999,0.993,1.0
8000,.,1.0,0.156,-0.188,-0.13,-0.047,-0.183,-0.325,0.045,-0.207,0.006,-0.383,-0.434,-0.018,-0.493,-0.5,-0.5
8000,A1_1,0.156,1.0,0.67,0.797,-0.246,-0.552,-0.717,0.734,0.649,0.933,-0.74,-0.126,-0.528,-0.112,-0.18,-0.117
8000,A1_2,-0.188,0.67,1.0,0.888,-0.332,-0.265,-0.399,0.808,0.906,0.867,-0.314,0.018,-0.432,-0.361,-0.405,-0.378
8000,A1_3,-0.13,0.797,0.888,1.0,-0.346,-0.585,-0.571,0.817,0.95,0.881,-0.47,-0.082,-0.539,-0.119,-0.194,-0.164
8000,B1_1,-0.047,-0.246,-0.332,-0.346,1.0,0.281,0.661,-0.323,-0.199,-0.225,0.516,0.575,0.576,-0.136,-0.147,-0.124
8000,B1_2,-0.183,-0.552,-0.265,-0.585,0.281,1.0,0.767,-0.365,-0.414,-0.428,0.584,0.274,0.37,-0.209,-0.116,-0.129
8000,B1_3,-0.325,-0.717,-0.399,-0.571,0.661,0.767,1.0,-0.46,-0.33,-0.593,0.92,0.599,0.695,-0.074,-0.02,-0.035
8000,A2_1,0.045,0.734,0.808,0.817,-0.323,-0.365,-0.46,1.0,0.854,0.854,-0.386,-0.098,-0.206,-0.441,-0.492,-0.453
8000,A2_2,-0.207,0.649,0.906,0.95,-0.199,-0.414,-0.33,0.854,1.0,0.819,-0.231,0.046,-0.336,-0.272,-0.339,-0.314
8000,A2_3,0.006,0.933,0.867,0.881,-0.225,-0.428,-0.593,0.854,0.819,1.0,-0.604,-0.072,-0.491,-0.285,-0.347,-0.294
8000,B2_1,-0.383,-0.74,-0.314,-0.47,0.516,0.584,0.92,-0.386,-0.231,-0.604,1.0,0.65,0.783,-0.061,-0.019,-0.039
8000,B2_2,-0.434,-0.126,0.018,-0.082,0.575,0.274,0.599,-0.098,0.046,-0.072,0.65,1.0,0.586,0.126,0.124,0.168
8000,B2_3,-0.018,-0.528,-0.432,-0.539,0.576,0.37,0.695,-0.206,-0.336,-0.491,0.783,0.586,1.0,-0.243,-0.217,-0.211
8000,y1,-0.493,-0.112,-0.361,-0.119,-0.136,-0.209,-0.074,-0.441,-0.272,-0.285,-0.061,0.126,-0.243,1.0,0.994,0.994
8000,y2,-0.5,-0.18,-0.405,-0.194,-0.147,-0.116,-0.02,-0.492,-0.339,-0.347,-0.019,0.124,-0.217,0.994,1.0,0.996
8000,y3,-0.5,-0.117,-0.378,-0.164,-0.124,-0.129,-0.035,-0.453,-0.314,-0.294,-0.039,0.168,-0.211,0.994,0.996,1.0
8500,.,1.0,0.1,-0.222,-0.134,-0.061,-0.213,-0.351,-0.015,-0.236,-0.035,-0.42,-0.51,-0.075,-0.361,-0.426,-0.464
8500,A1_1,0.1,1.0,0.769,0.863,-0.199,-0.475,-0.591,0.833,0.769,0.954,-0.563,-0.036,-0.414,-0.222,-0.272,-0.252
8500,A1_2,-0.222,0.769,1.0,0.915,-0.279,-0.216,-0.331,0.85,0.936,0.902,-0.225,0.081,-0.371,-0.409,-0.4,-0.368
8500,A1_3,-0.134,0.863,0.915,1.0,-0.305,-0.506,-0.491,0.861,0.966,0.907,-0.372,-0.029,-0.461,-0.237,-0.246,-0.233
8500,B1_1,-0.061,-0.199,-0.279,-0.305,1.0,0.327,0.674,-0.288,-0.173,-0.19,0.537,0.583,0.592,-0.263,-0.237,-0.241
8500,B1_2,-0.213,-0.475,-0.216,-0.506,0.327,1.0,0.792,-0.285,-0.344,-0.356,0.615,0.34,0.448,-0.237,-0.218,-0.173
8500,B1_3,-0.351,-0.591,-0.331,-0.491,0.674,0.792,1.0,-0.39,-0.284,-0.497,0.915,0.62,0.718,-0.179,-0.129,-0.109
8500,A2_1,-0.015,0.833,0.85,0.861,-0.288,-0.285,-0.39,1.0,0.874,0.893,-0.282,-0.037,-0.184,-0.445,-0.48,-0.436
8500,A2_2,-0.236,0.769,0.936,0.966,-0.173,-0.344,-0.284,0.874,1.0,0.87,-0.17,0.083,-0.311,-0.363,-0.357,-0.333
8500,A2_3,-0.035,0.954,0.902,0.907,-0.19,-0.356,-0.497,0.893,0.87,1.0,-0.467,-0.006,-0.415,-0.345,-0.375,-0.342
8500,B2_1,-0.42,-0.563,-0.225,-0.372,0.537,0.615,0.915,-0.282,-0.17,-0.467,1.0,0.686,0.819,-0.209,-0.141,-0.131
8500,B2_2,-0.51,-0.036,0.081,-0.029,0.583,0.34,0.62,-0.037,0.083,-0.006,0.686,1.0,0.614,0.002,0.047,0.079
8500,B2_3,-0.075,-0.414,-0.371,-0.461,0.592,0.448,0.718,-0.184,-0.311,-0.415,0.819,0.614,1.0,-0.295,-0.271,-0.26
8500,y1,-0.361,-0.222,-0.409,-0.237,-0.263,-0.237,-0.179,-0.445,-0.363,-0.345,-0.209,0.002,-0.295,1.0,0.994,0.991
8500,y2,-0.426,-0.272,-0.4,-0.246,-0.237,-0.218,-0.129,-0.48,-0.357,-0.375,-0.141,0.047,-0.271,0.994,1.0,0.995
8500,y3,-0.464,-0.252,-0.368,-0.233,-0.241,-0.173,-0.109,-0.436,-0.333,-0.342,-0.131,0.079,-0.26,0.991,0.995,1.0
9000,.,1.0,0.096,-0.23,-0.134,-0.078,-0.221,-0.362,-0.03,-0.229,-0.027,-0.441,-0.519,-0.117,-0.316,-0.369,-0.38
9000,A1_1,0.096,1.0,0.783,0.867,-0.202,-0.461,-0.572,0.837,0.782,0.96,-0.532,-0.012,-0.394,-0.276,-0.318,-0.31
9000,A1_2,-0.23,0.783,1.0,0.921,-0.291,-0.221,-0.336,0.848,0.94,0.903,-0.221,0.089,-0.372,-0.411,-0.437,-0.427
9000,A1_3,-0.134,0.867,0.921,1.0,-0.311,-0.498,-0.487,0.859,0.968,0.911,-0.361,-0.023,-0.459,-0.279,-0.308,-0.304
9000,B1_1,-0.078,-0.202,-0.291,-0.311,1.0,0.345,0.686,-0.285,-0.179,-0.197,0.555,0.603,0.605,-0.283,-0.23,-0.218
9000,B1_2,-0.221,-0.461,-0.221,-0.498,0.345,1.0,0.796,-0.283,-0.334,-0.359,0.621,0.351,0.467,-0.232,-0.199,-0.174
9000,B1_3,-0.362,-0.572,-0.336,-0.487,0.686,0.796,1.0,-0.384,-0.282,-0.496,0.917,0.631,0.728,-0.187,-0.133,-0.115
9000,A2_1,-0.03,0.837,0.848,0.859,-0.285,-0.283,-0.384,1.0,0.875,0.89,-0.265,-0.022,-0.168,-0.479,-0.525,-0.506
9000,A2_2,-0.229,0.782,0.94,0.968,-0.179,-0.334,-0.282,0.875,1.0,0.874,-0.157,0.098,-0.303,-0.41,-0.43,-0.419
9000,A2_3,-0.027,0.96,0.903,0.911,-0.197,-0.359,-0.496,0.89,0.874,1.0,-0.456,0.006,-0.409,-0.377,-0.413,-0.399
9000,B2_1,-0.441,-0.532,-0.221,-0.361,0.555,0.621,0.917,-0.265,-0.157,-0.456,1.0,0.689,0.822,-0.216,-0.166,-0.162
9000,B2_2,-0.519,-0.012,0.089,-0.023,0.603,0.351,0.631,-0.022,0.098,0.006,0.689,1.0,0.621,-0.013,0.004,0.024
9000,B2_3,-0.117,-0.394,-0.372,-0.459,0.605,0.467,0.728,-0.168,-0.303,-0.409,0.822,0.621,1.0,-0.284,-0.261,-0.256
9000,y1,-0.316,-0.276,-0.411,-0.279,-0.283,-0.232,-0.187,-0.479,-0.41,-0.377,-0.216,-0.013,-0.284,1.0,0.994,0.994
9000,y2,-0.369,-0.318,-0.437,-0.308,-0.23,-0.199,-0.133,-0.525,-0.43,-0.413,-0.166,0.004,-0.261,0.994,1.0,0.998
9000,y3,-0.38,-0.31,-0.427,-0.304,-0.218,-0.174,-0.115,-0.506,-0.419,-0.399,-0.162,0.024,-0.256,0.994,0.998,1.0
9500,.,1.0,0.075,-0.238,-0.153,-0.067,-0.21,-0.337,-0.045,-0.215,-0.036,-0.426,-0.525,-0.118,-0.348,-0.315,-0.361
9500,A1_1,0.075,1.0,0.807,0.88,-0.217,-0.445,-0.558,0.856,0.797,0.967,-0.513,-0.014,-0.393,-0.278,-0.306,-0.307
9500,A1_2,-0.238,0.807,1.0,0.926,-0.291,-0.223,-0.336,0.855,0.939,0.909,-0.217,0.087,-0.367,-0.391,-0.452,-0.415
9500,A1_3,-0.153,0.88,0.926,1.0,-0.321,-0.491,-0.484,0.865,0.961,0.914,-0.357,-0.023,-0.46,-0.241,-0.3,-0.277
9500,B1_1,-0.067,-0.217,-0.291,-0.321,1.0,0.384,0.715,-0.281,-0.164,-0.199,0.589,0.631,0.636,-0.273,-0.254,-0.266
9500,B1_2,-0.21,-0.445,-0.223,-0.491,0.384,1.0,0.803,-0.282,-0.307,-0.344,0.634,0.367,0.484,-0.284,-0.228,-0.23
9500,B1_3,-0.337,-0.558,-0.336,-0.484,0.715,0.803,1.0,-0.385,-0.255,-0.477,0.916,0.636,0.731,-0.208,-0.174,-0.179
9500,A2_1,-0.045,0.856,0.855,0.865,-0.281,-0.282,-0.385,1.0,0.883,0.9,-0.263,-0.021,-0.173,-0.466,-0.492,-0.483
9500,A2_2,-0.215,0.797,0.939,0.961,-0.164,-0.307,-0.255,0.883,1.0,0.876,-0.128,0.112,-0.271,-0.408,-0.464,-0.438
9500,A2_3,-0.036,0.967,0.909,0.914,-0.199,-0.344,-0.477,0.9,0.876,1.0,-0.432,0.013,-0.392,-0.375,-0.414,-0.397
9500,B2_1,-0.426,-0.513,-0.217,-0.357,0.589,0.634,0.916,-0.263,-0.128,-0.432,1.0,0.691,0.825,-0.234,-0.222,-0.223
9500,B2_2,-0.525,-0.014,0.087,-0.023,0.631,0.367,0.636,-0.021,0.112,0.013,0.691,1.0,0.627,-0.018,-0.03,-0.03
9500,B2_3,-0.118,-0.393,-0.367,-0.46,0.636,0.484,0.731,-0.173,-0.271,-0.392,0.825,0.627,1.0,-0.304,-0.267,-0.295
9500,y1,-0.348,-0.278,-0.391,-0.241,-0.273,-0.284,-0.208,-0.466,-0.408,-0.375,-0.234,-0.018,-0.304,1.0,0.994,0.997
9500,y2,-0.315,-0.306,-0.452,-0.3,-0.254,-0.228,-0.174,-0.492,-0.464,-0.414,-0.222,-0.03,-0.267,0.994,1.0,0.997
9500,y3,-0.361,-0.307,-0.415,-0.277,-0.266,-0.23,-0.179,-0.483,-0.438,-0.397,-0.223,-0.03,-0.295,0.997,0.997,1.0
10000,.,1.0,0.085,-0.234,-0.139,-0.057,-0.224,-0.335,-0.037,-0.204,-0.03,-0.424,-0.532,-0.125,-0.331,-0.307,-0.355
10000,A1_1,0.085,1.0,0.821,0.889,-0.218,-0.424,-0.543,0.865,0.813,0.97,-0.505,-0.016,-0.388,-0.341,-0.338,-0.331
10000,A1_2,-0.234,0.821,1.0,0.93,-0.286,-0.214,-0.332,0.87,0.943,0.915,-0.215,0.087,-0.351,-0.457,-0.47,-0.426
10000,A1_3,-0.139,0.889,0.93,1.0,-0.318,-0.474,-0.477,0.872,0.962,0.922,-0.358,-0.026,-0.452,-0.31,-0.328,-0.295
10000,B1_1,-0.057,-0.218,-0.286,-0.318,1.0,0.397,0.721,-0.275,-0.157,-0.202,0.606,0.644,0.648,-0.268,-0.27,-0.272
10000,B1_2,-0.224,-0.424,-0.214,-0.474,0.397,1.0,0.808,-0.27,-0.292,-0.331,0.642,0.38,0.496,-0.263,-0.245,-0.232
10000,B1_3,-0.335,-0.543,-0.332,-0.477,0.721,0.808,1.0,-0.381,-0.25,-0.469,0.92,0.639,0.734,-0.182,-0.19,-0.179
10000,A2_1,-0.037,0.865,0.87,0.872,-0.275,-0.27,-0.381,1.0,0.891,0.906,-0.269,-0.022,-0.173,-0.501,-0.509,-0.499
10000,A2_2,-0.204,0.813,0.943,0.962,-0.157,-0.292,-0.25,0.891,1.0,0.885,-0.128,0.117,-0.259,-0.464,-0.486,-0.449
10000,A2_3,-0.03,0.97,0.915,0.922,-0.202,-0.331,-0.469,0.906,0.885,1.0,-0.428,0.011,-0.386,-0.431,-0.431,-0.407
10000,B2_1,-0.424,-0.505,-0.215,-0.358,0.606,0.642,0.92,-0.269,-0.128,-0.428,1.0,0.696,0.826,-0.207,-0.23,-0.226
10000,B2_2,-0.532,-0.016,0.087,-0.026,0.644,0.38,0.639,-0.022,0.117,0.011,0.696,1.0,0.63,-0.03,-0.045,-0.034
10000,B2_3,-0.125,-0.388,-0.351,-0.452,0.648,0.496,0.734,-0.173,-0.259,-0.386,0.826,0.63,1.0,-0.258,-0.268,-0.307
10000,y1,-0.331,-0.341,-0.457,-0.31,-0.268,-0.263,-0.182,-0.501,-0.464,-0.431,-0.207,-0.03,-0.258,1.0,0.999,0.996
10000,y2,-0.307,-0.338,-0.47,-0.328,-0.27,-0.245,-0.19,-0.509,-0.486,-0.431,-0.23,-0.045,-0.268,0.999,1.0,0.996
10000,y3,-0.355,-0.331,-0.426,-0.295,-0.272,-0.232,-0.179,-0.499,-0.449,-0.407,-0.226,-0.034,-0.307,0.996,0.996,1.0
