,,.,A1_1,A1_2,A1_3,B1_1,B1_2,B1_3,A2_1,A2_2,A2_3,B2_1,B2_2,B2_3,y1,y2,y3
0,.,1.0,0.047,-0.247,-0.11,0.176,-0.463,-0.042,0.147,0.499,0.362,0.368,0.18,-0.088,-0.059,-0.224,0.378
0,A1_1,0.047,1.0,-0.087,-0.041,-0.142,-0.142,0.29,0.003,0.023,-0.057,0.029,-0.445,-0.219,0.044,-0.119,0.306
0,A1_2,-0.247,-0.087,1.0,0.347,0.275,-0.137,-0.463,0.046,-0.175,-0.081,0.234,-0.128,-0.189,-0.58,-0.134,-0.343
0,A1_3,-0.11,-0.041,0.347,1.0,0.501,0.006,-0.608,-0.427,0.14,0.087,0.482,0.205,0.19,-0.395,-0.326,-0.029
0,B1_1,0.176,-0.142,0.275,0.501,1.0,-0.328,-0.511,-0.134,0.641,0.483,0.662,0.052,0.054,-0.469,-0.433,-0.131
0,B1_2,-0.463,-0.142,-0.137,0.006,-0.328,1.0,0.091,-0.015,-0.274,-0.216,-0.502,0.212,0.004,0.187,0.141,-0.35
0,B1_3,-0.042,0.29,-0.463,-0.608,-0.511,0.091,1.0,0.229,-0.115,-0.442,-0.297,0.031,0.021,0.345,0.244,0.019
0,A2_1,0.147,0.003,0.046,-0.427,-0.134,-0.015,0.229,1.0,0.217,-0.021,-0.378,-0.225,-0.042,-0.07,0.267,-0.188
0,A2_2,0.499,0.023,-0.175,0.14,0.641,-0.274,-0.115,0.217,1.0,0.454,0.451,-0.036,0.063,-0.293,-0.162,-0.088
0,A2_3,0.362,-0.057,-0.081,0.087,0.483,-0.216,-0.442,-0.021,0.454,1.0,0.296,-0.183,-0.412,0.056,-0.503,-0.079
0,B2_1,0.368,0.029,0.234,0.482,0.662,-0.502,-0.297,-0.378,0.451,0.296,1.0,0.039,0.019,-0.605,-0.502,-0.098
0,B2_2,0.18,-0.445,-0.128,0.205,0.052,0.212,0.031,-0.225,-0.036,-0.183,0.039,1.0,0.278,-0.007,0.318,0.139
0,B2_3,-0.088,-0.219,-0.189,0.19,0.054,0.004,0.021,-0.042,0.063,-0.412,0.019,0.278,1.0,-0.314,0.384,0.396
0,y1,-0.059,0.044,-0.58,-0.395,-0.469,0.187,0.345,-0.07,-0.293,0.056,-0.605,-0.007,-0.314,1.0,-0.015,0.134
0,y2,-0.224,-0.119,-0.134,-0.326,-0.433,0.141,0.244,0.267,-0.162,-0.503,-0.502,0.318,0.384,-0.015,1.0,0.189
0,y3,0.378,0.306,-0.343,-0.029,-0.131,-0.35,0.019,-0.188,-0.088,-0.079,-0.098,0.139,0.396,0.134,0.189,1.0
500,.,1.0,-0.051,-0.14,-0.063,0.078,-0.355,-0.131,0.126,0.34,0.31,0.379,0.266,-0.222,-0.13,-0.179,0.125
500,A1_1,-0.051,1.0,-0.046,-0.062,-0.128,-0.268,0.255,0.02,0.07,0.026,0.013,-0.544,-0.279,0.07,-0.129,0.307
500,A1_2,-0.14,-0.046,1.0,0.314,0.308,-0.223,-0.451,0.079,-0.112,-0.033,0.268,-0.181,-0.18,-0.64,-0.227,-0.401
500,A1_3,-0.063,-0.062,0.314,1.0,0.619,-0.015,-0.589,-0.5,0.147,0.079,0.563,0.241,0.236,-0.389,-0.38,-0.049
500,B1_1,0.078,-0.128,0.308,0.619,1.0,-0.27,-0.45,-0.072,0.681,0.498,0.695,0.139,0.145,-0.525,-0.495,-0.206
500,B1_2,-0.355,-0.268,-0.223,-0.015,-0.27,1.0,0.076,-0.083,-0.278,-0.278,-0.477,0.176,0.033,0.306,0.194,-0.273
500,B1_3,-0.131,0.255,-0.451,-0.589,-0.45,0.076,1.0,0.259,-0.057,-0.416,-0.256,-0.011,0.049,0.309,0.271,0.072
500,A2_1,0.126,0.02,0.079,-0.5,-0.072,-0.083,0.259,1.0,0.215,0.019,-0.282,-0.27,-0.021,-0.112,0.253,-0.201
500,A2_2,0.34,0.07,-0.112,0.147,0.681,-0.278,-0.057,0.215,1.0,0.491,0.533,0.007,0.104,-0.365,-0.23,-0.079
500,A2_3,0.31,0.026,-0.033,0.079,0.498,-0.278,-0.416,0.019,0.491,1.0,0.31,-0.216,-0.387,-0.0,-0.509,-0.174
500,B2_1,0.379,0.013,0.268,0.563,0.695,-0.477,-0.256,-0.282,0.533,0.31,1.0,0.097,0.066,-0.685,-0.557,-0.192
500,B2_2,0.266,-0.544,-0.181,0.241,0.139,0.176,-0.011,-0.27,0.007,-0.216,0.097,1.0,0.32,-0.032,0.358,0.199
500,B2_3,-0.222,-0.279,-0.18,0.236,0.145,0.033,0.049,-0.021,0.104,-0.387,0.066,0.32,1.0,-0.258,0.348,0.365
500,y1,-0.13,0.07,-0.64,-0.389,-0.525,0.306,0.309,-0.112,-0.365,-0.0,-0.685,-0.032,-0.258,1.0,0.082,0.245
500,y2,-0.179,-0.129,-0.227,-0.38,-0.495,0.194,0.271,0.253,-0.23,-0.509,-0.557,0.358,0.348,0.082,1.0,0.366
500,y3,0.125,0.307,-0.401,-0.049,-0.206,-0.273,0.072,-0.201,-0.079,-0.174,-0.192,0.199,0.365,0.245,0.366,1.0
1000,.,1.0,-0.068,-0.135,-0.075,0.07,-0.342,-0.147,0.125,0.314,0.303,0.369,0.267,-0.238,-0.116,-0.197,0.116
1000,A1_1,-0.068,1.0,-0.026,-0.056,-0.122,-0.29,0.248,0.034,0.08,0.046,0.017,-0.558,-0.289,0.051,-0.146,0.315
1000,A1_2,-0.135,-0.026,1.0,0.314,0.313,-0.233,-0.441,0.096,-0.089,-0.029,0.271,-0.192,-0.178,-0.635,-0.271,-0.43
1000,A1_3,-0.075,-0.056,0.314,1.0,0.638,-0.031,-0.584,-0.499,0.155,0.075,0.575,0.234,0.238,-0.399,-0.377,-0.077
1000,B1_1,0.07,-0.122,0.313,0.638,1.0,-0.264,-0.443,-0.058,0.684,0.504,0.697,0.148,0.153,-0.546,-0.503,-0.23
1000,B1_2,-0.342,-0.29,-0.233,-0.031,-0.264,1.0,0.075,-0.099,-0.288,-0.289,-0.473,0.178,0.037,0.315,0.205,-0.25
1000,B1_3,-0.147,0.248,-0.441,-0.584,-0.443,0.075,1.0,0.261,-0.051,-0.409,-0.251,-0.01,0.056,0.264,0.301,0.098
1000,A2_1,0.125,0.034,0.096,-0.499,-0.058,-0.099,0.261,1.0,0.223,0.038,-0.264,-0.282,-0.021,-0.096,0.219,-0.232
1000,A2_2,0.314,0.08,-0.089,0.155,0.684,-0.288,-0.051,0.223,1.0,0.502,0.539,0.006,0.106,-0.394,-0.275,-0.063
1000,A2_3,0.303,0.046,-0.029,0.075,0.504,-0.289,-0.409,0.038,0.502,1.0,0.311,-0.222,-0.381,-0.005,-0.51,-0.193
1000,B2_1,0.369,0.017,0.271,0.575,0.697,-0.473,-0.251,-0.264,0.539,0.311,1.0,0.105,0.071,-0.711,-0.569,-0.212
1000,B2_2,0.267,-0.558,-0.192,0.234,0.148,0.178,-0.01,-0.282,0.006,-0.222,0.105,1.0,0.324,-0.067,0.381,0.225
1000,B2_3,-0.238,-0.289,-0.178,0.238,0.153,0.037,0.056,-0.021,0.106,-0.381,0.071,0.324,1.0,-0.24,0.353,0.324
1000,y1,-0.116,0.051,-0.635,-0.399,-0.546,0.315,0.264,-0.096,-0.394,-0.005,-0.711,-0.067,-0.24,1.0,0.128,0.288
1000,y2,-0.197,-0.146,-0.271,-0.377,-0.503,0.205,0.301,0.219,-0.275,-0.51,-0.569,0.381,0.353,0.128,1.0,0.422
1000,y3,0.116,0.315,-0.43,-0.077,-0.23,-0.25,0.098,-0.232,-0.063,-0.193,-0.212,0.225,0.324,0.288,0.422,1.0
1500,.,1.0,-0.074,-0.13,-0.081,0.065,-0.336,-0.163,0.123,0.293,0.3,0.364,0.263,-0.247,-0.08,-0.232,0.111
1500,A1_1,-0.074,1.0,-0.014,-0.049,-0.12,-0.301,0.243,0.042,0.09,0.053,0.016,-0.565,-0.293,0.025,-0.139,0.312
1500,A1_2,-0.13,-0.014,1.0,0.319,0.316,-0.238,-0.436,0.107,-0.072,-0.024,0.273,-0.2,-0.178,-0.639,-0.305,-0.438
1500,A1_3,-0.081,-0.049,0.319,1.0,0.653,-0.045,-0.579,-0.5,0.162,0.076,0.584,0.227,0.237,-0.418,-0.375,-0.089
1500,B1_1,0.065,-0.12,0.316,0.653,1.0,-0.26,-0.438,-0.051,0.686,0.507,0.699,0.154,0.159,-0.57,-0.505,-0.238
1500,B1_2,-0.336,-0.301,-0.238,-0.045,-0.26,1.0,0.076,-0.108,-0.295,-0.295,-0.471,0.178,0.039,0.318,0.217,-0.239
1500,B1_3,-0.163,0.243,-0.436,-0.579,-0.438,0.076,1.0,0.265,-0.044,-0.405,-0.249,-0.012,0.064,0.242,0.326,0.103
1500,A2_1,0.123,0.042,0.107,-0.5,-0.051,-0.108,0.265,1.0,0.23,0.048,-0.256,-0.289,-0.021,-0.082,0.193,-0.253
1500,A2_2,0.293,0.09,-0.072,0.162,0.686,-0.295,-0.044,0.23,1.0,0.509,0.545,0.003,0.106,-0.415,-0.292,-0.067
1500,A2_3,0.3,0.053,-0.024,0.076,0.507,-0.295,-0.405,0.048,0.509,1.0,0.313,-0.224,-0.379,-0.026,-0.509,-0.195
1500,B2_1,0.364,0.016,0.273,0.584,0.699,-0.471,-0.249,-0.256,0.545,0.313,1.0,0.108,0.073,-0.724,-0.581,-0.219
1500,B2_2,0.263,-0.565,-0.2,0.227,0.154,0.178,-0.012,-0.289,0.003,-0.224,0.108,1.0,0.328,-0.074,0.381,0.244
1500,B2_3,-0.247,-0.293,-0.178,0.237,0.159,0.039,0.064,-0.021,0.106,-0.379,0.073,0.328,1.0,-0.224,0.356,0.293
1500,y1,-0.08,0.025,-0.639,-0.418,-0.57,0.318,0.242,-0.082,-0.415,-0.026,-0.724,-0.074,-0.224,1.0,0.176,0.309
1500,y2,-0.232,-0.139,-0.305,-0.375,-0.505,0.217,0.326,0.193,-0.292,-0.509,-0.581,0.381,0.356,0.176,1.0,0.44
1500,y3,0.111,0.312,-0.438,-0.089,-0.238,-0.239,0.103,-0.253,-0.067,-0.195,-0.219,0.244,0.293,0.309,0.44,1.0
2000,.,1.0,-0.08,-0.126,-0.081,0.066,-0.331,-0.179,0.121,0.281,0.299,0.361,0.262,-0.253,-0.063,-0.251,0.103
2000,A1_1,-0.08,1.0,-0.004,-0.042,-0.117,-0.309,0.238,0.05,0.096,0.062,0.019,-0.572,-0.298,0.003,-0.137,0.304
2000,A1_2,-0.126,-0.004,1.0,0.324,0.317,-0.242,-0.434,0.115,-0.061,-0.02,0.273,-0.206,-0.179,-0.646,-0.324,-0.442
2000,A1_3,-0.081,-0.042,0.324,1.0,0.662,-0.057,-0.576,-0.5,0.167,0.079,0.592,0.222,0.236,-0.431,-0.383,-0.095
2000,B1_1,0.066,-0.117,0.317,0.662,1.0,-0.257,-0.434,-0.048,0.688,0.509,0.7,0.158,0.163,-0.584,-0.51,-0.242
2000,B1_2,-0.331,-0.309,-0.242,-0.057,-0.257,1.0,0.077,-0.116,-0.3,-0.299,-0.47,0.18,0.041,0.319,0.225,-0.231
2000,B1_3,-0.179,0.238,-0.434,-0.576,-0.434,0.077,1.0,0.266,-0.039,-0.402,-0.248,-0.015,0.073,0.23,0.345,0.103
2000,A2_1,0.121,0.05,0.115,-0.5,-0.048,-0.116,0.266,1.0,0.233,0.056,-0.25,-0.296,-0.022,-0.08,0.178,-0.268
2000,A2_2,0.281,0.096,-0.061,0.167,0.688,-0.3,-0.039,0.233,1.0,0.514,0.549,0.001,0.105,-0.425,-0.304,-0.075
2000,A2_3,0.299,0.062,-0.02,0.079,0.509,-0.299,-0.402,0.056,0.514,1.0,0.315,-0.225,-0.377,-0.043,-0.509,-0.196
2000,B2_1,0.361,0.019,0.273,0.592,0.7,-0.47,-0.248,-0.25,0.549,0.315,1.0,0.111,0.075,-0.728,-0.588,-0.224
2000,B2_2,0.262,-0.572,-0.206,0.222,0.158,0.18,-0.015,-0.296,0.001,-0.225,0.111,1.0,0.331,-0.073,0.379,0.253
2000,B2_3,-0.253,-0.298,-0.179,0.236,0.163,0.041,0.073,-0.022,0.105,-0.377,0.075,0.331,1.0,-0.203,0.351,0.276
2000,y1,-0.063,0.003,-0.646,-0.431,-0.584,0.319,0.23,-0.08,-0.425,-0.043,-0.728,-0.073,-0.203,1.0,0.209,0.325
2000,y2,-0.251,-0.137,-0.324,-0.383,-0.51,0.225,0.345,0.178,-0.304,-0.509,-0.588,0.379,0.351,0.209,1.0,0.448
2000,y3,0.103,0.304,-0.442,-0.095,-0.242,-0.231,0.103,-0.268,-0.075,-0.196,-0.224,0.253,0.276,0.325,0.448,1.0
2500,.,1.0,-0.087,-0.127,-0.086,0.06,-0.324,-0.19,0.123,0.267,0.296,0.351,0.261,-0.257,-0.048,-0.255,0.092
2500,A1_1,-0.087,1.0,0.007,-0.037,-0.114,-0.317,0.233,0.054,0.102,0.067,0.022,-0.578,-0.3,-0.012,-0.137,0.3
2500,A1_2,-0.127,0.007,1.0,0.328,0.319,-0.245,-0.433,0.122,-0.051,-0.016,0.274,-0.213,-0.18,-0.655,-0.338,-0.447
2500,A1_3,-0.086,-0.037,0.328,1.0,0.67,-0.065,-0.572,-0.498,0.171,0.078,0.597,0.22,0.236,-0.438,-0.388,-0.094
2500,B1_1,0.06,-0.114,0.319,0.67,1.0,-0.254,-0.431,-0.045,0.688,0.512,0.7,0.162,0.166,-0.59,-0.512,-0.245
2500,B1_2,-0.324,-0.317,-0.245,-0.065,-0.254,1.0,0.078,-0.12,-0.304,-0.302,-0.469,0.182,0.043,0.317,0.231,-0.224
2500,B1_3,-0.19,0.233,-0.433,-0.572,-0.431,0.078,1.0,0.267,-0.033,-0.397,-0.246,-0.017,0.081,0.228,0.358,0.1
2500,A2_1,0.123,0.054,0.122,-0.498,-0.045,-0.12,0.267,1.0,0.237,0.062,-0.247,-0.299,-0.022,-0.08,0.165,-0.277
2500,A2_2,0.267,0.102,-0.051,0.171,0.688,-0.304,-0.033,0.237,1.0,0.518,0.551,0.002,0.105,-0.425,-0.311,-0.08
2500,A2_3,0.296,0.067,-0.016,0.078,0.512,-0.302,-0.397,0.062,0.518,1.0,0.314,-0.224,-0.376,-0.052,-0.506,-0.194
2500,B2_1,0.351,0.022,0.274,0.597,0.7,-0.469,-0.246,-0.247,0.551,0.314,1.0,0.112,0.075,-0.728,-0.589,-0.228
2500,B2_2,0.261,-0.578,-0.213,0.22,0.162,0.182,-0.017,-0.299,0.002,-0.224,0.112,1.0,0.335,-0.07,0.381,0.255
2500,B2_3,-0.257,-0.3,-0.18,0.236,0.166,0.043,0.081,-0.022,0.105,-0.376,0.075,0.335,1.0,-0.186,0.344,0.268
2500,y1,-0.048,-0.012,-0.655,-0.438,-0.59,0.317,0.228,-0.08,-0.425,-0.052,-0.728,-0.07,-0.186,1.0,0.231,0.338
2500,y2,-0.255,-0.137,-0.338,-0.388,-0.512,0.231,0.358,0.165,-0.311,-0.506,-0.589,0.381,0.344,0.231,1.0,0.452
2500,y3,0.092,0.3,-0.447,-0.094,-0.245,-0.224,0.1,-0.277,-0.08,-0.194,-0.228,0.255,0.268,0.338,0.452,1.0
3000,.,1.0,-0.096,-0.125,-0.088,0.058,-0.315,-0.203,0.121,0.256,0.297,0.343,0.262,-0.262,-0.043,-0.262,0.082
3000,A1_1,-0.096,1.0,0.014,-0.032,-0.112,-0.322,0.23,0.061,0.107,0.072,0.024,-0.583,-0.303,-0.025,-0.136,0.298
3000,A1_2,-0.125,0.014,1.0,0.334,0.318,-0.247,-0.433,0.129,-0.043,-0.013,0.274,-0.218,-0.18,-0.665,-0.348,-0.451
3000,A1_3,-0.088,-0.032,0.334,1.0,0.678,-0.075,-0.569,-0.495,0.176,0.078,0.601,0.22,0.235,-0.447,-0.392,-0.094
3000,B1_1,0.058,-0.112,0.318,0.678,1.0,-0.252,-0.428,-0.042,0.69,0.514,0.701,0.167,0.169,-0.592,-0.514,-0.247
3000,B1_2,-0.315,-0.322,-0.247,-0.075,-0.252,1.0,0.079,-0.126,-0.307,-0.305,-0.468,0.183,0.046,0.314,0.238,-0.218
3000,B1_3,-0.203,0.23,-0.433,-0.569,-0.428,0.079,1.0,0.266,-0.029,-0.394,-0.246,-0.02,0.087,0.231,0.364,0.103
3000,A2_1,0.121,0.061,0.129,-0.495,-0.042,-0.126,0.266,1.0,0.241,0.069,-0.242,-0.304,-0.023,-0.087,0.152,-0.287
3000,A2_2,0.256,0.107,-0.043,0.176,0.69,-0.307,-0.029,0.241,1.0,0.521,0.554,0.003,0.104,-0.425,-0.316,-0.086
3000,A2_3,0.297,0.072,-0.013,0.078,0.514,-0.305,-0.394,0.069,0.521,1.0,0.315,-0.223,-0.376,-0.058,-0.503,-0.198
3000,B2_1,0.343,0.024,0.274,0.601,0.701,-0.468,-0.246,-0.242,0.554,0.315,1.0,0.114,0.076,-0.727,-0.592,-0.23
3000,B2_2,0.262,-0.583,-0.218,0.22,0.167,0.183,-0.02,-0.304,0.003,-0.223,0.114,1.0,0.34,-0.062,0.379,0.257
3000,B2_3,-0.262,-0.303,-0.18,0.235,0.169,0.046,0.087,-0.023,0.104,-0.376,0.076,0.34,1.0,-0.169,0.337,0.262
3000,y1,-0.043,-0.025,-0.665,-0.447,-0.592,0.314,0.231,-0.087,-0.425,-0.058,-0.727,-0.062,-0.169,1.0,0.252,0.35
3000,y2,-0.262,-0.136,-0.348,-0.392,-0.514,0.238,0.364,0.152,-0.316,-0.503,-0.592,0.379,0.337,0.252,1.0,0.454
3000,y3,0.082,0.298,-0.451,-0.094,-0.247,-0.218,0.103,-0.287,-0.086,-0.198,-0.23,0.257,0.262,0.35,0.454,1.0
3500,.,1.0,-0.108,-0.123,-0.089,0.053,-0.307,-0.216,0.115,0.245,0.295,0.334,0.263,-0.268,-0.035,-0.267,0.071
3500,A1_1,-0.108,1.0,0.023,-0.027,-0.106,-0.33,0.229,0.072,0.117,0.077,0.025,-0.588,-0.303,-0.039,-0.134,0.288
3500,A1_2,-0.123,0.023,1.0,0.34,0.318,-0.251,-0.433,0.138,-0.034,-0.007,0.274,-0.224,-0.18,-0.676,-0.354,-0.457
3500,A1_3,-0.089,-0.027,0.34,1.0,0.685,-0.081,-0.567,-0.488,0.182,0.079,0.607,0.22,0.235,-0.457,-0.396,-0.096
3500,B1_1,0.053,-0.106,0.318,0.685,1.0,-0.25,-0.426,-0.033,0.69,0.515,0.702,0.174,0.174,-0.592,-0.516,-0.251
3500,B1_2,-0.307,-0.33,-0.251,-0.081,-0.25,1.0,0.08,-0.134,-0.31,-0.308,-0.467,0.184,0.049,0.312,0.248,-0.21
3500,B1_3,-0.216,0.229,-0.433,-0.567,-0.426,0.08,1.0,0.265,-0.027,-0.392,-0.245,-0.023,0.091,0.236,0.366,0.104
3500,A2_1,0.115,0.072,0.138,-0.488,-0.033,-0.134,0.265,1.0,0.249,0.079,-0.233,-0.31,-0.024,-0.104,0.136,-0.298
3500,A2_2,0.245,0.117,-0.034,0.182,0.69,-0.31,-0.027,0.249,1.0,0.526,0.557,0.006,0.106,-0.425,-0.323,-0.096
3500,A2_3,0.295,0.077,-0.007,0.079,0.515,-0.308,-0.392,0.079,0.526,1.0,0.317,-0.222,-0.373,-0.062,-0.5,-0.204
3500,B2_1,0.334,0.025,0.274,0.607,0.702,-0.467,-0.245,-0.233,0.557,0.317,1.0,0.118,0.079,-0.723,-0.596,-0.236
3500,B2_2,0.263,-0.588,-0.224,0.22,0.174,0.184,-0.023,-0.31,0.006,-0.222,0.118,1.0,0.344,-0.048,0.375,0.258
3500,B2_3,-0.268,-0.303,-0.18,0.235,0.174,0.049,0.091,-0.024,0.106,-0.373,0.079,0.344,1.0,-0.161,0.328,0.258
3500,y1,-0.035,-0.039,-0.676,-0.457,-0.592,0.312,0.236,-0.104,-0.425,-0.062,-0.723,-0.048,-0.161,1.0,0.272,0.368
3500,y2,-0.267,-0.134,-0.354,-0.396,-0.516,0.248,0.366,0.136,-0.323,-0.5,-0.596,0.375,0.328,0.272,1.0,0.459
3500,y3,0.071,0.288,-0.457,-0.096,-0.251,-0.21,0.104,-0.298,-0.096,-0.204,-0.236,0.258,0.258,0.368,0.459,1.0
4000,.,1.0,-0.118,-0.124,-0.089,0.049,-0.297,-0.229,0.108,0.235,0.296,0.324,0.264,-0.275,-0.027,-0.263,0.058
4000,A1_1,-0.118,1.0,0.032,-0.021,-0.103,-0.334,0.228,0.081,0.124,0.08,0.028,-0.595,-0.305,-0.052,-0.139,0.276
4000,A1_2,-0.124,0.032,1.0,0.349,0.318,-0.257,-0.433,0.147,-0.026,-0.002,0.276,-0.232,-0.18,-0.683,-0.367,-0.469
4000,A1_3,-0.089,-0.021,0.349,1.0,0.693,-0.089,-0.567,-0.48,0.189,0.081,0.612,0.222,0.235,-0.468,-0.407,-0.1
4000,B1_1,0.049,-0.103,0.318,0.693,1.0,-0.246,-0.421,-0.025,0.69,0.516,0.702,0.185,0.178,-0.592,-0.52,-0.257
4000,B1_2,-0.297,-0.334,-0.257,-0.089,-0.246,1.0,0.08,-0.14,-0.312,-0.311,-0.465,0.183,0.052,0.311,0.257,-0.198
4000,B1_3,-0.229,0.228,-0.433,-0.567,-0.421,0.08,1.0,0.263,-0.023,-0.389,-0.244,-0.026,0.096,0.236,0.368,0.107
4000,A2_1,0.108,0.081,0.147,-0.48,-0.025,-0.14,0.263,1.0,0.256,0.09,-0.225,-0.317,-0.027,-0.117,0.117,-0.314
4000,A2_2,0.235,0.124,-0.026,0.189,0.69,-0.312,-0.023,0.256,1.0,0.528,0.559,0.013,0.105,-0.425,-0.332,-0.104
4000,A2_3,0.296,0.08,-0.002,0.081,0.516,-0.311,-0.389,0.09,0.528,1.0,0.318,-0.217,-0.372,-0.066,-0.497,-0.21
4000,B2_1,0.324,0.028,0.276,0.612,0.702,-0.465,-0.244,-0.225,0.559,0.318,1.0,0.125,0.08,-0.724,-0.599,-0.243
4000,B2_2,0.264,-0.595,-0.232,0.222,0.185,0.183,-0.026,-0.317,0.013,-0.217,0.125,1.0,0.351,-0.037,0.372,0.258
4000,B2_3,-0.275,-0.305,-0.18,0.235,0.178,0.052,0.096,-0.027,0.105,-0.372,0.08,0.351,1.0,-0.154,0.315,0.253
4000,y1,-0.027,-0.052,-0.683,-0.468,-0.592,0.311,0.236,-0.117,-0.425,-0.066,-0.724,-0.037,-0.154,1.0,0.296,0.389
4000,y2,-0.263,-0.139,-0.367,-0.407,-0.52,0.257,0.368,0.117,-0.332,-0.497,-0.599,0.372,0.315,0.296,1.0,0.47
4000,y3,0.058,0.276,-0.469,-0.1,-0.257,-0.198,0.107,-0.314,-0.104,-0.21,-0.243,0.258,0.253,0.389,0.47,1.0
4500,.,1.0,-0.129,-0.125,-0.092,0.043,-0.287,-0.242,0.102,0.223,0.295,0.312,0.265,-0.283,-0.019,-0.257,0.052
4500,A1_1,-0.129,1.0,0.038,-0.016,-0.099,-0.339,0.228,0.089,0.131,0.084,0.029,-0.599,-0.306,-0.065,-0.142,0.266
4500,A1_2,-0.125,0.038,1.0,0.356,0.316,-0.261,-0.431,0.156,-0.019,0.001,0.274,-0.234,-0.179,-0.693,-0.375,-0.476
4500,A1_3,-0.092,-0.016,0.356,1.0,0.698,-0.095,-0.566,-0.472,0.193,0.081,0.617,0.222,0.235,-0.475,-0.416,-0.107
4500,B1_1,0.043,-0.099,0.316,0.698,1.0,-0.243,-0.418,-0.021,0.69,0.517,0.703,0.194,0.181,-0.591,-0.525,-0.264
4500,B1_2,-0.287,-0.339,-0.261,-0.095,-0.243,1.0,0.08,-0.146,-0.314,-0.315,-0.463,0.181,0.056,0.311,0.266,-0.187
4500,B1_3,-0.242,0.228,-0.431,-0.566,-0.418,0.08,1.0,0.26,-0.018,-0.386,-0.243,-0.03,0.1,0.241,0.366,0.11
4500,A2_1,0.102,0.089,0.156,-0.472,-0.021,-0.146,0.26,1.0,0.26,0.102,-0.218,-0.324,-0.03,-0.134,0.1,-0.326
4500,A2_2,0.223,0.131,-0.019,0.193,0.69,-0.314,-0.018,0.26,1.0,0.531,0.56,0.018,0.106,-0.422,-0.339,-0.111
4500,A2_3,0.295,0.084,0.001,0.081,0.517,-0.315,-0.386,0.102,0.531,1.0,0.318,-0.214,-0.371,-0.075,-0.492,-0.216
4500,B2_1,0.312,0.029,0.274,0.617,0.703,-0.463,-0.243,-0.218,0.56,0.318,1.0,0.13,0.082,-0.721,-0.602,-0.248
4500,B2_2,0.265,-0.599,-0.234,0.222,0.194,0.181,-0.03,-0.324,0.018,-0.214,0.13,1.0,0.356,-0.021,0.369,0.261
4500,B2_3,-0.283,-0.306,-0.179,0.235,0.181,0.056,0.1,-0.03,0.106,-0.371,0.082,0.356,1.0,-0.14,0.304,0.247
4500,y1,-0.019,-0.065,-0.693,-0.475,-0.591,0.311,0.241,-0.134,-0.422,-0.075,-0.721,-0.021,-0.14,1.0,0.324,0.41
4500,y2,-0.257,-0.142,-0.375,-0.416,-0.525,0.266,0.366,0.1,-0.339,-0.492,-0.602,0.369,0.304,0.324,1.0,0.479
4500,y3,0.052,0.266,-0.476,-0.107,-0.264,-0.187,0.11,-0.326,-0.111,-0.216,-0.248,0.261,0.247,0.41,0.479,1.0
5000,.,1.0,-0.141,-0.124,-0.094,0.039,-0.278,-0.257,0.096,0.21,0.291,0.301,0.267,-0.286,-0.004,-0.247,0.049
5000,A1_1,-0.141,1.0,0.044,-0.011,-0.097,-0.343,0.229,0.095,0.136,0.088,0.031,-0.604,-0.307,-0.079,-0.149,0.255
5000,A1_2,-0.124,0.044,1.0,0.362,0.316,-0.264,-0.429,0.163,-0.013,0.007,0.275,-0.239,-0.179,-0.704,-0.386,-0.48
5000,A1_3,-0.094,-0.011,0.362,1.0,0.703,-0.1,-0.561,-0.467,0.198,0.081,0.62,0.228,0.235,-0.486,-0.425,-0.109
5000,B1_1,0.039,-0.097,0.316,0.703,1.0,-0.239,-0.414,-0.016,0.692,0.519,0.704,0.204,0.184,-0.593,-0.532,-0.268
5000,B1_2,-0.278,-0.343,-0.264,-0.1,-0.239,1.0,0.078,-0.153,-0.314,-0.318,-0.461,0.18,0.06,0.309,0.271,-0.179
5000,B1_3,-0.257,0.229,-0.429,-0.561,-0.414,0.078,1.0,0.259,-0.014,-0.382,-0.241,-0.035,0.104,0.243,0.37,0.107
5000,A2_1,0.096,0.095,0.163,-0.467,-0.016,-0.153,0.259,1.0,0.265,0.112,-0.212,-0.331,-0.032,-0.15,0.086,-0.338
5000,A2_2,0.21,0.136,-0.013,0.198,0.692,-0.314,-0.014,0.265,1.0,0.535,0.563,0.023,0.105,-0.421,-0.347,-0.121
5000,A2_3,0.291,0.088,0.007,0.081,0.519,-0.318,-0.382,0.112,0.535,1.0,0.32,-0.212,-0.371,-0.08,-0.492,-0.22
5000,B2_1,0.301,0.031,0.275,0.62,0.704,-0.461,-0.241,-0.212,0.563,0.32,1.0,0.137,0.084,-0.715,-0.605,-0.253
5000,B2_2,0.267,-0.604,-0.239,0.228,0.204,0.18,-0.035,-0.331,0.023,-0.212,0.137,1.0,0.363,-0.005,0.366,0.262
5000,B2_3,-0.286,-0.307,-0.179,0.235,0.184,0.06,0.104,-0.032,0.105,-0.371,0.084,0.363,1.0,-0.135,0.296,0.239
5000,y1,-0.004,-0.079,-0.704,-0.486,-0.593,0.309,0.243,-0.15,-0.421,-0.08,-0.715,-0.005,-0.135,1.0,0.352,0.429
5000,y2,-0.247,-0.149,-0.386,-0.425,-0.532,0.271,0.37,0.086,-0.347,-0.492,-0.605,0.366,0.296,0.352,1.0,0.488
5000,y3,0.049,0.255,-0.48,-0.109,-0.268,-0.179,0.107,-0.338,-0.121,-0.22,-0.253,0.262,0.239,0.429,0.488,1.0
5500,.,1.0,-0.145,-0.125,-0.095,0.04,-0.275,-0.266,0.09,0.205,0.295,0.299,0.267,-0.29,0.006,-0.244,0.045
5500,A1_1,-0.145,1.0,0.048,-0.005,-0.096,-0.344,0.229,0.099,0.14,0.092,0.033,-0.606,-0.308,-0.095,-0.153,0.245
5500,A1_2,-0.125,0.048,1.0,0.368,0.317,-0.267,-0.426,0.168,-0.008,0.01,0.276,-0.24,-0.179,-0.709,-0.396,-0.489
5500,A1_3,-0.095,-0.005,0.368,1.0,0.706,-0.108,-0.559,-0.465,0.202,0.08,0.623,0.227,0.236,-0.497,-0.437,-0.109
5500,B1_1,0.04,-0.096,0.317,0.706,1.0,-0.237,-0.41,-0.014,0.692,0.519,0.704,0.208,0.187,-0.594,-0.54,-0.272
5500,B1_2,-0.275,-0.344,-0.267,-0.108,-0.237,1.0,0.078,-0.155,-0.315,-0.321,-0.46,0.18,0.062,0.304,0.275,-0.168
5500,B1_3,-0.266,0.229,-0.426,-0.559,-0.41,0.078,1.0,0.261,-0.01,-0.379,-0.24,-0.038,0.106,0.242,0.374,0.105
5500,A2_1,0.09,0.099,0.168,-0.465,-0.014,-0.155,0.261,1.0,0.266,0.116,-0.21,-0.333,-0.034,-0.158,0.076,-0.348
5500,A2_2,0.205,0.14,-0.008,0.202,0.692,-0.315,-0.01,0.266,1.0,0.537,0.565,0.023,0.105,-0.425,-0.352,-0.127
5500,A2_3,0.295,0.092,0.01,0.08,0.519,-0.321,-0.379,0.116,0.537,1.0,0.321,-0.212,-0.37,-0.083,-0.49,-0.219
5500,B2_1,0.299,0.033,0.276,0.623,0.704,-0.46,-0.24,-0.21,0.565,0.321,1.0,0.139,0.085,-0.711,-0.608,-0.257
5500,B2_2,0.267,-0.606,-0.24,0.227,0.208,0.18,-0.038,-0.333,0.023,-0.212,0.139,1.0,0.365,0.013,0.364,0.265
5500,B2_3,-0.29,-0.308,-0.179,0.236,0.187,0.062,0.106,-0.034,0.105,-0.37,0.085,0.365,1.0,-0.132,0.287,0.233
5500,y1,0.006,-0.095,-0.709,-0.497,-0.594,0.304,0.242,-0.158,-0.425,-0.083,-0.711,0.013,-0.132,1.0,0.377,0.447
5500,y2,-0.244,-0.153,-0.396,-0.437,-0.54,0.275,0.374,0.076,-0.352,-0.49,-0.608,0.364,0.287,0.377,1.0,0.499
5500,y3,0.045,0.245,-0.489,-0.109,-0.272,-0.168,0.105,-0.348,-0.127,-0.219,-0.257,0.265,0.233,0.447,0.499,1.0
6000,.,1.0,-0.148,-0.127,-0.099,0.036,-0.271,-0.273,0.086,0.197,0.293,0.292,0.264,-0.296,0.012,-0.236,0.043
6000,A1_1,-0.148,1.0,0.053,0.003,-0.093,-0.347,0.228,0.103,0.145,0.097,0.035,-0.609,-0.308,-0.105,-0.162,0.232
6000,A1_2,-0.127,0.053,1.0,0.374,0.317,-0.27,-0.425,0.177,-0.0,0.013,0.275,-0.243,-0.179,-0.72,-0.401,-0.495
6000,A1_3,-0.099,0.003,0.374,1.0,0.71,-0.113,-0.557,-0.459,0.207,0.08,0.627,0.225,0.237,-0.504,-0.449,-0.114
6000,B1_1,0.036,-0.093,0.317,0.71,1.0,-0.233,-0.407,-0.011,0.693,0.52,0.705,0.21,0.188,-0.592,-0.548,-0.278
6000,B1_2,-0.271,-0.347,-0.27,-0.113,-0.233,1.0,0.076,-0.161,-0.317,-0.323,-0.458,0.179,0.065,0.302,0.278,-0.162
6000,B1_3,-0.273,0.228,-0.425,-0.557,-0.407,0.076,1.0,0.261,-0.007,-0.374,-0.237,-0.039,0.11,0.244,0.373,0.105
6000,A2_1,0.086,0.103,0.177,-0.459,-0.011,-0.161,0.261,1.0,0.27,0.123,-0.205,-0.339,-0.035,-0.174,0.063,-0.356
6000,A2_2,0.197,0.145,-0.0,0.207,0.693,-0.317,-0.007,0.27,1.0,0.54,0.567,0.02,0.104,-0.424,-0.362,-0.137
6000,A2_3,0.293,0.097,0.013,0.08,0.52,-0.323,-0.374,0.123,0.54,1.0,0.323,-0.214,-0.371,-0.083,-0.489,-0.222
6000,B2_1,0.292,0.035,0.275,0.627,0.705,-0.458,-0.237,-0.205,0.567,0.323,1.0,0.141,0.087,-0.704,-0.611,-0.259
6000,B2_2,0.264,-0.609,-0.243,0.225,0.21,0.179,-0.039,-0.339,0.02,-0.214,0.141,1.0,0.367,0.029,0.364,0.267
6000,B2_3,-0.296,-0.308,-0.179,0.237,0.188,0.065,0.11,-0.035,0.104,-0.371,0.087,0.367,1.0,-0.128,0.278,0.227
6000,y1,0.012,-0.105,-0.72,-0.504,-0.592,0.302,0.244,-0.174,-0.424,-0.083,-0.704,0.029,-0.128,1.0,0.401,0.465
6000,y2,-0.236,-0.162,-0.401,-0.449,-0.548,0.278,0.373,0.063,-0.362,-0.489,-0.611,0.364,0.278,0.401,1.0,0.508
6000,y3,0.043,0.232,-0.495,-0.114,-0.278,-0.162,0.105,-0.356,-0.137,-0.222,-0.259,0.267,0.227,0.465,0.508,1.0
6500,.,1.0,-0.151,-0.127,-0.099,0.037,-0.269,-0.281,0.082,0.193,0.294,0.29,0.263,-0.298,0.015,-0.227,0.042
6500,A1_1,-0.151,1.0,0.059,0.008,-0.092,-0.349,0.228,0.109,0.149,0.101,0.036,-0.611,-0.309,-0.115,-0.168,0.223
6500,A1_2,-0.127,0.059,1.0,0.38,0.318,-0.271,-0.424,0.182,0.004,0.019,0.278,-0.246,-0.179,-0.728,-0.413,-0.499
6500,A1_3,-0.099,0.008,0.38,1.0,0.712,-0.118,-0.554,-0.453,0.21,0.082,0.629,0.222,0.236,-0.513,-0.46,-0.117
6500,B1_1,0.037,-0.092,0.318,0.712,1.0,-0.232,-0.404,-0.007,0.693,0.521,0.705,0.212,0.19,-0.588,-0.557,-0.279
6500,B1_2,-0.269,-0.349,-0.271,-0.118,-0.232,1.0,0.075,-0.164,-0.319,-0.327,-0.457,0.179,0.066,0.295,0.283,-0.156
6500,B1_3,-0.281,0.228,-0.424,-0.554,-0.404,0.075,1.0,0.261,-0.004,-0.371,-0.236,-0.041,0.112,0.248,0.372,0.099
6500,A2_1,0.082,0.109,0.182,-0.453,-0.007,-0.164,0.261,1.0,0.272,0.13,-0.201,-0.344,-0.038,-0.183,0.051,-0.366
6500,A2_2,0.193,0.149,0.004,0.21,0.693,-0.319,-0.004,0.272,1.0,0.542,0.569,0.018,0.103,-0.423,-0.368,-0.144
6500,A2_3,0.294,0.101,0.019,0.082,0.521,-0.327,-0.371,0.13,0.542,1.0,0.326,-0.216,-0.372,-0.083,-0.49,-0.221
6500,B2_1,0.29,0.036,0.278,0.629,0.705,-0.457,-0.236,-0.201,0.569,0.326,1.0,0.142,0.088,-0.697,-0.615,-0.261
6500,B2_2,0.263,-0.611,-0.246,0.222,0.212,0.179,-0.041,-0.344,0.018,-0.216,0.142,1.0,0.369,0.042,0.365,0.27
6500,B2_3,-0.298,-0.309,-0.179,0.236,0.19,0.066,0.112,-0.038,0.103,-0.372,0.088,0.369,1.0,-0.12,0.269,0.22
6500,y1,0.015,-0.115,-0.728,-0.513,-0.588,0.295,0.248,-0.183,-0.423,-0.083,-0.697,0.042,-0.12,1.0,0.427,0.478
6500,y2,-0.227,-0.168,-0.413,-0.46,-0.557,0.283,0.372,0.051,-0.368,-0.49,-0.615,0.365,0.269,0.427,1.0,0.517
6500,y3,0.042,0.223,-0.499,-0.117,-0.279,-0.156,0.099,-0.366,-0.144,-0.221,-0.261,0.27,0.22,0.478,0.517,1.0
7000,.,1.0,-0.154,-0.128,-0.102,0.037,-0.267,-0.285,0.081,0.19,0.295,0.287,0.262,-0.3,0.015,-0.22,0.039
7000,A1_1,-0.154,1.0,0.064,0.012,-0.091,-0.351,0.228,0.114,0.153,0.104,0.035,-0.612,-0.309,-0.12,-0.175,0.214
7000,A1_2,-0.128,0.064,1.0,0.386,0.317,-0.274,-0.423,0.188,0.009,0.024,0.279,-0.249,-0.179,-0.738,-0.419,-0.504
7000,A1_3,-0.102,0.012,0.386,1.0,0.715,-0.125,-0.553,-0.448,0.213,0.082,0.631,0.221,0.237,-0.52,-0.466,-0.121
7000,B1_1,0.037,-0.091,0.317,0.715,1.0,-0.231,-0.403,-0.004,0.694,0.524,0.706,0.212,0.191,-0.585,-0.56,-0.283
7000,B1_2,-0.267,-0.351,-0.274,-0.125,-0.231,1.0,0.074,-0.169,-0.321,-0.331,-0.456,0.179,0.067,0.29,0.285,-0.149
7000,B1_3,-0.285,0.228,-0.423,-0.553,-0.403,0.074,1.0,0.26,-0.001,-0.369,-0.235,-0.041,0.115,0.255,0.369,0.097
7000,A2_1,0.081,0.114,0.188,-0.448,-0.004,-0.169,0.26,1.0,0.276,0.136,-0.197,-0.348,-0.039,-0.194,0.04,-0.372
7000,A2_2,0.19,0.153,0.009,0.213,0.694,-0.321,-0.001,0.276,1.0,0.545,0.57,0.017,0.102,-0.419,-0.374,-0.15
7000,A2_3,0.295,0.104,0.024,0.082,0.524,-0.331,-0.369,0.136,0.545,1.0,0.328,-0.217,-0.373,-0.087,-0.491,-0.22
7000,B2_1,0.287,0.035,0.279,0.631,0.706,-0.456,-0.235,-0.197,0.57,0.328,1.0,0.142,0.088,-0.69,-0.616,-0.266
7000,B2_2,0.262,-0.612,-0.249,0.221,0.212,0.179,-0.041,-0.348,0.017,-0.217,0.142,1.0,0.37,0.051,0.367,0.272
7000,B2_3,-0.3,-0.309,-0.179,0.237,0.191,0.067,0.115,-0.039,0.102,-0.373,0.088,0.37,1.0,-0.113,0.262,0.216
7000,y1,0.015,-0.12,-0.738,-0.52,-0.585,0.29,0.255,-0.194,-0.419,-0.087,-0.69,0.051,-0.113,1.0,0.443,0.493
7000,y2,-0.22,-0.175,-0.419,-0.466,-0.56,0.285,0.369,0.04,-0.374,-0.491,-0.616,0.367,0.262,0.443,1.0,0.525
7000,y3,0.039,0.214,-0.504,-0.121,-0.283,-0.149,0.097,-0.372,-0.15,-0.22,-0.266,0.272,0.216,0.493,0.525,1.0
7500,.,1.0,-0.157,-0.129,-0.101,0.038,-0.265,-0.292,0.08,0.185,0.293,0.284,0.264,-0.3,0.024,-0.22,0.037
7500,A1_1,-0.157,1.0,0.068,0.017,-0.09,-0.352,0.227,0.117,0.157,0.109,0.035,-0.613,-0.309,-0.13,-0.179,0.209
7500,A1_2,-0.129,0.068,1.0,0.391,0.317,-0.276,-0.422,0.194,0.013,0.028,0.28,-0.252,-0.178,-0.746,-0.423,-0.509
7500,A1_3,-0.101,0.017,0.391,1.0,0.717,-0.13,-0.55,-0.443,0.217,0.085,0.634,0.216,0.235,-0.528,-0.473,-0.129
7500,B1_1,0.038,-0.09,0.317,0.717,1.0,-0.231,-0.4,-0.003,0.694,0.526,0.706,0.213,0.192,-0.583,-0.563,-0.287
7500,B1_2,-0.265,-0.352,-0.276,-0.13,-0.231,1.0,0.073,-0.173,-0.323,-0.335,-0.456,0.179,0.068,0.287,0.286,-0.142
7500,B1_3,-0.292,0.227,-0.422,-0.55,-0.4,0.073,1.0,0.259,0.002,-0.363,-0.234,-0.042,0.118,0.257,0.369,0.096
7500,A2_1,0.08,0.117,0.194,-0.443,-0.003,-0.173,0.259,1.0,0.278,0.139,-0.194,-0.35,-0.039,-0.206,0.035,-0.376
7500,A2_2,0.185,0.157,0.013,0.217,0.694,-0.323,0.002,0.278,1.0,0.546,0.571,0.015,0.101,-0.421,-0.378,-0.153
7500,A2_3,0.293,0.109,0.028,0.085,0.526,-0.335,-0.363,0.139,0.546,1.0,0.331,-0.219,-0.375,-0.087,-0.491,-0.221
7500,B2_1,0.284,0.035,0.28,0.634,0.706,-0.456,-0.234,-0.194,0.571,0.331,1.0,0.143,0.089,-0.682,-0.62,-0.271
7500,B2_2,0.264,-0.613,-0.252,0.216,0.213,0.179,-0.042,-0.35,0.015,-0.219,0.143,1.0,0.372,0.069,0.365,0.27
7500,B2_3,-0.3,-0.309,-0.178,0.235,0.192,0.068,0.118,-0.039,0.101,-0.375,0.089,0.372,1.0,-0.112,0.262,0.211
7500,y1,0.024,-0.13,-0.746,-0.528,-0.583,0.287,0.257,-0.206,-0.421,-0.087,-0.682,0.069,-0.112,1.0,0.463,0.507
7500,y2,-0.22,-0.179,-0.423,-0.473,-0.563,0.286,0.369,0.035,-0.378,-0.491,-0.62,0.365,0.262,0.463,1.0,0.533
7500,y3,0.037,0.209,-0.509,-0.129,-0.287,-0.142,0.096,-0.376,-0.153,-0.221,-0.271,0.27,0.211,0.507,0.533,1.0
8000,.,1.0,-0.158,-0.129,-0.103,0.039,-0.266,-0.298,0.082,0.184,0.296,0.283,0.262,-0.302,0.022,-0.216,0.032
8000,A1_1,-0.158,1.0,0.073,0.019,-0.09,-0.355,0.226,0.123,0.161,0.111,0.033,-0.614,-0.309,-0.133,-0.186,0.205
8000,A1_2,-0.129,0.073,1.0,0.397,0.318,-0.277,-0.421,0.199,0.017,0.031,0.282,-0.255,-0.179,-0.752,-0.428,-0.515
8000,A1_3,-0.103,0.019,0.397,1.0,0.718,-0.134,-0.548,-0.438,0.219,0.086,0.636,0.214,0.235,-0.532,-0.477,-0.135
8000,B1_1,0.039,-0.09,0.318,0.718,1.0,-0.229,-0.399,-0.001,0.694,0.527,0.706,0.214,0.193,-0.579,-0.564,-0.291
8000,B1_2,-0.266,-0.355,-0.277,-0.134,-0.229,1.0,0.073,-0.178,-0.324,-0.338,-0.455,0.179,0.069,0.283,0.288,-0.136
8000,B1_3,-0.298,0.226,-0.421,-0.548,-0.399,0.073,1.0,0.257,0.005,-0.36,-0.233,-0.043,0.12,0.262,0.363,0.098
8000,A2_1,0.082,0.123,0.199,-0.438,-0.001,-0.178,0.257,1.0,0.281,0.144,-0.19,-0.355,-0.041,-0.214,0.023,-0.383
8000,A2_2,0.184,0.161,0.017,0.219,0.694,-0.324,0.005,0.281,1.0,0.548,0.571,0.014,0.1,-0.417,-0.382,-0.156
8000,A2_3,0.296,0.111,0.031,0.086,0.527,-0.338,-0.36,0.144,0.548,1.0,0.332,-0.22,-0.375,-0.088,-0.488,-0.223
8000,B2_1,0.283,0.033,0.282,0.636,0.706,-0.455,-0.233,-0.19,0.571,0.332,1.0,0.144,0.089,-0.678,-0.622,-0.273
8000,B2_2,0.262,-0.614,-0.255,0.214,0.214,0.179,-0.043,-0.355,0.014,-0.22,0.144,1.0,0.373,0.079,0.367,0.27
8000,B2_3,-0.302,-0.309,-0.179,0.235,0.193,0.069,0.12,-0.041,0.1,-0.375,0.089,0.373,1.0,-0.106,0.255,0.205
8000,y1,0.022,-0.133,-0.752,-0.532,-0.579,0.283,0.262,-0.214,-0.417,-0.088,-0.678,0.079,-0.106,1.0,0.479,0.519
8000,y2,-0.216,-0.186,-0.428,-0.477,-0.564,0.288,0.363,0.023,-0.382,-0.488,-0.622,0.367,0.255,0.479,1.0,0.541
8000,y3,0.032,0.205,-0.515,-0.135,-0.291,-0.136,0.098,-0.383,-0.156,-0.223,-0.273,0.27,0.205,0.519,0.541,1.0
8500,.,1.0,-0.162,-0.128,-0.104,0.04,-0.266,-0.302,0.081,0.182,0.297,0.282,0.261,-0.305,0.02,-0.213,0.028
8500,A1_1,-0.162,1.0,0.078,0.023,-0.087,-0.355,0.226,0.125,0.165,0.115,0.034,-0.616,-0.31,-0.138,-0.192,0.194
8500,A1_2,-0.128,0.078,1.0,0.402,0.32,-0.277,-0.42,0.204,0.021,0.036,0.284,-0.257,-0.179,-0.759,-0.434,-0.521
8500,A1_3,-0.104,0.023,0.402,1.0,0.721,-0.139,-0.548,-0.435,0.221,0.088,0.639,0.211,0.235,-0.537,-0.487,-0.143
8500,B1_1,0.04,-0.087,0.32,0.721,1.0,-0.228,-0.398,0.0,0.694,0.528,0.706,0.215,0.193,-0.574,-0.568,-0.295
8500,B1_2,-0.266,-0.355,-0.277,-0.139,-0.228,1.0,0.073,-0.181,-0.326,-0.342,-0.454,0.179,0.07,0.28,0.289,-0.13
8500,B1_3,-0.302,0.226,-0.42,-0.548,-0.398,0.073,1.0,0.257,0.007,-0.357,-0.233,-0.044,0.121,0.269,0.366,0.097
8500,A2_1,0.081,0.125,0.204,-0.435,0.0,-0.181,0.257,1.0,0.283,0.147,-0.188,-0.356,-0.041,-0.221,0.018,-0.386
8500,A2_2,0.182,0.165,0.021,0.221,0.694,-0.326,0.007,0.283,1.0,0.549,0.572,0.012,0.099,-0.411,-0.385,-0.163
8500,A2_3,0.297,0.115,0.036,0.088,0.528,-0.342,-0.357,0.147,0.549,1.0,0.334,-0.221,-0.376,-0.087,-0.487,-0.222
8500,B2_1,0.282,0.034,0.284,0.639,0.706,-0.454,-0.233,-0.188,0.572,0.334,1.0,0.145,0.089,-0.671,-0.623,-0.279
8500,B2_2,0.261,-0.616,-0.257,0.211,0.215,0.179,-0.044,-0.356,0.012,-0.221,0.145,1.0,0.373,0.09,0.367,0.271
8500,B2_3,-0.305,-0.31,-0.179,0.235,0.193,0.07,0.121,-0.041,0.099,-0.376,0.089,0.373,1.0,-0.1,0.25,0.202
8500,y1,0.02,-0.138,-0.759,-0.537,-0.574,0.28,0.269,-0.221,-0.411,-0.087,-0.671,0.09,-0.1,1.0,0.494,0.532
8500,y2,-0.213,-0.192,-0.434,-0.487,-0.568,0.289,0.366,0.018,-0.385,-0.487,-0.623,0.367,0.25,0.494,1.0,0.547
8500,y3,0.028,0.194,-0.521,-0.143,-0.295,-0.13,0.097,-0.386,-0.163,-0.222,-0.279,0.271,0.202,0.532,0.547,1.0
9000,.,1.0,-0.165,-0.126,-0.105,0.042,-0.267,-0.308,0.08,0.18,0.3,0.28,0.26,-0.307,0.021,-0.213,0.023
9000,A1_1,-0.165,1.0,0.082,0.028,-0.085,-0.357,0.225,0.13,0.169,0.12,0.035,-0.617,-0.31,-0.148,-0.195,0.192
9000,A1_2,-0.126,0.082,1.0,0.406,0.32,-0.279,-0.419,0.208,0.024,0.039,0.285,-0.258,-0.179,-0.759,-0.442,-0.524
9000,A1_3,-0.105,0.028,0.406,1.0,0.722,-0.143,-0.546,-0.429,0.224,0.089,0.641,0.207,0.234,-0.542,-0.49,-0.147
9000,B1_1,0.042,-0.085,0.32,0.722,1.0,-0.228,-0.397,0.003,0.694,0.529,0.707,0.216,0.194,-0.571,-0.568,-0.297
9000,B1_2,-0.267,-0.357,-0.279,-0.143,-0.228,1.0,0.073,-0.184,-0.327,-0.345,-0.454,0.179,0.07,0.272,0.292,-0.123
9000,B1_3,-0.308,0.225,-0.419,-0.546,-0.397,0.073,1.0,0.257,0.007,-0.355,-0.232,-0.044,0.122,0.272,0.366,0.095
9000,A2_1,0.08,0.13,0.208,-0.429,0.003,-0.184,0.257,1.0,0.284,0.152,-0.185,-0.359,-0.042,-0.225,0.008,-0.392
9000,A2_2,0.18,0.169,0.024,0.224,0.694,-0.327,0.007,0.284,1.0,0.552,0.573,0.01,0.098,-0.412,-0.388,-0.164
9000,A2_3,0.3,0.12,0.039,0.089,0.529,-0.345,-0.355,0.152,0.552,1.0,0.335,-0.222,-0.377,-0.091,-0.484,-0.221
9000,B2_1,0.28,0.035,0.285,0.641,0.707,-0.454,-0.232,-0.185,0.573,0.335,1.0,0.146,0.09,-0.67,-0.62,-0.282
9000,B2_2,0.26,-0.617,-0.258,0.207,0.216,0.179,-0.044,-0.359,0.01,-0.222,0.146,1.0,0.374,0.104,0.365,0.267
9000,B2_3,-0.307,-0.31,-0.179,0.234,0.194,0.07,0.122,-0.042,0.098,-0.377,0.09,0.374,1.0,-0.093,0.246,0.198
9000,y1,0.021,-0.148,-0.759,-0.542,-0.571,0.272,0.272,-0.225,-0.412,-0.091,-0.67,0.104,-0.093,1.0,0.508,0.542
9000,y2,-0.213,-0.195,-0.442,-0.49,-0.568,0.292,0.366,0.008,-0.388,-0.484,-0.62,0.365,0.246,0.508,1.0,0.551
9000,y3,0.023,0.192,-0.524,-0.147,-0.297,-0.123,0.095,-0.392,-0.164,-0.221,-0.282,0.267,0.198,0.542,0.551,1.0
9500,.,1.0,-0.174,-0.123,-0.108,0.044,-0.266,-0.316,0.078,0.176,0.303,0.276,0.263,-0.309,0.022,-0.211,0.012
9500,A1_1,-0.174,1.0,0.086,0.034,-0.083,-0.358,0.225,0.134,0.173,0.124,0.037,-0.619,-0.311,-0.15,-0.199,0.186
9500,A1_2,-0.123,0.086,1.0,0.41,0.32,-0.28,-0.418,0.212,0.027,0.04,0.286,-0.259,-0.179,-0.765,-0.444,-0.53
9500,A1_3,-0.108,0.034,0.41,1.0,0.723,-0.146,-0.544,-0.424,0.226,0.09,0.643,0.205,0.233,-0.545,-0.494,-0.151
9500,B1_1,0.044,-0.083,0.32,0.723,1.0,-0.226,-0.396,0.005,0.694,0.53,0.707,0.217,0.195,-0.566,-0.57,-0.3
9500,B1_2,-0.266,-0.358,-0.28,-0.146,-0.226,1.0,0.073,-0.187,-0.328,-0.348,-0.453,0.179,0.072,0.269,0.293,-0.117
9500,B1_3,-0.316,0.225,-0.418,-0.544,-0.396,0.073,1.0,0.256,0.009,-0.351,-0.232,-0.044,0.124,0.277,0.362,0.102
9500,A2_1,0.078,0.134,0.212,-0.424,0.005,-0.187,0.256,1.0,0.286,0.157,-0.182,-0.362,-0.043,-0.23,0.003,-0.395
9500,A2_2,0.176,0.173,0.027,0.226,0.694,-0.328,0.009,0.286,1.0,0.554,0.574,0.008,0.098,-0.404,-0.393,-0.17
9500,A2_3,0.303,0.124,0.04,0.09,0.53,-0.348,-0.351,0.157,0.554,1.0,0.336,-0.224,-0.379,-0.091,-0.483,-0.225
9500,B2_1,0.276,0.037,0.286,0.643,0.707,-0.453,-0.232,-0.182,0.574,0.336,1.0,0.148,0.09,-0.666,-0.622,-0.286
9500,B2_2,0.263,-0.619,-0.259,0.205,0.217,0.179,-0.044,-0.362,0.008,-0.224,0.148,1.0,0.376,0.11,0.362,0.265
9500,B2_3,-0.309,-0.311,-0.179,0.233,0.195,0.072,0.124,-0.043,0.098,-0.379,0.09,0.376,1.0,-0.086,0.243,0.199
9500,y1,0.022,-0.15,-0.765,-0.545,-0.566,0.269,0.277,-0.23,-0.404,-0.091,-0.666,0.11,-0.086,1.0,0.518,0.552
9500,y2,-0.211,-0.199,-0.444,-0.494,-0.57,0.293,0.362,0.003,-0.393,-0.483,-0.622,0.362,0.243,0.518,1.0,0.558
9500,y3,0.012,0.186,-0.53,-0.151,-0.3,-0.117,0.102,-0.395,-0.17,-0.225,-0.286,0.265,0.199,0.552,0.558,1.0
10000,.,1.0,-0.179,-0.119,-0.109,0.046,-0.267,-0.324,0.081,0.175,0.308,0.274,0.261,-0.312,0.022,-0.213,0.001
10000,A1_1,-0.179,1.0,0.09,0.038,-0.082,-0.358,0.224,0.135,0.175,0.128,0.037,-0.621,-0.312,-0.155,-0.202,0.186
10000,A1_2,-0.119,0.09,1.0,0.415,0.32,-0.281,-0.418,0.215,0.031,0.043,0.288,-0.262,-0.179,-0.772,-0.45,-0.531
10000,A1_3,-0.109,0.038,0.415,1.0,0.724,-0.149,-0.541,-0.421,0.228,0.091,0.645,0.203,0.232,-0.545,-0.499,-0.155
10000,B1_1,0.046,-0.082,0.32,0.724,1.0,-0.226,-0.394,0.004,0.695,0.53,0.707,0.218,0.196,-0.562,-0.572,-0.301
10000,B1_2,-0.267,-0.358,-0.281,-0.149,-0.226,1.0,0.073,-0.189,-0.33,-0.35,-0.452,0.18,0.073,0.264,0.294,-0.114
10000,B1_3,-0.324,0.224,-0.418,-0.541,-0.394,0.073,1.0,0.256,0.012,-0.349,-0.231,-0.044,0.125,0.282,0.362,0.103
10000,A2_1,0.081,0.135,0.215,-0.421,0.004,-0.189,0.256,1.0,0.287,0.157,-0.182,-0.362,-0.044,-0.232,-0.003,-0.395
10000,A2_2,0.175,0.175,0.031,0.228,0.695,-0.33,0.012,0.287,1.0,0.555,0.574,0.007,0.097,-0.407,-0.398,-0.166
10000,A2_3,0.308,0.128,0.043,0.091,0.53,-0.35,-0.349,0.157,0.555,1.0,0.338,-0.226,-0.379,-0.097,-0.483,-0.226
10000,B2_1,0.274,0.037,0.288,0.645,0.707,-0.452,-0.231,-0.182,0.574,0.338,1.0,0.15,0.091,-0.661,-0.624,-0.289
10000,B2_2,0.261,-0.621,-0.262,0.203,0.218,0.18,-0.044,-0.362,0.007,-0.226,0.15,1.0,0.377,0.122,0.358,0.258
10000,B2_3,-0.312,-0.312,-0.179,0.232,0.196,0.073,0.125,-0.044,0.097,-0.379,0.091,0.377,1.0,-0.076,0.241,0.197
10000,y1,0.022,-0.155,-0.772,-0.545,-0.562,0.264,0.282,-0.232,-0.407,-0.097,-0.661,0.122,-0.076,1.0,0.532,0.556
10000,y2,-0.213,-0.202,-0.45,-0.499,-0.572,0.294,0.362,-0.003,-0.398,-0.483,-0.624,0.358,0.241,0.532,1.0,0.564
10000,y3,0.001,0.186,-0.531,-0.155,-0.301,-0.114,0.103,-0.395,-0.166,-0.226,-0.289,0.258,0.197,0.556,0.564,1.0
