,,.,A1_1,A1_2,A1_3,B1_1,B1_2,B1_3,A2_1,A2_2,A2_3,B2_1,B2_2,B2_3,y1,y2,y3
0,.,1.0,-0.14,0.12,-0.245,-0.056,0.477,0.134,-0.437,-0.235,0.159,0.314,-0.507,0.254,0.105,0.091,-0.136
0,A1_1,-0.14,1.0,0.269,-0.031,0.148,-0.093,0.08,0.254,-0.233,0.727,-0.113,0.053,-0.149,-0.05,-0.347,-0.225
0,A1_2,0.12,0.269,1.0,-0.453,-0.219,0.03,0.062,-0.204,-0.218,0.417,-0.239,0.423,-0.17,-0.098,-0.348,-0.207
0,A1_3,-0.245,-0.031,-0.453,1.0,0.092,-0.308,0.137,-0.3,0.11,-0.508,0.107,-0.476,-0.073,0.319,0.308,-0.194
0,B1_1,-0.056,0.148,-0.219,0.092,1.0,0.103,-0.335,0.238,-0.55,0.209,-0.31,-0.205,-0.008,-0.287,-0.364,-0.227
0,B1_2,0.477,-0.093,0.03,-0.308,0.103,1.0,0.114,-0.152,-0.291,0.044,0.387,-0.078,-0.129,0.126,0.407,-0.348
0,B1_3,0.134,0.08,0.062,0.137,-0.335,0.114,1.0,0.061,-0.266,0.041,0.373,-0.364,0.456,-0.047,0.103,0.27
0,A2_1,-0.437,0.254,-0.204,-0.3,0.238,-0.152,0.061,1.0,-0.154,0.2,0.09,0.357,0.066,-0.631,-0.477,0.247
0,A2_2,-0.235,-0.233,-0.218,0.11,-0.55,-0.291,-0.266,-0.154,1.0,-0.355,0.132,0.076,-0.367,0.171,0.29,-0.024
0,A2_3,0.159,0.727,0.417,-0.508,0.209,0.044,0.041,0.2,-0.355,1.0,-0.141,0.004,-0.027,-0.032,-0.339,-0.115
0,B2_1,0.314,-0.113,-0.239,0.107,-0.31,0.387,0.373,0.09,0.132,-0.141,1.0,-0.278,-0.324,0.252,0.459,-0.389
0,B2_2,-0.507,0.053,0.423,-0.476,-0.205,-0.078,-0.364,0.357,0.076,0.004,-0.278,1.0,-0.278,-0.165,-0.233,0.122
0,B2_3,0.254,-0.149,-0.17,-0.073,-0.008,-0.129,0.456,0.066,-0.367,-0.027,-0.324,-0.278,1.0,-0.314,-0.251,0.829
0,y1,0.105,-0.05,-0.098,0.319,-0.287,0.126,-0.047,-0.631,0.171,-0.032,0.252,-0.165,-0.314,1.0,0.733,-0.243
0,y2,0.091,-0.347,-0.348,0.308,-0.364,0.407,0.103,-0.477,0.29,-0.339,0.459,-0.233,-0.251,0.733,1.0,-0.229
0,y3,-0.136,-0.225,-0.207,-0.194,-0.227,-0.348,0.27,0.247,-0.024,-0.115,-0.389,0.122,0.829,-0.243,-0.229,1.0
500,.,1.0,-0.19,0.164,0.056,0.082,0.135,-0.174,-0.475,-0.425,-0.076,-0.074,-0.458,0.117,-0.14,-0.106,-0.289
500,A1_1,-0.19,1.0,0.364,0.109,0.104,-0.107,0.067,0.332,-0.199,0.766,-0.103,0.088,-0.178,-0.092,-0.39,-0.213
500,A1_2,0.164,0.364,1.0,-0.357,-0.317,-0.056,0.005,-0.067,-0.224,0.475,-0.268,0.365,-0.322,-0.04,-0.269,-0.097
500,A1_3,0.056,0.109,-0.357,1.0,0.056,-0.309,0.173,-0.197,0.028,-0.393,0.113,-0.428,-0.082,0.151,0.125,-0.206
500,B1_1,0.082,0.104,-0.317,0.056,1.0,0.17,-0.223,0.223,-0.547,0.166,-0.166,-0.19,0.095,-0.349,-0.358,-0.264
500,B1_2,0.135,-0.107,-0.056,-0.309,0.17,1.0,0.199,-0.122,-0.303,0.021,0.467,-0.079,0.009,0.095,0.388,-0.297
500,B1_3,-0.174,0.067,0.005,0.173,-0.223,0.199,1.0,0.089,-0.228,0.05,0.429,-0.436,0.488,0.061,0.203,0.313
500,A2_1,-0.475,0.332,-0.067,-0.197,0.223,-0.122,0.089,1.0,-0.098,0.285,0.082,0.479,0.058,-0.566,-0.503,0.116
500,A2_2,-0.425,-0.199,-0.224,0.028,-0.547,-0.303,-0.228,-0.098,1.0,-0.379,0.179,0.27,-0.321,0.179,0.231,0.0
500,A2_3,-0.076,0.766,0.475,-0.393,0.166,0.021,0.05,0.285,-0.379,1.0,-0.142,0.04,-0.041,0.02,-0.283,-0.065
500,B2_1,-0.074,-0.103,-0.268,0.113,-0.166,0.467,0.429,0.082,0.179,-0.142,1.0,-0.244,-0.19,0.207,0.358,-0.428
500,B2_2,-0.458,0.088,0.365,-0.428,-0.19,-0.079,-0.436,0.479,0.27,0.04,-0.244,1.0,-0.454,-0.205,-0.228,0.048
500,B2_3,0.117,-0.178,-0.322,-0.082,0.095,0.009,0.488,0.058,-0.321,-0.041,-0.19,-0.454,1.0,-0.237,-0.123,0.742
500,y1,-0.14,-0.092,-0.04,0.151,-0.349,0.095,0.061,-0.566,0.179,0.02,0.207,-0.205,-0.237,1.0,0.766,0.021
500,y2,-0.106,-0.39,-0.269,0.125,-0.358,0.388,0.203,-0.503,0.231,-0.283,0.358,-0.228,-0.123,0.766,1.0,-0.004
500,y3,-0.289,-0.213,-0.097,-0.206,-0.264,-0.297,0.313,0.116,0.0,-0.065,-0.428,0.048,0.742,0.021,-0.004,1.0
1000,.,1.0,-0.18,0.147,0.054,0.122,0.12,-0.207,-0.437,-0.463,-0.077,-0.112,-0.44,0.108,-0.226,-0.146,-0.318
1000,A1_1,-0.18,1.0,0.376,0.138,0.09,-0.116,0.061,0.347,-0.163,0.773,-0.103,0.09,-0.191,-0.119,-0.36,-0.175
1000,A1_2,0.147,0.376,1.0,-0.333,-0.333,-0.067,0.003,-0.039,-0.201,0.49,-0.265,0.359,-0.341,-0.051,-0.27,-0.093
1000,A1_3,0.054,0.138,-0.333,1.0,0.038,-0.31,0.178,-0.171,0.031,-0.362,0.121,-0.409,-0.105,0.119,0.129,-0.216
1000,B1_1,0.122,0.09,-0.333,0.038,1.0,0.172,-0.214,0.223,-0.565,0.154,-0.151,-0.183,0.111,-0.378,-0.341,-0.256
1000,B1_2,0.12,-0.116,-0.067,-0.31,0.172,1.0,0.205,-0.122,-0.32,0.012,0.476,-0.075,0.028,0.146,0.332,-0.303
1000,B1_3,-0.207,0.061,0.003,0.178,-0.214,0.205,1.0,0.087,-0.222,0.044,0.436,-0.437,0.488,0.107,0.172,0.276
1000,A2_1,-0.437,0.347,-0.039,-0.171,0.223,-0.122,0.087,1.0,-0.067,0.301,0.079,0.49,0.048,-0.526,-0.525,0.104
1000,A2_2,-0.463,-0.163,-0.201,0.031,-0.565,-0.32,-0.222,-0.067,1.0,-0.358,0.187,0.303,-0.332,0.204,0.214,0.027
1000,A2_3,-0.077,0.773,0.49,-0.362,0.154,0.012,0.044,0.301,-0.358,1.0,-0.144,0.045,-0.055,0.0,-0.243,-0.045
1000,B2_1,-0.112,-0.103,-0.265,0.121,-0.151,0.476,0.436,0.079,0.187,-0.144,1.0,-0.244,-0.171,0.258,0.297,-0.465
1000,B2_2,-0.44,0.09,0.359,-0.409,-0.183,-0.075,-0.437,0.49,0.303,0.045,-0.244,1.0,-0.453,-0.187,-0.252,0.07
1000,B2_3,0.108,-0.191,-0.341,-0.105,0.111,0.028,0.488,0.048,-0.332,-0.055,-0.171,-0.453,1.0,-0.222,-0.112,0.717
1000,y1,-0.226,-0.119,-0.051,0.119,-0.378,0.146,0.107,-0.526,0.204,0.0,0.258,-0.187,-0.222,1.0,0.821,0.042
1000,y2,-0.146,-0.36,-0.27,0.129,-0.341,0.332,0.172,-0.525,0.214,-0.243,0.297,-0.252,-0.112,0.821,1.0,0.018
1000,y3,-0.318,-0.175,-0.093,-0.216,-0.256,-0.303,0.276,0.104,0.027,-0.045,-0.465,0.07,0.717,0.042,0.018,1.0
1500,.,1.0,-0.177,0.136,0.054,0.138,0.114,-0.22,-0.42,-0.484,-0.081,-0.132,-0.433,0.108,-0.263,-0.154,-0.35
1500,A1_1,-0.177,1.0,0.382,0.153,0.079,-0.126,0.053,0.359,-0.132,0.778,-0.102,0.089,-0.195,-0.118,-0.346,-0.16
1500,A1_2,0.136,0.382,1.0,-0.319,-0.347,-0.08,-0.004,-0.021,-0.175,0.497,-0.264,0.352,-0.351,-0.053,-0.273,-0.091
1500,A1_3,0.054,0.153,-0.319,1.0,0.028,-0.313,0.175,-0.155,0.041,-0.343,0.124,-0.404,-0.119,0.113,0.148,-0.248
1500,B1_1,0.138,0.079,-0.347,0.028,1.0,0.171,-0.206,0.224,-0.576,0.144,-0.139,-0.175,0.12,-0.385,-0.334,-0.253
1500,B1_2,0.114,-0.126,-0.08,-0.313,0.171,1.0,0.212,-0.123,-0.333,0.003,0.484,-0.069,0.039,0.183,0.31,-0.289
1500,B1_3,-0.22,0.053,-0.004,0.175,-0.206,0.212,1.0,0.084,-0.218,0.038,0.444,-0.44,0.49,0.123,0.177,0.255
1500,A2_1,-0.42,0.359,-0.021,-0.155,0.224,-0.123,0.084,1.0,-0.041,0.313,0.077,0.496,0.042,-0.509,-0.54,0.121
1500,A2_2,-0.484,-0.132,-0.175,0.041,-0.576,-0.333,-0.218,-0.041,1.0,-0.336,0.191,0.328,-0.346,0.209,0.182,0.053
1500,A2_3,-0.081,0.778,0.497,-0.343,0.144,0.003,0.038,0.313,-0.336,1.0,-0.145,0.046,-0.062,-0.008,-0.235,-0.033
1500,B2_1,-0.132,-0.102,-0.264,0.124,-0.139,0.484,0.444,0.077,0.191,-0.145,1.0,-0.241,-0.16,0.281,0.268,-0.47
1500,B2_2,-0.433,0.089,0.352,-0.404,-0.175,-0.069,-0.44,0.496,0.328,0.046,-0.241,1.0,-0.45,-0.179,-0.279,0.107
1500,B2_3,0.108,-0.195,-0.351,-0.119,0.12,0.039,0.49,0.042,-0.346,-0.062,-0.16,-0.45,1.0,-0.222,-0.088,0.695
1500,y1,-0.263,-0.118,-0.053,0.113,-0.385,0.183,0.123,-0.509,0.209,-0.008,0.281,-0.179,-0.222,1.0,0.841,0.03
1500,y2,-0.154,-0.346,-0.273,0.148,-0.334,0.31,0.177,-0.54,0.182,-0.235,0.268,-0.279,-0.088,0.841,1.0,0.041
1500,y3,-0.35,-0.16,-0.091,-0.248,-0.253,-0.289,0.255,0.121,0.053,-0.033,-0.47,0.107,0.695,0.03,0.041,1.0
2000,.,1.0,-0.183,0.126,0.049,0.143,0.114,-0.225,-0.405,-0.494,-0.091,-0.138,-0.426,0.112,-0.277,-0.168,-0.356
2000,A1_1,-0.183,1.0,0.387,0.165,0.07,-0.134,0.047,0.369,-0.113,0.782,-0.099,0.087,-0.198,-0.104,-0.342,-0.148
2000,A1_2,0.126,0.387,1.0,-0.309,-0.361,-0.092,-0.006,-0.005,-0.16,0.502,-0.26,0.347,-0.355,-0.062,-0.278,-0.095
2000,A1_3,0.049,0.165,-0.309,1.0,0.02,-0.316,0.176,-0.142,0.049,-0.329,0.127,-0.401,-0.125,0.12,0.146,-0.263
2000,B1_1,0.143,0.07,-0.361,0.02,1.0,0.172,-0.2,0.224,-0.579,0.136,-0.13,-0.171,0.125,-0.384,-0.332,-0.248
2000,B1_2,0.114,-0.134,-0.092,-0.316,0.172,1.0,0.216,-0.123,-0.341,-0.004,0.489,-0.067,0.045,0.205,0.308,-0.253
2000,B1_3,-0.225,0.047,-0.006,0.176,-0.2,0.216,1.0,0.081,-0.214,0.033,0.449,-0.442,0.492,0.127,0.189,0.246
2000,A2_1,-0.405,0.369,-0.005,-0.142,0.224,-0.123,0.081,1.0,-0.025,0.323,0.077,0.498,0.038,-0.502,-0.54,0.124
2000,A2_2,-0.494,-0.113,-0.16,0.049,-0.579,-0.341,-0.214,-0.025,1.0,-0.321,0.192,0.339,-0.354,0.208,0.165,0.053
2000,A2_3,-0.091,0.782,0.502,-0.329,0.136,-0.004,0.033,0.323,-0.321,1.0,-0.144,0.046,-0.066,-0.008,-0.231,-0.028
2000,B2_1,-0.138,-0.099,-0.26,0.127,-0.13,0.489,0.449,0.077,0.192,-0.144,1.0,-0.241,-0.155,0.29,0.26,-0.466
2000,B2_2,-0.426,0.087,0.347,-0.401,-0.171,-0.067,-0.442,0.498,0.339,0.046,-0.241,1.0,-0.446,-0.182,-0.288,0.128
2000,B2_3,0.112,-0.198,-0.355,-0.125,0.125,0.045,0.492,0.038,-0.354,-0.066,-0.155,-0.446,1.0,-0.217,-0.069,0.691
2000,y1,-0.277,-0.104,-0.062,0.12,-0.384,0.205,0.127,-0.502,0.208,-0.008,0.29,-0.182,-0.217,1.0,0.845,0.028
2000,y2,-0.168,-0.342,-0.278,0.146,-0.332,0.308,0.189,-0.54,0.165,-0.231,0.26,-0.288,-0.069,0.845,1.0,0.063
2000,y3,-0.356,-0.148,-0.095,-0.263,-0.248,-0.253,0.246,0.124,0.053,-0.028,-0.466,0.128,0.691,0.028,0.063,1.0
2500,.,1.0,-0.191,0.119,0.045,0.144,0.116,-0.223,-0.398,-0.499,-0.102,-0.136,-0.422,0.115,-0.281,-0.169,-0.363
2500,A1_1,-0.191,1.0,0.389,0.175,0.063,-0.14,0.044,0.38,-0.099,0.783,-0.095,0.085,-0.198,-0.093,-0.325,-0.145
2500,A1_2,0.119,0.389,1.0,-0.299,-0.37,-0.102,-0.007,0.008,-0.149,0.505,-0.255,0.343,-0.356,-0.07,-0.281,-0.107
2500,A1_3,0.045,0.175,-0.299,1.0,0.014,-0.32,0.175,-0.132,0.057,-0.318,0.13,-0.398,-0.133,0.125,0.144,-0.275
2500,B1_1,0.144,0.063,-0.37,0.014,1.0,0.17,-0.196,0.226,-0.58,0.131,-0.124,-0.167,0.129,-0.38,-0.338,-0.243
2500,B1_2,0.116,-0.14,-0.102,-0.32,0.17,1.0,0.219,-0.123,-0.348,-0.009,0.493,-0.065,0.049,0.22,0.328,-0.216
2500,B1_3,-0.223,0.044,-0.007,0.175,-0.196,0.219,1.0,0.079,-0.211,0.03,0.453,-0.443,0.493,0.123,0.196,0.246
2500,A2_1,-0.398,0.38,0.008,-0.132,0.226,-0.123,0.079,1.0,-0.014,0.332,0.078,0.5,0.033,-0.497,-0.535,0.128
2500,A2_2,-0.499,-0.099,-0.149,0.057,-0.58,-0.348,-0.211,-0.014,1.0,-0.31,0.193,0.344,-0.36,0.204,0.151,0.053
2500,A2_3,-0.102,0.783,0.505,-0.318,0.131,-0.009,0.03,0.332,-0.31,1.0,-0.142,0.046,-0.067,-0.004,-0.222,-0.032
2500,B2_1,-0.136,-0.095,-0.255,0.13,-0.124,0.493,0.453,0.078,0.193,-0.142,1.0,-0.241,-0.152,0.289,0.262,-0.448
2500,B2_2,-0.422,0.085,0.343,-0.398,-0.167,-0.065,-0.443,0.5,0.344,0.046,-0.241,1.0,-0.443,-0.187,-0.29,0.141
2500,B2_3,0.115,-0.198,-0.356,-0.133,0.129,0.049,0.493,0.033,-0.36,-0.067,-0.152,-0.443,1.0,-0.211,-0.054,0.692
2500,y1,-0.281,-0.093,-0.07,0.125,-0.38,0.22,0.123,-0.497,0.204,-0.004,0.289,-0.187,-0.211,1.0,0.848,0.035
2500,y2,-0.169,-0.325,-0.281,0.144,-0.338,0.328,0.196,-0.535,0.151,-0.222,0.262,-0.29,-0.054,0.848,1.0,0.08
2500,y3,-0.363,-0.145,-0.107,-0.275,-0.243,-0.216,0.246,0.128,0.053,-0.032,-0.448,0.141,0.692,0.035,0.08,1.0
3000,.,1.0,-0.199,0.116,0.044,0.145,0.113,-0.223,-0.391,-0.503,-0.112,-0.134,-0.42,0.113,-0.286,-0.173,-0.366
3000,A1_1,-0.199,1.0,0.393,0.184,0.054,-0.148,0.039,0.387,-0.084,0.785,-0.094,0.081,-0.2,-0.082,-0.311,-0.136
3000,A1_2,0.116,0.393,1.0,-0.29,-0.381,-0.115,-0.01,0.02,-0.136,0.508,-0.253,0.338,-0.359,-0.08,-0.286,-0.12
3000,A1_3,0.044,0.184,-0.29,1.0,0.008,-0.325,0.175,-0.119,0.062,-0.308,0.132,-0.397,-0.135,0.121,0.143,-0.281
3000,B1_1,0.145,0.054,-0.381,0.008,1.0,0.172,-0.193,0.225,-0.578,0.124,-0.118,-0.162,0.134,-0.38,-0.339,-0.242
3000,B1_2,0.113,-0.148,-0.115,-0.325,0.172,1.0,0.222,-0.124,-0.354,-0.014,0.497,-0.063,0.055,0.244,0.34,-0.173
3000,B1_3,-0.223,0.039,-0.01,0.175,-0.193,0.222,1.0,0.079,-0.208,0.028,0.457,-0.446,0.495,0.126,0.199,0.243
3000,A2_1,-0.391,0.387,0.02,-0.119,0.225,-0.124,0.079,1.0,-0.004,0.34,0.077,0.5,0.03,-0.488,-0.534,0.128
3000,A2_2,-0.503,-0.084,-0.136,0.062,-0.578,-0.354,-0.208,-0.004,1.0,-0.297,0.195,0.349,-0.366,0.201,0.141,0.051
3000,A2_3,-0.112,0.785,0.508,-0.308,0.124,-0.014,0.028,0.34,-0.297,1.0,-0.141,0.044,-0.069,-0.001,-0.216,-0.032
3000,B2_1,-0.134,-0.094,-0.253,0.132,-0.118,0.497,0.457,0.077,0.195,-0.141,1.0,-0.239,-0.149,0.297,0.263,-0.429
3000,B2_2,-0.42,0.081,0.338,-0.397,-0.162,-0.063,-0.446,0.5,0.349,0.044,-0.239,1.0,-0.442,-0.185,-0.291,0.15
3000,B2_3,0.113,-0.2,-0.359,-0.135,0.134,0.055,0.495,0.03,-0.366,-0.069,-0.149,-0.442,1.0,-0.2,-0.044,0.694
3000,y1,-0.286,-0.082,-0.08,0.121,-0.38,0.244,0.126,-0.488,0.201,-0.001,0.297,-0.185,-0.2,1.0,0.854,0.053
3000,y2,-0.173,-0.311,-0.286,0.143,-0.339,0.34,0.199,-0.534,0.141,-0.216,0.263,-0.291,-0.044,0.854,1.0,0.097
3000,y3,-0.366,-0.136,-0.12,-0.281,-0.242,-0.173,0.243,0.128,0.051,-0.032,-0.429,0.15,0.694,0.053,0.097,1.0
3500,.,1.0,-0.206,0.115,0.041,0.142,0.113,-0.221,-0.388,-0.505,-0.121,-0.131,-0.417,0.113,-0.286,-0.179,-0.36
3500,A1_1,-0.206,1.0,0.395,0.194,0.048,-0.154,0.037,0.393,-0.072,0.787,-0.093,0.078,-0.202,-0.071,-0.308,-0.122
3500,A1_2,0.115,0.395,1.0,-0.282,-0.388,-0.125,-0.012,0.03,-0.127,0.51,-0.251,0.333,-0.36,-0.086,-0.288,-0.135
3500,A1_3,0.041,0.194,-0.282,1.0,0.004,-0.326,0.172,-0.111,0.07,-0.296,0.135,-0.395,-0.143,0.122,0.14,-0.298
3500,B1_1,0.142,0.048,-0.388,0.004,1.0,0.173,-0.189,0.226,-0.578,0.12,-0.114,-0.158,0.136,-0.383,-0.342,-0.232
3500,B1_2,0.113,-0.154,-0.125,-0.326,0.173,1.0,0.224,-0.124,-0.359,-0.019,0.501,-0.061,0.059,0.264,0.349,-0.134
3500,B1_3,-0.221,0.037,-0.012,0.172,-0.189,0.224,1.0,0.079,-0.206,0.027,0.459,-0.448,0.496,0.128,0.207,0.224
3500,A2_1,-0.388,0.393,0.03,-0.111,0.226,-0.124,0.079,1.0,0.006,0.348,0.077,0.499,0.027,-0.481,-0.529,0.124
3500,A2_2,-0.505,-0.072,-0.127,0.07,-0.578,-0.359,-0.206,0.006,1.0,-0.287,0.195,0.352,-0.369,0.196,0.134,0.046
3500,A2_3,-0.121,0.787,0.51,-0.296,0.12,-0.019,0.027,0.348,-0.287,1.0,-0.141,0.044,-0.07,-0.001,-0.217,-0.024
3500,B2_1,-0.131,-0.093,-0.251,0.135,-0.114,0.501,0.459,0.077,0.195,-0.141,1.0,-0.239,-0.147,0.304,0.268,-0.422
3500,B2_2,-0.417,0.078,0.333,-0.395,-0.158,-0.061,-0.448,0.499,0.352,0.044,-0.239,1.0,-0.441,-0.185,-0.289,0.158
3500,B2_3,0.113,-0.202,-0.36,-0.143,0.136,0.059,0.496,0.027,-0.369,-0.07,-0.147,-0.441,1.0,-0.191,-0.035,0.693
3500,y1,-0.286,-0.071,-0.086,0.122,-0.383,0.264,0.128,-0.481,0.196,-0.001,0.304,-0.185,-0.191,1.0,0.856,0.069
3500,y2,-0.179,-0.308,-0.288,0.14,-0.342,0.349,0.207,-0.529,0.134,-0.217,0.268,-0.289,-0.035,0.856,1.0,0.113
3500,y3,-0.36,-0.122,-0.135,-0.298,-0.232,-0.134,0.224,0.124,0.046,-0.024,-0.422,0.158,0.693,0.069,0.113,1.0
4000,.,1.0,-0.219,0.113,0.036,0.137,0.111,-0.217,-0.387,-0.51,-0.134,-0.133,-0.415,0.116,-0.29,-0.176,-0.358
4000,A1_1,-0.219,1.0,0.396,0.205,0.044,-0.16,0.035,0.402,-0.059,0.789,-0.092,0.077,-0.202,-0.071,-0.288,-0.121
4000,A1_2,0.113,0.396,1.0,-0.276,-0.397,-0.137,-0.016,0.038,-0.118,0.513,-0.251,0.328,-0.363,-0.084,-0.288,-0.147
4000,A1_3,0.036,0.205,-0.276,1.0,0.001,-0.327,0.171,-0.099,0.078,-0.284,0.14,-0.392,-0.15,0.117,0.139,-0.306
4000,B1_1,0.137,0.044,-0.397,0.001,1.0,0.173,-0.183,0.227,-0.576,0.115,-0.108,-0.158,0.141,-0.387,-0.348,-0.233
4000,B1_2,0.111,-0.16,-0.137,-0.327,0.173,1.0,0.227,-0.125,-0.363,-0.024,0.507,-0.061,0.064,0.275,0.37,-0.106
4000,B1_3,-0.217,0.035,-0.016,0.171,-0.183,0.227,1.0,0.079,-0.205,0.025,0.462,-0.447,0.497,0.131,0.206,0.217
4000,A2_1,-0.387,0.402,0.038,-0.099,0.227,-0.125,0.079,1.0,0.014,0.355,0.076,0.499,0.025,-0.476,-0.522,0.117
4000,A2_2,-0.51,-0.059,-0.118,0.078,-0.576,-0.363,-0.205,0.014,1.0,-0.276,0.195,0.355,-0.374,0.196,0.13,0.052
4000,A2_3,-0.134,0.789,0.513,-0.284,0.115,-0.024,0.025,0.355,-0.276,1.0,-0.141,0.043,-0.07,0.002,-0.209,-0.028
4000,B2_1,-0.133,-0.092,-0.251,0.14,-0.108,0.507,0.462,0.076,0.195,-0.141,1.0,-0.239,-0.145,0.305,0.274,-0.405
4000,B2_2,-0.415,0.077,0.328,-0.392,-0.158,-0.061,-0.447,0.499,0.355,0.043,-0.239,1.0,-0.436,-0.182,-0.282,0.167
4000,B2_3,0.116,-0.202,-0.363,-0.15,0.141,0.064,0.497,0.025,-0.374,-0.07,-0.145,-0.436,1.0,-0.187,-0.03,0.689
4000,y1,-0.29,-0.071,-0.084,0.117,-0.387,0.275,0.131,-0.476,0.196,0.002,0.305,-0.182,-0.187,1.0,0.863,0.089
4000,y2,-0.176,-0.288,-0.288,0.139,-0.348,0.37,0.206,-0.522,0.13,-0.209,0.274,-0.282,-0.03,0.863,1.0,0.133
4000,y3,-0.358,-0.121,-0.147,-0.306,-0.233,-0.106,0.217,0.117,0.052,-0.028,-0.405,0.167,0.689,0.089,0.133,1.0
4500,.,1.0,-0.226,0.11,0.032,0.133,0.114,-0.212,-0.385,-0.513,-0.142,-0.128,-0.414,0.118,-0.281,-0.183,-0.356
4500,A1_1,-0.226,1.0,0.396,0.213,0.039,-0.166,0.033,0.407,-0.049,0.79,-0.09,0.075,-0.203,-0.063,-0.272,-0.13
4500,A1_2,0.11,0.396,1.0,-0.273,-0.404,-0.146,-0.018,0.044,-0.11,0.515,-0.249,0.325,-0.364,-0.086,-0.291,-0.157
4500,A1_3,0.032,0.213,-0.273,1.0,-0.002,-0.326,0.169,-0.09,0.084,-0.276,0.144,-0.39,-0.156,0.114,0.14,-0.325
4500,B1_1,0.133,0.039,-0.404,-0.002,1.0,0.174,-0.179,0.227,-0.574,0.113,-0.105,-0.155,0.144,-0.387,-0.352,-0.224
4500,B1_2,0.114,-0.166,-0.146,-0.326,0.174,1.0,0.229,-0.125,-0.366,-0.028,0.511,-0.061,0.068,0.294,0.378,-0.082
4500,B1_3,-0.212,0.033,-0.018,0.169,-0.179,0.229,1.0,0.08,-0.204,0.024,0.464,-0.447,0.498,0.132,0.206,0.205
4500,A2_1,-0.385,0.407,0.044,-0.09,0.227,-0.125,0.08,1.0,0.022,0.361,0.077,0.498,0.022,-0.471,-0.511,0.111
4500,A2_2,-0.513,-0.049,-0.11,0.084,-0.574,-0.366,-0.204,0.022,1.0,-0.268,0.195,0.356,-0.376,0.182,0.133,0.05
4500,A2_3,-0.142,0.79,0.515,-0.276,0.113,-0.028,0.024,0.361,-0.268,1.0,-0.14,0.043,-0.071,0.004,-0.202,-0.03
4500,B2_1,-0.128,-0.09,-0.249,0.144,-0.105,0.511,0.464,0.077,0.195,-0.14,1.0,-0.24,-0.144,0.303,0.28,-0.399
4500,B2_2,-0.414,0.075,0.325,-0.39,-0.155,-0.061,-0.447,0.498,0.356,0.043,-0.24,1.0,-0.435,-0.184,-0.278,0.175
4500,B2_3,0.118,-0.203,-0.364,-0.156,0.144,0.068,0.498,0.022,-0.376,-0.071,-0.144,-0.435,1.0,-0.173,-0.026,0.686
4500,y1,-0.281,-0.063,-0.086,0.114,-0.387,0.294,0.132,-0.471,0.182,0.004,0.303,-0.184,-0.173,1.0,0.867,0.107
4500,y2,-0.183,-0.272,-0.291,0.14,-0.352,0.378,0.206,-0.511,0.133,-0.202,0.28,-0.278,-0.026,0.867,1.0,0.149
4500,y3,-0.356,-0.13,-0.157,-0.325,-0.224,-0.082,0.205,0.111,0.05,-0.03,-0.399,0.175,0.686,0.107,0.149,1.0
5000,.,1.0,-0.233,0.107,0.029,0.131,0.116,-0.208,-0.384,-0.516,-0.15,-0.124,-0.413,0.12,-0.283,-0.182,-0.347
5000,A1_1,-0.233,1.0,0.398,0.221,0.035,-0.171,0.033,0.414,-0.04,0.791,-0.088,0.074,-0.204,-0.055,-0.27,-0.124
5000,A1_2,0.107,0.398,1.0,-0.269,-0.411,-0.154,-0.019,0.053,-0.102,0.516,-0.246,0.324,-0.365,-0.09,-0.287,-0.172
5000,A1_3,0.029,0.221,-0.269,1.0,-0.005,-0.328,0.168,-0.083,0.089,-0.269,0.146,-0.388,-0.16,0.113,0.131,-0.332
5000,B1_1,0.131,0.035,-0.411,-0.005,1.0,0.173,-0.176,0.227,-0.572,0.11,-0.101,-0.153,0.147,-0.39,-0.355,-0.223
5000,B1_2,0.116,-0.171,-0.154,-0.328,0.173,1.0,0.231,-0.124,-0.367,-0.03,0.515,-0.061,0.072,0.303,0.384,-0.04
5000,B1_3,-0.208,0.033,-0.019,0.168,-0.176,0.231,1.0,0.08,-0.204,0.024,0.466,-0.447,0.498,0.129,0.21,0.196
5000,A2_1,-0.384,0.414,0.053,-0.083,0.227,-0.124,0.08,1.0,0.029,0.368,0.078,0.499,0.019,-0.461,-0.507,0.106
5000,A2_2,-0.516,-0.04,-0.102,0.089,-0.572,-0.367,-0.204,0.029,1.0,-0.259,0.196,0.357,-0.379,0.184,0.124,0.051
5000,A2_3,-0.15,0.791,0.516,-0.269,0.11,-0.03,0.024,0.368,-0.259,1.0,-0.139,0.043,-0.071,0.008,-0.198,-0.033
5000,B2_1,-0.124,-0.088,-0.246,0.146,-0.101,0.515,0.466,0.078,0.196,-0.139,1.0,-0.24,-0.143,0.305,0.277,-0.376
5000,B2_2,-0.413,0.074,0.324,-0.388,-0.153,-0.061,-0.447,0.499,0.357,0.043,-0.24,1.0,-0.433,-0.18,-0.275,0.18
5000,B2_3,0.12,-0.204,-0.365,-0.16,0.147,0.072,0.498,0.019,-0.379,-0.071,-0.143,-0.433,1.0,-0.172,-0.018,0.683
5000,y1,-0.283,-0.055,-0.09,0.113,-0.39,0.303,0.129,-0.461,0.184,0.008,0.305,-0.18,-0.172,1.0,0.868,0.129
5000,y2,-0.182,-0.27,-0.287,0.131,-0.355,0.384,0.21,-0.507,0.124,-0.198,0.277,-0.275,-0.018,0.868,1.0,0.174
5000,y3,-0.347,-0.124,-0.172,-0.332,-0.223,-0.04,0.196,0.106,0.051,-0.033,-0.376,0.18,0.683,0.129,0.174,1.0
5500,.,1.0,-0.236,0.106,0.027,0.127,0.118,-0.204,-0.383,-0.518,-0.155,-0.121,-0.412,0.12,-0.28,-0.18,-0.351
5500,A1_1,-0.236,1.0,0.398,0.23,0.031,-0.176,0.033,0.419,-0.031,0.791,-0.086,0.073,-0.204,-0.054,-0.255,-0.137
5500,A1_2,0.106,0.398,1.0,-0.265,-0.418,-0.163,-0.018,0.06,-0.094,0.517,-0.244,0.322,-0.365,-0.09,-0.289,-0.187
5500,A1_3,0.027,0.23,-0.265,1.0,-0.008,-0.328,0.166,-0.074,0.095,-0.261,0.15,-0.385,-0.166,0.109,0.124,-0.342
5500,B1_1,0.127,0.031,-0.418,-0.008,1.0,0.173,-0.173,0.228,-0.569,0.107,-0.098,-0.152,0.151,-0.392,-0.356,-0.224
5500,B1_2,0.118,-0.176,-0.163,-0.328,0.173,1.0,0.233,-0.123,-0.368,-0.033,0.518,-0.061,0.076,0.311,0.399,-0.01
5500,B1_3,-0.204,0.033,-0.018,0.166,-0.173,0.233,1.0,0.081,-0.203,0.024,0.468,-0.448,0.498,0.125,0.205,0.2
5500,A2_1,-0.383,0.419,0.06,-0.074,0.228,-0.123,0.081,1.0,0.035,0.371,0.078,0.498,0.018,-0.46,-0.499,0.106
5500,A2_2,-0.518,-0.031,-0.094,0.095,-0.569,-0.368,-0.203,0.035,1.0,-0.251,0.196,0.358,-0.382,0.181,0.117,0.058
5500,A2_3,-0.155,0.791,0.517,-0.261,0.107,-0.033,0.024,0.371,-0.251,1.0,-0.138,0.043,-0.071,0.008,-0.186,-0.046
5500,B2_1,-0.121,-0.086,-0.244,0.15,-0.098,0.518,0.468,0.078,0.196,-0.138,1.0,-0.241,-0.142,0.304,0.278,-0.348
5500,B2_2,-0.412,0.073,0.322,-0.385,-0.152,-0.061,-0.448,0.498,0.358,0.043,-0.241,1.0,-0.431,-0.177,-0.27,0.184
5500,B2_3,0.12,-0.204,-0.365,-0.166,0.151,0.076,0.498,0.018,-0.382,-0.071,-0.142,-0.431,1.0,-0.172,-0.012,0.681
5500,y1,-0.28,-0.054,-0.09,0.109,-0.392,0.311,0.125,-0.46,0.181,0.008,0.304,-0.177,-0.172,1.0,0.873,0.142
5500,y2,-0.18,-0.255,-0.289,0.124,-0.356,0.399,0.205,-0.499,0.117,-0.186,0.278,-0.27,-0.012,0.873,1.0,0.197
5500,y3,-0.351,-0.137,-0.187,-0.342,-0.224,-0.01,0.2,0.106,0.058,-0.046,-0.348,0.184,0.681,0.142,0.197,1.0
6000,.,1.0,-0.241,0.104,0.022,0.126,0.117,-0.203,-0.381,-0.522,-0.159,-0.122,-0.412,0.121,-0.272,-0.177,-0.346
6000,A1_1,-0.241,1.0,0.398,0.237,0.027,-0.181,0.033,0.426,-0.023,0.792,-0.085,0.075,-0.205,-0.054,-0.257,-0.126
6000,A1_2,0.104,0.398,1.0,-0.26,-0.424,-0.173,-0.02,0.069,-0.087,0.518,-0.244,0.32,-0.368,-0.09,-0.288,-0.195
6000,A1_3,0.022,0.237,-0.26,1.0,-0.011,-0.33,0.165,-0.067,0.101,-0.254,0.152,-0.384,-0.171,0.104,0.125,-0.352
6000,B1_1,0.126,0.027,-0.424,-0.011,1.0,0.175,-0.17,0.226,-0.568,0.104,-0.094,-0.149,0.155,-0.398,-0.36,-0.223
6000,B1_2,0.117,-0.181,-0.173,-0.33,0.175,1.0,0.236,-0.124,-0.37,-0.038,0.522,-0.06,0.081,0.33,0.409,0.014
6000,B1_3,-0.203,0.033,-0.02,0.165,-0.17,0.236,1.0,0.081,-0.203,0.024,0.469,-0.448,0.499,0.13,0.212,0.182
6000,A2_1,-0.381,0.426,0.069,-0.067,0.226,-0.124,0.081,1.0,0.042,0.376,0.078,0.498,0.016,-0.455,-0.497,0.102
6000,A2_2,-0.522,-0.023,-0.087,0.101,-0.568,-0.37,-0.203,0.042,1.0,-0.244,0.195,0.36,-0.383,0.175,0.112,0.063
6000,A2_3,-0.159,0.792,0.518,-0.254,0.104,-0.038,0.024,0.376,-0.244,1.0,-0.138,0.044,-0.073,0.007,-0.192,-0.035
6000,B2_1,-0.122,-0.085,-0.244,0.152,-0.094,0.522,0.469,0.078,0.195,-0.138,1.0,-0.241,-0.14,0.309,0.283,-0.34
6000,B2_2,-0.412,0.075,0.32,-0.384,-0.149,-0.06,-0.448,0.498,0.36,0.044,-0.241,1.0,-0.43,-0.173,-0.265,0.191
6000,B2_3,0.121,-0.205,-0.368,-0.171,0.155,0.081,0.499,0.016,-0.383,-0.073,-0.14,-0.43,1.0,-0.164,-0.01,0.671
6000,y1,-0.272,-0.054,-0.09,0.104,-0.398,0.33,0.13,-0.455,0.175,0.007,0.309,-0.173,-0.164,1.0,0.876,0.167
6000,y2,-0.177,-0.257,-0.288,0.125,-0.36,0.409,0.212,-0.497,0.112,-0.192,0.283,-0.265,-0.01,0.876,1.0,0.216
6000,y3,-0.346,-0.126,-0.195,-0.352,-0.223,0.014,0.182,0.102,0.063,-0.035,-0.34,0.191,0.671,0.167,0.216,1.0
6500,.,1.0,-0.25,0.106,0.01,0.127,0.105,-0.208,-0.385,-0.528,-0.16,-0.134,-0.412,0.118,-0.271,-0.181,-0.335
6500,A1_1,-0.25,1.0,0.402,0.254,0.02,-0.19,0.032,0.433,-0.013,0.794,-0.087,0.072,-0.205,-0.051,-0.251,-0.134
6500,A1_2,0.106,0.402,1.0,-0.248,-0.43,-0.185,-0.022,0.081,-0.08,0.521,-0.245,0.317,-0.369,-0.092,-0.29,-0.193
6500,A1_3,0.01,0.254,-0.248,1.0,-0.019,-0.335,0.16,-0.054,0.109,-0.235,0.152,-0.379,-0.181,0.097,0.112,-0.361
6500,B1_1,0.127,0.02,-0.43,-0.019,1.0,0.18,-0.166,0.224,-0.564,0.1,-0.087,-0.146,0.158,-0.398,-0.362,-0.228
6500,B1_2,0.105,-0.19,-0.185,-0.335,0.18,1.0,0.238,-0.127,-0.371,-0.045,0.526,-0.056,0.086,0.356,0.422,0.045
6500,B1_3,-0.208,0.032,-0.022,0.16,-0.166,0.238,1.0,0.08,-0.202,0.023,0.469,-0.449,0.5,0.127,0.213,0.184
6500,A2_1,-0.385,0.433,0.081,-0.054,0.224,-0.127,0.08,1.0,0.05,0.385,0.075,0.497,0.015,-0.451,-0.493,0.085
6500,A2_2,-0.528,-0.013,-0.08,0.109,-0.564,-0.371,-0.202,0.05,1.0,-0.237,0.194,0.361,-0.385,0.169,0.108,0.054
6500,A2_3,-0.16,0.794,0.521,-0.235,0.1,-0.045,0.023,0.385,-0.237,1.0,-0.14,0.044,-0.073,0.003,-0.19,-0.038
6500,B2_1,-0.134,-0.087,-0.245,0.152,-0.087,0.526,0.469,0.075,0.194,-0.14,1.0,-0.24,-0.137,0.315,0.288,-0.323
6500,B2_2,-0.412,0.072,0.317,-0.379,-0.146,-0.056,-0.449,0.497,0.361,0.044,-0.24,1.0,-0.427,-0.162,-0.257,0.188
6500,B2_3,0.118,-0.205,-0.369,-0.181,0.158,0.086,0.5,0.015,-0.385,-0.073,-0.137,-0.427,1.0,-0.162,-0.004,0.669
6500,y1,-0.271,-0.051,-0.092,0.097,-0.398,0.356,0.127,-0.451,0.169,0.003,0.315,-0.162,-0.162,1.0,0.881,0.194
6500,y2,-0.181,-0.251,-0.29,0.112,-0.362,0.422,0.213,-0.493,0.108,-0.19,0.288,-0.257,-0.004,0.881,1.0,0.246
6500,y3,-0.335,-0.134,-0.193,-0.361,-0.228,0.045,0.184,0.085,0.054,-0.038,-0.323,0.188,0.669,0.194,0.246,1.0
7000,.,1.0,-0.256,0.11,0.0,0.129,0.089,-0.219,-0.387,-0.53,-0.159,-0.149,-0.414,0.111,-0.278,-0.185,-0.342
7000,A1_1,-0.256,1.0,0.405,0.269,0.015,-0.198,0.03,0.441,-0.005,0.796,-0.091,0.069,-0.206,-0.061,-0.253,-0.123
7000,A1_2,0.11,0.405,1.0,-0.24,-0.436,-0.196,-0.027,0.092,-0.072,0.525,-0.249,0.311,-0.372,-0.088,-0.286,-0.201
7000,A1_3,0.0,0.269,-0.24,1.0,-0.022,-0.335,0.153,-0.042,0.117,-0.221,0.154,-0.373,-0.19,0.084,0.108,-0.362
7000,B1_1,0.129,0.015,-0.436,-0.022,1.0,0.184,-0.16,0.222,-0.561,0.095,-0.079,-0.143,0.162,-0.398,-0.366,-0.239
7000,B1_2,0.089,-0.198,-0.196,-0.335,0.184,1.0,0.239,-0.131,-0.371,-0.053,0.532,-0.051,0.091,0.366,0.428,0.069
7000,B1_3,-0.219,0.03,-0.027,0.153,-0.16,0.239,1.0,0.079,-0.202,0.021,0.469,-0.448,0.501,0.127,0.214,0.183
7000,A2_1,-0.387,0.441,0.092,-0.042,0.222,-0.131,0.079,1.0,0.055,0.393,0.07,0.494,0.012,-0.456,-0.497,0.084
7000,A2_2,-0.53,-0.005,-0.072,0.117,-0.561,-0.371,-0.202,0.055,1.0,-0.229,0.194,0.366,-0.388,0.165,0.106,0.065
7000,A2_3,-0.159,0.796,0.525,-0.221,0.095,-0.053,0.021,0.393,-0.229,1.0,-0.143,0.042,-0.075,0.002,-0.195,-0.034
7000,B2_1,-0.149,-0.091,-0.249,0.154,-0.079,0.532,0.469,0.07,0.194,-0.143,1.0,-0.237,-0.134,0.315,0.293,-0.296
7000,B2_2,-0.414,0.069,0.311,-0.373,-0.143,-0.051,-0.448,0.494,0.366,0.042,-0.237,1.0,-0.427,-0.153,-0.247,0.189
7000,B2_3,0.111,-0.206,-0.372,-0.19,0.162,0.091,0.501,0.012,-0.388,-0.075,-0.134,-0.427,1.0,-0.163,-0.006,0.661
7000,y1,-0.278,-0.061,-0.088,0.084,-0.398,0.366,0.127,-0.456,0.165,0.002,0.315,-0.153,-0.163,1.0,0.885,0.215
7000,y2,-0.185,-0.253,-0.286,0.108,-0.366,0.428,0.214,-0.497,0.106,-0.195,0.293,-0.247,-0.006,0.885,1.0,0.265
7000,y3,-0.342,-0.123,-0.201,-0.362,-0.239,0.069,0.183,0.084,0.065,-0.034,-0.296,0.189,0.661,0.215,0.265,1.0
7500,.,1.0,-0.256,0.11,-0.0,0.13,0.081,-0.223,-0.387,-0.53,-0.159,-0.151,-0.414,0.107,-0.262,-0.199,-0.337
7500,A1_1,-0.256,1.0,0.405,0.281,0.013,-0.202,0.031,0.443,0.001,0.797,-0.09,0.067,-0.206,-0.06,-0.25,-0.134
7500,A1_2,0.11,0.405,1.0,-0.236,-0.439,-0.202,-0.027,0.096,-0.065,0.525,-0.249,0.309,-0.373,-0.088,-0.291,-0.2
7500,A1_3,-0.0,0.281,-0.236,1.0,-0.024,-0.331,0.149,-0.03,0.122,-0.212,0.158,-0.367,-0.197,0.073,0.106,-0.369
7500,B1_1,0.13,0.013,-0.439,-0.024,1.0,0.185,-0.158,0.222,-0.561,0.094,-0.077,-0.141,0.165,-0.395,-0.366,-0.25
7500,B1_2,0.081,-0.202,-0.202,-0.331,0.185,1.0,0.241,-0.131,-0.372,-0.055,0.535,-0.051,0.094,0.395,0.425,0.092
7500,B1_3,-0.223,0.031,-0.027,0.149,-0.158,0.241,1.0,0.08,-0.202,0.022,0.47,-0.448,0.501,0.125,0.216,0.184
7500,A2_1,-0.387,0.443,0.096,-0.03,0.222,-0.131,0.08,1.0,0.06,0.398,0.07,0.493,0.011,-0.458,-0.489,0.065
7500,A2_2,-0.53,0.001,-0.065,0.122,-0.561,-0.372,-0.202,0.06,1.0,-0.223,0.193,0.367,-0.39,0.146,0.112,0.061
7500,A2_3,-0.159,0.797,0.525,-0.212,0.094,-0.055,0.022,0.398,-0.223,1.0,-0.142,0.042,-0.074,-0.004,-0.194,-0.041
7500,B2_1,-0.151,-0.09,-0.249,0.158,-0.077,0.535,0.47,0.07,0.193,-0.142,1.0,-0.237,-0.133,0.316,0.296,-0.284
7500,B2_2,-0.414,0.067,0.309,-0.367,-0.141,-0.051,-0.448,0.493,0.367,0.042,-0.237,1.0,-0.425,-0.152,-0.246,0.183
7500,B2_3,0.107,-0.206,-0.373,-0.197,0.165,0.094,0.501,0.011,-0.39,-0.074,-0.133,-0.425,1.0,-0.154,-0.004,0.657
7500,y1,-0.262,-0.06,-0.088,0.073,-0.395,0.395,0.125,-0.458,0.146,-0.004,0.316,-0.152,-0.154,1.0,0.887,0.244
7500,y2,-0.199,-0.25,-0.291,0.106,-0.366,0.425,0.216,-0.489,0.112,-0.194,0.296,-0.246,-0.004,0.887,1.0,0.291
7500,y3,-0.337,-0.134,-0.2,-0.369,-0.25,0.092,0.184,0.065,0.061,-0.041,-0.284,0.183,0.657,0.244,0.291,1.0
8000,.,1.0,-0.257,0.106,-0.004,0.131,0.071,-0.231,-0.388,-0.526,-0.16,-0.157,-0.415,0.105,-0.277,-0.197,-0.321
8000,A1_1,-0.257,1.0,0.406,0.292,0.01,-0.205,0.031,0.446,0.007,0.797,-0.089,0.065,-0.207,-0.057,-0.245,-0.142
8000,A1_2,0.106,0.406,1.0,-0.233,-0.443,-0.206,-0.028,0.099,-0.06,0.526,-0.248,0.306,-0.373,-0.088,-0.289,-0.201
8000,A1_3,-0.004,0.292,-0.233,1.0,-0.027,-0.327,0.145,-0.019,0.127,-0.203,0.162,-0.361,-0.205,0.074,0.097,-0.38
8000,B1_1,0.131,0.01,-0.443,-0.027,1.0,0.186,-0.154,0.223,-0.561,0.092,-0.075,-0.138,0.167,-0.4,-0.365,-0.25
8000,B1_2,0.071,-0.205,-0.206,-0.327,0.186,1.0,0.242,-0.131,-0.373,-0.057,0.537,-0.05,0.096,0.384,0.45,0.126
8000,B1_3,-0.231,0.031,-0.028,0.145,-0.154,0.242,1.0,0.081,-0.202,0.023,0.472,-0.448,0.501,0.119,0.218,0.173
8000,A2_1,-0.388,0.446,0.099,-0.019,0.223,-0.131,0.081,1.0,0.064,0.4,0.07,0.493,0.01,-0.455,-0.486,0.047
8000,A2_2,-0.526,0.007,-0.06,0.127,-0.561,-0.373,-0.202,0.064,1.0,-0.219,0.192,0.367,-0.393,0.157,0.101,0.049
8000,A2_3,-0.16,0.797,0.526,-0.203,0.092,-0.057,0.023,0.4,-0.219,1.0,-0.142,0.041,-0.074,0.001,-0.191,-0.045
8000,B2_1,-0.157,-0.089,-0.248,0.162,-0.075,0.537,0.472,0.07,0.192,-0.142,1.0,-0.237,-0.133,0.311,0.305,-0.273
8000,B2_2,-0.415,0.065,0.306,-0.361,-0.138,-0.05,-0.448,0.493,0.367,0.041,-0.237,1.0,-0.424,-0.15,-0.242,0.183
8000,B2_3,0.105,-0.207,-0.373,-0.205,0.167,0.096,0.501,0.01,-0.393,-0.074,-0.133,-0.424,1.0,-0.161,0.003,0.65
8000,y1,-0.277,-0.057,-0.088,0.074,-0.4,0.384,0.119,-0.455,0.157,0.001,0.311,-0.15,-0.161,1.0,0.894,0.261
8000,y2,-0.197,-0.245,-0.289,0.097,-0.365,0.45,0.218,-0.486,0.101,-0.191,0.305,-0.242,0.003,0.894,1.0,0.319
8000,y3,-0.321,-0.142,-0.201,-0.38,-0.25,0.126,0.173,0.047,0.049,-0.045,-0.273,0.183,0.65,0.261,0.319,1.0
8500,.,1.0,-0.258,0.103,-0.006,0.132,0.059,-0.239,-0.389,-0.523,-0.161,-0.163,-0.416,0.103,-0.284,-0.202,-0.322
8500,A1_1,-0.258,1.0,0.408,0.303,0.006,-0.209,0.031,0.448,0.013,0.799,-0.09,0.063,-0.207,-0.058,-0.242,-0.151
8500,A1_2,0.103,0.408,1.0,-0.226,-0.447,-0.213,-0.029,0.106,-0.054,0.528,-0.249,0.304,-0.373,-0.095,-0.29,-0.201
8500,A1_3,-0.006,0.303,-0.226,1.0,-0.03,-0.325,0.141,-0.009,0.13,-0.192,0.163,-0.356,-0.212,0.071,0.092,-0.389
8500,B1_1,0.132,0.006,-0.447,-0.03,1.0,0.188,-0.151,0.222,-0.558,0.089,-0.07,-0.135,0.17,-0.4,-0.362,-0.251
8500,B1_2,0.059,-0.209,-0.213,-0.325,0.188,1.0,0.242,-0.132,-0.373,-0.059,0.54,-0.048,0.098,0.395,0.453,0.13
8500,B1_3,-0.239,0.031,-0.029,0.141,-0.151,0.242,1.0,0.082,-0.203,0.023,0.472,-0.448,0.501,0.129,0.213,0.162
8500,A2_1,-0.389,0.448,0.106,-0.009,0.222,-0.132,0.082,1.0,0.07,0.403,0.069,0.492,0.009,-0.448,-0.486,0.035
8500,A2_2,-0.523,0.013,-0.054,0.13,-0.558,-0.373,-0.203,0.07,1.0,-0.213,0.191,0.371,-0.396,0.15,0.095,0.054
8500,A2_3,-0.161,0.799,0.528,-0.192,0.089,-0.059,0.023,0.403,-0.213,1.0,-0.142,0.04,-0.074,-0.002,-0.188,-0.053
8500,B2_1,-0.163,-0.09,-0.249,0.163,-0.07,0.54,0.472,0.069,0.191,-0.142,1.0,-0.236,-0.132,0.315,0.301,-0.278
8500,B2_2,-0.416,0.063,0.304,-0.356,-0.135,-0.048,-0.448,0.492,0.371,0.04,-0.236,1.0,-0.422,-0.152,-0.239,0.19
8500,B2_3,0.103,-0.207,-0.373,-0.212,0.17,0.098,0.501,0.009,-0.396,-0.074,-0.132,-0.422,1.0,-0.146,0.002,0.643
8500,y1,-0.284,-0.058,-0.095,0.071,-0.4,0.395,0.129,-0.448,0.15,-0.002,0.315,-0.152,-0.146,1.0,0.898,0.275
8500,y2,-0.202,-0.242,-0.29,0.092,-0.362,0.453,0.213,-0.486,0.095,-0.188,0.301,-0.239,0.002,0.898,1.0,0.323
8500,y3,-0.322,-0.151,-0.201,-0.389,-0.251,0.13,0.162,0.035,0.054,-0.053,-0.278,0.19,0.643,0.275,0.323,1.0
9000,.,1.0,-0.259,0.102,-0.009,0.134,0.05,-0.246,-0.388,-0.523,-0.16,-0.169,-0.416,0.099,-0.286,-0.209,-0.317
9000,A1_1,-0.259,1.0,0.41,0.314,0.001,-0.213,0.03,0.453,0.019,0.8,-0.09,0.06,-0.207,-0.054,-0.239,-0.17
9000,A1_2,0.102,0.41,1.0,-0.217,-0.451,-0.219,-0.033,0.112,-0.046,0.53,-0.25,0.302,-0.375,-0.096,-0.289,-0.202
9000,A1_3,-0.009,0.314,-0.217,1.0,-0.037,-0.325,0.137,0.001,0.136,-0.181,0.164,-0.351,-0.219,0.071,0.082,-0.393
9000,B1_1,0.134,0.001,-0.451,-0.037,1.0,0.193,-0.149,0.219,-0.557,0.085,-0.064,-0.131,0.171,-0.397,-0.36,-0.258
9000,B1_2,0.05,-0.213,-0.219,-0.325,0.193,1.0,0.244,-0.134,-0.375,-0.063,0.542,-0.045,0.1,0.4,0.46,0.14
9000,B1_3,-0.246,0.03,-0.033,0.137,-0.149,0.244,1.0,0.082,-0.202,0.022,0.473,-0.449,0.501,0.122,0.213,0.168
9000,A2_1,-0.388,0.453,0.112,0.001,0.219,-0.134,0.082,1.0,0.076,0.407,0.068,0.489,0.008,-0.451,-0.482,0.018
9000,A2_2,-0.523,0.019,-0.046,0.136,-0.557,-0.375,-0.202,0.076,1.0,-0.208,0.189,0.373,-0.398,0.149,0.093,0.046
9000,A2_3,-0.16,0.8,0.53,-0.181,0.085,-0.063,0.022,0.407,-0.208,1.0,-0.143,0.039,-0.075,0.001,-0.182,-0.065
9000,B2_1,-0.169,-0.09,-0.25,0.164,-0.064,0.542,0.473,0.068,0.189,-0.143,1.0,-0.235,-0.132,0.312,0.303,-0.27
9000,B2_2,-0.416,0.06,0.302,-0.351,-0.131,-0.045,-0.449,0.489,0.373,0.039,-0.235,1.0,-0.422,-0.149,-0.233,0.181
9000,B2_3,0.099,-0.207,-0.375,-0.219,0.171,0.1,0.501,0.008,-0.398,-0.075,-0.132,-0.422,1.0,-0.151,0.004,0.644
9000,y1,-0.286,-0.054,-0.096,0.071,-0.397,0.4,0.122,-0.451,0.149,0.001,0.312,-0.149,-0.151,1.0,0.9,0.287
9000,y2,-0.209,-0.239,-0.289,0.082,-0.36,0.46,0.213,-0.482,0.093,-0.182,0.303,-0.233,0.004,0.9,1.0,0.343
9000,y3,-0.317,-0.17,-0.202,-0.393,-0.258,0.14,0.168,0.018,0.046,-0.065,-0.27,0.181,0.644,0.287,0.343,1.0
9500,.,1.0,-0.258,0.101,-0.012,0.136,0.038,-0.255,-0.388,-0.518,-0.159,-0.175,-0.415,0.095,-0.286,-0.214,-0.317
9500,A1_1,-0.258,1.0,0.411,0.325,-0.0,-0.215,0.03,0.456,0.024,0.8,-0.09,0.059,-0.206,-0.055,-0.237,-0.173
9500,A1_2,0.101,0.411,1.0,-0.211,-0.454,-0.222,-0.034,0.116,-0.039,0.531,-0.249,0.3,-0.376,-0.096,-0.287,-0.205
9500,A1_3,-0.012,0.325,-0.211,1.0,-0.039,-0.321,0.132,0.012,0.14,-0.17,0.167,-0.346,-0.227,0.07,0.079,-0.402
9500,B1_1,0.136,-0.0,-0.454,-0.039,1.0,0.193,-0.146,0.219,-0.558,0.083,-0.062,-0.127,0.173,-0.396,-0.356,-0.257
9500,B1_2,0.038,-0.215,-0.222,-0.321,0.193,1.0,0.245,-0.134,-0.376,-0.066,0.544,-0.043,0.103,0.417,0.464,0.159
9500,B1_3,-0.255,0.03,-0.034,0.132,-0.146,0.245,1.0,0.083,-0.202,0.023,0.474,-0.449,0.502,0.125,0.207,0.165
9500,A2_1,-0.388,0.456,0.116,0.012,0.219,-0.134,0.083,1.0,0.08,0.409,0.068,0.489,0.007,-0.454,-0.489,0.01
9500,A2_2,-0.518,0.024,-0.039,0.14,-0.558,-0.376,-0.202,0.08,1.0,-0.202,0.188,0.374,-0.401,0.139,0.087,0.04
9500,A2_3,-0.159,0.8,0.531,-0.17,0.083,-0.066,0.023,0.409,-0.202,1.0,-0.143,0.037,-0.075,-0.004,-0.177,-0.06
9500,B2_1,-0.175,-0.09,-0.249,0.167,-0.062,0.544,0.474,0.068,0.188,-0.143,1.0,-0.235,-0.131,0.316,0.299,-0.258
9500,B2_2,-0.415,0.059,0.3,-0.346,-0.127,-0.043,-0.449,0.489,0.374,0.037,-0.235,1.0,-0.42,-0.149,-0.235,0.174
9500,B2_3,0.095,-0.206,-0.376,-0.227,0.173,0.103,0.502,0.007,-0.401,-0.075,-0.131,-0.42,1.0,-0.149,0.002,0.64
9500,y1,-0.286,-0.055,-0.096,0.07,-0.396,0.417,0.125,-0.454,0.139,-0.004,0.316,-0.149,-0.149,1.0,0.902,0.307
9500,y2,-0.214,-0.237,-0.287,0.079,-0.356,0.464,0.207,-0.489,0.087,-0.177,0.299,-0.235,0.002,0.902,1.0,0.36
9500,y3,-0.317,-0.173,-0.205,-0.402,-0.257,0.159,0.165,0.01,0.04,-0.06,-0.258,0.174,0.64,0.307,0.36,1.0
10000,.,1.0,-0.255,0.099,-0.013,0.138,0.027,-0.263,-0.386,-0.514,-0.157,-0.182,-0.416,0.092,-0.297,-0.218,-0.319
10000,A1_1,-0.255,1.0,0.412,0.335,-0.002,-0.217,0.031,0.458,0.03,0.8,-0.089,0.057,-0.206,-0.056,-0.234,-0.181
10000,A1_2,0.099,0.412,1.0,-0.205,-0.456,-0.225,-0.035,0.119,-0.031,0.531,-0.248,0.299,-0.377,-0.096,-0.289,-0.203
10000,A1_3,-0.013,0.335,-0.205,1.0,-0.042,-0.319,0.129,0.021,0.143,-0.161,0.169,-0.341,-0.234,0.065,0.074,-0.406
10000,B1_1,0.138,-0.002,-0.456,-0.042,1.0,0.194,-0.143,0.22,-0.559,0.082,-0.06,-0.124,0.175,-0.397,-0.352,-0.262
10000,B1_2,0.027,-0.217,-0.225,-0.319,0.194,1.0,0.246,-0.133,-0.378,-0.068,0.546,-0.041,0.105,0.414,0.472,0.165
10000,B1_3,-0.263,0.031,-0.035,0.129,-0.143,0.246,1.0,0.085,-0.202,0.024,0.475,-0.448,0.502,0.124,0.206,0.16
10000,A2_1,-0.386,0.458,0.119,0.021,0.22,-0.133,0.085,1.0,0.084,0.409,0.068,0.489,0.007,-0.452,-0.49,0.0
10000,A2_2,-0.514,0.03,-0.031,0.143,-0.559,-0.378,-0.202,0.084,1.0,-0.197,0.186,0.376,-0.404,0.139,0.08,0.041
10000,A2_3,-0.157,0.8,0.531,-0.161,0.082,-0.068,0.024,0.409,-0.197,1.0,-0.143,0.036,-0.075,0.0,-0.174,-0.069
10000,B2_1,-0.182,-0.089,-0.248,0.169,-0.06,0.546,0.475,0.068,0.186,-0.143,1.0,-0.234,-0.13,0.311,0.299,-0.258
10000,B2_2,-0.416,0.057,0.299,-0.341,-0.124,-0.041,-0.448,0.489,0.376,0.036,-0.234,1.0,-0.418,-0.15,-0.237,0.18
10000,B2_3,0.092,-0.206,-0.377,-0.234,0.175,0.105,0.502,0.007,-0.404,-0.075,-0.13,-0.418,1.0,-0.146,0.006,0.633
10000,y1,-0.297,-0.056,-0.096,0.065,-0.397,0.414,0.124,-0.452,0.139,0.0,0.311,-0.15,-0.146,1.0,0.907,0.316
10000,y2,-0.218,-0.234,-0.289,0.074,-0.352,0.472,0.206,-0.49,0.08,-0.174,0.299,-0.237,0.006,0.907,1.0,0.369
10000,y3,-0.319,-0.181,-0.203,-0.406,-0.262,0.165,0.16,0.0,0.041,-0.069,-0.258,0.18,0.633,0.316,0.369,1.0
