,,.,A1_1,A1_2,A1_3,B1_1,B1_2,B1_3,A2_1,A2_2,A2_3,B2_1,B2_2,B2_3,y1,y2,y3
0,.,1.0,0.006,0.056,-0.399,-0.036,0.447,-0.108,0.176,0.307,-0.006,0.473,0.334,-0.209,0.423,0.457,0.194
0,A1_1,0.006,1.0,-0.303,0.044,-0.294,-0.201,0.448,0.526,-0.001,-0.027,-0.379,0.196,0.143,-0.484,-0.363,-0.16
0,A1_2,0.056,-0.303,1.0,0.536,-0.417,-0.476,-0.233,-0.113,0.384,-0.391,0.068,0.318,0.078,0.35,0.498,0.324
0,A1_3,-0.399,0.044,0.536,1.0,-0.12,-0.81,-0.417,-0.467,-0.038,-0.035,-0.174,0.015,0.248,0.208,0.082,-0.349
0,B1_1,-0.036,-0.294,-0.417,-0.12,1.0,0.217,-0.001,-0.638,-0.231,-0.008,0.064,-0.447,0.131,0.378,-0.114,-0.522
0,B1_2,0.447,-0.201,-0.476,-0.81,0.217,1.0,0.081,0.315,-0.05,0.019,0.143,-0.06,-0.227,0.186,-0.039,0.192
0,B1_3,-0.108,0.448,-0.233,-0.417,-0.001,0.081,1.0,0.38,-0.254,-0.31,-0.618,0.447,0.148,-0.671,-0.542,-0.083
0,A2_1,0.176,0.526,-0.113,-0.467,-0.638,0.315,0.38,1.0,0.148,0.073,-0.178,0.174,-0.117,-0.402,-0.01,0.459
0,A2_2,0.307,-0.001,0.384,-0.038,-0.231,-0.05,-0.254,0.148,1.0,-0.522,0.689,-0.232,-0.386,0.326,0.607,0.635
0,A2_3,-0.006,-0.027,-0.391,-0.035,-0.008,0.019,-0.31,0.073,-0.522,1.0,0.055,-0.223,-0.037,-0.095,0.08,-0.31
0,B2_1,0.473,-0.379,0.068,-0.174,0.064,0.143,-0.618,-0.178,0.689,0.055,1.0,-0.406,-0.521,0.483,0.715,0.403
0,B2_2,0.334,0.196,0.318,0.015,-0.447,-0.06,0.447,0.174,-0.232,-0.223,-0.406,1.0,0.053,-0.312,-0.205,-0.05
0,B2_3,-0.209,0.143,0.078,0.248,0.131,-0.227,0.148,-0.117,-0.386,-0.037,-0.521,0.053,1.0,-0.028,-0.527,-0.021
0,y1,0.423,-0.484,0.35,0.208,0.378,0.186,-0.671,-0.402,0.326,-0.095,0.483,-0.312,-0.028,1.0,0.63,-0.011
0,y2,0.457,-0.363,0.498,0.082,-0.114,-0.039,-0.542,-0.01,0.607,0.08,0.715,-0.205,-0.527,0.63,1.0,0.248
0,y3,0.194,-0.16,0.324,-0.349,-0.522,0.192,-0.083,0.459,0.635,-0.31,0.403,-0.05,-0.021,-0.011,0.248,1.0
500,.,1.0,-0.173,0.386,-0.046,-0.302,-0.151,-0.25,0.193,0.175,0.042,-0.255,-0.259,-0.093,0.123,0.433,0.153
500,A1_1,-0.173,1.0,0.156,0.364,-0.488,-0.44,0.069,0.592,0.346,0.204,-0.122,0.181,-0.067,-0.17,-0.03,-0.015
500,A1_2,0.386,0.156,1.0,0.71,-0.601,-0.546,-0.395,0.416,0.606,0.356,0.001,0.119,-0.204,-0.415,-0.081,0.04
500,A1_3,-0.046,0.364,0.71,1.0,-0.355,-0.777,-0.46,0.125,0.27,0.492,-0.126,-0.004,-0.008,-0.365,-0.269,-0.131
500,B1_1,-0.302,-0.488,-0.601,-0.355,1.0,0.406,0.438,-0.907,-0.613,-0.528,0.243,0.195,0.359,0.073,-0.285,-0.578
500,B1_2,-0.151,-0.44,-0.546,-0.777,0.406,1.0,0.311,-0.157,-0.304,-0.41,0.322,0.283,-0.02,0.194,0.016,-0.02
500,B1_3,-0.25,0.069,-0.395,-0.46,0.438,0.311,1.0,-0.143,-0.435,-0.598,-0.192,0.655,0.403,-0.454,-0.551,-0.633
500,A2_1,0.193,0.592,0.416,0.125,-0.907,-0.157,-0.143,1.0,0.554,0.377,-0.163,0.027,-0.453,-0.161,0.214,0.417
500,A2_2,0.175,0.346,0.606,0.27,-0.613,-0.304,-0.435,0.554,1.0,0.168,0.466,-0.195,-0.61,0.189,0.511,0.502
500,A2_3,0.042,0.204,0.356,0.492,-0.528,-0.41,-0.598,0.377,0.168,1.0,0.021,-0.214,-0.394,-0.211,0.023,0.227
500,B2_1,-0.255,-0.122,0.001,-0.126,0.243,0.322,-0.192,-0.163,0.466,0.021,1.0,0.086,-0.521,0.216,0.24,0.047
500,B2_2,-0.259,0.181,0.119,-0.004,0.195,0.283,0.655,0.027,-0.195,-0.214,0.086,1.0,0.335,-0.766,-0.786,-0.721
500,B2_3,-0.093,-0.067,-0.204,-0.008,0.359,-0.02,0.403,-0.453,-0.61,-0.394,-0.521,0.335,1.0,-0.196,-0.537,-0.368
500,y1,0.123,-0.17,-0.415,-0.365,0.073,0.194,-0.454,-0.161,0.189,-0.211,0.216,-0.766,-0.196,1.0,0.854,0.689
500,y2,0.433,-0.03,-0.081,-0.269,-0.285,0.016,-0.551,0.214,0.511,0.023,0.24,-0.786,-0.537,0.854,1.0,0.768
500,y3,0.153,-0.015,0.04,-0.131,-0.578,-0.02,-0.633,0.417,0.502,0.227,0.047,-0.721,-0.368,0.689,0.768,1.0
1000,.,1.0,-0.117,0.411,-0.015,-0.287,-0.159,-0.227,0.218,0.2,0.053,-0.241,-0.222,-0.082,0.029,0.221,-0.02
1000,A1_1,-0.117,1.0,0.284,0.446,-0.549,-0.498,-0.02,0.641,0.419,0.298,-0.111,0.166,-0.136,-0.152,-0.055,0.063
1000,A1_2,0.411,0.284,1.0,0.71,-0.617,-0.538,-0.393,0.551,0.655,0.414,0.002,0.124,-0.21,-0.414,-0.194,-0.059
1000,A1_3,-0.015,0.446,0.71,1.0,-0.375,-0.766,-0.484,0.264,0.308,0.562,-0.118,-0.002,-0.001,-0.369,-0.384,-0.202
1000,B1_1,-0.287,-0.549,-0.617,-0.375,1.0,0.41,0.46,-0.937,-0.652,-0.546,0.251,0.219,0.381,0.06,-0.226,-0.517
1000,B1_2,-0.159,-0.498,-0.538,-0.766,0.41,1.0,0.318,-0.249,-0.335,-0.43,0.324,0.29,-0.011,0.141,0.121,0.031
1000,B1_3,-0.227,-0.02,-0.393,-0.484,0.46,0.318,1.0,-0.247,-0.462,-0.611,-0.185,0.659,0.413,-0.395,-0.44,-0.541
1000,A2_1,0.218,0.641,0.551,0.264,-0.937,-0.249,-0.247,1.0,0.628,0.459,-0.163,-0.002,-0.482,-0.173,0.173,0.388
1000,A2_2,0.2,0.419,0.655,0.308,-0.652,-0.335,-0.462,0.628,1.0,0.243,0.432,-0.185,-0.61,0.219,0.475,0.535
1000,A2_3,0.053,0.298,0.414,0.562,-0.546,-0.43,-0.611,0.459,0.243,1.0,0.018,-0.207,-0.398,-0.277,-0.078,0.129
1000,B2_1,-0.241,-0.111,0.002,-0.118,0.251,0.324,-0.185,-0.163,0.432,0.018,1.0,0.097,-0.51,0.252,0.315,0.156
1000,B2_2,-0.222,0.166,0.124,-0.002,0.219,0.29,0.659,-0.002,-0.185,-0.207,0.097,1.0,0.347,-0.749,-0.741,-0.687
1000,B2_3,-0.082,-0.136,-0.21,-0.001,0.381,-0.011,0.413,-0.482,-0.61,-0.398,-0.51,0.347,1.0,-0.25,-0.599,-0.46
1000,y1,0.029,-0.152,-0.414,-0.369,0.06,0.141,-0.395,-0.173,0.219,-0.277,0.252,-0.749,-0.25,1.0,0.888,0.743
1000,y2,0.221,-0.055,-0.194,-0.384,-0.226,0.121,-0.44,0.173,0.475,-0.078,0.315,-0.741,-0.599,0.888,1.0,0.834
1000,y3,-0.02,0.063,-0.059,-0.202,-0.517,0.031,-0.541,0.388,0.535,0.129,0.156,-0.687,-0.46,0.743,0.834,1.0
1500,.,1.0,-0.094,0.418,-0.022,-0.227,-0.134,-0.166,0.211,0.196,0.056,-0.227,-0.169,-0.049,-0.118,0.132,-0.113
1500,A1_1,-0.094,1.0,0.35,0.515,-0.597,-0.529,-0.085,0.683,0.472,0.361,-0.125,0.142,-0.158,-0.154,-0.139,0.106
1500,A1_2,0.418,0.35,1.0,0.728,-0.618,-0.542,-0.412,0.623,0.694,0.479,-0.014,0.098,-0.218,-0.427,-0.206,-0.053
1500,A1_3,-0.022,0.515,0.728,1.0,-0.42,-0.776,-0.496,0.37,0.378,0.616,-0.128,-0.014,-0.017,-0.398,-0.406,-0.177
1500,B1_1,-0.227,-0.597,-0.618,-0.42,1.0,0.42,0.5,-0.938,-0.689,-0.573,0.256,0.262,0.411,0.062,-0.211,-0.512
1500,B1_2,-0.134,-0.529,-0.542,-0.776,0.42,1.0,0.326,-0.298,-0.368,-0.461,0.335,0.297,0.001,0.173,0.168,0.012
1500,B1_3,-0.166,-0.085,-0.412,-0.496,0.5,0.326,1.0,-0.287,-0.486,-0.63,-0.173,0.668,0.428,-0.291,-0.424,-0.526
1500,A2_1,0.211,0.683,0.623,0.37,-0.938,-0.298,-0.287,1.0,0.665,0.495,-0.186,0.004,-0.463,-0.198,0.087,0.34
1500,A2_2,0.196,0.472,0.694,0.378,-0.689,-0.368,-0.486,0.665,1.0,0.302,0.385,-0.185,-0.599,0.209,0.418,0.567
1500,A2_3,0.056,0.361,0.479,0.616,-0.573,-0.461,-0.63,0.495,0.302,1.0,-0.018,-0.209,-0.374,-0.374,-0.106,0.117
1500,B2_1,-0.227,-0.125,-0.014,-0.128,0.256,0.335,-0.173,-0.186,0.385,-0.018,1.0,0.099,-0.496,0.322,0.354,0.248
1500,B2_2,-0.169,0.142,0.098,-0.014,0.262,0.297,0.668,0.004,-0.185,-0.209,0.099,1.0,0.371,-0.681,-0.735,-0.674
1500,B2_3,-0.049,-0.158,-0.218,-0.017,0.411,0.001,0.428,-0.463,-0.599,-0.374,-0.496,0.371,1.0,-0.355,-0.64,-0.567
1500,y1,-0.118,-0.154,-0.427,-0.398,0.062,0.173,-0.291,-0.198,0.209,-0.374,0.322,-0.681,-0.355,1.0,0.887,0.75
1500,y2,0.132,-0.139,-0.206,-0.406,-0.211,0.168,-0.424,0.087,0.418,-0.106,0.354,-0.735,-0.64,0.887,1.0,0.865
1500,y3,-0.113,0.106,-0.053,-0.177,-0.512,0.012,-0.526,0.34,0.567,0.117,0.248,-0.674,-0.567,0.75,0.865,1.0
2000,.,1.0,-0.092,0.434,0.015,-0.177,-0.154,-0.139,0.191,0.176,0.069,-0.237,-0.15,-0.03,-0.17,0.032,-0.172
2000,A1_1,-0.092,1.0,0.397,0.546,-0.629,-0.55,-0.131,0.71,0.511,0.409,-0.148,0.11,-0.164,-0.232,-0.205,0.068
2000,A1_2,0.434,0.397,1.0,0.738,-0.627,-0.554,-0.438,0.673,0.741,0.521,-0.04,0.053,-0.24,-0.421,-0.257,-0.078
2000,A1_3,0.015,0.546,0.738,1.0,-0.443,-0.785,-0.523,0.428,0.439,0.654,-0.14,-0.052,-0.039,-0.454,-0.433,-0.229
2000,B1_1,-0.177,-0.629,-0.627,-0.443,1.0,0.425,0.526,-0.937,-0.713,-0.589,0.269,0.3,0.429,0.052,-0.178,-0.483
2000,B1_2,-0.154,-0.55,-0.554,-0.785,0.425,1.0,0.331,-0.336,-0.398,-0.493,0.345,0.304,0.007,0.233,0.246,0.07
2000,B1_3,-0.139,-0.131,-0.438,-0.523,0.526,0.331,1.0,-0.316,-0.502,-0.634,-0.163,0.677,0.441,-0.209,-0.381,-0.436
2000,A2_1,0.191,0.71,0.673,0.428,-0.937,-0.336,-0.316,1.0,0.697,0.525,-0.221,-0.011,-0.443,-0.224,0.007,0.29
2000,A2_2,0.176,0.511,0.741,0.439,-0.713,-0.398,-0.502,0.697,1.0,0.357,0.338,-0.184,-0.583,0.141,0.279,0.493
2000,A2_3,0.069,0.409,0.521,0.654,-0.589,-0.493,-0.634,0.525,0.357,1.0,-0.055,-0.218,-0.36,-0.457,-0.21,-0.037
2000,B2_1,-0.237,-0.148,-0.04,-0.14,0.269,0.345,-0.163,-0.221,0.338,-0.055,1.0,0.091,-0.476,0.312,0.304,0.202
2000,B2_2,-0.15,0.11,0.053,-0.052,0.3,0.304,0.677,-0.011,-0.184,-0.218,0.091,1.0,0.396,-0.638,-0.729,-0.657
2000,B2_3,-0.03,-0.164,-0.24,-0.039,0.429,0.007,0.441,-0.443,-0.583,-0.36,-0.476,0.396,1.0,-0.36,-0.592,-0.551
2000,y1,-0.17,-0.232,-0.421,-0.454,0.052,0.233,-0.209,-0.224,0.141,-0.457,0.312,-0.638,-0.36,1.0,0.924,0.814
2000,y2,0.032,-0.205,-0.257,-0.433,-0.178,0.246,-0.381,0.007,0.279,-0.21,0.304,-0.729,-0.592,0.924,1.0,0.883
2000,y3,-0.172,0.068,-0.078,-0.229,-0.483,0.07,-0.436,0.29,0.493,-0.037,0.202,-0.657,-0.551,0.814,0.883,1.0
2500,.,1.0,-0.077,0.435,0.058,-0.165,-0.18,-0.144,0.171,0.142,0.094,-0.257,-0.157,-0.017,-0.149,-0.018,-0.118
2500,A1_1,-0.077,1.0,0.439,0.583,-0.65,-0.569,-0.166,0.732,0.54,0.456,-0.16,0.083,-0.186,-0.197,-0.181,-0.021
2500,A1_2,0.435,0.439,1.0,0.745,-0.644,-0.559,-0.461,0.698,0.758,0.555,-0.055,0.022,-0.257,-0.419,-0.297,-0.086
2500,A1_3,0.058,0.583,0.745,1.0,-0.462,-0.794,-0.538,0.468,0.461,0.685,-0.157,-0.08,-0.062,-0.496,-0.483,-0.315
2500,B1_1,-0.165,-0.65,-0.644,-0.462,1.0,0.426,0.531,-0.943,-0.724,-0.606,0.29,0.313,0.431,0.052,-0.124,-0.424
2500,B1_2,-0.18,-0.569,-0.559,-0.794,0.426,1.0,0.333,-0.356,-0.402,-0.52,0.352,0.308,0.011,0.258,0.281,0.126
2500,B1_3,-0.144,-0.166,-0.461,-0.538,0.531,0.333,1.0,-0.347,-0.507,-0.645,-0.155,0.681,0.448,-0.117,-0.273,-0.338
2500,A2_1,0.171,0.732,0.698,0.468,-0.943,-0.356,-0.347,1.0,0.723,0.553,-0.235,-0.043,-0.45,-0.194,-0.027,0.233
2500,A2_2,0.142,0.54,0.758,0.461,-0.724,-0.402,-0.507,0.723,1.0,0.391,0.31,-0.188,-0.582,0.128,0.25,0.439
2500,A2_3,0.094,0.456,0.555,0.685,-0.606,-0.52,-0.645,0.553,0.391,1.0,-0.083,-0.234,-0.351,-0.524,-0.322,-0.171
2500,B2_1,-0.257,-0.16,-0.055,-0.157,0.29,0.352,-0.155,-0.235,0.31,-0.083,1.0,0.089,-0.46,0.297,0.325,0.137
2500,B2_2,-0.157,0.083,0.022,-0.08,0.313,0.308,0.681,-0.043,-0.188,-0.234,0.089,1.0,0.411,-0.567,-0.653,-0.619
2500,B2_3,-0.017,-0.186,-0.257,-0.062,0.431,0.011,0.448,-0.45,-0.582,-0.351,-0.46,0.411,1.0,-0.329,-0.526,-0.43
2500,y1,-0.149,-0.197,-0.419,-0.496,0.052,0.258,-0.117,-0.194,0.128,-0.524,0.297,-0.567,-0.329,1.0,0.95,0.827
2500,y2,-0.018,-0.181,-0.297,-0.483,-0.124,0.281,-0.273,-0.027,0.25,-0.322,0.325,-0.653,-0.526,0.95,1.0,0.886
2500,y3,-0.118,-0.021,-0.086,-0.315,-0.424,0.126,-0.338,0.233,0.439,-0.171,0.137,-0.619,-0.43,0.827,0.886,1.0
3000,.,1.0,-0.069,0.444,0.123,-0.161,-0.221,-0.181,0.154,0.123,0.14,-0.253,-0.174,-0.033,-0.059,-0.058,-0.12
3000,A1_1,-0.069,1.0,0.495,0.626,-0.676,-0.587,-0.212,0.763,0.588,0.515,-0.172,0.054,-0.215,-0.263,-0.198,-0.087
3000,A1_2,0.444,0.495,1.0,0.767,-0.663,-0.567,-0.489,0.731,0.781,0.611,-0.074,-0.005,-0.28,-0.435,-0.342,-0.177
3000,A1_3,0.123,0.626,0.767,1.0,-0.486,-0.8,-0.558,0.52,0.509,0.724,-0.173,-0.11,-0.086,-0.57,-0.554,-0.439
3000,B1_1,-0.161,-0.676,-0.663,-0.486,1.0,0.429,0.537,-0.947,-0.737,-0.622,0.319,0.327,0.433,0.045,-0.085,-0.316
3000,B1_2,-0.221,-0.587,-0.567,-0.8,0.429,1.0,0.335,-0.383,-0.417,-0.542,0.369,0.314,0.016,0.297,0.334,0.226
3000,B1_3,-0.181,-0.212,-0.489,-0.558,0.537,0.335,1.0,-0.385,-0.518,-0.654,-0.14,0.684,0.456,-0.031,-0.142,-0.153
3000,A2_1,0.154,0.763,0.731,0.52,-0.947,-0.383,-0.385,1.0,0.761,0.597,-0.242,-0.072,-0.462,-0.209,-0.064,0.144
3000,A2_2,0.123,0.588,0.781,0.509,-0.737,-0.417,-0.518,0.761,1.0,0.449,0.271,-0.187,-0.585,0.023,0.18,0.309
3000,A2_3,0.14,0.515,0.611,0.724,-0.622,-0.542,-0.654,0.597,0.449,1.0,-0.108,-0.236,-0.343,-0.6,-0.444,-0.362
3000,B2_1,-0.253,-0.172,-0.074,-0.173,0.319,0.369,-0.14,-0.242,0.271,-0.108,1.0,0.095,-0.439,0.16,0.296,0.083
3000,B2_2,-0.174,0.054,-0.005,-0.11,0.327,0.314,0.684,-0.072,-0.187,-0.236,0.095,1.0,0.428,-0.521,-0.55,-0.508
3000,B2_3,-0.033,-0.215,-0.28,-0.086,0.433,0.016,0.456,-0.462,-0.585,-0.343,-0.439,0.428,1.0,-0.188,-0.415,-0.313
3000,y1,-0.059,-0.263,-0.435,-0.57,0.045,0.297,-0.031,-0.209,0.023,-0.6,0.16,-0.521,-0.188,1.0,0.96,0.895
3000,y2,-0.058,-0.198,-0.342,-0.554,-0.085,0.334,-0.142,-0.064,0.18,-0.444,0.296,-0.55,-0.415,0.96,1.0,0.923
3000,y3,-0.12,-0.087,-0.177,-0.439,-0.316,0.226,-0.153,0.144,0.309,-0.362,0.083,-0.508,-0.313,0.895,0.923,1.0
3500,.,1.0,-0.065,0.402,0.123,-0.132,-0.218,-0.152,0.12,0.069,0.136,-0.26,-0.151,-0.002,-0.13,-0.055,-0.095
3500,A1_1,-0.065,1.0,0.561,0.662,-0.685,-0.575,-0.225,0.802,0.614,0.562,-0.193,0.084,-0.234,-0.304,-0.251,-0.208
3500,A1_2,0.402,0.561,1.0,0.773,-0.679,-0.56,-0.51,0.766,0.792,0.656,-0.092,-0.021,-0.304,-0.445,-0.322,-0.199
3500,A1_3,0.123,0.662,0.773,1.0,-0.505,-0.807,-0.57,0.562,0.526,0.761,-0.21,-0.132,-0.102,-0.56,-0.492,-0.457
3500,B1_1,-0.132,-0.685,-0.679,-0.505,1.0,0.435,0.55,-0.937,-0.743,-0.635,0.36,0.346,0.437,0.061,-0.067,-0.243
3500,B1_2,-0.218,-0.575,-0.56,-0.807,0.435,1.0,0.343,-0.402,-0.425,-0.571,0.4,0.323,0.024,0.282,0.271,0.225
3500,B1_3,-0.152,-0.225,-0.51,-0.57,0.55,0.343,1.0,-0.4,-0.533,-0.663,-0.108,0.688,0.465,-0.01,-0.209,-0.182
3500,A2_1,0.12,0.802,0.766,0.562,-0.937,-0.402,-0.4,1.0,0.773,0.622,-0.266,-0.073,-0.463,-0.245,-0.129,0.026
3500,A2_2,0.069,0.614,0.792,0.526,-0.743,-0.425,-0.533,0.773,1.0,0.49,0.224,-0.203,-0.589,0.033,0.18,0.281
3500,A2_3,0.136,0.562,0.656,0.761,-0.635,-0.571,-0.663,0.622,0.49,1.0,-0.135,-0.239,-0.331,-0.606,-0.412,-0.366
3500,B2_1,-0.26,-0.193,-0.092,-0.21,0.36,0.4,-0.108,-0.266,0.224,-0.135,1.0,0.12,-0.407,0.192,0.303,0.133
3500,B2_2,-0.151,0.084,-0.021,-0.132,0.346,0.323,0.688,-0.073,-0.203,-0.239,0.12,1.0,0.445,-0.496,-0.601,-0.553
3500,B2_3,-0.002,-0.234,-0.304,-0.102,0.437,0.024,0.465,-0.463,-0.589,-0.331,-0.407,0.445,1.0,-0.196,-0.39,-0.318
3500,y1,-0.13,-0.304,-0.445,-0.56,0.061,0.282,-0.01,-0.245,0.033,-0.606,0.192,-0.496,-0.196,1.0,0.96,0.917
3500,y2,-0.055,-0.251,-0.322,-0.492,-0.067,0.271,-0.209,-0.129,0.18,-0.412,0.303,-0.601,-0.39,0.96,1.0,0.94
3500,y3,-0.095,-0.208,-0.199,-0.457,-0.243,0.225,-0.182,0.026,0.281,-0.366,0.133,-0.553,-0.318,0.917,0.94,1.0
4000,.,1.0,-0.091,0.377,0.114,-0.102,-0.215,-0.131,0.086,0.04,0.133,-0.254,-0.144,0.011,-0.114,-0.149,-0.09
4000,A1_1,-0.091,1.0,0.608,0.703,-0.698,-0.577,-0.251,0.828,0.647,0.615,-0.204,0.075,-0.26,-0.298,-0.284,-0.306
4000,A1_2,0.377,0.608,1.0,0.791,-0.691,-0.566,-0.527,0.781,0.804,0.714,-0.11,-0.044,-0.321,-0.437,-0.336,-0.279
4000,A1_3,0.114,0.703,0.791,1.0,-0.524,-0.81,-0.567,0.598,0.555,0.787,-0.229,-0.137,-0.121,-0.497,-0.501,-0.561
4000,B1_1,-0.102,-0.698,-0.691,-0.524,1.0,0.439,0.555,-0.935,-0.755,-0.66,0.38,0.357,0.44,0.047,-0.044,-0.157
4000,B1_2,-0.215,-0.577,-0.566,-0.81,0.439,1.0,0.347,-0.418,-0.436,-0.585,0.416,0.331,0.029,0.23,0.288,0.323
4000,B1_3,-0.131,-0.251,-0.527,-0.567,0.555,0.347,1.0,-0.414,-0.539,-0.659,-0.094,0.691,0.47,-0.08,-0.148,-0.089
4000,A2_1,0.086,0.828,0.781,0.598,-0.935,-0.418,-0.414,1.0,0.791,0.668,-0.283,-0.093,-0.473,-0.248,-0.146,-0.062
4000,A2_2,0.04,0.647,0.804,0.555,-0.755,-0.436,-0.539,0.791,1.0,0.544,0.185,-0.214,-0.601,0.007,0.156,0.182
4000,A2_3,0.133,0.615,0.714,0.787,-0.66,-0.585,-0.659,0.668,0.544,1.0,-0.154,-0.223,-0.34,-0.573,-0.492,-0.443
4000,B2_1,-0.254,-0.204,-0.11,-0.229,0.38,0.416,-0.094,-0.283,0.185,-0.154,1.0,0.132,-0.389,0.169,0.288,0.16
4000,B2_2,-0.144,0.075,-0.044,-0.137,0.357,0.331,0.691,-0.093,-0.214,-0.223,0.132,1.0,0.455,-0.546,-0.545,-0.477
4000,B2_3,0.011,-0.26,-0.321,-0.121,0.44,0.029,0.47,-0.473,-0.601,-0.34,-0.389,0.455,1.0,-0.184,-0.349,-0.275
4000,y1,-0.114,-0.298,-0.437,-0.497,0.047,0.23,-0.08,-0.248,0.007,-0.573,0.169,-0.546,-0.184,1.0,0.969,0.889
4000,y2,-0.149,-0.284,-0.336,-0.501,-0.044,0.288,-0.148,-0.146,0.156,-0.492,0.288,-0.545,-0.349,0.969,1.0,0.947
4000,y3,-0.09,-0.306,-0.279,-0.561,-0.157,0.323,-0.089,-0.062,0.182,-0.443,0.16,-0.477,-0.275,0.889,0.947,1.0
4500,.,1.0,-0.145,0.271,0.076,-0.039,-0.155,-0.083,0.004,-0.074,0.065,-0.354,-0.133,0.082,-0.036,-0.204,-0.087
4500,A1_1,-0.145,1.0,0.681,0.749,-0.742,-0.641,-0.296,0.862,0.71,0.674,-0.212,0.041,-0.302,-0.285,-0.354,-0.275
4500,A1_2,0.271,0.681,1.0,0.83,-0.719,-0.612,-0.563,0.814,0.834,0.774,-0.128,-0.08,-0.36,-0.445,-0.44,-0.322
4500,A1_3,0.076,0.749,0.83,1.0,-0.582,-0.835,-0.586,0.664,0.617,0.824,-0.248,-0.159,-0.162,-0.547,-0.605,-0.557
4500,B1_1,-0.039,-0.742,-0.719,-0.582,1.0,0.518,0.565,-0.938,-0.777,-0.69,0.402,0.368,0.453,0.036,0.045,-0.122
4500,B1_2,-0.155,-0.641,-0.612,-0.835,0.518,1.0,0.39,-0.506,-0.5,-0.633,0.46,0.353,0.088,0.267,0.392,0.309
4500,B1_3,-0.083,-0.296,-0.563,-0.586,0.565,0.39,1.0,-0.441,-0.553,-0.656,-0.069,0.694,0.477,-0.012,-0.038,-0.014
4500,A2_1,0.004,0.862,0.814,0.664,-0.938,-0.506,-0.441,1.0,0.825,0.725,-0.286,-0.114,-0.488,-0.247,-0.248,-0.099
4500,A2_2,-0.074,0.71,0.834,0.617,-0.777,-0.5,-0.553,0.825,1.0,0.608,0.124,-0.223,-0.615,-0.039,0.021,0.101
4500,A2_3,0.065,0.674,0.774,0.824,-0.69,-0.633,-0.656,0.725,0.608,1.0,-0.175,-0.215,-0.344,-0.578,-0.56,-0.505
4500,B2_1,-0.354,-0.212,-0.128,-0.248,0.402,0.46,-0.069,-0.286,0.124,-0.175,1.0,0.166,-0.359,0.133,0.292,0.085
4500,B2_2,-0.133,0.041,-0.08,-0.159,0.368,0.353,0.694,-0.114,-0.223,-0.215,0.166,1.0,0.471,-0.476,-0.435,-0.428
4500,B2_3,0.082,-0.302,-0.36,-0.162,0.453,0.088,0.477,-0.488,-0.615,-0.344,-0.359,0.471,1.0,-0.178,-0.253,-0.215
4500,y1,-0.036,-0.285,-0.445,-0.547,0.036,0.267,-0.012,-0.247,-0.039,-0.578,0.133,-0.476,-0.178,1.0,0.955,0.934
4500,y2,-0.204,-0.354,-0.44,-0.605,0.045,0.392,-0.038,-0.248,0.021,-0.56,0.292,-0.435,-0.253,0.955,1.0,0.962
4500,y3,-0.087,-0.275,-0.322,-0.557,-0.122,0.309,-0.014,-0.099,0.101,-0.505,0.085,-0.428,-0.215,0.934,0.962,1.0
5000,.,1.0,-0.132,0.231,0.074,-0.034,-0.138,-0.046,-0.039,-0.128,0.042,-0.398,-0.051,0.169,-0.179,-0.26,-0.168
5000,A1_1,-0.132,1.0,0.715,0.773,-0.758,-0.656,-0.331,0.881,0.749,0.706,-0.243,0.002,-0.335,-0.309,-0.332,-0.192
5000,A1_2,0.231,0.715,1.0,0.847,-0.739,-0.627,-0.593,0.836,0.854,0.804,-0.164,-0.116,-0.394,-0.475,-0.406,-0.35
5000,A1_3,0.074,0.773,0.847,1.0,-0.603,-0.841,-0.603,0.706,0.654,0.843,-0.279,-0.189,-0.199,-0.567,-0.56,-0.563
5000,B1_1,-0.034,-0.758,-0.739,-0.603,1.0,0.524,0.57,-0.936,-0.787,-0.709,0.443,0.377,0.465,0.073,0.049,-0.116
5000,B1_2,-0.138,-0.656,-0.627,-0.841,0.524,1.0,0.399,-0.531,-0.518,-0.648,0.503,0.364,0.107,0.318,0.351,0.334
5000,B1_3,-0.046,-0.331,-0.593,-0.603,0.57,0.399,1.0,-0.476,-0.558,-0.663,-0.033,0.697,0.485,-0.011,-0.028,0.07
5000,A2_1,-0.039,0.881,0.836,0.706,-0.936,-0.531,-0.476,1.0,0.857,0.764,-0.296,-0.145,-0.514,-0.286,-0.232,-0.086
5000,A2_2,-0.128,0.749,0.854,0.654,-0.787,-0.518,-0.558,0.857,1.0,0.651,0.055,-0.227,-0.623,-0.07,0.021,0.069
5000,A2_3,0.042,0.706,0.804,0.843,-0.709,-0.648,-0.663,0.764,0.651,1.0,-0.205,-0.229,-0.354,-0.563,-0.558,-0.51
5000,B2_1,-0.398,-0.243,-0.164,-0.279,0.443,0.503,-0.033,-0.296,0.055,-0.205,1.0,0.202,-0.313,0.2,0.268,0.086
5000,B2_2,-0.051,0.002,-0.116,-0.189,0.377,0.364,0.697,-0.145,-0.227,-0.229,0.202,1.0,0.482,-0.454,-0.461,-0.341
5000,B2_3,0.169,-0.335,-0.394,-0.199,0.465,0.107,0.485,-0.514,-0.623,-0.354,-0.313,0.482,1.0,-0.197,-0.324,-0.237
5000,y1,-0.179,-0.309,-0.475,-0.567,0.073,0.318,-0.011,-0.286,-0.07,-0.563,0.2,-0.454,-0.197,1.0,0.966,0.942
5000,y2,-0.26,-0.332,-0.406,-0.56,0.049,0.351,-0.028,-0.232,0.021,-0.558,0.268,-0.461,-0.324,0.966,1.0,0.939
5000,y3,-0.168,-0.192,-0.35,-0.563,-0.116,0.334,0.07,-0.086,0.069,-0.51,0.086,-0.341,-0.237,0.942,0.939,1.0
5500,.,1.0,-0.121,0.202,0.075,-0.04,-0.15,-0.045,-0.057,-0.137,0.037,-0.396,-0.047,0.182,-0.156,-0.189,-0.196
5500,A1_1,-0.121,1.0,0.743,0.787,-0.77,-0.66,-0.361,0.896,0.77,0.731,-0.274,-0.028,-0.36,-0.301,-0.285,-0.256
5500,A1_2,0.202,0.743,1.0,0.862,-0.754,-0.641,-0.614,0.855,0.865,0.831,-0.204,-0.15,-0.421,-0.477,-0.42,-0.379
5500,A1_3,0.075,0.787,0.862,1.0,-0.615,-0.836,-0.619,0.732,0.674,0.856,-0.31,-0.208,-0.224,-0.589,-0.591,-0.583
5500,B1_1,-0.04,-0.77,-0.754,-0.615,1.0,0.534,0.578,-0.93,-0.793,-0.707,0.485,0.395,0.479,0.079,0.012,-0.066
5500,B1_2,-0.15,-0.66,-0.641,-0.836,0.534,1.0,0.409,-0.548,-0.533,-0.642,0.548,0.378,0.126,0.318,0.373,0.354
5500,B1_3,-0.045,-0.361,-0.614,-0.619,0.578,0.409,1.0,-0.494,-0.573,-0.657,0.016,0.704,0.498,0.07,0.03,0.062
5500,A2_1,-0.057,0.896,0.855,0.732,-0.93,-0.548,-0.494,1.0,0.867,0.782,-0.321,-0.161,-0.524,-0.285,-0.226,-0.16
5500,A2_2,-0.137,0.77,0.865,0.674,-0.793,-0.533,-0.573,0.867,1.0,0.668,-0.008,-0.249,-0.634,-0.077,-0.006,0.033
5500,A2_3,0.037,0.731,0.831,0.856,-0.707,-0.642,-0.657,0.782,0.668,1.0,-0.227,-0.209,-0.349,-0.613,-0.566,-0.538
5500,B2_1,-0.396,-0.274,-0.204,-0.31,0.485,0.548,0.016,-0.321,-0.008,-0.227,1.0,0.246,-0.27,0.171,0.204,0.112
5500,B2_2,-0.047,-0.028,-0.15,-0.208,0.395,0.378,0.704,-0.161,-0.249,-0.209,0.246,1.0,0.495,-0.418,-0.379,-0.351
5500,B2_3,0.182,-0.36,-0.421,-0.224,0.479,0.126,0.498,-0.524,-0.634,-0.349,-0.27,0.495,1.0,-0.256,-0.254,-0.223
5500,y1,-0.156,-0.301,-0.477,-0.589,0.079,0.318,0.07,-0.285,-0.077,-0.613,0.171,-0.418,-0.256,1.0,0.983,0.952
5500,y2,-0.189,-0.285,-0.42,-0.591,0.012,0.373,0.03,-0.226,-0.006,-0.566,0.204,-0.379,-0.254,0.983,1.0,0.986
5500,y3,-0.196,-0.256,-0.379,-0.583,-0.066,0.354,0.062,-0.16,0.033,-0.538,0.112,-0.351,-0.223,0.952,0.986,1.0
6000,.,1.0,-0.088,0.193,0.07,-0.074,-0.155,-0.013,-0.033,-0.115,0.018,-0.408,-0.039,0.149,-0.091,-0.098,-0.105
6000,A1_1,-0.088,1.0,0.768,0.798,-0.774,-0.66,-0.385,0.907,0.789,0.75,-0.284,-0.041,-0.38,-0.321,-0.305,-0.284
6000,A1_2,0.193,0.768,1.0,0.87,-0.759,-0.652,-0.626,0.866,0.874,0.848,-0.23,-0.174,-0.439,-0.474,-0.415,-0.376
6000,A1_3,0.07,0.798,0.87,1.0,-0.618,-0.83,-0.628,0.747,0.681,0.868,-0.332,-0.22,-0.24,-0.603,-0.602,-0.592
6000,B1_1,-0.074,-0.774,-0.759,-0.618,1.0,0.539,0.582,-0.922,-0.799,-0.701,0.511,0.406,0.492,0.053,0.011,-0.073
6000,B1_2,-0.155,-0.66,-0.652,-0.83,0.539,1.0,0.413,-0.556,-0.543,-0.634,0.57,0.386,0.139,0.322,0.378,0.351
6000,B1_3,-0.013,-0.385,-0.626,-0.628,0.582,0.413,1.0,-0.5,-0.58,-0.656,0.047,0.71,0.508,0.066,0.022,0.061
6000,A2_1,-0.033,0.907,0.866,0.747,-0.922,-0.556,-0.5,1.0,0.877,0.794,-0.336,-0.164,-0.529,-0.299,-0.252,-0.188
6000,A2_2,-0.115,0.789,0.874,0.681,-0.799,-0.543,-0.58,0.877,1.0,0.687,-0.049,-0.261,-0.646,-0.099,-0.033,0.002
6000,A2_3,0.018,0.75,0.848,0.868,-0.701,-0.634,-0.656,0.794,0.687,1.0,-0.229,-0.195,-0.352,-0.615,-0.57,-0.554
6000,B2_1,-0.408,-0.284,-0.23,-0.332,0.511,0.57,0.047,-0.336,-0.049,-0.229,1.0,0.271,-0.241,0.126,0.192,0.065
6000,B2_2,-0.039,-0.041,-0.174,-0.22,0.406,0.386,0.71,-0.164,-0.261,-0.195,0.271,1.0,0.505,-0.413,-0.378,-0.345
6000,B2_3,0.149,-0.38,-0.439,-0.24,0.492,0.139,0.508,-0.529,-0.646,-0.352,-0.241,0.505,1.0,-0.224,-0.256,-0.185
6000,y1,-0.091,-0.321,-0.474,-0.603,0.053,0.322,0.066,-0.299,-0.099,-0.615,0.126,-0.413,-0.224,1.0,0.988,0.959
6000,y2,-0.098,-0.305,-0.415,-0.602,0.011,0.378,0.022,-0.252,-0.033,-0.57,0.192,-0.378,-0.256,0.988,1.0,0.977
6000,y3,-0.105,-0.284,-0.376,-0.592,-0.073,0.351,0.061,-0.188,0.002,-0.554,0.065,-0.345,-0.185,0.959,0.977,1.0
6500,.,1.0,-0.107,0.151,0.038,-0.083,-0.165,-0.012,-0.063,-0.136,-0.015,-0.416,-0.061,0.14,0.014,-0.001,0.026
6500,A1_1,-0.107,1.0,0.8,0.817,-0.773,-0.65,-0.408,0.922,0.809,0.78,-0.278,-0.037,-0.387,-0.345,-0.292,-0.221
6500,A1_2,0.151,0.8,1.0,0.887,-0.762,-0.66,-0.641,0.878,0.885,0.869,-0.238,-0.193,-0.458,-0.47,-0.381,-0.342
6500,A1_3,0.038,0.817,0.887,1.0,-0.624,-0.82,-0.64,0.77,0.709,0.876,-0.328,-0.228,-0.261,-0.6,-0.559,-0.536
6500,B1_1,-0.083,-0.773,-0.762,-0.624,1.0,0.543,0.586,-0.908,-0.795,-0.696,0.533,0.415,0.496,0.038,-0.022,-0.121
6500,B1_2,-0.165,-0.65,-0.66,-0.82,0.543,1.0,0.417,-0.553,-0.551,-0.614,0.582,0.392,0.143,0.311,0.304,0.274
6500,B1_3,-0.012,-0.408,-0.641,-0.64,0.586,0.417,1.0,-0.509,-0.584,-0.652,0.071,0.714,0.512,0.076,0.029,0.069
6500,A2_1,-0.063,0.922,0.878,0.77,-0.908,-0.553,-0.509,1.0,0.882,0.817,-0.33,-0.154,-0.527,-0.33,-0.261,-0.178
6500,A2_2,-0.136,0.809,0.885,0.709,-0.795,-0.551,-0.584,0.882,1.0,0.715,-0.069,-0.26,-0.64,-0.138,-0.032,-0.001
6500,A2_3,-0.015,0.78,0.869,0.876,-0.696,-0.614,-0.652,0.817,0.715,1.0,-0.222,-0.173,-0.349,-0.619,-0.55,-0.502
6500,B2_1,-0.416,-0.278,-0.238,-0.328,0.533,0.582,0.071,-0.33,-0.069,-0.222,1.0,0.286,-0.222,0.083,0.126,0.003
6500,B2_2,-0.061,-0.037,-0.193,-0.228,0.415,0.392,0.714,-0.154,-0.26,-0.173,0.286,1.0,0.508,-0.377,-0.356,-0.299
6500,B2_3,0.14,-0.387,-0.458,-0.261,0.496,0.143,0.512,-0.527,-0.64,-0.349,-0.222,0.508,1.0,-0.159,-0.196,-0.134
6500,y1,0.014,-0.345,-0.47,-0.6,0.038,0.311,0.076,-0.33,-0.138,-0.619,0.083,-0.377,-0.159,1.0,0.988,0.964
6500,y2,-0.001,-0.292,-0.381,-0.559,-0.022,0.304,0.029,-0.261,-0.032,-0.55,0.126,-0.356,-0.196,0.988,1.0,0.982
6500,y3,0.026,-0.221,-0.342,-0.536,-0.121,0.274,0.069,-0.178,-0.001,-0.502,0.003,-0.299,-0.134,0.964,0.982,1.0
7000,.,1.0,-0.117,0.131,0.03,-0.082,-0.178,-0.009,-0.085,-0.152,-0.054,-0.445,-0.073,0.16,0.01,-0.049,0.025
7000,A1_1,-0.117,1.0,0.815,0.822,-0.777,-0.645,-0.421,0.928,0.822,0.792,-0.271,-0.038,-0.39,-0.272,-0.231,-0.202
7000,A1_2,0.131,0.815,1.0,0.899,-0.766,-0.671,-0.652,0.887,0.892,0.882,-0.246,-0.211,-0.465,-0.42,-0.37,-0.324
7000,A1_3,0.03,0.822,0.899,1.0,-0.627,-0.813,-0.651,0.784,0.731,0.883,-0.317,-0.235,-0.275,-0.541,-0.52,-0.496
7000,B1_1,-0.082,-0.777,-0.766,-0.627,1.0,0.543,0.588,-0.901,-0.797,-0.69,0.536,0.417,0.497,0.005,-0.029,-0.115
7000,B1_2,-0.178,-0.645,-0.671,-0.813,0.543,1.0,0.418,-0.559,-0.566,-0.606,0.582,0.392,0.144,0.248,0.263,0.211
7000,B1_3,-0.009,-0.421,-0.652,-0.651,0.588,0.418,1.0,-0.516,-0.587,-0.656,0.076,0.715,0.513,0.07,0.049,0.047
7000,A2_1,-0.085,0.928,0.887,0.784,-0.901,-0.559,-0.516,1.0,0.891,0.83,-0.324,-0.154,-0.525,-0.297,-0.242,-0.193
7000,A2_2,-0.152,0.822,0.892,0.731,-0.797,-0.566,-0.587,0.891,1.0,0.741,-0.082,-0.261,-0.635,-0.095,-0.019,0.006
7000,A2_3,-0.054,0.792,0.882,0.883,-0.69,-0.606,-0.656,0.83,0.741,1.0,-0.205,-0.17,-0.357,-0.575,-0.538,-0.482
7000,B2_1,-0.445,-0.271,-0.246,-0.317,0.536,0.582,0.076,-0.324,-0.082,-0.205,1.0,0.287,-0.219,0.093,0.148,0.023
7000,B2_2,-0.073,-0.038,-0.211,-0.235,0.417,0.392,0.715,-0.154,-0.261,-0.17,0.287,1.0,0.51,-0.349,-0.329,-0.325
7000,B2_3,0.16,-0.39,-0.465,-0.275,0.497,0.144,0.513,-0.525,-0.635,-0.357,-0.219,0.51,1.0,-0.167,-0.221,-0.154
7000,y1,0.01,-0.272,-0.42,-0.541,0.005,0.248,0.07,-0.297,-0.095,-0.575,0.093,-0.349,-0.167,1.0,0.994,0.978
7000,y2,-0.049,-0.231,-0.37,-0.52,-0.029,0.263,0.049,-0.242,-0.019,-0.538,0.148,-0.329,-0.221,0.994,1.0,0.982
7000,y3,0.025,-0.202,-0.324,-0.496,-0.115,0.211,0.047,-0.193,0.006,-0.482,0.023,-0.325,-0.154,0.978,0.982,1.0
7500,.,1.0,-0.128,0.107,-0.001,-0.086,-0.171,-0.006,-0.104,-0.157,-0.083,-0.421,-0.077,0.173,0.065,0.058,0.095
7500,A1_1,-0.128,1.0,0.834,0.841,-0.772,-0.648,-0.433,0.939,0.838,0.812,-0.276,-0.042,-0.408,-0.23,-0.228,-0.204
7500,A1_2,0.107,0.834,1.0,0.912,-0.76,-0.679,-0.654,0.894,0.899,0.892,-0.256,-0.217,-0.47,-0.366,-0.34,-0.328
7500,A1_3,-0.001,0.841,0.912,1.0,-0.625,-0.803,-0.647,0.8,0.756,0.89,-0.314,-0.22,-0.289,-0.466,-0.457,-0.473
7500,B1_1,-0.086,-0.772,-0.76,-0.625,1.0,0.543,0.591,-0.886,-0.793,-0.684,0.554,0.428,0.517,-0.032,-0.053,-0.116
7500,B1_2,-0.171,-0.648,-0.679,-0.803,0.543,1.0,0.42,-0.559,-0.578,-0.598,0.591,0.397,0.161,0.156,0.146,0.154
7500,B1_3,-0.006,-0.433,-0.654,-0.647,0.591,0.42,1.0,-0.514,-0.59,-0.648,0.101,0.719,0.526,0.013,-0.001,0.049
7500,A2_1,-0.104,0.939,0.894,0.8,-0.886,-0.559,-0.514,1.0,0.899,0.848,-0.319,-0.134,-0.522,-0.272,-0.252,-0.21
7500,A2_2,-0.157,0.838,0.899,0.756,-0.793,-0.578,-0.59,0.899,1.0,0.764,-0.105,-0.262,-0.635,-0.064,-0.029,-0.019
7500,A2_3,-0.083,0.812,0.892,0.89,-0.684,-0.598,-0.648,0.848,0.764,1.0,-0.201,-0.154,-0.361,-0.534,-0.524,-0.505
7500,B2_1,-0.421,-0.276,-0.256,-0.314,0.554,0.591,0.101,-0.319,-0.105,-0.201,1.0,0.309,-0.183,0.067,0.065,-0.018
7500,B2_2,-0.077,-0.042,-0.217,-0.22,0.428,0.397,0.719,-0.134,-0.262,-0.154,0.309,1.0,0.525,-0.405,-0.424,-0.362
7500,B2_3,0.173,-0.408,-0.47,-0.289,0.517,0.161,0.526,-0.522,-0.635,-0.361,-0.183,0.525,1.0,-0.223,-0.253,-0.186
7500,y1,0.065,-0.23,-0.366,-0.466,-0.032,0.156,0.013,-0.272,-0.064,-0.534,0.067,-0.405,-0.223,1.0,0.997,0.982
7500,y2,0.058,-0.228,-0.34,-0.457,-0.053,0.146,-0.001,-0.252,-0.029,-0.524,0.065,-0.424,-0.253,0.997,1.0,0.985
7500,y3,0.095,-0.204,-0.328,-0.473,-0.116,0.154,0.049,-0.21,-0.019,-0.505,-0.018,-0.362,-0.186,0.982,0.985,1.0
8000,.,1.0,-0.144,0.087,-0.008,-0.063,-0.165,-0.004,-0.135,-0.18,-0.11,-0.416,-0.083,0.171,0.059,0.053,0.046
8000,A1_1,-0.144,1.0,0.847,0.851,-0.774,-0.655,-0.453,0.945,0.847,0.826,-0.272,-0.058,-0.419,-0.244,-0.24,-0.206
8000,A1_2,0.087,0.847,1.0,0.918,-0.759,-0.689,-0.663,0.902,0.903,0.896,-0.26,-0.233,-0.478,-0.393,-0.375,-0.346
8000,A1_3,-0.008,0.851,0.918,1.0,-0.625,-0.802,-0.655,0.814,0.767,0.891,-0.309,-0.23,-0.299,-0.521,-0.5,-0.487
8000,B1_1,-0.063,-0.774,-0.759,-0.625,1.0,0.544,0.593,-0.879,-0.788,-0.682,0.556,0.431,0.518,-0.048,-0.07,-0.118
8000,B1_2,-0.165,-0.655,-0.689,-0.802,0.544,1.0,0.421,-0.571,-0.59,-0.596,0.592,0.398,0.163,0.229,0.213,0.176
8000,B1_3,-0.004,-0.453,-0.663,-0.655,0.593,0.421,1.0,-0.531,-0.597,-0.655,0.104,0.721,0.527,0.087,0.045,0.071
8000,A2_1,-0.135,0.945,0.902,0.814,-0.879,-0.571,-0.531,1.0,0.906,0.862,-0.306,-0.145,-0.528,-0.271,-0.258,-0.216
8000,A2_2,-0.18,0.847,0.903,0.767,-0.788,-0.59,-0.597,0.906,1.0,0.779,-0.108,-0.269,-0.631,-0.091,-0.075,-0.035
8000,A2_3,-0.11,0.826,0.896,0.891,-0.682,-0.596,-0.655,0.862,0.779,1.0,-0.189,-0.16,-0.37,-0.536,-0.533,-0.495
8000,B2_1,-0.416,-0.272,-0.26,-0.309,0.556,0.592,0.104,-0.306,-0.108,-0.189,1.0,0.311,-0.18,0.062,0.045,-0.005
8000,B2_2,-0.083,-0.058,-0.233,-0.23,0.431,0.398,0.721,-0.145,-0.269,-0.16,0.311,1.0,0.527,-0.315,-0.368,-0.345
8000,B2_3,0.171,-0.419,-0.478,-0.299,0.518,0.163,0.527,-0.528,-0.631,-0.37,-0.18,0.527,1.0,-0.188,-0.224,-0.203
8000,y1,0.059,-0.244,-0.393,-0.521,-0.048,0.229,0.087,-0.271,-0.091,-0.536,0.062,-0.315,-0.188,1.0,0.997,0.994
8000,y2,0.053,-0.24,-0.375,-0.5,-0.07,0.213,0.045,-0.258,-0.075,-0.533,0.045,-0.368,-0.224,0.997,1.0,0.992
8000,y3,0.046,-0.206,-0.346,-0.487,-0.118,0.176,0.071,-0.216,-0.035,-0.495,-0.005,-0.345,-0.203,0.994,0.992,1.0
8500,.,1.0,-0.147,0.101,0.008,-0.059,-0.168,-0.019,-0.141,-0.18,-0.094,-0.41,-0.08,0.168,0.049,0.023,-0.045
8500,A1_1,-0.147,1.0,0.855,0.857,-0.776,-0.659,-0.47,0.948,0.855,0.833,-0.276,-0.068,-0.421,-0.279,-0.262,-0.229
8500,A1_2,0.101,0.855,1.0,0.924,-0.761,-0.701,-0.674,0.905,0.908,0.901,-0.269,-0.247,-0.48,-0.398,-0.404,-0.369
8500,A1_3,0.008,0.857,0.924,1.0,-0.629,-0.801,-0.662,0.823,0.782,0.895,-0.312,-0.234,-0.302,-0.525,-0.529,-0.506
8500,B1_1,-0.059,-0.776,-0.761,-0.629,1.0,0.55,0.598,-0.875,-0.786,-0.679,0.563,0.437,0.525,-0.035,-0.032,-0.081
8500,B1_2,-0.168,-0.659,-0.701,-0.801,0.55,1.0,0.425,-0.582,-0.602,-0.594,0.597,0.402,0.172,0.249,0.25,0.213
8500,B1_3,-0.019,-0.47,-0.674,-0.662,0.598,0.425,1.0,-0.544,-0.606,-0.655,0.114,0.721,0.54,0.06,0.091,0.081
8500,A2_1,-0.141,0.948,0.905,0.823,-0.875,-0.582,-0.544,1.0,0.914,0.868,-0.305,-0.156,-0.529,-0.299,-0.289,-0.24
8500,A2_2,-0.18,0.855,0.908,0.782,-0.786,-0.602,-0.606,0.914,1.0,0.79,-0.119,-0.274,-0.623,-0.13,-0.126,-0.065
8500,A2_3,-0.094,0.833,0.901,0.895,-0.679,-0.594,-0.655,0.868,0.79,1.0,-0.19,-0.151,-0.361,-0.551,-0.557,-0.5
8500,B2_1,-0.41,-0.276,-0.269,-0.312,0.563,0.597,0.114,-0.305,-0.119,-0.19,1.0,0.319,-0.171,0.06,0.069,0.048
8500,B2_2,-0.08,-0.068,-0.247,-0.234,0.437,0.402,0.721,-0.156,-0.274,-0.151,0.319,1.0,0.538,-0.335,-0.31,-0.322
8500,B2_3,0.168,-0.421,-0.48,-0.302,0.525,0.172,0.54,-0.529,-0.623,-0.361,-0.171,0.538,1.0,-0.177,-0.19,-0.194
8500,y1,0.049,-0.279,-0.398,-0.525,-0.035,0.249,0.06,-0.299,-0.13,-0.551,0.06,-0.335,-0.177,1.0,0.998,0.987
8500,y2,0.023,-0.262,-0.404,-0.529,-0.032,0.25,0.091,-0.289,-0.126,-0.557,0.069,-0.31,-0.19,0.998,1.0,0.989
8500,y3,-0.045,-0.229,-0.369,-0.506,-0.081,0.213,0.081,-0.24,-0.065,-0.5,0.048,-0.322,-0.194,0.987,0.989,1.0
9000,.,1.0,-0.147,0.08,-0.003,-0.057,-0.135,-0.016,-0.153,-0.194,-0.101,-0.396,-0.061,0.173,-0.01,0.041,-0.06
9000,A1_1,-0.147,1.0,0.862,0.863,-0.778,-0.695,-0.486,0.95,0.862,0.838,-0.285,-0.081,-0.428,-0.302,-0.268,-0.24
9000,A1_2,0.08,0.862,1.0,0.928,-0.762,-0.726,-0.689,0.91,0.914,0.905,-0.279,-0.269,-0.492,-0.414,-0.389,-0.37
9000,A1_3,-0.003,0.863,0.928,1.0,-0.631,-0.815,-0.672,0.834,0.791,0.9,-0.318,-0.249,-0.313,-0.543,-0.513,-0.501
9000,B1_1,-0.057,-0.778,-0.762,-0.631,1.0,0.588,0.598,-0.873,-0.781,-0.672,0.576,0.436,0.53,-0.005,-0.05,-0.071
9000,B1_2,-0.135,-0.695,-0.726,-0.815,0.588,1.0,0.44,-0.629,-0.632,-0.614,0.614,0.408,0.199,0.259,0.232,0.211
9000,B1_3,-0.016,-0.486,-0.689,-0.672,0.598,0.44,1.0,-0.563,-0.613,-0.656,0.124,0.721,0.547,0.101,0.069,0.076
9000,A2_1,-0.153,0.95,0.91,0.834,-0.873,-0.629,-0.563,1.0,0.918,0.872,-0.315,-0.178,-0.542,-0.319,-0.293,-0.255
9000,A2_2,-0.194,0.862,0.914,0.791,-0.781,-0.632,-0.613,0.918,1.0,0.797,-0.133,-0.28,-0.62,-0.136,-0.131,-0.078
9000,A2_3,-0.101,0.838,0.905,0.9,-0.672,-0.614,-0.656,0.872,0.797,1.0,-0.196,-0.149,-0.36,-0.583,-0.552,-0.505
9000,B2_1,-0.396,-0.285,-0.279,-0.318,0.576,0.614,0.124,-0.315,-0.133,-0.196,1.0,0.322,-0.156,0.086,0.034,0.051
9000,B2_2,-0.061,-0.081,-0.269,-0.249,0.436,0.408,0.721,-0.178,-0.28,-0.149,0.322,1.0,0.541,-0.313,-0.324,-0.323
9000,B2_3,0.173,-0.428,-0.492,-0.313,0.53,0.199,0.547,-0.542,-0.62,-0.36,-0.156,0.541,1.0,-0.174,-0.16,-0.179
9000,y1,-0.01,-0.302,-0.414,-0.543,-0.005,0.259,0.101,-0.319,-0.136,-0.583,0.086,-0.313,-0.174,1.0,0.995,0.99
9000,y2,0.041,-0.268,-0.389,-0.513,-0.05,0.232,0.069,-0.293,-0.131,-0.552,0.034,-0.324,-0.16,0.995,1.0,0.988
9000,y3,-0.06,-0.24,-0.37,-0.501,-0.071,0.211,0.076,-0.255,-0.078,-0.505,0.051,-0.323,-0.179,0.99,0.988,1.0
9500,.,1.0,-0.154,0.063,-0.007,-0.027,-0.083,-0.002,-0.159,-0.203,-0.106,-0.372,-0.038,0.177,-0.065,0.001,-0.103
9500,A1_1,-0.154,1.0,0.877,0.877,-0.793,-0.747,-0.536,0.955,0.876,0.854,-0.309,-0.112,-0.446,-0.307,-0.303,-0.26
9500,A1_2,0.063,0.877,1.0,0.934,-0.769,-0.757,-0.719,0.919,0.926,0.913,-0.303,-0.299,-0.509,-0.4,-0.405,-0.382
9500,A1_3,-0.007,0.877,0.934,1.0,-0.648,-0.834,-0.7,0.848,0.815,0.91,-0.336,-0.274,-0.333,-0.532,-0.529,-0.52
9500,B1_1,-0.027,-0.793,-0.769,-0.648,1.0,0.654,0.62,-0.883,-0.786,-0.679,0.604,0.436,0.534,-0.003,-0.022,-0.052
9500,B1_2,-0.083,-0.747,-0.757,-0.834,0.654,1.0,0.486,-0.694,-0.683,-0.65,0.645,0.425,0.239,0.26,0.242,0.23
9500,B1_3,-0.002,-0.536,-0.719,-0.7,0.62,0.486,1.0,-0.613,-0.652,-0.685,0.163,0.721,0.556,0.098,0.1,0.126
9500,A2_1,-0.159,0.955,0.919,0.848,-0.883,-0.694,-0.613,1.0,0.928,0.882,-0.344,-0.214,-0.554,-0.304,-0.307,-0.257
9500,A2_2,-0.203,0.876,0.926,0.815,-0.786,-0.683,-0.652,0.928,1.0,0.816,-0.171,-0.309,-0.629,-0.141,-0.169,-0.113
9500,A2_3,-0.106,0.854,0.913,0.91,-0.679,-0.65,-0.685,0.882,0.816,1.0,-0.22,-0.177,-0.378,-0.565,-0.573,-0.516
9500,B2_1,-0.372,-0.309,-0.303,-0.336,0.604,0.645,0.163,-0.344,-0.171,-0.22,1.0,0.332,-0.128,0.095,0.036,0.055
9500,B2_2,-0.038,-0.112,-0.299,-0.274,0.436,0.425,0.721,-0.214,-0.309,-0.177,0.332,1.0,0.544,-0.309,-0.312,-0.274
9500,B2_3,0.177,-0.446,-0.509,-0.333,0.534,0.239,0.556,-0.554,-0.629,-0.378,-0.128,0.544,1.0,-0.176,-0.153,-0.164
9500,y1,-0.065,-0.307,-0.4,-0.532,-0.003,0.26,0.098,-0.304,-0.141,-0.565,0.095,-0.309,-0.176,1.0,0.995,0.989
9500,y2,0.001,-0.303,-0.405,-0.529,-0.022,0.242,0.1,-0.307,-0.169,-0.573,0.036,-0.312,-0.153,0.995,1.0,0.985
9500,y3,-0.103,-0.26,-0.382,-0.52,-0.052,0.23,0.126,-0.257,-0.113,-0.516,0.055,-0.274,-0.164,0.989,0.985,1.0
10000,.,1.0,-0.165,0.035,-0.022,-0.01,-0.052,0.019,-0.165,-0.207,-0.118,-0.33,-0.004,0.177,-0.051,0.001,-0.085
10000,A1_1,-0.165,1.0,0.893,0.892,-0.808,-0.773,-0.584,0.961,0.896,0.871,-0.351,-0.163,-0.476,-0.36,-0.347,-0.326
10000,A1_2,0.035,0.893,1.0,0.946,-0.778,-0.779,-0.749,0.932,0.94,0.922,-0.343,-0.342,-0.534,-0.432,-0.421,-0.417
10000,A1_3,-0.022,0.892,0.946,1.0,-0.668,-0.844,-0.723,0.87,0.846,0.921,-0.372,-0.308,-0.363,-0.547,-0.536,-0.537
10000,B1_1,-0.01,-0.808,-0.778,-0.668,1.0,0.693,0.638,-0.885,-0.798,-0.688,0.641,0.451,0.558,0.049,0.015,0.001
10000,B1_2,-0.052,-0.773,-0.779,-0.844,0.693,1.0,0.525,-0.732,-0.72,-0.674,0.675,0.453,0.275,0.276,0.256,0.255
10000,B1_3,0.019,-0.584,-0.749,-0.723,0.638,0.525,1.0,-0.656,-0.691,-0.708,0.22,0.729,0.576,0.121,0.11,0.13
10000,A2_1,-0.165,0.961,0.932,0.87,-0.885,-0.732,-0.656,1.0,0.941,0.895,-0.387,-0.264,-0.578,-0.361,-0.349,-0.323
10000,A2_2,-0.207,0.896,0.94,0.846,-0.798,-0.72,-0.691,0.941,1.0,0.84,-0.234,-0.351,-0.641,-0.21,-0.214,-0.187
10000,A2_3,-0.118,0.871,0.922,0.921,-0.688,-0.674,-0.708,0.895,0.84,1.0,-0.261,-0.216,-0.404,-0.59,-0.583,-0.549
10000,B2_1,-0.33,-0.351,-0.343,-0.372,0.641,0.675,0.22,-0.387,-0.234,-0.261,1.0,0.363,-0.076,0.093,0.038,0.05
10000,B2_2,-0.004,-0.163,-0.342,-0.308,0.451,0.453,0.729,-0.264,-0.351,-0.216,0.363,1.0,0.552,-0.287,-0.295,-0.273
10000,B2_3,0.177,-0.476,-0.534,-0.363,0.558,0.275,0.576,-0.578,-0.641,-0.404,-0.076,0.552,1.0,-0.108,-0.097,-0.097
10000,y1,-0.051,-0.36,-0.432,-0.547,0.049,0.276,0.121,-0.361,-0.21,-0.59,0.093,-0.287,-0.108,1.0,0.997,0.992
10000,y2,0.001,-0.347,-0.421,-0.536,0.015,0.256,0.11,-0.349,-0.214,-0.583,0.038,-0.295,-0.097,0.997,1.0,0.991
10000,y3,-0.085,-0.326,-0.417,-0.537,0.001,0.255,0.13,-0.323,-0.187,-0.549,0.05,-0.273,-0.097,0.992,0.991,1.0
