,,.,A1_1,A1_2,A1_3,B1_1,B1_2,B1_3,A2_1,A2_2,A2_3,B2_1,B2_2,B2_3,y1,y2,y3
0,.,1.0,-0.311,0.214,-0.12,0.422,-0.652,-0.133,0.639,-0.166,-0.34,0.084,-0.029,-0.125,-0.085,-0.127,-0.304
0,A1_1,-0.311,1.0,-0.413,0.205,0.104,0.134,-0.219,-0.245,0.015,0.161,0.009,-0.252,0.053,0.083,-0.347,0.468
0,A1_2,0.214,-0.413,1.0,-0.026,0.198,-0.004,-0.132,0.65,-0.359,0.292,-0.309,-0.22,0.264,0.634,0.346,-0.218
0,A1_3,-0.12,0.205,-0.026,1.0,0.129,-0.348,0.336,-0.367,-0.567,0.028,-0.045,0.485,-0.168,0.293,-0.239,0.497
0,B1_1,0.422,0.104,0.198,0.129,1.0,-0.698,-0.503,0.343,-0.457,-0.195,0.39,-0.207,0.527,-0.078,0.142,-0.357
0,B1_2,-0.652,0.134,-0.004,-0.348,-0.698,1.0,0.161,-0.188,0.634,0.605,-0.418,-0.203,0.009,0.294,0.279,0.314
0,B1_3,-0.133,-0.219,-0.132,0.336,-0.503,0.161,1.0,-0.113,0.025,0.368,-0.325,0.675,-0.261,0.297,0.184,0.662
0,A2_1,0.639,-0.245,0.65,-0.367,0.343,-0.188,-0.113,1.0,-0.155,0.159,-0.114,-0.383,0.203,0.29,0.415,-0.151
0,A2_2,-0.166,0.015,-0.359,-0.567,-0.457,0.634,0.025,-0.155,1.0,0.358,-0.097,-0.059,0.073,-0.173,0.081,0.033
0,A2_3,-0.34,0.161,0.292,0.028,-0.195,0.605,0.368,0.159,0.358,1.0,-0.346,0.08,0.365,0.734,0.44,0.527
0,B2_1,0.084,0.009,-0.309,-0.045,0.39,-0.418,-0.325,-0.114,-0.097,-0.346,1.0,0.158,0.271,-0.512,0.007,-0.31
0,B2_2,-0.029,-0.252,-0.22,0.485,-0.207,-0.203,0.675,-0.383,-0.059,0.08,0.158,1.0,0.035,0.142,-0.111,0.38
0,B2_3,-0.125,0.053,0.264,-0.168,0.527,0.009,-0.261,0.203,0.073,0.365,0.271,0.035,1.0,0.226,0.52,-0.074
0,y1,-0.085,0.083,0.634,0.293,-0.078,0.294,0.297,0.29,-0.173,0.734,-0.512,0.142,0.226,1.0,0.194,0.467
0,y2,-0.127,-0.347,0.346,-0.239,0.142,0.279,0.184,0.415,0.081,0.44,0.007,-0.111,0.52,0.194,1.0,0.088
0,y3,-0.304,0.468,-0.218,0.497,-0.357,0.314,0.662,-0.151,0.033,0.527,-0.31,0.38,-0.074,0.467,0.088,1.0
500,.,1.0,-0.368,0.264,-0.246,0.384,-0.604,-0.096,0.576,-0.118,-0.079,0.255,0.004,0.097,-0.197,-0.144,-0.218
500,A1_1,-0.368,1.0,-0.244,0.343,0.061,0.054,-0.281,-0.059,0.099,0.331,-0.046,-0.322,0.04,0.127,-0.032,0.146
500,A1_2,0.264,-0.244,1.0,-0.103,0.286,0.115,-0.167,0.668,-0.166,0.409,-0.274,-0.262,0.293,0.476,0.054,0.21
500,A1_3,-0.246,0.343,-0.103,1.0,0.182,-0.317,0.2,-0.426,-0.467,0.071,0.012,0.423,-0.162,0.29,0.053,0.14
500,B1_1,0.384,0.061,0.286,0.182,1.0,-0.659,-0.384,0.378,-0.663,-0.307,0.355,-0.109,0.571,-0.163,-0.107,-0.227
500,B1_2,-0.604,0.054,0.115,-0.317,-0.659,1.0,0.194,-0.089,0.552,0.544,-0.42,-0.211,-0.023,0.484,0.417,0.511
500,B1_3,-0.096,-0.281,-0.167,0.2,-0.384,0.194,1.0,-0.193,-0.237,0.093,-0.294,0.688,-0.222,0.32,0.262,0.301
500,A2_1,0.576,-0.059,0.668,-0.426,0.378,-0.089,-0.193,1.0,-0.048,0.254,-0.11,-0.445,0.273,0.254,0.052,0.17
500,A2_2,-0.118,0.099,-0.166,-0.467,-0.663,0.552,-0.237,-0.048,1.0,0.442,-0.224,-0.351,-0.145,0.147,0.277,0.344
500,A2_3,-0.079,0.331,0.409,0.071,-0.307,0.544,0.093,0.254,0.442,1.0,-0.394,-0.171,0.182,0.809,0.576,0.771
500,B2_1,0.255,-0.046,-0.274,0.012,0.355,-0.42,-0.294,-0.11,-0.224,-0.394,1.0,0.213,0.288,-0.438,-0.188,-0.407
500,B2_2,0.004,-0.322,-0.262,0.423,-0.109,-0.211,0.688,-0.445,-0.351,-0.171,0.213,1.0,0.046,0.083,0.018,0.025
500,B2_3,0.097,0.04,0.293,-0.162,0.571,-0.023,-0.222,0.273,-0.145,0.182,0.288,0.046,1.0,0.192,0.325,0.241
500,y1,-0.197,0.127,0.476,0.29,-0.163,0.484,0.32,0.254,0.147,0.809,-0.438,0.083,0.192,1.0,0.694,0.91
500,y2,-0.144,-0.032,0.054,0.053,-0.107,0.417,0.262,0.052,0.277,0.576,-0.188,0.018,0.325,0.694,1.0,0.892
500,y3,-0.218,0.146,0.21,0.14,-0.227,0.511,0.301,0.17,0.344,0.771,-0.407,0.025,0.241,0.91,0.892,1.0
1000,.,1.0,-0.316,0.138,-0.222,0.378,-0.606,0.026,0.43,-0.259,-0.151,0.248,0.073,0.111,-0.351,-0.293,-0.329
1000,A1_1,-0.316,1.0,-0.143,0.396,0.062,-0.01,-0.318,0.079,0.171,0.391,-0.125,-0.357,0.014,0.141,0.095,0.087
1000,A1_2,0.138,-0.143,1.0,-0.07,0.25,0.107,-0.226,0.719,-0.007,0.449,-0.278,-0.31,0.248,0.352,0.089,0.256
1000,A1_3,-0.222,0.396,-0.07,1.0,0.203,-0.369,0.126,-0.319,-0.384,0.096,0.054,0.361,-0.163,0.157,0.089,0.109
1000,B1_1,0.378,0.062,0.25,0.203,1.0,-0.63,-0.333,0.351,-0.655,-0.297,0.374,-0.027,0.589,-0.28,-0.096,-0.241
1000,B1_2,-0.606,-0.01,0.107,-0.369,-0.63,1.0,0.213,-0.096,0.525,0.49,-0.4,-0.19,-0.006,0.578,0.489,0.593
1000,B1_3,0.026,-0.318,-0.226,0.126,-0.333,0.213,1.0,-0.283,-0.308,0.013,-0.177,0.704,-0.167,0.244,0.221,0.242
1000,A2_1,0.43,0.079,0.719,-0.319,0.351,-0.096,-0.283,1.0,0.075,0.337,-0.16,-0.488,0.243,0.22,0.012,0.105
1000,A2_2,-0.259,0.171,-0.007,-0.384,-0.655,0.525,-0.308,0.075,1.0,0.533,-0.328,-0.476,-0.184,0.403,0.335,0.421
1000,A2_3,-0.151,0.391,0.449,0.096,-0.297,0.49,0.013,0.337,0.533,1.0,-0.376,-0.238,0.167,0.792,0.657,0.771
1000,B2_1,0.248,-0.125,-0.278,0.054,0.374,-0.4,-0.177,-0.16,-0.328,-0.376,1.0,0.351,0.33,-0.456,-0.189,-0.36
1000,B2_2,0.073,-0.357,-0.31,0.361,-0.027,-0.19,0.704,-0.488,-0.476,-0.238,0.351,1.0,0.112,-0.127,0.051,-0.03
1000,B2_3,0.111,0.014,0.248,-0.163,0.589,-0.006,-0.167,0.243,-0.184,0.167,0.33,0.112,1.0,0.055,0.415,0.225
1000,y1,-0.351,0.141,0.352,0.157,-0.28,0.578,0.244,0.22,0.403,0.792,-0.456,-0.127,0.055,1.0,0.853,0.96
1000,y2,-0.293,0.095,0.089,0.089,-0.096,0.489,0.221,0.012,0.335,0.657,-0.189,0.051,0.415,0.853,1.0,0.948
1000,y3,-0.329,0.087,0.256,0.109,-0.241,0.593,0.242,0.105,0.421,0.771,-0.36,-0.03,0.225,0.96,0.948,1.0
1500,.,1.0,-0.327,0.109,-0.191,0.32,-0.584,0.139,0.355,-0.274,-0.159,0.192,0.134,0.062,-0.39,-0.399,-0.421
1500,A1_1,-0.327,1.0,-0.117,0.427,0.061,-0.065,-0.336,0.12,0.184,0.398,-0.122,-0.342,-0.004,0.021,-0.019,0.044
1500,A1_2,0.109,-0.117,1.0,-0.066,0.221,0.117,-0.216,0.73,0.089,0.46,-0.271,-0.302,0.235,0.292,-0.01,0.218
1500,A1_3,-0.191,0.427,-0.066,1.0,0.214,-0.389,0.131,-0.29,-0.382,0.078,0.061,0.361,-0.17,-0.021,0.021,0.045
1500,B1_1,0.32,0.061,0.221,0.214,1.0,-0.606,-0.302,0.325,-0.627,-0.306,0.389,-0.009,0.598,-0.319,-0.15,-0.251
1500,B1_2,-0.584,-0.065,0.117,-0.389,-0.606,1.0,0.22,-0.084,0.446,0.461,-0.379,-0.164,0.009,0.661,0.506,0.603
1500,B1_3,0.139,-0.336,-0.216,0.131,-0.302,0.22,1.0,-0.288,-0.371,-0.002,-0.14,0.719,-0.139,0.206,0.174,0.167
1500,A2_1,0.355,0.12,0.73,-0.29,0.325,-0.084,-0.288,1.0,0.15,0.362,-0.19,-0.499,0.237,0.174,-0.078,0.081
1500,A2_2,-0.274,0.184,0.089,-0.382,-0.627,0.446,-0.371,0.15,1.0,0.565,-0.35,-0.485,-0.158,0.466,0.34,0.435
1500,A2_3,-0.159,0.398,0.46,0.078,-0.306,0.461,-0.002,0.362,0.565,1.0,-0.371,-0.231,0.164,0.72,0.508,0.681
1500,B2_1,0.192,-0.122,-0.271,0.061,0.389,-0.379,-0.14,-0.19,-0.35,-0.371,1.0,0.376,0.338,-0.416,-0.162,-0.393
1500,B2_2,0.134,-0.342,-0.302,0.361,-0.009,-0.164,0.719,-0.499,-0.485,-0.231,0.376,1.0,0.126,-0.117,0.028,-0.095
1500,B2_3,0.062,-0.004,0.235,-0.17,0.598,0.009,-0.139,0.237,-0.158,0.164,0.338,0.126,1.0,0.132,0.309,0.187
1500,y1,-0.39,0.021,0.292,-0.021,-0.319,0.661,0.206,0.174,0.466,0.72,-0.416,-0.117,0.132,1.0,0.894,0.984
1500,y2,-0.399,-0.019,-0.01,0.021,-0.15,0.506,0.174,-0.078,0.34,0.508,-0.162,0.028,0.309,0.894,1.0,0.943
1500,y3,-0.421,0.044,0.218,0.045,-0.251,0.603,0.167,0.081,0.435,0.681,-0.393,-0.095,0.187,0.984,0.943,1.0
2000,.,1.0,-0.311,0.04,-0.152,0.305,-0.577,0.182,0.262,-0.304,-0.128,0.172,0.192,0.076,-0.413,-0.409,-0.453
2000,A1_1,-0.311,1.0,-0.094,0.447,0.058,-0.109,-0.38,0.146,0.256,0.388,-0.109,-0.348,-0.008,0.017,-0.006,-0.006
2000,A1_2,0.04,-0.094,1.0,-0.022,0.198,0.149,-0.205,0.754,0.174,0.497,-0.272,-0.289,0.225,0.191,-0.016,0.167
2000,A1_3,-0.152,0.447,-0.022,1.0,0.265,-0.42,0.082,-0.223,-0.335,0.034,0.103,0.334,-0.147,-0.066,-0.086,-0.044
2000,B1_1,0.305,0.058,0.198,0.265,1.0,-0.584,-0.282,0.293,-0.59,-0.299,0.396,0.003,0.603,-0.326,-0.206,-0.307
2000,B1_2,-0.577,-0.109,0.149,-0.42,-0.584,1.0,0.243,-0.054,0.389,0.434,-0.355,-0.134,0.03,0.648,0.576,0.634
2000,B1_3,0.182,-0.38,-0.205,0.082,-0.282,0.243,1.0,-0.31,-0.439,-0.051,-0.113,0.737,-0.122,0.16,0.107,0.145
2000,A2_1,0.262,0.146,0.754,-0.223,0.293,-0.054,-0.31,1.0,0.233,0.433,-0.233,-0.509,0.222,0.114,-0.078,0.054
2000,A2_2,-0.304,0.256,0.174,-0.335,-0.59,0.389,-0.439,0.233,1.0,0.633,-0.369,-0.529,-0.15,0.473,0.397,0.46
2000,A2_3,-0.128,0.388,0.497,0.034,-0.299,0.434,-0.051,0.433,0.633,1.0,-0.349,-0.241,0.176,0.639,0.507,0.602
2000,B2_1,0.172,-0.109,-0.272,0.103,0.396,-0.355,-0.113,-0.233,-0.369,-0.349,1.0,0.39,0.346,-0.402,-0.196,-0.374
2000,B2_2,0.192,-0.348,-0.289,0.334,0.003,-0.134,0.737,-0.509,-0.529,-0.241,0.39,1.0,0.131,-0.166,-0.077,-0.135
2000,B2_3,0.076,-0.008,0.225,-0.147,0.603,0.03,-0.122,0.222,-0.15,0.176,0.346,0.131,1.0,0.087,0.268,0.119
2000,y1,-0.413,0.017,0.191,-0.066,-0.326,0.648,0.16,0.114,0.473,0.639,-0.402,-0.166,0.087,1.0,0.94,0.994
2000,y2,-0.409,-0.006,-0.016,-0.086,-0.206,0.576,0.107,-0.078,0.397,0.507,-0.196,-0.077,0.268,0.94,1.0,0.957
2000,y3,-0.453,-0.006,0.167,-0.044,-0.307,0.634,0.145,0.054,0.46,0.602,-0.374,-0.135,0.119,0.994,0.957,1.0
2500,.,1.0,-0.314,0.057,-0.162,0.343,-0.559,0.2,0.277,-0.315,-0.083,0.183,0.196,0.129,-0.482,-0.386,-0.322
2500,A1_1,-0.314,1.0,-0.058,0.457,0.052,-0.141,-0.411,0.163,0.305,0.393,-0.134,-0.368,-0.029,0.023,-0.042,-0.145
2500,A1_2,0.057,-0.058,1.0,-0.003,0.18,0.15,-0.217,0.755,0.21,0.503,-0.279,-0.296,0.207,0.129,0.032,0.152
2500,A1_3,-0.162,0.457,-0.003,1.0,0.243,-0.414,0.078,-0.215,-0.276,0.047,0.086,0.334,-0.155,-0.085,-0.152,-0.092
2500,B1_1,0.343,0.052,0.18,0.243,1.0,-0.577,-0.269,0.27,-0.591,-0.297,0.399,0.008,0.603,-0.285,-0.303,-0.301
2500,B1_2,-0.559,-0.141,0.15,-0.414,-0.577,1.0,0.245,-0.041,0.359,0.402,-0.347,-0.131,0.034,0.637,0.617,0.607
2500,B1_3,0.2,-0.411,-0.217,0.078,-0.269,0.245,1.0,-0.29,-0.453,-0.079,-0.098,0.737,-0.113,0.012,0.032,0.15
2500,A2_1,0.277,0.163,0.755,-0.215,0.27,-0.041,-0.29,1.0,0.25,0.441,-0.26,-0.504,0.206,0.062,-0.049,0.035
2500,A2_2,-0.315,0.305,0.21,-0.276,-0.591,0.359,-0.453,0.25,1.0,0.663,-0.39,-0.538,-0.173,0.493,0.494,0.415
2500,A2_3,-0.083,0.393,0.503,0.047,-0.297,0.402,-0.079,0.441,0.663,1.0,-0.34,-0.242,0.179,0.535,0.538,0.522
2500,B2_1,0.183,-0.134,-0.279,0.086,0.399,-0.347,-0.098,-0.26,-0.39,-0.34,1.0,0.392,0.347,-0.299,-0.224,-0.3
2500,B2_2,0.196,-0.368,-0.296,0.334,0.008,-0.131,0.737,-0.504,-0.538,-0.242,0.392,1.0,0.133,-0.212,-0.16,-0.113
2500,B2_3,0.129,-0.029,0.207,-0.155,0.603,0.034,-0.113,0.206,-0.173,0.179,0.347,0.133,1.0,0.13,0.2,0.087
2500,y1,-0.482,0.023,0.129,-0.085,-0.285,0.637,0.012,0.062,0.493,0.535,-0.299,-0.212,0.13,1.0,0.965,0.969
2500,y2,-0.386,-0.042,0.032,-0.152,-0.303,0.617,0.032,-0.049,0.494,0.538,-0.224,-0.16,0.2,0.965,1.0,0.961
2500,y3,-0.322,-0.145,0.152,-0.092,-0.301,0.607,0.15,0.035,0.415,0.522,-0.3,-0.113,0.087,0.969,0.961,1.0
3000,.,1.0,-0.334,0.025,-0.148,0.327,-0.538,0.26,0.239,-0.337,-0.081,0.178,0.233,0.107,-0.412,-0.378,-0.381
3000,A1_1,-0.334,1.0,-0.013,0.463,0.05,-0.171,-0.448,0.208,0.346,0.398,-0.151,-0.393,-0.036,-0.049,-0.103,-0.081
3000,A1_2,0.025,-0.013,1.0,0.014,0.159,0.159,-0.214,0.749,0.266,0.539,-0.299,-0.302,0.195,0.185,0.103,0.14
3000,A1_3,-0.148,0.463,0.014,1.0,0.241,-0.43,0.059,-0.194,-0.219,0.059,0.074,0.323,-0.156,-0.201,-0.191,-0.087
3000,B1_1,0.327,0.05,0.159,0.241,1.0,-0.566,-0.254,0.24,-0.585,-0.293,0.396,0.013,0.603,-0.341,-0.31,-0.288
3000,B1_2,-0.538,-0.171,0.159,-0.43,-0.566,1.0,0.249,-0.031,0.316,0.365,-0.336,-0.126,0.04,0.691,0.646,0.649
3000,B1_3,0.26,-0.448,-0.214,0.059,-0.254,0.249,1.0,-0.279,-0.464,-0.098,-0.09,0.739,-0.107,0.045,0.05,0.11
3000,A2_1,0.239,0.208,0.749,-0.194,0.24,-0.031,-0.279,1.0,0.289,0.475,-0.29,-0.513,0.182,0.132,0.001,0.006
3000,A2_2,-0.337,0.346,0.266,-0.219,-0.585,0.316,-0.464,0.289,1.0,0.69,-0.399,-0.529,-0.178,0.493,0.469,0.397
3000,A2_3,-0.081,0.398,0.539,0.059,-0.293,0.365,-0.098,0.475,0.69,1.0,-0.358,-0.247,0.171,0.551,0.523,0.524
3000,B2_1,0.178,-0.151,-0.299,0.074,0.396,-0.336,-0.09,-0.29,-0.399,-0.358,1.0,0.392,0.344,-0.317,-0.249,-0.3
3000,B2_2,0.233,-0.393,-0.302,0.323,0.013,-0.126,0.739,-0.513,-0.529,-0.247,0.392,1.0,0.133,-0.225,-0.153,-0.131
3000,B2_3,0.107,-0.036,0.195,-0.156,0.603,0.04,-0.107,0.182,-0.178,0.171,0.344,0.133,1.0,0.114,0.207,0.135
3000,y1,-0.412,-0.049,0.185,-0.201,-0.341,0.691,0.045,0.132,0.493,0.551,-0.317,-0.225,0.114,1.0,0.96,0.976
3000,y2,-0.378,-0.103,0.103,-0.191,-0.31,0.646,0.05,0.001,0.469,0.523,-0.249,-0.153,0.207,0.96,1.0,0.974
3000,y3,-0.381,-0.081,0.14,-0.087,-0.288,0.649,0.11,0.006,0.397,0.524,-0.3,-0.131,0.135,0.976,0.974,1.0
3500,.,1.0,-0.261,0.046,-0.128,0.295,-0.549,0.223,0.257,-0.25,-0.031,0.154,0.178,0.073,-0.376,-0.409,-0.322
3500,A1_1,-0.261,1.0,0.038,0.488,0.026,-0.213,-0.46,0.248,0.398,0.425,-0.137,-0.381,-0.045,-0.144,-0.13,-0.247
3500,A1_2,0.046,0.038,1.0,0.099,0.143,0.095,-0.236,0.785,0.361,0.583,-0.295,-0.312,0.162,0.037,0.002,0.091
3500,A1_3,-0.128,0.488,0.099,1.0,0.223,-0.462,0.009,-0.117,-0.118,0.113,0.096,0.305,-0.152,-0.245,-0.221,-0.312
3500,B1_1,0.295,0.026,0.143,0.223,1.0,-0.531,-0.229,0.212,-0.557,-0.288,0.4,0.01,0.608,-0.34,-0.378,-0.27
3500,B1_2,-0.549,-0.213,0.095,-0.462,-0.531,1.0,0.258,-0.038,0.223,0.294,-0.316,-0.12,0.053,0.653,0.674,0.703
3500,B1_3,0.223,-0.46,-0.236,0.009,-0.229,0.258,1.0,-0.277,-0.509,-0.141,-0.076,0.74,-0.096,0.135,0.185,0.212
3500,A2_1,0.257,0.248,0.785,-0.117,0.212,-0.038,-0.277,1.0,0.362,0.537,-0.301,-0.503,0.179,-0.008,-0.055,0.035
3500,A2_2,-0.25,0.398,0.361,-0.118,-0.557,0.223,-0.509,0.362,1.0,0.718,-0.41,-0.533,-0.174,0.355,0.348,0.248
3500,A2_3,-0.031,0.425,0.583,0.113,-0.288,0.294,-0.141,0.537,0.718,1.0,-0.364,-0.259,0.167,0.437,0.431,0.407
3500,B2_1,0.154,-0.137,-0.295,0.096,0.4,-0.316,-0.076,-0.301,-0.41,-0.364,1.0,0.39,0.336,-0.322,-0.354,-0.276
3500,B2_2,0.178,-0.381,-0.312,0.305,0.01,-0.12,0.74,-0.503,-0.533,-0.259,0.39,1.0,0.13,-0.083,-0.038,-0.038
3500,B2_3,0.073,-0.045,0.162,-0.152,0.608,0.053,-0.096,0.179,-0.174,0.167,0.336,0.13,1.0,0.177,0.166,0.257
3500,y1,-0.376,-0.144,0.037,-0.245,-0.34,0.653,0.135,-0.008,0.355,0.437,-0.322,-0.083,0.177,1.0,0.994,0.982
3500,y2,-0.409,-0.13,0.002,-0.221,-0.378,0.674,0.185,-0.055,0.348,0.431,-0.354,-0.038,0.166,0.994,1.0,0.971
3500,y3,-0.322,-0.247,0.091,-0.312,-0.27,0.703,0.212,0.035,0.248,0.407,-0.276,-0.038,0.257,0.982,0.971,1.0
4000,.,1.0,-0.262,0.027,-0.158,0.283,-0.511,0.202,0.213,-0.267,-0.026,0.144,0.127,0.071,-0.353,-0.412,-0.346
4000,A1_1,-0.262,1.0,0.089,0.53,0.024,-0.239,-0.476,0.293,0.408,0.411,-0.137,-0.387,-0.066,-0.19,-0.122,-0.204
4000,A1_2,0.027,0.089,1.0,0.166,0.134,0.083,-0.243,0.799,0.434,0.642,-0.299,-0.309,0.148,-0.023,0.008,-0.034
4000,A1_3,-0.158,0.53,0.166,1.0,0.207,-0.468,-0.019,-0.025,-0.063,0.14,0.055,0.255,-0.174,-0.301,-0.221,-0.248
4000,B1_1,0.283,0.024,0.134,0.207,1.0,-0.495,-0.211,0.187,-0.542,-0.291,0.403,0.019,0.615,-0.309,-0.372,-0.334
4000,B1_2,-0.511,-0.239,0.083,-0.468,-0.495,1.0,0.264,-0.035,0.198,0.27,-0.275,-0.11,0.073,0.682,0.655,0.668
4000,B1_3,0.202,-0.476,-0.243,-0.019,-0.211,0.264,1.0,-0.284,-0.536,-0.166,-0.056,0.741,-0.084,0.186,0.108,0.235
4000,A2_1,0.213,0.293,0.799,-0.025,0.187,-0.035,-0.284,1.0,0.426,0.582,-0.317,-0.505,0.138,-0.055,-0.077,-0.091
4000,A2_2,-0.267,0.408,0.434,-0.063,-0.542,0.198,-0.536,0.426,1.0,0.728,-0.441,-0.56,-0.19,0.25,0.356,0.221
4000,A2_3,-0.026,0.411,0.642,0.14,-0.291,0.27,-0.166,0.582,0.728,1.0,-0.391,-0.282,0.143,0.376,0.441,0.375
4000,B2_1,0.144,-0.137,-0.299,0.055,0.403,-0.275,-0.056,-0.317,-0.441,-0.391,1.0,0.389,0.349,-0.288,-0.308,-0.245
4000,B2_2,0.127,-0.387,-0.309,0.255,0.019,-0.11,0.741,-0.505,-0.56,-0.282,0.389,1.0,0.142,-0.048,-0.07,0.021
4000,B2_3,0.071,-0.066,0.148,-0.174,0.615,0.073,-0.084,0.138,-0.19,0.143,0.349,0.142,1.0,0.245,0.194,0.206
4000,y1,-0.353,-0.19,-0.023,-0.301,-0.309,0.682,0.186,-0.055,0.25,0.376,-0.288,-0.048,0.245,1.0,0.986,0.993
4000,y2,-0.412,-0.122,0.008,-0.221,-0.372,0.655,0.108,-0.077,0.356,0.441,-0.308,-0.07,0.194,0.986,1.0,0.983
4000,y3,-0.346,-0.204,-0.034,-0.248,-0.334,0.668,0.235,-0.091,0.221,0.375,-0.245,0.021,0.206,0.993,0.983,1.0
4500,.,1.0,-0.234,0.035,-0.165,0.252,-0.508,0.169,0.188,-0.272,-0.032,0.116,0.093,0.073,-0.369,-0.389,-0.334
4500,A1_1,-0.234,1.0,0.142,0.557,-0.011,-0.249,-0.475,0.307,0.47,0.468,-0.135,-0.371,-0.071,-0.227,-0.177,-0.302
4500,A1_2,0.035,0.142,1.0,0.199,0.126,0.05,-0.244,0.819,0.5,0.705,-0.3,-0.306,0.134,-0.086,-0.107,-0.03
4500,A1_3,-0.165,0.557,0.199,1.0,0.183,-0.482,-0.033,0.007,0.009,0.188,0.059,0.249,-0.183,-0.34,-0.274,-0.346
4500,B1_1,0.252,-0.011,0.126,0.183,1.0,-0.458,-0.191,0.193,-0.525,-0.272,0.409,0.015,0.607,-0.352,-0.347,-0.333
4500,B1_2,-0.508,-0.249,0.05,-0.482,-0.458,1.0,0.27,-0.041,0.173,0.231,-0.254,-0.097,0.079,0.67,0.612,0.67
4500,B1_3,0.169,-0.475,-0.244,-0.033,-0.191,0.27,1.0,-0.28,-0.555,-0.196,-0.043,0.746,-0.079,0.174,0.174,0.234
4500,A2_1,0.188,0.307,0.819,0.007,0.193,-0.041,-0.28,1.0,0.475,0.628,-0.301,-0.491,0.148,-0.151,-0.145,-0.104
4500,A2_2,-0.272,0.47,0.5,0.009,-0.525,0.173,-0.555,0.475,1.0,0.741,-0.439,-0.567,-0.186,0.216,0.218,0.184
4500,A2_3,-0.032,0.468,0.705,0.188,-0.272,0.231,-0.196,0.628,0.741,1.0,-0.373,-0.286,0.144,0.293,0.274,0.293
4500,B2_1,0.116,-0.135,-0.3,0.059,0.409,-0.254,-0.043,-0.301,-0.439,-0.373,1.0,0.388,0.338,-0.265,-0.312,-0.221
4500,B2_2,0.093,-0.371,-0.306,0.249,0.015,-0.097,0.746,-0.491,-0.567,-0.286,0.388,1.0,0.138,0.002,-0.004,0.061
4500,B2_3,0.073,-0.071,0.134,-0.183,0.607,0.079,-0.079,0.148,-0.186,0.144,0.338,0.138,1.0,0.241,0.189,0.244
4500,y1,-0.369,-0.227,-0.086,-0.34,-0.352,0.67,0.174,-0.151,0.216,0.293,-0.265,0.002,0.241,1.0,0.991,0.989
4500,y2,-0.389,-0.177,-0.107,-0.274,-0.347,0.612,0.174,-0.145,0.218,0.274,-0.312,-0.004,0.189,0.991,1.0,0.977
4500,y3,-0.334,-0.302,-0.03,-0.346,-0.333,0.67,0.234,-0.104,0.184,0.293,-0.221,0.061,0.244,0.989,0.977,1.0
5000,.,1.0,-0.275,-0.049,-0.243,0.164,-0.492,0.137,0.115,-0.291,-0.084,0.068,0.08,0.073,-0.252,-0.268,-0.238
5000,A1_1,-0.275,1.0,0.239,0.607,0.005,-0.26,-0.487,0.343,0.539,0.525,-0.129,-0.376,-0.071,-0.219,-0.17,-0.362
5000,A1_2,-0.049,0.239,1.0,0.301,0.147,0.046,-0.238,0.82,0.579,0.777,-0.273,-0.3,0.131,-0.082,-0.157,-0.122
5000,A1_3,-0.243,0.607,0.301,1.0,0.198,-0.48,-0.091,0.085,0.117,0.252,0.05,0.188,-0.186,-0.337,-0.314,-0.38
5000,B1_1,0.164,0.005,0.147,0.198,1.0,-0.385,-0.144,0.229,-0.482,-0.23,0.413,0.001,0.586,-0.386,-0.36,-0.404
5000,B1_2,-0.492,-0.26,0.046,-0.48,-0.385,1.0,0.29,-0.025,0.145,0.19,-0.226,-0.093,0.088,0.599,0.582,0.633
5000,B1_3,0.137,-0.487,-0.238,-0.091,-0.144,0.29,1.0,-0.251,-0.573,-0.233,-0.024,0.736,-0.077,0.183,0.142,0.245
5000,A2_1,0.115,0.343,0.82,0.085,0.229,-0.025,-0.251,1.0,0.53,0.7,-0.291,-0.485,0.159,-0.107,-0.19,-0.224
5000,A2_2,-0.291,0.539,0.579,0.117,-0.482,0.145,-0.573,0.53,1.0,0.775,-0.414,-0.575,-0.199,0.145,0.108,0.057
5000,A2_3,-0.084,0.525,0.777,0.252,-0.23,0.19,-0.233,0.7,0.775,1.0,-0.364,-0.319,0.115,0.246,0.207,0.159
5000,B2_1,0.068,-0.129,-0.273,0.05,0.413,-0.226,-0.024,-0.291,-0.414,-0.364,1.0,0.384,0.331,-0.333,-0.295,-0.238
5000,B2_2,0.08,-0.376,-0.3,0.188,0.001,-0.093,0.736,-0.485,-0.575,-0.319,0.384,1.0,0.133,0.024,0.016,0.118
5000,B2_3,0.073,-0.071,0.131,-0.186,0.586,0.088,-0.077,0.159,-0.199,0.115,0.331,0.133,1.0,0.236,0.264,0.207
5000,y1,-0.252,-0.219,-0.082,-0.337,-0.386,0.599,0.183,-0.107,0.145,0.246,-0.333,0.024,0.236,1.0,0.989,0.976
5000,y2,-0.268,-0.17,-0.157,-0.314,-0.36,0.582,0.142,-0.19,0.108,0.207,-0.295,0.016,0.264,0.989,1.0,0.966
5000,y3,-0.238,-0.362,-0.122,-0.38,-0.404,0.633,0.245,-0.224,0.057,0.159,-0.238,0.118,0.207,0.976,0.966,1.0
5500,.,1.0,-0.269,-0.114,-0.285,0.119,-0.447,0.126,0.033,-0.286,-0.108,0.046,0.065,0.092,-0.194,-0.254,-0.176
5500,A1_1,-0.269,1.0,0.306,0.639,0.0,-0.27,-0.502,0.421,0.594,0.582,-0.128,-0.375,-0.065,-0.263,-0.281,-0.31
5500,A1_2,-0.114,0.306,1.0,0.334,0.139,0.043,-0.252,0.844,0.629,0.799,-0.273,-0.308,0.131,-0.147,-0.17,-0.18
5500,A1_3,-0.285,0.639,0.334,1.0,0.176,-0.486,-0.111,0.18,0.201,0.315,0.036,0.162,-0.206,-0.396,-0.374,-0.362
5500,B1_1,0.119,0.0,0.139,0.176,1.0,-0.369,-0.12,0.216,-0.443,-0.192,0.418,0.004,0.59,-0.393,-0.374,-0.417
5500,B1_2,-0.447,-0.27,0.043,-0.486,-0.369,1.0,0.294,-0.041,0.09,0.158,-0.214,-0.088,0.1,0.608,0.634,0.607
5500,B1_3,0.126,-0.502,-0.252,-0.111,-0.12,0.294,1.0,-0.266,-0.592,-0.266,-0.003,0.735,-0.065,0.167,0.14,0.252
5500,A2_1,0.033,0.421,0.844,0.18,0.216,-0.041,-0.266,1.0,0.598,0.74,-0.27,-0.479,0.136,-0.195,-0.273,-0.293
5500,A2_2,-0.286,0.594,0.629,0.201,-0.443,0.09,-0.592,0.598,1.0,0.783,-0.398,-0.571,-0.209,0.045,0.021,-0.026
5500,A2_3,-0.108,0.582,0.799,0.315,-0.192,0.158,-0.266,0.74,0.783,1.0,-0.332,-0.328,0.116,0.135,0.109,0.109
5500,B2_1,0.046,-0.128,-0.273,0.036,0.418,-0.214,-0.003,-0.27,-0.398,-0.332,1.0,0.385,0.332,-0.4,-0.263,-0.343
5500,B2_2,0.065,-0.375,-0.308,0.162,0.004,-0.088,0.735,-0.479,-0.571,-0.328,0.385,1.0,0.132,-0.033,0.015,0.098
5500,B2_3,0.092,-0.065,0.131,-0.206,0.59,0.1,-0.065,0.136,-0.209,0.116,0.332,0.132,1.0,0.18,0.219,0.172
5500,y1,-0.194,-0.263,-0.147,-0.396,-0.393,0.608,0.167,-0.195,0.045,0.135,-0.4,-0.033,0.18,1.0,0.983,0.983
5500,y2,-0.254,-0.281,-0.17,-0.374,-0.374,0.634,0.14,-0.273,0.021,0.109,-0.263,0.015,0.219,0.983,1.0,0.983
5500,y3,-0.176,-0.31,-0.18,-0.362,-0.417,0.607,0.252,-0.293,-0.026,0.109,-0.343,0.098,0.172,0.983,0.983,1.0
6000,.,1.0,-0.337,-0.17,-0.341,0.057,-0.425,0.114,-0.041,-0.357,-0.199,0.035,0.076,0.072,-0.137,-0.11,-0.089
6000,A1_1,-0.337,1.0,0.396,0.687,0.005,-0.27,-0.496,0.501,0.657,0.652,-0.131,-0.369,-0.063,-0.277,-0.31,-0.379
6000,A1_2,-0.17,0.396,1.0,0.382,0.152,0.025,-0.274,0.873,0.662,0.834,-0.248,-0.318,0.148,-0.172,-0.201,-0.188
6000,A1_3,-0.341,0.687,0.382,1.0,0.194,-0.488,-0.144,0.273,0.283,0.398,0.056,0.138,-0.186,-0.399,-0.433,-0.451
6000,B1_1,0.057,0.005,0.152,0.194,1.0,-0.334,-0.09,0.239,-0.398,-0.137,0.417,0.014,0.598,-0.4,-0.409,-0.379
6000,B1_2,-0.425,-0.27,0.025,-0.488,-0.334,1.0,0.322,-0.077,0.06,0.116,-0.198,-0.069,0.123,0.599,0.596,0.589
6000,B1_3,0.114,-0.496,-0.274,-0.144,-0.09,0.322,1.0,-0.296,-0.592,-0.32,0.005,0.74,-0.047,0.177,0.154,0.192
6000,A2_1,-0.041,0.501,0.873,0.273,0.239,-0.077,-0.296,1.0,0.637,0.764,-0.237,-0.464,0.157,-0.257,-0.292,-0.314
6000,A2_2,-0.357,0.657,0.662,0.283,-0.398,0.06,-0.592,0.637,1.0,0.797,-0.344,-0.559,-0.218,-0.043,-0.062,-0.104
6000,A2_3,-0.199,0.652,0.834,0.398,-0.137,0.116,-0.32,0.764,0.797,1.0,-0.247,-0.326,0.132,0.048,0.012,-0.007
6000,B2_1,0.035,-0.131,-0.248,0.056,0.417,-0.198,0.005,-0.237,-0.344,-0.247,1.0,0.386,0.33,-0.351,-0.364,-0.325
6000,B2_2,0.076,-0.369,-0.318,0.138,0.014,-0.069,0.74,-0.464,-0.559,-0.326,0.386,1.0,0.123,-0.007,-0.04,0.044
6000,B2_3,0.072,-0.063,0.148,-0.186,0.598,0.123,-0.047,0.157,-0.218,0.132,0.33,0.123,1.0,0.176,0.144,0.206
6000,y1,-0.137,-0.277,-0.172,-0.399,-0.4,0.599,0.177,-0.257,-0.043,0.048,-0.351,-0.007,0.176,1.0,0.996,0.989
6000,y2,-0.11,-0.31,-0.201,-0.433,-0.409,0.596,0.154,-0.292,-0.062,0.012,-0.364,-0.04,0.144,0.996,1.0,0.991
6000,y3,-0.089,-0.379,-0.188,-0.451,-0.379,0.589,0.192,-0.314,-0.104,-0.007,-0.325,0.044,0.206,0.989,0.991,1.0
6500,.,1.0,-0.361,-0.179,-0.362,-0.003,-0.41,0.106,-0.076,-0.364,-0.236,-0.02,0.064,0.061,-0.056,0.003,-0.012
6500,A1_1,-0.361,1.0,0.463,0.714,0.023,-0.27,-0.477,0.561,0.7,0.683,-0.11,-0.359,-0.07,-0.322,-0.365,-0.375
6500,A1_2,-0.179,0.463,1.0,0.422,0.164,0.001,-0.289,0.885,0.708,0.867,-0.206,-0.314,0.159,-0.249,-0.268,-0.228
6500,A1_3,-0.362,0.714,0.422,1.0,0.223,-0.486,-0.143,0.342,0.343,0.44,0.07,0.128,-0.168,-0.458,-0.471,-0.418
6500,B1_1,-0.003,0.023,0.164,0.223,1.0,-0.312,-0.063,0.256,-0.34,-0.094,0.425,0.023,0.598,-0.413,-0.43,-0.365
6500,B1_2,-0.41,-0.27,0.001,-0.486,-0.312,1.0,0.328,-0.084,0.031,0.11,-0.176,-0.055,0.135,0.588,0.544,0.536
6500,B1_3,0.106,-0.477,-0.289,-0.143,-0.063,0.328,1.0,-0.291,-0.589,-0.298,0.025,0.745,-0.037,0.157,0.131,0.174
6500,A2_1,-0.076,0.561,0.885,0.342,0.256,-0.084,-0.291,1.0,0.665,0.802,-0.217,-0.453,0.162,-0.284,-0.33,-0.319
6500,A2_2,-0.364,0.7,0.708,0.343,-0.34,0.031,-0.589,0.665,1.0,0.82,-0.292,-0.536,-0.199,-0.131,-0.153,-0.19
6500,A2_3,-0.236,0.683,0.867,0.44,-0.094,0.11,-0.298,0.802,0.82,1.0,-0.21,-0.31,0.131,-0.049,-0.08,-0.072
6500,B2_1,-0.02,-0.11,-0.206,0.07,0.425,-0.176,0.025,-0.217,-0.292,-0.21,1.0,0.386,0.329,-0.356,-0.343,-0.356
6500,B2_2,0.064,-0.359,-0.314,0.128,0.023,-0.055,0.745,-0.453,-0.536,-0.31,0.386,1.0,0.121,-0.038,-0.034,0.024
6500,B2_3,0.061,-0.07,0.159,-0.168,0.598,0.135,-0.037,0.162,-0.199,0.131,0.329,0.121,1.0,0.157,0.132,0.187
6500,y1,-0.056,-0.322,-0.249,-0.458,-0.413,0.588,0.157,-0.284,-0.131,-0.049,-0.356,-0.038,0.157,1.0,0.994,0.986
6500,y2,0.003,-0.365,-0.268,-0.471,-0.43,0.544,0.131,-0.33,-0.153,-0.08,-0.343,-0.034,0.132,0.994,1.0,0.991
6500,y3,-0.012,-0.375,-0.228,-0.418,-0.365,0.536,0.174,-0.319,-0.19,-0.072,-0.356,0.024,0.187,0.986,0.991,1.0
7000,.,1.0,-0.405,-0.199,-0.402,-0.012,-0.395,0.102,-0.121,-0.401,-0.254,-0.03,0.067,0.07,0.01,0.013,0.049
7000,A1_1,-0.405,1.0,0.518,0.74,0.015,-0.267,-0.468,0.602,0.73,0.702,-0.122,-0.355,-0.082,-0.347,-0.358,-0.412
7000,A1_2,-0.199,0.518,1.0,0.485,0.166,-0.021,-0.312,0.896,0.742,0.885,-0.186,-0.326,0.152,-0.249,-0.231,-0.236
7000,A1_3,-0.402,0.74,0.485,1.0,0.231,-0.462,-0.145,0.407,0.392,0.478,0.05,0.091,-0.181,-0.492,-0.508,-0.509
7000,B1_1,-0.012,0.015,0.166,0.231,1.0,-0.298,-0.039,0.22,-0.296,-0.076,0.428,0.032,0.6,-0.383,-0.412,-0.333
7000,B1_2,-0.395,-0.267,-0.021,-0.462,-0.298,1.0,0.328,-0.096,0.024,0.086,-0.167,-0.05,0.144,0.524,0.591,0.533
7000,B1_3,0.102,-0.468,-0.312,-0.145,-0.039,0.328,1.0,-0.304,-0.592,-0.307,0.044,0.745,-0.02,0.057,0.071,0.099
7000,A2_1,-0.121,0.602,0.896,0.407,0.22,-0.096,-0.304,1.0,0.716,0.835,-0.226,-0.456,0.135,-0.312,-0.316,-0.306
7000,A2_2,-0.401,0.73,0.742,0.392,-0.296,0.024,-0.592,0.716,1.0,0.833,-0.259,-0.531,-0.171,-0.165,-0.158,-0.222
7000,A2_3,-0.254,0.702,0.885,0.478,-0.076,0.086,-0.307,0.835,0.833,1.0,-0.187,-0.308,0.138,-0.077,-0.068,-0.108
7000,B2_1,-0.03,-0.122,-0.186,0.05,0.428,-0.167,0.044,-0.226,-0.259,-0.187,1.0,0.393,0.331,-0.32,-0.347,-0.347
7000,B2_2,0.067,-0.355,-0.326,0.091,0.032,-0.05,0.745,-0.456,-0.531,-0.308,0.393,1.0,0.128,-0.034,-0.069,-0.041
7000,B2_3,0.07,-0.082,0.152,-0.181,0.6,0.144,-0.02,0.135,-0.171,0.138,0.331,0.128,1.0,0.222,0.194,0.219
7000,y1,0.01,-0.347,-0.249,-0.492,-0.383,0.524,0.057,-0.312,-0.165,-0.077,-0.32,-0.034,0.222,1.0,0.989,0.991
7000,y2,0.013,-0.358,-0.231,-0.508,-0.412,0.591,0.071,-0.316,-0.158,-0.068,-0.347,-0.069,0.194,0.989,1.0,0.988
7000,y3,0.049,-0.412,-0.236,-0.509,-0.333,0.533,0.099,-0.306,-0.222,-0.108,-0.347,-0.041,0.219,0.991,0.988,1.0
7500,.,1.0,-0.426,-0.193,-0.423,-0.033,-0.371,0.097,-0.137,-0.395,-0.268,-0.045,0.048,0.045,-0.014,0.01,0.048
7500,A1_1,-0.426,1.0,0.555,0.758,-0.008,-0.279,-0.472,0.61,0.755,0.715,-0.131,-0.365,-0.104,-0.308,-0.305,-0.363
7500,A1_2,-0.193,0.555,1.0,0.512,0.134,-0.052,-0.342,0.91,0.765,0.894,-0.204,-0.362,0.123,-0.27,-0.262,-0.229
7500,A1_3,-0.423,0.758,0.512,1.0,0.206,-0.457,-0.15,0.438,0.428,0.488,0.025,0.068,-0.193,-0.496,-0.45,-0.49
7500,B1_1,-0.033,-0.008,0.134,0.206,1.0,-0.265,-0.001,0.198,-0.304,-0.095,0.434,0.07,0.608,-0.437,-0.432,-0.389
7500,B1_2,-0.371,-0.279,-0.052,-0.457,-0.265,1.0,0.338,-0.108,-0.005,0.071,-0.146,-0.036,0.16,0.547,0.519,0.545
7500,B1_3,0.097,-0.472,-0.342,-0.15,-0.001,0.338,1.0,-0.307,-0.605,-0.326,0.073,0.751,0.006,0.026,0.028,0.093
7500,A2_1,-0.137,0.61,0.91,0.438,0.198,-0.108,-0.307,1.0,0.731,0.847,-0.227,-0.449,0.129,-0.311,-0.319,-0.286
7500,A2_2,-0.395,0.755,0.765,0.428,-0.304,-0.005,-0.605,0.731,1.0,0.855,-0.268,-0.551,-0.173,-0.12,-0.139,-0.17
7500,A2_3,-0.268,0.715,0.894,0.488,-0.095,0.071,-0.326,0.847,0.855,1.0,-0.21,-0.341,0.121,-0.078,-0.094,-0.077
7500,B2_1,-0.045,-0.131,-0.204,0.025,0.434,-0.146,0.073,-0.227,-0.268,-0.21,1.0,0.426,0.338,-0.382,-0.383,-0.397
7500,B2_2,0.048,-0.365,-0.362,0.068,0.07,-0.036,0.751,-0.449,-0.551,-0.341,0.426,1.0,0.149,-0.105,-0.104,-0.063
7500,B2_3,0.045,-0.104,0.123,-0.193,0.608,0.16,0.006,0.129,-0.173,0.121,0.338,0.149,1.0,0.157,0.126,0.189
7500,y1,-0.014,-0.308,-0.27,-0.496,-0.437,0.547,0.026,-0.311,-0.12,-0.078,-0.382,-0.105,0.157,1.0,0.99,0.99
7500,y2,0.01,-0.305,-0.262,-0.45,-0.432,0.519,0.028,-0.319,-0.139,-0.094,-0.383,-0.104,0.126,0.99,1.0,0.989
7500,y3,0.048,-0.363,-0.229,-0.49,-0.389,0.545,0.093,-0.286,-0.17,-0.077,-0.397,-0.063,0.189,0.99,0.989,1.0
8000,.,1.0,-0.437,-0.178,-0.44,-0.023,-0.326,0.093,-0.138,-0.403,-0.27,-0.073,0.033,0.048,0.069,0.025,0.094
8000,A1_1,-0.437,1.0,0.578,0.79,-0.064,-0.326,-0.479,0.626,0.767,0.723,-0.129,-0.368,-0.117,-0.332,-0.309,-0.373
8000,A1_2,-0.178,0.578,1.0,0.542,0.07,-0.106,-0.374,0.91,0.776,0.897,-0.212,-0.396,0.107,-0.278,-0.246,-0.26
8000,A1_3,-0.44,0.79,0.542,1.0,0.116,-0.474,-0.158,0.491,0.472,0.527,0.0,0.038,-0.206,-0.491,-0.457,-0.483
8000,B1_1,-0.023,-0.064,0.07,0.116,1.0,-0.172,0.054,0.127,-0.345,-0.162,0.466,0.101,0.612,-0.441,-0.423,-0.395
8000,B1_2,-0.326,-0.326,-0.106,-0.474,-0.172,1.0,0.364,-0.153,-0.058,0.011,-0.092,-0.009,0.192,0.475,0.512,0.507
8000,B1_3,0.093,-0.479,-0.374,-0.158,0.054,0.364,1.0,-0.315,-0.615,-0.341,0.103,0.758,0.033,0.02,0.019,0.106
8000,A2_1,-0.138,0.626,0.91,0.491,0.127,-0.153,-0.315,1.0,0.738,0.851,-0.232,-0.454,0.092,-0.326,-0.314,-0.326
8000,A2_2,-0.403,0.767,0.776,0.472,-0.345,-0.058,-0.615,0.738,1.0,0.868,-0.274,-0.562,-0.172,-0.149,-0.131,-0.2
8000,A2_3,-0.27,0.723,0.897,0.527,-0.162,0.011,-0.341,0.851,0.868,1.0,-0.201,-0.355,0.099,-0.119,-0.083,-0.108
8000,B2_1,-0.073,-0.129,-0.212,0.0,0.466,-0.092,0.103,-0.232,-0.274,-0.201,1.0,0.446,0.352,-0.433,-0.385,-0.389
8000,B2_2,0.033,-0.368,-0.396,0.038,0.101,-0.009,0.758,-0.454,-0.562,-0.355,0.446,1.0,0.174,-0.123,-0.124,-0.052
8000,B2_3,0.048,-0.117,0.107,-0.206,0.612,0.192,0.033,0.092,-0.172,0.099,0.352,0.174,1.0,0.105,0.118,0.149
8000,y1,0.069,-0.332,-0.278,-0.491,-0.441,0.475,0.02,-0.326,-0.149,-0.119,-0.433,-0.123,0.105,1.0,0.994,0.99
8000,y2,0.025,-0.309,-0.246,-0.457,-0.423,0.512,0.019,-0.314,-0.131,-0.083,-0.385,-0.124,0.118,0.994,1.0,0.992
8000,y3,0.094,-0.373,-0.26,-0.483,-0.395,0.507,0.106,-0.326,-0.2,-0.108,-0.389,-0.052,0.149,0.99,0.992,1.0
8500,.,1.0,-0.436,-0.192,-0.438,-0.012,-0.292,0.117,-0.124,-0.416,-0.271,-0.076,0.05,0.058,0.019,0.033,0.067
8500,A1_1,-0.436,1.0,0.611,0.811,-0.081,-0.347,-0.5,0.653,0.791,0.741,-0.152,-0.397,-0.14,-0.357,-0.33,-0.388
8500,A1_2,-0.192,0.611,1.0,0.595,0.069,-0.135,-0.398,0.914,0.789,0.901,-0.208,-0.415,0.091,-0.288,-0.238,-0.295
8500,A1_3,-0.438,0.811,0.595,1.0,0.1,-0.474,-0.185,0.53,0.527,0.569,-0.031,-0.011,-0.204,-0.488,-0.478,-0.524
8500,B1_1,-0.012,-0.081,0.069,0.1,1.0,-0.152,0.066,0.119,-0.34,-0.169,0.475,0.133,0.615,-0.41,-0.409,-0.4
8500,B1_2,-0.292,-0.347,-0.135,-0.474,-0.152,1.0,0.391,-0.177,-0.091,-0.016,-0.066,0.015,0.201,0.512,0.501,0.514
8500,B1_3,0.117,-0.5,-0.398,-0.185,0.066,0.391,1.0,-0.349,-0.628,-0.379,0.117,0.763,0.039,0.033,-0.001,0.06
8500,A2_1,-0.124,0.653,0.914,0.53,0.119,-0.177,-0.349,1.0,0.75,0.857,-0.24,-0.469,0.091,-0.365,-0.313,-0.354
8500,A2_2,-0.416,0.791,0.789,0.527,-0.34,-0.091,-0.628,0.75,1.0,0.88,-0.276,-0.584,-0.185,-0.177,-0.137,-0.202
8500,A2_3,-0.271,0.741,0.901,0.569,-0.169,-0.016,-0.379,0.857,0.88,1.0,-0.211,-0.389,0.085,-0.126,-0.08,-0.135
8500,B2_1,-0.076,-0.152,-0.208,-0.031,0.475,-0.066,0.117,-0.24,-0.276,-0.211,1.0,0.472,0.364,-0.328,-0.381,-0.356
8500,B2_2,0.05,-0.397,-0.415,-0.011,0.133,0.015,0.763,-0.469,-0.584,-0.389,0.472,1.0,0.2,-0.072,-0.125,-0.082
8500,B2_3,0.058,-0.14,0.091,-0.204,0.615,0.201,0.039,0.091,-0.185,0.085,0.364,0.2,1.0,0.153,0.158,0.153
8500,y1,0.019,-0.357,-0.288,-0.488,-0.41,0.512,0.033,-0.365,-0.177,-0.126,-0.328,-0.072,0.153,1.0,0.996,0.995
8500,y2,0.033,-0.33,-0.238,-0.478,-0.409,0.501,-0.001,-0.313,-0.137,-0.08,-0.381,-0.125,0.158,0.996,1.0,0.996
8500,y3,0.067,-0.388,-0.295,-0.524,-0.4,0.514,0.06,-0.354,-0.202,-0.135,-0.356,-0.082,0.153,0.995,0.996,1.0
9000,.,1.0,-0.423,-0.163,-0.428,-0.043,-0.265,0.123,-0.108,-0.4,-0.264,-0.092,0.011,0.032,0.002,-0.005,0.068
9000,A1_1,-0.423,1.0,0.638,0.829,-0.106,-0.369,-0.504,0.661,0.804,0.757,-0.141,-0.394,-0.149,-0.356,-0.38,-0.382
9000,A1_2,-0.163,0.638,1.0,0.638,0.009,-0.183,-0.422,0.911,0.8,0.913,-0.229,-0.426,0.056,-0.265,-0.301,-0.255
9000,A1_3,-0.428,0.829,0.638,1.0,0.074,-0.502,-0.228,0.565,0.566,0.6,-0.056,-0.061,-0.214,-0.488,-0.478,-0.525
9000,B1_1,-0.043,-0.106,0.009,0.074,1.0,-0.089,0.11,0.076,-0.355,-0.198,0.476,0.179,0.63,-0.39,-0.315,-0.408
9000,B1_2,-0.265,-0.369,-0.183,-0.502,-0.089,1.0,0.409,-0.195,-0.126,-0.039,-0.038,0.075,0.246,0.502,0.485,0.491
9000,B1_3,0.123,-0.504,-0.422,-0.228,0.11,0.409,1.0,-0.364,-0.637,-0.394,0.137,0.786,0.075,0.029,0.076,0.034
9000,A2_1,-0.108,0.661,0.911,0.565,0.076,-0.195,-0.364,1.0,0.764,0.858,-0.246,-0.478,0.054,-0.344,-0.404,-0.338
9000,A2_2,-0.4,0.804,0.8,0.566,-0.355,-0.126,-0.637,0.764,1.0,0.889,-0.268,-0.587,-0.197,-0.177,-0.245,-0.179
9000,A2_3,-0.264,0.757,0.913,0.6,-0.198,-0.039,-0.394,0.858,0.889,1.0,-0.215,-0.4,0.055,-0.135,-0.17,-0.111
9000,B2_1,-0.092,-0.141,-0.229,-0.056,0.476,-0.038,0.137,-0.246,-0.268,-0.215,1.0,0.481,0.363,-0.401,-0.307,-0.32
9000,B2_2,0.011,-0.394,-0.426,-0.061,0.179,0.075,0.786,-0.478,-0.587,-0.4,0.481,1.0,0.23,-0.117,-0.003,-0.086
9000,B2_3,0.032,-0.149,0.056,-0.214,0.63,0.246,0.075,0.054,-0.197,0.055,0.363,0.23,1.0,0.123,0.22,0.148
9000,y1,0.002,-0.356,-0.265,-0.488,-0.39,0.502,0.029,-0.344,-0.177,-0.135,-0.401,-0.117,0.123,1.0,0.988,0.988
9000,y2,-0.005,-0.38,-0.301,-0.478,-0.315,0.485,0.076,-0.404,-0.245,-0.17,-0.307,-0.003,0.22,0.988,1.0,0.981
9000,y3,0.068,-0.382,-0.255,-0.525,-0.408,0.491,0.034,-0.338,-0.179,-0.111,-0.32,-0.086,0.148,0.988,0.981,1.0
9500,.,1.0,-0.445,-0.192,-0.44,-0.098,-0.243,0.158,-0.124,-0.41,-0.264,-0.133,0.034,-0.004,0.107,0.104,0.099
9500,A1_1,-0.445,1.0,0.665,0.842,-0.115,-0.378,-0.52,0.681,0.82,0.764,-0.156,-0.41,-0.182,-0.42,-0.387,-0.4
9500,A1_2,-0.192,0.665,1.0,0.654,-0.029,-0.211,-0.454,0.905,0.81,0.923,-0.244,-0.437,0.022,-0.289,-0.252,-0.248
9500,A1_3,-0.44,0.842,0.654,1.0,0.059,-0.517,-0.258,0.578,0.579,0.605,-0.097,-0.092,-0.231,-0.532,-0.491,-0.513
9500,B1_1,-0.098,-0.115,-0.029,0.059,1.0,-0.031,0.165,0.058,-0.358,-0.214,0.491,0.212,0.641,-0.404,-0.323,-0.395
9500,B1_2,-0.243,-0.378,-0.211,-0.517,-0.031,1.0,0.428,-0.214,-0.152,-0.067,0.027,0.107,0.297,0.483,0.455,0.478
9500,B1_3,0.158,-0.52,-0.454,-0.258,0.165,0.428,1.0,-0.39,-0.663,-0.422,0.196,0.797,0.128,0.096,0.06,0.074
9500,A2_1,-0.124,0.681,0.905,0.578,0.058,-0.214,-0.39,1.0,0.775,0.867,-0.255,-0.492,0.024,-0.369,-0.363,-0.338
9500,A2_2,-0.41,0.82,0.81,0.579,-0.358,-0.152,-0.663,0.775,1.0,0.894,-0.285,-0.604,-0.212,-0.223,-0.229,-0.198
9500,A2_3,-0.264,0.764,0.923,0.605,-0.214,-0.067,-0.422,0.867,0.894,1.0,-0.238,-0.421,0.02,-0.172,-0.144,-0.13
9500,B2_1,-0.133,-0.156,-0.244,-0.097,0.491,0.027,0.196,-0.255,-0.285,-0.238,1.0,0.509,0.377,-0.384,-0.352,-0.362
9500,B2_2,0.034,-0.41,-0.437,-0.092,0.212,0.107,0.797,-0.492,-0.604,-0.421,0.509,1.0,0.262,-0.044,-0.05,-0.065
9500,B2_3,-0.004,-0.182,0.022,-0.231,0.641,0.297,0.128,0.024,-0.212,0.02,0.377,0.262,1.0,0.135,0.223,0.141
9500,y1,0.107,-0.42,-0.289,-0.532,-0.404,0.483,0.096,-0.369,-0.223,-0.172,-0.384,-0.044,0.135,1.0,0.986,0.996
9500,y2,0.104,-0.387,-0.252,-0.491,-0.323,0.455,0.06,-0.363,-0.229,-0.144,-0.352,-0.05,0.223,0.986,1.0,0.989
9500,y3,0.099,-0.4,-0.248,-0.513,-0.395,0.478,0.074,-0.338,-0.198,-0.13,-0.362,-0.065,0.141,0.996,0.989,1.0
10000,.,1.0,-0.471,-0.211,-0.442,-0.082,-0.225,0.188,-0.158,-0.409,-0.283,-0.137,0.05,-0.0,0.127,0.12,0.114
10000,A1_1,-0.471,1.0,0.677,0.842,-0.126,-0.391,-0.54,0.699,0.835,0.774,-0.183,-0.418,-0.189,-0.42,-0.386,-0.419
10000,A1_2,-0.211,0.677,1.0,0.67,-0.053,-0.235,-0.467,0.91,0.822,0.924,-0.28,-0.439,0.005,-0.27,-0.257,-0.272
10000,A1_3,-0.442,0.842,0.67,1.0,0.046,-0.529,-0.263,0.608,0.588,0.62,-0.143,-0.1,-0.237,-0.542,-0.502,-0.539
10000,B1_1,-0.082,-0.126,-0.053,0.046,1.0,-0.022,0.175,0.033,-0.367,-0.242,0.509,0.217,0.644,-0.4,-0.369,-0.392
10000,B1_2,-0.225,-0.391,-0.235,-0.529,-0.022,1.0,0.431,-0.232,-0.181,-0.106,0.067,0.114,0.303,0.467,0.445,0.491
10000,B1_3,0.188,-0.54,-0.467,-0.263,0.175,0.431,1.0,-0.408,-0.677,-0.442,0.22,0.799,0.136,0.097,0.082,0.105
10000,A2_1,-0.158,0.699,0.91,0.608,0.033,-0.232,-0.408,1.0,0.792,0.874,-0.282,-0.495,0.001,-0.332,-0.324,-0.344
10000,A2_2,-0.409,0.835,0.822,0.588,-0.367,-0.181,-0.677,0.792,1.0,0.908,-0.309,-0.606,-0.206,-0.207,-0.207,-0.213
10000,A2_3,-0.283,0.774,0.924,0.62,-0.242,-0.106,-0.442,0.874,0.908,1.0,-0.27,-0.426,-0.011,-0.144,-0.137,-0.144
10000,B2_1,-0.137,-0.183,-0.28,-0.143,0.509,0.067,0.22,-0.282,-0.309,-0.27,1.0,0.519,0.399,-0.366,-0.387,-0.359
10000,B2_2,0.05,-0.418,-0.439,-0.1,0.217,0.114,0.799,-0.495,-0.606,-0.426,0.519,1.0,0.266,-0.043,-0.062,-0.051
10000,B2_3,-0.0,-0.189,0.005,-0.237,0.644,0.303,0.136,0.001,-0.206,-0.011,0.399,0.266,1.0,0.15,0.165,0.143
10000,y1,0.127,-0.42,-0.27,-0.542,-0.4,0.467,0.097,-0.332,-0.207,-0.144,-0.366,-0.043,0.15,1.0,0.996,0.997
10000,y2,0.12,-0.386,-0.257,-0.502,-0.369,0.445,0.082,-0.324,-0.207,-0.137,-0.387,-0.062,0.165,0.996,1.0,0.996
10000,y3,0.114,-0.419,-0.272,-0.539,-0.392,0.491,0.105,-0.344,-0.213,-0.144,-0.359,-0.051,0.143,0.997,0.996,1.0
