,,.,A1_1,A1_2,A1_3,B1_1,B1_2,B1_3,A2_1,A2_2,A2_3,B2_1,B2_2,B2_3,y1,y2,y3
0,.,1.0,-0.174,0.067,0.093,-0.504,-0.145,0.069,-0.206,-0.24,0.029,0.285,-0.102,-0.281,0.112,-0.021,0.122
0,A1_1,-0.174,1.0,0.129,0.062,0.052,-0.104,0.226,-0.166,0.191,-0.234,0.06,0.155,-0.037,0.015,-0.144,-0.236
0,A1_2,0.067,0.129,1.0,0.109,0.042,-0.129,0.572,0.189,0.154,-0.023,0.386,0.117,-0.283,0.016,-0.16,-0.061
0,A1_3,0.093,0.062,0.109,1.0,-0.266,-0.217,0.071,-0.044,-0.039,-0.089,0.051,0.342,0.047,-0.05,0.031,-0.232
0,B1_1,-0.504,0.052,0.042,-0.266,1.0,0.101,0.161,0.084,0.119,0.178,-0.337,0.045,0.126,-0.195,0.143,-0.118
0,B1_2,-0.145,-0.104,-0.129,-0.217,0.101,1.0,0.003,0.179,-0.019,0.353,-0.043,-0.214,0.246,0.104,0.105,-0.026
0,B1_3,0.069,0.226,0.572,0.071,0.161,0.003,1.0,-0.158,0.167,-0.243,0.118,-0.019,-0.121,0.205,-0.012,-0.232
0,A2_1,-0.206,-0.166,0.189,-0.044,0.084,0.179,-0.158,1.0,0.438,0.379,-0.009,-0.249,-0.281,-0.076,-0.068,-0.106
0,A2_2,-0.24,0.191,0.154,-0.039,0.119,-0.019,0.167,0.438,1.0,-0.083,-0.036,-0.042,-0.358,0.334,-0.046,0.144
0,A2_3,0.029,-0.234,-0.023,-0.089,0.178,0.353,-0.243,0.379,-0.083,1.0,-0.026,-0.22,0.062,0.026,0.086,0.135
0,B2_1,0.285,0.06,0.386,0.051,-0.337,-0.043,0.118,-0.009,-0.036,-0.026,1.0,0.185,-0.133,0.15,0.052,0.171
0,B2_2,-0.102,0.155,0.117,0.342,0.045,-0.214,-0.019,-0.249,-0.042,-0.22,0.185,1.0,0.04,-0.217,0.059,-0.081
0,B2_3,-0.281,-0.037,-0.283,0.047,0.126,0.246,-0.121,-0.281,-0.358,0.062,-0.133,0.04,1.0,-0.398,-0.171,0.223
0,y1,0.112,0.015,0.016,-0.05,-0.195,0.104,0.205,-0.076,0.334,0.026,0.15,-0.217,-0.398,1.0,0.233,0.12
0,y2,-0.021,-0.144,-0.16,0.031,0.143,0.105,-0.012,-0.068,-0.046,0.086,0.052,0.059,-0.171,0.233,1.0,-0.078
0,y3,0.122,-0.236,-0.061,-0.232,-0.118,-0.026,-0.232,-0.106,0.144,0.135,0.171,-0.081,0.223,0.12,-0.078,1.0
1,.,1.0,-0.168,0.071,0.095,-0.501,-0.142,0.069,-0.2,-0.237,0.038,0.287,-0.102,-0.284,0.115,-0.016,0.12
1,A1_1,-0.168,1.0,0.128,0.064,0.052,-0.102,0.226,-0.167,0.192,-0.231,0.06,0.156,-0.034,0.013,-0.149,-0.236
1,A1_2,0.071,0.128,1.0,0.106,0.041,-0.126,0.573,0.187,0.151,-0.024,0.388,0.117,-0.28,0.016,-0.161,-0.062
1,A1_3,0.095,0.064,0.106,1.0,-0.265,-0.214,0.07,-0.045,-0.04,-0.087,0.054,0.344,0.051,-0.053,0.026,-0.234
1,B1_1,-0.501,0.052,0.041,-0.265,1.0,0.097,0.16,0.081,0.118,0.173,-0.341,0.045,0.128,-0.197,0.147,-0.115
1,B1_2,-0.142,-0.102,-0.126,-0.214,0.097,1.0,0.002,0.178,-0.017,0.353,-0.046,-0.217,0.245,0.107,0.108,-0.019
1,B1_3,0.069,0.226,0.573,0.07,0.16,0.002,1.0,-0.159,0.167,-0.245,0.114,-0.021,-0.119,0.204,-0.015,-0.232
1,A2_1,-0.2,-0.167,0.187,-0.045,0.081,0.178,-0.159,1.0,0.439,0.38,-0.01,-0.249,-0.281,-0.078,-0.069,-0.107
1,A2_2,-0.237,0.192,0.151,-0.04,0.118,-0.017,0.167,0.439,1.0,-0.082,-0.036,-0.043,-0.356,0.331,-0.048,0.139
1,A2_3,0.038,-0.231,-0.024,-0.087,0.173,0.353,-0.245,0.38,-0.082,1.0,-0.028,-0.222,0.06,0.028,0.088,0.139
1,B2_1,0.287,0.06,0.388,0.054,-0.341,-0.046,0.114,-0.01,-0.036,-0.028,1.0,0.186,-0.132,0.151,0.051,0.172
1,B2_2,-0.102,0.156,0.117,0.344,0.045,-0.217,-0.021,-0.249,-0.043,-0.222,0.186,1.0,0.043,-0.222,0.054,-0.082
1,B2_3,-0.284,-0.034,-0.28,0.051,0.128,0.245,-0.119,-0.281,-0.356,0.06,-0.132,0.043,1.0,-0.396,-0.166,0.226
1,y1,0.115,0.013,0.016,-0.053,-0.197,0.107,0.204,-0.078,0.331,0.028,0.151,-0.222,-0.396,1.0,0.232,0.121
1,y2,-0.016,-0.149,-0.161,0.026,0.147,0.108,-0.015,-0.069,-0.048,0.088,0.051,0.054,-0.166,0.232,1.0,-0.071
1,y3,0.12,-0.236,-0.062,-0.234,-0.115,-0.019,-0.232,-0.107,0.139,0.139,0.172,-0.082,0.226,0.121,-0.071,1.0
2,.,1.0,-0.166,0.075,0.099,-0.501,-0.142,0.071,-0.193,-0.235,0.046,0.287,-0.099,-0.289,0.114,-0.013,0.117
2,A1_1,-0.166,1.0,0.128,0.065,0.053,-0.099,0.228,-0.165,0.193,-0.23,0.061,0.158,-0.033,0.01,-0.152,-0.239
2,A1_2,0.075,0.128,1.0,0.105,0.042,-0.124,0.575,0.186,0.151,-0.023,0.391,0.119,-0.28,0.017,-0.161,-0.061
2,A1_3,0.099,0.065,0.105,1.0,-0.265,-0.212,0.072,-0.046,-0.039,-0.086,0.055,0.346,0.052,-0.056,0.022,-0.236
2,B1_1,-0.501,0.053,0.042,-0.265,1.0,0.092,0.159,0.08,0.117,0.169,-0.343,0.045,0.128,-0.196,0.148,-0.115
2,B1_2,-0.142,-0.099,-0.124,-0.212,0.092,1.0,0.0,0.182,-0.015,0.352,-0.051,-0.219,0.243,0.109,0.111,-0.018
2,B1_3,0.071,0.228,0.575,0.072,0.159,0.0,1.0,-0.159,0.168,-0.246,0.112,-0.022,-0.118,0.203,-0.017,-0.232
2,A2_1,-0.193,-0.165,0.186,-0.046,0.08,0.182,-0.159,1.0,0.439,0.381,-0.009,-0.25,-0.28,-0.078,-0.07,-0.107
2,A2_2,-0.235,0.193,0.151,-0.039,0.117,-0.015,0.168,0.439,1.0,-0.081,-0.036,-0.043,-0.356,0.331,-0.05,0.138
2,A2_3,0.046,-0.23,-0.023,-0.086,0.169,0.352,-0.246,0.381,-0.081,1.0,-0.031,-0.223,0.056,0.031,0.091,0.141
2,B2_1,0.287,0.061,0.391,0.055,-0.343,-0.051,0.112,-0.009,-0.036,-0.031,1.0,0.186,-0.132,0.151,0.051,0.172
2,B2_2,-0.099,0.158,0.119,0.346,0.045,-0.219,-0.022,-0.25,-0.043,-0.223,0.186,1.0,0.044,-0.225,0.051,-0.084
2,B2_3,-0.289,-0.033,-0.28,0.052,0.128,0.243,-0.118,-0.28,-0.356,0.056,-0.132,0.044,1.0,-0.395,-0.165,0.226
2,y1,0.114,0.01,0.017,-0.056,-0.196,0.109,0.203,-0.078,0.331,0.031,0.151,-0.225,-0.395,1.0,0.234,0.125
2,y2,-0.013,-0.152,-0.161,0.022,0.148,0.111,-0.017,-0.07,-0.05,0.091,0.051,0.051,-0.165,0.234,1.0,-0.067
2,y3,0.117,-0.239,-0.061,-0.236,-0.115,-0.018,-0.232,-0.107,0.138,0.141,0.172,-0.084,0.226,0.125,-0.067,1.0
3,.,1.0,-0.165,0.076,0.101,-0.501,-0.142,0.068,-0.185,-0.237,0.056,0.291,-0.101,-0.292,0.115,-0.011,0.114
3,A1_1,-0.165,1.0,0.128,0.066,0.053,-0.096,0.231,-0.164,0.193,-0.228,0.062,0.157,-0.031,0.007,-0.155,-0.242
3,A1_2,0.076,0.128,1.0,0.103,0.043,-0.12,0.577,0.187,0.151,-0.022,0.393,0.121,-0.28,0.018,-0.159,-0.063
3,A1_3,0.101,0.066,0.103,1.0,-0.265,-0.209,0.073,-0.047,-0.039,-0.084,0.056,0.348,0.053,-0.056,0.022,-0.237
3,B1_1,-0.501,0.053,0.043,-0.265,1.0,0.088,0.159,0.079,0.116,0.166,-0.345,0.046,0.128,-0.195,0.148,-0.113
3,B1_2,-0.142,-0.096,-0.12,-0.209,0.088,1.0,-0.0,0.185,-0.013,0.351,-0.055,-0.222,0.241,0.111,0.112,-0.015
3,B1_3,0.068,0.231,0.577,0.073,0.159,-0.0,1.0,-0.158,0.168,-0.248,0.11,-0.022,-0.117,0.202,-0.018,-0.233
3,A2_1,-0.185,-0.164,0.187,-0.047,0.079,0.185,-0.158,1.0,0.44,0.381,-0.009,-0.25,-0.28,-0.078,-0.07,-0.108
3,A2_2,-0.237,0.193,0.151,-0.039,0.116,-0.013,0.168,0.44,1.0,-0.078,-0.036,-0.043,-0.356,0.329,-0.048,0.136
3,A2_3,0.056,-0.228,-0.022,-0.084,0.166,0.351,-0.248,0.381,-0.078,1.0,-0.034,-0.224,0.053,0.033,0.094,0.142
3,B2_1,0.291,0.062,0.393,0.056,-0.345,-0.055,0.11,-0.009,-0.036,-0.034,1.0,0.186,-0.132,0.151,0.051,0.172
3,B2_2,-0.101,0.157,0.121,0.348,0.046,-0.222,-0.022,-0.25,-0.043,-0.224,0.186,1.0,0.044,-0.229,0.047,-0.088
3,B2_3,-0.292,-0.031,-0.28,0.053,0.128,0.241,-0.117,-0.28,-0.356,0.053,-0.132,0.044,1.0,-0.395,-0.166,0.225
3,y1,0.115,0.007,0.018,-0.056,-0.195,0.111,0.202,-0.078,0.329,0.033,0.151,-0.229,-0.395,1.0,0.238,0.13
3,y2,-0.011,-0.155,-0.159,0.022,0.148,0.112,-0.018,-0.07,-0.048,0.094,0.051,0.047,-0.166,0.238,1.0,-0.061
3,y3,0.114,-0.242,-0.063,-0.237,-0.113,-0.015,-0.233,-0.108,0.136,0.142,0.172,-0.088,0.225,0.13,-0.061,1.0
4,.,1.0,-0.165,0.078,0.101,-0.501,-0.142,0.065,-0.177,-0.238,0.062,0.293,-0.1,-0.295,0.113,-0.012,0.11
4,A1_1,-0.165,1.0,0.129,0.068,0.054,-0.093,0.232,-0.163,0.194,-0.226,0.063,0.157,-0.03,0.003,-0.158,-0.244
4,A1_2,0.078,0.129,1.0,0.103,0.043,-0.117,0.578,0.187,0.15,-0.021,0.396,0.123,-0.278,0.018,-0.158,-0.063
4,A1_3,0.101,0.068,0.103,1.0,-0.264,-0.207,0.075,-0.048,-0.038,-0.082,0.057,0.349,0.054,-0.057,0.02,-0.238
4,B1_1,-0.501,0.054,0.043,-0.264,1.0,0.085,0.16,0.078,0.116,0.163,-0.347,0.047,0.129,-0.195,0.149,-0.111
4,B1_2,-0.142,-0.093,-0.117,-0.207,0.085,1.0,-0.001,0.186,-0.01,0.349,-0.059,-0.223,0.241,0.112,0.113,-0.011
4,B1_3,0.065,0.232,0.578,0.075,0.16,-0.001,1.0,-0.158,0.169,-0.249,0.109,-0.021,-0.115,0.2,-0.019,-0.233
4,A2_1,-0.177,-0.163,0.187,-0.048,0.078,0.186,-0.158,1.0,0.441,0.382,-0.009,-0.251,-0.281,-0.078,-0.071,-0.108
4,A2_2,-0.238,0.194,0.15,-0.038,0.116,-0.01,0.169,0.441,1.0,-0.076,-0.035,-0.043,-0.356,0.326,-0.05,0.133
4,A2_3,0.062,-0.226,-0.021,-0.082,0.163,0.349,-0.249,0.382,-0.076,1.0,-0.037,-0.225,0.051,0.034,0.095,0.145
4,B2_1,0.293,0.063,0.396,0.057,-0.347,-0.059,0.109,-0.009,-0.035,-0.037,1.0,0.187,-0.132,0.151,0.05,0.172
4,B2_2,-0.1,0.157,0.123,0.349,0.047,-0.223,-0.021,-0.251,-0.043,-0.225,0.187,1.0,0.045,-0.232,0.043,-0.09
4,B2_3,-0.295,-0.03,-0.278,0.054,0.129,0.241,-0.115,-0.281,-0.356,0.051,-0.132,0.045,1.0,-0.395,-0.165,0.226
4,y1,0.113,0.003,0.018,-0.057,-0.195,0.112,0.2,-0.078,0.326,0.034,0.151,-0.232,-0.395,1.0,0.242,0.135
4,y2,-0.012,-0.158,-0.158,0.02,0.149,0.113,-0.019,-0.071,-0.05,0.095,0.05,0.043,-0.165,0.242,1.0,-0.056
4,y3,0.11,-0.244,-0.063,-0.238,-0.111,-0.011,-0.233,-0.108,0.133,0.145,0.172,-0.09,0.226,0.135,-0.056,1.0
5,.,1.0,-0.161,0.08,0.102,-0.501,-0.141,0.066,-0.17,-0.238,0.068,0.293,-0.101,-0.298,0.11,-0.01,0.106
5,A1_1,-0.161,1.0,0.13,0.07,0.055,-0.089,0.234,-0.162,0.194,-0.224,0.066,0.158,-0.029,-0.0,-0.163,-0.248
5,A1_2,0.08,0.13,1.0,0.102,0.044,-0.115,0.579,0.187,0.15,-0.019,0.399,0.124,-0.277,0.019,-0.158,-0.064
5,A1_3,0.102,0.07,0.102,1.0,-0.264,-0.206,0.076,-0.05,-0.035,-0.082,0.058,0.349,0.053,-0.058,0.016,-0.24
5,B1_1,-0.501,0.055,0.044,-0.264,1.0,0.082,0.161,0.076,0.115,0.159,-0.348,0.049,0.13,-0.193,0.149,-0.112
5,B1_2,-0.141,-0.089,-0.115,-0.206,0.082,1.0,-0.001,0.188,-0.009,0.347,-0.064,-0.223,0.24,0.113,0.116,-0.009
5,B1_3,0.066,0.234,0.579,0.076,0.161,-0.001,1.0,-0.157,0.168,-0.25,0.107,-0.021,-0.113,0.199,-0.019,-0.233
5,A2_1,-0.17,-0.162,0.187,-0.05,0.076,0.188,-0.157,1.0,0.443,0.385,-0.009,-0.251,-0.281,-0.08,-0.074,-0.109
5,A2_2,-0.238,0.194,0.15,-0.035,0.115,-0.009,0.168,0.443,1.0,-0.073,-0.034,-0.043,-0.355,0.322,-0.053,0.13
5,A2_3,0.068,-0.224,-0.019,-0.082,0.159,0.347,-0.25,0.385,-0.073,1.0,-0.04,-0.226,0.048,0.036,0.098,0.146
5,B2_1,0.293,0.066,0.399,0.058,-0.348,-0.064,0.107,-0.009,-0.034,-0.04,1.0,0.187,-0.132,0.15,0.051,0.172
5,B2_2,-0.101,0.158,0.124,0.349,0.049,-0.223,-0.021,-0.251,-0.043,-0.226,0.187,1.0,0.047,-0.237,0.039,-0.095
5,B2_3,-0.298,-0.029,-0.277,0.053,0.13,0.24,-0.113,-0.281,-0.355,0.048,-0.132,0.047,1.0,-0.393,-0.163,0.224
5,y1,0.11,-0.0,0.019,-0.058,-0.193,0.113,0.199,-0.08,0.322,0.036,0.15,-0.237,-0.393,1.0,0.247,0.141
5,y2,-0.01,-0.163,-0.158,0.016,0.149,0.116,-0.019,-0.074,-0.053,0.098,0.051,0.039,-0.163,0.247,1.0,-0.05
5,y3,0.106,-0.248,-0.064,-0.24,-0.112,-0.009,-0.233,-0.109,0.13,0.146,0.172,-0.095,0.224,0.141,-0.05,1.0
6,.,1.0,-0.157,0.082,0.104,-0.502,-0.144,0.064,-0.162,-0.237,0.072,0.293,-0.1,-0.3,0.106,-0.013,0.102
6,A1_1,-0.157,1.0,0.13,0.071,0.056,-0.086,0.236,-0.16,0.194,-0.221,0.069,0.158,-0.028,-0.003,-0.169,-0.251
6,A1_2,0.082,0.13,1.0,0.102,0.045,-0.113,0.58,0.187,0.15,-0.018,0.402,0.125,-0.277,0.019,-0.161,-0.066
6,A1_3,0.104,0.071,0.102,1.0,-0.265,-0.204,0.078,-0.05,-0.034,-0.081,0.06,0.349,0.053,-0.059,0.013,-0.242
6,B1_1,-0.502,0.056,0.045,-0.265,1.0,0.082,0.162,0.075,0.115,0.156,-0.351,0.051,0.131,-0.192,0.148,-0.111
6,B1_2,-0.144,-0.086,-0.113,-0.204,0.082,1.0,-0.0,0.189,-0.007,0.345,-0.068,-0.223,0.24,0.115,0.118,-0.007
6,B1_3,0.064,0.236,0.58,0.078,0.162,-0.0,1.0,-0.157,0.168,-0.252,0.106,-0.02,-0.112,0.197,-0.023,-0.235
6,A2_1,-0.162,-0.16,0.187,-0.05,0.075,0.189,-0.157,1.0,0.445,0.387,-0.007,-0.251,-0.28,-0.081,-0.075,-0.11
6,A2_2,-0.237,0.194,0.15,-0.034,0.115,-0.007,0.168,0.445,1.0,-0.07,-0.034,-0.045,-0.355,0.319,-0.055,0.127
6,A2_3,0.072,-0.221,-0.018,-0.081,0.156,0.345,-0.252,0.387,-0.07,1.0,-0.042,-0.228,0.044,0.037,0.101,0.147
6,B2_1,0.293,0.069,0.402,0.06,-0.351,-0.068,0.106,-0.007,-0.034,-0.042,1.0,0.188,-0.134,0.149,0.052,0.17
6,B2_2,-0.1,0.158,0.125,0.349,0.051,-0.223,-0.02,-0.251,-0.045,-0.228,0.188,1.0,0.047,-0.242,0.034,-0.1
6,B2_3,-0.3,-0.028,-0.277,0.053,0.131,0.24,-0.112,-0.28,-0.355,0.044,-0.134,0.047,1.0,-0.392,-0.163,0.222
6,y1,0.106,-0.003,0.019,-0.059,-0.192,0.115,0.197,-0.081,0.319,0.037,0.149,-0.242,-0.392,1.0,0.251,0.147
6,y2,-0.013,-0.169,-0.161,0.013,0.148,0.118,-0.023,-0.075,-0.055,0.101,0.052,0.034,-0.163,0.251,1.0,-0.043
6,y3,0.102,-0.251,-0.066,-0.242,-0.111,-0.007,-0.235,-0.11,0.127,0.147,0.17,-0.1,0.222,0.147,-0.043,1.0
7,.,1.0,-0.152,0.083,0.107,-0.503,-0.145,0.063,-0.154,-0.236,0.075,0.294,-0.099,-0.303,0.103,-0.014,0.095
7,A1_1,-0.152,1.0,0.131,0.074,0.056,-0.084,0.236,-0.16,0.195,-0.218,0.073,0.157,-0.027,-0.008,-0.172,-0.254
7,A1_2,0.083,0.131,1.0,0.101,0.045,-0.111,0.58,0.186,0.148,-0.017,0.406,0.126,-0.277,0.02,-0.163,-0.068
7,A1_3,0.107,0.074,0.101,1.0,-0.266,-0.202,0.079,-0.05,-0.033,-0.079,0.062,0.349,0.052,-0.062,0.011,-0.244
7,B1_1,-0.503,0.056,0.045,-0.266,1.0,0.082,0.163,0.073,0.114,0.153,-0.352,0.053,0.132,-0.189,0.148,-0.111
7,B1_2,-0.145,-0.084,-0.111,-0.202,0.082,1.0,0.0,0.189,-0.004,0.343,-0.073,-0.222,0.24,0.117,0.122,-0.005
7,B1_3,0.063,0.236,0.58,0.079,0.163,0.0,1.0,-0.158,0.167,-0.253,0.105,-0.018,-0.11,0.195,-0.026,-0.236
7,A2_1,-0.154,-0.16,0.186,-0.05,0.073,0.189,-0.158,1.0,0.447,0.388,-0.007,-0.252,-0.281,-0.082,-0.076,-0.112
7,A2_2,-0.236,0.195,0.148,-0.033,0.114,-0.004,0.167,0.447,1.0,-0.066,-0.031,-0.046,-0.355,0.317,-0.058,0.125
7,A2_3,0.075,-0.218,-0.017,-0.079,0.153,0.343,-0.253,0.388,-0.066,1.0,-0.045,-0.23,0.041,0.038,0.103,0.147
7,B2_1,0.294,0.073,0.406,0.062,-0.352,-0.073,0.105,-0.007,-0.031,-0.045,1.0,0.19,-0.134,0.147,0.051,0.168
7,B2_2,-0.099,0.157,0.126,0.349,0.053,-0.222,-0.018,-0.252,-0.046,-0.23,0.19,1.0,0.049,-0.245,0.03,-0.103
7,B2_3,-0.303,-0.027,-0.277,0.052,0.132,0.24,-0.11,-0.281,-0.355,0.041,-0.134,0.049,1.0,-0.39,-0.161,0.221
7,y1,0.103,-0.008,0.02,-0.062,-0.189,0.117,0.195,-0.082,0.317,0.038,0.147,-0.245,-0.39,1.0,0.254,0.153
7,y2,-0.014,-0.172,-0.163,0.011,0.148,0.122,-0.026,-0.076,-0.058,0.103,0.051,0.03,-0.161,0.254,1.0,-0.037
7,y3,0.095,-0.254,-0.068,-0.244,-0.111,-0.005,-0.236,-0.112,0.125,0.147,0.168,-0.103,0.221,0.153,-0.037,1.0
8,.,1.0,-0.147,0.085,0.11,-0.506,-0.148,0.062,-0.147,-0.234,0.079,0.293,-0.1,-0.305,0.1,-0.018,0.09
8,A1_1,-0.147,1.0,0.131,0.074,0.055,-0.082,0.237,-0.159,0.196,-0.215,0.077,0.157,-0.028,-0.01,-0.176,-0.255
8,A1_2,0.085,0.131,1.0,0.101,0.044,-0.109,0.581,0.188,0.147,-0.014,0.41,0.126,-0.276,0.02,-0.162,-0.069
8,A1_3,0.11,0.074,0.101,1.0,-0.266,-0.201,0.079,-0.049,-0.031,-0.077,0.066,0.348,0.051,-0.064,0.008,-0.244
8,B1_1,-0.506,0.055,0.044,-0.266,1.0,0.083,0.164,0.07,0.112,0.15,-0.353,0.056,0.134,-0.186,0.15,-0.111
8,B1_2,-0.148,-0.082,-0.109,-0.201,0.083,1.0,0.001,0.189,-0.002,0.341,-0.077,-0.221,0.24,0.119,0.124,-0.002
8,B1_3,0.062,0.237,0.581,0.079,0.164,0.001,1.0,-0.158,0.166,-0.254,0.104,-0.017,-0.109,0.194,-0.027,-0.238
8,A2_1,-0.147,-0.159,0.188,-0.049,0.07,0.189,-0.158,1.0,0.448,0.39,-0.008,-0.254,-0.282,-0.083,-0.077,-0.113
8,A2_2,-0.234,0.196,0.147,-0.031,0.112,-0.002,0.166,0.448,1.0,-0.064,-0.03,-0.047,-0.355,0.316,-0.059,0.123
8,A2_3,0.079,-0.215,-0.014,-0.077,0.15,0.341,-0.254,0.39,-0.064,1.0,-0.049,-0.232,0.038,0.04,0.104,0.148
8,B2_1,0.293,0.077,0.41,0.066,-0.353,-0.077,0.104,-0.008,-0.03,-0.049,1.0,0.192,-0.135,0.146,0.051,0.167
8,B2_2,-0.1,0.157,0.126,0.348,0.056,-0.221,-0.017,-0.254,-0.047,-0.232,0.192,1.0,0.05,-0.248,0.027,-0.106
8,B2_3,-0.305,-0.028,-0.276,0.051,0.134,0.24,-0.109,-0.282,-0.355,0.038,-0.135,0.05,1.0,-0.388,-0.16,0.22
8,y1,0.1,-0.01,0.02,-0.064,-0.186,0.119,0.194,-0.083,0.316,0.04,0.146,-0.248,-0.388,1.0,0.258,0.158
8,y2,-0.018,-0.176,-0.162,0.008,0.15,0.124,-0.027,-0.077,-0.059,0.104,0.051,0.027,-0.16,0.258,1.0,-0.032
8,y3,0.09,-0.255,-0.069,-0.244,-0.111,-0.002,-0.238,-0.113,0.123,0.148,0.167,-0.106,0.22,0.158,-0.032,1.0
9,.,1.0,-0.139,0.087,0.114,-0.508,-0.152,0.063,-0.14,-0.232,0.08,0.291,-0.099,-0.307,0.095,-0.019,0.083
9,A1_1,-0.139,1.0,0.132,0.076,0.054,-0.082,0.236,-0.157,0.197,-0.212,0.08,0.155,-0.029,-0.012,-0.179,-0.257
9,A1_2,0.087,0.132,1.0,0.101,0.043,-0.108,0.581,0.189,0.147,-0.014,0.412,0.126,-0.277,0.021,-0.163,-0.069
9,A1_3,0.114,0.076,0.101,1.0,-0.267,-0.201,0.079,-0.048,-0.029,-0.076,0.067,0.346,0.049,-0.065,0.007,-0.245
9,B1_1,-0.508,0.054,0.043,-0.267,1.0,0.084,0.165,0.068,0.111,0.148,-0.353,0.058,0.136,-0.184,0.151,-0.111
9,B1_2,-0.152,-0.082,-0.108,-0.201,0.084,1.0,0.002,0.188,-0.001,0.34,-0.08,-0.22,0.241,0.119,0.126,-0.001
9,B1_3,0.063,0.236,0.581,0.079,0.165,0.002,1.0,-0.158,0.166,-0.256,0.103,-0.016,-0.107,0.193,-0.027,-0.238
9,A2_1,-0.14,-0.157,0.189,-0.048,0.068,0.188,-0.158,1.0,0.45,0.391,-0.008,-0.254,-0.283,-0.085,-0.079,-0.115
9,A2_2,-0.232,0.197,0.147,-0.029,0.111,-0.001,0.166,0.45,1.0,-0.061,-0.028,-0.048,-0.355,0.314,-0.061,0.122
9,A2_3,0.08,-0.212,-0.014,-0.076,0.148,0.34,-0.256,0.391,-0.061,1.0,-0.053,-0.234,0.035,0.041,0.104,0.149
9,B2_1,0.291,0.08,0.412,0.067,-0.353,-0.08,0.103,-0.008,-0.028,-0.053,1.0,0.193,-0.136,0.145,0.051,0.165
9,B2_2,-0.099,0.155,0.126,0.346,0.058,-0.22,-0.016,-0.254,-0.048,-0.234,0.193,1.0,0.051,-0.249,0.024,-0.107
9,B2_3,-0.307,-0.029,-0.277,0.049,0.136,0.241,-0.107,-0.283,-0.355,0.035,-0.136,0.051,1.0,-0.386,-0.158,0.219
9,y1,0.095,-0.012,0.021,-0.065,-0.184,0.119,0.193,-0.085,0.314,0.041,0.145,-0.249,-0.386,1.0,0.261,0.163
9,y2,-0.019,-0.179,-0.163,0.007,0.151,0.126,-0.027,-0.079,-0.061,0.104,0.051,0.024,-0.158,0.261,1.0,-0.027
9,y3,0.083,-0.257,-0.069,-0.245,-0.111,-0.001,-0.238,-0.115,0.122,0.149,0.165,-0.107,0.219,0.163,-0.027,1.0
10,.,1.0,-0.134,0.089,0.118,-0.511,-0.157,0.063,-0.133,-0.228,0.082,0.292,-0.1,-0.308,0.091,-0.02,0.078
10,A1_1,-0.134,1.0,0.133,0.078,0.053,-0.081,0.236,-0.154,0.197,-0.209,0.083,0.154,-0.03,-0.014,-0.182,-0.257
10,A1_2,0.089,0.133,1.0,0.102,0.041,-0.108,0.58,0.191,0.148,-0.012,0.415,0.125,-0.278,0.02,-0.163,-0.069
10,A1_3,0.118,0.078,0.102,1.0,-0.269,-0.201,0.078,-0.046,-0.027,-0.075,0.068,0.344,0.047,-0.066,0.005,-0.245
10,B1_1,-0.511,0.053,0.041,-0.269,1.0,0.085,0.167,0.066,0.109,0.145,-0.353,0.06,0.138,-0.182,0.151,-0.111
10,B1_2,-0.157,-0.081,-0.108,-0.201,0.085,1.0,0.002,0.188,-0.0,0.338,-0.083,-0.218,0.242,0.12,0.127,0.002
10,B1_3,0.063,0.236,0.58,0.078,0.167,0.002,1.0,-0.158,0.166,-0.256,0.103,-0.014,-0.106,0.192,-0.028,-0.238
10,A2_1,-0.133,-0.154,0.191,-0.046,0.066,0.188,-0.158,1.0,0.452,0.392,-0.009,-0.256,-0.284,-0.086,-0.08,-0.115
10,A2_2,-0.228,0.197,0.148,-0.027,0.109,-0.0,0.166,0.452,1.0,-0.059,-0.026,-0.049,-0.356,0.313,-0.063,0.12
10,A2_3,0.082,-0.209,-0.012,-0.075,0.145,0.338,-0.256,0.392,-0.059,1.0,-0.056,-0.236,0.033,0.041,0.105,0.149
10,B2_1,0.292,0.083,0.415,0.068,-0.353,-0.083,0.103,-0.009,-0.026,-0.056,1.0,0.195,-0.136,0.143,0.051,0.166
10,B2_2,-0.1,0.154,0.125,0.344,0.06,-0.218,-0.014,-0.256,-0.049,-0.236,0.195,1.0,0.052,-0.25,0.022,-0.108
10,B2_3,-0.308,-0.03,-0.278,0.047,0.138,0.242,-0.106,-0.284,-0.356,0.033,-0.136,0.052,1.0,-0.385,-0.156,0.218
10,y1,0.091,-0.014,0.02,-0.066,-0.182,0.12,0.192,-0.086,0.313,0.041,0.143,-0.25,-0.385,1.0,0.264,0.167
10,y2,-0.02,-0.182,-0.163,0.005,0.151,0.127,-0.028,-0.08,-0.063,0.105,0.051,0.022,-0.156,0.264,1.0,-0.022
10,y3,0.078,-0.257,-0.069,-0.245,-0.111,0.002,-0.238,-0.115,0.12,0.149,0.166,-0.108,0.218,0.167,-0.022,1.0
11,.,1.0,-0.129,0.093,0.12,-0.511,-0.16,0.065,-0.126,-0.224,0.085,0.289,-0.101,-0.312,0.087,-0.022,0.07
11,A1_1,-0.129,1.0,0.134,0.079,0.052,-0.081,0.236,-0.153,0.197,-0.206,0.085,0.152,-0.032,-0.016,-0.185,-0.258
11,A1_2,0.093,0.134,1.0,0.102,0.04,-0.108,0.579,0.192,0.148,-0.01,0.417,0.124,-0.278,0.019,-0.164,-0.071
11,A1_3,0.12,0.079,0.102,1.0,-0.271,-0.201,0.078,-0.045,-0.025,-0.071,0.07,0.342,0.045,-0.067,0.003,-0.245
11,B1_1,-0.511,0.052,0.04,-0.271,1.0,0.086,0.168,0.064,0.107,0.143,-0.353,0.062,0.14,-0.18,0.152,-0.111
11,B1_2,-0.16,-0.081,-0.108,-0.201,0.086,1.0,0.003,0.187,0.0,0.336,-0.086,-0.216,0.243,0.121,0.128,0.004
11,B1_3,0.065,0.236,0.579,0.078,0.168,0.003,1.0,-0.159,0.165,-0.257,0.102,-0.013,-0.105,0.191,-0.03,-0.239
11,A2_1,-0.126,-0.153,0.192,-0.045,0.064,0.187,-0.159,1.0,0.453,0.394,-0.009,-0.257,-0.285,-0.088,-0.081,-0.116
11,A2_2,-0.224,0.197,0.148,-0.025,0.107,0.0,0.165,0.453,1.0,-0.056,-0.024,-0.051,-0.358,0.313,-0.064,0.119
11,A2_3,0.085,-0.206,-0.01,-0.071,0.143,0.336,-0.257,0.394,-0.056,1.0,-0.059,-0.237,0.031,0.041,0.105,0.149
11,B2_1,0.289,0.085,0.417,0.07,-0.353,-0.086,0.102,-0.009,-0.024,-0.059,1.0,0.196,-0.135,0.141,0.051,0.166
11,B2_2,-0.101,0.152,0.124,0.342,0.062,-0.216,-0.013,-0.257,-0.051,-0.237,0.196,1.0,0.054,-0.251,0.021,-0.108
11,B2_3,-0.312,-0.032,-0.278,0.045,0.14,0.243,-0.105,-0.285,-0.358,0.031,-0.135,0.054,1.0,-0.383,-0.154,0.218
11,y1,0.087,-0.016,0.019,-0.067,-0.18,0.121,0.191,-0.088,0.313,0.041,0.141,-0.251,-0.383,1.0,0.268,0.171
11,y2,-0.022,-0.185,-0.164,0.003,0.152,0.128,-0.03,-0.081,-0.064,0.105,0.051,0.021,-0.154,0.268,1.0,-0.016
11,y3,0.07,-0.258,-0.071,-0.245,-0.111,0.004,-0.239,-0.116,0.119,0.149,0.166,-0.108,0.218,0.171,-0.016,1.0
12,.,1.0,-0.121,0.095,0.123,-0.513,-0.163,0.066,-0.119,-0.221,0.086,0.286,-0.102,-0.313,0.082,-0.026,0.061
12,A1_1,-0.121,1.0,0.135,0.081,0.05,-0.081,0.235,-0.152,0.197,-0.203,0.088,0.151,-0.033,-0.018,-0.188,-0.259
12,A1_2,0.095,0.135,1.0,0.102,0.039,-0.108,0.579,0.193,0.149,-0.008,0.419,0.123,-0.279,0.019,-0.165,-0.071
12,A1_3,0.123,0.081,0.102,1.0,-0.272,-0.201,0.077,-0.042,-0.023,-0.07,0.07,0.341,0.044,-0.068,0.002,-0.246
12,B1_1,-0.513,0.05,0.039,-0.272,1.0,0.087,0.169,0.061,0.105,0.14,-0.353,0.064,0.141,-0.178,0.152,-0.111
12,B1_2,-0.163,-0.081,-0.108,-0.201,0.087,1.0,0.003,0.186,0.002,0.335,-0.088,-0.215,0.244,0.121,0.129,0.006
12,B1_3,0.066,0.235,0.579,0.077,0.169,0.003,1.0,-0.16,0.165,-0.257,0.102,-0.013,-0.104,0.19,-0.031,-0.239
12,A2_1,-0.119,-0.152,0.193,-0.042,0.061,0.186,-0.16,1.0,0.454,0.397,-0.009,-0.258,-0.286,-0.09,-0.083,-0.117
12,A2_2,-0.221,0.197,0.149,-0.023,0.105,0.002,0.165,0.454,1.0,-0.052,-0.021,-0.053,-0.359,0.313,-0.067,0.117
12,A2_3,0.086,-0.203,-0.008,-0.07,0.14,0.335,-0.257,0.397,-0.052,1.0,-0.062,-0.24,0.028,0.04,0.106,0.147
12,B2_1,0.286,0.088,0.419,0.07,-0.353,-0.088,0.102,-0.009,-0.021,-0.062,1.0,0.197,-0.134,0.14,0.051,0.166
12,B2_2,-0.102,0.151,0.123,0.341,0.064,-0.215,-0.013,-0.258,-0.053,-0.24,0.197,1.0,0.055,-0.252,0.019,-0.11
12,B2_3,-0.313,-0.033,-0.279,0.044,0.141,0.244,-0.104,-0.286,-0.359,0.028,-0.134,0.055,1.0,-0.381,-0.152,0.217
12,y1,0.082,-0.018,0.019,-0.068,-0.178,0.121,0.19,-0.09,0.313,0.04,0.14,-0.252,-0.381,1.0,0.27,0.175
12,y2,-0.026,-0.188,-0.165,0.002,0.152,0.129,-0.031,-0.083,-0.067,0.106,0.051,0.019,-0.152,0.27,1.0,-0.013
12,y3,0.061,-0.259,-0.071,-0.246,-0.111,0.006,-0.239,-0.117,0.117,0.147,0.166,-0.11,0.217,0.175,-0.013,1.0
13,.,1.0,-0.116,0.097,0.126,-0.515,-0.167,0.064,-0.111,-0.217,0.089,0.285,-0.104,-0.315,0.078,-0.028,0.056
13,A1_1,-0.116,1.0,0.135,0.083,0.048,-0.08,0.235,-0.15,0.197,-0.201,0.091,0.149,-0.034,-0.019,-0.192,-0.259
13,A1_2,0.097,0.135,1.0,0.103,0.038,-0.108,0.577,0.195,0.15,-0.006,0.421,0.122,-0.28,0.018,-0.165,-0.071
13,A1_3,0.126,0.083,0.103,1.0,-0.274,-0.201,0.077,-0.04,-0.022,-0.068,0.071,0.338,0.042,-0.069,-0.0,-0.247
13,B1_1,-0.515,0.048,0.038,-0.274,1.0,0.089,0.171,0.059,0.103,0.137,-0.353,0.066,0.143,-0.177,0.151,-0.11
13,B1_2,-0.167,-0.08,-0.108,-0.201,0.089,1.0,0.004,0.185,0.003,0.333,-0.092,-0.213,0.246,0.121,0.13,0.007
13,B1_3,0.064,0.235,0.577,0.077,0.171,0.004,1.0,-0.161,0.164,-0.258,0.1,-0.011,-0.103,0.188,-0.031,-0.239
13,A2_1,-0.111,-0.15,0.195,-0.04,0.059,0.185,-0.161,1.0,0.456,0.4,-0.01,-0.259,-0.287,-0.092,-0.085,-0.118
13,A2_2,-0.217,0.197,0.15,-0.022,0.103,0.003,0.164,0.456,1.0,-0.049,-0.02,-0.055,-0.361,0.312,-0.069,0.117
13,A2_3,0.089,-0.201,-0.006,-0.068,0.137,0.333,-0.258,0.4,-0.049,1.0,-0.066,-0.242,0.025,0.04,0.105,0.145
13,B2_1,0.285,0.091,0.421,0.071,-0.353,-0.092,0.1,-0.01,-0.02,-0.066,1.0,0.199,-0.134,0.139,0.05,0.165
13,B2_2,-0.104,0.149,0.122,0.338,0.066,-0.213,-0.011,-0.259,-0.055,-0.242,0.199,1.0,0.056,-0.252,0.017,-0.11
13,B2_3,-0.315,-0.034,-0.28,0.042,0.143,0.246,-0.103,-0.287,-0.361,0.025,-0.134,0.056,1.0,-0.379,-0.151,0.215
13,y1,0.078,-0.019,0.018,-0.069,-0.177,0.121,0.188,-0.092,0.312,0.04,0.139,-0.252,-0.379,1.0,0.273,0.18
13,y2,-0.028,-0.192,-0.165,-0.0,0.151,0.13,-0.031,-0.085,-0.069,0.105,0.05,0.017,-0.151,0.273,1.0,-0.008
13,y3,0.056,-0.259,-0.071,-0.247,-0.11,0.007,-0.239,-0.118,0.117,0.145,0.165,-0.11,0.215,0.18,-0.008,1.0
14,.,1.0,-0.111,0.1,0.129,-0.516,-0.171,0.064,-0.105,-0.213,0.09,0.282,-0.107,-0.318,0.074,-0.031,0.049
14,A1_1,-0.111,1.0,0.137,0.085,0.046,-0.08,0.234,-0.147,0.198,-0.198,0.092,0.147,-0.036,-0.02,-0.193,-0.26
14,A1_2,0.1,0.137,1.0,0.103,0.037,-0.108,0.577,0.197,0.15,-0.005,0.423,0.122,-0.28,0.017,-0.166,-0.072
14,A1_3,0.129,0.085,0.103,1.0,-0.275,-0.202,0.076,-0.039,-0.02,-0.067,0.071,0.337,0.041,-0.07,-0.001,-0.248
14,B1_1,-0.516,0.046,0.037,-0.275,1.0,0.09,0.172,0.056,0.101,0.134,-0.352,0.068,0.144,-0.176,0.151,-0.11
14,B1_2,-0.171,-0.08,-0.108,-0.202,0.09,1.0,0.004,0.185,0.004,0.331,-0.093,-0.211,0.247,0.121,0.13,0.009
14,B1_3,0.064,0.234,0.577,0.076,0.172,0.004,1.0,-0.161,0.164,-0.259,0.1,-0.01,-0.102,0.186,-0.032,-0.239
14,A2_1,-0.105,-0.147,0.197,-0.039,0.056,0.185,-0.161,1.0,0.458,0.401,-0.011,-0.26,-0.288,-0.093,-0.087,-0.118
14,A2_2,-0.213,0.198,0.15,-0.02,0.101,0.004,0.164,0.458,1.0,-0.046,-0.018,-0.057,-0.362,0.311,-0.072,0.116
14,A2_3,0.09,-0.198,-0.005,-0.067,0.134,0.331,-0.259,0.401,-0.046,1.0,-0.068,-0.243,0.023,0.039,0.105,0.145
14,B2_1,0.282,0.092,0.423,0.071,-0.352,-0.093,0.1,-0.011,-0.018,-0.068,1.0,0.2,-0.133,0.138,0.05,0.165
14,B2_2,-0.107,0.147,0.122,0.337,0.068,-0.211,-0.01,-0.26,-0.057,-0.243,0.2,1.0,0.057,-0.251,0.016,-0.112
14,B2_3,-0.318,-0.036,-0.28,0.041,0.144,0.247,-0.102,-0.288,-0.362,0.023,-0.133,0.057,1.0,-0.378,-0.149,0.214
14,y1,0.074,-0.02,0.017,-0.07,-0.176,0.121,0.186,-0.093,0.311,0.039,0.138,-0.251,-0.378,1.0,0.276,0.185
14,y2,-0.031,-0.193,-0.166,-0.001,0.151,0.13,-0.032,-0.087,-0.072,0.105,0.05,0.016,-0.149,0.276,1.0,-0.003
14,y3,0.049,-0.26,-0.072,-0.248,-0.11,0.009,-0.239,-0.118,0.116,0.145,0.165,-0.112,0.214,0.185,-0.003,1.0
15,.,1.0,-0.107,0.103,0.131,-0.516,-0.174,0.065,-0.1,-0.212,0.091,0.279,-0.108,-0.319,0.069,-0.035,0.043
15,A1_1,-0.107,1.0,0.138,0.086,0.045,-0.08,0.233,-0.146,0.199,-0.196,0.094,0.146,-0.037,-0.022,-0.196,-0.26
15,A1_2,0.103,0.138,1.0,0.105,0.036,-0.108,0.576,0.199,0.151,-0.002,0.425,0.122,-0.28,0.017,-0.166,-0.072
15,A1_3,0.131,0.086,0.105,1.0,-0.276,-0.202,0.075,-0.037,-0.019,-0.065,0.071,0.335,0.039,-0.071,-0.002,-0.248
15,B1_1,-0.516,0.045,0.036,-0.276,1.0,0.091,0.172,0.055,0.1,0.132,-0.351,0.07,0.145,-0.176,0.15,-0.109
15,B1_2,-0.174,-0.08,-0.108,-0.202,0.091,1.0,0.005,0.184,0.004,0.33,-0.095,-0.209,0.248,0.121,0.13,0.01
15,B1_3,0.065,0.233,0.576,0.075,0.172,0.005,1.0,-0.162,0.164,-0.26,0.1,-0.009,-0.102,0.185,-0.034,-0.239
15,A2_1,-0.1,-0.146,0.199,-0.037,0.055,0.184,-0.162,1.0,0.459,0.402,-0.012,-0.261,-0.29,-0.093,-0.088,-0.119
15,A2_2,-0.212,0.199,0.151,-0.019,0.1,0.004,0.164,0.459,1.0,-0.044,-0.018,-0.059,-0.364,0.311,-0.073,0.115
15,A2_3,0.091,-0.196,-0.002,-0.065,0.132,0.33,-0.26,0.402,-0.044,1.0,-0.071,-0.244,0.022,0.038,0.105,0.145
15,B2_1,0.279,0.094,0.425,0.071,-0.351,-0.095,0.1,-0.012,-0.018,-0.071,1.0,0.202,-0.132,0.137,0.05,0.164
15,B2_2,-0.108,0.146,0.122,0.335,0.07,-0.209,-0.009,-0.261,-0.059,-0.244,0.202,1.0,0.058,-0.251,0.016,-0.112
15,B2_3,-0.319,-0.037,-0.28,0.039,0.145,0.248,-0.102,-0.29,-0.364,0.022,-0.132,0.058,1.0,-0.376,-0.147,0.213
15,y1,0.069,-0.022,0.017,-0.071,-0.176,0.121,0.185,-0.093,0.311,0.038,0.137,-0.251,-0.376,1.0,0.278,0.189
15,y2,-0.035,-0.196,-0.166,-0.002,0.15,0.13,-0.034,-0.088,-0.073,0.105,0.05,0.016,-0.147,0.278,1.0,0.002
15,y3,0.043,-0.26,-0.072,-0.248,-0.109,0.01,-0.239,-0.119,0.115,0.145,0.164,-0.112,0.213,0.189,0.002,1.0
16,.,1.0,-0.104,0.105,0.132,-0.516,-0.176,0.064,-0.093,-0.209,0.094,0.277,-0.11,-0.319,0.066,-0.037,0.037
16,A1_1,-0.104,1.0,0.138,0.089,0.043,-0.08,0.232,-0.143,0.2,-0.193,0.094,0.145,-0.038,-0.024,-0.197,-0.26
16,A1_2,0.105,0.138,1.0,0.106,0.035,-0.109,0.575,0.2,0.152,-0.001,0.426,0.121,-0.281,0.017,-0.168,-0.072
16,A1_3,0.132,0.089,0.106,1.0,-0.277,-0.203,0.074,-0.034,-0.017,-0.064,0.072,0.333,0.038,-0.072,-0.002,-0.248
16,B1_1,-0.516,0.043,0.035,-0.277,1.0,0.092,0.173,0.053,0.098,0.131,-0.35,0.072,0.146,-0.174,0.149,-0.108
16,B1_2,-0.176,-0.08,-0.109,-0.203,0.092,1.0,0.005,0.184,0.005,0.329,-0.096,-0.208,0.249,0.121,0.13,0.012
16,B1_3,0.064,0.232,0.575,0.074,0.173,0.005,1.0,-0.162,0.163,-0.261,0.1,-0.008,-0.101,0.185,-0.036,-0.239
16,A2_1,-0.093,-0.143,0.2,-0.034,0.053,0.184,-0.162,1.0,0.46,0.404,-0.011,-0.263,-0.29,-0.095,-0.089,-0.119
16,A2_2,-0.209,0.2,0.152,-0.017,0.098,0.005,0.163,0.46,1.0,-0.042,-0.017,-0.06,-0.365,0.31,-0.074,0.116
16,A2_3,0.094,-0.193,-0.001,-0.064,0.131,0.329,-0.261,0.404,-0.042,1.0,-0.074,-0.245,0.02,0.038,0.104,0.144
16,B2_1,0.277,0.094,0.426,0.072,-0.35,-0.096,0.1,-0.011,-0.017,-0.074,1.0,0.203,-0.132,0.137,0.05,0.163
16,B2_2,-0.11,0.145,0.121,0.333,0.072,-0.208,-0.008,-0.263,-0.06,-0.245,0.203,1.0,0.059,-0.25,0.017,-0.111
16,B2_3,-0.319,-0.038,-0.281,0.038,0.146,0.249,-0.101,-0.29,-0.365,0.02,-0.132,0.059,1.0,-0.374,-0.145,0.212
16,y1,0.066,-0.024,0.017,-0.072,-0.174,0.121,0.185,-0.095,0.31,0.038,0.137,-0.25,-0.374,1.0,0.28,0.192
16,y2,-0.037,-0.197,-0.168,-0.002,0.149,0.13,-0.036,-0.089,-0.074,0.104,0.05,0.017,-0.145,0.28,1.0,0.006
16,y3,0.037,-0.26,-0.072,-0.248,-0.108,0.012,-0.239,-0.119,0.116,0.144,0.163,-0.111,0.212,0.192,0.006,1.0
17,.,1.0,-0.101,0.106,0.134,-0.516,-0.178,0.064,-0.087,-0.207,0.094,0.274,-0.112,-0.322,0.064,-0.039,0.03
17,A1_1,-0.101,1.0,0.139,0.09,0.041,-0.081,0.231,-0.141,0.201,-0.19,0.095,0.143,-0.04,-0.024,-0.199,-0.26
17,A1_2,0.106,0.139,1.0,0.107,0.034,-0.109,0.574,0.201,0.153,-0.0,0.428,0.121,-0.281,0.016,-0.168,-0.073
17,A1_3,0.134,0.09,0.107,1.0,-0.279,-0.203,0.074,-0.032,-0.015,-0.062,0.072,0.331,0.037,-0.072,-0.003,-0.248
17,B1_1,-0.516,0.041,0.034,-0.279,1.0,0.092,0.174,0.051,0.097,0.13,-0.349,0.073,0.147,-0.174,0.149,-0.108
17,B1_2,-0.178,-0.081,-0.109,-0.203,0.092,1.0,0.005,0.184,0.005,0.328,-0.097,-0.207,0.249,0.121,0.13,0.013
17,B1_3,0.064,0.231,0.574,0.074,0.174,0.005,1.0,-0.162,0.163,-0.261,0.1,-0.008,-0.1,0.183,-0.037,-0.239
17,A2_1,-0.087,-0.141,0.201,-0.032,0.051,0.184,-0.162,1.0,0.462,0.406,-0.013,-0.264,-0.291,-0.096,-0.091,-0.12
17,A2_2,-0.207,0.201,0.153,-0.015,0.097,0.005,0.163,0.462,1.0,-0.04,-0.016,-0.061,-0.366,0.309,-0.078,0.115
17,A2_3,0.094,-0.19,-0.0,-0.062,0.13,0.328,-0.261,0.406,-0.04,1.0,-0.076,-0.246,0.019,0.037,0.104,0.143
17,B2_1,0.274,0.095,0.428,0.072,-0.349,-0.097,0.1,-0.013,-0.016,-0.076,1.0,0.204,-0.131,0.137,0.051,0.162
17,B2_2,-0.112,0.143,0.121,0.331,0.073,-0.207,-0.008,-0.264,-0.061,-0.246,0.204,1.0,0.06,-0.249,0.017,-0.111
17,B2_3,-0.322,-0.04,-0.281,0.037,0.147,0.249,-0.1,-0.291,-0.366,0.019,-0.131,0.06,1.0,-0.373,-0.143,0.212
17,y1,0.064,-0.024,0.016,-0.072,-0.174,0.121,0.183,-0.096,0.309,0.037,0.137,-0.249,-0.373,1.0,0.282,0.195
17,y2,-0.039,-0.199,-0.168,-0.003,0.149,0.13,-0.037,-0.091,-0.078,0.104,0.051,0.017,-0.143,0.282,1.0,0.01
17,y3,0.03,-0.26,-0.073,-0.248,-0.108,0.013,-0.239,-0.12,0.115,0.143,0.162,-0.111,0.212,0.195,0.01,1.0
18,.,1.0,-0.097,0.108,0.136,-0.517,-0.178,0.065,-0.083,-0.204,0.096,0.272,-0.113,-0.323,0.062,-0.04,0.025
18,A1_1,-0.097,1.0,0.14,0.092,0.04,-0.081,0.23,-0.14,0.201,-0.187,0.096,0.142,-0.04,-0.024,-0.2,-0.26
18,A1_2,0.108,0.14,1.0,0.107,0.033,-0.109,0.573,0.202,0.153,0.001,0.429,0.121,-0.281,0.015,-0.169,-0.073
18,A1_3,0.136,0.092,0.107,1.0,-0.28,-0.204,0.073,-0.031,-0.014,-0.061,0.072,0.33,0.036,-0.073,-0.004,-0.249
18,B1_1,-0.517,0.04,0.033,-0.28,1.0,0.093,0.175,0.05,0.095,0.127,-0.348,0.074,0.148,-0.173,0.148,-0.106
18,B1_2,-0.178,-0.081,-0.109,-0.204,0.093,1.0,0.006,0.183,0.006,0.327,-0.098,-0.206,0.25,0.122,0.13,0.015
18,B1_3,0.065,0.23,0.573,0.073,0.175,0.006,1.0,-0.163,0.163,-0.262,0.099,-0.007,-0.1,0.182,-0.038,-0.239
18,A2_1,-0.083,-0.14,0.202,-0.031,0.05,0.183,-0.163,1.0,0.463,0.407,-0.014,-0.265,-0.292,-0.098,-0.093,-0.121
18,A2_2,-0.204,0.201,0.153,-0.014,0.095,0.006,0.163,0.463,1.0,-0.038,-0.015,-0.062,-0.367,0.309,-0.081,0.114
18,A2_3,0.096,-0.187,0.001,-0.061,0.127,0.327,-0.262,0.407,-0.038,1.0,-0.078,-0.247,0.018,0.036,0.103,0.144
18,B2_1,0.272,0.096,0.429,0.072,-0.348,-0.098,0.099,-0.014,-0.015,-0.078,1.0,0.206,-0.13,0.136,0.05,0.161
18,B2_2,-0.113,0.142,0.121,0.33,0.074,-0.206,-0.007,-0.265,-0.062,-0.247,0.206,1.0,0.061,-0.247,0.017,-0.112
18,B2_3,-0.323,-0.04,-0.281,0.036,0.148,0.25,-0.1,-0.292,-0.367,0.018,-0.13,0.061,1.0,-0.372,-0.141,0.213
18,y1,0.062,-0.024,0.015,-0.073,-0.173,0.122,0.182,-0.098,0.309,0.036,0.136,-0.247,-0.372,1.0,0.283,0.197
18,y2,-0.04,-0.2,-0.169,-0.004,0.148,0.13,-0.038,-0.093,-0.081,0.103,0.05,0.017,-0.141,0.283,1.0,0.013
18,y3,0.025,-0.26,-0.073,-0.249,-0.106,0.015,-0.239,-0.121,0.114,0.144,0.161,-0.112,0.213,0.197,0.013,1.0
19,.,1.0,-0.096,0.11,0.138,-0.518,-0.181,0.065,-0.078,-0.201,0.099,0.27,-0.116,-0.324,0.058,-0.042,0.022
19,A1_1,-0.096,1.0,0.14,0.093,0.038,-0.082,0.23,-0.139,0.202,-0.186,0.097,0.141,-0.042,-0.024,-0.203,-0.26
19,A1_2,0.11,0.14,1.0,0.109,0.032,-0.11,0.572,0.202,0.154,0.002,0.431,0.121,-0.281,0.014,-0.169,-0.073
19,A1_3,0.138,0.093,0.109,1.0,-0.282,-0.204,0.073,-0.03,-0.013,-0.06,0.072,0.329,0.034,-0.073,-0.005,-0.249
19,B1_1,-0.518,0.038,0.032,-0.282,1.0,0.094,0.175,0.049,0.094,0.126,-0.346,0.075,0.149,-0.172,0.148,-0.106
19,B1_2,-0.181,-0.082,-0.11,-0.204,0.094,1.0,0.006,0.183,0.007,0.326,-0.099,-0.205,0.25,0.122,0.13,0.016
19,B1_3,0.065,0.23,0.572,0.073,0.175,0.006,1.0,-0.163,0.162,-0.262,0.1,-0.006,-0.099,0.182,-0.038,-0.239
19,A2_1,-0.078,-0.139,0.202,-0.03,0.049,0.183,-0.163,1.0,0.465,0.408,-0.015,-0.265,-0.292,-0.099,-0.095,-0.121
19,A2_2,-0.201,0.202,0.154,-0.013,0.094,0.007,0.162,0.465,1.0,-0.036,-0.016,-0.063,-0.368,0.308,-0.084,0.113
19,A2_3,0.099,-0.186,0.002,-0.06,0.126,0.326,-0.262,0.408,-0.036,1.0,-0.081,-0.247,0.017,0.036,0.104,0.144
19,B2_1,0.27,0.097,0.431,0.072,-0.346,-0.099,0.1,-0.015,-0.016,-0.081,1.0,0.209,-0.129,0.135,0.049,0.159
19,B2_2,-0.116,0.141,0.121,0.329,0.075,-0.205,-0.006,-0.265,-0.063,-0.247,0.209,1.0,0.061,-0.247,0.016,-0.113
19,B2_3,-0.324,-0.042,-0.281,0.034,0.149,0.25,-0.099,-0.292,-0.368,0.017,-0.129,0.061,1.0,-0.371,-0.139,0.212
19,y1,0.058,-0.024,0.014,-0.073,-0.172,0.122,0.182,-0.099,0.308,0.036,0.135,-0.247,-0.371,1.0,0.285,0.2
19,y2,-0.042,-0.203,-0.169,-0.005,0.148,0.13,-0.038,-0.095,-0.084,0.104,0.049,0.016,-0.139,0.285,1.0,0.017
19,y3,0.022,-0.26,-0.073,-0.249,-0.106,0.016,-0.239,-0.121,0.113,0.144,0.159,-0.113,0.212,0.2,0.017,1.0
20,.,1.0,-0.093,0.111,0.139,-0.517,-0.181,0.065,-0.073,-0.199,0.101,0.267,-0.116,-0.325,0.058,-0.042,0.019
20,A1_1,-0.093,1.0,0.141,0.096,0.037,-0.082,0.23,-0.137,0.203,-0.184,0.098,0.14,-0.043,-0.025,-0.204,-0.26
20,A1_2,0.111,0.141,1.0,0.108,0.031,-0.109,0.572,0.203,0.155,0.004,0.432,0.12,-0.282,0.014,-0.17,-0.073
20,A1_3,0.139,0.096,0.108,1.0,-0.283,-0.203,0.072,-0.027,-0.01,-0.056,0.071,0.327,0.033,-0.073,-0.007,-0.249
20,B1_1,-0.517,0.037,0.031,-0.283,1.0,0.094,0.176,0.048,0.094,0.124,-0.345,0.076,0.15,-0.172,0.147,-0.105
20,B1_2,-0.181,-0.082,-0.109,-0.203,0.094,1.0,0.006,0.183,0.007,0.325,-0.1,-0.204,0.251,0.121,0.13,0.016
20,B1_3,0.065,0.23,0.572,0.072,0.176,0.006,1.0,-0.164,0.162,-0.262,0.1,-0.006,-0.099,0.182,-0.039,-0.238
20,A2_1,-0.073,-0.137,0.203,-0.027,0.048,0.183,-0.164,1.0,0.467,0.409,-0.016,-0.266,-0.292,-0.1,-0.097,-0.121
20,A2_2,-0.199,0.203,0.155,-0.01,0.094,0.007,0.162,0.467,1.0,-0.034,-0.015,-0.064,-0.368,0.307,-0.085,0.113
20,A2_3,0.101,-0.184,0.004,-0.056,0.124,0.325,-0.262,0.409,-0.034,1.0,-0.082,-0.248,0.016,0.035,0.103,0.143
20,B2_1,0.267,0.098,0.432,0.071,-0.345,-0.1,0.1,-0.016,-0.015,-0.082,1.0,0.21,-0.129,0.134,0.049,0.158
20,B2_2,-0.116,0.14,0.12,0.327,0.076,-0.204,-0.006,-0.266,-0.064,-0.248,0.21,1.0,0.062,-0.247,0.016,-0.112
20,B2_3,-0.325,-0.043,-0.282,0.033,0.15,0.251,-0.099,-0.292,-0.368,0.016,-0.129,0.062,1.0,-0.37,-0.139,0.212
20,y1,0.058,-0.025,0.014,-0.073,-0.172,0.121,0.182,-0.1,0.307,0.035,0.134,-0.247,-0.37,1.0,0.286,0.202
20,y2,-0.042,-0.204,-0.17,-0.007,0.147,0.13,-0.039,-0.097,-0.085,0.103,0.049,0.016,-0.139,0.286,1.0,0.02
20,y3,0.019,-0.26,-0.073,-0.249,-0.105,0.016,-0.238,-0.121,0.113,0.143,0.158,-0.112,0.212,0.202,0.02,1.0
21,.,1.0,-0.09,0.113,0.139,-0.517,-0.184,0.067,-0.072,-0.197,0.1,0.265,-0.117,-0.325,0.057,-0.043,0.017
21,A1_1,-0.09,1.0,0.142,0.097,0.037,-0.083,0.229,-0.135,0.203,-0.183,0.098,0.14,-0.043,-0.026,-0.206,-0.26
21,A1_2,0.113,0.142,1.0,0.108,0.03,-0.109,0.571,0.204,0.155,0.004,0.432,0.12,-0.283,0.014,-0.171,-0.074
21,A1_3,0.139,0.097,0.108,1.0,-0.283,-0.202,0.072,-0.024,-0.01,-0.055,0.07,0.326,0.033,-0.073,-0.007,-0.249
21,B1_1,-0.517,0.037,0.03,-0.283,1.0,0.095,0.176,0.048,0.092,0.123,-0.344,0.077,0.15,-0.171,0.147,-0.105
21,B1_2,-0.184,-0.083,-0.109,-0.202,0.095,1.0,0.006,0.184,0.007,0.324,-0.101,-0.203,0.251,0.121,0.13,0.018
21,B1_3,0.067,0.229,0.571,0.072,0.176,0.006,1.0,-0.163,0.162,-0.262,0.1,-0.005,-0.099,0.182,-0.04,-0.239
21,A2_1,-0.072,-0.135,0.204,-0.024,0.048,0.184,-0.163,1.0,0.468,0.411,-0.017,-0.266,-0.293,-0.101,-0.097,-0.121
21,A2_2,-0.197,0.203,0.155,-0.01,0.092,0.007,0.162,0.468,1.0,-0.033,-0.016,-0.065,-0.369,0.307,-0.086,0.113
21,A2_3,0.1,-0.183,0.004,-0.055,0.123,0.324,-0.262,0.411,-0.033,1.0,-0.084,-0.249,0.015,0.033,0.103,0.144
21,B2_1,0.265,0.098,0.432,0.07,-0.344,-0.101,0.1,-0.017,-0.016,-0.084,1.0,0.211,-0.128,0.133,0.05,0.157
21,B2_2,-0.117,0.14,0.12,0.326,0.077,-0.203,-0.005,-0.266,-0.065,-0.249,0.211,1.0,0.062,-0.246,0.017,-0.113
21,B2_3,-0.325,-0.043,-0.283,0.033,0.15,0.251,-0.099,-0.293,-0.369,0.015,-0.128,0.062,1.0,-0.369,-0.137,0.212
21,y1,0.057,-0.026,0.014,-0.073,-0.171,0.121,0.182,-0.101,0.307,0.033,0.133,-0.246,-0.369,1.0,0.287,0.203
21,y2,-0.043,-0.206,-0.171,-0.007,0.147,0.13,-0.04,-0.097,-0.086,0.103,0.05,0.017,-0.137,0.287,1.0,0.022
21,y3,0.017,-0.26,-0.074,-0.249,-0.105,0.018,-0.239,-0.121,0.113,0.144,0.157,-0.113,0.212,0.203,0.022,1.0
22,.,1.0,-0.088,0.113,0.14,-0.516,-0.185,0.066,-0.068,-0.196,0.102,0.263,-0.117,-0.325,0.056,-0.044,0.013
22,A1_1,-0.088,1.0,0.142,0.098,0.036,-0.082,0.229,-0.134,0.204,-0.182,0.097,0.139,-0.043,-0.026,-0.206,-0.26
22,A1_2,0.113,0.142,1.0,0.109,0.03,-0.109,0.571,0.205,0.156,0.005,0.433,0.119,-0.283,0.014,-0.172,-0.074
22,A1_3,0.14,0.098,0.109,1.0,-0.284,-0.202,0.071,-0.023,-0.008,-0.054,0.07,0.325,0.032,-0.072,-0.007,-0.249
22,B1_1,-0.516,0.036,0.03,-0.284,1.0,0.096,0.176,0.047,0.091,0.123,-0.343,0.077,0.151,-0.172,0.146,-0.104
22,B1_2,-0.185,-0.082,-0.109,-0.202,0.096,1.0,0.007,0.183,0.008,0.323,-0.101,-0.202,0.252,0.121,0.13,0.018
22,B1_3,0.066,0.229,0.571,0.071,0.176,0.007,1.0,-0.162,0.161,-0.263,0.1,-0.005,-0.098,0.181,-0.041,-0.238
22,A2_1,-0.068,-0.134,0.205,-0.023,0.047,0.183,-0.162,1.0,0.47,0.412,-0.019,-0.267,-0.293,-0.102,-0.099,-0.121
22,A2_2,-0.196,0.204,0.156,-0.008,0.091,0.008,0.161,0.47,1.0,-0.031,-0.015,-0.066,-0.37,0.306,-0.087,0.113
22,A2_3,0.102,-0.182,0.005,-0.054,0.123,0.323,-0.263,0.412,-0.031,1.0,-0.085,-0.25,0.015,0.033,0.103,0.143
22,B2_1,0.263,0.097,0.433,0.07,-0.343,-0.101,0.1,-0.019,-0.015,-0.085,1.0,0.212,-0.128,0.134,0.049,0.156
22,B2_2,-0.117,0.139,0.119,0.325,0.077,-0.202,-0.005,-0.267,-0.066,-0.25,0.212,1.0,0.063,-0.245,0.017,-0.113
22,B2_3,-0.325,-0.043,-0.283,0.032,0.151,0.252,-0.098,-0.293,-0.37,0.015,-0.128,0.063,1.0,-0.369,-0.136,0.212
22,y1,0.056,-0.026,0.014,-0.072,-0.172,0.121,0.181,-0.102,0.306,0.033,0.134,-0.245,-0.369,1.0,0.288,0.206
22,y2,-0.044,-0.206,-0.172,-0.007,0.146,0.13,-0.041,-0.099,-0.087,0.103,0.049,0.017,-0.136,0.288,1.0,0.023
22,y3,0.013,-0.26,-0.074,-0.249,-0.104,0.018,-0.238,-0.121,0.113,0.143,0.156,-0.113,0.212,0.206,0.023,1.0
23,.,1.0,-0.086,0.114,0.14,-0.516,-0.186,0.066,-0.065,-0.194,0.103,0.262,-0.118,-0.324,0.054,-0.047,0.011
23,A1_1,-0.086,1.0,0.142,0.099,0.035,-0.083,0.228,-0.134,0.205,-0.182,0.098,0.138,-0.044,-0.027,-0.207,-0.26
23,A1_2,0.114,0.142,1.0,0.109,0.029,-0.109,0.571,0.206,0.156,0.006,0.434,0.119,-0.283,0.014,-0.173,-0.074
23,A1_3,0.14,0.099,0.109,1.0,-0.285,-0.203,0.072,-0.022,-0.006,-0.054,0.07,0.324,0.031,-0.074,-0.008,-0.25
23,B1_1,-0.516,0.035,0.029,-0.285,1.0,0.096,0.176,0.046,0.09,0.122,-0.342,0.078,0.151,-0.171,0.147,-0.104
23,B1_2,-0.186,-0.083,-0.109,-0.203,0.096,1.0,0.007,0.182,0.008,0.323,-0.102,-0.202,0.252,0.121,0.131,0.019
23,B1_3,0.066,0.228,0.571,0.072,0.176,0.007,1.0,-0.162,0.16,-0.263,0.1,-0.005,-0.098,0.181,-0.042,-0.238
23,A2_1,-0.065,-0.134,0.206,-0.022,0.046,0.182,-0.162,1.0,0.471,0.413,-0.019,-0.268,-0.294,-0.103,-0.1,-0.121
23,A2_2,-0.194,0.205,0.156,-0.006,0.09,0.008,0.16,0.471,1.0,-0.029,-0.016,-0.066,-0.37,0.305,-0.089,0.113
23,A2_3,0.103,-0.182,0.006,-0.054,0.122,0.323,-0.263,0.413,-0.029,1.0,-0.087,-0.25,0.014,0.033,0.103,0.143
23,B2_1,0.262,0.098,0.434,0.07,-0.342,-0.102,0.1,-0.019,-0.016,-0.087,1.0,0.213,-0.128,0.133,0.047,0.155
23,B2_2,-0.118,0.138,0.119,0.324,0.078,-0.202,-0.005,-0.268,-0.066,-0.25,0.213,1.0,0.063,-0.244,0.017,-0.113
23,B2_3,-0.324,-0.044,-0.283,0.031,0.151,0.252,-0.098,-0.294,-0.37,0.014,-0.128,0.063,1.0,-0.368,-0.135,0.211
23,y1,0.054,-0.027,0.014,-0.074,-0.171,0.121,0.181,-0.103,0.305,0.033,0.133,-0.244,-0.368,1.0,0.288,0.207
23,y2,-0.047,-0.207,-0.173,-0.008,0.147,0.131,-0.042,-0.1,-0.089,0.103,0.047,0.017,-0.135,0.288,1.0,0.024
23,y3,0.011,-0.26,-0.074,-0.25,-0.104,0.019,-0.238,-0.121,0.113,0.143,0.155,-0.113,0.211,0.207,0.024,1.0
24,.,1.0,-0.084,0.114,0.141,-0.515,-0.185,0.065,-0.062,-0.194,0.104,0.26,-0.118,-0.323,0.052,-0.046,0.008
24,A1_1,-0.084,1.0,0.145,0.099,0.034,-0.083,0.228,-0.132,0.206,-0.181,0.098,0.138,-0.045,-0.028,-0.209,-0.26
24,A1_2,0.114,0.145,1.0,0.109,0.029,-0.108,0.57,0.207,0.157,0.007,0.435,0.119,-0.283,0.014,-0.174,-0.075
24,A1_3,0.141,0.099,0.109,1.0,-0.285,-0.202,0.072,-0.022,-0.006,-0.054,0.07,0.323,0.03,-0.075,-0.008,-0.25
24,B1_1,-0.515,0.034,0.029,-0.285,1.0,0.096,0.177,0.045,0.09,0.121,-0.341,0.078,0.151,-0.171,0.146,-0.103
24,B1_2,-0.185,-0.083,-0.108,-0.202,0.096,1.0,0.007,0.183,0.008,0.322,-0.102,-0.201,0.252,0.121,0.132,0.019
24,B1_3,0.065,0.228,0.57,0.072,0.177,0.007,1.0,-0.162,0.16,-0.263,0.101,-0.004,-0.098,0.181,-0.043,-0.238
24,A2_1,-0.062,-0.132,0.207,-0.022,0.045,0.183,-0.162,1.0,0.472,0.414,-0.02,-0.268,-0.295,-0.103,-0.101,-0.122
24,A2_2,-0.194,0.206,0.157,-0.006,0.09,0.008,0.16,0.472,1.0,-0.028,-0.016,-0.067,-0.371,0.304,-0.091,0.112
24,A2_3,0.104,-0.181,0.007,-0.054,0.121,0.322,-0.263,0.414,-0.028,1.0,-0.088,-0.251,0.013,0.033,0.104,0.143
24,B2_1,0.26,0.098,0.435,0.07,-0.341,-0.102,0.101,-0.02,-0.016,-0.088,1.0,0.214,-0.127,0.133,0.047,0.154
24,B2_2,-0.118,0.138,0.119,0.323,0.078,-0.201,-0.004,-0.268,-0.067,-0.251,0.214,1.0,0.063,-0.244,0.017,-0.113
24,B2_3,-0.323,-0.045,-0.283,0.03,0.151,0.252,-0.098,-0.295,-0.371,0.013,-0.127,0.063,1.0,-0.367,-0.134,0.211
24,y1,0.052,-0.028,0.014,-0.075,-0.171,0.121,0.181,-0.103,0.304,0.033,0.133,-0.244,-0.367,1.0,0.288,0.209
24,y2,-0.046,-0.209,-0.174,-0.008,0.146,0.132,-0.043,-0.101,-0.091,0.104,0.047,0.017,-0.134,0.288,1.0,0.028
24,y3,0.008,-0.26,-0.075,-0.25,-0.103,0.019,-0.238,-0.122,0.112,0.143,0.154,-0.113,0.211,0.209,0.028,1.0
25,.,1.0,-0.082,0.115,0.141,-0.514,-0.185,0.066,-0.06,-0.192,0.106,0.258,-0.119,-0.323,0.051,-0.046,0.006
25,A1_1,-0.082,1.0,0.145,0.099,0.034,-0.084,0.227,-0.132,0.206,-0.179,0.098,0.138,-0.045,-0.028,-0.209,-0.261
25,A1_2,0.115,0.145,1.0,0.109,0.028,-0.108,0.57,0.207,0.158,0.008,0.435,0.119,-0.284,0.013,-0.175,-0.075
25,A1_3,0.141,0.099,0.109,1.0,-0.286,-0.202,0.072,-0.022,-0.005,-0.053,0.07,0.323,0.03,-0.075,-0.009,-0.25
25,B1_1,-0.514,0.034,0.028,-0.286,1.0,0.097,0.177,0.044,0.089,0.12,-0.34,0.078,0.152,-0.171,0.146,-0.103
25,B1_2,-0.185,-0.084,-0.108,-0.202,0.097,1.0,0.007,0.183,0.007,0.322,-0.102,-0.201,0.252,0.121,0.132,0.02
25,B1_3,0.066,0.227,0.57,0.072,0.177,0.007,1.0,-0.162,0.16,-0.263,0.101,-0.004,-0.098,0.18,-0.043,-0.238
25,A2_1,-0.06,-0.132,0.207,-0.022,0.044,0.183,-0.162,1.0,0.473,0.413,-0.02,-0.269,-0.295,-0.104,-0.102,-0.122
25,A2_2,-0.192,0.206,0.158,-0.005,0.089,0.007,0.16,0.473,1.0,-0.028,-0.016,-0.067,-0.371,0.304,-0.093,0.112
25,A2_3,0.106,-0.179,0.008,-0.053,0.12,0.322,-0.263,0.413,-0.028,1.0,-0.088,-0.251,0.013,0.033,0.103,0.143
25,B2_1,0.258,0.098,0.435,0.07,-0.34,-0.102,0.101,-0.02,-0.016,-0.088,1.0,0.215,-0.127,0.133,0.047,0.155
25,B2_2,-0.119,0.138,0.119,0.323,0.078,-0.201,-0.004,-0.269,-0.067,-0.251,0.215,1.0,0.063,-0.243,0.016,-0.113
25,B2_3,-0.323,-0.045,-0.284,0.03,0.152,0.252,-0.098,-0.295,-0.371,0.013,-0.127,0.063,1.0,-0.366,-0.133,0.211
25,y1,0.051,-0.028,0.013,-0.075,-0.171,0.121,0.18,-0.104,0.304,0.033,0.133,-0.243,-0.366,1.0,0.289,0.21
25,y2,-0.046,-0.209,-0.175,-0.009,0.146,0.132,-0.043,-0.102,-0.093,0.103,0.047,0.016,-0.133,0.289,1.0,0.029
25,y3,0.006,-0.261,-0.075,-0.25,-0.103,0.02,-0.238,-0.122,0.112,0.143,0.155,-0.113,0.211,0.21,0.029,1.0
26,.,1.0,-0.081,0.115,0.143,-0.513,-0.185,0.066,-0.057,-0.192,0.107,0.258,-0.119,-0.323,0.05,-0.046,0.004
26,A1_1,-0.081,1.0,0.145,0.101,0.034,-0.084,0.227,-0.131,0.206,-0.179,0.098,0.137,-0.045,-0.028,-0.21,-0.261
26,A1_2,0.115,0.145,1.0,0.109,0.027,-0.108,0.569,0.208,0.158,0.008,0.436,0.118,-0.284,0.013,-0.175,-0.075
26,A1_3,0.143,0.101,0.109,1.0,-0.287,-0.201,0.072,-0.02,-0.003,-0.051,0.069,0.321,0.03,-0.074,-0.009,-0.25
26,B1_1,-0.513,0.034,0.027,-0.287,1.0,0.097,0.177,0.044,0.088,0.12,-0.34,0.079,0.152,-0.171,0.146,-0.103
26,B1_2,-0.185,-0.084,-0.108,-0.201,0.097,1.0,0.007,0.182,0.007,0.322,-0.103,-0.201,0.252,0.121,0.132,0.02
26,B1_3,0.066,0.227,0.569,0.072,0.177,0.007,1.0,-0.162,0.16,-0.264,0.101,-0.004,-0.097,0.18,-0.043,-0.239
26,A2_1,-0.057,-0.131,0.208,-0.02,0.044,0.182,-0.162,1.0,0.473,0.413,-0.021,-0.269,-0.295,-0.104,-0.104,-0.121
26,A2_2,-0.192,0.206,0.158,-0.003,0.088,0.007,0.16,0.473,1.0,-0.027,-0.016,-0.067,-0.372,0.303,-0.095,0.112
26,A2_3,0.107,-0.179,0.008,-0.051,0.12,0.322,-0.264,0.413,-0.027,1.0,-0.089,-0.251,0.013,0.033,0.103,0.144
26,B2_1,0.258,0.098,0.436,0.069,-0.34,-0.103,0.101,-0.021,-0.016,-0.089,1.0,0.215,-0.127,0.133,0.046,0.154
26,B2_2,-0.119,0.137,0.118,0.321,0.079,-0.201,-0.004,-0.269,-0.067,-0.251,0.215,1.0,0.064,-0.243,0.017,-0.113
26,B2_3,-0.323,-0.045,-0.284,0.03,0.152,0.252,-0.097,-0.295,-0.372,0.013,-0.127,0.064,1.0,-0.366,-0.132,0.211
26,y1,0.05,-0.028,0.013,-0.074,-0.171,0.121,0.18,-0.104,0.303,0.033,0.133,-0.243,-0.366,1.0,0.289,0.211
26,y2,-0.046,-0.21,-0.175,-0.009,0.146,0.132,-0.043,-0.104,-0.095,0.103,0.046,0.017,-0.132,0.289,1.0,0.03
26,y3,0.004,-0.261,-0.075,-0.25,-0.103,0.02,-0.239,-0.121,0.112,0.144,0.154,-0.113,0.211,0.211,0.03,1.0
27,.,1.0,-0.078,0.116,0.143,-0.513,-0.186,0.067,-0.056,-0.191,0.108,0.257,-0.119,-0.323,0.051,-0.045,0.002
27,A1_1,-0.078,1.0,0.146,0.102,0.033,-0.084,0.228,-0.131,0.206,-0.177,0.097,0.137,-0.046,-0.029,-0.21,-0.262
27,A1_2,0.116,0.146,1.0,0.109,0.027,-0.108,0.569,0.208,0.158,0.008,0.436,0.118,-0.284,0.014,-0.175,-0.075
27,A1_3,0.143,0.102,0.109,1.0,-0.287,-0.201,0.071,-0.019,-0.003,-0.051,0.069,0.321,0.029,-0.075,-0.009,-0.251
27,B1_1,-0.513,0.033,0.027,-0.287,1.0,0.097,0.177,0.044,0.088,0.119,-0.339,0.079,0.152,-0.171,0.146,-0.102
27,B1_2,-0.186,-0.084,-0.108,-0.201,0.097,1.0,0.007,0.182,0.007,0.322,-0.103,-0.2,0.253,0.121,0.132,0.021
27,B1_3,0.067,0.228,0.569,0.071,0.177,0.007,1.0,-0.162,0.159,-0.264,0.101,-0.004,-0.097,0.18,-0.044,-0.238
27,A2_1,-0.056,-0.131,0.208,-0.019,0.044,0.182,-0.162,1.0,0.474,0.413,-0.021,-0.269,-0.295,-0.105,-0.105,-0.122
27,A2_2,-0.191,0.206,0.158,-0.003,0.088,0.007,0.159,0.474,1.0,-0.026,-0.016,-0.067,-0.372,0.302,-0.096,0.112
27,A2_3,0.108,-0.177,0.008,-0.051,0.119,0.322,-0.264,0.413,-0.026,1.0,-0.09,-0.251,0.012,0.032,0.103,0.144
27,B2_1,0.257,0.097,0.436,0.069,-0.339,-0.103,0.101,-0.021,-0.016,-0.09,1.0,0.216,-0.127,0.134,0.046,0.154
27,B2_2,-0.119,0.137,0.118,0.321,0.079,-0.2,-0.004,-0.269,-0.067,-0.251,0.216,1.0,0.064,-0.242,0.017,-0.113
27,B2_3,-0.323,-0.046,-0.284,0.029,0.152,0.253,-0.097,-0.295,-0.372,0.012,-0.127,0.064,1.0,-0.365,-0.131,0.211
27,y1,0.051,-0.029,0.014,-0.075,-0.171,0.121,0.18,-0.105,0.302,0.032,0.134,-0.242,-0.365,1.0,0.289,0.212
27,y2,-0.045,-0.21,-0.175,-0.009,0.146,0.132,-0.044,-0.105,-0.096,0.103,0.046,0.017,-0.131,0.289,1.0,0.032
27,y3,0.002,-0.262,-0.075,-0.251,-0.102,0.021,-0.238,-0.122,0.112,0.144,0.154,-0.113,0.211,0.212,0.032,1.0
28,.,1.0,-0.078,0.115,0.143,-0.513,-0.187,0.065,-0.053,-0.188,0.108,0.256,-0.118,-0.324,0.049,-0.046,-0.0
28,A1_1,-0.078,1.0,0.145,0.102,0.032,-0.084,0.227,-0.13,0.207,-0.176,0.097,0.136,-0.046,-0.029,-0.212,-0.262
28,A1_2,0.115,0.145,1.0,0.109,0.027,-0.108,0.569,0.209,0.159,0.009,0.437,0.118,-0.283,0.014,-0.176,-0.075
28,A1_3,0.143,0.102,0.109,1.0,-0.287,-0.201,0.071,-0.018,-0.002,-0.051,0.068,0.321,0.029,-0.074,-0.01,-0.251
28,B1_1,-0.513,0.032,0.027,-0.287,1.0,0.097,0.177,0.043,0.087,0.119,-0.339,0.079,0.153,-0.17,0.145,-0.102
28,B1_2,-0.187,-0.084,-0.108,-0.201,0.097,1.0,0.007,0.182,0.007,0.321,-0.103,-0.2,0.253,0.12,0.132,0.021
28,B1_3,0.065,0.227,0.569,0.071,0.177,0.007,1.0,-0.162,0.159,-0.264,0.101,-0.004,-0.097,0.18,-0.045,-0.237
28,A2_1,-0.053,-0.13,0.209,-0.018,0.043,0.182,-0.162,1.0,0.475,0.413,-0.021,-0.27,-0.295,-0.106,-0.106,-0.122
28,A2_2,-0.188,0.207,0.159,-0.002,0.087,0.007,0.159,0.475,1.0,-0.025,-0.017,-0.069,-0.373,0.301,-0.098,0.111
28,A2_3,0.108,-0.176,0.009,-0.051,0.119,0.321,-0.264,0.413,-0.025,1.0,-0.091,-0.251,0.012,0.032,0.103,0.144
28,B2_1,0.256,0.097,0.437,0.068,-0.339,-0.103,0.101,-0.021,-0.017,-0.091,1.0,0.216,-0.127,0.134,0.047,0.153
28,B2_2,-0.118,0.136,0.118,0.321,0.079,-0.2,-0.004,-0.27,-0.069,-0.251,0.216,1.0,0.064,-0.242,0.017,-0.113
28,B2_3,-0.324,-0.046,-0.283,0.029,0.153,0.253,-0.097,-0.295,-0.373,0.012,-0.127,0.064,1.0,-0.364,-0.13,0.21
28,y1,0.049,-0.029,0.014,-0.074,-0.17,0.12,0.18,-0.106,0.301,0.032,0.134,-0.242,-0.364,1.0,0.291,0.214
28,y2,-0.046,-0.212,-0.176,-0.01,0.145,0.132,-0.045,-0.106,-0.098,0.103,0.047,0.017,-0.13,0.291,1.0,0.035
28,y3,-0.0,-0.262,-0.075,-0.251,-0.102,0.021,-0.237,-0.122,0.111,0.144,0.153,-0.113,0.21,0.214,0.035,1.0
29,.,1.0,-0.076,0.117,0.143,-0.514,-0.188,0.066,-0.052,-0.188,0.108,0.256,-0.12,-0.324,0.049,-0.046,-0.002
29,A1_1,-0.076,1.0,0.146,0.104,0.032,-0.084,0.227,-0.13,0.207,-0.175,0.097,0.136,-0.047,-0.028,-0.213,-0.261
29,A1_2,0.117,0.146,1.0,0.109,0.026,-0.108,0.569,0.209,0.159,0.01,0.437,0.118,-0.284,0.014,-0.176,-0.075
29,A1_3,0.143,0.104,0.109,1.0,-0.288,-0.2,0.071,-0.017,-0.0,-0.048,0.068,0.32,0.028,-0.074,-0.011,-0.251
29,B1_1,-0.514,0.032,0.026,-0.288,1.0,0.097,0.177,0.043,0.087,0.118,-0.338,0.08,0.153,-0.171,0.145,-0.102
29,B1_2,-0.188,-0.084,-0.108,-0.2,0.097,1.0,0.007,0.182,0.006,0.321,-0.103,-0.2,0.253,0.121,0.132,0.021
29,B1_3,0.066,0.227,0.569,0.071,0.177,0.007,1.0,-0.162,0.159,-0.264,0.101,-0.004,-0.097,0.18,-0.045,-0.237
29,A2_1,-0.052,-0.13,0.209,-0.017,0.043,0.182,-0.162,1.0,0.476,0.413,-0.021,-0.27,-0.296,-0.107,-0.106,-0.122
29,A2_2,-0.188,0.207,0.159,-0.0,0.087,0.006,0.159,0.476,1.0,-0.024,-0.017,-0.068,-0.373,0.3,-0.099,0.112
29,A2_3,0.108,-0.175,0.01,-0.048,0.118,0.321,-0.264,0.413,-0.024,1.0,-0.091,-0.251,0.012,0.031,0.103,0.144
29,B2_1,0.256,0.097,0.437,0.068,-0.338,-0.103,0.101,-0.021,-0.017,-0.091,1.0,0.216,-0.127,0.134,0.046,0.152
29,B2_2,-0.12,0.136,0.118,0.32,0.08,-0.2,-0.004,-0.27,-0.068,-0.251,0.216,1.0,0.064,-0.241,0.017,-0.114
29,B2_3,-0.324,-0.047,-0.284,0.028,0.153,0.253,-0.097,-0.296,-0.373,0.012,-0.127,0.064,1.0,-0.364,-0.13,0.21
29,y1,0.049,-0.028,0.014,-0.074,-0.171,0.121,0.18,-0.107,0.3,0.031,0.134,-0.241,-0.364,1.0,0.29,0.215
29,y2,-0.046,-0.213,-0.176,-0.011,0.145,0.132,-0.045,-0.106,-0.099,0.103,0.046,0.017,-0.13,0.29,1.0,0.035
29,y3,-0.002,-0.261,-0.075,-0.251,-0.102,0.021,-0.237,-0.122,0.112,0.144,0.152,-0.114,0.21,0.215,0.035,1.0
30,.,1.0,-0.076,0.118,0.144,-0.512,-0.189,0.067,-0.051,-0.187,0.108,0.255,-0.12,-0.323,0.048,-0.046,-0.003
30,A1_1,-0.076,1.0,0.146,0.106,0.031,-0.084,0.227,-0.129,0.208,-0.175,0.097,0.136,-0.047,-0.028,-0.213,-0.262
30,A1_2,0.118,0.146,1.0,0.11,0.026,-0.108,0.569,0.209,0.16,0.01,0.437,0.118,-0.284,0.014,-0.177,-0.074
30,A1_3,0.144,0.106,0.11,1.0,-0.289,-0.198,0.07,-0.017,0.001,-0.047,0.068,0.319,0.027,-0.073,-0.011,-0.25
30,B1_1,-0.512,0.031,0.026,-0.289,1.0,0.098,0.177,0.043,0.086,0.118,-0.338,0.08,0.153,-0.171,0.145,-0.101
30,B1_2,-0.189,-0.084,-0.108,-0.198,0.098,1.0,0.007,0.182,0.006,0.32,-0.103,-0.199,0.253,0.12,0.132,0.022
30,B1_3,0.067,0.227,0.569,0.07,0.177,0.007,1.0,-0.162,0.159,-0.265,0.101,-0.003,-0.097,0.18,-0.046,-0.237
30,A2_1,-0.051,-0.129,0.209,-0.017,0.043,0.182,-0.162,1.0,0.477,0.413,-0.022,-0.27,-0.296,-0.107,-0.107,-0.121
30,A2_2,-0.187,0.208,0.16,0.001,0.086,0.006,0.159,0.477,1.0,-0.024,-0.016,-0.069,-0.374,0.3,-0.1,0.112
30,A2_3,0.108,-0.175,0.01,-0.047,0.118,0.32,-0.265,0.413,-0.024,1.0,-0.092,-0.251,0.012,0.031,0.103,0.144
30,B2_1,0.255,0.097,0.437,0.068,-0.338,-0.103,0.101,-0.022,-0.016,-0.092,1.0,0.217,-0.127,0.134,0.046,0.153
30,B2_2,-0.12,0.136,0.118,0.319,0.08,-0.199,-0.003,-0.27,-0.069,-0.251,0.217,1.0,0.064,-0.241,0.017,-0.114
30,B2_3,-0.323,-0.047,-0.284,0.027,0.153,0.253,-0.097,-0.296,-0.374,0.012,-0.127,0.064,1.0,-0.363,-0.129,0.21
30,y1,0.048,-0.028,0.014,-0.073,-0.171,0.12,0.18,-0.107,0.3,0.031,0.134,-0.241,-0.363,1.0,0.29,0.216
30,y2,-0.046,-0.213,-0.177,-0.011,0.145,0.132,-0.046,-0.107,-0.1,0.103,0.046,0.017,-0.129,0.29,1.0,0.036
30,y3,-0.003,-0.262,-0.074,-0.25,-0.101,0.022,-0.237,-0.121,0.112,0.144,0.153,-0.114,0.21,0.216,0.036,1.0
31,.,1.0,-0.075,0.118,0.144,-0.511,-0.191,0.067,-0.05,-0.186,0.108,0.254,-0.121,-0.324,0.047,-0.048,-0.003
31,A1_1,-0.075,1.0,0.146,0.108,0.031,-0.085,0.227,-0.129,0.208,-0.175,0.097,0.136,-0.047,-0.028,-0.214,-0.262
31,A1_2,0.118,0.146,1.0,0.11,0.026,-0.108,0.568,0.209,0.16,0.01,0.438,0.118,-0.284,0.013,-0.177,-0.073
31,A1_3,0.144,0.108,0.11,1.0,-0.29,-0.198,0.07,-0.017,0.002,-0.046,0.068,0.319,0.026,-0.072,-0.01,-0.25
31,B1_1,-0.511,0.031,0.026,-0.29,1.0,0.098,0.177,0.043,0.086,0.118,-0.338,0.08,0.153,-0.171,0.144,-0.101
31,B1_2,-0.191,-0.085,-0.108,-0.198,0.098,1.0,0.007,0.182,0.006,0.32,-0.103,-0.199,0.253,0.121,0.132,0.022
31,B1_3,0.067,0.227,0.568,0.07,0.177,0.007,1.0,-0.162,0.159,-0.265,0.101,-0.003,-0.097,0.179,-0.047,-0.236
31,A2_1,-0.05,-0.129,0.209,-0.017,0.043,0.182,-0.162,1.0,0.477,0.413,-0.022,-0.27,-0.296,-0.108,-0.109,-0.121
31,A2_2,-0.186,0.208,0.16,0.002,0.086,0.006,0.159,0.477,1.0,-0.023,-0.016,-0.068,-0.374,0.3,-0.102,0.113
31,A2_3,0.108,-0.175,0.01,-0.046,0.118,0.32,-0.265,0.413,-0.023,1.0,-0.092,-0.252,0.011,0.031,0.103,0.144
31,B2_1,0.254,0.097,0.438,0.068,-0.338,-0.103,0.101,-0.022,-0.016,-0.092,1.0,0.217,-0.127,0.133,0.046,0.154
31,B2_2,-0.121,0.136,0.118,0.319,0.08,-0.199,-0.003,-0.27,-0.068,-0.252,0.217,1.0,0.065,-0.24,0.017,-0.114
31,B2_3,-0.324,-0.047,-0.284,0.026,0.153,0.253,-0.097,-0.296,-0.374,0.011,-0.127,0.065,1.0,-0.363,-0.128,0.209
31,y1,0.047,-0.028,0.013,-0.072,-0.171,0.121,0.179,-0.108,0.3,0.031,0.133,-0.24,-0.363,1.0,0.291,0.218
31,y2,-0.048,-0.214,-0.177,-0.01,0.144,0.132,-0.047,-0.109,-0.102,0.103,0.046,0.017,-0.128,0.291,1.0,0.038
31,y3,-0.003,-0.262,-0.073,-0.25,-0.101,0.022,-0.236,-0.121,0.113,0.144,0.154,-0.114,0.209,0.218,0.038,1.0
32,.,1.0,-0.075,0.119,0.144,-0.511,-0.192,0.067,-0.048,-0.187,0.108,0.255,-0.12,-0.324,0.046,-0.048,-0.005
32,A1_1,-0.075,1.0,0.147,0.109,0.031,-0.085,0.226,-0.128,0.208,-0.174,0.097,0.135,-0.047,-0.029,-0.214,-0.263
32,A1_2,0.119,0.147,1.0,0.11,0.025,-0.107,0.568,0.21,0.161,0.011,0.438,0.117,-0.284,0.013,-0.178,-0.072
32,A1_3,0.144,0.109,0.11,1.0,-0.29,-0.197,0.07,-0.016,0.003,-0.045,0.067,0.318,0.026,-0.071,-0.011,-0.251
32,B1_1,-0.511,0.031,0.025,-0.29,1.0,0.098,0.177,0.042,0.086,0.118,-0.337,0.08,0.153,-0.171,0.144,-0.1
32,B1_2,-0.192,-0.085,-0.107,-0.197,0.098,1.0,0.007,0.182,0.006,0.32,-0.104,-0.199,0.254,0.12,0.133,0.021
32,B1_3,0.067,0.226,0.568,0.07,0.177,0.007,1.0,-0.162,0.159,-0.265,0.101,-0.003,-0.097,0.179,-0.048,-0.234
32,A2_1,-0.048,-0.128,0.21,-0.016,0.042,0.182,-0.162,1.0,0.477,0.414,-0.022,-0.27,-0.296,-0.108,-0.11,-0.12
32,A2_2,-0.187,0.208,0.161,0.003,0.086,0.006,0.159,0.477,1.0,-0.023,-0.016,-0.069,-0.374,0.299,-0.103,0.114
32,A2_3,0.108,-0.174,0.011,-0.045,0.118,0.32,-0.265,0.414,-0.023,1.0,-0.093,-0.252,0.011,0.032,0.103,0.143
32,B2_1,0.255,0.097,0.438,0.067,-0.337,-0.104,0.101,-0.022,-0.016,-0.093,1.0,0.217,-0.127,0.134,0.045,0.154
32,B2_2,-0.12,0.135,0.117,0.318,0.08,-0.199,-0.003,-0.27,-0.069,-0.252,0.217,1.0,0.065,-0.24,0.017,-0.114
32,B2_3,-0.324,-0.047,-0.284,0.026,0.153,0.254,-0.097,-0.296,-0.374,0.011,-0.127,0.065,1.0,-0.362,-0.127,0.208
32,y1,0.046,-0.029,0.013,-0.071,-0.171,0.12,0.179,-0.108,0.299,0.032,0.134,-0.24,-0.362,1.0,0.291,0.219
32,y2,-0.048,-0.214,-0.178,-0.011,0.144,0.133,-0.048,-0.11,-0.103,0.103,0.045,0.017,-0.127,0.291,1.0,0.04
32,y3,-0.005,-0.263,-0.072,-0.251,-0.1,0.021,-0.234,-0.12,0.114,0.143,0.154,-0.114,0.208,0.219,0.04,1.0
33,.,1.0,-0.076,0.118,0.144,-0.509,-0.191,0.065,-0.046,-0.187,0.109,0.252,-0.121,-0.323,0.044,-0.049,-0.008
33,A1_1,-0.076,1.0,0.149,0.11,0.03,-0.085,0.226,-0.128,0.208,-0.174,0.098,0.135,-0.048,-0.029,-0.215,-0.262
33,A1_2,0.118,0.149,1.0,0.111,0.025,-0.107,0.568,0.211,0.162,0.013,0.438,0.118,-0.284,0.012,-0.179,-0.072
33,A1_3,0.144,0.11,0.111,1.0,-0.291,-0.197,0.071,-0.016,0.004,-0.045,0.067,0.318,0.025,-0.071,-0.011,-0.251
33,B1_1,-0.509,0.03,0.025,-0.291,1.0,0.098,0.178,0.042,0.086,0.117,-0.337,0.08,0.153,-0.171,0.142,-0.1
33,B1_2,-0.191,-0.085,-0.107,-0.197,0.098,1.0,0.007,0.182,0.006,0.32,-0.104,-0.199,0.254,0.12,0.133,0.021
33,B1_3,0.065,0.226,0.568,0.071,0.178,0.007,1.0,-0.162,0.159,-0.265,0.101,-0.003,-0.096,0.179,-0.049,-0.234
33,A2_1,-0.046,-0.128,0.211,-0.016,0.042,0.182,-0.162,1.0,0.478,0.413,-0.023,-0.271,-0.296,-0.11,-0.111,-0.12
33,A2_2,-0.187,0.208,0.162,0.004,0.086,0.006,0.159,0.478,1.0,-0.023,-0.017,-0.069,-0.375,0.298,-0.105,0.115
33,A2_3,0.109,-0.174,0.013,-0.045,0.117,0.32,-0.265,0.413,-0.023,1.0,-0.093,-0.252,0.011,0.031,0.103,0.143
33,B2_1,0.252,0.098,0.438,0.067,-0.337,-0.104,0.101,-0.023,-0.017,-0.093,1.0,0.217,-0.127,0.133,0.046,0.154
33,B2_2,-0.121,0.135,0.118,0.318,0.08,-0.199,-0.003,-0.271,-0.069,-0.252,0.217,1.0,0.065,-0.239,0.016,-0.114
33,B2_3,-0.323,-0.048,-0.284,0.025,0.153,0.254,-0.096,-0.296,-0.375,0.011,-0.127,0.065,1.0,-0.363,-0.126,0.208
33,y1,0.044,-0.029,0.012,-0.071,-0.171,0.12,0.179,-0.11,0.298,0.031,0.133,-0.239,-0.363,1.0,0.293,0.22
33,y2,-0.049,-0.215,-0.179,-0.011,0.142,0.133,-0.049,-0.111,-0.105,0.103,0.046,0.016,-0.126,0.293,1.0,0.041
33,y3,-0.008,-0.262,-0.072,-0.251,-0.1,0.021,-0.234,-0.12,0.115,0.143,0.154,-0.114,0.208,0.22,0.041,1.0
34,.,1.0,-0.076,0.118,0.144,-0.509,-0.193,0.065,-0.046,-0.186,0.109,0.251,-0.12,-0.323,0.044,-0.05,-0.008
34,A1_1,-0.076,1.0,0.149,0.111,0.03,-0.085,0.226,-0.128,0.208,-0.174,0.098,0.135,-0.048,-0.029,-0.216,-0.262
34,A1_2,0.118,0.149,1.0,0.111,0.024,-0.106,0.567,0.212,0.163,0.013,0.438,0.118,-0.284,0.012,-0.18,-0.072
34,A1_3,0.144,0.111,0.111,1.0,-0.291,-0.196,0.07,-0.016,0.004,-0.043,0.067,0.318,0.025,-0.07,-0.011,-0.25
34,B1_1,-0.509,0.03,0.024,-0.291,1.0,0.099,0.178,0.042,0.086,0.117,-0.337,0.081,0.154,-0.171,0.142,-0.1
34,B1_2,-0.193,-0.085,-0.106,-0.196,0.099,1.0,0.007,0.182,0.006,0.32,-0.104,-0.198,0.254,0.12,0.134,0.022
34,B1_3,0.065,0.226,0.567,0.07,0.178,0.007,1.0,-0.163,0.159,-0.265,0.101,-0.003,-0.096,0.178,-0.049,-0.234
34,A2_1,-0.046,-0.128,0.212,-0.016,0.042,0.182,-0.163,1.0,0.478,0.413,-0.023,-0.271,-0.296,-0.111,-0.112,-0.119
34,A2_2,-0.186,0.208,0.163,0.004,0.086,0.006,0.159,0.478,1.0,-0.022,-0.017,-0.069,-0.375,0.297,-0.106,0.115
34,A2_3,0.109,-0.174,0.013,-0.043,0.117,0.32,-0.265,0.413,-0.022,1.0,-0.093,-0.252,0.011,0.031,0.103,0.144
34,B2_1,0.251,0.098,0.438,0.067,-0.337,-0.104,0.101,-0.023,-0.017,-0.093,1.0,0.218,-0.126,0.133,0.045,0.154
34,B2_2,-0.12,0.135,0.118,0.318,0.081,-0.198,-0.003,-0.271,-0.069,-0.252,0.218,1.0,0.065,-0.239,0.016,-0.114
34,B2_3,-0.323,-0.048,-0.284,0.025,0.154,0.254,-0.096,-0.296,-0.375,0.011,-0.126,0.065,1.0,-0.362,-0.126,0.207
34,y1,0.044,-0.029,0.012,-0.07,-0.171,0.12,0.178,-0.111,0.297,0.031,0.133,-0.239,-0.362,1.0,0.293,0.221
34,y2,-0.05,-0.216,-0.18,-0.011,0.142,0.134,-0.049,-0.112,-0.106,0.103,0.045,0.016,-0.126,0.293,1.0,0.042
34,y3,-0.008,-0.262,-0.072,-0.25,-0.1,0.022,-0.234,-0.119,0.115,0.144,0.154,-0.114,0.207,0.221,0.042,1.0
35,.,1.0,-0.075,0.119,0.145,-0.508,-0.194,0.066,-0.047,-0.186,0.109,0.251,-0.12,-0.322,0.044,-0.05,-0.008
35,A1_1,-0.075,1.0,0.149,0.113,0.03,-0.085,0.226,-0.127,0.208,-0.174,0.098,0.135,-0.048,-0.029,-0.216,-0.263
35,A1_2,0.119,0.149,1.0,0.111,0.024,-0.106,0.567,0.212,0.163,0.013,0.438,0.117,-0.284,0.012,-0.18,-0.07
35,A1_3,0.145,0.113,0.111,1.0,-0.293,-0.195,0.07,-0.016,0.005,-0.043,0.067,0.317,0.024,-0.07,-0.011,-0.25
35,B1_1,-0.508,0.03,0.024,-0.293,1.0,0.099,0.178,0.042,0.085,0.117,-0.337,0.081,0.154,-0.171,0.142,-0.1
35,B1_2,-0.194,-0.085,-0.106,-0.195,0.099,1.0,0.007,0.182,0.006,0.319,-0.104,-0.198,0.254,0.119,0.134,0.022
35,B1_3,0.066,0.226,0.567,0.07,0.178,0.007,1.0,-0.163,0.159,-0.265,0.101,-0.002,-0.096,0.178,-0.049,-0.233
35,A2_1,-0.047,-0.127,0.212,-0.016,0.042,0.182,-0.163,1.0,0.478,0.413,-0.023,-0.271,-0.296,-0.111,-0.112,-0.118
35,A2_2,-0.186,0.208,0.163,0.005,0.085,0.006,0.159,0.478,1.0,-0.022,-0.016,-0.069,-0.375,0.297,-0.106,0.115
35,A2_3,0.109,-0.174,0.013,-0.043,0.117,0.319,-0.265,0.413,-0.022,1.0,-0.093,-0.252,0.011,0.03,0.103,0.144
35,B2_1,0.251,0.098,0.438,0.067,-0.337,-0.104,0.101,-0.023,-0.016,-0.093,1.0,0.218,-0.126,0.133,0.045,0.155
35,B2_2,-0.12,0.135,0.117,0.317,0.081,-0.198,-0.002,-0.271,-0.069,-0.252,0.218,1.0,0.065,-0.239,0.015,-0.115
35,B2_3,-0.322,-0.048,-0.284,0.024,0.154,0.254,-0.096,-0.296,-0.375,0.011,-0.126,0.065,1.0,-0.362,-0.125,0.207
35,y1,0.044,-0.029,0.012,-0.07,-0.171,0.119,0.178,-0.111,0.297,0.03,0.133,-0.239,-0.362,1.0,0.294,0.222
35,y2,-0.05,-0.216,-0.18,-0.011,0.142,0.134,-0.049,-0.112,-0.106,0.103,0.045,0.015,-0.125,0.294,1.0,0.043
35,y3,-0.008,-0.263,-0.07,-0.25,-0.1,0.022,-0.233,-0.118,0.115,0.144,0.155,-0.115,0.207,0.222,0.043,1.0
36,.,1.0,-0.075,0.12,0.144,-0.507,-0.194,0.067,-0.046,-0.185,0.109,0.249,-0.119,-0.323,0.044,-0.049,-0.01
36,A1_1,-0.075,1.0,0.149,0.113,0.029,-0.085,0.226,-0.127,0.209,-0.173,0.098,0.134,-0.049,-0.028,-0.218,-0.263
36,A1_2,0.12,0.149,1.0,0.111,0.024,-0.107,0.567,0.213,0.163,0.014,0.438,0.117,-0.284,0.011,-0.18,-0.07
36,A1_3,0.144,0.113,0.111,1.0,-0.293,-0.195,0.07,-0.015,0.005,-0.043,0.067,0.317,0.024,-0.07,-0.011,-0.251
36,B1_1,-0.507,0.029,0.024,-0.293,1.0,0.099,0.178,0.042,0.085,0.116,-0.336,0.081,0.154,-0.171,0.141,-0.099
36,B1_2,-0.194,-0.085,-0.107,-0.195,0.099,1.0,0.007,0.182,0.006,0.32,-0.104,-0.198,0.254,0.12,0.135,0.023
36,B1_3,0.067,0.226,0.567,0.07,0.178,0.007,1.0,-0.162,0.159,-0.265,0.101,-0.002,-0.096,0.178,-0.049,-0.232
36,A2_1,-0.046,-0.127,0.213,-0.015,0.042,0.182,-0.162,1.0,0.478,0.415,-0.023,-0.271,-0.296,-0.111,-0.112,-0.118
36,A2_2,-0.185,0.209,0.163,0.005,0.085,0.006,0.159,0.478,1.0,-0.02,-0.016,-0.069,-0.375,0.297,-0.107,0.116
36,A2_3,0.109,-0.173,0.014,-0.043,0.116,0.32,-0.265,0.415,-0.02,1.0,-0.094,-0.253,0.009,0.031,0.103,0.143
36,B2_1,0.249,0.098,0.438,0.067,-0.336,-0.104,0.101,-0.023,-0.016,-0.094,1.0,0.218,-0.126,0.133,0.046,0.155
36,B2_2,-0.119,0.134,0.117,0.317,0.081,-0.198,-0.002,-0.271,-0.069,-0.253,0.218,1.0,0.065,-0.238,0.014,-0.114
36,B2_3,-0.323,-0.049,-0.284,0.024,0.154,0.254,-0.096,-0.296,-0.375,0.009,-0.126,0.065,1.0,-0.362,-0.125,0.206
36,y1,0.044,-0.028,0.011,-0.07,-0.171,0.12,0.178,-0.111,0.297,0.031,0.133,-0.238,-0.362,1.0,0.294,0.223
36,y2,-0.049,-0.218,-0.18,-0.011,0.141,0.135,-0.049,-0.112,-0.107,0.103,0.046,0.014,-0.125,0.294,1.0,0.045
36,y3,-0.01,-0.263,-0.07,-0.251,-0.099,0.023,-0.232,-0.118,0.116,0.143,0.155,-0.114,0.206,0.223,0.045,1.0
37,.,1.0,-0.074,0.12,0.144,-0.507,-0.196,0.068,-0.047,-0.183,0.108,0.25,-0.119,-0.323,0.043,-0.05,-0.01
37,A1_1,-0.074,1.0,0.149,0.113,0.03,-0.085,0.225,-0.126,0.209,-0.172,0.098,0.134,-0.049,-0.028,-0.218,-0.263
37,A1_2,0.12,0.149,1.0,0.112,0.024,-0.107,0.567,0.213,0.163,0.014,0.438,0.117,-0.284,0.012,-0.18,-0.07
37,A1_3,0.144,0.113,0.112,1.0,-0.293,-0.194,0.069,-0.013,0.006,-0.042,0.068,0.317,0.024,-0.07,-0.012,-0.25
37,B1_1,-0.507,0.03,0.024,-0.293,1.0,0.099,0.178,0.042,0.085,0.116,-0.336,0.081,0.154,-0.171,0.141,-0.099
37,B1_2,-0.196,-0.085,-0.107,-0.194,0.099,1.0,0.007,0.183,0.005,0.319,-0.104,-0.198,0.254,0.119,0.135,0.023
37,B1_3,0.068,0.225,0.567,0.069,0.178,0.007,1.0,-0.162,0.159,-0.265,0.102,-0.002,-0.096,0.178,-0.049,-0.232
37,A2_1,-0.047,-0.126,0.213,-0.013,0.042,0.183,-0.162,1.0,0.479,0.415,-0.024,-0.271,-0.296,-0.11,-0.112,-0.118
37,A2_2,-0.183,0.209,0.163,0.006,0.085,0.005,0.159,0.479,1.0,-0.02,-0.016,-0.068,-0.375,0.297,-0.108,0.117
37,A2_3,0.108,-0.172,0.014,-0.042,0.116,0.319,-0.265,0.415,-0.02,1.0,-0.094,-0.253,0.009,0.031,0.104,0.143
37,B2_1,0.25,0.098,0.438,0.068,-0.336,-0.104,0.102,-0.024,-0.016,-0.094,1.0,0.218,-0.126,0.134,0.045,0.155
37,B2_2,-0.119,0.134,0.117,0.317,0.081,-0.198,-0.002,-0.271,-0.068,-0.253,0.218,1.0,0.065,-0.238,0.014,-0.115
37,B2_3,-0.323,-0.049,-0.284,0.024,0.154,0.254,-0.096,-0.296,-0.375,0.009,-0.126,0.065,1.0,-0.361,-0.124,0.206
37,y1,0.043,-0.028,0.012,-0.07,-0.171,0.119,0.178,-0.11,0.297,0.031,0.134,-0.238,-0.361,1.0,0.294,0.224
37,y2,-0.05,-0.218,-0.18,-0.012,0.141,0.135,-0.049,-0.112,-0.108,0.104,0.045,0.014,-0.124,0.294,1.0,0.046
37,y3,-0.01,-0.263,-0.07,-0.25,-0.099,0.023,-0.232,-0.118,0.117,0.143,0.155,-0.115,0.206,0.224,0.046,1.0
38,.,1.0,-0.073,0.121,0.144,-0.507,-0.195,0.067,-0.044,-0.182,0.108,0.251,-0.118,-0.323,0.042,-0.05,-0.013
38,A1_1,-0.073,1.0,0.149,0.113,0.029,-0.085,0.225,-0.125,0.211,-0.172,0.098,0.134,-0.049,-0.028,-0.218,-0.263
38,A1_2,0.121,0.149,1.0,0.112,0.024,-0.107,0.567,0.213,0.163,0.014,0.439,0.117,-0.284,0.011,-0.181,-0.069
38,A1_3,0.144,0.113,0.112,1.0,-0.293,-0.194,0.069,-0.013,0.007,-0.042,0.068,0.317,0.023,-0.07,-0.011,-0.252
38,B1_1,-0.507,0.029,0.024,-0.293,1.0,0.099,0.178,0.041,0.084,0.116,-0.336,0.081,0.154,-0.171,0.141,-0.098
38,B1_2,-0.195,-0.085,-0.107,-0.194,0.099,1.0,0.007,0.183,0.006,0.319,-0.104,-0.198,0.255,0.12,0.135,0.023
38,B1_3,0.067,0.225,0.567,0.069,0.178,0.007,1.0,-0.161,0.158,-0.265,0.102,-0.002,-0.096,0.177,-0.05,-0.23
38,A2_1,-0.044,-0.125,0.213,-0.013,0.041,0.183,-0.161,1.0,0.48,0.415,-0.024,-0.271,-0.297,-0.11,-0.112,-0.118
38,A2_2,-0.182,0.211,0.163,0.007,0.084,0.006,0.158,0.48,1.0,-0.019,-0.016,-0.069,-0.376,0.297,-0.109,0.118
38,A2_3,0.108,-0.172,0.014,-0.042,0.116,0.319,-0.265,0.415,-0.019,1.0,-0.095,-0.253,0.009,0.032,0.104,0.143
38,B2_1,0.251,0.098,0.439,0.068,-0.336,-0.104,0.102,-0.024,-0.016,-0.095,1.0,0.218,-0.126,0.133,0.045,0.155
38,B2_2,-0.118,0.134,0.117,0.317,0.081,-0.198,-0.002,-0.271,-0.069,-0.253,0.218,1.0,0.065,-0.238,0.014,-0.115
38,B2_3,-0.323,-0.049,-0.284,0.023,0.154,0.255,-0.096,-0.297,-0.376,0.009,-0.126,0.065,1.0,-0.361,-0.124,0.205
38,y1,0.042,-0.028,0.011,-0.07,-0.171,0.12,0.177,-0.11,0.297,0.032,0.133,-0.238,-0.361,1.0,0.293,0.225
38,y2,-0.05,-0.218,-0.181,-0.011,0.141,0.135,-0.05,-0.112,-0.109,0.104,0.045,0.014,-0.124,0.293,1.0,0.046
38,y3,-0.013,-0.263,-0.069,-0.252,-0.098,0.023,-0.23,-0.118,0.118,0.143,0.155,-0.115,0.205,0.225,0.046,1.0
39,.,1.0,-0.07,0.122,0.145,-0.507,-0.194,0.067,-0.044,-0.181,0.109,0.25,-0.118,-0.323,0.043,-0.05,-0.014
39,A1_1,-0.07,1.0,0.149,0.113,0.029,-0.085,0.225,-0.125,0.211,-0.172,0.098,0.134,-0.049,-0.029,-0.219,-0.263
39,A1_2,0.122,0.149,1.0,0.112,0.024,-0.106,0.567,0.213,0.163,0.015,0.439,0.117,-0.284,0.011,-0.181,-0.068
39,A1_3,0.145,0.113,0.112,1.0,-0.293,-0.194,0.07,-0.013,0.006,-0.042,0.068,0.317,0.023,-0.07,-0.012,-0.251
39,B1_1,-0.507,0.029,0.024,-0.293,1.0,0.099,0.178,0.041,0.083,0.116,-0.336,0.081,0.154,-0.172,0.14,-0.097
39,B1_2,-0.194,-0.085,-0.106,-0.194,0.099,1.0,0.007,0.182,0.006,0.319,-0.104,-0.197,0.255,0.12,0.136,0.023
39,B1_3,0.067,0.225,0.567,0.07,0.178,0.007,1.0,-0.162,0.158,-0.265,0.101,-0.002,-0.096,0.177,-0.05,-0.23
39,A2_1,-0.044,-0.125,0.213,-0.013,0.041,0.182,-0.162,1.0,0.48,0.417,-0.024,-0.271,-0.297,-0.11,-0.113,-0.118
39,A2_2,-0.181,0.211,0.163,0.006,0.083,0.006,0.158,0.48,1.0,-0.017,-0.015,-0.07,-0.376,0.297,-0.11,0.119
39,A2_3,0.109,-0.172,0.015,-0.042,0.116,0.319,-0.265,0.417,-0.017,1.0,-0.096,-0.254,0.007,0.031,0.105,0.141
39,B2_1,0.25,0.098,0.439,0.068,-0.336,-0.104,0.101,-0.024,-0.015,-0.096,1.0,0.219,-0.126,0.134,0.044,0.155
39,B2_2,-0.118,0.134,0.117,0.317,0.081,-0.197,-0.002,-0.271,-0.07,-0.254,0.219,1.0,0.065,-0.237,0.013,-0.114
39,B2_3,-0.323,-0.049,-0.284,0.023,0.154,0.255,-0.096,-0.297,-0.376,0.007,-0.126,0.065,1.0,-0.361,-0.123,0.204
39,y1,0.043,-0.029,0.011,-0.07,-0.172,0.12,0.177,-0.11,0.297,0.031,0.134,-0.237,-0.361,1.0,0.294,0.227
39,y2,-0.05,-0.219,-0.181,-0.012,0.14,0.136,-0.05,-0.113,-0.11,0.105,0.044,0.013,-0.123,0.294,1.0,0.049
39,y3,-0.014,-0.263,-0.068,-0.251,-0.097,0.023,-0.23,-0.118,0.119,0.141,0.155,-0.114,0.204,0.227,0.049,1.0
40,.,1.0,-0.07,0.123,0.146,-0.505,-0.195,0.07,-0.044,-0.182,0.11,0.249,-0.117,-0.323,0.043,-0.048,-0.015
40,A1_1,-0.07,1.0,0.149,0.114,0.029,-0.085,0.225,-0.126,0.211,-0.171,0.098,0.134,-0.05,-0.029,-0.22,-0.264
40,A1_2,0.123,0.149,1.0,0.113,0.023,-0.107,0.567,0.214,0.163,0.016,0.439,0.117,-0.284,0.011,-0.181,-0.067
40,A1_3,0.146,0.114,0.113,1.0,-0.294,-0.193,0.07,-0.011,0.008,-0.041,0.067,0.315,0.022,-0.069,-0.012,-0.252
40,B1_1,-0.505,0.029,0.023,-0.294,1.0,0.1,0.178,0.041,0.083,0.115,-0.336,0.081,0.154,-0.171,0.14,-0.097
40,B1_2,-0.195,-0.085,-0.107,-0.193,0.1,1.0,0.006,0.182,0.006,0.319,-0.105,-0.196,0.255,0.119,0.136,0.021
40,B1_3,0.07,0.225,0.567,0.07,0.178,0.006,1.0,-0.162,0.157,-0.265,0.102,-0.002,-0.096,0.177,-0.05,-0.229
40,A2_1,-0.044,-0.126,0.214,-0.011,0.041,0.182,-0.162,1.0,0.48,0.418,-0.025,-0.27,-0.297,-0.111,-0.114,-0.117
40,A2_2,-0.182,0.211,0.163,0.008,0.083,0.006,0.157,0.48,1.0,-0.016,-0.015,-0.069,-0.377,0.296,-0.111,0.119
40,A2_3,0.11,-0.171,0.016,-0.041,0.115,0.319,-0.265,0.418,-0.016,1.0,-0.096,-0.254,0.006,0.031,0.105,0.14
40,B2_1,0.249,0.098,0.439,0.067,-0.336,-0.105,0.102,-0.025,-0.015,-0.096,1.0,0.219,-0.126,0.134,0.045,0.156
40,B2_2,-0.117,0.134,0.117,0.315,0.081,-0.196,-0.002,-0.27,-0.069,-0.254,0.219,1.0,0.065,-0.237,0.013,-0.114
40,B2_3,-0.323,-0.05,-0.284,0.022,0.154,0.255,-0.096,-0.297,-0.377,0.006,-0.126,0.065,1.0,-0.36,-0.123,0.203
40,y1,0.043,-0.029,0.011,-0.069,-0.171,0.119,0.177,-0.111,0.296,0.031,0.134,-0.237,-0.36,1.0,0.295,0.228
40,y2,-0.048,-0.22,-0.181,-0.012,0.14,0.136,-0.05,-0.114,-0.111,0.105,0.045,0.013,-0.123,0.295,1.0,0.05
40,y3,-0.015,-0.264,-0.067,-0.252,-0.097,0.021,-0.229,-0.117,0.119,0.14,0.156,-0.114,0.203,0.228,0.05,1.0
41,.,1.0,-0.07,0.124,0.147,-0.504,-0.196,0.069,-0.044,-0.181,0.11,0.249,-0.117,-0.323,0.042,-0.048,-0.016
41,A1_1,-0.07,1.0,0.149,0.114,0.028,-0.085,0.225,-0.125,0.212,-0.171,0.098,0.134,-0.05,-0.029,-0.22,-0.264
41,A1_2,0.124,0.149,1.0,0.113,0.023,-0.107,0.567,0.214,0.163,0.016,0.439,0.117,-0.284,0.011,-0.181,-0.066
41,A1_3,0.147,0.114,0.113,1.0,-0.294,-0.193,0.07,-0.012,0.009,-0.041,0.067,0.315,0.022,-0.07,-0.012,-0.253
41,B1_1,-0.504,0.028,0.023,-0.294,1.0,0.1,0.178,0.041,0.082,0.115,-0.335,0.081,0.154,-0.171,0.14,-0.096
41,B1_2,-0.196,-0.085,-0.107,-0.193,0.1,1.0,0.006,0.183,0.006,0.319,-0.105,-0.196,0.255,0.119,0.136,0.022
41,B1_3,0.069,0.225,0.567,0.07,0.178,0.006,1.0,-0.162,0.157,-0.265,0.102,-0.002,-0.096,0.177,-0.051,-0.228
41,A2_1,-0.044,-0.125,0.214,-0.012,0.041,0.183,-0.162,1.0,0.481,0.418,-0.025,-0.27,-0.297,-0.111,-0.114,-0.117
41,A2_2,-0.181,0.212,0.163,0.009,0.082,0.006,0.157,0.481,1.0,-0.015,-0.016,-0.069,-0.377,0.295,-0.112,0.119
41,A2_3,0.11,-0.171,0.016,-0.041,0.115,0.319,-0.265,0.418,-0.015,1.0,-0.096,-0.254,0.006,0.032,0.105,0.14
41,B2_1,0.249,0.098,0.439,0.067,-0.335,-0.105,0.102,-0.025,-0.016,-0.096,1.0,0.219,-0.126,0.133,0.045,0.156
41,B2_2,-0.117,0.134,0.117,0.315,0.081,-0.196,-0.002,-0.27,-0.069,-0.254,0.219,1.0,0.065,-0.236,0.013,-0.114
41,B2_3,-0.323,-0.05,-0.284,0.022,0.154,0.255,-0.096,-0.297,-0.377,0.006,-0.126,0.065,1.0,-0.359,-0.123,0.203
41,y1,0.042,-0.029,0.011,-0.07,-0.171,0.119,0.177,-0.111,0.295,0.032,0.133,-0.236,-0.359,1.0,0.294,0.229
41,y2,-0.048,-0.22,-0.181,-0.012,0.14,0.136,-0.051,-0.114,-0.112,0.105,0.045,0.013,-0.123,0.294,1.0,0.051
41,y3,-0.016,-0.264,-0.066,-0.253,-0.096,0.022,-0.228,-0.117,0.119,0.14,0.156,-0.114,0.203,0.229,0.051,1.0
42,.,1.0,-0.068,0.124,0.146,-0.503,-0.197,0.07,-0.045,-0.181,0.109,0.249,-0.116,-0.323,0.04,-0.048,-0.018
42,A1_1,-0.068,1.0,0.15,0.114,0.028,-0.085,0.225,-0.125,0.212,-0.17,0.099,0.134,-0.05,-0.028,-0.221,-0.264
42,A1_2,0.124,0.15,1.0,0.113,0.023,-0.106,0.567,0.215,0.165,0.017,0.438,0.116,-0.285,0.01,-0.183,-0.067
42,A1_3,0.146,0.114,0.113,1.0,-0.294,-0.193,0.07,-0.012,0.01,-0.042,0.067,0.315,0.022,-0.069,-0.012,-0.253
42,B1_1,-0.503,0.028,0.023,-0.294,1.0,0.1,0.178,0.041,0.082,0.115,-0.335,0.081,0.154,-0.171,0.139,-0.096
42,B1_2,-0.197,-0.085,-0.106,-0.193,0.1,1.0,0.006,0.183,0.006,0.319,-0.105,-0.196,0.256,0.119,0.137,0.022
42,B1_3,0.07,0.225,0.567,0.07,0.178,0.006,1.0,-0.162,0.157,-0.265,0.102,-0.002,-0.095,0.176,-0.052,-0.228
42,A2_1,-0.045,-0.125,0.215,-0.012,0.041,0.183,-0.162,1.0,0.482,0.418,-0.025,-0.27,-0.297,-0.112,-0.115,-0.116
42,A2_2,-0.181,0.212,0.165,0.01,0.082,0.006,0.157,0.482,1.0,-0.014,-0.016,-0.07,-0.377,0.295,-0.114,0.12
42,A2_3,0.109,-0.17,0.017,-0.042,0.115,0.319,-0.265,0.418,-0.014,1.0,-0.097,-0.255,0.006,0.032,0.106,0.14
42,B2_1,0.249,0.099,0.438,0.067,-0.335,-0.105,0.102,-0.025,-0.016,-0.097,1.0,0.22,-0.126,0.133,0.043,0.156
42,B2_2,-0.116,0.134,0.116,0.315,0.081,-0.196,-0.002,-0.27,-0.07,-0.255,0.22,1.0,0.066,-0.236,0.012,-0.114
42,B2_3,-0.323,-0.05,-0.285,0.022,0.154,0.256,-0.095,-0.297,-0.377,0.006,-0.126,0.066,1.0,-0.359,-0.122,0.203
42,y1,0.04,-0.028,0.01,-0.069,-0.171,0.119,0.176,-0.112,0.295,0.032,0.133,-0.236,-0.359,1.0,0.294,0.23
42,y2,-0.048,-0.221,-0.183,-0.012,0.139,0.137,-0.052,-0.115,-0.114,0.106,0.043,0.012,-0.122,0.294,1.0,0.052
42,y3,-0.018,-0.264,-0.067,-0.253,-0.096,0.022,-0.228,-0.116,0.12,0.14,0.156,-0.114,0.203,0.23,0.052,1.0
43,.,1.0,-0.066,0.125,0.145,-0.502,-0.196,0.071,-0.045,-0.18,0.109,0.249,-0.115,-0.323,0.042,-0.047,-0.018
43,A1_1,-0.066,1.0,0.15,0.114,0.028,-0.085,0.225,-0.125,0.213,-0.17,0.098,0.134,-0.05,-0.028,-0.221,-0.265
43,A1_2,0.125,0.15,1.0,0.113,0.023,-0.106,0.567,0.215,0.165,0.017,0.438,0.116,-0.284,0.01,-0.183,-0.066
43,A1_3,0.145,0.114,0.113,1.0,-0.295,-0.193,0.07,-0.012,0.01,-0.042,0.068,0.314,0.022,-0.069,-0.012,-0.254
43,B1_1,-0.502,0.028,0.023,-0.295,1.0,0.1,0.179,0.041,0.081,0.114,-0.335,0.081,0.155,-0.171,0.139,-0.095
43,B1_2,-0.196,-0.085,-0.106,-0.193,0.1,1.0,0.006,0.183,0.006,0.319,-0.105,-0.196,0.256,0.119,0.137,0.022
43,B1_3,0.071,0.225,0.567,0.07,0.179,0.006,1.0,-0.162,0.157,-0.265,0.102,-0.002,-0.095,0.176,-0.052,-0.228
43,A2_1,-0.045,-0.125,0.215,-0.012,0.041,0.183,-0.162,1.0,0.482,0.418,-0.025,-0.27,-0.298,-0.112,-0.115,-0.115
43,A2_2,-0.18,0.213,0.165,0.01,0.081,0.006,0.157,0.482,1.0,-0.013,-0.015,-0.07,-0.378,0.295,-0.114,0.121
43,A2_3,0.109,-0.17,0.017,-0.042,0.114,0.319,-0.265,0.418,-0.013,1.0,-0.097,-0.255,0.006,0.032,0.105,0.14
43,B2_1,0.249,0.098,0.438,0.068,-0.335,-0.105,0.102,-0.025,-0.015,-0.097,1.0,0.22,-0.126,0.132,0.044,0.156
43,B2_2,-0.115,0.134,0.116,0.314,0.081,-0.196,-0.002,-0.27,-0.07,-0.255,0.22,1.0,0.066,-0.237,0.013,-0.114
43,B2_3,-0.323,-0.05,-0.284,0.022,0.155,0.256,-0.095,-0.298,-0.378,0.006,-0.126,0.066,1.0,-0.359,-0.122,0.202
43,y1,0.042,-0.028,0.01,-0.069,-0.171,0.119,0.176,-0.112,0.295,0.032,0.132,-0.237,-0.359,1.0,0.295,0.23
43,y2,-0.047,-0.221,-0.183,-0.012,0.139,0.137,-0.052,-0.115,-0.114,0.105,0.044,0.013,-0.122,0.295,1.0,0.052
43,y3,-0.018,-0.265,-0.066,-0.254,-0.095,0.022,-0.228,-0.115,0.121,0.14,0.156,-0.114,0.202,0.23,0.052,1.0
44,.,1.0,-0.065,0.126,0.146,-0.501,-0.197,0.072,-0.045,-0.18,0.109,0.249,-0.115,-0.321,0.042,-0.048,-0.019
44,A1_1,-0.065,1.0,0.151,0.115,0.028,-0.086,0.225,-0.125,0.213,-0.17,0.098,0.134,-0.051,-0.028,-0.221,-0.265
44,A1_2,0.126,0.151,1.0,0.114,0.023,-0.106,0.566,0.216,0.166,0.018,0.439,0.116,-0.284,0.009,-0.183,-0.066
44,A1_3,0.146,0.115,0.114,1.0,-0.295,-0.192,0.071,-0.01,0.013,-0.041,0.067,0.313,0.02,-0.068,-0.013,-0.254
44,B1_1,-0.501,0.028,0.023,-0.295,1.0,0.1,0.179,0.041,0.081,0.114,-0.335,0.082,0.155,-0.171,0.138,-0.096
44,B1_2,-0.197,-0.086,-0.106,-0.192,0.1,1.0,0.006,0.183,0.006,0.318,-0.105,-0.196,0.256,0.119,0.137,0.022
44,B1_3,0.072,0.225,0.566,0.071,0.179,0.006,1.0,-0.162,0.157,-0.265,0.102,-0.002,-0.095,0.176,-0.052,-0.228
44,A2_1,-0.045,-0.125,0.216,-0.01,0.041,0.183,-0.162,1.0,0.483,0.419,-0.026,-0.27,-0.298,-0.113,-0.116,-0.115
44,A2_2,-0.18,0.213,0.166,0.013,0.081,0.006,0.157,0.483,1.0,-0.013,-0.015,-0.07,-0.378,0.294,-0.114,0.121
44,A2_3,0.109,-0.17,0.018,-0.041,0.114,0.318,-0.265,0.419,-0.013,1.0,-0.097,-0.255,0.006,0.032,0.105,0.139
44,B2_1,0.249,0.098,0.439,0.067,-0.335,-0.105,0.102,-0.026,-0.015,-0.097,1.0,0.22,-0.126,0.132,0.044,0.156
44,B2_2,-0.115,0.134,0.116,0.313,0.082,-0.196,-0.002,-0.27,-0.07,-0.255,0.22,1.0,0.066,-0.237,0.012,-0.114
44,B2_3,-0.321,-0.051,-0.284,0.02,0.155,0.256,-0.095,-0.298,-0.378,0.006,-0.126,0.066,1.0,-0.358,-0.122,0.201
44,y1,0.042,-0.028,0.009,-0.068,-0.171,0.119,0.176,-0.113,0.294,0.032,0.132,-0.237,-0.358,1.0,0.295,0.231
44,y2,-0.048,-0.221,-0.183,-0.013,0.138,0.137,-0.052,-0.116,-0.114,0.105,0.044,0.012,-0.122,0.295,1.0,0.053
44,y3,-0.019,-0.265,-0.066,-0.254,-0.096,0.022,-0.228,-0.115,0.121,0.139,0.156,-0.114,0.201,0.231,0.053,1.0
45,.,1.0,-0.065,0.126,0.146,-0.502,-0.197,0.073,-0.046,-0.18,0.109,0.25,-0.116,-0.321,0.043,-0.048,-0.019
45,A1_1,-0.065,1.0,0.15,0.115,0.028,-0.085,0.225,-0.123,0.213,-0.169,0.098,0.134,-0.05,-0.029,-0.221,-0.265
45,A1_2,0.126,0.15,1.0,0.114,0.022,-0.106,0.566,0.217,0.167,0.018,0.439,0.116,-0.285,0.009,-0.183,-0.065
45,A1_3,0.146,0.115,0.114,1.0,-0.296,-0.192,0.071,-0.01,0.013,-0.041,0.067,0.313,0.02,-0.069,-0.013,-0.254
45,B1_1,-0.502,0.028,0.022,-0.296,1.0,0.101,0.179,0.04,0.081,0.114,-0.335,0.082,0.155,-0.171,0.137,-0.096
45,B1_2,-0.197,-0.085,-0.106,-0.192,0.101,1.0,0.006,0.183,0.006,0.318,-0.106,-0.196,0.256,0.119,0.137,0.022
45,B1_3,0.073,0.225,0.566,0.071,0.179,0.006,1.0,-0.162,0.157,-0.265,0.102,-0.002,-0.095,0.176,-0.052,-0.228
45,A2_1,-0.046,-0.123,0.217,-0.01,0.04,0.183,-0.162,1.0,0.484,0.419,-0.025,-0.271,-0.299,-0.113,-0.116,-0.115
45,A2_2,-0.18,0.213,0.167,0.013,0.081,0.006,0.157,0.484,1.0,-0.013,-0.015,-0.07,-0.378,0.293,-0.114,0.122
45,A2_3,0.109,-0.169,0.018,-0.041,0.114,0.318,-0.265,0.419,-0.013,1.0,-0.097,-0.255,0.005,0.031,0.105,0.139
45,B2_1,0.25,0.098,0.439,0.067,-0.335,-0.106,0.102,-0.025,-0.015,-0.097,1.0,0.22,-0.126,0.133,0.044,0.157
45,B2_2,-0.116,0.134,0.116,0.313,0.082,-0.196,-0.002,-0.271,-0.07,-0.255,0.22,1.0,0.066,-0.237,0.012,-0.114
45,B2_3,-0.321,-0.05,-0.285,0.02,0.155,0.256,-0.095,-0.299,-0.378,0.005,-0.126,0.066,1.0,-0.358,-0.122,0.2
45,y1,0.043,-0.029,0.009,-0.069,-0.171,0.119,0.176,-0.113,0.293,0.031,0.133,-0.237,-0.358,1.0,0.296,0.233
45,y2,-0.048,-0.221,-0.183,-0.013,0.137,0.137,-0.052,-0.116,-0.114,0.105,0.044,0.012,-0.122,0.296,1.0,0.053
45,y3,-0.019,-0.265,-0.065,-0.254,-0.096,0.022,-0.228,-0.115,0.122,0.139,0.157,-0.114,0.2,0.233,0.053,1.0
46,.,1.0,-0.067,0.126,0.146,-0.502,-0.199,0.071,-0.044,-0.179,0.109,0.248,-0.117,-0.322,0.042,-0.051,-0.019
46,A1_1,-0.067,1.0,0.151,0.115,0.027,-0.085,0.225,-0.123,0.213,-0.167,0.098,0.134,-0.05,-0.029,-0.221,-0.265
46,A1_2,0.126,0.151,1.0,0.113,0.023,-0.106,0.566,0.217,0.167,0.018,0.439,0.116,-0.284,0.01,-0.183,-0.065
46,A1_3,0.146,0.115,0.113,1.0,-0.296,-0.192,0.071,-0.009,0.013,-0.039,0.067,0.312,0.02,-0.069,-0.013,-0.255
46,B1_1,-0.502,0.027,0.023,-0.296,1.0,0.101,0.179,0.04,0.081,0.113,-0.335,0.082,0.155,-0.172,0.138,-0.096
46,B1_2,-0.199,-0.085,-0.106,-0.192,0.101,1.0,0.006,0.183,0.006,0.318,-0.106,-0.196,0.256,0.12,0.138,0.022
46,B1_3,0.071,0.225,0.566,0.071,0.179,0.006,1.0,-0.162,0.157,-0.265,0.102,-0.001,-0.095,0.176,-0.052,-0.228
46,A2_1,-0.044,-0.123,0.217,-0.009,0.04,0.183,-0.162,1.0,0.484,0.42,-0.025,-0.271,-0.299,-0.114,-0.115,-0.114
46,A2_2,-0.179,0.213,0.167,0.013,0.081,0.006,0.157,0.484,1.0,-0.012,-0.015,-0.07,-0.378,0.293,-0.114,0.123
46,A2_3,0.109,-0.167,0.018,-0.039,0.113,0.318,-0.265,0.42,-0.012,1.0,-0.098,-0.255,0.005,0.031,0.105,0.138
46,B2_1,0.248,0.098,0.439,0.067,-0.335,-0.106,0.102,-0.025,-0.015,-0.098,1.0,0.22,-0.126,0.133,0.043,0.157
46,B2_2,-0.117,0.134,0.116,0.312,0.082,-0.196,-0.001,-0.271,-0.07,-0.255,0.22,1.0,0.066,-0.237,0.011,-0.114
46,B2_3,-0.322,-0.05,-0.284,0.02,0.155,0.256,-0.095,-0.299,-0.378,0.005,-0.126,0.066,1.0,-0.358,-0.121,0.2
46,y1,0.042,-0.029,0.01,-0.069,-0.172,0.12,0.176,-0.114,0.293,0.031,0.133,-0.237,-0.358,1.0,0.295,0.233
46,y2,-0.051,-0.221,-0.183,-0.013,0.138,0.138,-0.052,-0.115,-0.114,0.105,0.043,0.011,-0.121,0.295,1.0,0.052
46,y3,-0.019,-0.265,-0.065,-0.255,-0.096,0.022,-0.228,-0.114,0.123,0.138,0.157,-0.114,0.2,0.233,0.052,1.0
47,.,1.0,-0.067,0.126,0.147,-0.501,-0.199,0.072,-0.045,-0.179,0.109,0.249,-0.116,-0.322,0.043,-0.05,-0.02
47,A1_1,-0.067,1.0,0.151,0.116,0.027,-0.085,0.225,-0.123,0.213,-0.167,0.098,0.134,-0.051,-0.03,-0.221,-0.265
47,A1_2,0.126,0.151,1.0,0.114,0.022,-0.105,0.566,0.217,0.167,0.019,0.439,0.116,-0.284,0.01,-0.183,-0.064
47,A1_3,0.147,0.116,0.114,1.0,-0.296,-0.192,0.072,-0.007,0.015,-0.038,0.067,0.311,0.018,-0.069,-0.013,-0.256
47,B1_1,-0.501,0.027,0.022,-0.296,1.0,0.101,0.179,0.04,0.081,0.113,-0.335,0.082,0.155,-0.171,0.137,-0.095
47,B1_2,-0.199,-0.085,-0.105,-0.192,0.101,1.0,0.006,0.183,0.006,0.318,-0.106,-0.196,0.256,0.119,0.138,0.022
47,B1_3,0.072,0.225,0.566,0.072,0.179,0.006,1.0,-0.162,0.157,-0.265,0.102,-0.001,-0.095,0.176,-0.052,-0.227
47,A2_1,-0.045,-0.123,0.217,-0.007,0.04,0.183,-0.162,1.0,0.484,0.42,-0.026,-0.271,-0.299,-0.114,-0.116,-0.115
47,A2_2,-0.179,0.213,0.167,0.015,0.081,0.006,0.157,0.484,1.0,-0.012,-0.015,-0.07,-0.378,0.292,-0.115,0.123
47,A2_3,0.109,-0.167,0.019,-0.038,0.113,0.318,-0.265,0.42,-0.012,1.0,-0.098,-0.255,0.005,0.03,0.105,0.137
47,B2_1,0.249,0.098,0.439,0.067,-0.335,-0.106,0.102,-0.026,-0.015,-0.098,1.0,0.22,-0.126,0.133,0.043,0.158
47,B2_2,-0.116,0.134,0.116,0.311,0.082,-0.196,-0.001,-0.271,-0.07,-0.255,0.22,1.0,0.066,-0.236,0.011,-0.114
47,B2_3,-0.322,-0.051,-0.284,0.018,0.155,0.256,-0.095,-0.299,-0.378,0.005,-0.126,0.066,1.0,-0.357,-0.121,0.2
47,y1,0.043,-0.03,0.01,-0.069,-0.171,0.119,0.176,-0.114,0.292,0.03,0.133,-0.236,-0.357,1.0,0.296,0.235
47,y2,-0.05,-0.221,-0.183,-0.013,0.137,0.138,-0.052,-0.116,-0.115,0.105,0.043,0.011,-0.121,0.296,1.0,0.054
47,y3,-0.02,-0.265,-0.064,-0.256,-0.095,0.022,-0.227,-0.115,0.123,0.137,0.158,-0.114,0.2,0.235,0.054,1.0
48,.,1.0,-0.066,0.125,0.146,-0.501,-0.198,0.071,-0.044,-0.18,0.109,0.249,-0.116,-0.321,0.043,-0.049,-0.02
48,A1_1,-0.066,1.0,0.151,0.117,0.027,-0.085,0.224,-0.123,0.214,-0.166,0.098,0.134,-0.051,-0.029,-0.221,-0.265
48,A1_2,0.125,0.151,1.0,0.114,0.022,-0.105,0.566,0.217,0.167,0.019,0.439,0.115,-0.284,0.009,-0.183,-0.064
48,A1_3,0.146,0.117,0.114,1.0,-0.296,-0.191,0.071,-0.006,0.016,-0.037,0.066,0.31,0.018,-0.068,-0.014,-0.256
48,B1_1,-0.501,0.027,0.022,-0.296,1.0,0.101,0.179,0.04,0.081,0.113,-0.335,0.082,0.155,-0.172,0.137,-0.095
48,B1_2,-0.198,-0.085,-0.105,-0.191,0.101,1.0,0.006,0.183,0.006,0.318,-0.106,-0.195,0.256,0.12,0.139,0.022
48,B1_3,0.071,0.224,0.566,0.071,0.179,0.006,1.0,-0.162,0.156,-0.265,0.102,-0.001,-0.095,0.175,-0.053,-0.226
48,A2_1,-0.044,-0.123,0.217,-0.006,0.04,0.183,-0.162,1.0,0.484,0.42,-0.026,-0.271,-0.299,-0.114,-0.116,-0.114
48,A2_2,-0.18,0.214,0.167,0.016,0.081,0.006,0.156,0.484,1.0,-0.012,-0.015,-0.07,-0.378,0.292,-0.115,0.124
48,A2_3,0.109,-0.166,0.019,-0.037,0.113,0.318,-0.265,0.42,-0.012,1.0,-0.098,-0.255,0.005,0.031,0.105,0.137
48,B2_1,0.249,0.098,0.439,0.066,-0.335,-0.106,0.102,-0.026,-0.015,-0.098,1.0,0.22,-0.126,0.134,0.043,0.158
48,B2_2,-0.116,0.134,0.115,0.31,0.082,-0.195,-0.001,-0.271,-0.07,-0.255,0.22,1.0,0.066,-0.235,0.011,-0.113
48,B2_3,-0.321,-0.051,-0.284,0.018,0.155,0.256,-0.095,-0.299,-0.378,0.005,-0.126,0.066,1.0,-0.357,-0.121,0.199
48,y1,0.043,-0.029,0.009,-0.068,-0.172,0.12,0.175,-0.114,0.292,0.031,0.134,-0.235,-0.357,1.0,0.296,0.236
48,y2,-0.049,-0.221,-0.183,-0.014,0.137,0.139,-0.053,-0.116,-0.115,0.105,0.043,0.011,-0.121,0.296,1.0,0.054
48,y3,-0.02,-0.265,-0.064,-0.256,-0.095,0.022,-0.226,-0.114,0.124,0.137,0.158,-0.113,0.199,0.236,0.054,1.0
49,.,1.0,-0.065,0.126,0.146,-0.5,-0.198,0.071,-0.043,-0.181,0.11,0.248,-0.116,-0.321,0.043,-0.049,-0.022
49,A1_1,-0.065,1.0,0.152,0.117,0.027,-0.085,0.224,-0.123,0.214,-0.165,0.098,0.134,-0.052,-0.028,-0.221,-0.265
49,A1_2,0.126,0.152,1.0,0.114,0.022,-0.106,0.566,0.217,0.167,0.019,0.439,0.115,-0.284,0.009,-0.182,-0.064
49,A1_3,0.146,0.117,0.114,1.0,-0.296,-0.19,0.071,-0.006,0.016,-0.036,0.066,0.31,0.019,-0.067,-0.014,-0.256
49,B1_1,-0.5,0.027,0.022,-0.296,1.0,0.101,0.179,0.04,0.081,0.113,-0.334,0.082,0.155,-0.172,0.138,-0.094
49,B1_2,-0.198,-0.085,-0.106,-0.19,0.101,1.0,0.006,0.183,0.006,0.318,-0.106,-0.195,0.256,0.119,0.138,0.022
49,B1_3,0.071,0.224,0.566,0.071,0.179,0.006,1.0,-0.162,0.157,-0.265,0.102,-0.001,-0.095,0.175,-0.052,-0.226
49,A2_1,-0.043,-0.123,0.217,-0.006,0.04,0.183,-0.162,1.0,0.484,0.42,-0.026,-0.271,-0.299,-0.114,-0.116,-0.114
49,A2_2,-0.181,0.214,0.167,0.016,0.081,0.006,0.157,0.484,1.0,-0.011,-0.015,-0.07,-0.378,0.292,-0.114,0.124
49,A2_3,0.11,-0.165,0.019,-0.036,0.113,0.318,-0.265,0.42,-0.011,1.0,-0.098,-0.255,0.005,0.032,0.104,0.137
49,B2_1,0.248,0.098,0.439,0.066,-0.334,-0.106,0.102,-0.026,-0.015,-0.098,1.0,0.22,-0.126,0.133,0.044,0.158
49,B2_2,-0.116,0.134,0.115,0.31,0.082,-0.195,-0.001,-0.271,-0.07,-0.255,0.22,1.0,0.066,-0.235,0.012,-0.113
49,B2_3,-0.321,-0.052,-0.284,0.019,0.155,0.256,-0.095,-0.299,-0.378,0.005,-0.126,0.066,1.0,-0.357,-0.121,0.199
49,y1,0.043,-0.028,0.009,-0.067,-0.172,0.119,0.175,-0.114,0.292,0.032,0.133,-0.235,-0.357,1.0,0.297,0.237
49,y2,-0.049,-0.221,-0.182,-0.014,0.138,0.138,-0.052,-0.116,-0.114,0.104,0.044,0.012,-0.121,0.297,1.0,0.055
49,y3,-0.022,-0.265,-0.064,-0.256,-0.094,0.022,-0.226,-0.114,0.124,0.137,0.158,-0.113,0.199,0.237,0.055,1.0
50,.,1.0,-0.065,0.126,0.147,-0.501,-0.198,0.071,-0.042,-0.179,0.111,0.248,-0.117,-0.322,0.043,-0.049,-0.024
50,A1_1,-0.065,1.0,0.152,0.117,0.026,-0.085,0.224,-0.121,0.215,-0.165,0.098,0.134,-0.053,-0.029,-0.222,-0.265
50,A1_2,0.126,0.152,1.0,0.114,0.022,-0.106,0.566,0.218,0.167,0.019,0.439,0.115,-0.284,0.01,-0.183,-0.063
50,A1_3,0.147,0.117,0.114,1.0,-0.296,-0.19,0.071,-0.004,0.017,-0.036,0.066,0.31,0.019,-0.067,-0.014,-0.255
50,B1_1,-0.501,0.026,0.022,-0.296,1.0,0.101,0.179,0.04,0.081,0.113,-0.334,0.082,0.155,-0.172,0.137,-0.094
50,B1_2,-0.198,-0.085,-0.106,-0.19,0.101,1.0,0.006,0.183,0.006,0.318,-0.106,-0.195,0.256,0.119,0.139,0.022
50,B1_3,0.071,0.224,0.566,0.071,0.179,0.006,1.0,-0.162,0.156,-0.265,0.102,-0.001,-0.095,0.175,-0.053,-0.226
50,A2_1,-0.042,-0.121,0.218,-0.004,0.04,0.183,-0.162,1.0,0.485,0.421,-0.027,-0.27,-0.299,-0.114,-0.117,-0.114
50,A2_2,-0.179,0.215,0.167,0.017,0.081,0.006,0.156,0.485,1.0,-0.011,-0.015,-0.069,-0.378,0.292,-0.115,0.125
50,A2_3,0.111,-0.165,0.019,-0.036,0.113,0.318,-0.265,0.421,-0.011,1.0,-0.098,-0.255,0.005,0.032,0.104,0.137
50,B2_1,0.248,0.098,0.439,0.066,-0.334,-0.106,0.102,-0.027,-0.015,-0.098,1.0,0.22,-0.126,0.134,0.043,0.158
50,B2_2,-0.117,0.134,0.115,0.31,0.082,-0.195,-0.001,-0.27,-0.069,-0.255,0.22,1.0,0.066,-0.234,0.012,-0.114
50,B2_3,-0.322,-0.053,-0.284,0.019,0.155,0.256,-0.095,-0.299,-0.378,0.005,-0.126,0.066,1.0,-0.357,-0.121,0.198
50,y1,0.043,-0.029,0.01,-0.067,-0.172,0.119,0.175,-0.114,0.292,0.032,0.134,-0.234,-0.357,1.0,0.297,0.238
50,y2,-0.049,-0.222,-0.183,-0.014,0.137,0.139,-0.053,-0.117,-0.115,0.104,0.043,0.012,-0.121,0.297,1.0,0.056
50,y3,-0.024,-0.265,-0.063,-0.255,-0.094,0.022,-0.226,-0.114,0.125,0.137,0.158,-0.114,0.198,0.238,0.056,1.0
51,.,1.0,-0.064,0.125,0.146,-0.501,-0.198,0.069,-0.042,-0.179,0.111,0.248,-0.116,-0.321,0.042,-0.05,-0.024
51,A1_1,-0.064,1.0,0.152,0.118,0.025,-0.085,0.225,-0.119,0.216,-0.165,0.098,0.133,-0.054,-0.028,-0.223,-0.266
51,A1_2,0.125,0.152,1.0,0.114,0.022,-0.106,0.566,0.217,0.167,0.019,0.439,0.116,-0.284,0.01,-0.182,-0.063
51,A1_3,0.146,0.118,0.114,1.0,-0.296,-0.19,0.071,-0.004,0.017,-0.036,0.066,0.31,0.019,-0.067,-0.014,-0.255
51,B1_1,-0.501,0.025,0.022,-0.296,1.0,0.101,0.179,0.04,0.08,0.112,-0.334,0.082,0.155,-0.172,0.135,-0.095
51,B1_2,-0.198,-0.085,-0.106,-0.19,0.101,1.0,0.006,0.183,0.006,0.317,-0.106,-0.195,0.256,0.119,0.138,0.022
51,B1_3,0.069,0.225,0.566,0.071,0.179,0.006,1.0,-0.162,0.157,-0.266,0.102,-0.001,-0.095,0.174,-0.053,-0.226
51,A2_1,-0.042,-0.119,0.217,-0.004,0.04,0.183,-0.162,1.0,0.485,0.421,-0.027,-0.27,-0.299,-0.114,-0.118,-0.113
51,A2_2,-0.179,0.216,0.167,0.017,0.08,0.006,0.157,0.485,1.0,-0.011,-0.014,-0.07,-0.378,0.292,-0.116,0.126
51,A2_3,0.111,-0.165,0.019,-0.036,0.112,0.317,-0.266,0.421,-0.011,1.0,-0.099,-0.255,0.005,0.032,0.104,0.138
51,B2_1,0.248,0.098,0.439,0.066,-0.334,-0.106,0.102,-0.027,-0.014,-0.099,1.0,0.22,-0.126,0.134,0.044,0.157
51,B2_2,-0.116,0.133,0.116,0.31,0.082,-0.195,-0.001,-0.27,-0.07,-0.255,0.22,1.0,0.066,-0.234,0.012,-0.115
51,B2_3,-0.321,-0.054,-0.284,0.019,0.155,0.256,-0.095,-0.299,-0.378,0.005,-0.126,0.066,1.0,-0.357,-0.121,0.197
51,y1,0.042,-0.028,0.01,-0.067,-0.172,0.119,0.174,-0.114,0.292,0.032,0.134,-0.234,-0.357,1.0,0.298,0.239
51,y2,-0.05,-0.223,-0.182,-0.014,0.135,0.138,-0.053,-0.118,-0.116,0.104,0.044,0.012,-0.121,0.298,1.0,0.058
51,y3,-0.024,-0.266,-0.063,-0.255,-0.095,0.022,-0.226,-0.113,0.126,0.138,0.157,-0.115,0.197,0.239,0.058,1.0
52,.,1.0,-0.064,0.125,0.146,-0.501,-0.198,0.069,-0.042,-0.18,0.111,0.249,-0.116,-0.32,0.043,-0.052,-0.024
52,A1_1,-0.064,1.0,0.153,0.118,0.025,-0.085,0.225,-0.119,0.217,-0.165,0.098,0.132,-0.054,-0.029,-0.224,-0.266
52,A1_2,0.125,0.153,1.0,0.114,0.022,-0.106,0.565,0.218,0.167,0.019,0.44,0.116,-0.284,0.01,-0.182,-0.062
52,A1_3,0.146,0.118,0.114,1.0,-0.297,-0.19,0.071,-0.004,0.017,-0.036,0.066,0.31,0.019,-0.067,-0.015,-0.256
52,B1_1,-0.501,0.025,0.022,-0.297,1.0,0.101,0.179,0.039,0.08,0.112,-0.334,0.082,0.155,-0.173,0.136,-0.094
52,B1_2,-0.198,-0.085,-0.106,-0.19,0.101,1.0,0.006,0.183,0.006,0.317,-0.106,-0.195,0.256,0.118,0.138,0.022
52,B1_3,0.069,0.225,0.565,0.071,0.179,0.006,1.0,-0.161,0.156,-0.266,0.102,-0.001,-0.095,0.174,-0.054,-0.226
52,A2_1,-0.042,-0.119,0.218,-0.004,0.039,0.183,-0.161,1.0,0.487,0.421,-0.027,-0.271,-0.3,-0.114,-0.118,-0.113
52,A2_2,-0.18,0.217,0.167,0.017,0.08,0.006,0.156,0.487,1.0,-0.011,-0.014,-0.07,-0.378,0.292,-0.115,0.126
52,A2_3,0.111,-0.165,0.019,-0.036,0.112,0.317,-0.266,0.421,-0.011,1.0,-0.099,-0.255,0.005,0.031,0.104,0.137
52,B2_1,0.249,0.098,0.44,0.066,-0.334,-0.106,0.102,-0.027,-0.014,-0.099,1.0,0.221,-0.126,0.135,0.043,0.158
52,B2_2,-0.116,0.132,0.116,0.31,0.082,-0.195,-0.001,-0.271,-0.07,-0.255,0.221,1.0,0.066,-0.234,0.012,-0.115
52,B2_3,-0.32,-0.054,-0.284,0.019,0.155,0.256,-0.095,-0.3,-0.378,0.005,-0.126,0.066,1.0,-0.357,-0.121,0.197
52,y1,0.043,-0.029,0.01,-0.067,-0.173,0.118,0.174,-0.114,0.292,0.031,0.135,-0.234,-0.357,1.0,0.3,0.24
52,y2,-0.052,-0.224,-0.182,-0.015,0.136,0.138,-0.054,-0.118,-0.115,0.104,0.043,0.012,-0.121,0.3,1.0,0.06
52,y3,-0.024,-0.266,-0.062,-0.256,-0.094,0.022,-0.226,-0.113,0.126,0.137,0.158,-0.115,0.197,0.24,0.06,1.0
53,.,1.0,-0.064,0.125,0.146,-0.501,-0.198,0.069,-0.041,-0.18,0.111,0.249,-0.116,-0.321,0.044,-0.052,-0.024
53,A1_1,-0.064,1.0,0.153,0.118,0.025,-0.085,0.225,-0.119,0.217,-0.164,0.098,0.132,-0.055,-0.028,-0.224,-0.266
53,A1_2,0.125,0.153,1.0,0.114,0.022,-0.105,0.565,0.219,0.169,0.021,0.439,0.115,-0.285,0.009,-0.184,-0.063
53,A1_3,0.146,0.118,0.114,1.0,-0.297,-0.19,0.071,-0.004,0.018,-0.036,0.066,0.31,0.018,-0.067,-0.015,-0.256
53,B1_1,-0.501,0.025,0.022,-0.297,1.0,0.101,0.18,0.039,0.08,0.112,-0.334,0.082,0.155,-0.173,0.136,-0.094
53,B1_2,-0.198,-0.085,-0.105,-0.19,0.101,1.0,0.006,0.184,0.005,0.317,-0.106,-0.195,0.256,0.118,0.139,0.022
53,B1_3,0.069,0.225,0.565,0.071,0.18,0.006,1.0,-0.161,0.156,-0.266,0.102,-0.0,-0.094,0.174,-0.054,-0.226
53,A2_1,-0.041,-0.119,0.219,-0.004,0.039,0.184,-0.161,1.0,0.487,0.422,-0.027,-0.271,-0.3,-0.114,-0.118,-0.113
53,A2_2,-0.18,0.217,0.169,0.018,0.08,0.005,0.156,0.487,1.0,-0.01,-0.014,-0.07,-0.379,0.291,-0.116,0.126
53,A2_3,0.111,-0.164,0.021,-0.036,0.112,0.317,-0.266,0.422,-0.01,1.0,-0.099,-0.255,0.004,0.032,0.104,0.137
53,B2_1,0.249,0.098,0.439,0.066,-0.334,-0.106,0.102,-0.027,-0.014,-0.099,1.0,0.221,-0.126,0.134,0.042,0.158
53,B2_2,-0.116,0.132,0.115,0.31,0.082,-0.195,-0.0,-0.271,-0.07,-0.255,0.221,1.0,0.066,-0.234,0.011,-0.114
53,B2_3,-0.321,-0.055,-0.285,0.018,0.155,0.256,-0.094,-0.3,-0.379,0.004,-0.126,0.066,1.0,-0.356,-0.121,0.196
53,y1,0.044,-0.028,0.009,-0.067,-0.173,0.118,0.174,-0.114,0.291,0.032,0.134,-0.234,-0.356,1.0,0.299,0.239
53,y2,-0.052,-0.224,-0.184,-0.015,0.136,0.139,-0.054,-0.118,-0.116,0.104,0.042,0.011,-0.121,0.299,1.0,0.059
53,y3,-0.024,-0.266,-0.063,-0.256,-0.094,0.022,-0.226,-0.113,0.126,0.137,0.158,-0.114,0.196,0.239,0.059,1.0
54,.,1.0,-0.064,0.124,0.147,-0.501,-0.198,0.068,-0.042,-0.181,0.111,0.249,-0.115,-0.32,0.044,-0.051,-0.025
54,A1_1,-0.064,1.0,0.154,0.118,0.024,-0.085,0.225,-0.117,0.219,-0.164,0.098,0.131,-0.056,-0.028,-0.226,-0.267
54,A1_2,0.124,0.154,1.0,0.114,0.022,-0.105,0.565,0.22,0.17,0.021,0.439,0.115,-0.285,0.008,-0.183,-0.063
54,A1_3,0.147,0.118,0.114,1.0,-0.297,-0.19,0.07,-0.004,0.018,-0.036,0.066,0.31,0.018,-0.067,-0.015,-0.256
54,B1_1,-0.501,0.024,0.022,-0.297,1.0,0.101,0.18,0.039,0.08,0.112,-0.334,0.082,0.155,-0.173,0.137,-0.094
54,B1_2,-0.198,-0.085,-0.105,-0.19,0.101,1.0,0.006,0.184,0.005,0.317,-0.106,-0.195,0.256,0.119,0.139,0.022
54,B1_3,0.068,0.225,0.565,0.07,0.18,0.006,1.0,-0.161,0.157,-0.266,0.102,-0.0,-0.094,0.173,-0.054,-0.226
54,A2_1,-0.042,-0.117,0.22,-0.004,0.039,0.184,-0.161,1.0,0.487,0.422,-0.027,-0.271,-0.3,-0.114,-0.118,-0.113
54,A2_2,-0.181,0.219,0.17,0.018,0.08,0.005,0.157,0.487,1.0,-0.01,-0.014,-0.07,-0.379,0.29,-0.117,0.126
54,A2_3,0.111,-0.164,0.021,-0.036,0.112,0.317,-0.266,0.422,-0.01,1.0,-0.099,-0.255,0.004,0.032,0.104,0.137
54,B2_1,0.249,0.098,0.439,0.066,-0.334,-0.106,0.102,-0.027,-0.014,-0.099,1.0,0.221,-0.126,0.134,0.042,0.158
54,B2_2,-0.115,0.131,0.115,0.31,0.082,-0.195,-0.0,-0.271,-0.07,-0.255,0.221,1.0,0.066,-0.235,0.012,-0.115
54,B2_3,-0.32,-0.056,-0.285,0.018,0.155,0.256,-0.094,-0.3,-0.379,0.004,-0.126,0.066,1.0,-0.356,-0.121,0.197
54,y1,0.044,-0.028,0.008,-0.067,-0.173,0.119,0.173,-0.114,0.29,0.032,0.134,-0.235,-0.356,1.0,0.3,0.239
54,y2,-0.051,-0.226,-0.183,-0.015,0.137,0.139,-0.054,-0.118,-0.117,0.104,0.042,0.012,-0.121,0.3,1.0,0.059
54,y3,-0.025,-0.267,-0.063,-0.256,-0.094,0.022,-0.226,-0.113,0.126,0.137,0.158,-0.115,0.197,0.239,0.059,1.0
55,.,1.0,-0.062,0.126,0.147,-0.501,-0.197,0.069,-0.041,-0.18,0.111,0.251,-0.114,-0.32,0.045,-0.05,-0.025
55,A1_1,-0.062,1.0,0.156,0.118,0.024,-0.085,0.225,-0.117,0.219,-0.164,0.098,0.131,-0.056,-0.028,-0.225,-0.266
55,A1_2,0.126,0.156,1.0,0.115,0.021,-0.104,0.565,0.221,0.171,0.022,0.439,0.115,-0.286,0.008,-0.184,-0.063
55,A1_3,0.147,0.118,0.115,1.0,-0.297,-0.19,0.07,-0.004,0.018,-0.035,0.066,0.31,0.018,-0.067,-0.015,-0.256
55,B1_1,-0.501,0.024,0.021,-0.297,1.0,0.101,0.18,0.04,0.08,0.112,-0.334,0.082,0.155,-0.173,0.137,-0.093
55,B1_2,-0.197,-0.085,-0.104,-0.19,0.101,1.0,0.006,0.184,0.005,0.317,-0.106,-0.195,0.256,0.118,0.14,0.022
55,B1_3,0.069,0.225,0.565,0.07,0.18,0.006,1.0,-0.161,0.157,-0.266,0.102,0.0,-0.094,0.173,-0.054,-0.225
55,A2_1,-0.041,-0.117,0.221,-0.004,0.04,0.184,-0.161,1.0,0.487,0.422,-0.027,-0.271,-0.3,-0.115,-0.117,-0.113
55,A2_2,-0.18,0.219,0.171,0.018,0.08,0.005,0.157,0.487,1.0,-0.01,-0.014,-0.07,-0.379,0.289,-0.117,0.126
55,A2_3,0.111,-0.164,0.022,-0.035,0.112,0.317,-0.266,0.422,-0.01,1.0,-0.099,-0.255,0.004,0.032,0.104,0.137
55,B2_1,0.251,0.098,0.439,0.066,-0.334,-0.106,0.102,-0.027,-0.014,-0.099,1.0,0.221,-0.126,0.134,0.042,0.157
55,B2_2,-0.114,0.131,0.115,0.31,0.082,-0.195,0.0,-0.271,-0.07,-0.255,0.221,1.0,0.066,-0.234,0.012,-0.114
55,B2_3,-0.32,-0.056,-0.286,0.018,0.155,0.256,-0.094,-0.3,-0.379,0.004,-0.126,0.066,1.0,-0.356,-0.121,0.197
55,y1,0.045,-0.028,0.008,-0.067,-0.173,0.118,0.173,-0.115,0.289,0.032,0.134,-0.234,-0.356,1.0,0.3,0.24
55,y2,-0.05,-0.225,-0.184,-0.015,0.137,0.14,-0.054,-0.117,-0.117,0.104,0.042,0.012,-0.121,0.3,1.0,0.059
55,y3,-0.025,-0.266,-0.063,-0.256,-0.093,0.022,-0.225,-0.113,0.126,0.137,0.157,-0.114,0.197,0.24,0.059,1.0
56,.,1.0,-0.062,0.126,0.147,-0.5,-0.198,0.069,-0.042,-0.179,0.111,0.25,-0.115,-0.321,0.045,-0.051,-0.025
56,A1_1,-0.062,1.0,0.156,0.119,0.024,-0.085,0.225,-0.117,0.219,-0.164,0.098,0.131,-0.056,-0.027,-0.226,-0.267
56,A1_2,0.126,0.156,1.0,0.116,0.021,-0.104,0.565,0.22,0.171,0.022,0.439,0.115,-0.286,0.007,-0.184,-0.062
56,A1_3,0.147,0.119,0.116,1.0,-0.297,-0.189,0.07,-0.004,0.019,-0.034,0.066,0.31,0.018,-0.066,-0.015,-0.255
56,B1_1,-0.5,0.024,0.021,-0.297,1.0,0.101,0.18,0.04,0.079,0.112,-0.333,0.082,0.155,-0.173,0.137,-0.093
56,B1_2,-0.198,-0.085,-0.104,-0.189,0.101,1.0,0.006,0.185,0.005,0.317,-0.106,-0.195,0.256,0.118,0.14,0.022
56,B1_3,0.069,0.225,0.565,0.07,0.18,0.006,1.0,-0.161,0.157,-0.266,0.102,0.0,-0.094,0.172,-0.054,-0.225
56,A2_1,-0.042,-0.117,0.22,-0.004,0.04,0.185,-0.161,1.0,0.487,0.423,-0.027,-0.271,-0.3,-0.115,-0.117,-0.112
56,A2_2,-0.179,0.219,0.171,0.019,0.079,0.005,0.157,0.487,1.0,-0.01,-0.014,-0.07,-0.379,0.289,-0.117,0.126
56,A2_3,0.111,-0.164,0.022,-0.034,0.112,0.317,-0.266,0.423,-0.01,1.0,-0.099,-0.256,0.004,0.032,0.103,0.138
56,B2_1,0.25,0.098,0.439,0.066,-0.333,-0.106,0.102,-0.027,-0.014,-0.099,1.0,0.221,-0.126,0.133,0.042,0.158
56,B2_2,-0.115,0.131,0.115,0.31,0.082,-0.195,0.0,-0.271,-0.07,-0.256,0.221,1.0,0.066,-0.235,0.012,-0.115
56,B2_3,-0.321,-0.056,-0.286,0.018,0.155,0.256,-0.094,-0.3,-0.379,0.004,-0.126,0.066,1.0,-0.356,-0.121,0.196
56,y1,0.045,-0.027,0.007,-0.066,-0.173,0.118,0.172,-0.115,0.289,0.032,0.133,-0.235,-0.356,1.0,0.3,0.24
56,y2,-0.051,-0.226,-0.184,-0.015,0.137,0.14,-0.054,-0.117,-0.117,0.103,0.042,0.012,-0.121,0.3,1.0,0.059
56,y3,-0.025,-0.267,-0.062,-0.255,-0.093,0.022,-0.225,-0.112,0.126,0.138,0.158,-0.115,0.196,0.24,0.059,1.0
57,.,1.0,-0.063,0.127,0.147,-0.499,-0.199,0.069,-0.042,-0.179,0.11,0.25,-0.113,-0.32,0.045,-0.051,-0.025
57,A1_1,-0.063,1.0,0.157,0.119,0.024,-0.085,0.225,-0.117,0.219,-0.164,0.098,0.131,-0.056,-0.028,-0.227,-0.267
57,A1_2,0.127,0.157,1.0,0.116,0.021,-0.104,0.564,0.22,0.171,0.023,0.439,0.115,-0.286,0.007,-0.183,-0.061
57,A1_3,0.147,0.119,0.116,1.0,-0.297,-0.189,0.07,-0.005,0.018,-0.034,0.066,0.31,0.019,-0.067,-0.016,-0.255
57,B1_1,-0.499,0.024,0.021,-0.297,1.0,0.102,0.18,0.04,0.079,0.111,-0.333,0.082,0.155,-0.173,0.138,-0.094
57,B1_2,-0.199,-0.085,-0.104,-0.189,0.102,1.0,0.006,0.185,0.005,0.317,-0.106,-0.195,0.256,0.118,0.14,0.022
57,B1_3,0.069,0.225,0.564,0.07,0.18,0.006,1.0,-0.162,0.157,-0.266,0.102,0.0,-0.094,0.172,-0.053,-0.225
57,A2_1,-0.042,-0.117,0.22,-0.005,0.04,0.185,-0.162,1.0,0.487,0.423,-0.027,-0.271,-0.3,-0.116,-0.117,-0.111
57,A2_2,-0.179,0.219,0.171,0.018,0.079,0.005,0.157,0.487,1.0,-0.01,-0.014,-0.07,-0.379,0.288,-0.117,0.127
57,A2_3,0.11,-0.164,0.023,-0.034,0.111,0.317,-0.266,0.423,-0.01,1.0,-0.099,-0.256,0.004,0.032,0.103,0.138
57,B2_1,0.25,0.098,0.439,0.066,-0.333,-0.106,0.102,-0.027,-0.014,-0.099,1.0,0.221,-0.126,0.133,0.043,0.158
57,B2_2,-0.113,0.131,0.115,0.31,0.082,-0.195,0.0,-0.271,-0.07,-0.256,0.221,1.0,0.066,-0.235,0.012,-0.116
57,B2_3,-0.32,-0.056,-0.286,0.019,0.155,0.256,-0.094,-0.3,-0.379,0.004,-0.126,0.066,1.0,-0.355,-0.12,0.195
57,y1,0.045,-0.028,0.007,-0.067,-0.173,0.118,0.172,-0.116,0.288,0.032,0.133,-0.235,-0.355,1.0,0.301,0.241
57,y2,-0.051,-0.227,-0.183,-0.016,0.138,0.14,-0.053,-0.117,-0.117,0.103,0.043,0.012,-0.12,0.301,1.0,0.06
57,y3,-0.025,-0.267,-0.061,-0.255,-0.094,0.022,-0.225,-0.111,0.127,0.138,0.158,-0.116,0.195,0.241,0.06,1.0
58,.,1.0,-0.062,0.128,0.147,-0.498,-0.199,0.069,-0.042,-0.178,0.111,0.25,-0.112,-0.321,0.045,-0.051,-0.026
58,A1_1,-0.062,1.0,0.158,0.119,0.024,-0.085,0.225,-0.116,0.22,-0.164,0.098,0.131,-0.057,-0.028,-0.227,-0.267
58,A1_2,0.128,0.158,1.0,0.117,0.02,-0.104,0.564,0.222,0.172,0.024,0.439,0.115,-0.286,0.006,-0.184,-0.062
58,A1_3,0.147,0.119,0.117,1.0,-0.297,-0.189,0.07,-0.005,0.019,-0.034,0.066,0.31,0.019,-0.066,-0.016,-0.255
58,B1_1,-0.498,0.024,0.02,-0.297,1.0,0.102,0.18,0.04,0.079,0.111,-0.333,0.082,0.156,-0.173,0.138,-0.094
58,B1_2,-0.199,-0.085,-0.104,-0.189,0.102,1.0,0.006,0.184,0.005,0.316,-0.106,-0.195,0.256,0.117,0.141,0.022
58,B1_3,0.069,0.225,0.564,0.07,0.18,0.006,1.0,-0.162,0.157,-0.266,0.102,0.0,-0.094,0.171,-0.054,-0.225
58,A2_1,-0.042,-0.116,0.222,-0.005,0.04,0.184,-0.162,1.0,0.487,0.423,-0.027,-0.271,-0.3,-0.117,-0.117,-0.111
